~o
<STREAMINFO> 1 39
<VECSIZE> 39<NULLD><MFCC_D_A_0><DIAGC>
~s "silst"
<MEAN> 39
 -1.301120e+01 1.281647e+00 -5.348064e-01 3.955073e+00 4.853766e+00 4.615432e+00 3.592842e+00 3.182068e+00 -7.463551e-01 1.578270e+00 4.106518e+00 4.603354e+00 4.252861e+01 -2.457588e-01 8.946997e-03 4.535060e-02 1.536838e-01 1.541930e-01 3.552920e-01 1.992694e-01 1.860226e-01 2.164663e-01 1.787575e-01 8.414737e-02 -2.955308e-03 -2.602905e-01 5.912679e-02 -2.025812e-02 7.762112e-02 -2.355085e-02 2.803491e-02 -1.425586e-01 -3.514272e-02 -5.906983e-02 -7.383694e-02 -8.148252e-02 -5.546678e-02 -4.482519e-02 1.617932e-01
<VARIANCE> 39
 1.519379e+01 5.509941e+01 1.963109e+01 2.235661e+01 1.668527e+01 2.141797e+01 2.375748e+01 2.200659e+01 3.090872e+01 2.117718e+01 1.861442e+01 1.936578e+01 3.115242e+01 1.023323e+00 2.454739e+00 1.869007e+00 1.615304e+00 1.506691e+00 1.770901e+00 1.899293e+00 1.891215e+00 2.157027e+00 1.702402e+00 1.522960e+00 1.403104e+00 1.296876e+00 1.980660e-01 3.558409e-01 3.111608e-01 3.009073e-01 2.905505e-01 3.509942e-01 3.516923e-01 3.579227e-01 3.802507e-01 3.352906e-01 2.790352e-01 2.580124e-01 2.593207e-01
<GCONST> 1.036292e+02
~h "A"
<BEGINHMM>
<NUMSTATES> 5
<STATE> 2
<MEAN> 39
 -4.764588e-01 1.015341e+00 5.593852e+00 -3.207048e+00 -2.007424e+00 -1.627830e+01 4.240098e+00 8.194148e+00 -4.141175e-01 -1.463800e+01 9.397527e-01 3.588894e+00 6.565364e+01 2.616647e+00 3.935621e-03 -5.119352e-01 6.363851e-02 -2.035862e+00 -5.202593e+00 -1.042648e+00 2.499182e+00 -2.213698e-01 -1.938544e+00 9.085426e-01 -4.249946e-01 2.037552e+00 -5.888211e-01 -4.832501e-01 -3.292080e-01 2.020357e-01 1.335552e-01 5.839179e-01 1.179932e-01 -3.172755e-01 -4.737810e-02 4.809381e-01 2.000984e-01 4.557475e-02 -2.702672e-01
<VARIANCE> 39
 2.564490e+01 2.281615e+01 2.816525e+01 3.175340e+01 6.947902e+01 1.041208e+02 6.936396e+01 5.467626e+01 6.862399e+01 6.380791e+01 3.288071e+01 2.292345e+01 4.832533e+01 3.373605e+00 5.268150e+00 3.264215e+00 4.259615e+00 4.580114e+00 7.680078e+00 7.384009e+00 5.412797e+00 4.686665e+00 5.086809e+00 3.223697e+00 3.427209e+00 3.194805e+00 7.005922e-01 7.335649e-01 5.389016e-01 5.087006e-01 6.752903e-01 1.628773e+00 8.550012e-01 6.945761e-01 9.202837e-01 9.181979e-01 5.930573e-01 6.153401e-01 7.771397e-01
<GCONST> 1.365392e+02
<STATE> 3
<MEAN> 39
 2.451846e+00 -2.108072e+00 3.688736e+00 -2.466534e+00 -6.640296e+00 -2.607304e+01 3.851935e+00 1.315710e+01 -1.500622e+00 -1.678986e+01 4.329302e+00 2.917715e+00 7.010406e+01 3.563585e-01 -4.291669e-01 -4.929990e-01 9.783434e-02 -7.075427e-01 -1.240784e+00 3.392849e-01 6.508002e-01 -1.862566e-01 -8.754949e-02 4.244337e-01 -2.289447e-01 4.126938e-01 -5.366542e-01 3.378917e-01 1.646504e-01 7.982998e-02 6.877352e-01 1.723127e+00 2.239327e-01 -8.454064e-01 4.435123e-02 5.363883e-01 -4.303654e-01 1.003651e-02 -7.333457e-01
<VARIANCE> 39
 8.542894e+00 1.644025e+01 2.754712e+01 2.659000e+01 6.918900e+01 7.450923e+01 7.237122e+01 5.406046e+01 5.688194e+01 4.696342e+01 3.072162e+01 2.149075e+01 1.179451e+01 6.398637e-01 1.495606e+00 1.708516e+00 1.894105e+00 2.981793e+00 5.276017e+00 3.809491e+00 3.132148e+00 3.395975e+00 2.928642e+00 2.636677e+00 1.766407e+00 1.216030e+00 3.051219e-01 3.513058e-01 3.680203e-01 4.335989e-01 4.226691e-01 9.521195e-01 8.297239e-01 5.870302e-01 6.564014e-01 7.867553e-01 4.835668e-01 4.492798e-01 2.227941e-01
<GCONST> 1.178982e+02
<STATE> 4
<MEAN> 39
 1.749298e+00 -2.072670e-01 3.632680e+00 -1.802825e+00 -6.439165e+00 -2.350662e+01 6.276381e+00 1.029812e+01 -2.394497e+00 -1.569846e+01 2.592885e+00 2.575247e+00 6.837460e+01 -1.063588e-01 1.020418e+00 -1.588278e-01 3.939358e-01 1.335888e+00 2.836312e+00 -2.885000e-01 -1.021183e+00 -1.390941e-01 6.963223e-01 -8.256337e-01 -1.083589e-01 -1.655655e+00 -1.671675e-01 1.594876e-01 4.506243e-02 1.736740e-01 4.011057e-01 8.188608e-01 -2.168862e-01 -1.726770e-01 3.918097e-02 3.866871e-01 -1.185800e-01 -8.184227e-04 -5.636092e-01
<VARIANCE> 39
 1.046273e+01 1.904674e+01 3.361684e+01 3.180102e+01 7.275661e+01 8.219225e+01 7.728116e+01 4.734806e+01 5.352625e+01 4.812389e+01 3.695716e+01 2.422186e+01 2.078781e+01 1.186492e+00 1.704073e+00 1.971618e+00 2.423889e+00 3.634676e+00 5.198379e+00 3.988696e+00 3.704201e+00 4.091185e+00 3.842227e+00 3.007172e+00 2.530125e+00 2.686539e+00 2.501038e-01 3.092286e-01 3.817749e-01 3.633869e-01 5.245709e-01 1.006825e+00 8.004050e-01 6.543946e-01 7.282454e-01 6.648826e-01 5.408813e-01 4.584464e-01 3.145735e-01
<GCONST> 1.231093e+02
<TRANSP> 5
 0.000000e+00 1.000000e+00 0.000000e+00 0.000000e+00 0.000000e+00
 0.000000e+00 4.148860e-01 5.851141e-01 0.000000e+00 0.000000e+00
 0.000000e+00 0.000000e+00 5.953916e-01 4.046083e-01 0.000000e+00
 0.000000e+00 0.000000e+00 0.000000e+00 6.157815e-01 3.842185e-01
 0.000000e+00 0.000000e+00 0.000000e+00 0.000000e+00 0.000000e+00
<ENDHMM>
~h "B"
<BEGINHMM>
<NUMSTATES> 5
<STATE> 2
<MEAN> 39
 3.233095e+00 6.135699e+00 3.705913e+00 8.150673e+00 3.763323e+00 -5.333090e+00 1.863291e+00 8.731349e+00 -4.177605e+00 -8.694750e+00 5.983450e-01 1.423542e+00 5.406078e+01 2.367300e-01 2.006157e+00 3.359354e-01 1.734200e+00 -7.388476e-01 1.963587e+00 3.869380e-01 7.046471e-01 1.240389e+00 2.338140e+00 -2.402164e-01 -4.658760e-01 -2.769443e+00 -5.067939e-01 -3.786243e-01 1.493160e-01 -4.956083e-01 1.465634e-01 -6.726343e-01 -2.935982e-02 -5.567272e-01 -9.810467e-02 -4.814094e-01 8.956584e-02 7.546218e-02 8.863964e-01
<VARIANCE> 39
 2.242771e+01 1.957268e+01 1.820587e+01 3.506811e+01 4.845188e+01 6.189029e+01 3.416260e+01 4.168454e+01 4.632751e+01 3.769664e+01 2.408383e+01 1.952037e+01 2.694345e+01 1.749704e+00 1.131017e+00 1.200909e+00 2.222242e+00 3.078855e+00 4.751759e+00 3.030280e+00 2.948768e+00 3.051315e+00 3.888413e+00 2.329148e+00 1.880905e+00 3.106739e+00 2.620168e-01 2.042350e-01 2.161856e-01 4.185498e-01 3.983115e-01 6.026478e-01 4.594382e-01 5.001089e-01 4.014278e-01 5.831715e-01 4.008600e-01 2.846370e-01 3.459483e-01
<GCONST> 1.151094e+02
<STATE> 3
<MEAN> 39
 1.744446e+00 1.129443e+01 5.855447e+00 1.066128e+01 3.389009e+00 -3.354402e+00 2.749961e+00 8.267274e+00 -1.295726e+00 -5.329125e+00 -5.468262e-01 -5.758160e-01 5.011919e+01 -6.962662e-01 1.298410e-01 3.468934e-01 -4.537615e-01 -2.361263e-01 -3.400147e-01 5.460427e-01 -6.667396e-01 3.929373e-01 -8.836156e-02 -3.561236e-01 5.233332e-02 5.042622e-01 -2.390189e-01 -1.019330e+00 -1.436875e-01 -7.486852e-01 2.206843e-01 -9.867303e-01 -2.052022e-01 -3.516541e-01 -4.214493e-01 -9.695777e-01 1.271972e-01 3.015620e-01 1.336661e+00
<VARIANCE> 39
 1.196187e+01 2.186239e+01 1.724015e+01 2.472608e+01 3.067947e+01 3.953858e+01 2.493461e+01 3.556649e+01 3.109557e+01 2.595252e+01 2.114023e+01 2.096635e+01 1.598287e+01 2.863347e+00 2.128515e+00 1.190154e+00 2.604710e+00 2.633961e+00 4.976259e+00 2.345216e+00 3.440872e+00 2.530491e+00 3.242297e+00 1.804321e+00 1.725958e+00 3.025709e+00 3.138097e-01 3.544724e-01 2.839786e-01 4.311051e-01 7.351272e-01 1.163440e+00 6.468245e-01 7.169305e-01 6.531973e-01 7.349599e-01 5.469776e-01 3.927106e-01 6.764271e-01
<GCONST> 1.168103e+02
<STATE> 4
<MEAN> 39
 -1.401933e+00 6.841894e+00 5.617380e+00 5.544880e+00 3.871705e+00 -5.186594e+00 4.518377e+00 4.076203e+00 -1.738219e+00 -8.533118e+00 -1.735206e+00 1.215808e+00 5.637583e+01 -3.682431e-01 -2.541201e+00 -3.391767e-01 -1.536345e+00 3.643326e-01 -3.524713e+00 -8.388969e-01 -9.583219e-01 -1.213398e+00 -2.650626e+00 5.475440e-01 7.570682e-01 3.982945e+00 3.134483e-01 -5.374842e-01 -1.256113e-01 1.243191e-01 1.243494e-01 -9.856878e-01 -6.256569e-01 3.010448e-01 -3.607126e-01 -4.302708e-01 5.140975e-01 3.678622e-02 6.495783e-01
<VARIANCE> 39
 2.090071e+01 2.382341e+01 1.849694e+01 2.476557e+01 4.341716e+01 7.893826e+01 2.327837e+01 4.325790e+01 4.360981e+01 3.848756e+01 1.686486e+01 1.664237e+01 3.679277e+01 1.884905e+00 3.579449e+00 2.564343e+00 3.473118e+00 9.590137e+00 1.193571e+01 4.703057e+00 7.323194e+00 6.974144e+00 4.838501e+00 4.395311e+00 2.682577e+00 3.532430e+00 3.785073e-01 4.654311e-01 3.970976e-01 5.613495e-01 7.641760e-01 1.323456e+00 8.641236e-01 9.413273e-01 7.130234e-01 9.451908e-01 6.303985e-01 4.438370e-01 6.361991e-01
<GCONST> 1.298075e+02
<TRANSP> 5
 0.000000e+00 1.000000e+00 0.000000e+00 0.000000e+00 0.000000e+00
 0.000000e+00 4.849595e-01 5.150405e-01 0.000000e+00 0.000000e+00
 0.000000e+00 0.000000e+00 5.896616e-01 4.103384e-01 0.000000e+00
 0.000000e+00 0.000000e+00 0.000000e+00 4.576278e-01 5.423722e-01
 0.000000e+00 0.000000e+00 0.000000e+00 0.000000e+00 0.000000e+00
<ENDHMM>
~h "C"
<BEGINHMM>
<NUMSTATES> 5
<STATE> 2
<MEAN> 39
 -1.472871e+01 -5.352880e-02 9.455399e+00 -9.319763e-01 4.736133e+00 -1.795183e+00 4.945361e+00 -2.700428e+00 -2.770731e+00 -3.085885e+00 7.326025e-01 2.576451e+00 5.526093e+01 -2.365378e+00 -2.337047e+00 5.051300e-01 -3.346579e-01 -9.283826e-01 1.871260e-01 -1.556934e-01 4.191007e-01 9.680850e-01 3.060334e-01 3.464939e-01 2.630062e-01 4.321132e-01 -1.127639e-01 -7.882128e-01 1.426471e-01 1.698526e-01 3.035047e-02 -2.963462e-01 -1.445182e-01 -5.467658e-02 -1.288024e-01 -4.888272e-01 3.056764e-01 3.031779e-02 1.033929e+00
<VARIANCE> 39
 3.776652e+01 5.194916e+01 4.763413e+01 4.808755e+01 4.787455e+01 4.539900e+01 4.313891e+01 5.750222e+01 4.756349e+01 4.001998e+01 2.615094e+01 3.027864e+01 5.595144e+01 5.081812e+00 6.626870e+00 6.126340e+00 4.187578e+00 4.655547e+00 4.142586e+00 5.236258e+00 4.663782e+00 4.038509e+00 5.166380e+00 2.767617e+00 2.552564e+00 9.544323e+00 9.027376e-01 8.958952e-01 1.248669e+00 8.016277e-01 8.685325e-01 7.165316e-01 1.004873e+00 1.032337e+00 7.448115e-01 7.564055e-01 5.077832e-01 4.722070e-01 1.145886e+00
<GCONST> 1.383970e+02
<STATE> 3
<MEAN> 39
 -2.656171e+01 -1.548735e+01 1.448012e+01 -5.625531e-01 1.813338e+00 -3.045891e+00 3.616014e+00 -3.050889e+00 5.710603e-01 -5.146441e+00 4.868545e+00 3.568868e+00 6.701623e+01 -5.314016e-01 -1.473603e+00 6.299708e-01 6.204044e-01 1.007462e+00 9.955464e-02 -6.891726e-01 -1.608657e+00 -2.908432e-01 -2.539321e-01 8.587412e-01 1.238375e-01 2.346923e+00 2.117509e+00 1.555955e+00 -6.958264e-01 2.512282e-01 7.919939e-01 -1.159999e-01 -2.995185e-01 -3.168827e-01 -9.321296e-01 -1.040779e-01 -2.537881e-01 -1.649009e-01 -7.910947e-01
<VARIANCE> 39
 1.944989e+01 2.378870e+01 2.277984e+01 2.999236e+01 2.267474e+01 2.009554e+01 3.319683e+01 3.626418e+01 2.676474e+01 3.334197e+01 2.224645e+01 2.293268e+01 1.638602e+01 1.005995e+01 6.639382e+00 3.623872e+00 2.778728e+00 3.728252e+00 2.912012e+00 3.085577e+00 2.987061e+00 3.858422e+00 2.706296e+00 2.489588e+00 1.911270e+00 3.810366e+00 9.099597e-01 6.051177e-01 8.250585e-01 5.139548e-01 5.765510e-01 6.921153e-01 8.607022e-01 8.137335e-01 8.419743e-01 6.070004e-01 4.772565e-01 4.196265e-01 3.988429e-01
<GCONST> 1.238136e+02
<STATE> 4
<MEAN> 39
 -1.335241e+01 -9.834731e+00 1.237017e+01 3.148995e+00 9.375304e+00 -2.572870e+00 2.700140e-02 -8.866213e+00 -6.337628e+00 -8.136820e+00 4.085136e+00 3.321474e+00 6.768173e+01 6.086004e+00 2.419529e+00 -1.974355e+00 7.077644e-01 1.642441e+00 -2.075233e+00 -1.098121e+00 -1.237929e-01 -3.512062e+00 -1.810050e+00 3.128549e-01 -4.985164e-01 2.111553e-01 1.729823e-01 1.254008e-01 -6.225279e-01 -2.998542e-01 -6.288837e-01 -8.319100e-01 2.288085e-01 9.840135e-01 1.014838e-01 -1.472604e-01 1.029137e-01 -5.908746e-02 -2.797541e-01
<VARIANCE> 39
 1.047783e+02 2.863473e+01 2.676710e+01 3.496495e+01 3.553629e+01 4.037984e+01 3.327099e+01 2.909468e+01 4.907902e+01 5.148900e+01 2.446612e+01 2.612046e+01 1.393523e+01 4.636933e+00 3.310571e+00 4.029608e+00 3.452040e+00 3.633916e+00 6.131247e+00 5.435081e+00 4.723873e+00 4.482487e+00 4.823647e+00 3.536891e+00 3.178278e+00 1.335754e+00 2.331054e+00 7.660103e-01 5.963661e-01 3.697290e-01 5.897482e-01 8.043883e-01 7.588043e-01 5.929046e-01 1.203350e+00 5.872948e-01 4.827987e-01 4.033402e-01 3.382899e-01
<GCONST> 1.295507e+02
<TRANSP> 5
 0.000000e+00 1.000000e+00 0.000000e+00 0.000000e+00 0.000000e+00
 0.000000e+00 7.818075e-01 2.181925e-01 0.000000e+00 0.000000e+00
 0.000000e+00 0.000000e+00 6.577163e-01 3.422838e-01 0.000000e+00
 0.000000e+00 0.000000e+00 0.000000e+00 5.353618e-01 4.646382e-01
 0.000000e+00 0.000000e+00 0.000000e+00 0.000000e+00 0.000000e+00
<ENDHMM>
~h "D"
<BEGINHMM>
<NUMSTATES> 5
<STATE> 2
<MEAN> 39
 3.395939e-01 9.524593e+00 7.437660e+00 8.137104e+00 4.616206e+00 -8.106386e-01 2.515316e+00 4.568717e+00 -4.450558e+00 -6.294976e+00 -6.163144e-02 1.237244e+00 5.149515e+01 1.871077e-01 1.471083e+00 -2.198470e-01 1.068211e+00 -4.174087e-01 9.923697e-01 1.460429e-02 4.130358e-01 6.323130e-01 1.337078e+00 -2.177124e-01 -1.441123e-01 -1.927302e+00 -7.130443e-01 -8.852433e-01 3.061316e-02 -6.222633e-01 2.630410e-01 -4.345363e-01 5.986408e-02 -8.419396e-01 -2.745126e-01 -5.393984e-01 7.268342e-02 9.284057e-02 1.290335e+00
<VARIANCE> 39
 2.090867e+01 2.481732e+01 1.934244e+01 2.784135e+01 5.921029e+01 4.683231e+01 4.948280e+01 5.238330e+01 3.802246e+01 3.678472e+01 3.100918e+01 2.114915e+01 2.412980e+01 2.971550e+00 1.750517e+00 1.625968e+00 2.185400e+00 2.619827e+00 3.124204e+00 3.159873e+00 3.621845e+00 2.462283e+00 3.631552e+00 2.138844e+00 1.504796e+00 4.042315e+00 4.740026e-01 4.567247e-01 3.416920e-01 4.219832e-01 5.805311e-01 4.840084e-01 6.338691e-01 8.911572e-01 4.552014e-01 5.715020e-01 5.183397e-01 3.973098e-01 8.725891e-01
<GCONST> 1.207610e+02
<STATE> 3
<MEAN> 39
 -1.245209e+00 1.126299e+01 7.392237e+00 8.434181e+00 4.943309e+00 3.982358e-01 3.459281e+00 2.939622e+00 -3.578110e+00 -4.980339e+00 -8.160264e-01 8.725458e-01 5.019865e+01 -2.558200e+00 -2.167900e+00 3.002565e-01 -1.209110e+00 7.206135e-01 2.549826e-01 6.050186e-01 -2.844174e+00 -3.376618e-01 -1.541357e-01 -1.746469e-01 2.897764e-01 3.036996e+00 -2.077829e-01 -1.400814e+00 8.932254e-02 -6.278945e-01 5.396428e-01 -9.376502e-01 -4.765249e-01 -6.829368e-01 -7.093958e-01 -1.082274e+00 3.322814e-01 2.054733e-01 1.902519e+00
<VARIANCE> 39
 2.006800e+01 2.135085e+01 1.847719e+01 2.499648e+01 4.384511e+01 3.443590e+01 3.608489e+01 4.659655e+01 3.045536e+01 3.085924e+01 2.745654e+01 1.934901e+01 2.401024e+01 2.067991e+00 3.599421e+00 1.924614e+00 2.825185e+00 4.046680e+00 3.927016e+00 5.040623e+00 5.051288e+00 3.952824e+00 3.870741e+00 2.958255e+00 2.546910e+00 4.973085e+00 5.106783e-01 3.775067e-01 3.637205e-01 4.878697e-01 7.280351e-01 9.238049e-01 8.895708e-01 8.986893e-01 6.132227e-01 8.120997e-01 7.075305e-01 5.264958e-01 4.891547e-01
<GCONST> 1.245788e+02
<STATE> 4
<MEAN> 39
 -9.195817e+00 1.064313e+00 8.435560e+00 3.154813e+00 7.895830e+00 1.301417e-01 4.352575e+00 -6.905452e+00 -5.921010e+00 -7.666851e+00 -9.154585e-01 2.352998e+00 6.439037e+01 -5.812836e-01 -3.292872e+00 1.902340e-01 -1.319013e+00 1.636210e+00 -2.309262e+00 -1.729951e+00 -2.020641e+00 -1.925228e+00 -2.729974e+00 6.979995e-01 6.149702e-01 4.529432e+00 1.080405e+00 2.219528e-01 -1.351959e-01 2.910245e-01 1.045463e-01 -9.285161e-01 -7.403787e-01 1.057465e+00 -1.500787e-01 -4.522209e-01 3.416384e-01 -5.994275e-02 -4.985252e-01
<VARIANCE> 39
 1.916414e+01 2.137267e+01 1.633250e+01 2.671530e+01 3.602304e+01 3.253168e+01 5.020136e+01 4.251318e+01 4.400535e+01 4.592753e+01 2.236827e+01 1.858261e+01 5.147193e+01 3.425132e+00 3.510911e+00 2.376453e+00 3.343051e+00 6.363103e+00 7.441542e+00 6.912404e+00 7.114553e+00 4.446605e+00 6.783674e+00 5.122422e+00 3.831582e+00 5.058079e+00 4.054124e-01 7.586925e-01 4.068424e-01 6.706181e-01 6.740335e-01 1.027282e+00 1.140605e+00 1.003650e+00 1.046348e+00 1.027372e+00 6.969827e-01 4.851134e-01 1.156372e+00
<GCONST> 1.328254e+02
<TRANSP> 5
 0.000000e+00 1.000000e+00 0.000000e+00 0.000000e+00 0.000000e+00
 0.000000e+00 5.875490e-01 4.124510e-01 0.000000e+00 0.000000e+00
 0.000000e+00 0.000000e+00 4.026780e-01 5.973220e-01 0.000000e+00
 0.000000e+00 0.000000e+00 0.000000e+00 4.712827e-01 5.287173e-01
 0.000000e+00 0.000000e+00 0.000000e+00 0.000000e+00 0.000000e+00
<ENDHMM>
~h "E"
<BEGINHMM>
<NUMSTATES> 5
<STATE> 2
<MEAN> 39
 -2.860514e+00 -4.016980e+00 5.119062e+00 6.416619e+00 1.756296e+01 -1.455660e+01 -5.758946e+00 -6.704214e+00 -1.613565e+01 -9.999768e+00 7.443926e+00 9.026684e-01 6.841318e+01 8.894866e-01 -6.470875e-01 -5.510288e-02 3.612885e-01 9.909503e-01 -2.493403e+00 -1.315470e+00 -5.063897e-01 -1.883684e+00 -4.694217e-01 1.301865e+00 -3.255142e-01 1.360936e+00 -4.212336e-01 2.591210e-01 2.364858e-02 -1.380245e-01 -7.413381e-01 9.966035e-01 5.166302e-01 3.169393e-01 1.005060e+00 4.660036e-01 -5.307480e-01 -2.073407e-02 -8.257199e-01
<VARIANCE> 39
 1.645258e+01 1.726326e+01 3.423108e+01 4.508207e+01 2.992861e+01 6.076640e+01 6.559522e+01 5.276504e+01 6.343328e+01 7.396117e+01 3.704258e+01 3.376844e+01 3.209601e+01 2.870862e+00 2.786204e+00 2.609999e+00 3.009322e+00 3.152880e+00 6.253764e+00 5.452586e+00 3.886150e+00 5.005796e+00 5.692625e+00 3.517328e+00 2.729899e+00 3.997996e+00 5.601788e-01 5.929272e-01 5.252813e-01 5.454468e-01 5.542527e-01 1.033010e+00 9.864708e-01 7.076969e-01 8.757381e-01 8.150185e-01 8.041362e-01 5.666160e-01 6.171612e-01
<GCONST> 1.316747e+02
<STATE> 3
<MEAN> 39
 -2.729230e+00 -4.765772e+00 6.173344e+00 6.540765e+00 1.648858e+01 -1.653983e+01 -7.099933e+00 -8.080997e+00 -1.646622e+01 -7.411262e+00 6.966373e+00 -2.707599e-01 6.836340e+01 -5.467118e-02 8.167527e-01 1.244213e-01 -1.520300e-01 -6.198645e-01 1.117451e+00 4.264259e-01 1.216798e-01 6.812530e-01 4.622656e-01 -6.279403e-01 1.606676e-02 -1.237271e+00 -1.278213e-01 3.221394e-01 -1.484594e-02 7.985043e-02 -2.944483e-01 6.692092e-01 3.128051e-01 2.447583e-01 5.014442e-01 1.308089e-01 -3.244396e-01 4.251462e-02 -5.976410e-01
<VARIANCE> 39
 9.820147e+00 1.580824e+01 2.781686e+01 4.655651e+01 2.819807e+01 5.298720e+01 7.054456e+01 5.367052e+01 5.120158e+01 8.737847e+01 3.592999e+01 3.562773e+01 2.139091e+01 7.943015e-01 1.480894e+00 1.554528e+00 1.767880e+00 1.804178e+00 3.288947e+00 3.391675e+00 2.543232e+00 2.848194e+00 2.805087e+00 2.115782e+00 1.688271e+00 2.134705e+00 2.143868e-01 2.249157e-01 2.766403e-01 3.674437e-01 3.719222e-01 5.828422e-01 6.413246e-01 4.575368e-01 5.926229e-01 5.812761e-01 4.846839e-01 3.546697e-01 2.491423e-01
<GCONST> 1.149894e+02
<STATE> 4
<MEAN> 39
 -5.282485e+00 2.059427e+00 5.065442e+00 6.415388e+00 1.130920e+01 -7.148713e+00 -3.901085e+00 -6.720707e+00 -9.879718e+00 -3.477210e+00 3.334369e+00 9.090617e-01 5.606699e+01 -7.920599e-01 8.832019e-01 -2.413858e-01 1.658294e-01 -1.219888e+00 2.036393e+00 7.265924e-01 9.305924e-01 1.811953e+00 7.098880e-01 -6.135815e-01 1.855253e-01 -2.342111e+00 -2.134493e-01 -3.888056e-01 9.388906e-03 -1.712196e-01 1.578994e-02 -2.131198e-01 8.708741e-03 6.924114e-02 1.116759e-02 -1.128386e-01 7.118226e-02 -3.034003e-02 4.461384e-01
<VARIANCE> 39
 2.984362e+01 2.503610e+01 3.312574e+01 4.291568e+01 4.217471e+01 5.376621e+01 6.134254e+01 4.989547e+01 5.159765e+01 7.943984e+01 3.279320e+01 3.009403e+01 7.719813e+01 2.634127e+00 2.519688e+00 2.924206e+00 3.283905e+00 3.217345e+00 4.298981e+00 5.080542e+00 3.689696e+00 3.661619e+00 4.103686e+00 3.200555e+00 2.317207e+00 3.975101e+00 4.393045e-01 4.085690e-01 4.993241e-01 5.945288e-01 6.008314e-01 6.969810e-01 8.490009e-01 6.279621e-01 6.128216e-01 6.369188e-01 4.868225e-01 4.057532e-01 7.485549e-01
<GCONST> 1.293877e+02
<TRANSP> 5
 0.000000e+00 1.000000e+00 0.000000e+00 0.000000e+00 0.000000e+00
 0.000000e+00 5.509555e-01 4.490445e-01 0.000000e+00 0.000000e+00
 0.000000e+00 0.000000e+00 7.140360e-01 2.859640e-01 0.000000e+00
 0.000000e+00 0.000000e+00 0.000000e+00 5.783117e-01 4.216882e-01
 0.000000e+00 0.000000e+00 0.000000e+00 0.000000e+00 0.000000e+00
<ENDHMM>
~h "G"
<BEGINHMM>
<NUMSTATES> 5
<STATE> 2
<MEAN> 39
 -1.851425e+00 7.295435e+00 5.370074e+00 8.415182e+00 8.891857e+00 -4.831916e+00 6.846946e-02 2.067430e+00 -4.428303e+00 -4.426516e+00 2.549987e+00 -1.887556e+00 5.324155e+01 -4.369534e-01 1.260518e+00 2.791180e-01 2.743388e-01 -2.454059e-01 9.540219e-01 3.431589e-01 -4.547625e-01 5.447044e-01 8.535787e-01 -4.360809e-01 -3.555196e-01 -1.096069e+00 -2.555485e-01 -7.330475e-01 8.634087e-02 -6.024908e-01 5.258416e-02 -5.266879e-01 1.312632e-01 -2.176925e-01 -3.553632e-01 -6.873171e-01 7.262763e-02 1.637527e-01 1.131305e+00
<VARIANCE> 39
 3.793190e+01 3.041165e+01 2.992686e+01 5.479179e+01 5.301365e+01 5.995077e+01 6.829848e+01 5.208170e+01 6.226669e+01 5.480297e+01 4.279263e+01 2.928099e+01 3.967910e+01 2.491416e+00 2.170758e+00 2.057528e+00 3.256023e+00 3.308925e+00 3.484917e+00 5.885387e+00 3.491700e+00 3.951560e+00 3.287149e+00 2.751751e+00 2.612860e+00 2.962774e+00 5.755612e-01 4.854646e-01 3.784494e-01 7.399907e-01 6.437612e-01 6.122925e-01 1.130970e+00 7.185241e-01 6.860984e-01 6.793731e-01 6.053521e-01 5.122627e-01 4.798396e-01
<GCONST> 1.296462e+02
<STATE> 3
<MEAN> 39
 -2.722480e+00 9.183148e+00 7.314784e+00 8.169666e+00 9.767510e+00 -3.918239e+00 -1.796849e-02 -2.073210e-01 -3.367101e+00 -3.267562e+00 9.182295e-01 -3.604032e+00 5.331163e+01 -1.090210e+00 -6.624502e-01 -1.124661e-01 -1.686338e+00 -3.134243e-01 -3.002827e-01 1.522480e+00 -5.769134e-01 -3.651930e-01 -8.887696e-01 3.530089e-02 3.654985e-02 1.801785e+00 -9.166890e-02 -9.471325e-01 -7.191919e-02 -5.014228e-01 -5.647250e-02 -5.961436e-01 -2.867243e-02 1.786206e-01 -3.097166e-01 -8.312719e-01 2.068793e-01 3.627784e-01 1.055068e+00
<VARIANCE> 39
 2.390027e+01 3.372385e+01 2.741950e+01 5.128289e+01 4.750906e+01 5.029596e+01 5.589399e+01 4.558145e+01 5.531614e+01 5.010018e+01 3.669800e+01 2.726445e+01 3.685355e+01 4.771093e+00 3.330021e+00 3.196185e+00 6.007763e+00 5.037785e+00 5.076893e+00 1.002783e+01 5.090316e+00 5.265665e+00 4.156543e+00 4.361856e+00 3.597663e+00 3.226290e+00 6.494413e-01 4.023710e-01 4.929291e-01 8.042138e-01 6.336329e-01 8.284814e-01 1.432552e+00 7.682391e-01 7.492940e-01 7.889374e-01 6.049045e-01 5.329765e-01 6.057492e-01
<GCONST> 1.346125e+02
<STATE> 4
<MEAN> 39
 -7.115886e+00 4.830893e+00 5.678802e+00 1.175906e-03 7.407622e+00 -5.001598e+00 6.835392e+00 -6.353765e-03 -4.784027e+00 -8.539413e+00 2.178366e+00 -1.755905e+00 6.122454e+01 -4.457000e-02 -1.971366e+00 4.265148e-01 -1.084242e+00 -1.644573e-01 -1.571151e+00 -6.571389e-01 -4.949113e-03 -7.453879e-01 -2.222039e+00 -1.242081e-01 9.453923e-01 2.628257e+00 8.392138e-01 -3.197868e-01 1.364036e-01 7.170480e-01 1.906403e-01 -6.309192e-01 -1.264129e+00 2.622124e-01 -3.848476e-02 -2.833409e-01 -8.743858e-02 2.577527e-01 -9.176922e-04
<VARIANCE> 39
 2.456424e+01 4.161587e+01 3.351146e+01 7.044115e+01 8.455404e+01 6.115360e+01 7.939012e+01 6.658031e+01 7.159148e+01 5.275181e+01 3.531207e+01 2.692459e+01 3.369662e+01 3.669427e+00 3.125401e+00 3.465153e+00 6.224883e+00 5.595046e+00 6.268763e+00 9.502736e+00 5.447660e+00 5.388492e+00 5.132856e+00 4.657904e+00 3.661493e+00 3.246139e+00 4.861117e-01 5.927256e-01 7.113376e-01 1.220638e+00 8.540431e-01 1.139155e+00 1.824083e+00 9.501855e-01 9.712640e-01 8.156490e-01 8.411530e-01 5.648555e-01 5.928933e-01
<GCONST> 1.400945e+02
<TRANSP> 5
 0.000000e+00 1.000000e+00 0.000000e+00 0.000000e+00 0.000000e+00
 0.000000e+00 4.207847e-01 5.792153e-01 0.000000e+00 0.000000e+00
 0.000000e+00 0.000000e+00 3.499518e-01 6.500482e-01 0.000000e+00
 0.000000e+00 0.000000e+00 0.000000e+00 4.437228e-01 5.562772e-01
 0.000000e+00 0.000000e+00 0.000000e+00 0.000000e+00 0.000000e+00
<ENDHMM>
~h "H"
<BEGINHMM>
<NUMSTATES> 5
<STATE> 2
<MEAN> 39
 -5.740737e+00 -2.951061e-01 7.436139e+00 -3.858292e+00 4.851299e+00 -3.563235e+00 1.102556e+01 6.082422e+00 1.057188e+00 -7.553339e+00 2.613450e+00 5.425225e+00 6.309846e+01 -7.732720e-01 -8.062515e-01 -3.396628e-02 -8.468401e-01 -4.579172e-01 1.940971e+00 1.813273e+00 8.408678e-01 1.558133e+00 1.130503e+00 -4.992585e-01 3.705835e-01 -6.973760e-01 2.614751e-01 -9.563251e-02 -1.877625e-01 1.713691e-01 -1.477476e-01 -6.775880e-01 -4.716223e-01 -5.506093e-02 -4.002778e-01 -3.358645e-01 6.657985e-02 -2.392181e-01 2.371794e-01
<VARIANCE> 39
 1.544696e+01 2.644202e+01 3.095750e+01 2.527249e+01 9.067449e+01 5.430023e+01 4.856359e+01 7.386469e+01 5.942625e+01 4.745311e+01 3.057382e+01 2.525023e+01 2.553498e+01 1.192659e+00 2.149319e+00 3.130832e+00 2.408376e+00 4.366241e+00 4.574274e+00 4.392940e+00 4.539669e+00 4.025651e+00 4.103352e+00 2.699142e+00 2.446465e+00 1.253919e+00 1.456763e-01 4.150837e-01 3.766505e-01 3.112811e-01 4.682089e-01 5.978463e-01 5.620512e-01 5.805472e-01 7.217844e-01 5.692188e-01 4.381274e-01 4.273758e-01 1.066809e-01
<GCONST> 1.205943e+02
<STATE> 3
<MEAN> 39
 -6.919662e+00 -3.115028e+00 6.136782e+00 -6.424050e+00 1.334927e+00 -1.620233e+00 1.427589e+01 8.542192e+00 4.231314e+00 -5.673750e+00 1.537886e+00 5.381390e+00 6.210112e+01 3.545677e-01 6.138729e-01 4.159152e-01 1.897825e-01 -2.309481e-01 -3.596484e-01 -4.430984e-02 3.310264e-01 7.186347e-02 -3.551521e-01 -3.252307e-01 -5.847158e-01 1.139381e-03 4.914760e-01 5.859953e-01 7.168037e-02 3.471605e-01 5.811149e-02 -9.664334e-01 -6.883571e-01 -1.849234e-01 -5.511855e-01 -6.208987e-01 1.126502e-01 -2.090820e-01 3.007348e-01
<VARIANCE> 39
 1.439663e+01 2.786854e+01 3.124011e+01 3.082871e+01 7.649106e+01 3.716294e+01 4.883670e+01 5.902565e+01 4.869919e+01 3.714420e+01 2.463234e+01 2.375281e+01 2.186941e+01 9.018708e-01 2.092484e+00 1.385552e+00 1.441571e+00 2.998242e+00 2.690647e+00 2.279447e+00 2.403579e+00 2.574485e+00 2.563913e+00 1.752988e+00 1.579626e+00 5.933366e-01 1.409890e-01 2.942505e-01 4.174314e-01 3.301470e-01 4.047109e-01 6.890852e-01 5.450899e-01 4.986653e-01 5.024251e-01 5.629621e-01 3.997363e-01 3.497581e-01 9.427111e-02
<GCONST> 1.115817e+02
<STATE> 4
<MEAN> 39
 -3.844779e+00 2.722287e+00 8.619232e+00 -3.888783e+00 1.966825e+00 -6.454167e+00 1.083374e+01 8.116681e+00 1.535038e+00 -9.524043e+00 1.070502e+00 2.625989e+00 6.316649e+01 1.619786e+00 1.091740e+00 -4.209611e-01 5.189090e-01 -5.553257e-01 -3.432378e+00 -1.724517e+00 -2.450360e-02 -1.508037e+00 -1.815140e+00 3.877526e-01 -6.385924e-01 1.198853e+00 1.185984e-01 -5.658854e-01 -5.789878e-01 1.027180e-01 9.499694e-02 -4.956203e-01 -3.326882e-01 -7.516894e-02 -4.562491e-01 -1.757048e-01 2.500189e-01 1.913627e-01 2.558834e-01
<VARIANCE> 39
 1.632969e+01 2.702037e+01 3.286697e+01 2.559171e+01 7.902831e+01 5.547974e+01 5.829851e+01 5.959935e+01 5.206486e+01 4.318303e+01 2.754534e+01 2.106503e+01 2.723079e+01 9.785265e-01 2.452646e+00 2.844015e+00 2.618617e+00 2.934360e+00 4.530161e+00 2.912904e+00 2.500904e+00 3.518376e+00 3.077030e+00 2.229594e+00 1.932775e+00 8.917859e-01 1.694434e-01 4.055486e-01 2.524299e-01 3.279822e-01 4.093263e-01 7.788767e-01 4.860981e-01 4.221522e-01 5.359589e-01 4.731756e-01 3.694352e-01 3.376789e-01 1.372352e-01
<GCONST> 1.162754e+02
<TRANSP> 5
 0.000000e+00 1.000000e+00 0.000000e+00 0.000000e+00 0.000000e+00
 0.000000e+00 5.626732e-01 4.373268e-01 0.000000e+00 0.000000e+00
 0.000000e+00 0.000000e+00 6.194628e-01 3.805372e-01 0.000000e+00
 0.000000e+00 0.000000e+00 0.000000e+00 5.207048e-01 4.792952e-01
 0.000000e+00 0.000000e+00 0.000000e+00 0.000000e+00 0.000000e+00
<ENDHMM>
~h "I"
<BEGINHMM>
<NUMSTATES> 5
<STATE> 2
<MEAN> 39
 -4.478552e+00 -3.772050e+00 1.037518e+01 1.009195e+01 1.990293e+01 -9.018208e+00 -7.191599e+00 -6.449101e+00 -1.039250e+01 -9.940735e+00 3.044605e+00 -1.901514e+00 6.686942e+01 9.874704e-01 -7.591524e-01 1.153152e+00 1.165382e+00 1.920725e+00 -2.383138e+00 -2.820067e+00 1.518529e-01 -1.293762e+00 -1.439349e+00 5.773522e-01 -8.582885e-01 1.266552e+00 -2.765744e-01 2.869938e-01 -2.765519e-01 -3.786246e-01 -8.167296e-01 5.527492e-01 4.631343e-01 3.739546e-01 7.061685e-01 4.078999e-01 -1.717519e-01 1.609407e-01 -6.783028e-01
<VARIANCE> 39
 1.667067e+01 1.678664e+01 3.728868e+01 3.998951e+01 2.686172e+01 7.875455e+01 5.305913e+01 4.647997e+01 6.655229e+01 5.251727e+01 3.790183e+01 2.681487e+01 1.950304e+01 4.296661e+00 3.720769e+00 3.207571e+00 3.119007e+00 3.610923e+00 5.448111e+00 5.629790e+00 4.446626e+00 4.970930e+00 4.832744e+00 3.595996e+00 2.604584e+00 2.793728e+00 5.928162e-01 5.463519e-01 6.459795e-01 5.246797e-01 6.439850e-01 9.715931e-01 1.118633e+00 7.029901e-01 7.847663e-01 8.551578e-01 6.786338e-01 5.223849e-01 4.786923e-01
<GCONST> 1.307665e+02
<STATE> 3
<MEAN> 39
 -4.188570e+00 -5.300445e+00 1.299795e+01 1.112481e+01 2.023376e+01 -1.232545e+01 -1.136209e+01 -4.077785e+00 -9.261485e+00 -1.156525e+01 2.419982e+00 -3.419290e+00 6.776977e+01 -3.763420e-02 5.172592e-01 1.417836e-01 -1.818324e-01 -4.553408e-01 5.496640e-01 2.366697e-01 -8.126574e-02 3.450296e-01 4.230264e-01 -2.520443e-01 -8.911531e-02 -6.644747e-01 -1.391312e-01 4.141854e-01 -3.451807e-01 -2.104871e-01 -5.631256e-01 7.115385e-01 7.826220e-01 -3.901542e-02 3.038073e-01 5.059314e-01 -1.230303e-01 2.092131e-01 -5.757617e-01
<VARIANCE> 39
 9.038895e+00 1.364259e+01 2.751862e+01 4.659960e+01 2.702460e+01 7.380123e+01 5.708478e+01 5.293846e+01 7.532375e+01 4.734556e+01 4.043473e+01 2.858100e+01 1.401217e+01 8.721816e-01 1.499092e+00 2.255919e+00 1.865094e+00 1.693339e+00 3.245118e+00 3.623029e+00 2.607945e+00 2.747709e+00 3.156795e+00 1.955074e+00 1.713165e+00 1.524962e+00 3.220097e-01 2.775610e-01 3.228181e-01 3.747317e-01 5.112340e-01 6.766041e-01 8.777823e-01 5.579851e-01 6.824359e-01 6.087264e-01 4.998970e-01 3.530042e-01 2.933978e-01
<GCONST> 1.164358e+02
<STATE> 4
<MEAN> 39
 -5.943764e+00 1.182058e+00 1.057146e+01 9.927161e+00 1.511230e+01 -6.486045e+00 -5.488783e+00 -6.048634e+00 -7.297651e+00 -4.689860e+00 9.045696e-01 -2.874198e+00 5.869577e+01 -4.644246e-01 1.171013e+00 -8.515343e-01 -2.219986e-01 -1.636418e+00 1.732586e+00 1.309499e+00 5.587406e-01 1.152565e+00 1.258552e+00 -2.334130e-01 4.508099e-01 -2.380362e+00 -2.099259e-01 -3.315770e-01 -1.846505e-01 -1.685459e-01 -1.110481e-01 -1.046474e-01 8.745326e-02 2.213863e-01 6.076056e-02 -2.029962e-01 -1.003492e-02 9.164011e-02 2.064075e-01
<VARIANCE> 39
 2.224262e+01 2.636352e+01 3.200707e+01 4.604170e+01 3.492382e+01 8.078057e+01 5.100805e+01 5.657387e+01 5.163906e+01 5.679169e+01 3.985583e+01 2.770539e+01 6.538017e+01 2.674955e+00 2.655234e+00 2.776501e+00 3.167344e+00 2.839449e+00 4.352453e+00 5.428923e+00 3.649390e+00 3.627974e+00 4.092981e+00 2.888752e+00 2.166744e+00 3.672347e+00 3.976897e-01 4.336788e-01 4.935896e-01 5.914913e-01 5.042389e-01 6.788731e-01 8.203616e-01 6.839373e-01 5.908452e-01 7.103867e-01 4.555393e-01 3.933501e-01 7.478743e-01
<GCONST> 1.283813e+02
<TRANSP> 5
 0.000000e+00 1.000000e+00 0.000000e+00 0.000000e+00 0.000000e+00
 0.000000e+00 4.528761e-01 5.471238e-01 0.000000e+00 0.000000e+00
 0.000000e+00 0.000000e+00 6.983016e-01 3.016984e-01 0.000000e+00
 0.000000e+00 0.000000e+00 0.000000e+00 5.928714e-01 4.071286e-01
 0.000000e+00 0.000000e+00 0.000000e+00 0.000000e+00 0.000000e+00
<ENDHMM>
~h "J"
<BEGINHMM>
<NUMSTATES> 5
<STATE> 2
<MEAN> 39
 -1.036484e+01 4.683896e+00 1.343196e+01 2.773388e+00 9.588003e+00 8.410903e-01 4.383141e+00 -2.152606e+00 -2.570633e+00 -3.327453e+00 1.040079e+00 1.726356e+00 5.637941e+01 -1.594432e+00 -1.248539e+00 1.700237e+00 4.104639e-01 -5.413651e-01 3.929033e-01 3.424848e-01 -9.609276e-02 7.818081e-01 1.966702e-01 -3.174913e-02 -1.507332e-01 7.365883e-01 -8.056857e-02 -8.645340e-01 -1.477520e-01 1.621916e-01 1.771947e-02 -3.923629e-01 -2.403673e-01 -1.726423e-01 -3.051499e-01 -5.723281e-01 2.134081e-01 1.944003e-02 7.997691e-01
<VARIANCE> 39
 5.075068e+01 4.001419e+01 4.547223e+01 6.199781e+01 4.195868e+01 3.913824e+01 4.276296e+01 5.129799e+01 4.142823e+01 4.023132e+01 2.672362e+01 2.698269e+01 6.792506e+01 7.637731e+00 7.951402e+00 4.471946e+00 4.620925e+00 4.391626e+00 4.197155e+00 4.737112e+00 4.468223e+00 4.559989e+00 5.299685e+00 3.180942e+00 2.825989e+00 6.252386e+00 1.262810e+00 9.747609e-01 7.964512e-01 9.490816e-01 8.226280e-01 7.182733e-01 8.330452e-01 9.422681e-01 8.890707e-01 7.573943e-01 6.341779e-01 5.310061e-01 8.943749e-01
<GCONST> 1.384319e+02
<STATE> 3
<MEAN> 39
 -1.898495e+01 -8.034763e+00 2.062694e+01 5.081822e+00 7.184735e+00 -3.092138e-01 4.587244e+00 -5.119522e+00 -1.688719e+00 -6.629203e+00 3.051814e+00 1.417226e+00 6.734225e+01 -2.956641e-02 -1.936635e+00 8.104239e-02 9.315423e-01 9.005637e-01 -6.406606e-01 -1.347856e+00 -1.731865e+00 -1.212218e+00 -1.194239e+00 3.586817e-01 -1.104919e-01 2.266912e+00 1.801676e+00 8.968531e-01 -1.265918e+00 -2.995954e-02 6.105713e-01 -6.640415e-01 -6.828965e-01 5.005129e-02 -9.261960e-01 -2.888993e-01 5.841161e-02 1.044823e-01 -4.139162e-01
<VARIANCE> 39
 3.272134e+01 3.213011e+01 2.710424e+01 4.222903e+01 2.880245e+01 1.909096e+01 3.012773e+01 5.159533e+01 3.646806e+01 3.178972e+01 2.132827e+01 2.187522e+01 1.891262e+01 8.933932e+00 4.894005e+00 4.442850e+00 3.470555e+00 3.058348e+00 3.124828e+00 3.648684e+00 3.552550e+00 4.343088e+00 2.753517e+00 2.393364e+00 1.842510e+00 3.185507e+00 6.851901e-01 7.939603e-01 7.367644e-01 7.021539e-01 5.384589e-01 8.323646e-01 8.601544e-01 1.072374e+00 8.432133e-01 5.647230e-01 6.042164e-01 4.088350e-01 5.134836e-01
<GCONST> 1.269759e+02
<STATE> 4
<MEAN> 39
 -6.747174e+00 -7.595833e+00 1.300524e+01 7.891527e+00 1.280026e+01 -5.900352e+00 -3.054697e+00 -9.104468e+00 -1.102208e+01 -1.203540e+01 4.000409e+00 2.256482e+00 6.992340e+01 3.849099e+00 2.885792e-01 -3.552836e+00 -2.424061e-01 8.470418e-01 -3.104666e+00 -1.481321e+00 1.044655e+00 -2.949537e+00 -1.764630e+00 1.363089e+00 6.084784e-01 3.791098e-01 -2.388083e-01 4.187096e-01 -2.496832e-01 -5.210512e-01 -5.987659e-01 -1.833742e-01 7.762235e-01 9.614494e-01 5.344343e-01 2.710800e-01 1.389145e-01 6.454792e-02 -4.777234e-01
<VARIANCE> 39
 3.908183e+01 1.651048e+01 3.511153e+01 3.367778e+01 2.554662e+01 4.986950e+01 3.477078e+01 3.536451e+01 5.484133e+01 4.667094e+01 3.041947e+01 2.372724e+01 1.679793e+01 2.930947e+00 2.291579e+00 3.353762e+00 4.483641e+00 2.936553e+00 5.817255e+00 6.126939e+00 4.617307e+00 4.757082e+00 4.201427e+00 3.902261e+00 2.451414e+00 1.650767e+00 1.095175e+00 4.194405e-01 8.056499e-01 3.777947e-01 3.752838e-01 8.454420e-01 7.289659e-01 6.878009e-01 9.960843e-01 5.091438e-01 5.508294e-01 3.604125e-01 2.398001e-01
<GCONST> 1.257578e+02
<TRANSP> 5
 0.000000e+00 1.000000e+00 0.000000e+00 0.000000e+00 0.000000e+00
 0.000000e+00 7.461559e-01 2.538441e-01 0.000000e+00 0.000000e+00
 0.000000e+00 0.000000e+00 6.235234e-01 3.764766e-01 0.000000e+00
 0.000000e+00 0.000000e+00 0.000000e+00 5.940959e-01 4.059040e-01
 0.000000e+00 0.000000e+00 0.000000e+00 0.000000e+00 0.000000e+00
<ENDHMM>
~h "K"
<BEGINHMM>
<NUMSTATES> 5
<STATE> 2
<MEAN> 39
 -1.356397e+01 4.191185e+00 8.828127e-01 -2.391101e+00 4.510293e+00 -6.119586e+00 4.840216e+00 -2.623221e+00 -2.817590e+00 -2.834092e+00 4.955377e+00 6.488063e-01 5.519663e+01 -1.679869e+00 -5.277006e-01 -9.819494e-01 -2.402348e+00 -1.209577e+00 8.236242e-01 1.332118e+00 -1.179787e-01 3.532081e-01 -3.097046e-01 -8.311378e-02 1.954970e-01 8.580818e-01 5.986710e-01 -6.442400e-01 1.518321e-01 -3.265044e-02 6.900954e-02 -5.046588e-02 -9.855259e-02 9.582472e-02 -2.650427e-01 -3.721253e-01 8.447741e-02 1.792972e-01 9.082309e-01
<VARIANCE> 39
 2.622916e+01 3.157563e+01 3.447374e+01 6.318630e+01 6.290402e+01 6.501066e+01 5.296132e+01 6.099110e+01 4.906466e+01 5.112185e+01 3.876429e+01 3.629299e+01 5.343321e+01 3.143383e+00 2.834497e+00 3.554827e+00 4.867554e+00 4.304399e+00 5.385946e+00 5.131929e+00 4.490053e+00 4.357841e+00 5.442227e+00 3.288093e+00 3.150139e+00 7.030084e+00 4.600563e-01 4.783534e-01 5.757630e-01 9.766261e-01 7.557045e-01 7.894861e-01 9.791299e-01 6.979027e-01 6.549593e-01 9.386609e-01 5.793718e-01 5.823838e-01 1.035747e+00
<GCONST> 1.357825e+02
<STATE> 3
<MEAN> 39
 -1.455808e+01 -1.961534e+00 -1.052580e+00 -9.398137e+00 1.150545e+00 -3.457350e+00 7.999362e+00 -3.617244e+00 -3.638983e+00 -4.922780e+00 5.320407e+00 3.212344e+00 6.425797e+01 4.299541e-01 -2.275107e+00 3.182788e-01 -4.149136e-01 3.882574e-01 1.222943e+00 1.269404e-01 -1.557465e-01 4.463544e-01 3.434652e-01 -2.586485e-01 9.522499e-01 1.057497e+00 5.390873e-01 2.273292e-01 5.455994e-01 8.814434e-01 6.673540e-01 -7.840141e-02 -2.931504e-01 3.058561e-01 2.205258e-01 1.398594e-01 -1.846883e-01 -2.195131e-01 -6.855910e-01
<VARIANCE> 39
 1.566330e+01 3.539190e+01 1.630062e+01 4.956781e+01 4.993943e+01 2.973176e+01 6.220314e+01 5.452485e+01 4.493724e+01 4.336965e+01 2.821115e+01 2.818027e+01 1.985320e+01 1.350268e+00 2.334236e+00 2.138310e+00 3.291401e+00 4.353776e+00 3.495647e+00 3.499002e+00 3.869025e+00 3.696526e+00 3.241645e+00 2.963053e+00 2.625027e+00 3.460156e+00 3.481491e-01 7.942683e-01 4.581677e-01 5.343469e-01 6.782869e-01 7.804322e-01 8.052424e-01 8.131828e-01 7.168401e-01 7.851853e-01 4.961273e-01 5.434707e-01 4.941495e-01
<GCONST> 1.252243e+02
<STATE> 4
<MEAN> 39
 -1.128567e+01 -6.286240e+00 3.221906e+00 -6.480185e+00 6.311222e+00 -1.774296e-01 8.265525e+00 -8.616282e-01 -1.261298e-01 -3.430720e+00 3.587259e+00 3.863948e+00 6.339943e+01 2.136401e+00 1.539311e+00 1.868458e+00 1.407343e+00 1.102006e+00 -7.323474e-01 -3.771233e-01 1.398648e+00 2.007780e-01 -1.114866e+00 -5.715764e-01 -7.582283e-01 2.064538e-01 4.591483e-01 9.702878e-01 -1.181749e-01 1.793055e-01 -2.787735e-01 -9.483746e-01 -5.471971e-01 6.182432e-02 -4.849667e-01 -7.073097e-01 1.511794e-01 -2.161893e-01 2.587624e-01
<VARIANCE> 39
 2.007930e+01 2.896189e+01 2.600111e+01 4.789134e+01 6.303392e+01 2.869654e+01 6.316326e+01 7.449722e+01 4.813554e+01 3.885212e+01 3.024626e+01 2.755198e+01 1.876807e+01 1.595625e+00 4.569130e+00 2.313064e+00 2.038858e+00 3.686446e+00 4.711812e+00 4.173998e+00 3.300595e+00 3.933304e+00 3.677305e+00 2.373728e+00 2.098093e+00 1.491290e+00 2.541732e-01 7.990094e-01 6.374114e-01 4.331893e-01 5.812125e-01 5.910372e-01 7.086107e-01 7.059317e-01 7.080563e-01 5.348935e-01 4.657039e-01 4.818614e-01 2.352888e-01
<GCONST> 1.234559e+02
<TRANSP> 5
 0.000000e+00 1.000000e+00 0.000000e+00 0.000000e+00 0.000000e+00
 0.000000e+00 6.462790e-01 3.537209e-01 0.000000e+00 0.000000e+00
 0.000000e+00 0.000000e+00 6.565830e-01 3.434170e-01 0.000000e+00
 0.000000e+00 0.000000e+00 0.000000e+00 6.696942e-01 3.303058e-01
 0.000000e+00 0.000000e+00 0.000000e+00 0.000000e+00 0.000000e+00
<ENDHMM>
~h "L"
<BEGINHMM>
<NUMSTATES> 5
<STATE> 2
<MEAN> 39
 2.203969e+00 -1.378363e+00 3.671049e+00 9.023065e+00 9.223703e+00 -1.273913e+01 1.722257e+00 6.858839e+00 -7.484961e+00 -1.833406e+01 -6.820309e+00 -1.021503e+00 6.255055e+01 3.933439e-01 -1.879230e-01 2.137262e-01 2.065340e+00 4.433196e-01 -7.107739e-01 7.408197e-01 1.613935e+00 -9.686026e-01 -9.820873e-01 -9.676268e-01 -7.603780e-01 -8.297126e-01 -3.583320e-01 2.692672e-02 -3.680194e-02 -5.504243e-01 -3.587128e-01 -3.120003e-01 -6.497891e-02 -2.887244e-01 -1.249868e-02 1.829142e-01 5.475618e-01 3.608703e-01 4.600559e-01
<VARIANCE> 39
 1.367030e+01 2.169959e+01 2.966193e+01 5.915946e+01 7.203220e+01 8.101959e+01 6.001060e+01 6.201649e+01 7.488731e+01 5.218860e+01 5.335001e+01 2.888135e+01 2.102446e+01 1.355303e+00 1.232388e+00 1.878008e+00 3.169806e+00 3.318054e+00 5.275999e+00 3.329859e+00 3.971818e+00 4.177298e+00 4.162413e+00 3.263866e+00 2.844160e+00 1.620199e+00 1.967469e-01 2.102021e-01 4.729780e-01 6.922016e-01 5.544301e-01 1.062391e+00 7.194003e-01 1.170677e+00 8.846824e-01 9.319999e-01 6.597635e-01 5.728417e-01 2.155622e-01
<GCONST> 1.259946e+02
<STATE> 3
<MEAN> 39
 1.439148e+00 -1.996620e+00 4.538063e+00 1.199234e+01 8.342605e+00 -1.623700e+01 3.654056e+00 9.426768e+00 -1.022447e+01 -2.033049e+01 -6.597373e+00 -1.452076e+00 6.253874e+01 -6.455519e-01 5.993545e-02 -5.057171e-01 -1.136947e+00 -3.744845e-01 1.892496e-02 -2.811781e-01 -1.420472e+00 -4.937129e-01 4.630114e-01 1.173479e+00 9.779101e-01 9.121447e-01 -2.220827e-01 8.548556e-03 -1.878197e-01 -1.041043e+00 -1.579411e-01 1.727673e-01 -3.550805e-01 -8.157044e-01 1.281050e-01 5.795196e-01 7.416903e-01 5.034604e-01 4.213329e-01
<VARIANCE> 39
 1.242431e+01 2.230485e+01 3.027544e+01 6.113998e+01 7.664979e+01 7.216949e+01 6.288781e+01 5.832763e+01 7.389171e+01 5.138696e+01 5.364466e+01 2.696450e+01 2.022480e+01 1.124124e+00 1.245395e+00 1.795094e+00 3.398632e+00 3.954269e+00 5.129560e+00 3.647986e+00 4.963809e+00 5.204071e+00 4.846305e+00 4.622108e+00 3.339002e+00 1.811010e+00 1.926024e-01 2.059094e-01 3.799991e-01 6.066059e-01 4.570256e-01 7.690079e-01 6.697098e-01 9.450349e-01 9.247566e-01 8.485386e-01 7.248602e-01 6.073136e-01 2.495817e-01
<GCONST> 1.261368e+02
<STATE> 4
<MEAN> 39
 -1.124189e+00 1.873030e-01 1.965417e+00 5.188159e+00 6.641016e+00 -1.290531e+01 1.798388e+00 2.425021e+00 -9.359449e+00 -1.635533e+01 -3.666470e+00 2.446426e+00 6.394513e+01 -7.223870e-01 1.575275e-02 -3.836351e-01 -1.996403e+00 -5.031320e-01 -1.471474e-01 -4.227673e-01 -1.425499e+00 -2.683774e-01 1.167011e+00 1.823168e+00 1.159131e+00 7.506292e-01 8.697461e-02 -5.872629e-02 2.472690e-01 4.025869e-02 -2.481310e-02 -1.539369e-01 5.225206e-02 3.665023e-01 1.301669e-01 1.234999e-01 -2.085933e-02 -2.622464e-01 -2.405703e-01
<VARIANCE> 39
 1.802920e+01 3.118636e+01 3.119192e+01 4.907309e+01 7.434717e+01 8.218628e+01 5.595090e+01 6.088566e+01 7.433340e+01 5.431821e+01 6.538656e+01 3.250388e+01 5.311065e+01 1.477728e+00 1.832102e+00 2.413753e+00 4.236702e+00 4.209201e+00 6.387219e+00 4.841599e+00 6.214745e+00 6.018201e+00 6.276897e+00 5.222677e+00 3.705733e+00 3.597815e+00 2.099785e-01 2.519473e-01 3.372553e-01 4.765048e-01 5.370680e-01 7.731399e-01 7.095825e-01 7.987786e-01 7.463273e-01 6.368351e-01 5.990210e-01 5.134658e-01 2.806845e-01
<GCONST> 1.306153e+02
<TRANSP> 5
 0.000000e+00 1.000000e+00 0.000000e+00 0.000000e+00 0.000000e+00
 0.000000e+00 5.818383e-01 4.181617e-01 0.000000e+00 0.000000e+00
 0.000000e+00 0.000000e+00 4.931723e-01 5.068277e-01 0.000000e+00
 0.000000e+00 0.000000e+00 0.000000e+00 3.297665e-01 6.702335e-01
 0.000000e+00 0.000000e+00 0.000000e+00 0.000000e+00 0.000000e+00
<ENDHMM>
~h "M"
<BEGINHMM>
<NUMSTATES> 5
<STATE> 2
<MEAN> 39
 1.592722e+00 4.551541e+00 4.945791e+00 3.512206e+00 5.318962e+00 -4.032373e+00 1.339163e+00 7.445999e+00 2.780399e-01 -9.393747e+00 9.999693e-02 -2.932320e+00 5.779662e+01 6.446023e-01 6.939799e-01 1.157888e+00 1.037334e+00 1.232373e+00 3.041779e+00 -1.049356e+00 -2.974245e-01 1.486315e+00 1.064017e+00 -1.397567e+00 -2.355765e+00 -1.041167e+00 -1.411040e-01 -3.738314e-01 -1.095520e-01 -1.739173e-01 -1.153587e-01 -6.788512e-01 1.267835e-01 -8.885557e-02 -2.951670e-01 -2.594799e-01 2.035361e-01 3.209284e-01 5.686809e-01
<VARIANCE> 39
 3.675066e+01 2.073008e+01 2.322614e+01 2.724907e+01 4.210205e+01 9.668176e+01 5.839128e+01 4.285163e+01 5.408603e+01 4.852324e+01 3.150683e+01 2.603462e+01 5.494958e+01 2.746678e+00 1.405095e+00 1.943033e+00 1.893680e+00 3.551431e+00 7.888237e+00 4.367533e+00 4.656495e+00 5.590478e+00 5.234430e+00 3.119536e+00 2.783549e+00 4.116981e+00 3.119197e-01 2.083222e-01 2.729207e-01 2.937490e-01 3.777786e-01 7.238861e-01 6.177172e-01 4.617973e-01 5.356435e-01 5.672216e-01 4.463277e-01 4.519563e-01 1.953066e-01
<GCONST> 1.232061e+02
<STATE> 3
<MEAN> 39
 3.191123e+00 4.189897e+00 6.546930e+00 4.874052e+00 7.609058e+00 -1.776127e+00 -1.553676e+00 7.101246e+00 2.206992e+00 -9.710546e+00 -1.881310e+00 -6.626348e+00 5.893987e+01 -7.282735e-02 -5.980719e-02 1.051325e-01 1.392981e-01 -1.976503e-02 -3.125716e-01 2.613715e-02 -2.732427e-01 -1.103011e-01 -9.178284e-03 -4.062603e-02 8.051399e-02 2.380454e-01 -2.103345e-01 -1.629057e-01 -3.252887e-01 -3.911719e-01 -5.608444e-01 -1.451990e+00 3.748702e-01 6.033499e-02 -6.877724e-01 -4.298255e-01 5.389403e-01 9.734573e-01 5.162112e-01
<VARIANCE> 39
 6.272905e+00 1.759442e+01 1.907374e+01 2.414268e+01 3.561198e+01 5.141453e+01 6.688562e+01 6.214454e+01 6.879084e+01 3.496619e+01 3.630966e+01 2.674215e+01 1.338299e+01 1.089738e+00 1.121673e+00 1.121198e+00 1.289088e+00 2.179782e+00 5.830832e+00 2.799922e+00 2.863164e+00 3.020519e+00 2.698978e+00 1.950100e+00 2.967342e+00 1.615101e+00 1.873739e-01 2.598600e-01 2.600498e-01 3.010140e-01 4.357620e-01 8.903080e-01 5.998808e-01 6.341630e-01 8.510298e-01 6.713914e-01 4.865071e-01 4.789830e-01 2.552351e-01
<GCONST> 1.142775e+02
<STATE> 4
<MEAN> 39
 2.790830e+00 3.875636e+00 5.345545e+00 3.419353e+00 3.950158e+00 -9.683112e+00 2.792787e-01 6.305509e+00 -1.108111e+00 -1.156766e+01 7.324138e-01 -1.132007e+00 6.169761e+01 -3.134153e-01 -5.146586e-01 -5.775715e-01 -9.147294e-01 -1.754233e+00 -4.424928e+00 6.451989e-01 5.094319e-01 -1.732737e+00 -1.060741e+00 1.553118e+00 2.177505e+00 1.674812e+00 -1.908304e-01 -2.637359e-01 -1.152702e-02 -1.370277e-01 -4.844408e-02 -2.172759e-01 6.982451e-02 2.597311e-01 -4.341407e-02 -3.939812e-02 1.881651e-01 -3.590029e-02 2.017417e-01
<VARIANCE> 39
 8.034526e+00 1.596220e+01 2.347947e+01 2.960053e+01 4.894736e+01 1.038022e+02 5.040765e+01 4.733626e+01 5.849303e+01 3.349994e+01 3.613550e+01 3.599621e+01 1.859342e+01 1.034896e+00 1.814821e+00 2.257289e+00 2.285592e+00 5.144715e+00 8.151354e+00 4.513177e+00 4.167672e+00 5.251704e+00 3.985439e+00 3.604527e+00 3.190501e+00 1.965751e+00 1.582783e-01 1.950390e-01 3.311804e-01 3.402282e-01 5.275322e-01 1.415771e+00 6.926764e-01 5.576056e-01 6.190332e-01 5.449446e-01 5.825856e-01 6.224535e-01 1.948526e-01
<GCONST> 1.215198e+02
<TRANSP> 5
 0.000000e+00 1.000000e+00 0.000000e+00 0.000000e+00 0.000000e+00
 0.000000e+00 4.222514e-01 5.777486e-01 0.000000e+00 0.000000e+00
 0.000000e+00 0.000000e+00 6.519212e-01 3.480788e-01 0.000000e+00
 0.000000e+00 0.000000e+00 0.000000e+00 4.707745e-01 5.292255e-01
 0.000000e+00 0.000000e+00 0.000000e+00 0.000000e+00 0.000000e+00
<ENDHMM>
~h "N"
<BEGINHMM>
<NUMSTATES> 5
<STATE> 2
<MEAN> 39
 2.300426e+00 3.415206e+00 5.213076e+00 3.322129e+00 1.095235e+01 -2.183218e+00 -2.935598e+00 3.258673e+00 -3.370965e+00 -1.249470e+01 -3.988621e+00 -3.659175e+00 5.976896e+01 2.157947e-01 8.575893e-01 6.640175e-01 6.411993e-01 9.545227e-01 2.296860e+00 -1.196237e+00 -4.844080e-01 1.295145e+00 1.619716e-01 -1.858256e+00 -1.237010e+00 -1.313088e+00 -3.729196e-01 -1.812429e-01 -9.054101e-02 -1.769962e-01 -3.040958e-01 -8.874730e-01 5.032302e-01 -1.550287e-01 -4.232610e-01 1.420870e-01 5.546240e-01 4.274145e-01 4.691250e-01
<VARIANCE> 39
 1.000419e+01 1.676192e+01 2.103214e+01 3.836852e+01 3.306463e+01 4.404247e+01 6.214691e+01 5.571689e+01 6.688293e+01 5.065647e+01 3.197093e+01 2.395124e+01 1.931292e+01 1.147631e+00 1.233191e+00 1.589182e+00 2.263950e+00 3.053947e+00 4.037804e+00 3.924232e+00 3.003895e+00 4.328660e+00 2.967677e+00 3.427053e+00 2.689440e+00 1.419192e+00 1.527330e-01 2.373005e-01 3.205055e-01 3.230257e-01 3.934412e-01 6.249210e-01 6.672519e-01 4.582106e-01 6.145151e-01 5.146838e-01 5.191405e-01 4.295738e-01 2.435525e-01
<GCONST> 1.161492e+02
<STATE> 3
<MEAN> 39
 1.733762e+00 5.265290e+00 6.464210e+00 3.784180e+00 1.337862e+01 9.636977e-01 -5.827147e+00 5.903912e-01 -1.338708e-03 -1.174369e+01 -6.685516e+00 -4.612975e+00 5.875382e+01 -5.994675e-01 -3.003579e-02 -1.289940e-01 1.122602e-01 -9.861907e-02 -6.817808e-01 8.721852e-01 -4.468241e-01 -7.075728e-01 2.257157e-01 3.047293e-01 4.054103e-01 4.246466e-01 -4.041272e-01 -5.132991e-01 -1.850949e-01 -2.226783e-01 -4.570161e-01 -1.255307e+00 7.011058e-01 2.206451e-01 -8.056719e-01 6.855499e-02 1.055832e+00 6.581548e-01 5.969045e-01
<VARIANCE> 39
 9.513620e+00 1.914886e+01 1.980612e+01 3.079108e+01 2.919134e+01 4.405114e+01 6.264322e+01 5.347842e+01 7.412402e+01 5.156347e+01 2.762687e+01 2.047107e+01 1.764638e+01 1.452526e+00 1.577378e+00 1.736989e+00 2.145037e+00 2.200888e+00 3.960039e+00 3.849727e+00 3.021142e+00 3.908465e+00 3.821183e+00 3.448339e+00 2.716600e+00 2.259675e+00 2.342415e-01 3.153794e-01 3.916251e-01 4.646441e-01 4.574690e-01 1.056315e+00 7.635093e-01 6.033754e-01 8.513266e-01 6.554549e-01 7.759403e-01 5.694266e-01 3.520586e-01
<GCONST> 1.202918e+02
<STATE> 4
<MEAN> 39
 -2.708199e+00 5.260887e+00 5.491168e+00 3.486737e+00 1.069849e+01 -1.888538e+00 7.693067e-01 -4.578773e-01 -4.191337e+00 -9.332562e+00 -4.037106e+00 -1.859824e+00 5.808188e+01 -1.167327e+00 -8.507973e-01 -2.807224e-01 -2.904712e-01 -6.515347e-01 -1.961483e+00 1.289642e+00 2.019086e-01 -1.282156e+00 6.514592e-01 1.804724e+00 1.271922e+00 5.769837e-01 6.915530e-03 -3.505937e-01 -4.191257e-02 -1.368133e-01 -1.896187e-01 -3.701222e-01 -1.491837e-01 2.393800e-01 3.237688e-02 -1.850053e-02 3.924136e-01 1.086130e-01 1.473064e-01
<VARIANCE> 39
 2.579060e+01 2.694724e+01 3.512724e+01 3.758283e+01 3.678374e+01 5.133011e+01 5.556591e+01 5.096788e+01 6.474770e+01 6.906701e+01 4.019156e+01 3.691313e+01 6.084925e+01 2.302440e+00 2.913341e+00 3.047799e+00 3.159033e+00 3.774542e+00 8.775090e+00 5.374076e+00 4.218411e+00 6.580405e+00 5.769948e+00 5.930914e+00 4.012084e+00 5.230771e+00 3.282709e-01 4.621343e-01 5.814864e-01 4.334273e-01 5.131411e-01 8.493654e-01 8.569864e-01 6.329244e-01 7.700402e-01 7.654882e-01 6.825888e-01 5.951355e-01 4.735255e-01
<GCONST> 1.330818e+02
<TRANSP> 5
 0.000000e+00 1.000000e+00 0.000000e+00 0.000000e+00 0.000000e+00
 0.000000e+00 5.466904e-01 4.533096e-01 0.000000e+00 0.000000e+00
 0.000000e+00 0.000000e+00 5.069673e-01 4.930327e-01 0.000000e+00
 0.000000e+00 0.000000e+00 0.000000e+00 4.129170e-01 5.870830e-01
 0.000000e+00 0.000000e+00 0.000000e+00 0.000000e+00 0.000000e+00
<ENDHMM>
~h "O"
<BEGINHMM>
<NUMSTATES> 5
<STATE> 2
<MEAN> 39
 1.801402e-01 2.437332e+00 7.913056e+00 -2.563162e+00 2.611765e+00 -1.574489e+01 -1.019903e+00 7.174783e+00 -3.499998e+00 -2.002369e+01 -1.332008e+00 2.665791e+00 6.579694e+01 1.569091e+00 -1.413006e-02 4.331834e-01 -1.112316e-01 -8.679233e-01 -3.396317e+00 -1.333148e+00 1.945527e+00 -2.762562e-01 -2.298992e+00 -1.268577e-01 -3.502283e-01 1.193051e+00 -5.621508e-01 -8.266057e-02 -3.295679e-01 1.999666e-01 9.523996e-02 1.016576e+00 4.709785e-01 -3.525563e-01 2.187439e-01 9.468786e-01 1.898500e-02 -1.646425e-01 -6.004820e-01
<VARIANCE> 39
 1.532641e+01 2.552234e+01 3.490762e+01 3.513453e+01 5.662286e+01 1.000022e+02 7.035849e+01 5.178126e+01 7.842207e+01 6.913577e+01 4.040163e+01 3.031880e+01 3.146868e+01 3.152124e+00 3.157380e+00 2.997633e+00 4.220119e+00 3.849606e+00 7.079492e+00 7.683372e+00 4.387061e+00 4.967213e+00 6.204166e+00 3.734623e+00 2.757613e+00 2.698993e+00 5.485724e-01 5.583498e-01 6.653979e-01 6.531679e-01 6.629757e-01 1.533121e+00 1.031834e+00 7.895210e-01 1.027917e+00 1.144070e+00 6.301016e-01 5.941772e-01 5.527031e-01
<GCONST> 1.355512e+02
<STATE> 3
<MEAN> 39
 1.035593e+00 1.796245e+00 8.311722e+00 -2.143677e+00 -7.335970e-01 -2.071584e+01 -2.347919e-01 1.010986e+01 -4.131216e+00 -2.079329e+01 -1.481408e+00 1.006806e+00 6.704129e+01 -1.617797e-02 4.430923e-01 -2.191801e-01 1.273753e-01 -1.199630e-02 8.359016e-01 4.146835e-01 -1.515333e-01 1.371998e-01 6.343619e-01 -3.950821e-01 -4.101250e-01 -6.654736e-01 -2.691854e-01 2.465861e-01 -1.863833e-01 2.291603e-01 4.029408e-01 1.277748e+00 2.315920e-01 -5.431903e-01 2.067270e-01 7.916666e-01 -1.495295e-01 5.758636e-02 -6.887842e-01
<VARIANCE> 39
 8.156809e+00 1.706136e+01 3.576397e+01 3.498143e+01 5.783709e+01 8.376395e+01 7.501839e+01 4.449203e+01 7.550703e+01 6.314031e+01 4.067583e+01 3.093212e+01 1.507527e+01 6.943706e-01 1.697818e+00 2.123941e+00 2.006635e+00 3.442472e+00 5.500593e+00 3.837855e+00 3.131038e+00 3.638228e+00 3.733453e+00 2.874352e+00 2.080335e+00 1.930227e+00 2.811148e-01 3.028553e-01 3.396015e-01 4.481832e-01 4.825899e-01 9.478161e-01 9.472200e-01 6.402069e-01 7.778248e-01 9.177721e-01 5.379800e-01 4.601279e-01 2.673610e-01
<GCONST> 1.220791e+02
<STATE> 4
<MEAN> 39
 -1.072309e+00 6.357508e+00 5.195088e+00 -1.269680e+00 1.725765e-01 -1.259790e+01 2.079005e+00 6.640876e+00 -3.143265e+00 -1.354625e+01 -3.273183e+00 4.971629e-01 5.862418e+01 -6.610650e-01 6.951249e-01 -6.327696e-01 7.457355e-01 6.267225e-01 2.969035e+00 3.313889e-01 -8.430696e-01 6.184096e-01 2.096202e+00 -2.407551e-01 2.434238e-02 -2.306217e+00 -2.472054e-01 -2.988171e-01 1.918451e-02 9.735514e-02 1.019804e-01 1.235226e-01 -3.642560e-02 -9.114747e-02 -2.773960e-02 1.014493e-01 1.942761e-01 1.200540e-01 2.949212e-02
<VARIANCE> 39
 1.977548e+01 2.975894e+01 3.409319e+01 3.493384e+01 7.026848e+01 8.425740e+01 6.011390e+01 4.537154e+01 5.785872e+01 7.023239e+01 3.864168e+01 2.483748e+01 6.950324e+01 2.199247e+00 2.691670e+00 2.560355e+00 2.900628e+00 4.232049e+00 5.145545e+00 5.551174e+00 4.119561e+00 4.340275e+00 5.090254e+00 3.218846e+00 2.632361e+00 2.965478e+00 3.582569e-01 4.107735e-01 4.500936e-01 4.881094e-01 5.578157e-01 8.820146e-01 8.431121e-01 7.029365e-01 6.974322e-01 7.536921e-01 5.432456e-01 4.093446e-01 5.421981e-01
<GCONST> 1.300429e+02
<TRANSP> 5
 0.000000e+00 1.000000e+00 0.000000e+00 0.000000e+00 0.000000e+00
 0.000000e+00 4.083247e-01 5.916753e-01 0.000000e+00 0.000000e+00
 0.000000e+00 0.000000e+00 6.416917e-01 3.583083e-01 0.000000e+00
 0.000000e+00 0.000000e+00 0.000000e+00 5.087162e-01 4.912838e-01
 0.000000e+00 0.000000e+00 0.000000e+00 0.000000e+00 0.000000e+00
<ENDHMM>
~h "P"
<BEGINHMM>
<NUMSTATES> 5
<STATE> 2
<MEAN> 39
 -4.476170e+00 7.290579e+00 1.107630e+00 4.950985e+00 6.969072e-01 -3.060294e+00 6.371140e-01 4.112937e+00 -2.364520e+00 -4.439029e+00 1.064549e+00 2.823585e+00 4.666527e+01 -1.601350e+00 1.965678e-01 -3.937592e-01 -2.611914e-01 -3.085311e-01 8.333943e-01 2.159977e-01 -7.773515e-01 6.475055e-01 1.226511e+00 -1.476413e-01 6.549785e-02 -1.468429e+00 -8.132306e-02 -5.344769e-01 2.275026e-01 -4.575691e-01 4.652205e-01 -2.846915e-01 2.576287e-01 -2.797133e-01 -3.851705e-02 -5.136486e-01 -5.355755e-02 -1.099726e-02 1.295692e+00
<VARIANCE> 39
 2.894740e+01 2.134181e+01 2.676189e+01 3.672269e+01 5.458966e+01 5.549471e+01 3.100964e+01 4.952174e+01 4.281751e+01 3.701532e+01 2.625080e+01 2.354740e+01 2.152616e+01 1.546380e+00 1.715494e+00 1.849148e+00 2.498721e+00 2.695605e+00 2.621790e+00 2.912119e+00 3.110483e+00 2.105860e+00 2.866055e+00 1.773399e+00 1.631999e+00 3.892709e+00 3.914886e-01 3.489139e-01 3.509324e-01 4.862127e-01 4.838111e-01 7.010193e-01 6.626216e-01 6.678402e-01 4.642691e-01 4.946839e-01 4.007641e-01 3.601414e-01 4.620267e-01
<GCONST> 1.182611e+02
<STATE> 3
<MEAN> 39
 -1.120921e+01 4.552393e+00 2.108140e+00 2.317887e+00 3.312952e+00 6.066697e-02 3.467901e+00 1.001372e-01 4.476478e-01 -1.187779e+00 5.756077e-01 2.825910e+00 4.740089e+01 -1.370481e-01 -1.455530e+00 2.373651e-01 -1.174835e+00 1.105729e+00 -1.077592e-01 1.209482e+00 -7.992295e-01 3.091905e-01 -9.718637e-01 -3.134151e-01 6.184136e-02 3.676565e+00 1.311743e+00 -5.591464e-02 8.557343e-02 2.935211e-02 -2.290931e-01 -1.372160e+00 -3.934685e-01 6.872383e-01 -3.197866e-01 -1.164151e+00 1.300054e-01 -5.971356e-02 1.310535e+00
<VARIANCE> 39
 2.017476e+01 2.747155e+01 1.880386e+01 3.257742e+01 3.248385e+01 3.577353e+01 2.528682e+01 3.084352e+01 2.880901e+01 2.473996e+01 1.951794e+01 1.996689e+01 4.219584e+01 4.167986e+00 3.658533e+00 2.970411e+00 3.793441e+00 5.891833e+00 8.209396e+00 4.375476e+00 4.930301e+00 4.428029e+00 3.897466e+00 2.748040e+00 2.609708e+00 4.714074e+00 4.047842e-01 6.433845e-01 6.160773e-01 7.138305e-01 1.099180e+00 1.550438e+00 1.062378e+00 9.611190e-01 7.307314e-01 6.510827e-01 5.441939e-01 4.260652e-01 6.991091e-01
<GCONST> 1.286968e+02
<STATE> 4
<MEAN> 39
 -8.053048e+00 1.969064e+00 2.229826e+00 -3.735464e-01 5.883754e+00 -6.790443e-01 6.238611e+00 -4.861490e-01 4.917992e-01 -5.578774e+00 -5.921253e-01 2.724775e+00 5.905845e+01 3.353024e+00 -3.559542e-01 5.278789e-01 -8.603393e-01 -6.104289e-01 -4.334737e+00 -1.209906e+00 1.526719e+00 -2.698368e-01 -3.811257e+00 2.196684e-02 -5.984367e-02 4.703094e+00 7.088919e-01 2.658655e-01 3.755449e-03 2.649991e-01 -5.929568e-01 -1.239027e+00 -1.019642e+00 8.227157e-01 -2.579341e-01 -7.553859e-01 2.691212e-01 1.332186e-02 -3.729028e-01
<VARIANCE> 39
 2.805620e+01 2.702299e+01 1.860339e+01 1.790451e+01 4.033746e+01 5.953318e+01 2.778068e+01 2.797059e+01 2.742451e+01 2.333883e+01 1.823482e+01 1.439237e+01 2.623460e+01 3.403705e+00 3.811059e+00 4.754126e+00 4.897135e+00 9.998103e+00 1.570295e+01 8.605936e+00 7.297856e+00 5.988698e+00 5.648278e+00 4.229383e+00 2.891863e+00 4.999499e+00 6.849579e-01 8.114461e-01 6.801639e-01 5.829727e-01 8.461914e-01 1.403315e+00 1.302378e+00 8.384904e-01 7.245678e-01 8.117476e-01 6.118817e-01 4.733748e-01 6.569994e-01
<GCONST> 1.329533e+02
<TRANSP> 5
 0.000000e+00 1.000000e+00 0.000000e+00 0.000000e+00 0.000000e+00
 0.000000e+00 7.033381e-01 2.966619e-01 0.000000e+00 0.000000e+00
 0.000000e+00 0.000000e+00 4.938592e-01 5.061409e-01 0.000000e+00
 0.000000e+00 0.000000e+00 0.000000e+00 3.661904e-01 6.338096e-01
 0.000000e+00 0.000000e+00 0.000000e+00 0.000000e+00 0.000000e+00
<ENDHMM>
~h "R"
<BEGINHMM>
<NUMSTATES> 5
<STATE> 2
<MEAN> 39
 -6.491869e-01 1.371972e+00 1.295356e+00 -6.831542e-01 9.548149e+00 -4.102925e+00 3.926685e-01 5.171524e-02 -6.347858e+00 -1.507285e+01 -1.368992e+00 5.100992e+00 6.297072e+01 4.266057e-01 5.910615e-01 -5.109227e-01 -1.552024e-01 1.371937e+00 9.738517e-01 -4.955158e-01 -2.965666e-01 -6.446173e-01 -4.568697e-01 -2.296852e-01 3.509866e-01 -5.051342e-01 -1.622255e-01 -2.006566e-01 2.095075e-01 6.889300e-03 -1.892462e-01 -9.150975e-01 -2.213958e-01 3.095757e-01 -2.015692e-01 -9.282447e-02 5.330926e-01 -1.560077e-02 2.800846e-01
<VARIANCE> 39
 2.998777e+01 1.942493e+01 2.742650e+01 4.770735e+01 4.375415e+01 6.049782e+01 5.092463e+01 5.134741e+01 5.612413e+01 5.675559e+01 5.018157e+01 2.693967e+01 3.704766e+01 3.808781e+00 2.238852e+00 2.494099e+00 3.148598e+00 4.425014e+00 9.635465e+00 7.839336e+00 4.418315e+00 4.786922e+00 7.982514e+00 3.569035e+00 2.903498e+00 4.119846e+00 4.934699e-01 3.978157e-01 5.170618e-01 6.249357e-01 6.909610e-01 1.142271e+00 1.139655e+00 8.017886e-01 8.394215e-01 9.184243e-01 7.464888e-01 4.786072e-01 7.688752e-01
<GCONST> 1.341212e+02
<STATE> 3
<MEAN> 39
 2.012844e-01 1.642512e+00 2.879321e-01 -1.708380e+00 1.212193e+01 -4.759473e+00 -2.125455e+00 4.231006e-01 -8.102994e+00 -1.750393e+01 -3.185255e-01 6.079031e+00 6.372789e+01 2.881043e-02 2.194351e-01 -7.750034e-02 4.278262e-02 6.885265e-01 -6.883128e-01 -6.103452e-01 3.841614e-01 -7.397894e-01 -4.409394e-01 5.962655e-01 3.314150e-01 -2.070535e-01 -3.633137e-01 -2.693799e-01 3.500663e-01 2.659736e-01 -5.994216e-01 -7.004989e-01 2.298748e-01 1.834939e-01 8.492784e-02 4.384877e-01 3.801185e-01 -2.287603e-01 6.553577e-02
<VARIANCE> 39
 2.127670e+01 2.000088e+01 2.748979e+01 5.401191e+01 4.561898e+01 5.731322e+01 6.282781e+01 5.097768e+01 6.579028e+01 7.977866e+01 4.870600e+01 2.970688e+01 3.271649e+01 2.987140e+00 2.558604e+00 2.683870e+00 3.480198e+00 4.847840e+00 8.871366e+00 7.357126e+00 4.998005e+00 6.186086e+00 7.918355e+00 4.421669e+00 3.131667e+00 4.476945e+00 5.230592e-01 4.860419e-01 5.085778e-01 6.333930e-01 7.440531e-01 1.472331e+00 1.232947e+00 7.596428e-01 9.137751e-01 1.152607e+00 6.803154e-01 5.010559e-01 8.741945e-01
<GCONST> 1.363223e+02
<STATE> 4
<MEAN> 39
 -2.146171e+00 2.236034e+00 7.500868e-01 -7.446451e-01 1.005764e+01 -7.015195e+00 -1.783121e+00 5.586756e-01 -9.224686e+00 -1.478881e+01 1.339012e+00 6.624553e+00 6.021340e+01 -6.583102e-01 -4.320106e-02 3.977650e-01 6.558321e-01 -5.726550e-01 -6.052532e-01 3.463359e-01 3.085460e-01 1.674669e-01 9.240386e-01 5.526828e-01 -2.943591e-01 -6.351083e-01 -1.629859e-01 -2.384963e-01 2.263449e-01 1.457521e-01 -3.870292e-01 -1.388746e-01 2.670061e-01 3.500352e-02 2.707660e-01 2.949098e-01 5.909473e-02 -2.771448e-01 1.514467e-01
<VARIANCE> 39
 3.395164e+01 2.841504e+01 3.342645e+01 5.044689e+01 7.683141e+01 7.102309e+01 7.073305e+01 6.140153e+01 7.681165e+01 9.703600e+01 5.170474e+01 3.767314e+01 7.319466e+01 3.518801e+00 3.491831e+00 3.502888e+00 3.569546e+00 6.525464e+00 8.973497e+00 6.077921e+00 5.162962e+00 7.121735e+00 6.596559e+00 4.621918e+00 3.094562e+00 7.177458e+00 5.899196e-01 5.205382e-01 5.662044e-01 6.253119e-01 9.939041e-01 1.320420e+00 1.369464e+00 7.795613e-01 9.057328e-01 1.316382e+00 6.374094e-01 5.705853e-01 8.788459e-01
<GCONST> 1.419297e+02
<TRANSP> 5
 0.000000e+00 1.000000e+00 0.000000e+00 0.000000e+00 0.000000e+00
 0.000000e+00 2.802691e-01 7.197309e-01 0.000000e+00 0.000000e+00
 0.000000e+00 0.000000e+00 1.528632e-01 8.471368e-01 0.000000e+00
 0.000000e+00 0.000000e+00 0.000000e+00 3.427505e-01 6.572495e-01
 0.000000e+00 0.000000e+00 0.000000e+00 0.000000e+00 0.000000e+00
<ENDHMM>
~h "S"
<BEGINHMM>
<NUMSTATES> 5
<STATE> 2
<MEAN> 39
 -1.433070e+01 1.229244e+00 1.361730e+01 -3.888583e+00 5.112970e+00 5.070119e-02 7.928856e+00 -4.662125e+00 -5.370510e+00 -4.966989e+00 1.369197e+00 1.522408e+00 6.268227e+01 -5.485482e+00 -5.766080e-01 2.629134e+00 -2.365339e+00 -3.560725e-01 2.383935e+00 1.280752e+00 -1.380358e+00 1.328594e+00 2.205425e+00 4.000883e-01 1.831658e-01 1.261974e+00 -5.085409e-01 -3.205297e-01 -3.442250e-01 -2.487541e-01 -1.027385e-01 -5.796136e-01 -5.273851e-01 2.799561e-01 4.217086e-02 -1.199554e-01 2.976867e-01 -1.968691e-02 1.438817e-01
<VARIANCE> 39
 6.383584e+01 2.593287e+01 5.027470e+01 3.859327e+01 5.319361e+01 6.549058e+01 5.663795e+01 7.425233e+01 5.318645e+01 5.639209e+01 3.146389e+01 2.786978e+01 1.050170e+02 6.257658e+00 4.071648e+00 3.082748e+00 3.671567e+00 4.733217e+00 6.244327e+00 5.992664e+00 5.858377e+00 5.043074e+00 6.957936e+00 3.613189e+00 2.537239e+00 3.846343e+00 1.088426e+00 5.417550e-01 7.015418e-01 5.635661e-01 5.316510e-01 8.823148e-01 7.327273e-01 7.628013e-01 7.840900e-01 8.285350e-01 5.290805e-01 4.428281e-01 5.272260e-01
<GCONST> 1.370084e+02
<STATE> 3
<MEAN> 39
 -3.234980e+01 -1.649822e+00 1.703010e+01 -1.274829e+01 4.115885e+00 1.979677e+00 6.924878e+00 -6.249987e+00 -2.260158e+00 -1.234871e+00 3.765860e+00 1.103111e+00 6.715449e+01 -1.274977e+00 -3.023501e-01 -4.673269e-01 -5.438903e-01 5.000448e-02 -1.707890e-01 -1.534310e-01 5.082305e-02 4.395804e-01 4.397635e-01 9.576996e-02 2.138745e-01 -3.637967e-01 1.398971e+00 6.056739e-02 -4.828887e-01 6.700014e-01 2.130093e-01 -2.261229e-01 -7.088195e-02 1.336611e-01 -1.498142e-01 -3.070661e-01 -1.211929e-01 1.045511e-01 -4.212348e-01
<VARIANCE> 39
 1.653020e+01 2.927703e+01 2.723006e+01 2.572266e+01 3.074549e+01 2.863309e+01 4.060067e+01 2.847452e+01 3.096947e+01 2.435703e+01 2.357434e+01 1.984110e+01 1.522944e+01 7.078879e+00 1.938498e+00 2.533787e+00 2.990397e+00 1.803800e+00 1.845937e+00 2.024593e+00 2.655370e+00 2.219301e+00 2.116881e+00 1.837425e+00 1.650053e+00 2.744793e+00 5.379522e-01 3.697429e-01 5.050294e-01 3.268496e-01 3.636493e-01 5.184673e-01 5.054110e-01 5.297963e-01 4.899444e-01 5.463607e-01 3.857315e-01 3.241521e-01 3.043046e-01
<GCONST> 1.139467e+02
<STATE> 4
<MEAN> 39
 -2.428217e+01 -3.915392e+00 1.158752e+01 -7.168962e+00 6.425474e+00 1.453132e+00 7.128679e+00 -5.074146e+00 -1.123124e+00 -1.557553e+00 3.077297e+00 4.156541e+00 6.156369e+01 3.928334e+00 1.299057e-01 -1.228736e+00 1.877432e+00 6.678908e-01 -2.965998e-01 -8.072357e-01 4.618477e-01 -4.729556e-01 -1.033247e+00 -2.840633e-01 8.301332e-02 -1.164887e+00 4.310579e-01 1.261062e-01 -1.151652e-01 7.466619e-02 -2.815911e-02 -3.837854e-01 -3.177382e-01 1.325849e-01 -3.684233e-01 -4.230723e-01 5.933324e-02 -1.998462e-01 5.246025e-01
<VARIANCE> 39
 4.722274e+01 5.879936e+01 4.429856e+01 4.427111e+01 3.540585e+01 3.765928e+01 4.776635e+01 4.845382e+01 3.611566e+01 3.876852e+01 2.794272e+01 2.588915e+01 6.350092e+01 8.006204e+00 2.800625e+00 4.253025e+00 3.602272e+00 3.651871e+00 5.541225e+00 4.123065e+00 4.426303e+00 5.070315e+00 4.996665e+00 2.743606e+00 2.585566e+00 5.173932e+00 1.225210e+00 6.357059e-01 7.663718e-01 7.032127e-01 5.641854e-01 1.054651e+00 8.549080e-01 8.771552e-01 7.594301e-01 7.032313e-01 5.426753e-01 4.425840e-01 9.594861e-01
<GCONST> 1.349251e+02
<TRANSP> 5
 0.000000e+00 1.000000e+00 0.000000e+00 0.000000e+00 0.000000e+00
 0.000000e+00 6.384854e-01 3.615146e-01 0.000000e+00 0.000000e+00
 0.000000e+00 0.000000e+00 8.157458e-01 1.842542e-01 0.000000e+00
 0.000000e+00 0.000000e+00 0.000000e+00 7.142255e-01 2.857745e-01
 0.000000e+00 0.000000e+00 0.000000e+00 0.000000e+00 0.000000e+00
<ENDHMM>
~h "T"
<BEGINHMM>
<NUMSTATES> 5
<STATE> 2
<MEAN> 39
 -7.515808e+00 6.208043e+00 4.023607e+00 2.767852e+00 6.114647e-01 -2.489100e+00 3.403339e+00 2.219713e+00 -2.554732e+00 -2.874650e+00 4.712203e-01 1.389875e+00 4.825030e+01 -1.177002e+00 -3.332376e-01 -9.826539e-01 3.558386e-02 -3.108744e-01 7.020741e-01 -1.290391e-01 -1.952613e-01 7.628928e-01 1.233616e+00 9.354418e-02 3.413875e-01 -1.230785e+00 -1.860424e-01 -7.382284e-01 2.555982e-01 -4.191292e-01 4.296300e-01 -1.987204e-01 1.628231e-01 -6.080391e-01 -1.994539e-01 -5.812156e-01 7.457651e-02 1.285907e-01 1.675524e+00
<VARIANCE> 39
 3.521198e+01 2.071828e+01 3.374834e+01 4.195469e+01 7.536079e+01 6.346466e+01 4.344792e+01 6.040556e+01 3.681180e+01 4.321317e+01 2.814723e+01 2.671597e+01 4.007935e+01 3.060335e+00 3.233124e+00 2.897287e+00 3.161863e+00 3.659308e+00 2.993122e+00 3.771701e+00 4.763283e+00 2.435032e+00 3.159328e+00 2.073225e+00 1.930575e+00 7.397856e+00 6.002167e-01 5.789744e-01 7.231157e-01 6.204888e-01 7.843999e-01 7.168573e-01 9.095183e-01 1.029929e+00 5.977556e-01 6.534482e-01 4.800037e-01 4.593761e-01 1.394410e+00
<GCONST> 1.301546e+02
<STATE> 3
<MEAN> 39
 -1.308081e+01 2.231488e+00 3.076047e+00 1.657535e+00 2.860558e+00 1.787645e-01 4.592448e+00 -1.336688e+00 4.309990e-01 1.831204e-01 1.033549e+00 2.657905e+00 5.024132e+01 -1.281017e+00 -2.479377e+00 6.342189e-01 -1.159561e+00 8.900931e-01 1.239216e-01 8.012224e-01 -2.515919e+00 -4.790675e-01 -7.681488e-01 6.662177e-02 7.429636e-01 4.991890e+00 1.081926e+00 -2.333911e-02 5.329693e-01 -2.909828e-02 4.118478e-01 -8.774785e-01 -3.580455e-01 5.702133e-02 -1.013576e+00 -1.330279e+00 7.116511e-02 -1.392896e-01 1.293093e+00
<VARIANCE> 39
 2.893916e+01 4.020248e+01 2.171955e+01 3.650086e+01 4.719773e+01 4.400413e+01 3.670275e+01 5.223556e+01 2.979975e+01 3.151376e+01 2.360693e+01 2.367202e+01 8.449415e+01 4.242026e+00 2.946339e+00 3.583214e+00 4.193483e+00 6.712231e+00 6.013701e+00 5.342940e+00 6.077756e+00 4.810852e+00 5.009726e+00 3.231816e+00 3.320904e+00 6.605041e+00 5.011270e-01 6.159630e-01 5.988807e-01 8.194253e-01 1.036739e+00 9.684033e-01 9.835269e-01 1.119331e+00 7.263821e-01 8.685207e-01 6.134831e-01 5.569265e-01 1.293309e+00
<GCONST> 1.350091e+02
<STATE> 4
<MEAN> 39
 -1.331497e+01 -2.287326e+00 6.260923e+00 -9.038728e-01 5.669303e+00 -4.191737e-01 5.974626e+00 -7.689756e+00 -3.971304e+00 -4.865209e+00 8.783144e-01 3.993479e+00 6.554755e+01 2.460867e+00 -8.203201e-01 1.030542e+00 -4.677839e-01 1.360651e+00 -2.551872e+00 -9.927640e-01 -1.138478e-01 -2.661265e+00 -3.845088e+00 2.088462e-01 -7.545459e-02 4.205577e+00 1.152862e+00 6.363837e-01 -2.153163e-01 3.406034e-01 -1.083429e-01 -1.006720e+00 -6.545389e-01 1.300656e+00 -3.013519e-01 -5.975651e-01 1.580697e-01 -3.545414e-01 -1.157126e+00
<VARIANCE> 39
 2.935630e+01 2.136022e+01 1.976601e+01 2.388313e+01 3.548867e+01 3.245869e+01 4.506062e+01 3.954631e+01 3.820810e+01 3.877775e+01 2.364075e+01 2.084547e+01 3.221225e+01 4.788859e+00 3.268637e+00 3.284867e+00 4.593680e+00 8.289474e+00 8.491139e+00 7.334169e+00 7.806958e+00 5.361117e+00 8.408219e+00 4.431784e+00 3.861196e+00 9.618212e+00 6.537971e-01 5.156206e-01 5.615859e-01 7.305042e-01 8.720351e-01 1.050923e+00 1.127450e+00 9.950996e-01 1.180102e+00 1.126031e+00 7.187936e-01 5.214644e-01 7.846438e-01
<GCONST> 1.355714e+02
<TRANSP> 5
 0.000000e+00 1.000000e+00 0.000000e+00 0.000000e+00 0.000000e+00
 0.000000e+00 6.312286e-01 3.687714e-01 0.000000e+00 0.000000e+00
 0.000000e+00 0.000000e+00 3.787781e-01 6.212219e-01 0.000000e+00
 0.000000e+00 0.000000e+00 0.000000e+00 4.655708e-01 5.344292e-01
 0.000000e+00 0.000000e+00 0.000000e+00 0.000000e+00 0.000000e+00
<ENDHMM>
~h "U"
<BEGINHMM>
<NUMSTATES> 5
<STATE> 2
<MEAN> 39
 -2.446750e+00 2.935864e+00 1.001348e+01 -1.382926e+00 8.039333e+00 -4.973186e+00 4.548619e-01 2.137752e+00 -4.329344e+00 -1.702104e+01 -3.805251e+00 1.797556e+00 6.283472e+01 2.261073e+00 1.097865e+00 1.447414e+00 -3.358290e-01 -1.264398e-01 -2.704709e+00 -2.323255e+00 1.685407e+00 3.721924e-01 -2.921067e+00 -1.325989e+00 -1.488586e-01 1.001210e+00 -3.857704e-01 -1.920436e-01 -3.517970e-01 2.082269e-01 -2.064136e-01 1.103596e-01 -8.719694e-02 3.746968e-02 5.033545e-01 5.625589e-01 1.589910e-01 -1.623311e-02 -3.120111e-01
<VARIANCE> 39
 2.367515e+01 3.301176e+01 2.976452e+01 2.906091e+01 5.190581e+01 9.955310e+01 6.244815e+01 5.237281e+01 7.263538e+01 5.919313e+01 3.692169e+01 2.558489e+01 4.989683e+01 4.014638e+00 4.548934e+00 3.836786e+00 4.334434e+00 4.104768e+00 6.748624e+00 7.706475e+00 5.073725e+00 5.389836e+00 6.305172e+00 3.986599e+00 3.322184e+00 3.153978e+00 7.509719e-01 6.897838e-01 6.386656e-01 4.842034e-01 6.497070e-01 1.359764e+00 9.147605e-01 7.982985e-01 8.025389e-01 1.082427e+00 5.896683e-01 5.029534e-01 8.086441e-01
<GCONST> 1.369946e+02
<STATE> 3
<MEAN> 39
 2.686234e-01 2.622866e+00 1.218575e+01 -2.185854e+00 6.281477e+00 -1.120476e+01 -4.235369e+00 7.167764e+00 -4.556829e-01 -2.277450e+01 -6.223956e+00 2.108691e+00 6.584563e+01 4.034294e-01 2.643727e-01 -8.795653e-02 -1.193739e-02 -1.104921e-01 -4.122194e-01 -6.331948e-01 4.481142e-01 7.917173e-01 -2.525437e-01 -5.841571e-01 -3.108261e-01 1.735120e-03 -5.347291e-01 2.659052e-02 -5.612590e-01 3.017462e-01 1.467558e-01 1.151221e+00 7.612355e-01 -6.878404e-01 -4.107117e-02 1.292786e+00 3.314269e-01 -1.368867e-01 -6.145436e-01
<VARIANCE> 39
 8.128130e+00 1.982322e+01 2.976478e+01 2.920949e+01 5.825420e+01 7.412305e+01 5.377155e+01 4.561986e+01 9.375533e+01 4.648801e+01 4.555314e+01 2.993979e+01 1.343473e+01 1.170604e+00 2.156110e+00 2.051038e+00 2.069575e+00 3.343624e+00 5.537867e+00 5.662413e+00 4.547305e+00 3.865796e+00 5.010899e+00 3.549852e+00 2.242392e+00 1.786231e+00 3.979513e-01 4.651009e-01 4.931965e-01 4.834467e-01 6.627440e-01 9.456502e-01 9.158256e-01 6.815103e-01 9.988053e-01 9.669499e-01 6.591127e-01 5.469560e-01 2.971140e-01
<GCONST> 1.257276e+02
<STATE> 4
<MEAN> 39
 -3.600201e-01 5.103830e+00 9.114470e+00 -1.495613e+00 7.049011e+00 -7.236063e+00 -1.651453e+00 3.738844e+00 -8.169924e-01 -1.692753e+01 -6.650406e+00 -4.934775e-02 6.275707e+01 -3.607773e-01 8.316184e-01 -1.132098e+00 1.009741e+00 3.214915e-01 2.346121e+00 1.159749e+00 -9.064217e-01 2.056270e-01 2.585790e+00 3.886581e-01 -3.419047e-01 -1.927230e+00 -3.567354e-01 -1.477667e-01 -9.745248e-02 2.948892e-01 -2.357523e-02 3.210118e-01 1.824133e-01 -2.369463e-02 -2.568354e-02 3.062412e-01 2.582776e-01 1.468125e-01 -3.291797e-01
<VARIANCE> 39
 1.429539e+01 2.775097e+01 3.124667e+01 3.865076e+01 6.221249e+01 8.701179e+01 7.251284e+01 5.382021e+01 8.601301e+01 5.378294e+01 5.719536e+01 2.921472e+01 3.156922e+01 2.253677e+00 2.668902e+00 2.949572e+00 3.199851e+00 4.564173e+00 5.325626e+00 5.512610e+00 4.413483e+00 4.915790e+00 4.961919e+00 3.573879e+00 2.770534e+00 2.834191e+00 3.688025e-01 4.813507e-01 4.044654e-01 4.934978e-01 5.825513e-01 1.102718e+00 1.100161e+00 8.461204e-01 8.707505e-01 9.862077e-01 6.840938e-01 4.897340e-01 4.608384e-01
<GCONST> 1.320110e+02
<TRANSP> 5
 0.000000e+00 1.000000e+00 0.000000e+00 0.000000e+00 0.000000e+00
 0.000000e+00 2.842737e-01 7.157263e-01 0.000000e+00 0.000000e+00
 0.000000e+00 0.000000e+00 5.828197e-01 4.171803e-01 0.000000e+00
 0.000000e+00 0.000000e+00 0.000000e+00 5.130923e-01 4.869077e-01
 0.000000e+00 0.000000e+00 0.000000e+00 0.000000e+00 0.000000e+00
<ENDHMM>
~h "Y"
<BEGINHMM>
<NUMSTATES> 5
<STATE> 2
<MEAN> 39
 -2.642427e-01 -6.536251e+00 7.220812e-01 5.163466e+00 8.989564e+00 -1.950342e+01 2.471378e-01 -2.146724e+00 -1.539347e+01 -8.095390e+00 1.114362e+01 4.116855e+00 7.011979e+01 -3.012293e-01 -2.150275e-01 5.724646e-01 4.076216e-01 1.090679e+00 -1.344668e-01 -1.051594e+00 -1.229049e+00 -1.160740e+00 1.174752e+00 5.034817e-01 -3.713394e-01 -6.480126e-02 -4.425784e-02 2.405917e-01 1.803729e-01 -6.480865e-02 -6.046665e-02 9.574876e-02 5.181155e-02 1.653639e-01 2.999808e-01 -1.051762e-01 -3.633783e-01 -1.814047e-01 -1.775347e-01
<VARIANCE> 39
 1.136917e+01 1.700608e+01 5.334581e+01 4.721735e+01 5.936594e+01 4.266242e+01 8.963493e+01 5.950203e+01 6.177180e+01 7.876618e+01 4.488792e+01 3.888813e+01 1.526375e+01 2.535610e-01 9.271657e-01 1.628649e+00 1.686993e+00 2.268986e+00 1.682906e+00 2.607975e+00 2.686424e+00 2.812855e+00 2.127977e+00 2.578126e+00 2.002427e+00 3.278292e-01 4.084975e-02 1.532537e-01 2.100284e-01 2.009985e-01 2.766739e-01 3.704310e-01 4.032742e-01 3.894309e-01 5.137902e-01 3.875821e-01 3.926708e-01 2.904721e-01 6.199440e-02
<GCONST> 1.061042e+02
<STATE> 3
<MEAN> 39
 -2.246315e+00 -5.527642e+00 5.124447e+00 7.053701e+00 1.274013e+01 -2.036402e+01 -3.765021e+00 -5.751532e+00 -1.693199e+01 -4.626818e+00 8.861553e+00 2.590437e-01 6.829941e+01 -2.110428e-01 8.247079e-01 4.092265e-01 -9.499389e-02 2.345861e-01 7.617737e-01 -2.876212e-01 -4.320247e-01 3.171061e-01 2.612113e-01 -8.008441e-01 -4.043113e-01 -9.729040e-01 4.963657e-02 3.367243e-01 -1.813471e-01 -1.256387e-01 -3.319758e-01 5.486826e-01 3.425937e-01 2.590042e-01 4.237536e-01 -1.519764e-01 -2.099146e-01 1.743568e-01 -4.290973e-01
<VARIANCE> 39
 9.707613e+00 1.535749e+01 3.087425e+01 4.647289e+01 4.071293e+01 4.358604e+01 6.815890e+01 6.224451e+01 5.527670e+01 7.805051e+01 3.609628e+01 3.476417e+01 1.985147e+01 5.175418e-01 1.283996e+00 2.295007e+00 2.191025e+00 2.115525e+00 2.584360e+00 2.627401e+00 2.214517e+00 2.853729e+00 2.209824e+00 3.021107e+00 2.489160e+00 1.531218e+00 9.114116e-02 1.908230e-01 2.301507e-01 2.474452e-01 3.415409e-01 4.101132e-01 4.375948e-01 4.102041e-01 5.176030e-01 4.017103e-01 4.360901e-01 3.347967e-01 1.512032e-01
<GCONST> 1.112445e+02
<STATE> 4
<MEAN> 39
 -4.136751e+00 -5.339788e-01 4.720319e+00 6.065178e+00 1.043298e+01 -1.406833e+01 -4.476216e+00 -5.659657e+00 -1.212500e+01 -3.210047e+00 5.441442e+00 1.437264e+00 5.976347e+01 -4.783523e-01 1.009827e+00 -3.040453e-01 -1.960483e-01 -6.657164e-01 1.908486e+00 4.205413e-01 3.778019e-01 1.155349e+00 2.020373e-01 -4.294359e-01 3.014542e-01 -1.858064e+00 -5.650792e-02 -2.775565e-02 -7.912247e-02 -2.814102e-02 -1.569462e-01 2.088478e-01 2.843283e-01 2.279809e-01 2.362039e-01 -4.959880e-02 -2.034811e-02 5.539798e-02 -5.791254e-02
<VARIANCE> 39
 2.139623e+01 3.084595e+01 3.146785e+01 4.110390e+01 5.699197e+01 6.106113e+01 6.412392e+01 6.180530e+01 6.161876e+01 8.687138e+01 4.192113e+01 3.333918e+01 9.681552e+01 1.360588e+00 1.826542e+00 2.479632e+00 2.318613e+00 3.222151e+00 3.719899e+00 3.507972e+00 3.161221e+00 3.776773e+00 2.795427e+00 3.178447e+00 2.405658e+00 3.005460e+00 2.080572e-01 3.911866e-01 4.103663e-01 3.685201e-01 5.938647e-01 6.229304e-01 5.541198e-01 5.175510e-01 5.823592e-01 4.799984e-01 5.705425e-01 4.296952e-01 4.863623e-01
<GCONST> 1.251733e+02
<TRANSP> 5
 0.000000e+00 1.000000e+00 0.000000e+00 0.000000e+00 0.000000e+00
 0.000000e+00 6.747598e-01 3.252402e-01 0.000000e+00 0.000000e+00
 0.000000e+00 0.000000e+00 5.182298e-01 4.817702e-01 0.000000e+00
 0.000000e+00 0.000000e+00 0.000000e+00 4.865060e-01 5.134941e-01
 0.000000e+00 0.000000e+00 0.000000e+00 0.000000e+00 0.000000e+00
<ENDHMM>
~h "AH"
<BEGINHMM>
<NUMSTATES> 5
<STATE> 2
<MEAN> 39
 -1.209615e-01 -3.425231e+00 -6.038756e-01 -2.003455e+00 -5.924603e-02 -1.743073e+01 6.149829e+00 6.419363e+00 -8.267543e+00 -1.401041e+01 8.294157e+00 6.363599e+00 6.901350e+01 1.403860e+00 -1.180095e+00 -1.533986e+00 -5.902581e-01 -1.540064e+00 -3.192149e+00 1.034561e+00 1.390461e+00 -9.213668e-01 -1.142517e+00 1.661570e+00 5.777183e-01 2.089529e+00 -5.049664e-01 1.123635e-01 2.252140e-01 2.237230e-01 2.623298e-01 9.741858e-01 1.151762e-01 -3.425370e-01 3.740167e-01 6.028161e-01 -4.284546e-01 -2.826540e-01 -7.058388e-01
<VARIANCE> 39
 2.474868e+01 2.113672e+01 2.785110e+01 3.429198e+01 6.822748e+01 7.809666e+01 8.901830e+01 8.673096e+01 7.642089e+01 6.941333e+01 3.748658e+01 2.932018e+01 5.366777e+01 3.339845e+00 2.732502e+00 2.145015e+00 2.793939e+00 3.762421e+00 6.582547e+00 6.767921e+00 4.582781e+00 4.310827e+00 5.500978e+00 3.702529e+00 2.959975e+00 4.166551e+00 6.485224e-01 5.667345e-01 5.478468e-01 4.798787e-01 7.301179e-01 1.336618e+00 9.486149e-01 8.040554e-01 8.859118e-01 8.990013e-01 7.232403e-01 6.231433e-01 8.416231e-01
<GCONST> 1.356965e+02
<STATE> 3
<MEAN> 39
 1.320269e+00 -6.053463e+00 -2.269175e+00 -2.314157e+00 -3.816617e+00 -2.139489e+01 1.087226e+01 8.256734e+00 -9.040631e+00 -1.371064e+01 9.748053e+00 6.755427e+00 7.191286e+01 -9.350404e-03 4.293102e-01 2.058291e-01 5.807751e-02 1.227068e-01 4.419220e-01 1.388604e-01 -4.132887e-01 -1.460853e-01 8.370117e-02 -3.443429e-01 -1.050412e-01 -4.235321e-01 -1.520911e-01 5.180404e-01 4.015498e-01 2.238753e-01 4.910407e-01 8.199278e-01 -4.628732e-01 -2.948125e-01 2.038331e-01 1.432533e-01 -5.501676e-01 -2.060874e-01 -6.819107e-01
<VARIANCE> 39
 8.929474e+00 1.622152e+01 2.045710e+01 2.660506e+01 5.973678e+01 4.340215e+01 8.562281e+01 7.792555e+01 5.515980e+01 5.106364e+01 2.944304e+01 2.510313e+01 1.307490e+01 4.422330e-01 1.498479e+00 1.235958e+00 1.398605e+00 3.072418e+00 2.666955e+00 3.640974e+00 3.383595e+00 2.877302e+00 2.574496e+00 2.392384e+00 1.893444e+00 9.887555e-01 1.877638e-01 2.253641e-01 2.535729e-01 2.829069e-01 3.473490e-01 6.749671e-01 5.953143e-01 5.636248e-01 5.870549e-01 5.794828e-01 4.826151e-01 3.859340e-01 2.231487e-01
<GCONST> 1.123916e+02
<STATE> 4
<MEAN> 39
 -1.045634e-01 7.174213e-02 -1.492186e-01 -1.887686e+00 -5.590925e-01 -1.474828e+01 7.893046e+00 4.351925e+00 -9.235621e+00 -1.235836e+01 5.836276e+00 6.285327e+00 6.460890e+01 -4.669777e-01 1.563244e+00 6.783001e-01 5.839459e-01 9.240096e-01 2.483902e+00 -1.018608e+00 -2.456284e-01 9.723452e-01 1.043509e+00 -1.382106e+00 -4.530973e-01 -2.789274e+00 -2.672833e-01 -1.781378e-01 6.840747e-02 4.934815e-02 -9.364101e-03 2.505427e-01 -6.778840e-02 9.109486e-02 2.883198e-01 3.478715e-01 1.098340e-02 -1.113901e-01 -1.510499e-01
<VARIANCE> 39
 1.482996e+01 2.220864e+01 2.823086e+01 3.383549e+01 6.979228e+01 5.660204e+01 6.872453e+01 7.453291e+01 5.290349e+01 6.512033e+01 3.618245e+01 2.903377e+01 5.565679e+01 2.091931e+00 1.785862e+00 2.524803e+00 2.662928e+00 3.798715e+00 3.866385e+00 4.247482e+00 4.351223e+00 3.604590e+00 3.688451e+00 3.060584e+00 2.618392e+00 2.336463e+00 3.173066e-01 3.751922e-01 4.430415e-01 4.244611e-01 6.144773e-01 7.288644e-01 5.904462e-01 7.415308e-01 6.547126e-01 6.034263e-01 5.376649e-01 4.417328e-01 6.001568e-01
<GCONST> 1.263195e+02
<TRANSP> 5
 0.000000e+00 1.000000e+00 0.000000e+00 0.000000e+00 0.000000e+00
 0.000000e+00 5.247151e-01 4.752849e-01 0.000000e+00 0.000000e+00
 0.000000e+00 0.000000e+00 7.087147e-01 2.912853e-01 0.000000e+00
 0.000000e+00 0.000000e+00 0.000000e+00 5.626615e-01 4.373385e-01
 0.000000e+00 0.000000e+00 0.000000e+00 0.000000e+00 0.000000e+00
<ENDHMM>
~h "AX"
<BEGINHMM>
<NUMSTATES> 5
<STATE> 2
<MEAN> 39
 -8.367246e-01 5.264796e-01 5.427989e+00 -3.712880e+00 7.189913e+00 -6.785322e+00 3.032685e+00 5.875149e-01 -5.691521e+00 -1.675518e+01 1.457222e+00 3.778226e+00 6.677088e+01 3.826578e+00 1.448330e+00 -4.488496e-01 -5.170000e-01 -2.140987e+00 -5.717614e+00 -1.427510e+00 3.725245e+00 -1.463715e-01 -3.289257e+00 1.600157e-01 -5.394531e-01 1.369805e+00 -8.651908e-01 -9.744061e-01 -4.506481e-01 1.877550e-01 2.645614e-03 -1.517835e-01 -1.803151e-01 -9.794894e-02 3.388745e-01 5.737323e-01 4.071600e-01 -3.292558e-02 1.584763e-01
<VARIANCE> 39
 1.500597e+01 1.707568e+01 1.533486e+01 1.206379e+01 3.399063e+01 4.822389e+01 4.057337e+01 4.782072e+01 3.804924e+01 2.824338e+01 2.664043e+01 2.393981e+01 1.394308e+01 1.838522e+00 7.304830e+00 1.337840e+00 2.789505e+00 2.373275e+00 3.173326e+00 4.336715e+00 3.360162e+00 3.763515e+00 2.691894e+00 2.106382e+00 3.843167e+00 5.450230e-01 6.893924e-01 8.384259e-01 2.171637e-01 1.636138e-01 3.056169e-01 1.059950e+00 6.279092e-01 6.685185e-01 7.139919e-01 5.889401e-01 4.111455e-01 7.582845e-01 2.824963e-01
<GCONST> 1.167247e+02
<STATE> 3
<MEAN> 39
 2.763880e+00 -1.215706e+00 2.301260e+00 -4.525823e+00 3.652006e+00 -1.694174e+01 1.993947e+00 8.456275e+00 -4.693979e+00 -2.152174e+01 3.617029e+00 4.274615e+00 6.940513e+01 9.443796e-01 -2.920123e-01 -1.222312e+00 -1.026325e-02 -1.156730e+00 -2.926428e+00 1.221936e-01 2.278294e+00 1.663496e-02 -5.293328e-01 1.003621e+00 -4.412807e-01 3.069350e-01 -9.172426e-01 -3.240209e-01 1.911981e-01 2.545858e-01 4.234584e-01 1.339493e+00 3.030844e-01 -1.088544e+00 -1.731705e-01 9.512383e-01 -4.569564e-03 7.940957e-02 -3.589506e-01
<VARIANCE> 39
 7.171460e+00 9.150418e+00 1.853640e+01 2.183356e+01 3.171375e+01 3.072022e+01 4.807321e+01 4.709900e+01 4.135421e+01 2.021538e+01 1.776285e+01 2.936871e+01 7.370962e+00 5.483024e-01 7.581390e-01 5.598159e-01 1.267201e+00 8.695763e-01 4.022312e+00 3.159952e+00 3.622316e+00 2.367033e+00 2.041389e+00 2.056849e+00 1.924318e+00 5.416335e-01 2.366924e-01 5.475501e-01 1.445886e-01 2.768358e-01 2.402923e-01 6.308241e-01 6.205107e-01 5.409148e-01 5.309789e-01 3.429528e-01 4.886706e-01 6.962355e-01 5.013243e-02
<GCONST> 1.022464e+02
<STATE> 4
<MEAN> 39
 2.957066e+00 -1.358584e+00 1.698455e+00 -3.559635e+00 -2.661262e-02 -1.958655e+01 4.316953e+00 9.356190e+00 -5.770411e+00 -1.929467e+01 4.751996e+00 3.275332e+00 6.918758e+01 -4.438396e-01 3.875143e-01 4.434350e-01 2.950357e-01 -5.218327e-02 9.555062e-01 -1.862847e-02 -1.078426e+00 -3.831245e-01 7.289385e-01 -3.615162e-01 1.167317e-01 -6.885493e-01 -4.203849e-01 2.867484e-01 3.702444e-01 3.279579e-02 4.705178e-01 9.393429e-01 -2.357873e-01 -6.297172e-01 9.826583e-02 4.360356e-01 -2.981084e-01 3.994005e-02 -4.369231e-01
<VARIANCE> 39
 6.646797e+00 6.180079e+00 2.397417e+01 2.271932e+01 4.797898e+01 3.868394e+01 5.513844e+01 5.264552e+01 2.876244e+01 1.913402e+01 1.425593e+01 2.457050e+01 7.274023e+00 5.953697e-01 1.074754e+00 1.576314e+00 1.504849e+00 2.872903e+00 3.318134e+00 2.221145e+00 3.315166e+00 2.078821e+00 2.002668e+00 3.402099e+00 1.616232e+00 1.599652e+00 1.847723e-01 1.676524e-01 3.466816e-01 3.077886e-01 3.639625e-01 6.984027e-01 4.357966e-01 5.961038e-01 4.327274e-01 4.290665e-01 6.855683e-01 4.304052e-01 2.503356e-01
<GCONST> 1.068961e+02
<TRANSP> 5
 0.000000e+00 1.000000e+00 0.000000e+00 0.000000e+00 0.000000e+00
 0.000000e+00 4.703529e-01 5.296471e-01 0.000000e+00 0.000000e+00
 0.000000e+00 0.000000e+00 5.319909e-01 4.680091e-01 0.000000e+00
 0.000000e+00 0.000000e+00 0.000000e+00 7.068869e-01 2.931131e-01
 0.000000e+00 0.000000e+00 0.000000e+00 0.000000e+00 0.000000e+00
<ENDHMM>
~h "BH"
<BEGINHMM>
<NUMSTATES> 5
<STATE> 2
<MEAN> 39
 -2.453971e+00 8.623022e+00 6.591136e+00 7.024934e+00 6.557107e+00 -6.647555e-01 3.508648e+00 5.029990e+00 -2.172411e-02 -5.238721e+00 -1.521976e+00 -4.119755e-01 5.268519e+01 -1.883618e+00 -3.230456e-01 5.093307e-02 -6.677702e-01 2.612414e-01 1.226921e+00 1.445227e+00 -1.317768e+00 6.396066e-01 1.499413e+00 -4.040163e-02 1.467243e-01 3.717023e-01 -2.852598e-01 -8.901170e-01 -1.576764e-01 -6.710889e-01 1.756020e-01 -3.268446e-01 1.089494e-01 -3.797350e-03 -4.408291e-02 -5.336639e-01 3.619128e-01 4.355777e-01 1.029318e+00
<VARIANCE> 39
 4.373227e+01 2.033636e+01 2.138157e+01 2.917544e+01 3.533565e+01 4.765084e+01 2.926593e+01 4.800181e+01 3.607384e+01 3.332343e+01 2.274107e+01 2.867315e+01 3.387936e+01 6.434154e+00 4.185964e+00 2.141296e+00 4.057537e+00 2.922994e+00 4.925781e+00 4.234983e+00 4.334079e+00 3.217555e+00 5.460320e+00 2.773080e+00 3.394113e+00 5.660322e+00 1.009204e+00 4.269740e-01 3.693484e-01 5.648394e-01 6.328426e-01 6.875037e-01 7.279741e-01 1.199377e+00 5.432911e-01 7.666655e-01 4.973519e-01 4.973502e-01 5.840277e-01
<GCONST> 1.283612e+02
<STATE> 3
<MEAN> 39
 -1.067551e+01 4.715203e-01 3.162935e+00 1.170715e-01 8.749900e+00 2.923170e+00 9.723732e+00 4.212890e-01 1.084094e+00 -3.276591e+00 1.871114e+00 4.677519e+00 6.125455e+01 -3.560048e-01 -1.797430e+00 1.552186e-01 -1.739201e+00 2.204285e-01 1.017966e-01 1.431382e+00 1.280829e+00 9.567153e-01 -1.175682e-01 9.553773e-01 1.228781e+00 2.113115e+00 1.044648e+00 4.766218e-01 6.647694e-01 3.378924e-01 -2.554109e-01 -8.196631e-01 -5.221109e-01 8.528849e-01 7.085314e-02 -6.526366e-01 -2.179097e-01 -2.839059e-01 -1.588748e-01
<VARIANCE> 39
 2.365399e+01 1.736294e+01 2.015181e+01 2.286948e+01 3.818185e+01 2.752980e+01 2.373229e+01 3.537093e+01 2.857041e+01 2.171722e+01 1.979454e+01 1.897239e+01 2.022872e+01 3.380903e+00 2.701873e+00 3.452635e+00 3.460409e+00 6.000111e+00 4.883832e+00 4.596562e+00 6.911018e+00 4.685897e+00 3.625526e+00 2.588675e+00 3.015753e+00 2.257847e+00 4.132358e-01 5.398394e-01 5.478503e-01 5.470254e-01 5.891195e-01 7.038279e-01 8.988207e-01 9.600966e-01 5.898457e-01 6.363500e-01 5.213485e-01 5.101337e-01 4.314877e-01
<GCONST> 1.232374e+02
<STATE> 4
<MEAN> 39
 -6.387419e+00 -9.516801e-01 8.911514e+00 -4.210848e+00 2.754894e+00 -3.831327e+00 1.491793e+01 1.153881e+01 5.986889e+00 -7.504644e+00 1.730993e+00 5.455798e+00 6.550133e+01 1.039385e+00 3.445609e-01 5.230417e-01 -3.662177e-01 -5.482169e-01 -1.722986e+00 -5.062039e-01 4.377863e-01 -4.494194e-01 -1.621925e+00 -5.232334e-02 -2.788651e-01 1.095861e+00 2.558921e-01 3.267058e-01 -3.774063e-01 2.581887e-01 9.742489e-02 -3.134332e-01 -7.917774e-01 -5.443661e-01 -4.933978e-01 -2.325953e-01 -2.637020e-02 -1.562003e-01 -1.675531e-01
<VARIANCE> 39
 1.338939e+01 2.452012e+01 2.681046e+01 2.552206e+01 7.441225e+01 4.722194e+01 5.669937e+01 6.000121e+01 4.854374e+01 4.258862e+01 2.722658e+01 2.445802e+01 1.730692e+01 1.453300e+00 2.426921e+00 3.608469e+00 1.903442e+00 3.147652e+00 3.693424e+00 5.553629e+00 4.840914e+00 3.716917e+00 2.743324e+00 2.413025e+00 2.018495e+00 7.498375e-01 1.644175e-01 4.297669e-01 4.852068e-01 3.802847e-01 4.982901e-01 6.802912e-01 5.029150e-01 7.197217e-01 6.196650e-01 5.395145e-01 4.785464e-01 4.971330e-01 1.649790e-01
<GCONST> 1.190606e+02
<TRANSP> 5
 0.000000e+00 1.000000e+00 0.000000e+00 0.000000e+00 0.000000e+00
 0.000000e+00 6.975998e-01 3.024003e-01 0.000000e+00 0.000000e+00
 0.000000e+00 0.000000e+00 6.078478e-01 3.921522e-01 0.000000e+00
 0.000000e+00 0.000000e+00 0.000000e+00 7.321400e-01 2.678600e-01
 0.000000e+00 0.000000e+00 0.000000e+00 0.000000e+00 0.000000e+00
<ENDHMM>
~h "CH"
<BEGINHMM>
<NUMSTATES> 5
<STATE> 2
<MEAN> 39
 -2.471119e+01 -6.758683e+00 1.323144e+01 -5.570174e+00 2.444847e+00 -1.609481e+00 4.505393e+00 -5.656375e+00 -1.741287e+00 -2.411386e+00 4.283192e+00 3.015002e+00 6.367728e+01 -1.955731e+00 -2.562378e+00 3.162971e-01 -2.960457e-01 -5.685480e-01 4.240925e-01 -5.849545e-02 -7.419782e-01 6.056542e-01 7.930936e-01 1.163401e+00 2.515306e-01 1.750224e+00 9.903153e-01 1.478219e-01 -5.389437e-01 3.791614e-01 3.569164e-01 -1.741544e-01 -1.023924e-01 -2.047814e-01 -3.333721e-01 -7.056098e-02 -3.377899e-03 4.470984e-02 -1.158793e-01
<VARIANCE> 39
 5.242398e+01 7.231411e+01 3.772627e+01 4.768044e+01 3.334431e+01 3.065839e+01 2.847594e+01 4.232947e+01 2.752142e+01 2.920401e+01 2.873720e+01 2.287703e+01 5.543377e+01 9.243667e+00 3.783987e+00 7.357795e+00 4.591015e+00 4.181165e+00 3.575134e+00 3.595297e+00 4.153594e+00 3.062082e+00 3.346532e+00 2.318069e+00 2.137043e+00 5.153790e+00 1.161769e+00 1.236747e+00 1.053900e+00 7.027562e-01 7.587343e-01 6.679462e-01 8.672671e-01 8.009626e-01 5.309289e-01 6.033204e-01 5.777597e-01 3.797748e-01 1.532955e+00
<GCONST> 1.334695e+02
<STATE> 3
<MEAN> 39
 -2.087609e+01 -1.503182e+01 8.007354e+00 -2.539744e+00 4.620372e+00 -1.926543e+00 1.516739e+00 -1.245081e+01 -2.376420e+00 2.493115e+00 8.296371e+00 4.010208e+00 6.640024e+01 4.017962e+00 1.470094e+00 -7.614368e-01 1.426128e+00 2.143018e+00 -4.046370e-01 -7.471825e-01 -2.005628e-01 -9.604889e-01 1.377406e-01 -1.041591e+00 -5.176618e-01 -1.411474e+00 5.628465e-01 9.584706e-01 4.490494e-01 2.746210e-01 2.533183e-01 -3.637956e-01 1.144317e-01 5.852749e-01 -3.525055e-01 -4.761250e-01 -4.745915e-01 -3.223411e-01 -3.219386e-02
<VARIANCE> 39
 3.354863e+01 1.014223e+01 1.423967e+01 2.034497e+01 2.345822e+01 2.056877e+01 2.052073e+01 2.586748e+01 2.129140e+01 3.613985e+01 2.004293e+01 1.849855e+01 1.633437e+01 1.944878e+00 3.056620e+00 2.330838e+00 2.759990e+00 1.915630e+00 3.095394e+00 2.853019e+00 3.024806e+00 1.897225e+00 2.021581e+00 2.261554e+00 1.457560e+00 6.496419e-01 4.727603e-01 2.892290e-01 3.771273e-01 2.555134e-01 3.834029e-01 4.557702e-01 5.200043e-01 4.654553e-01 4.470495e-01 3.979835e-01 4.626473e-01 3.001300e-01 4.884781e-01
<GCONST> 1.087590e+02
<STATE> 4
<MEAN> 39
 -7.251426e+00 -4.924387e+00 8.778971e+00 3.581131e+00 1.222440e+01 -3.884135e+00 1.592383e+00 -9.589488e+00 -6.444235e+00 1.013460e+00 2.611441e+00 1.497388e+00 6.356987e+01 3.819599e+00 2.808172e+00 -5.523670e-01 1.626029e+00 1.567530e+00 -2.616127e+00 -3.484535e-01 6.566702e-01 -2.375984e+00 -1.280617e+00 -7.856008e-01 -9.145899e-01 4.795928e-01 -8.379472e-01 -6.301299e-01 -2.855730e-01 -3.725716e-01 -7.367724e-01 -5.630844e-01 -1.510334e-01 -3.865595e-02 -9.869082e-02 -2.949837e-01 5.636247e-01 1.363878e-01 4.487211e-01
<VARIANCE> 39
 2.138910e+01 2.029729e+01 2.929755e+01 3.920857e+01 2.572877e+01 5.656345e+01 4.630798e+01 5.526733e+01 3.593397e+01 5.736320e+01 2.173178e+01 2.086939e+01 1.415863e+01 2.561715e+00 2.765427e+00 2.717072e+00 2.815353e+00 2.948123e+00 3.697973e+00 4.365895e+00 3.787908e+00 4.299746e+00 3.904022e+00 2.893509e+00 1.824392e+00 1.264870e+00 3.571109e-01 5.415077e-01 3.881937e-01 4.009877e-01 3.088519e-01 7.111861e-01 7.541460e-01 4.954283e-01 5.470201e-01 4.035419e-01 4.325449e-01 2.807348e-01 2.321827e-01
<GCONST> 1.191495e+02
<TRANSP> 5
 0.000000e+00 1.000000e+00 0.000000e+00 0.000000e+00 0.000000e+00
 0.000000e+00 8.276548e-01 1.723452e-01 0.000000e+00 0.000000e+00
 0.000000e+00 0.000000e+00 7.089860e-01 2.910140e-01 0.000000e+00
 0.000000e+00 0.000000e+00 0.000000e+00 4.771737e-01 5.228263e-01
 0.000000e+00 0.000000e+00 0.000000e+00 0.000000e+00 0.000000e+00
<ENDHMM>
~h "DH"
<BEGINHMM>
<NUMSTATES> 5
<STATE> 2
<MEAN> 39
 -4.082085e+00 7.773088e+00 7.018363e+00 5.641172e+00 3.164499e+00 -1.508253e+00 4.590260e+00 3.437045e+00 -2.711618e+00 -5.345988e+00 -1.203692e+00 1.339568e-01 5.112314e+01 -2.520941e+00 -1.735784e+00 -6.127086e-01 -1.130313e+00 1.883296e-01 1.087551e+00 5.792221e-01 -1.990216e+00 7.050404e-01 1.977014e+00 5.073948e-01 7.259743e-01 1.475991e+00 -4.762537e-01 -1.043631e+00 7.437295e-02 -7.789522e-01 3.390884e-01 -9.277425e-02 1.847953e-01 -6.013150e-01 -1.547196e-01 -4.793361e-01 4.260298e-01 4.513661e-01 1.698294e+00
<VARIANCE> 39
 4.198260e+01 2.352709e+01 2.996658e+01 3.859885e+01 5.595377e+01 4.675468e+01 4.248595e+01 6.543341e+01 3.431535e+01 4.782663e+01 2.709150e+01 2.527823e+01 3.431830e+01 5.056677e+00 6.693636e+00 2.534179e+00 5.154509e+00 4.121190e+00 4.176760e+00 5.192575e+00 7.606022e+00 3.501917e+00 5.208721e+00 3.323400e+00 3.142460e+00 1.309652e+01 1.012484e+00 6.406102e-01 5.733551e-01 8.022984e-01 6.136413e-01 6.040353e-01 8.816236e-01 1.359445e+00 5.561616e-01 8.479643e-01 4.920674e-01 4.710937e-01 8.271152e-01
<GCONST> 1.349049e+02
<STATE> 3
<MEAN> 39
 -1.545801e+01 -4.458841e+00 4.898003e+00 -2.345990e+00 4.890216e+00 1.615391e+00 7.919337e+00 -7.341128e+00 -1.324136e+00 -8.233933e-01 3.502149e+00 5.729901e+00 6.669405e+01 -1.185867e+00 -2.211009e+00 3.118083e-01 -2.077547e+00 1.386085e+00 1.298720e+00 1.078652e+00 -1.125086e+00 -2.496140e-01 -3.397236e-02 1.207085e+00 1.402065e+00 3.123534e+00 1.457426e+00 1.120943e+00 5.784073e-01 5.673353e-01 2.813329e-01 -4.161583e-01 -2.466252e-01 1.436578e+00 -1.479332e-01 -1.037282e+00 -4.484996e-01 -4.888934e-01 -1.209380e+00
<VARIANCE> 39
 9.876939e+00 1.203587e+01 1.280576e+01 2.011498e+01 1.772771e+01 1.915578e+01 3.692031e+01 2.475993e+01 2.611480e+01 2.311717e+01 2.217757e+01 2.123269e+01 2.416606e+01 4.716596e+00 3.514697e+00 2.742191e+00 3.535204e+00 4.477835e+00 3.789671e+00 4.462157e+00 8.339856e+00 3.699046e+00 5.747009e+00 2.957721e+00 3.300032e+00 6.830838e+00 3.784859e-01 5.613312e-01 4.417465e-01 6.696900e-01 6.652896e-01 8.547887e-01 8.859519e-01 8.907179e-01 7.421091e-01 8.499078e-01 6.753832e-01 5.633754e-01 8.195078e-01
<GCONST> 1.239848e+02
<STATE> 4
<MEAN> 39
 -9.564095e+00 -2.668165e+00 8.734610e+00 -4.226403e+00 9.044374e+00 2.250800e+00 1.135416e+01 1.106659e+00 -9.831964e-01 -6.232251e+00 2.712157e+00 5.706419e+00 6.493703e+01 1.897921e+00 1.401196e+00 1.263302e+00 3.362292e-01 5.645487e-01 -1.289445e+00 -4.356342e-01 1.703310e+00 -3.871654e-02 -2.142753e+00 -6.254491e-01 -6.341084e-01 -4.400181e-02 3.150178e-01 4.682541e-01 -1.879945e-01 3.392683e-01 -4.775023e-01 -7.618539e-01 -6.922295e-01 -5.668988e-02 -9.527722e-02 -2.592654e-01 -1.282116e-01 -2.362367e-01 -1.211661e-01
<VARIANCE> 39
 1.590843e+01 2.181367e+01 2.397643e+01 2.333751e+01 5.155099e+01 3.536778e+01 5.884134e+01 7.009097e+01 3.745872e+01 5.136856e+01 2.718030e+01 2.170897e+01 1.637069e+01 1.148602e+00 2.175738e+00 2.691411e+00 2.483053e+00 4.519282e+00 3.812142e+00 4.792016e+00 4.287934e+00 3.413714e+00 3.764889e+00 2.818514e+00 1.918419e+00 1.309774e+00 3.544485e-01 5.410231e-01 5.122669e-01 5.123708e-01 5.167409e-01 5.993151e-01 5.387292e-01 9.457347e-01 6.196021e-01 6.938125e-01 5.442448e-01 4.608884e-01 4.914911e-01
<GCONST> 1.218474e+02
<TRANSP> 5
 0.000000e+00 1.000000e+00 0.000000e+00 0.000000e+00 0.000000e+00
 0.000000e+00 6.129755e-01 3.870245e-01 0.000000e+00 0.000000e+00
 0.000000e+00 0.000000e+00 5.887575e-01 4.112425e-01 0.000000e+00
 0.000000e+00 0.000000e+00 0.000000e+00 7.030216e-01 2.969784e-01
 0.000000e+00 0.000000e+00 0.000000e+00 0.000000e+00 0.000000e+00
<ENDHMM>
~h "DX"
<BEGINHMM>
<NUMSTATES> 5
<STATE> 2
<MEAN> 39
 8.718832e-01 5.690782e+00 2.098927e+00 1.736590e+00 1.305977e+01 1.505372e+00 -1.664740e+00 1.699533e+00 -8.459467e+00 -9.287388e+00 1.481954e+00 2.883505e+00 5.575202e+01 -1.138653e-01 1.671225e+00 9.057895e-02 1.598100e+00 -9.103754e-01 1.639934e+00 1.642776e+00 3.444834e-02 5.766430e-01 1.372501e+00 -5.046848e-01 5.042973e-02 -1.936294e+00 -3.527761e-01 -5.235704e-01 7.733771e-02 7.782568e-02 -1.825856e-01 -9.460486e-01 -1.000925e-01 -1.821284e-01 8.427357e-02 -3.221753e-01 1.088711e-01 -1.976668e-02 8.122202e-01
<VARIANCE> 39
 4.154953e+01 2.727991e+01 4.226207e+01 1.310027e+02 4.551226e+01 5.304184e+01 5.929422e+01 4.202093e+01 6.849825e+01 1.056479e+02 5.631626e+01 3.119369e+01 5.406462e+01 2.775459e+00 2.190009e+00 2.345837e+00 4.394344e+00 4.450145e+00 4.449180e+00 5.765153e+00 3.359556e+00 6.394542e+00 4.646841e+00 3.445072e+00 2.384419e+00 4.175548e+00 4.898607e-01 6.134357e-01 5.055587e-01 1.046860e+00 8.113384e-01 1.017689e+00 1.137146e+00 7.886043e-01 1.199372e+00 1.116834e+00 7.859778e-01 5.185052e-01 8.950757e-01
<GCONST> 1.374458e+02
<STATE> 3
<MEAN> 39
 3.435996e-01 1.043726e+01 4.197625e+00 8.787003e+00 1.119833e+01 2.984260e+00 5.424569e-01 3.821858e-01 -6.140649e+00 -4.720436e+00 5.260930e-01 1.446665e+00 5.107610e+01 -1.084505e+00 -9.797347e-01 2.263467e-01 2.013946e-01 -3.743561e-01 -1.125446e+00 8.016044e-01 -6.013269e-01 -1.850580e-02 -1.982064e-01 -1.719112e-02 1.968004e-01 1.451473e+00 -2.996204e-01 -1.308691e+00 5.343958e-02 -6.168714e-01 3.061044e-01 -1.170011e+00 -3.807694e-01 -1.345424e-01 -4.176750e-01 -7.421280e-01 3.724563e-01 1.398109e-01 1.458516e+00
<VARIANCE> 39
 2.014429e+01 2.464952e+01 3.481031e+01 4.893936e+01 2.395186e+01 3.598631e+01 3.344611e+01 2.746778e+01 3.579838e+01 4.517089e+01 3.941736e+01 2.536606e+01 2.619838e+01 3.981323e+00 4.861366e+00 2.886422e+00 4.528895e+00 3.260542e+00 4.656941e+00 4.560381e+00 3.616197e+00 4.874787e+00 4.171142e+00 3.990218e+00 2.913722e+00 4.914940e+00 4.644135e-01 4.776141e-01 6.352268e-01 5.013648e-01 6.926849e-01 1.023365e+00 1.082890e+00 7.489800e-01 7.563397e-01 8.697547e-01 8.372737e-01 6.715136e-01 8.711343e-01
<GCONST> 1.302473e+02
<STATE> 4
<MEAN> 39
 -6.106629e+00 5.548475e-01 4.446877e+00 5.475987e+00 1.192135e+01 -3.304880e+00 2.727759e+00 -2.314224e+00 -6.661855e+00 -6.885081e+00 7.478780e-01 2.696946e+00 6.153100e+01 -5.673978e-01 -2.933847e+00 2.650162e-01 -1.043399e+00 -2.362288e-03 -3.103070e+00 -6.701782e-01 -3.665116e-01 -1.179047e+00 -2.044588e+00 1.121475e+00 8.136062e-01 3.668683e+00 6.751066e-01 1.481566e-01 -3.220240e-02 -2.712267e-01 -3.760256e-02 -3.093605e-01 -5.977224e-01 4.180724e-01 -1.720200e-01 -4.546795e-01 3.462493e-01 -7.596435e-03 -8.608404e-02
<VARIANCE> 39
 2.433424e+01 4.327908e+01 3.875416e+01 3.954406e+01 3.430407e+01 4.747223e+01 4.498518e+01 4.813350e+01 5.310604e+01 7.219357e+01 3.459707e+01 3.042782e+01 6.185005e+01 3.012471e+00 5.627391e+00 5.649969e+00 3.993485e+00 5.519840e+00 9.120870e+00 6.558361e+00 5.388248e+00 5.184959e+00 7.307189e+00 6.601378e+00 5.696246e+00 8.727802e+00 4.519209e-01 1.068159e+00 7.828704e-01 7.901808e-01 1.076840e+00 1.209373e+00 1.488089e+00 8.599321e-01 1.072498e+00 1.089989e+00 8.734365e-01 6.375079e-01 1.166008e+00
<GCONST> 1.422678e+02
<TRANSP> 5
 0.000000e+00 1.000000e+00 0.000000e+00 0.000000e+00 0.000000e+00
 0.000000e+00 4.055478e-01 5.944523e-01 0.000000e+00 0.000000e+00
 0.000000e+00 0.000000e+00 5.426633e-01 4.573367e-01 0.000000e+00
 0.000000e+00 0.000000e+00 0.000000e+00 4.824161e-01 5.175839e-01
 0.000000e+00 0.000000e+00 0.000000e+00 0.000000e+00 0.000000e+00
<ENDHMM>
~h "EH"
<BEGINHMM>
<NUMSTATES> 5
<STATE> 2
<MEAN> 39
 -5.517879e+00 -3.664354e+00 3.062729e-01 2.960585e+00 8.201647e+00 -1.222073e+01 -1.182005e+00 -2.955964e+00 -9.862296e+00 -3.620657e+00 1.060854e+01 4.148742e+00 6.272405e+01 1.566908e+00 -1.938876e+00 -1.621310e+00 -3.165697e-01 -4.190041e-01 -3.353984e+00 1.521732e-01 -6.720006e-01 -1.634886e+00 4.869882e-01 2.805950e+00 2.769117e-01 3.547997e+00 -6.160685e-03 1.553071e-01 -8.386113e-02 1.182590e-01 -2.409195e-01 3.022310e-01 3.262097e-01 1.347196e-01 3.303559e-01 2.999690e-01 -1.617190e-01 -2.161885e-01 -2.215444e-01
<VARIANCE> 39
 5.643592e+01 3.089156e+01 3.751697e+01 3.602304e+01 4.554666e+01 1.008302e+02 5.897132e+01 5.612074e+01 1.056491e+02 1.002655e+02 4.365237e+01 2.591957e+01 1.512869e+02 4.315386e+00 3.571492e+00 3.090497e+00 2.920746e+00 3.446383e+00 8.007189e+00 4.764699e+00 3.683964e+00 5.891604e+00 4.688044e+00 5.599893e+00 3.714246e+00 9.272407e+00 9.018901e-01 8.319135e-01 6.961200e-01 5.371593e-01 6.118257e-01 1.691966e+00 8.516828e-01 7.219685e-01 1.299061e+00 8.325996e-01 9.535645e-01 5.883793e-01 2.215999e+00
<GCONST> 1.424771e+02
<STATE> 3
<MEAN> 39
 -7.394077e-01 -8.362084e+00 -4.149572e+00 2.930548e+00 5.696480e+00 -2.057496e+01 1.774109e+00 -4.838216e+00 -1.394446e+01 -1.824613e+00 1.741642e+01 3.653402e+00 7.330702e+01 3.365812e-02 4.624268e-01 -8.673025e-02 2.638877e-01 -8.377764e-02 -3.422506e-03 6.694606e-01 -2.099933e-01 2.207434e-01 6.406675e-02 -1.428669e-01 -2.298140e-01 -1.057769e-01 -1.990474e-01 6.696945e-01 4.657096e-01 7.526947e-02 2.705653e-01 7.603426e-01 -1.217962e-01 1.066623e-01 3.411998e-01 -3.176787e-01 -8.487571e-01 -1.471997e-01 -8.704526e-01
<VARIANCE> 39
 7.880382e+00 1.476729e+01 2.005538e+01 2.386547e+01 4.244724e+01 2.866636e+01 4.532491e+01 4.894875e+01 4.568393e+01 7.480270e+01 2.711537e+01 2.566501e+01 1.130514e+01 4.120586e-01 1.941617e+00 1.651493e+00 1.708541e+00 3.352157e+00 2.576741e+00 2.920719e+00 2.992867e+00 2.543031e+00 4.335716e+00 3.330696e+00 2.042756e+00 1.474321e+00 2.132959e-01 2.169356e-01 2.372567e-01 3.076640e-01 4.132658e-01 6.959172e-01 5.344562e-01 4.965443e-01 6.198731e-01 5.778235e-01 5.775060e-01 4.203246e-01 3.113607e-01
<GCONST> 1.124923e+02
<STATE> 4
<MEAN> 39
 -2.866802e+00 -8.078955e-01 -1.651204e+00 4.129436e+00 8.663469e+00 -1.546292e+01 1.028247e+00 -6.731353e+00 -1.124527e+01 -2.236025e+00 1.197815e+01 2.273108e+00 6.477641e+01 -7.322239e-01 1.693898e+00 6.105887e-01 -2.259948e-01 -2.538377e-01 2.206310e+00 -4.158296e-01 7.406541e-01 1.584008e+00 3.135739e-01 -1.688081e+00 1.082194e-01 -3.242297e+00 -2.191376e-01 -2.973972e-01 -4.109466e-02 -1.703974e-01 -3.890122e-01 2.765428e-01 -6.424417e-02 2.028824e-01 1.598944e-01 1.979821e-01 4.360599e-03 6.207543e-02 -1.035440e-01
<VARIANCE> 39
 1.838829e+01 1.759001e+01 3.394353e+01 3.778439e+01 6.448693e+01 4.251166e+01 5.604400e+01 5.945331e+01 5.089248e+01 7.911687e+01 4.053400e+01 3.966494e+01 5.275076e+01 2.893336e+00 1.958504e+00 2.441225e+00 2.978090e+00 3.948671e+00 3.394755e+00 3.318140e+00 3.372997e+00 3.219768e+00 4.211471e+00 3.301711e+00 2.663631e+00 1.696972e+00 4.112817e-01 3.516824e-01 5.347778e-01 5.214783e-01 8.819152e-01 6.632659e-01 7.967703e-01 6.716908e-01 6.961523e-01 7.708225e-01 6.337772e-01 5.798939e-01 8.065229e-01
<GCONST> 1.281182e+02
<TRANSP> 5
 0.000000e+00 1.000000e+00 0.000000e+00 0.000000e+00 0.000000e+00
 0.000000e+00 6.357369e-01 3.642631e-01 0.000000e+00 0.000000e+00
 0.000000e+00 0.000000e+00 7.732900e-01 2.267100e-01 0.000000e+00
 0.000000e+00 0.000000e+00 0.000000e+00 6.729414e-01 3.270586e-01
 0.000000e+00 0.000000e+00 0.000000e+00 0.000000e+00 0.000000e+00
<ENDHMM>
~h "EX"
<BEGINHMM>
<NUMSTATES> 5
<STATE> 2
<MEAN> 39
