~o
<STREAMINFO> 1 39
<VECSIZE> 39<NULLD><MFCC_D_A_0><DIAGC>
~h "A"
<BEGINHMM>
<NUMSTATES> 5
<STATE> 2
<MEAN> 39
 -1.260519e+00 -2.301178e-01 4.576178e+00 -2.808145e+00 -2.788600e+00 -1.649273e+01 5.417968e+00 8.356585e+00 -1.199824e+00 -1.366577e+01 1.871956e+00 3.585735e+00 6.539977e+01 1.277432e+00 1.227689e-02 -2.284674e-01 -3.121051e-02 -1.299937e+00 -2.726153e+00 -1.255828e-01 1.492730e+00 1.101693e-01 -7.633573e-01 2.864586e-01 -2.760701e-01 9.485801e-01 -3.248377e-01 -1.042102e-01 -8.420729e-02 1.985594e-01 2.322519e-01 5.310099e-01 -4.461623e-02 -3.154320e-01 -1.948969e-02 2.953483e-01 4.332784e-03 -1.271591e-02 -2.616394e-01
<VARIANCE> 39
 3.616054e+01 3.315507e+01 3.082597e+01 3.812849e+01 7.723843e+01 1.569668e+02 7.141762e+01 6.508318e+01 6.319003e+01 6.575655e+01 3.347788e+01 2.675386e+01 6.043963e+01 4.162835e+00 4.516569e+00 2.825296e+00 3.538581e+00 4.326825e+00 1.207377e+01 5.825099e+00 6.043289e+00 4.487301e+00 5.456345e+00 3.132826e+00 3.134562e+00 4.102640e+00 6.922767e-01 7.144350e-01 5.147691e-01 5.843450e-01 6.853605e-01 2.133201e+00 9.537145e-01 9.089597e-01 7.836130e-01 9.588611e-01 6.229088e-01 5.422609e-01 7.285833e-01
<GCONST> 1.392053e+02
<STATE> 3
<MEAN> 39
 3.137675e-01 -4.723510e-01 4.007965e+00 -2.529513e+00 -4.931335e+00 -2.041050e+01 5.455815e+00 1.036718e+01 -1.008605e+00 -1.429141e+01 2.435281e+00 3.101665e+00 6.668745e+01 5.622074e-01 1.000308e-01 -3.114994e-01 1.809485e-01 -4.614637e-01 -9.308829e-01 -1.201643e-01 4.911219e-01 -5.262445e-02 -1.678548e-01 1.352438e-01 -2.040734e-01 1.893459e-01 -3.457942e-01 6.594858e-02 1.533432e-03 1.137972e-01 4.367130e-01 9.275509e-01 -3.660940e-02 -4.825238e-01 -5.139473e-02 3.135738e-01 -9.723616e-02 4.240493e-02 -4.145437e-01
<VARIANCE> 39
 2.861790e+01 2.778572e+01 3.191041e+01 3.356167e+01 7.735113e+01 1.373747e+02 7.199220e+01 5.977847e+01 5.941837e+01 6.038966e+01 3.313568e+01 2.466595e+01 5.328155e+01 2.742728e+00 3.020864e+00 2.319779e+00 2.676227e+00 4.407770e+00 1.291891e+01 4.875701e+00 5.259720e+00 4.096674e+00 4.766367e+00 3.211173e+00 2.452319e+00 4.402899e+00 4.994652e-01 5.945960e-01 4.592688e-01 4.916268e-01 6.056513e-01 1.810018e+00 8.772661e-01 8.360599e-01 7.140930e-01 8.548067e-01 5.834962e-01 5.042180e-01 5.994644e-01
<GCONST> 1.344327e+02
<STATE> 4
<MEAN> 39
 6.450570e-01 4.321748e-01 3.586125e+00 -1.910282e+00 -5.624963e+00 -2.027965e+01 5.544374e+00 1.050209e+01 -9.286951e-01 -1.356486e+01 2.528577e+00 2.958119e+00 6.567068e+01 -5.102312e-02 3.878703e-01 -2.283291e-01 2.745233e-01 6.875441e-01 1.209561e+00 -3.322034e-01 -5.512668e-01 -2.270470e-01 3.439896e-01 -1.400056e-01 -8.285539e-02 -6.987616e-01 -2.327875e-01 2.705277e-02 6.028194e-02 6.219240e-02 3.668742e-01 6.412765e-01 -7.310744e-02 -3.073402e-01 -4.998539e-02 2.134611e-01 -7.421368e-02 2.798599e-02 -2.691728e-01
<VARIANCE> 39
 2.664599e+01 2.971373e+01 3.338707e+01 3.513158e+01 8.228670e+01 1.314827e+02 6.949871e+01 5.845404e+01 5.529707e+01 5.797472e+01 3.581200e+01 2.525343e+01 6.191375e+01 2.506790e+00 2.651041e+00 2.241922e+00 2.617941e+00 4.702945e+00 1.157320e+01 4.311306e+00 4.820321e+00 4.034203e+00 4.569335e+00 3.264049e+00 2.484442e+00 4.758981e+00 3.907754e-01 5.255252e-01 4.137993e-01 4.547034e-01 6.602280e-01 1.795761e+00 7.856406e-01 8.507251e-01 6.943505e-01 7.866541e-01 5.762203e-01 4.667641e-01 7.485316e-01
<GCONST> 1.335912e+02
<TRANSP> 5
 0.000000e+00 1.000000e+00 0.000000e+00 0.000000e+00 0.000000e+00
 0.000000e+00 4.919837e-01 5.080163e-01 0.000000e+00 0.000000e+00
 0.000000e+00 0.000000e+00 5.107325e-01 4.892674e-01 0.000000e+00
 0.000000e+00 0.000000e+00 0.000000e+00 6.506745e-01 3.493254e-01
 0.000000e+00 0.000000e+00 0.000000e+00 0.000000e+00 0.000000e+00
<ENDHMM>
~h "B"
<BEGINHMM>
<NUMSTATES> 5
<STATE> 2
<MEAN> 39
 1.005189e+00 5.557383e+00 4.238791e+00 6.287728e+00 3.394037e+00 -7.321052e+00 2.101295e+00 7.548656e+00 -3.381284e+00 -9.650642e+00 5.390517e-01 1.307208e+00 5.569897e+01 1.884574e-01 1.072993e+00 1.527274e-01 7.496941e-01 -5.308007e-01 6.956761e-01 3.797021e-01 4.347959e-01 5.937216e-01 9.006937e-01 -3.411320e-01 -2.109729e-01 -1.278189e+00 -2.206973e-01 -3.333065e-01 3.665299e-02 -2.547697e-01 1.010906e-01 -3.564098e-01 -4.233220e-02 -2.508924e-01 -1.339359e-01 -2.362630e-01 1.051607e-01 9.982408e-02 5.251650e-01
<VARIANCE> 39
 3.479527e+01 3.872497e+01 2.512719e+01 4.540192e+01 6.294460e+01 1.157317e+02 4.177213e+01 5.098647e+01 5.225002e+01 6.777554e+01 3.000068e+01 2.413015e+01 7.392774e+01 2.182725e+00 3.308561e+00 1.695182e+00 3.703383e+00 3.602713e+00 9.006341e+00 3.323117e+00 3.942682e+00 3.535858e+00 6.326063e+00 2.607466e+00 2.040455e+00 7.326689e+00 3.387170e-01 5.046896e-01 3.010292e-01 6.237976e-01 5.583575e-01 1.541157e+00 6.160720e-01 6.840299e-01 6.176038e-01 1.189463e+00 4.897885e-01 3.786822e-01 1.066947e+00
<GCONST> 1.317955e+02
<STATE> 3
<MEAN> 39
 9.746074e-01 6.987283e+00 4.680405e+00 7.112357e+00 2.541378e+00 -7.017941e+00 2.679683e+00 7.927708e+00 -2.429450e+00 -8.610968e+00 6.602886e-02 1.058034e+00 5.450490e+01 -2.492826e-01 1.204299e-01 1.096512e-01 -1.424526e-02 -2.620135e-01 -3.949177e-01 2.124599e-01 -1.309727e-01 1.671227e-01 3.314101e-02 -7.517226e-02 4.179146e-02 1.809062e-01 -1.816932e-01 -5.307404e-01 -3.877768e-02 -3.545382e-01 1.913138e-01 -5.493677e-01 -1.386365e-01 -2.814070e-01 -2.611994e-01 -4.397238e-01 1.768120e-01 1.185712e-01 7.722388e-01
<VARIANCE> 39
 2.958783e+01 3.663639e+01 2.262602e+01 3.931601e+01 5.335622e+01 1.101153e+02 3.605971e+01 4.861551e+01 4.335371e+01 5.467856e+01 2.646051e+01 2.238185e+01 6.091588e+01 2.127686e+00 4.394718e+00 1.727109e+00 3.829992e+00 4.129362e+00 1.118050e+01 3.295572e+00 4.482164e+00 3.975096e+00 6.801667e+00 2.816549e+00 2.087482e+00 8.419452e+00 3.517224e-01 5.558757e-01 3.100221e-01 5.983799e-01 6.414408e-01 1.639345e+00 6.699358e-01 7.812760e-01 6.523731e-01 1.095397e+00 5.526831e-01 3.898365e-01 1.055967e+00
<GCONST> 1.319867e+02
<STATE> 4
<MEAN> 39
 -1.417432e-03 6.394885e+00 5.040707e+00 6.186759e+00 2.033648e+00 -9.077254e+00 2.877925e+00 7.476192e+00 -2.087307e+00 -9.426847e+00 5.970646e-02 1.322116e+00 5.617857e+01 -4.322946e-01 -1.018342e+00 -7.992013e-02 -6.493333e-01 1.362093e-01 -1.398795e+00 -1.236625e-01 -5.702510e-01 -3.867361e-01 -8.236104e-01 3.516302e-01 2.926598e-01 1.679560e+00 -4.318447e-02 -3.895722e-01 -4.761349e-02 -1.382780e-01 2.049929e-01 -2.693472e-01 -1.751251e-01 -1.525785e-01 -2.012020e-01 -2.062932e-01 1.806947e-01 5.172493e-02 4.636773e-01
<VARIANCE> 39
 2.850058e+01 4.427287e+01 2.500623e+01 4.001387e+01 6.493892e+01 1.494825e+02 4.029744e+01 5.774772e+01 5.022397e+01 6.383907e+01 2.847671e+01 2.274257e+01 8.361900e+01 1.984229e+00 4.691381e+00 2.155928e+00 3.317802e+00 5.549794e+00 1.212803e+01 4.222428e+00 5.400147e+00 4.730359e+00 6.013732e+00 3.705477e+00 2.312419e+00 7.448614e+00 3.445606e-01 6.978837e-01 3.475045e-01 6.060697e-01 6.978765e-01 2.115929e+00 7.737090e-01 8.362656e-01 6.975111e-01 1.171299e+00 6.109560e-01 4.155198e-01 1.268545e+00
<GCONST> 1.363064e+02
<TRANSP> 5
 0.000000e+00 1.000000e+00 0.000000e+00 0.000000e+00 0.000000e+00
 0.000000e+00 4.792026e-01 5.207974e-01 0.000000e+00 0.000000e+00
 0.000000e+00 0.000000e+00 4.856717e-01 5.143284e-01 0.000000e+00
 0.000000e+00 0.000000e+00 0.000000e+00 6.022793e-01 3.977207e-01
 0.000000e+00 0.000000e+00 0.000000e+00 0.000000e+00 0.000000e+00
<ENDHMM>
~h "C"
<BEGINHMM>
<NUMSTATES> 5
<STATE> 2
<MEAN> 39
 -1.575756e+01 -2.891216e+00 1.054130e+01 -6.238709e-01 4.790917e+00 -2.526965e+00 4.398196e+00 -3.485551e+00 -3.157329e+00 -4.355271e+00 1.815768e+00 2.596252e+00 5.896021e+01 -2.086106e+00 -1.829408e+00 7.911435e-01 -2.400313e-01 -4.399102e-01 2.973932e-01 -9.963205e-02 -1.972056e-01 6.771536e-01 3.314404e-01 4.077792e-01 1.866270e-01 7.594434e-01 3.208173e-01 -2.666050e-01 -7.231233e-02 1.492367e-01 1.339405e-01 -2.494677e-01 -1.703220e-01 -1.562220e-03 -2.233404e-01 -3.538906e-01 1.711554e-01 4.512610e-03 5.026898e-01
<VARIANCE> 39
 6.799337e+01 7.799123e+01 5.042836e+01 4.326554e+01 4.860211e+01 4.178160e+01 4.379453e+01 5.596153e+01 5.101553e+01 4.623826e+01 2.818222e+01 2.909622e+01 7.143768e+01 8.740026e+00 7.928746e+00 5.972576e+00 4.012495e+00 5.204216e+00 4.454762e+00 5.340486e+00 5.082801e+00 5.281365e+00 5.254792e+00 3.082301e+00 2.434446e+00 8.338516e+00 1.780550e+00 1.692290e+00 1.298828e+00 7.483928e-01 9.660354e-01 7.548370e-01 1.000297e+00 1.062713e+00 9.915750e-01 8.142891e-01 5.780317e-01 4.547215e-01 1.512885e+00
<GCONST> 1.431086e+02
<STATE> 3
<MEAN> 39
 -1.927048e+01 -8.549135e+00 1.203505e+01 -6.318510e-02 4.436640e+00 -2.624470e+00 3.198001e+00 -4.182289e+00 -2.446601e+00 -4.976719e+00 3.385005e+00 3.184687e+00 6.266882e+01 8.280741e-02 -1.254354e+00 1.902069e-01 3.529245e-01 3.618945e-01 -2.995494e-01 -5.533816e-01 -4.781379e-01 -4.560743e-01 -5.151061e-01 5.794701e-01 9.748885e-02 1.405739e+00 8.910851e-01 4.495195e-01 -3.346996e-01 1.284213e-01 2.305366e-01 -2.957949e-01 -8.048151e-02 8.776741e-03 -4.168925e-01 -2.332318e-01 1.172044e-02 -6.935280e-02 5.047442e-04
<VARIANCE> 39
 7.636950e+01 7.216844e+01 3.956876e+01 3.978680e+01 4.179752e+01 3.515192e+01 4.034628e+01 4.996331e+01 4.729690e+01 4.437615e+01 2.760064e+01 2.653824e+01 6.296151e+01 1.777868e+01 1.011802e+01 6.361672e+00 3.681789e+00 5.363642e+00 4.946037e+00 4.506328e+00 5.040976e+00 7.174051e+00 4.315557e+00 3.009608e+00 2.520462e+00 6.325008e+00 2.414807e+00 1.785177e+00 1.192353e+00 6.535110e-01 1.017034e+00 8.471708e-01 9.356421e-01 1.106414e+00 1.184625e+00 7.192181e-01 5.693040e-01 4.581840e-01 1.316294e+00
<GCONST> 1.428617e+02
<STATE> 4
<MEAN> 39
 -1.452199e+01 -9.601496e+00 1.081382e+01 1.830055e+00 6.779271e+00 -4.669547e+00 1.203676e+00 -5.536657e+00 -5.761922e+00 -7.397097e+00 4.810360e+00 3.202097e+00 6.603620e+01 2.622373e+00 4.923890e-01 -1.024644e+00 4.209746e-01 6.732382e-01 -1.407228e+00 -5.354059e-01 -5.085514e-02 -1.535131e+00 -1.010189e+00 4.805389e-01 -1.994800e-01 8.917913e-01 2.116426e-01 3.166931e-01 -2.877989e-01 -9.729613e-02 -1.695687e-01 -2.359273e-01 1.308956e-01 3.123928e-01 1.008578e-01 2.827911e-02 -6.731157e-02 -5.769969e-02 -2.620170e-01
<VARIANCE> 39
 1.390085e+02 4.599659e+01 4.339886e+01 4.367419e+01 4.787713e+01 6.036164e+01 4.704984e+01 4.778674e+01 7.265294e+01 6.364604e+01 3.051651e+01 2.833650e+01 4.502629e+01 1.508669e+01 8.039629e+00 5.897593e+00 3.413410e+00 5.144229e+00 6.847287e+00 5.281914e+00 5.572086e+00 7.213272e+00 4.554448e+00 3.296945e+00 2.861738e+00 4.042839e+00 3.197462e+00 1.334121e+00 1.007702e+00 5.591016e-01 9.875216e-01 1.150793e+00 9.060148e-01 1.021875e+00 1.699188e+00 7.505401e-01 5.660148e-01 4.573715e-01 7.553699e-01
<GCONST> 1.440997e+02
<TRANSP> 5
 0.000000e+00 1.000000e+00 0.000000e+00 0.000000e+00 0.000000e+00
 0.000000e+00 6.626648e-01 3.373353e-01 0.000000e+00 0.000000e+00
 0.000000e+00 0.000000e+00 6.495265e-01 3.504735e-01 0.000000e+00
 0.000000e+00 0.000000e+00 0.000000e+00 7.234507e-01 2.765493e-01
 0.000000e+00 0.000000e+00 0.000000e+00 0.000000e+00 0.000000e+00
<ENDHMM>
~h "D"
<BEGINHMM>
<NUMSTATES> 5
<STATE> 2
<MEAN> 39
 -1.873449e+00 6.282813e+00 7.232061e+00 5.687059e+00 5.882187e+00 -2.401413e+00 2.514424e+00 1.937505e+00 -5.625170e+00 -8.472579e+00 4.551155e-01 1.620614e+00 5.575850e+01 -2.987475e-01 5.148059e-01 5.898033e-02 4.748419e-01 1.287467e-01 9.688994e-01 3.992931e-02 -3.977279e-01 1.923239e-01 8.314075e-01 -2.383251e-01 3.963973e-02 -6.910497e-01 -2.309598e-01 -5.619409e-01 -2.479180e-02 -2.677717e-01 1.690307e-01 -4.198503e-01 -1.217852e-01 -3.694017e-01 -2.068298e-01 -3.083457e-01 1.546438e-01 7.512861e-02 7.883069e-01
<VARIANCE> 39
 3.485672e+01 4.317183e+01 2.306176e+01 3.936717e+01 7.062796e+01 6.708455e+01 6.410750e+01 7.394659e+01 4.923635e+01 6.425632e+01 3.427098e+01 2.317044e+01 7.774901e+01 3.648246e+00 5.720032e+00 1.805358e+00 3.532895e+00 3.997683e+00 5.525044e+00 4.478209e+00 6.760387e+00 3.924820e+00 5.853546e+00 2.968477e+00 2.126816e+00 1.126301e+01 6.943885e-01 8.911474e-01 3.418729e-01 6.609582e-01 6.943639e-01 8.737875e-01 8.491705e-01 1.359079e+00 7.178907e-01 1.089576e+00 5.707680e-01 4.291173e-01 1.811495e+00
<GCONST> 1.372351e+02
<STATE> 3
<MEAN> 39
 -3.007182e+00 6.022932e+00 7.367054e+00 5.932211e+00 6.585558e+00 -1.433707e+00 2.308340e+00 1.133660e-01 -5.693792e+00 -7.675390e+00 2.875624e-01 1.836515e+00 5.635814e+01 -7.734789e-01 -8.637949e-01 7.742685e-02 -2.306921e-01 5.855061e-01 -9.380854e-02 -2.975836e-01 -1.249021e+00 -3.728668e-01 -8.652362e-02 1.189004e-01 1.997711e-01 1.231837e+00 -4.973208e-02 -5.875880e-01 -1.140232e-03 -2.702810e-01 2.051473e-01 -6.094406e-01 -2.093497e-01 -1.771207e-01 -2.749296e-01 -4.598466e-01 2.056975e-01 4.322039e-02 7.816250e-01
<VARIANCE> 39
 3.618321e+01 5.001611e+01 2.016525e+01 3.587765e+01 6.098416e+01 5.651501e+01 5.982537e+01 7.618871e+01 4.677369e+01 5.446725e+01 3.248308e+01 2.267490e+01 8.527135e+01 4.015981e+00 6.888866e+00 1.788810e+00 3.778729e+00 4.881552e+00 7.065140e+00 5.603864e+00 7.894682e+00 4.660597e+00 7.070682e+00 3.395594e+00 2.558057e+00 1.268168e+01 8.637595e-01 1.087345e+00 3.472645e-01 7.005748e-01 7.669132e-01 1.090867e+00 1.011339e+00 1.588560e+00 8.254599e-01 1.181797e+00 6.704372e-01 4.874983e-01 2.111146e+00
<GCONST> 1.404048e+02
<STATE> 4
<MEAN> 39
 -4.698169e+00 2.934778e+00 7.688341e+00 4.824693e+00 8.517834e+00 -2.780552e+00 9.561142e-01 -3.067145e+00 -7.008841e+00 -9.009480e+00 9.257954e-01 2.325350e+00 6.074618e+01 -4.829000e-01 -1.732021e+00 4.136403e-02 -5.691821e-01 8.557487e-01 -1.353941e+00 -7.388921e-01 -1.021667e+00 -8.215424e-01 -9.287369e-01 5.434154e-01 2.231001e-01 2.265395e+00 2.472488e-01 -9.680268e-02 -4.718654e-02 -2.834757e-03 2.004728e-03 -4.107066e-01 -9.465826e-02 3.445311e-01 -4.693091e-02 -1.703803e-01 1.163212e-01 -4.733816e-02 4.645547e-02
<VARIANCE> 39
 3.250059e+01 5.793808e+01 1.957476e+01 3.766070e+01 6.304738e+01 6.825763e+01 7.181644e+01 7.255344e+01 5.611907e+01 6.690493e+01 3.671767e+01 2.587594e+01 1.072087e+02 4.058191e+00 5.895388e+00 2.040345e+00 3.646697e+00 5.496011e+00 8.500673e+00 6.857242e+00 7.842475e+00 4.880199e+00 7.669309e+00 4.149257e+00 3.121806e+00 1.040428e+01 8.315175e-01 1.244139e+00 3.546736e-01 7.014616e-01 8.106104e-01 1.388836e+00 1.234537e+00 1.502827e+00 9.417766e-01 1.443592e+00 7.294891e-01 5.113222e-01 2.279953e+00
<GCONST> 1.435697e+02
<TRANSP> 5
 0.000000e+00 1.000000e+00 0.000000e+00 0.000000e+00 0.000000e+00
 0.000000e+00 4.576638e-01 5.423362e-01 0.000000e+00 0.000000e+00
 0.000000e+00 0.000000e+00 4.664041e-01 5.335959e-01 0.000000e+00
 0.000000e+00 0.000000e+00 0.000000e+00 5.605813e-01 4.394187e-01
 0.000000e+00 0.000000e+00 0.000000e+00 0.000000e+00 0.000000e+00
<ENDHMM>
~h "E"
<BEGINHMM>
<NUMSTATES> 5
<STATE> 2
<MEAN> 39
 -4.161177e+00 -3.248169e+00 5.315475e+00 6.639393e+00 1.559035e+01 -1.302995e+01 -4.325246e+00 -6.988138e+00 -1.466183e+01 -6.891287e+00 6.109016e+00 2.169562e-01 6.545421e+01 2.541699e-01 7.095765e-02 1.195611e-01 1.940572e-01 2.858121e-01 -5.470423e-01 -5.215312e-01 -2.692081e-01 -5.426573e-01 1.629844e-01 2.849187e-01 -2.174900e-01 4.435430e-02 -1.850493e-01 1.536984e-01 -1.989696e-02 -7.078724e-02 -3.832872e-01 4.968223e-01 2.361047e-01 2.362624e-01 5.018865e-01 1.050723e-01 -2.561922e-01 5.416397e-02 -4.222588e-01
<VARIANCE> 39
 2.734278e+01 2.881071e+01 3.107292e+01 4.426276e+01 3.911651e+01 9.090677e+01 6.769203e+01 5.508770e+01 8.041865e+01 7.236052e+01 3.827174e+01 3.144740e+01 6.909174e+01 2.680310e+00 2.958769e+00 2.381755e+00 2.705463e+00 3.609518e+00 7.780750e+00 4.751140e+00 3.482848e+00 6.298487e+00 4.238520e+00 3.696033e+00 2.310649e+00 4.908756e+00 4.736140e-01 5.005655e-01 4.234634e-01 4.858607e-01 6.051722e-01 1.167568e+00 8.650188e-01 6.189677e-01 1.009046e+00 6.992059e-01 6.826892e-01 4.283676e-01 6.912836e-01
<GCONST> 1.331261e+02
<STATE> 3
<MEAN> 39
 -4.369697e+00 -2.280470e+00 5.555572e+00 6.537855e+00 1.477349e+01 -1.183093e+01 -4.845839e+00 -6.774231e+00 -1.364988e+01 -6.145183e+00 5.635445e+00 1.479722e-01 6.357895e+01 -1.387951e-01 4.651052e-01 1.340233e-02 1.784140e-02 -4.544238e-01 6.909512e-01 1.094661e-01 1.735922e-01 5.279389e-01 3.081669e-01 -2.444998e-01 3.782079e-02 -9.165902e-01 -1.745799e-01 6.481850e-02 -2.469808e-02 -5.856371e-02 -2.622820e-01 3.640240e-01 2.319712e-01 1.686440e-01 3.646035e-01 4.826633e-02 -1.795389e-01 6.179079e-02 -2.603621e-01
<VARIANCE> 39
 2.730014e+01 3.202497e+01 3.079249e+01 4.385947e+01 4.147080e+01 8.949462e+01 6.747634e+01 5.363701e+01 7.422119e+01 7.258669e+01 3.744790e+01 3.222268e+01 8.673306e+01 2.143346e+00 2.501646e+00 2.226082e+00 2.522477e+00 3.001442e+00 5.973543e+00 4.367297e+00 3.151891e+00 4.953414e+00 3.629577e+00 2.954444e+00 2.054422e+00 4.789993e+00 3.937430e-01 4.814816e-01 3.988128e-01 4.761931e-01 5.623699e-01 1.066934e+00 8.147823e-01 5.775015e-01 8.770640e-01 6.378054e-01 6.018952e-01 3.946467e-01 7.774307e-01
<GCONST> 1.305359e+02
<STATE> 4
<MEAN> 39
 -7.094435e+00 -5.796366e-01 4.236524e+00 6.109410e+00 1.131638e+01 -6.178514e+00 -3.163431e+00 -4.206426e+00 -8.894705e+00 -3.357514e+00 4.391380e+00 1.236335e+00 5.613617e+01 -3.955637e-01 3.650085e-01 -1.133960e-01 -1.246672e-01 -6.131594e-01 9.938630e-01 5.177976e-01 4.419571e-01 8.338094e-01 2.143051e-01 -2.958493e-01 1.786603e-01 -9.720079e-01 -8.046095e-02 -7.863203e-02 9.186878e-03 -6.866349e-02 -6.527901e-02 1.000924e-02 1.080998e-01 7.531163e-02 9.039035e-02 -4.290636e-02 -4.071718e-02 1.061588e-02 9.512714e-02
<VARIANCE> 39
 4.079369e+01 4.337080e+01 3.597998e+01 4.000677e+01 4.579483e+01 9.797896e+01 6.432674e+01 5.487867e+01 7.577045e+01 6.741579e+01 3.164035e+01 3.145074e+01 1.322187e+02 2.326491e+00 2.860895e+00 2.313559e+00 2.631564e+00 2.783993e+00 4.497274e+00 3.840799e+00 3.069786e+00 4.012317e+00 3.034357e+00 2.526668e+00 1.918330e+00 4.408675e+00 3.725844e-01 4.846731e-01 3.997751e-01 4.896896e-01 5.030485e-01 8.214981e-01 6.986698e-01 5.511068e-01 6.798558e-01 5.422342e-01 4.812201e-01 3.564652e-01 8.092836e-01
<GCONST> 1.294363e+02
<TRANSP> 5
 0.000000e+00 1.000000e+00 0.000000e+00 0.000000e+00 0.000000e+00
 0.000000e+00 5.698464e-01 4.301536e-01 0.000000e+00 0.000000e+00
 0.000000e+00 0.000000e+00 5.511795e-01 4.488205e-01 0.000000e+00
 0.000000e+00 0.000000e+00 0.000000e+00 7.231745e-01 2.768254e-01
 0.000000e+00 0.000000e+00 0.000000e+00 0.000000e+00 0.000000e+00
<ENDHMM>
~h "G"
<BEGINHMM>
<NUMSTATES> 5
<STATE> 2
<MEAN> 39
 -2.365787e+00 3.224189e+00 5.616613e+00 5.283236e+00 9.917378e+00 -7.497498e+00 -4.501436e-02 7.982398e-01 -6.651015e+00 -8.387768e+00 3.126136e+00 -1.125937e+00 5.960817e+01 -1.084349e-01 4.448996e-01 1.551835e-01 4.312168e-02 8.396856e-02 2.314813e-01 5.390219e-02 -1.976253e-01 -4.323302e-02 9.883358e-02 -2.438197e-01 -2.143166e-01 -2.984677e-01 -1.873866e-02 -2.339809e-01 -2.837111e-02 -1.697297e-01 -1.424536e-01 -2.168745e-01 2.829310e-02 4.941140e-02 4.345628e-03 -1.873368e-01 2.637902e-02 1.456311e-01 3.023530e-01
<VARIANCE> 39
 3.479608e+01 4.924335e+01 3.585212e+01 5.997910e+01 6.559793e+01 8.340652e+01 9.095673e+01 6.710181e+01 8.531564e+01 7.863822e+01 5.279194e+01 3.802631e+01 6.865755e+01 2.723550e+00 4.517407e+00 2.362333e+00 4.356561e+00 3.961089e+00 5.630406e+00 7.685875e+00 4.383930e+00 4.806633e+00 5.824286e+00 3.611884e+00 3.390833e+00 6.160626e+00 5.233378e-01 6.587808e-01 4.352747e-01 7.745010e-01 5.929869e-01 8.835205e-01 1.506998e+00 7.936549e-01 8.396736e-01 9.625212e-01 6.599107e-01 5.618846e-01 8.468630e-01
<GCONST> 1.398936e+02
<STATE> 3
<MEAN> 39
 -2.489476e+00 3.592140e+00 5.894775e+00 5.086474e+00 9.815747e+00 -7.575824e+00 4.287346e-02 5.410674e-01 -6.683115e+00 -8.589225e+00 2.673143e+00 -1.348388e+00 5.969217e+01 -1.349681e-01 -3.560995e-02 6.974877e-02 -2.995837e-01 -1.910589e-01 -1.729841e-01 5.998475e-02 -9.746839e-02 -2.036630e-02 -2.694286e-01 -1.570080e-01 1.058918e-01 2.742250e-01 -1.921939e-03 -2.671210e-01 -4.325489e-02 -1.575716e-01 -1.236631e-01 -2.196311e-01 -2.428320e-02 7.657821e-02 1.714246e-02 -1.908231e-01 4.942349e-02 1.750354e-01 3.027376e-01
<VARIANCE> 39
 3.111117e+01 4.991131e+01 3.437120e+01 6.301686e+01 6.723311e+01 7.978104e+01 9.169588e+01 6.712712e+01 8.266283e+01 7.957866e+01 5.328290e+01 3.688933e+01 6.560998e+01 2.976629e+00 4.580326e+00 2.535056e+00 4.757288e+00 4.164444e+00 5.987389e+00 8.969851e+00 4.627914e+00 4.943262e+00 6.077598e+00 3.948728e+00 3.592584e+00 5.906881e+00 5.614131e-01 6.795700e-01 4.604278e-01 8.601122e-01 6.308950e-01 9.419100e-01 1.693643e+00 8.082626e-01 8.280684e-01 1.018857e+00 6.886612e-01 5.818869e-01 8.672018e-01
<GCONST> 1.411294e+02
<STATE> 4
<MEAN> 39
 -2.676330e+00 3.267466e+00 6.098660e+00 4.364577e+00 9.233268e+00 -8.173625e+00 -7.579993e-02 6.898502e-01 -6.418999e+00 -9.425621e+00 2.218680e+00 -1.068209e+00 6.049481e+01 -1.281060e-01 -4.625922e-01 -3.902953e-02 -5.361977e-01 -3.774333e-01 -4.933329e-01 1.530734e-02 4.208244e-02 1.155472e-02 -5.576545e-01 -3.910812e-02 4.315540e-01 7.328207e-01 3.811682e-02 -1.883463e-01 -4.275545e-02 -5.081629e-02 -4.447830e-02 -1.529021e-01 -5.542365e-02 8.499704e-02 1.099085e-02 -1.095375e-01 2.703498e-02 1.196072e-01 1.762245e-01
<VARIANCE> 39
 2.876157e+01 5.403943e+01 3.415970e+01 6.722685e+01 7.400433e+01 8.523338e+01 9.513594e+01 6.974040e+01 8.297562e+01 8.523968e+01 5.525821e+01 3.779881e+01 7.216351e+01 2.953083e+00 4.108125e+00 2.715095e+00 4.825213e+00 4.468761e+00 6.436378e+00 9.190013e+00 4.850727e+00 4.857346e+00 6.036660e+00 4.074365e+00 3.488844e+00 5.201126e+00 5.662246e-01 7.022690e-01 4.689569e-01 9.026971e-01 6.583127e-01 1.079267e+00 1.799891e+00 8.129713e-01 8.150632e-01 1.052493e+00 7.017660e-01 6.013899e-01 8.878657e-01
<GCONST> 1.421304e+02
<TRANSP> 5
 0.000000e+00 1.000000e+00 0.000000e+00 0.000000e+00 0.000000e+00
 0.000000e+00 3.843317e-01 6.156684e-01 0.000000e+00 0.000000e+00
 0.000000e+00 0.000000e+00 3.891723e-01 6.108277e-01 0.000000e+00
 0.000000e+00 0.000000e+00 0.000000e+00 4.726056e-01 5.273944e-01
 0.000000e+00 0.000000e+00 0.000000e+00 0.000000e+00 0.000000e+00
<ENDHMM>
~h "H"
<BEGINHMM>
<NUMSTATES> 5
<STATE> 2
<MEAN> 39
 -5.365293e+00 -6.296383e-01 6.203001e+00 -4.022347e+00 2.457691e+00 -4.772902e+00 1.110445e+01 7.061197e+00 1.010321e+00 -7.888665e+00 2.698898e+00 5.075908e+00 6.239506e+01 -3.118497e-01 -1.613956e-01 1.793843e-01 -4.974686e-01 -4.248679e-01 9.022504e-01 8.954279e-01 5.823549e-01 9.624201e-01 4.575541e-01 -3.624884e-01 5.892100e-02 -4.195291e-01 1.903848e-01 3.333381e-02 -6.252569e-02 1.723885e-01 9.476111e-03 -4.901163e-01 -4.029988e-01 -9.389266e-02 -3.138957e-01 -2.374466e-01 3.651173e-02 -1.381074e-01 1.507868e-01
<VARIANCE> 39
 2.476941e+01 3.149745e+01 3.634837e+01 3.169109e+01 8.042730e+01 8.258666e+01 6.510722e+01 7.175822e+01 6.816122e+01 5.197716e+01 3.134914e+01 2.579870e+01 5.225992e+01 1.489617e+00 2.741344e+00 2.490674e+00 2.264558e+00 3.622120e+00 6.525483e+00 4.188017e+00 3.718362e+00 4.833004e+00 3.868704e+00 2.386056e+00 2.197755e+00 1.538116e+00 2.161019e-01 4.925271e-01 4.052871e-01 3.541769e-01 4.345696e-01 9.703518e-01 6.137962e-01 5.509831e-01 7.225410e-01 6.059142e-01 4.224241e-01 4.067098e-01 2.028967e-01
<GCONST> 1.252106e+02
<STATE> 3
<MEAN> 39
 -5.531120e+00 -6.848071e-01 6.411586e+00 -4.429700e+00 1.963258e+00 -4.382833e+00 1.158182e+01 7.682969e+00 1.826447e+00 -7.523992e+00 2.189501e+00 4.703150e+00 6.195680e+01 1.998314e-01 1.452042e-01 4.637801e-02 -4.475271e-02 -3.274485e-01 -3.622347e-01 8.672777e-04 2.586736e-01 6.086854e-02 -1.169795e-01 -1.952033e-01 -2.707472e-01 5.835552e-03 2.460936e-01 1.247832e-01 -8.981498e-02 2.015327e-01 4.428942e-02 -5.760869e-01 -4.301669e-01 -1.387832e-01 -4.081510e-01 -3.001287e-01 8.242845e-02 -1.128437e-01 2.019087e-01
<VARIANCE> 39
 2.353003e+01 3.420750e+01 3.687111e+01 3.282922e+01 7.480601e+01 7.502042e+01 6.593816e+01 6.618154e+01 6.398410e+01 5.062323e+01 2.939076e+01 2.531863e+01 4.590894e+01 1.501050e+00 2.687329e+00 2.142386e+00 2.193999e+00 3.317629e+00 6.761261e+00 3.677822e+00 3.070815e+00 4.562684e+00 3.641778e+00 2.139999e+00 1.919441e+00 1.550313e+00 2.089173e-01 5.285597e-01 4.217839e-01 3.418010e-01 4.079933e-01 9.545853e-01 5.922583e-01 5.006468e-01 6.565863e-01 5.986638e-01 4.010660e-01 3.726261e-01 1.795953e-01
<GCONST> 1.232907e+02
<STATE> 4
<MEAN> 39
 -4.788872e+00 1.411133e-02 5.993247e+00 -3.660053e+00 1.483073e+00 -6.450017e+00 1.018614e+01 7.692285e+00 6.442758e-01 -7.948056e+00 2.210887e+00 3.943948e+00 6.163358e+01 6.187885e-01 3.784744e-01 -1.804017e-01 3.640410e-01 -1.547028e-01 -1.301105e+00 -6.920635e-01 -3.505166e-02 -7.049771e-01 -6.328189e-01 -8.465997e-03 -3.826494e-01 3.472950e-01 1.349168e-01 6.736908e-03 -1.190632e-01 1.647527e-01 9.206182e-02 -2.866033e-01 -2.645091e-01 -1.170812e-01 -2.627500e-01 -1.896786e-01 6.279718e-02 -5.918625e-05 1.109055e-01
<VARIANCE> 39
 2.984127e+01 3.855994e+01 4.213868e+01 3.846664e+01 7.492688e+01 9.875921e+01 6.953204e+01 6.330650e+01 6.520892e+01 5.753084e+01 2.914429e+01 2.545979e+01 5.863137e+01 1.455991e+00 2.881079e+00 2.461733e+00 2.275117e+00 2.940265e+00 6.739398e+00 3.309294e+00 2.694294e+00 4.258554e+00 3.340663e+00 2.140818e+00 1.833552e+00 1.680115e+00 2.482850e-01 5.786404e-01 4.335247e-01 3.511077e-01 4.089479e-01 1.150212e+00 5.735379e-01 4.757968e-01 6.445709e-01 6.411455e-01 4.012008e-01 3.586811e-01 2.440375e-01
<GCONST> 1.250898e+02
<TRANSP> 5
 0.000000e+00 1.000000e+00 0.000000e+00 0.000000e+00 0.000000e+00
 0.000000e+00 5.359933e-01 4.640068e-01 0.000000e+00 0.000000e+00
 0.000000e+00 0.000000e+00 5.026447e-01 4.973553e-01 0.000000e+00
 0.000000e+00 0.000000e+00 0.000000e+00 5.850349e-01 4.149651e-01
 0.000000e+00 0.000000e+00 0.000000e+00 0.000000e+00 0.000000e+00
<ENDHMM>
~h "I"
<BEGINHMM>
<NUMSTATES> 5
<STATE> 2
<MEAN> 39
 -5.735543e+00 -2.514177e+00 1.015217e+01 9.561113e+00 1.743685e+01 -7.497676e+00 -5.863397e+00 -5.043682e+00 -8.107772e+00 -7.855872e+00 2.172774e+00 -2.108068e+00 6.382139e+01 3.488837e-01 -1.511529e-01 7.834945e-01 6.427915e-01 9.146188e-01 -5.837213e-01 -1.220036e+00 -1.746863e-01 -3.444617e-01 -4.684373e-01 -5.779004e-03 -5.077125e-01 3.746611e-01 -6.808484e-02 1.576378e-01 -1.996216e-01 -1.696519e-01 -4.198267e-01 2.232295e-01 2.453621e-01 1.923638e-01 2.589913e-01 1.422649e-01 -4.047439e-02 1.413073e-01 -3.449547e-01
<VARIANCE> 39
 3.328961e+01 3.584013e+01 3.794557e+01 4.642957e+01 4.456868e+01 9.654742e+01 7.275291e+01 5.253845e+01 7.330570e+01 6.137091e+01 3.720089e+01 2.925789e+01 6.371632e+01 3.737283e+00 4.004276e+00 3.373258e+00 3.186035e+00 5.226662e+00 6.675020e+00 7.101539e+00 4.010109e+00 5.111893e+00 5.307064e+00 3.088793e+00 2.421756e+00 5.189772e+00 6.140623e-01 6.156434e-01 5.685749e-01 5.652367e-01 8.042442e-01 1.147604e+00 1.287689e+00 7.479928e-01 8.893691e-01 9.014160e-01 5.810301e-01 4.509338e-01 7.664880e-01
<GCONST> 1.372991e+02
<STATE> 3
<MEAN> 39
 -5.341614e+00 -2.255958e+00 1.113034e+01 1.010437e+01 1.790260e+01 -7.614536e+00 -7.686222e+00 -5.038444e+00 -7.703337e+00 -8.228804e+00 1.875327e+00 -2.627951e+00 6.346748e+01 4.746830e-03 2.748923e-01 1.321107e-01 1.151538e-01 -2.087786e-01 2.396624e-01 -1.784102e-01 5.383201e-02 2.619775e-01 1.524965e-01 -9.698288e-02 -7.005322e-02 -5.057158e-01 -1.657262e-01 1.043814e-01 -2.635958e-01 -2.123162e-01 -4.166721e-01 2.751281e-01 4.452955e-01 1.068936e-01 1.958778e-01 1.991325e-01 -3.636541e-02 1.686693e-01 -2.654848e-01
<VARIANCE> 39
 2.562287e+01 3.334223e+01 3.585345e+01 4.650588e+01 4.196332e+01 8.385194e+01 6.989948e+01 5.142339e+01 6.678331e+01 6.061114e+01 3.669032e+01 2.818866e+01 6.536819e+01 2.818862e+00 3.307227e+00 3.145924e+00 2.937478e+00 4.204180e+00 6.036695e+00 6.863711e+00 3.530035e+00 4.305532e+00 5.101290e+00 2.676415e+00 2.178112e+00 5.212506e+00 4.962915e-01 5.862721e-01 5.205402e-01 5.470509e-01 7.199786e-01 1.007909e+00 1.224901e+00 6.811919e-01 7.749335e-01 8.740957e-01 5.351503e-01 4.158710e-01 7.870142e-01
<GCONST> 1.338839e+02
<STATE> 4
<MEAN> 39
 -6.281191e+00 -7.417572e-01 1.046861e+01 9.521952e+00 1.563759e+01 -5.379494e+00 -6.920990e+00 -4.330176e+00 -5.641496e+00 -6.785518e+00 1.135522e+00 -2.222720e+00 6.002672e+01 -3.545731e-01 3.069906e-01 -4.908915e-01 -4.173927e-01 -8.597143e-01 6.735788e-01 8.048539e-01 2.306807e-01 4.134371e-01 4.022074e-01 -6.303253e-02 3.153014e-01 -7.695354e-01 -1.092735e-01 -9.797578e-02 -1.473697e-01 -1.909421e-01 -1.549982e-01 1.981736e-03 2.426650e-01 7.545627e-02 1.785321e-02 -2.497304e-02 1.739172e-02 1.073873e-01 1.141566e-01
<VARIANCE> 39
 3.400708e+01 4.013505e+01 4.035495e+01 4.833040e+01 4.635113e+01 7.890586e+01 7.509272e+01 5.055916e+01 6.162244e+01 6.404136e+01 3.604588e+01 2.875849e+01 9.827431e+01 3.025171e+00 3.453870e+00 3.001151e+00 3.341283e+00 3.392743e+00 5.057642e+00 6.201966e+00 3.429616e+00 3.808000e+00 4.401847e+00 2.721774e+00 2.186477e+00 5.330888e+00 4.703583e-01 5.921531e-01 5.091211e-01 6.082128e-01 6.297841e-01 8.854880e-01 1.137594e+00 6.655079e-01 6.718904e-01 8.198664e-01 5.072216e-01 4.039946e-01 9.829747e-01
<GCONST> 1.340467e+02
<TRANSP> 5
 0.000000e+00 1.000000e+00 0.000000e+00 0.000000e+00 0.000000e+00
 0.000000e+00 5.947228e-01 4.052772e-01 0.000000e+00 0.000000e+00
 0.000000e+00 0.000000e+00 5.973468e-01 4.026532e-01 0.000000e+00
 0.000000e+00 0.000000e+00 0.000000e+00 7.348926e-01 2.651074e-01
 0.000000e+00 0.000000e+00 0.000000e+00 0.000000e+00 0.000000e+00
<ENDHMM>
~h "J"
<BEGINHMM>
<NUMSTATES> 5
<STATE> 2
<MEAN> 39
 -1.089843e+01 2.781662e-01 1.307418e+01 3.146575e+00 8.929721e+00 -8.444506e-01 3.744905e+00 -3.246969e+00 -4.169796e+00 -5.658554e+00 2.432564e+00 2.309008e+00 5.993847e+01 -1.299591e+00 -7.909753e-01 1.514094e+00 2.753713e-01 -8.901833e-02 4.721221e-01 1.193721e-01 -5.144781e-01 3.005495e-01 2.036902e-01 -3.063085e-03 -1.559941e-01 5.746416e-01 3.111099e-01 -2.767292e-01 -3.327782e-01 5.889830e-02 7.656744e-02 -4.158959e-01 -2.481671e-01 -1.792291e-02 -2.956446e-01 -3.229551e-01 1.469069e-01 7.539541e-03 3.702176e-01
<VARIANCE> 39
 6.109007e+01 5.887951e+01 6.640037e+01 4.943986e+01 4.172483e+01 5.075854e+01 4.798709e+01 5.519864e+01 5.548280e+01 5.550463e+01 2.810321e+01 2.563222e+01 9.141434e+01 7.231854e+00 6.863512e+00 5.728142e+00 3.915139e+00 3.973290e+00 5.509455e+00 4.823972e+00 4.397761e+00 6.020249e+00 5.342141e+00 3.363688e+00 2.307631e+00 5.704051e+00 1.421532e+00 1.257038e+00 1.018386e+00 7.690687e-01 7.551798e-01 7.972746e-01 8.803702e-01 9.356956e-01 1.128504e+00 8.168614e-01 6.240582e-01 4.304488e-01 9.299334e-01
<GCONST> 1.412126e+02
<STATE> 3
<MEAN> 39
 -1.242639e+01 -2.468107e+00 1.551983e+01 4.406499e+00 9.054753e+00 -1.284553e+00 3.078375e+00 -4.674340e+00 -4.627588e+00 -6.421788e+00 2.790715e+00 1.946190e+00 6.283010e+01 1.213987e-01 -1.100782e+00 4.265003e-02 4.898756e-01 1.985846e-01 -6.712386e-01 -5.551898e-01 -4.749027e-01 -7.493226e-01 -5.930066e-01 3.740645e-01 -1.078153e-02 1.155133e+00 5.968400e-01 6.621952e-02 -6.370061e-01 -2.645590e-02 9.263378e-02 -4.452462e-01 -1.700010e-01 1.486066e-01 -3.329671e-01 -2.499486e-01 1.311214e-01 6.469443e-02 6.560509e-02
<VARIANCE> 39
 6.331258e+01 6.620543e+01 5.736897e+01 5.066561e+01 3.763876e+01 4.803267e+01 4.658850e+01 5.550302e+01 6.129851e+01 5.072011e+01 2.879207e+01 2.414040e+01 7.987192e+01 1.074304e+01 6.429097e+00 8.425775e+00 4.154450e+00 3.810164e+00 6.236687e+00 5.120664e+00 5.004564e+00 7.221506e+00 4.631863e+00 3.450097e+00 2.409073e+00 4.810009e+00 1.789119e+00 1.316858e+00 1.110970e+00 8.089715e-01 7.870460e-01 8.974738e-01 1.060922e+00 1.078902e+00 1.261671e+00 7.182894e-01 6.485775e-01 4.461915e-01 9.092981e-01
<GCONST> 1.428219e+02
<STATE> 4
<MEAN> 39
 -9.926150e+00 -4.965861e+00 1.354764e+01 6.004953e+00 1.018372e+01 -4.430514e+00 8.692005e-01 -5.380390e+00 -7.549914e+00 -8.833162e+00 4.107438e+00 2.170076e+00 6.624610e+01 1.543065e+00 -4.684987e-01 -1.582645e+00 8.202539e-02 2.746992e-01 -1.689483e+00 -6.268079e-01 1.559191e-01 -1.303123e+00 -1.041794e+00 6.913043e-01 2.388174e-01 9.645643e-01 1.913959e-01 2.892390e-01 -3.060077e-01 -2.159408e-01 -1.260805e-01 -1.244182e-01 1.940197e-01 3.284682e-01 1.382914e-01 1.972281e-02 -2.517970e-02 2.866257e-02 -2.325258e-01
<VARIANCE> 39
 7.534012e+01 5.126883e+01 6.764998e+01 4.375340e+01 3.591109e+01 7.772412e+01 5.301623e+01 5.294889e+01 8.187711e+01 6.257482e+01 3.954525e+01 2.565603e+01 7.048093e+01 9.386554e+00 5.497412e+00 7.564008e+00 4.449512e+00 3.907570e+00 6.359708e+00 6.336710e+00 5.814422e+00 6.673743e+00 4.210161e+00 3.931714e+00 2.573952e+00 4.053473e+00 2.047668e+00 9.487839e-01 1.232345e+00 6.568876e-01 7.558004e-01 1.105962e+00 1.219176e+00 1.093797e+00 1.499409e+00 7.130470e-01 7.457299e-01 4.419024e-01 6.523963e-01
<GCONST> 1.439427e+02
<TRANSP> 5
 0.000000e+00 1.000000e+00 0.000000e+00 0.000000e+00 0.000000e+00
 0.000000e+00 5.875396e-01 4.124604e-01 0.000000e+00 0.000000e+00
 0.000000e+00 0.000000e+00 5.950170e-01 4.049830e-01 0.000000e+00
 0.000000e+00 0.000000e+00 0.000000e+00 7.290272e-01 2.709728e-01
 0.000000e+00 0.000000e+00 0.000000e+00 0.000000e+00 0.000000e+00
<ENDHMM>
~h "K"
<BEGINHMM>
<NUMSTATES> 5
<STATE> 2
<MEAN> 39
 -1.286575e+01 1.226318e+00 4.455070e-01 -3.692328e+00 4.415247e+00 -4.178883e+00 5.289456e+00 -2.960180e+00 -3.595442e+00 -3.218233e+00 5.565790e+00 1.981111e+00 5.807346e+01 -7.677304e-01 -7.569033e-01 -2.517113e-01 -1.427001e+00 -3.274991e-01 9.485182e-01 8.455557e-01 -3.266731e-02 3.700937e-01 7.363173e-02 -9.439141e-02 3.411418e-01 6.460736e-01 4.553685e-01 -2.172695e-01 2.042923e-01 1.917665e-01 1.372695e-01 -1.597133e-01 -1.233057e-01 1.780031e-01 -7.246356e-02 -2.199085e-01 -4.814621e-02 1.395034e-03 2.781901e-01
<VARIANCE> 39
 3.242937e+01 4.764117e+01 2.983793e+01 7.246606e+01 5.699270e+01 5.665273e+01 5.944738e+01 5.881452e+01 5.120914e+01 5.263535e+01 3.480136e+01 3.456028e+01 7.627589e+01 3.766557e+00 4.516817e+00 3.462818e+00 5.505283e+00 4.750565e+00 4.543472e+00 5.017862e+00 4.199257e+00 4.330412e+00 4.819616e+00 3.175090e+00 3.043010e+00 6.409242e+00 5.213975e-01 8.784208e-01 6.177605e-01 1.042583e+00 8.048974e-01 7.756261e-01 9.368140e-01 7.385733e-01 7.409453e-01 9.261051e-01 5.357739e-01 5.671632e-01 1.326675e+00
<GCONST> 1.379848e+02
<STATE> 3
<MEAN> 39
 -1.322241e+01 -8.268560e-01 3.116653e-01 -6.375186e+00 3.802113e+00 -2.828547e+00 6.881569e+00 -2.593311e+00 -2.928138e+00 -3.692620e+00 5.185017e+00 2.540570e+00 6.023362e+01 2.665667e-01 -8.941054e-01 2.846272e-01 -6.630384e-01 5.610249e-02 5.752196e-01 5.074876e-01 3.025153e-01 3.186805e-01 -2.761092e-01 -2.867833e-01 2.528991e-01 8.842094e-01 4.864986e-01 1.649805e-01 2.765563e-01 4.645923e-01 2.052245e-01 -2.671636e-01 -2.464052e-01 1.729939e-01 -5.457659e-02 -2.059394e-01 -7.493424e-02 -8.548154e-02 5.998336e-03
<VARIANCE> 39
 2.600591e+01 4.945512e+01 2.616442e+01 6.901646e+01 5.942378e+01 4.625643e+01 6.053788e+01 5.692636e+01 4.940292e+01 4.979602e+01 3.107547e+01 3.130800e+01 6.600426e+01 3.500366e+00 5.174865e+00 3.408409e+00 5.869116e+00 5.279701e+00 5.029878e+00 4.745910e+00 4.264940e+00 4.273620e+00 4.847363e+00 3.033849e+00 3.122862e+00 5.117480e+00 4.524137e-01 1.133984e+00 6.257048e-01 8.962280e-01 8.717287e-01 9.070033e-01 8.663603e-01 7.635612e-01 7.839723e-01 9.462113e-01 5.232981e-01 5.771838e-01 1.065065e+00
<GCONST> 1.370422e+02
<STATE> 4
<MEAN> 39
 -1.152254e+01 -2.259639e+00 1.523713e+00 -7.072380e+00 4.033057e+00 -1.940644e+00 7.896195e+00 -1.096363e+00 -1.676995e+00 -4.650624e+00 4.116831e+00 2.789165e+00 6.177847e+01 1.165742e+00 -6.052327e-02 8.933818e-01 4.631231e-01 4.740997e-01 -7.674718e-02 -1.448957e-01 6.534595e-01 2.346559e-01 -7.049267e-01 -4.807669e-01 -2.924763e-03 6.579783e-01 3.296635e-01 4.413048e-01 1.516978e-01 3.849227e-01 8.418745e-02 -3.924513e-01 -3.664991e-01 1.294128e-01 -1.041803e-01 -2.732325e-01 -2.726674e-02 -1.076903e-01 -7.498063e-02
<VARIANCE> 39
 2.948350e+01 4.550740e+01 2.825624e+01 6.651067e+01 6.304446e+01 4.422367e+01 6.128771e+01 5.816127e+01 5.231026e+01 4.851042e+01 3.170853e+01 2.939303e+01 5.591709e+01 3.003522e+00 6.646493e+00 3.548429e+00 4.871875e+00 4.807642e+00 5.845603e+00 4.651605e+00 4.026630e+00 4.229481e+00 4.833785e+00 2.835766e+00 2.913880e+00 4.021676e+00 4.370130e-01 1.186131e+00 7.122635e-01 7.789758e-01 8.734672e-01 1.058883e+00 8.293655e-01 7.308894e-01 8.143173e-01 9.374620e-01 5.166806e-01 5.399517e-01 8.006667e-01
<GCONST> 1.362671e+02
<TRANSP> 5
 0.000000e+00 1.000000e+00 0.000000e+00 0.000000e+00 0.000000e+00
 0.000000e+00 5.096933e-01 4.903067e-01 0.000000e+00 0.000000e+00
 0.000000e+00 0.000000e+00 5.064222e-01 4.935778e-01 0.000000e+00
 0.000000e+00 0.000000e+00 0.000000e+00 6.010004e-01 3.989996e-01
 0.000000e+00 0.000000e+00 0.000000e+00 0.000000e+00 0.000000e+00
<ENDHMM>
~h "L"
<BEGINHMM>
<NUMSTATES> 5
<STATE> 2
<MEAN> 39
 9.460793e-01 -6.221266e-01 3.402488e+00 6.570885e+00 5.697058e+00 -1.571879e+01 2.491544e+00 7.246444e+00 -7.670033e+00 -1.756393e+01 -5.342096e+00 1.955356e-01 6.344990e+01 1.247114e-01 5.862783e-02 -1.804291e-02 5.617874e-01 8.182788e-02 -1.378123e-01 2.042926e-01 4.179276e-01 -4.392391e-01 -3.170115e-01 -4.634842e-01 -2.690192e-01 -4.174731e-01 -1.668278e-01 4.003261e-02 1.219953e-02 -2.699875e-01 -9.982845e-02 4.672671e-02 -6.104167e-04 -2.132253e-01 2.647133e-02 2.511066e-01 3.125882e-01 1.402487e-01 8.132603e-02
<VARIANCE> 39
 1.834958e+01 2.730323e+01 3.060413e+01 6.892730e+01 8.316879e+01 9.816743e+01 6.410936e+01 6.129062e+01 7.755947e+01 6.127084e+01 6.473248e+01 3.254692e+01 4.189623e+01 1.187858e+00 1.444380e+00 2.204848e+00 5.590514e+00 4.182617e+00 6.255305e+00 3.722836e+00 5.228688e+00 4.322798e+00 4.320822e+00 4.569746e+00 3.348186e+00 2.442906e+00 2.129801e-01 2.260870e-01 3.940393e-01 8.853763e-01 5.505762e-01 1.051158e+00 7.147942e-01 1.065502e+00 7.963506e-01 7.662495e-01 7.789637e-01 6.296911e-01 4.184227e-01
<GCONST> 1.315361e+02
<STATE> 3
<MEAN> 39
 3.889641e-01 4.833899e-02 3.632303e+00 6.009104e+00 4.909583e+00 -1.538204e+01 2.607291e+00 7.163655e+00 -8.099081e+00 -1.700056e+01 -4.934427e+00 2.803785e-01 6.240192e+01 -3.055514e-01 1.318813e-01 -6.417368e-02 -2.753858e-01 -1.321692e-01 1.681865e-01 1.307084e-02 -3.236763e-01 -2.309863e-01 3.797114e-01 4.437253e-01 2.518973e-01 -1.856832e-01 -1.420101e-01 1.233325e-02 -2.889112e-02 -3.012739e-01 -3.910863e-02 1.147130e-01 -8.035646e-02 -2.663256e-01 8.378461e-02 2.585967e-01 3.062195e-01 1.617960e-01 8.424167e-02
<VARIANCE> 39
 2.222842e+01 3.331686e+01 3.085855e+01 6.682398e+01 8.661155e+01 1.037685e+02 6.303182e+01 6.145871e+01 7.463948e+01 7.364346e+01 6.353947e+01 3.270502e+01 5.492952e+01 1.154311e+00 1.528959e+00 1.987858e+00 4.733492e+00 3.638058e+00 5.664812e+00 3.581952e+00 5.088187e+00 4.473514e+00 4.165607e+00 4.706190e+00 3.404280e+00 2.781631e+00 1.994511e-01 2.371669e-01 3.698400e-01 8.472080e-01 5.000944e-01 8.681338e-01 6.750745e-01 1.028250e+00 7.822155e-01 7.584478e-01 8.337259e-01 6.513047e-01 4.151822e-01
<GCONST> 1.315763e+02
<STATE> 4
<MEAN> 39
 -4.323006e+00 1.848901e+00 2.246492e+00 3.890295e+00 3.578661e+00 -8.640587e+00 2.738061e+00 5.198279e+00 -5.761396e+00 -1.050807e+01 -1.457666e+00 2.313455e+00 5.538357e+01 -5.062661e-01 4.331295e-02 -9.494945e-02 -4.079917e-01 3.974130e-02 5.569845e-01 -7.624061e-02 -5.179910e-01 8.351198e-02 7.267839e-01 7.167264e-01 3.397260e-01 -2.644179e-01 -3.417911e-02 -6.640472e-03 2.940937e-02 -5.002843e-02 2.095202e-02 4.603557e-02 -5.495560e-04 -3.640756e-02 5.515940e-02 7.776792e-02 3.807501e-02 -1.513152e-02 -1.923409e-03
<VARIANCE> 39
 5.231081e+01 4.580658e+01 3.251551e+01 4.813256e+01 7.085237e+01 1.563553e+02 5.086116e+01 5.212285e+01 6.921397e+01 1.132876e+02 6.088931e+01 3.192444e+01 1.467283e+02 1.144142e+00 1.733518e+00 1.851120e+00 3.115307e+00 2.763387e+00 4.365992e+00 3.039636e+00 3.981489e+00 3.595914e+00 3.436740e+00 3.607321e+00 2.579984e+00 2.594303e+00 1.846327e-01 2.714550e-01 3.226926e-01 5.482555e-01 4.128341e-01 6.345944e-01 5.453061e-01 6.872552e-01 5.874141e-01 5.816270e-01 6.163365e-01 4.839597e-01 3.575802e-01
<GCONST> 1.282987e+02
<TRANSP> 5
 0.000000e+00 1.000000e+00 0.000000e+00 0.000000e+00 0.000000e+00
 0.000000e+00 6.543558e-01 3.456443e-01 0.000000e+00 0.000000e+00
 0.000000e+00 0.000000e+00 6.061069e-01 3.938931e-01 0.000000e+00
 0.000000e+00 0.000000e+00 0.000000e+00 7.543656e-01 2.456344e-01
 0.000000e+00 0.000000e+00 0.000000e+00 0.000000e+00 0.000000e+00
<ENDHMM>
~h "M"
<BEGINHMM>
<NUMSTATES> 5
<STATE> 2
<MEAN> 39
 1.053476e+00 2.463224e+00 3.629088e+00 2.384954e+00 3.256882e+00 -8.410483e+00 2.097244e+00 8.263257e+00 -8.414293e-01 -1.049870e+01 1.757583e+00 -9.289765e-01 6.007279e+01 2.689966e-01 4.732801e-01 4.680482e-01 5.652842e-01 3.367094e-01 1.031118e+00 -4.034514e-01 8.517623e-02 5.423247e-01 3.964453e-01 -3.383611e-01 -9.744796e-01 -6.520944e-01 -1.281381e-01 -1.476355e-01 1.123945e-03 -9.712728e-02 -1.860424e-02 -2.298436e-01 6.879853e-02 -1.166209e-01 -2.238678e-01 -7.254183e-02 8.678443e-02 1.894090e-01 1.981982e-01
<VARIANCE> 39
 3.822882e+01 2.813063e+01 3.410141e+01 3.176204e+01 6.754716e+01 1.537202e+02 8.652743e+01 5.752533e+01 5.775513e+01 5.643037e+01 4.172764e+01 4.670368e+01 7.307024e+01 1.372135e+00 1.855064e+00 2.077505e+00 2.026285e+00 3.837618e+00 1.072421e+01 4.138325e+00 3.720848e+00 4.688058e+00 3.782899e+00 3.501466e+00 4.383971e+00 2.936081e+00 2.279166e-01 2.886764e-01 3.464535e-01 3.565724e-01 5.848455e-01 1.997607e+00 7.120932e-01 5.835536e-01 7.720379e-01 7.037437e-01 5.995122e-01 8.067023e-01 4.285903e-01
<GCONST> 1.311497e+02
<STATE> 3
<MEAN> 39
 1.743806e+00 3.137303e+00 4.721354e+00 3.243888e+00 3.670618e+00 -7.718384e+00 1.465464e+00 8.373056e+00 -2.473865e-01 -1.030063e+01 1.288221e+00 -2.501346e+00 5.990755e+01 1.674094e-02 1.338601e-01 2.437233e-01 1.569407e-01 -3.580479e-02 -1.818433e-01 -7.247308e-02 -4.192808e-02 -8.454768e-02 5.333760e-02 -9.367335e-03 -1.603274e-01 5.475354e-03 -1.424720e-01 -1.613601e-01 -1.168548e-01 -1.943605e-01 -1.587607e-01 -5.252141e-01 1.689786e-01 -3.380798e-02 -2.782879e-01 -1.464020e-01 1.633663e-01 3.716024e-01 2.915289e-01
<VARIANCE> 39
 2.967094e+01 2.289325e+01 2.922444e+01 2.994509e+01 5.856780e+01 1.373970e+02 7.504726e+01 5.505473e+01 5.691682e+01 4.954747e+01 4.043443e+01 4.730881e+01 5.349955e+01 1.384781e+00 1.752505e+00 2.108743e+00 2.044244e+00 4.716335e+00 1.433793e+01 4.328728e+00 3.693545e+00 4.709064e+00 3.677762e+00 3.619341e+00 5.313162e+00 3.249068e+00 2.038503e-01 2.634249e-01 3.337758e-01 3.393450e-01 6.145647e-01 2.075077e+00 6.621362e-01 6.006339e-01 8.037633e-01 6.566638e-01 6.240701e-01 8.783260e-01 3.697243e-01
<GCONST> 1.300763e+02
<STATE> 4
<MEAN> 39
 1.261227e+00 3.222875e+00 5.050005e+00 2.941081e+00 2.428020e+00 -1.041860e+01 2.105379e+00 8.823394e+00 -8.885837e-01 -1.059911e+01 1.685158e+00 -1.423735e+00 6.060288e+01 -2.693430e-01 -2.353053e-01 -1.220449e-01 -3.268046e-01 -4.320092e-01 -1.242957e+00 3.453855e-01 -5.663254e-02 -5.541704e-01 -2.665038e-01 3.370527e-01 6.641269e-01 6.202719e-01 -1.211089e-01 -1.100464e-01 -6.632628e-02 -9.323448e-02 2.328917e-02 -3.793050e-02 7.980078e-02 -6.825522e-02 -1.020201e-01 -2.753452e-02 5.725347e-02 1.237783e-01 1.060477e-01
<VARIANCE> 39
 3.080019e+01 2.401267e+01 3.308690e+01 3.158519e+01 6.813291e+01 1.682875e+02 7.786116e+01 5.923737e+01 5.898529e+01 5.420712e+01 4.323152e+01 4.920861e+01 6.268783e+01 1.420144e+00 1.954321e+00 2.366140e+00 2.155462e+00 4.960100e+00 1.351897e+01 4.677613e+00 3.750362e+00 4.543916e+00 3.696362e+00 4.115819e+00 4.867155e+00 3.195337e+00 2.120680e-01 2.992553e-01 3.865147e-01 3.679228e-01 7.396675e-01 2.466522e+00 6.932869e-01 6.660681e-01 7.852738e-01 6.748397e-01 6.882788e-01 9.249225e-01 4.494355e-01
<GCONST> 1.328245e+02
<TRANSP> 5
 0.000000e+00 1.000000e+00 0.000000e+00 0.000000e+00 0.000000e+00
 0.000000e+00 5.484453e-01 4.515546e-01 0.000000e+00 0.000000e+00
 0.000000e+00 0.000000e+00 5.538269e-01 4.461730e-01 0.000000e+00
 0.000000e+00 0.000000e+00 0.000000e+00 6.970923e-01 3.029077e-01
 0.000000e+00 0.000000e+00 0.000000e+00 0.000000e+00 0.000000e+00
<ENDHMM>
~h "N"
<BEGINHMM>
<NUMSTATES> 5
<STATE> 2
<MEAN> 39
 8.891282e-02 2.686026e+00 4.735148e+00 2.861691e+00 9.735713e+00 -4.991036e+00 -1.191814e+00 2.650377e+00 -4.108085e+00 -1.114651e+01 -1.777720e+00 -1.894461e+00 6.046392e+01 3.192587e-02 3.965200e-01 2.550521e-01 3.620051e-01 5.701585e-01 1.150794e+00 -4.499230e-01 -1.625313e-01 4.437576e-01 1.388180e-01 -8.833379e-01 -6.024453e-01 -7.200955e-01 -2.060709e-01 -1.614843e-01 -2.872574e-02 -1.057303e-01 -1.624947e-01 -4.539870e-01 2.359187e-01 -3.698391e-02 -2.205880e-01 8.245440e-02 3.430561e-01 2.627053e-01 2.394708e-01
<VARIANCE> 39
 2.742884e+01 2.644708e+01 3.105478e+01 4.051454e+01 5.421678e+01 9.570277e+01 8.006347e+01 5.921226e+01 7.428155e+01 6.332268e+01 5.967871e+01 3.841410e+01 5.111330e+01 1.517420e+00 2.053638e+00 2.204342e+00 2.301915e+00 3.585587e+00 8.583421e+00 5.290355e+00 3.270522e+00 5.652070e+00 3.322199e+00 6.370859e+00 3.823661e+00 2.879984e+00 2.462365e-01 3.291476e-01 3.975141e-01 3.915522e-01 5.083748e-01 1.415199e+00 8.747646e-01 5.503229e-01 9.708448e-01 5.690359e-01 1.088758e+00 6.611097e-01 4.693512e-01
<GCONST> 1.316570e+02
<STATE> 3
<MEAN> 39
 -5.400250e-01 3.160549e+00 5.089479e+00 3.131299e+00 1.026711e+01 -3.846736e+00 -1.452411e+00 2.337325e+00 -3.690248e+00 -1.068622e+01 -2.509844e+00 -2.188502e+00 5.946747e+01 -3.807866e-01 5.031916e-02 6.699812e-02 6.732712e-02 1.150161e-01 -2.674939e-02 1.775742e-01 -1.542238e-01 -1.617936e-01 3.119246e-01 1.037333e-01 1.190962e-01 -1.700389e-01 -1.724648e-01 -1.876666e-01 -7.284632e-02 -1.254643e-01 -2.312596e-01 -5.158505e-01 2.736330e-01 1.470082e-02 -2.526792e-01 8.372869e-02 4.266223e-01 2.925442e-01 2.394011e-01
<VARIANCE> 39
 3.028384e+01 2.862325e+01 3.061419e+01 3.740966e+01 4.703949e+01 9.124823e+01 7.787788e+01 5.538455e+01 7.485027e+01 6.646277e+01 5.786096e+01 3.831481e+01 5.629859e+01 1.513608e+00 2.233159e+00 2.208986e+00 2.197995e+00 3.368154e+00 8.540304e+00 5.116286e+00 3.171396e+00 5.735077e+00 3.430562e+00 6.733430e+00 3.796810e+00 3.087646e+00 2.543969e-01 3.735488e-01 4.253087e-01 3.901645e-01 4.925095e-01 1.388191e+00 8.899312e-01 5.510999e-01 1.003425e+00 5.958864e-01 1.105675e+00 6.926380e-01 4.853170e-01
<GCONST> 1.320115e+02
<STATE> 4
<MEAN> 39
 -3.354264e+00 3.097104e+00 4.426739e+00 3.149313e+00 9.193262e+00 -3.391653e+00 5.203138e-02 2.443612e+00 -3.758636e+00 -8.306492e+00 -9.257184e-01 -6.009848e-01 5.669765e+01 -5.655572e-01 -2.251058e-01 -7.007743e-02 -9.481401e-02 -2.667339e-01 -6.049374e-01 5.292284e-01 -4.751347e-02 -3.719339e-01 4.568743e-01 7.098415e-01 4.954597e-01 4.426381e-02 -4.990928e-02 -1.321707e-01 -2.366898e-02 -5.011469e-02 -1.409899e-01 -1.841312e-01 9.526240e-02 1.314238e-02 -5.303234e-02 1.913762e-02 1.574002e-01 9.530863e-02 1.133999e-01
<VARIANCE> 39
 4.588629e+01 3.648628e+01 3.687816e+01 3.646916e+01 4.806265e+01 1.062795e+02 7.722562e+01 5.100685e+01 7.263975e+01 8.130733e+01 6.448038e+01 4.174914e+01 1.004526e+02 1.619047e+00 2.478667e+00 2.449892e+00 2.223425e+00 3.153434e+00 7.099842e+00 4.620848e+00 3.167813e+00 4.963538e+00 3.569345e+00 5.449777e+00 3.326109e+00 3.219849e+00 2.689942e-01 4.419972e-01 4.417562e-01 3.901668e-01 4.749052e-01 1.217438e+00 7.950162e-01 5.412207e-01 8.891452e-01 6.224815e-01 9.882506e-01 6.164868e-01 4.998658e-01
<GCONST> 1.330718e+02
<TRANSP> 5
 0.000000e+00 1.000000e+00 0.000000e+00 0.000000e+00 0.000000e+00
 0.000000e+00 5.015043e-01 4.984957e-01 0.000000e+00 0.000000e+00
 0.000000e+00 0.000000e+00 4.960463e-01 5.039538e-01 0.000000e+00
 0.000000e+00 0.000000e+00 0.000000e+00 6.380060e-01 3.619939e-01
 0.000000e+00 0.000000e+00 0.000000e+00 0.000000e+00 0.000000e+00
<ENDHMM>
~h "O"
<BEGINHMM>
<NUMSTATES> 5
<STATE> 2
<MEAN> 39
 -1.223539e+00 3.020185e+00 6.866266e+00 -2.243740e+00 2.056038e+00 -1.297775e+01 1.000897e+00 6.918496e+00 -2.898083e+00 -1.701214e+01 -1.232882e+00 1.720853e+00 6.313338e+01 6.400301e-01 3.740323e-01 1.990619e-01 4.308901e-02 -3.080658e-01 -9.967421e-01 -5.087267e-01 7.416851e-01 1.708487e-01 -7.653881e-01 -3.654090e-01 -2.425855e-01 1.435455e-01 -2.824193e-01 -5.450485e-02 -1.649646e-01 1.675435e-01 1.170167e-01 5.333470e-01 1.511509e-01 -2.724721e-01 6.857067e-02 5.087804e-01 3.273138e-02 9.757941e-03 -3.016948e-01
<VARIANCE> 39
 3.110192e+01 3.036938e+01 3.640330e+01 4.217033e+01 6.200984e+01 1.279594e+02 7.302264e+01 5.483828e+01 6.777010e+01 9.695690e+01 3.852775e+01 2.989971e+01 6.554919e+01 3.493079e+00 3.061713e+00 2.976984e+00 3.791242e+00 3.925749e+00 1.091139e+01 6.565634e+00 4.996577e+00 4.575445e+00 7.937977e+00 3.323165e+00 2.664393e+00 4.449696e+00 5.679060e-01 5.271230e-01 5.689467e-01 6.522990e-01 6.427723e-01 1.860338e+00 1.135607e+00 8.748839e-01 8.655939e-01 1.357352e+00 5.916476e-01 5.168514e-01 6.972030e-01
<GCONST> 1.390589e+02
<STATE> 3
<MEAN> 39
 -7.746037e-01 3.644243e+00 6.821929e+00 -1.935715e+00 1.726337e+00 -1.345350e+01 5.309979e-01 7.566747e+00 -2.496866e+00 -1.715242e+01 -1.777287e+00 1.345159e+00 6.272047e+01 7.410065e-02 3.038550e-01 -1.793634e-01 3.330764e-01 1.053422e-01 4.419764e-01 -4.517803e-02 -1.056611e-02 1.461158e-01 3.540650e-01 -2.961502e-01 -1.853583e-01 -5.301343e-01 -2.885578e-01 -8.048906e-02 -1.339503e-01 1.398670e-01 1.862613e-01 6.166752e-01 1.917831e-01 -3.410650e-01 -1.003381e-02 5.053105e-01 6.958055e-02 5.312178e-02 -2.752726e-01
<VARIANCE> 39
 2.875744e+01 2.941768e+01 3.855466e+01 4.045495e+01 6.262548e+01 1.245069e+02 6.962157e+01 5.227045e+01 6.648927e+01 9.545620e+01 3.923484e+01 2.935399e+01 6.884766e+01 2.637632e+00 2.767579e+00 2.822348e+00 3.181497e+00 4.011391e+00 1.094212e+01 5.968750e+00 4.710093e+00 4.526391e+00 7.493339e+00 3.292667e+00 2.561823e+00 4.948615e+00 4.698227e-01 5.276615e-01 5.306500e-01 6.206362e-01 6.205724e-01 1.827103e+00 1.080454e+00 8.581617e-01 8.421220e-01 1.278409e+00 6.107811e-01 5.013481e-01 7.258499e-01
<GCONST> 1.376384e+02
<STATE> 4
<MEAN> 39
 -1.536086e+00 4.480977e+00 6.156244e+00 -1.028234e+00 1.985206e+00 -1.081452e+01 9.000833e-01 6.873665e+00 -1.982100e+00 -1.479521e+01 -2.248459e+00 1.265719e+00 6.006920e+01 -4.063301e-01 6.277569e-02 -3.901601e-01 5.311061e-01 4.876097e-01 1.405420e+00 2.700113e-01 -5.756034e-01 2.574378e-03 1.079410e+00 -3.552558e-02 -3.183419e-02 -8.884420e-01 -2.152075e-01 -1.870274e-01 -1.109947e-02 3.204382e-02 1.047370e-01 1.640021e-01 8.046490e-02 -1.801373e-01 -7.190570e-02 1.834351e-01 1.567236e-01 7.997776e-02 3.473223e-02
<VARIANCE> 39
 3.577081e+01 3.312981e+01 4.164324e+01 4.074716e+01 6.599441e+01 1.307627e+02 6.568857e+01 5.272944e+01 6.241335e+01 9.753403e+01 3.942015e+01 2.917781e+01 8.663972e+01 2.763460e+00 3.128051e+00 2.830710e+00 3.212899e+00 4.063767e+00 9.112484e+00 5.404195e+00 4.523526e+00 4.542657e+00 6.469591e+00 3.348124e+00 2.667727e+00 4.936564e+00 4.579711e-01 5.631734e-01 5.028028e-01 6.035166e-01 6.314222e-01 1.800844e+00 9.642605e-01 8.415990e-01 7.988836e-01 1.186373e+00 6.246389e-01 4.779197e-01 9.094160e-01
<GCONST> 1.379820e+02
<TRANSP> 5
 0.000000e+00 1.000000e+00 0.000000e+00 0.000000e+00 0.000000e+00
 0.000000e+00 4.790062e-01 5.209938e-01 0.000000e+00 0.000000e+00
 0.000000e+00 0.000000e+00 4.681508e-01 5.318492e-01 0.000000e+00
 0.000000e+00 0.000000e+00 0.000000e+00 5.662621e-01 4.337380e-01
 0.000000e+00 0.000000e+00 0.000000e+00 0.000000e+00 0.000000e+00
<ENDHMM>
~h "P"
<BEGINHMM>
<NUMSTATES> 5
<STATE> 2
<MEAN> 39
 -6.001331e+00 5.282969e+00 1.837484e+00 3.103880e+00 1.723479e+00 -3.355154e+00 2.300575e+00 3.547176e+00 -1.526181e+00 -4.967227e+00 1.254919e+00 3.251692e+00 4.951521e+01 -4.946996e-01 7.810017e-02 -2.223125e-01 -3.140872e-01 -3.352894e-01 1.917639e-01 4.101498e-01 -1.736069e-01 5.259425e-01 5.071499e-01 -1.412503e-01 9.803957e-02 -1.582712e-01 2.120139e-01 -3.051195e-01 9.773723e-02 -1.781830e-01 1.091095e-01 -4.924450e-01 1.235115e-02 1.644528e-02 -9.341605e-02 -4.391475e-01 5.863161e-02 -1.214204e-02 8.920431e-01
<VARIANCE> 39
 4.543757e+01 2.946722e+01 3.025356e+01 3.436069e+01 5.972859e+01 8.896838e+01 4.051532e+01 5.113618e+01 4.215650e+01 5.966323e+01 2.590475e+01 2.297363e+01 7.151280e+01 4.027890e+00 3.139119e+00 2.539929e+00 3.613229e+00 4.172019e+00 8.272519e+00 4.396116e+00 4.504155e+00 3.105065e+00 6.244407e+00 2.432304e+00 2.034928e+00 1.139742e+01 7.945870e-01 4.879062e-01 4.856342e-01 5.996854e-01 8.376907e-01 1.568694e+00 8.912544e-01 9.598730e-01 5.651226e-01 9.431176e-01 4.784253e-01 3.963368e-01 1.193754e+00
<GCONST> 1.346257e+02
<STATE> 3
<MEAN> 39
 -6.617285e+00 4.815984e+00 1.731394e+00 2.117985e+00 1.281964e+00 -4.052912e+00 3.174942e+00 3.129568e+00 -5.689575e-01 -4.788507e+00 1.072376e+00 3.268872e+00 5.115003e+01 1.981782e-01 -5.327053e-01 1.507286e-02 -5.780215e-01 -1.527890e-01 -1.102720e+00 3.308232e-01 3.128511e-02 2.714124e-01 -6.553240e-01 1.968105e-02 4.284531e-03 1.800885e+00 3.751628e-01 -2.352140e-01 8.529556e-02 -3.976757e-02 6.833819e-02 -5.963303e-01 -1.481471e-01 1.608491e-01 -1.903659e-01 -5.441891e-01 1.090686e-01 -4.078827e-02 7.295322e-01
<VARIANCE> 39
 4.230516e+01 3.025986e+01 2.780942e+01 3.113107e+01 5.985218e+01 1.052377e+02 4.009214e+01 5.091514e+01 3.669301e+01 5.398110e+01 2.437241e+01 2.040672e+01 8.397823e+01 6.228127e+00 3.452059e+00 3.223594e+00 3.551931e+00 6.795332e+00 1.504243e+01 5.627124e+00 6.769801e+00 3.896171e+00 8.260584e+00 2.851934e+00 2.271872e+00 1.226532e+01 9.555728e-01 5.909395e-01 5.614095e-01 6.390287e-01 1.086086e+00 2.177372e+00 1.087440e+00 1.185921e+00 6.567365e-01 1.047916e+00 5.416865e-01 4.239556e-01 1.424239e+00
<GCONST> 1.398434e+02
<STATE> 4
<MEAN> 39
 -5.172216e+00 3.254773e+00 2.176432e+00 9.317964e-01 7.140449e-01 -8.216133e+00 3.545118e+00 4.047134e+00 -8.730110e-02 -7.491845e+00 1.487675e+00 3.086319e+00 5.665295e+01 1.028551e+00 -8.717567e-01 1.382438e-01 -5.040390e-01 -1.220812e-01 -2.201104e+00 -1.423886e-01 5.163111e-01 -1.986616e-01 -1.753461e+00 2.454646e-01 -6.131067e-02 2.790921e+00 1.657106e-01 -3.033977e-02 1.854728e-02 5.655628e-02 8.925012e-02 -9.945831e-02 -2.298323e-01 7.381048e-02 -2.035072e-01 -2.142412e-01 5.059813e-02 -3.971525e-03 1.384035e-02
<VARIANCE> 39
 4.922648e+01 3.288801e+01 3.544653e+01 3.231116e+01 7.928600e+01 1.745130e+02 5.544535e+01 6.521664e+01 4.209345e+01 7.519818e+01 2.869343e+01 2.054099e+01 1.114097e+02 6.226411e+00 3.519814e+00 3.892241e+00 3.693289e+00 8.794950e+00 1.803740e+01 7.316822e+00 8.130818e+00 4.721174e+00 8.602757e+00 3.590085e+00 2.558347e+00 8.763886e+00 1.190719e+00 6.490592e-01 6.340204e-01 6.073388e-01 1.301343e+00 3.367337e+00 1.287405e+00 1.479377e+00 7.299971e-01 1.487124e+00 6.113095e-01 4.610351e-01 1.700980e+00
<GCONST> 1.462448e+02
<TRANSP> 5
 0.000000e+00 1.000000e+00 0.000000e+00 0.000000e+00 0.000000e+00
 0.000000e+00 4.913216e-01 5.086785e-01 0.000000e+00 0.000000e+00
 0.000000e+00 0.000000e+00 4.940585e-01 5.059415e-01 0.000000e+00
 0.000000e+00 0.000000e+00 0.000000e+00 6.019990e-01 3.980010e-01
 0.000000e+00 0.000000e+00 0.000000e+00 0.000000e+00 0.000000e+00
<ENDHMM>
~h "R"
<BEGINHMM>
<NUMSTATES> 5
<STATE> 2
<MEAN> 39
 -1.724540e+00 4.038581e-01 1.077138e+00 -7.385806e-01 8.995024e+00 -6.937573e+00 -3.277788e-01 1.305660e+00 -7.294810e+00 -1.510538e+01 1.322134e+00 5.745775e+00 6.323030e+01 1.171734e-01 2.921743e-01 -2.751775e-01 4.812239e-02 8.238316e-01 4.999525e-01 -2.406076e-01 -1.225741e-01 -3.544390e-01 -2.535940e-01 -8.154909e-02 2.885094e-01 -4.175391e-01 -9.467092e-02 -5.056130e-02 1.879936e-01 7.958803e-02 -1.994449e-01 -3.024129e-01 4.238415e-02 6.701029e-02 3.665252e-03 1.837794e-01 1.551329e-01 -1.532864e-01 1.598754e-02
<VARIANCE> 39
 4.118938e+01 2.901340e+01 3.198223e+01 4.684151e+01 6.563397e+01 8.841723e+01 7.010464e+01 5.943417e+01 7.078352e+01 8.578159e+01 5.140280e+01 3.320757e+01 6.974790e+01 3.187970e+00 2.961898e+00 2.709203e+00 3.329085e+00 5.412293e+00 9.293190e+00 6.743153e+00 4.791344e+00 5.141272e+00 6.862851e+00 4.427430e+00 2.885638e+00 5.599928e+00 5.556482e-01 5.088008e-01 4.928258e-01 5.823479e-01 7.983450e-01 1.553745e+00 1.219461e+00 8.042751e-01 8.456106e-01 1.083985e+00 7.579380e-01 5.043894e-01 8.604642e-01
<GCONST> 1.396320e+02
<STATE> 3
<MEAN> 39
 -1.607322e+00 8.129278e-01 9.026037e-01 -6.034327e-01 9.974956e+00 -6.850929e+00 -7.773756e-01 1.222803e+00 -7.986257e+00 -1.536414e+01 1.463199e+00 6.005439e+00 6.266773e+01 -7.178646e-02 1.555349e-01 5.966862e-02 2.132972e-01 2.968754e-01 -1.045260e-01 -6.875370e-02 4.639236e-03 -2.638791e-01 1.716135e-01 1.754212e-01 -4.230207e-02 -3.443277e-01 -1.465457e-01 -9.504710e-02 2.108844e-01 1.019275e-01 -3.277457e-01 -2.348672e-01 1.408389e-01 4.466397e-02 1.178935e-01 2.808631e-01 1.012717e-01 -2.116601e-01 2.746123e-02
<VARIANCE> 39
 3.938918e+01 2.905058e+01 3.189923e+01 4.894754e+01 6.726923e+01 8.453913e+01 7.086577e+01 5.981356e+01 7.463194e+01 9.258942e+01 5.127883e+01 3.407319e+01 6.819289e+01 3.390071e+00 3.061989e+00 2.857999e+00 3.427222e+00 5.942763e+00 9.198128e+00 6.823190e+00 5.013404e+00 5.783763e+00 7.451799e+00 4.557520e+00 3.014292e+00 5.621938e+00 5.521038e-01 5.287190e-01 5.135889e-01 5.883418e-01 8.336992e-01 1.503785e+00 1.234448e+00 8.205844e-01 8.940181e-01 1.152583e+00 7.689691e-01 5.346837e-01 8.558673e-01
<GCONST> 1.406620e+02
<STATE> 4
<MEAN> 39
 -1.954307e+00 1.023825e+00 1.240060e+00 -1.676132e-01 9.750839e+00 -7.484734e+00 -7.516676e-01 1.450196e+00 -8.155151e+00 -1.460867e+01 1.924549e+00 5.693436e+00 6.189601e+01 -3.215625e-01 -1.151502e-04 3.736693e-01 4.086297e-01 -3.036090e-01 -2.869657e-01 3.050737e-01 6.095044e-02 7.371176e-02 7.288727e-01 2.367878e-01 -4.356371e-01 -3.386604e-01 -1.444678e-01 -9.490638e-02 1.593938e-01 6.345893e-02 -2.722988e-01 -6.120485e-03 1.678308e-01 -1.047586e-02 1.855842e-01 2.262550e-01 -3.692696e-03 -1.654982e-01 2.933459e-02
<VARIANCE> 39
 4.007024e+01 3.371638e+01 3.420929e+01 5.156153e+01 7.903043e+01 9.426817e+01 7.514468e+01 6.670352e+01 8.167836e+01 1.004392e+02 5.378342e+01 3.669394e+01 8.221400e+01 3.446655e+00 3.222615e+00 3.057617e+00 3.351547e+00 5.597604e+00 8.026237e+00 6.505351e+00 4.943474e+00 5.655009e+00 6.835790e+00 4.080609e+00 3.022429e+00 5.532557e+00 5.198966e-01 5.536569e-01 5.131984e-01 5.834629e-01 8.490849e-01 1.384499e+00 1.191841e+00 8.202266e-01 9.055726e-01 1.171093e+00 7.582502e-01 5.458330e-01 9.006363e-01
<GCONST> 1.414538e+02
<TRANSP> 5
 0.000000e+00 1.000000e+00 0.000000e+00 0.000000e+00 0.000000e+00
 0.000000e+00 3.688605e-01 6.311396e-01 0.000000e+00 0.000000e+00
 0.000000e+00 0.000000e+00 3.687414e-01 6.312587e-01 0.000000e+00
 0.000000e+00 0.000000e+00 0.000000e+00 4.339401e-01 5.660599e-01
 0.000000e+00 0.000000e+00 0.000000e+00 0.000000e+00 0.000000e+00
<ENDHMM>
~h "S"
<BEGINHMM>
<NUMSTATES> 5
<STATE> 2
<MEAN> 39
 -1.719469e+01 1.878130e-01 1.314396e+01 -5.230365e+00 4.874970e+00 -8.817123e-01 7.061695e+00 -4.631574e+00 -5.260230e+00 -4.977198e+00 2.124022e+00 1.406230e+00 6.413331e+01 -3.953700e+00 -2.217699e-01 1.682640e+00 -1.663124e+00 -2.818457e-01 1.691880e+00 8.575216e-01 -9.175255e-01 9.585384e-01 1.531333e+00 1.207578e-01 1.082632e-01 5.264618e-01 -1.161051e-01 -1.526573e-01 -2.572780e-01 -3.023695e-02 2.114257e-02 -3.312927e-01 -3.227802e-01 1.767328e-01 4.043026e-02 -5.956615e-02 1.481343e-01 1.206137e-02 -6.841107e-03
<VARIANCE> 39
 1.303152e+02 3.197617e+01 5.649807e+01 5.169944e+01 5.394434e+01 7.162439e+01 5.937712e+01 7.296311e+01 5.049012e+01 5.974224e+01 3.140944e+01 2.692512e+01 8.653780e+01 9.694706e+00 3.283926e+00 4.748490e+00 3.837400e+00 3.823994e+00 6.593396e+00 5.470636e+00 5.254275e+00 4.492909e+00 6.236352e+00 3.219094e+00 2.323088e+00 3.413646e+00 2.035585e+00 5.251586e-01 7.197332e-01 6.507576e-01 5.238640e-01 9.975705e-01 7.648404e-01 7.712705e-01 7.731784e-01 9.465479e-01 5.628749e-01 4.220855e-01 5.403925e-01
<GCONST> 1.391259e+02
<STATE> 3
<MEAN> 39
 -2.663974e+01 -1.066857e+00 1.542546e+01 -9.378736e+00 4.453299e+00 1.170834e+00 7.505189e+00 -5.834684e+00 -2.861532e+00 -2.012020e+00 2.963666e+00 1.725089e+00 6.509172e+01 -1.733672e+00 -3.159079e-01 1.245357e-01 -7.609276e-01 1.231744e-02 3.807281e-01 -4.965643e-02 -1.988333e-01 5.586405e-01 5.944331e-01 1.533749e-01 1.488129e-01 -8.760832e-02 8.523761e-01 4.094010e-04 -4.320426e-01 3.602139e-01 1.017586e-01 -3.302374e-01 -2.089199e-01 1.896474e-01 -1.564774e-01 -3.004216e-01 -1.539815e-02 1.998158e-02 -1.673558e-01
<VARIANCE> 39
 7.919082e+01 3.664059e+01 4.570700e+01 4.565592e+01 3.689899e+01 3.972031e+01 4.742198e+01 4.207569e+01 3.873227e+01 3.569324e+01 2.675993e+01 2.400282e+01 5.368477e+01 1.448148e+01 2.508139e+00 4.917431e+00 4.600926e+00 2.742553e+00 4.036592e+00 3.419361e+00 4.042505e+00 3.574036e+00 4.468104e+00 2.410197e+00 1.972806e+00 4.490546e+00 1.429495e+00 4.920015e-01 6.564208e-01 5.707564e-01 4.708908e-01 7.632583e-01 6.705765e-01 6.581932e-01 6.603861e-01 6.768590e-01 4.873306e-01 3.922463e-01 6.483061e-01
<GCONST> 1.313678e+02
<STATE> 4
<MEAN> 39
 -2.461784e+01 -2.283271e+00 1.219475e+01 -8.300611e+00 5.740534e+00 9.796510e-01 6.264423e+00 -5.380071e+00 -2.056570e+00 -2.285026e+00 3.205218e+00 2.821120e+00 6.342504e+01 2.114042e+00 -1.884478e-01 -9.646255e-01 9.213275e-01 4.032938e-01 -5.924590e-01 -5.543534e-01 2.958204e-01 -4.260431e-01 -7.044523e-01 2.230237e-02 1.550337e-01 -1.380823e-01 5.230517e-01 2.779016e-02 -1.223059e-01 1.992106e-01 2.965194e-02 -2.763022e-01 -1.217921e-01 1.440094e-01 -1.883299e-01 -2.539890e-01 2.770298e-02 -3.711717e-02 1.292335e-01
<VARIANCE> 39
 1.086803e+02 3.985383e+01 5.410654e+01 5.320766e+01 3.939057e+01 4.424629e+01 5.014733e+01 4.666486e+01 4.095171e+01 4.466096e+01 2.644737e+01 2.562769e+01 6.246885e+01 1.314482e+01 2.850037e+00 4.408939e+00 4.692613e+00 3.335765e+00 5.491079e+00 4.332561e+00 4.334734e+00 4.703669e+00 5.039629e+00 2.685763e+00 2.393594e+00 5.249289e+00 1.721150e+00 5.075877e-01 7.832688e-01 7.041071e-01 5.297658e-01 8.583571e-01 7.669607e-01 7.929993e-01 7.504755e-01 7.604184e-01 5.000818e-01 4.292789e-01 9.283290e-01
<GCONST> 1.363910e+02
<TRANSP> 5
 0.000000e+00 1.000000e+00 0.000000e+00 0.000000e+00 0.000000e+00
 0.000000e+00 6.744655e-01 3.255345e-01 0.000000e+00 0.000000e+00
 0.000000e+00 0.000000e+00 7.124195e-01 2.875805e-01 0.000000e+00
 0.000000e+00 0.000000e+00 0.000000e+00 8.572865e-01 1.427135e-01
 0.000000e+00 0.000000e+00 0.000000e+00 0.000000e+00 0.000000e+00
<ENDHMM>
~h "T"
<BEGINHMM>
<NUMSTATES> 5
<STATE> 2
<MEAN> 39
 -8.390194e+00 4.228113e+00 4.730868e+00 1.940282e+00 2.361187e+00 -2.236362e+00 3.952725e+00 4.063136e-01 -2.777900e+00 -3.781548e+00 8.956274e-01 1.849545e+00 5.191911e+01 -7.357870e-01 -4.008245e-01 -4.150158e-01 -1.182481e-01 -1.952025e-01 4.566084e-01 1.772773e-01 -4.507796e-01 2.329942e-01 6.728402e-01 -1.644013e-02 3.575364e-01 -1.070285e-01 1.372139e-01 -4.044951e-01 1.007907e-01 -2.073129e-01 2.504581e-01 -3.724681e-01 -7.817701e-02 -1.723653e-01 -2.624314e-01 -5.415975e-01 9.075602e-02 5.927026e-02 1.013035e+00
<VARIANCE> 39
 4.293554e+01 3.240260e+01 3.342217e+01 4.004174e+01 7.070314e+01 6.921626e+01 5.000254e+01 6.892623e+01 4.371658e+01 6.664433e+01 2.855028e+01 2.643804e+01 9.420599e+01 4.058252e+00 4.426122e+00 3.338743e+00 3.817553e+00 4.377273e+00 5.235417e+00 4.942136e+00 5.959598e+00 4.199923e+00 7.082204e+00 2.521931e+00 2.340063e+00 1.534344e+01 8.686404e-01 7.739198e-01 7.350342e-01 6.996708e-01 8.306457e-01 9.511907e-01 1.036286e+00 1.308343e+00 8.577493e-01 1.158317e+00 5.161602e-01 4.789195e-01 2.269079e+00
<GCONST> 1.401729e+02
<STATE> 3
<MEAN> 39
 -9.751672e+00 2.358927e+00 4.229201e+00 1.175286e+00 2.551214e+00 -2.040790e+00 4.277644e+00 -1.147085e+00 -2.817787e+00 -3.664764e+00 9.798809e-01 2.677354e+00 5.430824e+01 -1.809578e-01 -1.106104e+00 7.668343e-02 -5.237412e-01 4.405141e-01 -4.836009e-01 4.158939e-02 -8.006688e-01 -5.568146e-01 -8.282256e-01 1.422805e-01 3.667116e-01 2.271917e+00 4.606811e-01 -1.295606e-01 2.073536e-01 -5.792189e-02 2.598529e-01 -5.552953e-01 -1.681882e-01 1.127677e-01 -3.868765e-01 -6.965507e-01 1.045911e-01 -8.602654e-02 7.201005e-01
<VARIANCE> 39
 4.151321e+01 3.902547e+01 2.690158e+01 3.548099e+01 6.261377e+01 6.270291e+01 4.683852e+01 6.991962e+01 4.538142e+01 6.385029e+01 2.680968e+01 2.541341e+01 1.152434e+02 6.283184e+00 4.227196e+00 3.571734e+00 3.882137e+00 6.026933e+00 8.158555e+00 5.602897e+00 8.194226e+00 5.995774e+00 1.036296e+01 3.037860e+00 2.873442e+00 1.647530e+01 1.091799e+00 8.797975e-01 6.978171e-01 7.763911e-01 1.017269e+00 1.226898e+00 1.154008e+00 1.685266e+00 1.079981e+00 1.426685e+00 5.839024e-01 5.358921e-01 2.825806e+00
<GCONST> 1.448123e+02
<STATE> 4
<MEAN> 39
 -8.819313e+00 1.149209e-02 5.151353e+00 -1.348700e-01 3.999299e+00 -4.367129e+00 4.085489e+00 -2.491899e+00 -4.990325e+00 -7.458044e+00 1.406006e+00 3.244244e+00 6.100517e+01 1.170071e+00 -8.882097e-01 3.831017e-01 -3.856780e-01 7.408057e-01 -1.833934e+00 -4.788202e-01 7.578048e-02 -1.309820e+00 -2.191931e+00 3.937790e-01 2.622934e-02 2.780281e+00 4.011367e-01 2.024441e-01 -1.170877e-02 1.809231e-01 3.287612e-03 -3.395385e-01 -1.933149e-01 4.643312e-01 -6.626802e-02 -1.357009e-01 7.782876e-02 -1.753704e-01 -3.666707e-01
<VARIANCE> 39
 4.731329e+01 3.279286e+01 2.551176e+01 3.378014e+01 6.263608e+01 8.132878e+01 5.430279e+01 7.500599e+01 5.664581e+01 9.693991e+01 3.057091e+01 2.676233e+01 1.176487e+02 7.021970e+00 3.843829e+00 3.423221e+00 3.957583e+00 7.554930e+00 1.061550e+01 7.019290e+00 1.026401e+01 6.791625e+00 1.113539e+01 3.799498e+00 3.289173e+00 1.238704e+01 1.218778e+00 7.141186e-01 6.344257e-01 7.143734e-01 1.036742e+00 1.704463e+00 1.200585e+00 1.661989e+00 1.362904e+00 2.104449e+00 6.329545e-01 5.354479e-01 2.683263e+00
<GCONST> 1.479370e+02
<TRANSP> 5
 0.000000e+00 1.000000e+00 0.000000e+00 0.000000e+00 0.000000e+00
 0.000000e+00 4.842745e-01 5.157254e-01 0.000000e+00 0.000000e+00
 0.000000e+00 0.000000e+00 4.906385e-01 5.093616e-01 0.000000e+00
 0.000000e+00 0.000000e+00 0.000000e+00 5.814104e-01 4.185897e-01
 0.000000e+00 0.000000e+00 0.000000e+00 0.000000e+00 0.000000e+00
<ENDHMM>
~h "U"
<BEGINHMM>
<NUMSTATES> 5
<STATE> 2
<MEAN> 39
 -3.679770e+00 3.211107e+00 8.532994e+00 -1.718147e-01 7.825513e+00 -3.525676e+00 6.671546e-01 2.626236e+00 -2.111618e+00 -1.424477e+01 -3.515018e+00 1.238250e+00 6.051876e+01 8.472749e-01 6.481996e-01 6.216778e-01 -2.221996e-01 1.049527e-01 -6.138862e-01 -7.354614e-01 4.893939e-01 4.727436e-01 -1.131820e+00 -8.955913e-01 -2.333692e-01 4.057932e-01 -1.690097e-01 -9.967797e-02 -1.407387e-01 9.757376e-02 -1.021099e-01 1.977417e-02 -3.985589e-02 -5.108429e-02 1.186007e-01 2.371569e-01 1.362444e-01 5.315368e-02 -9.594033e-02
<VARIANCE> 39
 4.191260e+01 4.414432e+01 3.656451e+01 4.601378e+01 4.964019e+01 8.732282e+01 7.642966e+01 5.466974e+01 7.206584e+01 1.011355e+02 4.222397e+01 2.731288e+01 7.756997e+01 5.087183e+00 4.671069e+00 3.898158e+00 3.927622e+00 3.921314e+00 7.300114e+00 8.122699e+00 5.428577e+00 4.859070e+00 9.096350e+00 3.574566e+00 2.818611e+00 5.212532e+00 8.269820e-01 7.340729e-01 6.939821e-01 6.558198e-01 6.693780e-01 1.361784e+00 1.437068e+00 9.588338e-01 8.960626e-01 1.623820e+00 6.334286e-01 5.106807e-01 9.019182e-01
<GCONST> 1.425080e+02
<STATE> 3
<MEAN> 39
 -2.247887e+00 4.052555e+00 9.450226e+00 -6.612700e-01 7.679238e+00 -4.860641e+00 -9.901490e-01 3.410563e+00 -7.266744e-01 -1.619278e+01 -5.147477e+00 1.002670e+00 6.158349e+01 3.642837e-01 3.361670e-01 8.521501e-02 5.807893e-02 -9.828514e-04 -1.964281e-01 -4.305547e-01 1.693620e-01 4.614168e-01 -2.861331e-01 -4.621443e-01 -1.115866e-01 2.822521e-02 -2.852326e-01 -1.733673e-01 -2.321366e-01 1.598511e-01 -3.957218e-02 2.488328e-01 2.072521e-01 -1.640949e-01 -4.743370e-02 4.294336e-01 2.472851e-01 5.498757e-02 -1.789933e-01
<VARIANCE> 39
 3.354500e+01 3.767521e+01 3.612687e+01 4.385104e+01 5.102100e+01 7.893986e+01 7.362032e+01 5.294379e+01 7.707792e+01 9.759468e+01 4.770337e+01 2.756712e+01 6.268933e+01 3.989934e+00 3.888455e+00 3.711649e+00 3.797379e+00 3.905645e+00 7.917110e+00 8.184462e+00 5.367471e+00 4.869102e+00 9.941174e+00 3.761282e+00 2.724951e+00 5.394300e+00 6.925427e-01 6.937991e-01 6.699759e-01 6.648203e-01 6.675107e-01 1.396561e+00 1.430634e+00 9.640987e-01 9.513156e-01 1.733272e+00 6.699713e-01 5.288010e-01 8.402683e-01
<GCONST> 1.414933e+02
<STATE> 4
<MEAN> 39
 -1.887488e+00 4.708055e+00 9.220411e+00 -5.056239e-01 7.451753e+00 -3.995382e+00 -1.632238e+00 3.424555e+00 9.984158e-01 -1.582812e+01 -6.486417e+00 8.773997e-01 6.103321e+01 -2.617539e-01 -9.932203e-03 -4.392654e-01 4.004239e-01 4.411324e-02 4.156538e-01 2.507868e-01 -1.947335e-01 1.535614e-02 6.259419e-01 2.154120e-01 -3.238259e-03 -4.232862e-01 -2.297382e-01 -1.933816e-01 -1.039523e-01 7.511070e-02 -1.505870e-02 9.018023e-02 1.569874e-01 -8.087535e-02 -1.442059e-01 1.945607e-01 2.473512e-01 6.694313e-02 -2.119523e-02
<VARIANCE> 39
 3.286848e+01 3.817361e+01 3.750979e+01 4.557137e+01 5.366859e+01 7.787990e+01 7.652256e+01 5.299882e+01 7.600353e+01 9.268029e+01 5.386349e+01 2.882008e+01 6.471817e+01 3.498455e+00 3.868297e+00 3.322033e+00 3.976943e+00 3.846114e+00 7.419314e+00 7.237773e+00 4.926398e+00 4.890952e+00 9.108126e+00 3.956369e+00 2.813646e+00 5.426794e+00 5.534056e-01 6.941056e-01 5.975016e-01 6.940566e-01 6.489721e-01 1.378762e+00 1.345778e+00 9.315246e-01 9.311730e-01 1.665332e+00 6.943508e-01 5.511950e-01 9.489242e-01
<GCONST> 1.409918e+02
<TRANSP> 5
 0.000000e+00 1.000000e+00 0.000000e+00 0.000000e+00 0.000000e+00
 0.000000e+00 4.997169e-01 5.002831e-01 0.000000e+00 0.000000e+00
 0.000000e+00 0.000000e+00 5.262161e-01 4.737840e-01 0.000000e+00
 0.000000e+00 0.000000e+00 0.000000e+00 6.946973e-01 3.053027e-01
 0.000000e+00 0.000000e+00 0.000000e+00 0.000000e+00 0.000000e+00
<ENDHMM>
~h "Y"
<BEGINHMM>
<NUMSTATES> 5
<STATE> 2
<MEAN> 39
 -1.681347e+00 -5.423078e+00 2.922131e+00 6.676765e+00 1.062796e+01 -1.887002e+01 -9.527648e-01 -3.061953e+00 -1.521590e+01 -6.744116e+00 9.239384e+00 2.044003e+00 6.803927e+01 -2.389605e-01 3.068867e-03 4.217694e-01 3.151968e-01 6.607122e-01 -7.662594e-02 -7.812139e-01 -8.128829e-01 -7.270294e-01 7.918294e-01 1.957576e-01 -3.004744e-01 -2.581183e-01 -4.776039e-02 2.061636e-01 4.742172e-02 -1.026517e-01 -1.490621e-01 2.566860e-01 1.282203e-01 1.077807e-01 3.364626e-01 -3.368604e-02 -2.723453e-01 -3.288591e-02 -2.155916e-01
<VARIANCE> 39
 1.749816e+01 2.365721e+01 5.881021e+01 5.507223e+01 6.067569e+01 6.123345e+01 8.237045e+01 6.593130e+01 7.133783e+01 8.054688e+01 4.957161e+01 4.439635e+01 3.646024e+01 5.793895e-01 1.630502e+00 2.106923e+00 1.990933e+00 2.615971e+00 2.987377e+00 3.059905e+00 2.843236e+00 3.755523e+00 2.495980e+00 3.095985e+00 2.200844e+00 1.349241e+00 1.059237e-01 2.347570e-01 3.069166e-01 2.576651e-01 3.362986e-01 5.378420e-01 4.592845e-01 4.619899e-01 5.872460e-01 4.328382e-01 4.704549e-01 3.435740e-01 1.611259e-01
<GCONST> 1.180983e+02
<STATE> 3
<MEAN> 39
 -2.695258e+00 -4.300843e+00 4.377432e+00 6.917418e+00 1.158522e+01 -1.763025e+01 -2.863790e+00 -4.304574e+00 -1.484246e+01 -5.297625e+00 8.124160e+00 1.069757e+00 6.588580e+01 -2.755862e-01 4.361614e-01 2.180061e-01 -1.490536e-02 1.058383e-01 5.686923e-01 -2.563881e-01 -3.655129e-01 1.186995e-01 4.567234e-01 -2.830080e-01 -1.606672e-01 -7.533165e-01 -2.252683e-02 1.703340e-01 -6.864764e-02 -1.056651e-01 -1.850865e-01 2.937617e-01 2.164272e-01 1.654532e-01 3.011872e-01 -9.368271e-02 -1.734896e-01 5.855944e-02 -2.134252e-01
<VARIANCE> 39
 1.942205e+01 2.857758e+01 4.389552e+01 5.083883e+01 5.085887e+01 7.239591e+01 7.175759e+01 6.500018e+01 7.308572e+01 8.015073e+01 4.705807e+01 3.929960e+01 6.419164e+01 8.031386e-01 1.745906e+00 2.284474e+00 2.101549e+00 2.539323e+00 3.506016e+00 3.073478e+00 2.701232e+00 3.563563e+00 2.360698e+00 2.917272e+00 2.278154e+00 2.155001e+00 1.295289e-01 2.764629e-01 2.869745e-01 2.789897e-01 3.681050e-01 5.376770e-01 4.485469e-01 4.349147e-01 5.636630e-01 3.998503e-01 4.754478e-01 3.507472e-01 2.559313e-01
<GCONST> 1.199742e+02
<STATE> 4
<MEAN> 39
 -6.594643e+00 -1.875215e+00 3.275474e+00 6.017251e+00 9.262791e+00 -1.000782e+01 -1.826925e+00 -2.613165e+00 -9.532811e+00 -2.263328e+00 5.893453e+00 1.854072e+00 5.691769e+01 -3.202723e-01 4.716136e-01 -7.333533e-02 -1.936965e-01 -2.515287e-01 1.008697e+00 2.870488e-01 1.425432e-01 5.751727e-01 1.461287e-01 -3.033485e-01 8.538121e-02 -8.956275e-01 -1.276118e-02 5.606139e-02 -2.765713e-02 -3.124652e-02 -8.037893e-02 1.310994e-01 1.224041e-01 1.000822e-01 1.365115e-01 -4.976099e-02 -6.422394e-02 3.117273e-02 -7.044628e-02
<VARIANCE> 39
 4.044994e+01 4.322252e+01 4.037220e+01 4.116026e+01 4.677135e+01 1.321445e+02 5.944513e+01 6.015715e+01 8.717937e+01 6.819825e+01 3.950765e+01 3.404063e+01 1.482399e+02 1.213044e+00 2.219329e+00 2.157743e+00 1.969389e+00 2.294309e+00 3.575130e+00 2.792233e+00 2.609603e+00 3.266125e+00 2.163767e+00 2.479665e+00 1.954349e+00 2.555823e+00 1.980184e-01 3.467431e-01 3.315199e-01 3.301757e-01 4.028105e-01 5.607672e-01 4.583209e-01 4.478124e-01 5.304891e-01 3.825640e-01 4.387091e-01 3.399095e-01 3.781276e-01
<GCONST> 1.229309e+02
<TRANSP> 5
 0.000000e+00 1.000000e+00 0.000000e+00 0.000000e+00 0.000000e+00
 0.000000e+00 6.067249e-01 3.932751e-01 0.000000e+00 0.000000e+00
 0.000000e+00 0.000000e+00 5.757735e-01 4.242264e-01 0.000000e+00
 0.000000e+00 0.000000e+00 0.000000e+00 7.543219e-01 2.456781e-01
 0.000000e+00 0.000000e+00 0.000000e+00 0.000000e+00 0.000000e+00
<ENDHMM>
~h "AH"
<BEGINHMM>
<NUMSTATES> 5
<STATE> 2
<MEAN> 39
 -1.368133e+00 -4.132547e+00 -8.826501e-01 -1.921594e+00 -7.299773e-01 -1.599671e+01 8.672710e+00 5.639725e+00 -8.201666e+00 -1.139084e+01 8.150575e+00 6.708521e+00 6.763909e+01 4.933765e-01 -2.772032e-01 -5.234894e-01 -2.198091e-01 -7.213262e-01 -8.928965e-01 7.516583e-01 4.514334e-01 -2.696961e-01 -1.798025e-01 4.768678e-01 2.101547e-01 4.954012e-01 -2.012161e-01 2.409700e-01 2.186035e-01 1.799337e-01 2.508985e-01 5.493636e-01 -2.155125e-01 -2.206470e-01 1.833979e-01 1.867106e-01 -3.497569e-01 -2.106558e-01 -4.608910e-01
<VARIANCE> 39
 3.464422e+01 2.837625e+01 2.834468e+01 3.309562e+01 6.343243e+01 1.118093e+02 8.289116e+01 8.137410e+01 6.684108e+01 7.039428e+01 3.720876e+01 2.786681e+01 7.754188e+01 2.399496e+00 2.963449e+00 2.478386e+00 2.258064e+00 3.541230e+00 7.210007e+00 4.784109e+00 4.478568e+00 3.967032e+00 4.111635e+00 3.766307e+00 2.637903e+00 3.971684e+00 4.508146e-01 4.922496e-01 4.644060e-01 4.115301e-01 5.621088e-01 1.213323e+00 7.715179e-01 7.304272e-01 7.232159e-01 7.399172e-01 6.640456e-01 5.025438e-01 6.278616e-01
<GCONST> 1.329969e+02
<STATE> 3
<MEAN> 39
 -8.136660e-01 -3.830188e+00 -1.233624e+00 -2.012700e+00 -1.558229e+00 -1.630356e+01 9.418269e+00 5.974284e+00 -8.299995e+00 -1.149329e+01 8.085389e+00 6.537148e+00 6.749728e+01 1.365821e-01 3.950232e-01 -1.080020e-02 1.092338e-01 -2.280807e-02 1.798187e-01 2.049516e-03 -3.334493e-02 -1.468917e-02 1.653122e-02 -2.284861e-01 -9.988584e-02 -4.471149e-01 -1.824183e-01 2.444989e-01 2.346502e-01 1.483578e-01 2.909354e-01 4.939692e-01 -3.062100e-01 -1.656565e-01 1.750050e-01 1.464606e-01 -3.082976e-01 -1.372388e-01 -4.323870e-01
<VARIANCE> 39
 2.946715e+01 3.050175e+01 2.784806e+01 3.177094e+01 6.463792e+01 9.791357e+01 7.970195e+01 7.663069e+01 6.064804e+01 6.558013e+01 3.589478e+01 2.698582e+01 7.869157e+01 1.977659e+00 2.588789e+00 2.193538e+00 2.010562e+00 3.550709e+00 6.236381e+00 4.167681e+00 4.098818e+00 3.599511e+00 3.639702e+00 3.203257e+00 2.197385e+00 4.460413e+00 3.533400e-01 4.687780e-01 4.239344e-01 3.828958e-01 5.333306e-01 1.008452e+00 6.797591e-01 6.865568e-01 6.694164e-01 6.402956e-01 6.262598e-01 4.531288e-01 6.038125e-01
<GCONST> 1.297259e+02
<STATE> 4
<MEAN> 39
 -1.751779e+00 -1.938817e+00 -8.994586e-01 -1.465000e+00 -1.183035e+00 -1.358310e+01 8.588962e+00 5.908656e+00 -7.385208e+00 -1.024790e+01 6.853963e+00 6.312947e+00 6.356225e+01 -2.348054e-01 7.398441e-01 3.911194e-01 3.146293e-01 5.650445e-01 9.893056e-01 -6.449432e-01 -2.566085e-01 3.131954e-01 2.893543e-01 -6.265035e-01 -2.876569e-01 -1.140453e+00 -1.664340e-01 2.898331e-02 1.613035e-01 6.707636e-02 1.706432e-01 2.792473e-01 -1.554924e-01 -8.365727e-02 1.408039e-01 1.348046e-01 -1.347220e-01 -1.042047e-01 -1.567280e-01
<VARIANCE> 39
 3.782172e+01 3.627830e+01 2.906364e+01 3.377636e+01 6.901799e+01 1.137625e+02 7.151340e+01 7.040366e+01 5.703415e+01 7.214510e+01 3.592976e+01 2.851270e+01 1.161758e+02 2.335273e+00 2.573268e+00 2.425700e+00 2.319770e+00 3.675709e+00 5.955299e+00 3.762471e+00 3.841974e+00 3.734501e+00 3.682344e+00 3.089279e+00 2.375983e+00 4.657821e+00 3.656031e-01 4.991321e-01 4.279783e-01 4.099863e-01 5.905739e-01 9.357764e-01 6.312554e-01 6.794003e-01 6.411560e-01 6.110747e-01 5.821584e-01 4.320537e-01 7.769452e-01
<GCONST> 1.312729e+02
<TRANSP> 5
 0.000000e+00 1.000000e+00 0.000000e+00 0.000000e+00 0.000000e+00
 0.000000e+00 5.530934e-01 4.469066e-01 0.000000e+00 0.000000e+00
 0.000000e+00 0.000000e+00 5.434268e-01 4.565732e-01 0.000000e+00
 0.000000e+00 0.000000e+00 0.000000e+00 6.688250e-01 3.311750e-01
 0.000000e+00 0.000000e+00 0.000000e+00 0.000000e+00 0.000000e+00
<ENDHMM>
~h "AX"
<BEGINHMM>
<NUMSTATES> 5
<STATE> 2
<MEAN> 39
 -1.339511e+00 -1.353841e+00 5.524965e+00 -3.589820e+00 6.886273e+00 -8.589716e+00 1.666280e+00 1.502880e+00 -3.597066e+00 -1.826345e+01 1.277333e+00 4.413268e+00 6.754472e+01 2.515190e+00 1.046651e+00 -6.386080e-01 -6.688487e-01 -1.822737e+00 -3.927101e+00 -4.282956e-01 2.560243e+00 -1.248914e-01 -1.819467e+00 3.274743e-01 -1.995734e-01 7.249816e-01 -6.047699e-01 -5.089008e-01 -1.613794e-01 2.350668e-01 4.384214e-02 1.528220e-01 4.817203e-02 -2.658320e-01 1.363880e-01 5.431282e-01 1.947372e-01 -8.042666e-02 -1.307801e-02
<VARIANCE> 39
 3.248423e+01 3.215476e+01 2.612328e+01 2.859931e+01 5.110327e+01 9.308239e+01 6.117316e+01 7.361507e+01 3.780046e+01 4.168643e+01 2.932907e+01 2.925745e+01 1.748108e+01 4.089807e+00 5.373101e+00 1.674647e+00 2.368900e+00 2.093310e+00 6.728698e+00 5.145453e+00 5.242296e+00 3.075605e+00 4.642468e+00 2.163155e+00 3.586938e+00 1.096649e+00 7.602971e-01 8.105666e-01 3.094009e-01 3.450164e-01 3.863077e-01 1.596489e+00 8.760449e-01 1.039480e+00 5.576970e-01 6.801445e-01 4.915484e-01 7.215894e-01 3.356363e-01
<GCONST> 1.279149e+02
<STATE> 3
<MEAN> 39
 1.803405e+00 -1.006174e+00 3.433604e+00 -4.629779e+00 3.306462e+00 -1.533944e+01 2.167608e+00 6.243924e+00 -3.785379e+00 -2.006923e+01 2.842509e+00 4.049459e+00 6.861562e+01 9.353570e-01 2.296394e-01 -6.161085e-01 -1.131213e-01 -1.224778e+00 -2.197515e+00 1.245267e-01 1.263003e+00 -8.970042e-02 -3.045447e-01 4.405675e-01 -2.698313e-01 2.126738e-01 -6.948096e-01 -2.421448e-01 1.255323e-01 2.411044e-01 3.360130e-01 9.524879e-01 1.016437e-01 -7.111291e-01 -5.218151e-02 6.107482e-01 -7.314191e-02 5.761741e-02 -2.840082e-01
<VARIANCE> 39
 1.412444e+01 1.613886e+01 2.563564e+01 2.502332e+01 4.422443e+01 7.035862e+01 5.676074e+01 7.485725e+01 3.616436e+01 2.681976e+01 2.205719e+01 2.891034e+01 1.123436e+01 2.437516e+00 1.896884e+00 1.405558e+00 1.789333e+00 1.737428e+00 7.720162e+00 3.564609e+00 6.225902e+00 2.060235e+00 3.390443e+00 2.351880e+00 2.342740e+00 1.032457e+00 3.754525e-01 6.064779e-01 2.813863e-01 2.982832e-01 3.036596e-01 1.006809e+00 6.323006e-01 8.623280e-01 4.409572e-01 5.101938e-01 5.718459e-01 5.835587e-01 1.894575e-01
<GCONST> 1.175513e+02
<STATE> 4
<MEAN> 39
 2.320211e+00 -8.461227e-01 2.771034e+00 -4.422585e+00 9.336143e-01 -1.742530e+01 3.336166e+00 7.608674e+00 -4.323666e+00 -1.925758e+01 3.615750e+00 3.502220e+00 6.839527e+01 -2.821153e-01 3.851385e-01 9.573409e-02 2.662367e-01 -2.855765e-01 2.202609e-01 2.402288e-02 -4.854599e-01 -2.747309e-01 6.616828e-01 -1.057044e-01 -9.865367e-02 -5.629575e-01 -4.390196e-01 9.587845e-02 2.473689e-01 1.149666e-01 4.290667e-01 8.094883e-01 -1.555382e-01 -5.128460e-01 -2.451111e-03 3.777266e-01 -2.027641e-01 2.457669e-02 -3.090661e-01
<VARIANCE> 39
 1.079622e+01 1.332505e+01 2.727540e+01 2.505276e+01 4.930936e+01 6.189331e+01 6.347026e+01 7.174014e+01 3.432066e+01 2.596409e+01 2.130944e+01 2.224767e+01 1.279040e+01 1.389664e+00 1.338799e+00 1.722362e+00 1.628718e+00 2.584587e+00 5.363880e+00 2.329134e+00 4.848567e+00 1.870873e+00 2.654161e+00 3.047825e+00 1.807532e+00 1.824733e+00 2.522055e-01 3.390811e-01 3.710238e-01 3.370338e-01 3.429182e-01 7.557436e-01 4.931879e-01 6.762295e-01 4.132991e-01 5.068542e-01 6.002016e-01 3.956033e-01 2.972640e-01
<GCONST> 1.145382e+02
<TRANSP> 5
 0.000000e+00 1.000000e+00 0.000000e+00 0.000000e+00 0.000000e+00
 0.000000e+00 5.152956e-01 4.847044e-01 0.000000e+00 0.000000e+00
 0.000000e+00 0.000000e+00 5.085346e-01 4.914655e-01 0.000000e+00
 0.000000e+00 0.000000e+00 0.000000e+00 6.394038e-01 3.605962e-01
 0.000000e+00 0.000000e+00 0.000000e+00 0.000000e+00 0.000000e+00
<ENDHMM>
~h "BH"
<BEGINHMM>
<NUMSTATES> 5
<STATE> 2
<MEAN> 39
 -4.808259e+00 3.754196e+00 5.466381e+00 2.182990e+00 6.000629e+00 -1.334174e+00 5.629676e+00 5.447421e+00 1.075183e+00 -6.875923e+00 3.479319e-01 3.151891e+00 5.736204e+01 -6.243140e-01 -1.939530e-01 2.647089e-01 -6.204386e-01 -9.055353e-02 6.701095e-01 1.365800e+00 3.021704e-01 8.899782e-01 7.926851e-01 1.682585e-02 2.321173e-01 3.708992e-01 1.249571e-01 -1.659500e-01 1.099578e-01 -7.778215e-02 -5.879354e-03 -3.468519e-01 -9.927601e-02 9.959761e-02 -9.797534e-02 -3.029915e-01 7.347018e-02 -3.476024e-03 3.287846e-01
<VARIANCE> 39
 4.874410e+01 3.738557e+01 2.794347e+01 4.168075e+01 5.022026e+01 6.644151e+01 6.594144e+01 5.660346e+01 4.689007e+01 6.550584e+01 2.568729e+01 2.970474e+01 6.597607e+01 4.794238e+00 4.432297e+00 2.672224e+00 4.172976e+00 3.717274e+00 5.644652e+00 4.813341e+00 6.687893e+00 3.598191e+00 6.213022e+00 2.690625e+00 3.046328e+00 5.554090e+00 8.976414e-01 7.407211e-01 5.075167e-01 6.800995e-01 5.725805e-01 8.077633e-01 7.943019e-01 1.274302e+00 5.923353e-01 9.724667e-01 4.944978e-01 5.286106e-01 7.745199e-01
<GCONST> 1.359684e+02
<STATE> 3
<MEAN> 39
 -5.578219e+00 2.847807e+00 6.657569e+00 5.044613e-01 5.659279e+00 -1.159127e+00 8.434182e+00 6.672221e+00 3.013847e+00 -6.297725e+00 4.562786e-01 3.561900e+00 5.953014e+01 -2.235118e-01 -4.057694e-01 4.293613e-01 -7.192889e-01 -1.543545e-01 -1.416475e-01 9.103786e-01 4.461903e-01 5.086571e-01 -1.112749e-01 1.205511e-01 1.950758e-01 9.664319e-01 2.079423e-01 7.800064e-03 4.320879e-03 2.831307e-02 1.742339e-03 -3.521762e-01 -3.405600e-01 -4.565030e-02 -2.407682e-01 -3.671852e-01 4.427160e-02 -5.029976e-02 1.622665e-01
<VARIANCE> 39
 3.531504e+01 3.907926e+01 2.925796e+01 4.440276e+01 5.416372e+01 5.779664e+01 7.649252e+01 6.478812e+01 4.890400e+01 5.301348e+01 2.681035e+01 3.273288e+01 5.704480e+01 4.509323e+00 3.675569e+00 2.875980e+00 3.263295e+00 3.728871e+00 5.845735e+00 5.630159e+00 6.731435e+00 3.867791e+00 6.287947e+00 2.596302e+00 2.928326e+00 3.681899e+00 7.459459e-01 7.490273e-01 6.044822e-01 6.288649e-01 5.861995e-01 8.132110e-01 8.919669e-01 1.295181e+00 6.690359e-01 8.775464e-01 5.133689e-01 5.669327e-01 6.458483e-01
<GCONST> 1.352523e+02
<STATE> 4
<MEAN> 39
 -5.198570e+00 2.049311e+00 8.348887e+00 -1.642488e+00 4.661467e+00 -2.997423e+00 9.857070e+00 8.586801e+00 4.365589e+00 -7.996590e+00 4.799729e-01 3.961832e+00 6.269339e+01 3.057833e-01 -1.593658e-01 1.324363e-01 -5.492299e-01 -2.290095e-01 -9.046701e-01 -1.058613e-01 1.096410e-01 -2.180975e-01 -8.786404e-01 1.917239e-01 7.919450e-02 1.049484e+00 1.698513e-01 7.778554e-02 -1.898910e-01 1.152930e-01 5.319557e-02 -2.123361e-01 -4.157828e-01 -1.862768e-01 -2.603525e-01 -1.521621e-01 4.611107e-02 -4.484403e-02 -4.347854e-02
<VARIANCE> 39
 2.713714e+01 3.599945e+01 3.306525e+01 4.302669e+01 6.294740e+01 6.668398e+01 9.466897e+01 7.294014e+01 5.142253e+01 6.005862e+01 3.154265e+01 3.162489e+01 5.280031e+01 3.338740e+00 3.238584e+00 3.277257e+00 2.804685e+00 3.722048e+00 5.619460e+00 6.658569e+00 5.515286e+00 3.892272e+00 5.328447e+00 2.746389e+00 2.898663e+00 2.516259e+00 5.133960e-01 6.015149e-01 6.347643e-01 5.073827e-01 5.422189e-01 8.995240e-01 9.459849e-01 1.061211e+00 6.548471e-01 8.416983e-01 5.152586e-01 5.590013e-01 4.524217e-01
<GCONST> 1.335281e+02
<TRANSP> 5
 0.000000e+00 1.000000e+00 0.000000e+00 0.000000e+00 0.000000e+00
 0.000000e+00 5.600184e-01 4.399816e-01 0.000000e+00 0.000000e+00
 0.000000e+00 0.000000e+00 5.619701e-01 4.380298e-01 0.000000e+00
 0.000000e+00 0.000000e+00 0.000000e+00 6.951849e-01 3.048151e-01
 0.000000e+00 0.000000e+00 0.000000e+00 0.000000e+00 0.000000e+00
<ENDHMM>
~h "CH"
<BEGINHMM>
<NUMSTATES> 5
<STATE> 2
<MEAN> 39
 -2.053362e+01 -7.898317e+00 1.105655e+01 -2.926630e+00 4.576117e+00 -3.365328e+00 2.672378e+00 -9.900340e+00 -4.118984e+00 6.014729e-01 5.232909e+00 2.600723e+00 6.432365e+01 -2.051224e-02 -1.042661e+00 -5.877602e-02 4.858902e-01 1.336953e-01 -2.207374e-01 -2.732931e-01 -5.471029e-01 -8.526162e-02 6.690722e-01 3.867935e-01 -8.201873e-02 5.873883e-01 5.681950e-01 1.975666e-01 -2.531178e-01 2.268945e-01 1.868674e-01 -1.837809e-01 -2.170708e-02 2.842963e-02 -2.240480e-01 -1.137010e-01 -7.200738e-02 -1.526464e-02 -9.560893e-02
<VARIANCE> 39
 1.073512e+02 6.854547e+01 4.111760e+01 6.275758e+01 4.190758e+01 4.995848e+01 3.144385e+01 4.681895e+01 4.659035e+01 3.959282e+01 2.984826e+01 1.972208e+01 3.996431e+01 1.344372e+01 6.589960e+00 5.541508e+00 4.555120e+00 4.500231e+00 4.435968e+00 3.232066e+00 3.339390e+00 4.301610e+00 2.581851e+00 3.313587e+00 1.704129e+00 4.892173e+00 1.368842e+00 1.080673e+00 9.677043e-01 6.278037e-01 6.743256e-01 6.175710e-01 6.750553e-01 6.476537e-01 5.878680e-01 4.789649e-01 6.053665e-01 3.116376e-01 1.014675e+00
<GCONST> 1.350443e+02
<STATE> 3
<MEAN> 39
 -1.228649e+01 -8.108192e+00 7.218342e+00 3.350847e+00 8.188147e+00 -7.968619e+00 2.363474e-01 -1.146783e+01 -7.945090e+00 2.520823e+00 5.056822e+00 1.583223e+00 6.368995e+01 1.481521e+00 7.628587e-01 -7.106426e-01 5.878286e-01 7.889303e-01 -2.893721e-01 -2.627046e-01 3.610601e-02 -4.570400e-01 2.274820e-02 -2.341482e-01 -1.518266e-01 -6.299077e-01 1.108384e-01 3.268641e-01 5.299233e-02 -8.911106e-02 -2.511811e-03 8.686054e-02 4.358365e-02 2.278910e-01 4.010305e-02 -1.918949e-01 -9.619626e-02 -6.099973e-02 -1.711020e-01
<VARIANCE> 39
 1.100203e+02 5.397600e+01 3.671974e+01 5.349954e+01 3.798373e+01 8.161218e+01 4.027586e+01 5.142497e+01 6.564700e+01 5.158797e+01 3.151825e+01 2.412580e+01 4.616998e+01 6.361174e+00 4.735512e+00 2.589017e+00 2.844078e+00 3.417564e+00 4.693484e+00 2.762922e+00 2.951052e+00 3.980799e+00 2.460634e+00 2.828126e+00 1.691765e+00 2.762815e+00 9.616130e-01 8.441306e-01 5.402662e-01 4.082958e-01 5.625861e-01 6.955928e-01 5.082439e-01 5.668825e-01 6.465989e-01 4.552229e-01 5.668846e-01 3.231436e-01 5.546881e-01
<GCONST> 1.299449e+02
<STATE> 4
<MEAN> 39
 -1.096641e+01 -1.407657e+00 2.528890e+00 4.569074e+00 7.806423e+00 -1.913404e+00 9.223383e-01 -4.213696e+00 -4.741070e+00 2.340086e+00 3.718405e+00 2.272228e+00 5.123034e+01 2.412571e-01 5.988824e-01 -1.605597e-01 1.789981e-02 1.715086e-01 3.712498e-01 1.547836e-01 5.243225e-01 1.979914e-01 -2.031253e-01 -1.168527e-01 -1.020704e-02 -5.921060e-01 -3.538007e-02 -3.444550e-03 4.740600e-02 -2.371449e-02 -5.751079e-02 -3.157493e-02 -6.525090e-03 7.051922e-02 9.278034e-03 -1.026477e-01 -4.685335e-03 -1.603130e-02 6.406469e-02
<VARIANCE> 39
 5.091610e+01 6.485477e+01 3.692827e+01 3.232651e+01 2.924507e+01 8.886550e+01 4.267511e+01 6.918874e+01 5.498280e+01 4.106350e+01 2.800833e+01 2.553540e+01 1.130467e+02 4.219012e+00 3.546025e+00 2.252765e+00 2.050525e+00 2.535233e+00 3.582133e+00 2.717712e+00 2.593690e+00 3.226456e+00 2.336978e+00 2.183132e+00 1.694677e+00 2.441754e+00 4.110647e-01 5.252939e-01 4.221092e-01 3.522047e-01 4.225537e-01 5.576071e-01 4.700907e-01 4.742043e-01 4.751529e-01 4.200256e-01 4.056561e-01 3.087665e-01 3.714868e-01
<GCONST> 1.232916e+02
<TRANSP> 5
 0.000000e+00 1.000000e+00 0.000000e+00 0.000000e+00 0.000000e+00
 0.000000e+00 8.676962e-01 1.323037e-01 0.000000e+00 0.000000e+00
 0.000000e+00 0.000000e+00 6.947559e-01 3.052441e-01 0.000000e+00
 0.000000e+00 0.000000e+00 0.000000e+00 8.580673e-01 1.419327e-01
 0.000000e+00 0.000000e+00 0.000000e+00 0.000000e+00 0.000000e+00
<ENDHMM>
~h "DH"
<BEGINHMM>
<NUMSTATES> 5
<STATE> 2
<MEAN> 39
 -6.125687e+00 2.868203e+00 7.364327e+00 1.753580e+00 3.730586e+00 -2.208950e+00 6.210185e+00 1.921152e+00 -2.617781e+00 -7.884857e+00 2.488431e-01 2.559741e+00 5.880127e+01 -1.076735e+00 -5.962087e-01 -2.904636e-02 -7.385959e-01 5.085634e-01 1.144389e+00 7.295609e-01 -8.257803e-01 3.114049e-01 1.103723e+00 1.812259e-01 5.283435e-01 5.483755e-01 5.540677e-02 -2.100079e-01 4.658787e-02 -1.623344e-01 1.170961e-01 -2.100302e-01 -9.818969e-02 1.248789e-02 -4.400886e-02 -2.307441e-01 1.233396e-01 5.774378e-02 3.754860e-01
<VARIANCE> 39
 5.750493e+01 5.469501e+01 2.816645e+01 4.436947e+01 5.465175e+01 6.713478e+01 5.650455e+01 8.219810e+01 3.700235e+01 8.826223e+01 3.379833e+01 3.245962e+01 8.378188e+01 5.774662e+00 7.678343e+00 2.751308e+00 5.470281e+00 3.884570e+00 4.958502e+00 5.053206e+00 8.728451e+00 3.482472e+00 8.124500e+00 3.592167e+00 3.248385e+00 1.303322e+01 1.217095e+00 1.540489e+00 5.345595e-01 9.741856e-01 6.666963e-01 7.728730e-01 8.737917e-01 1.771083e+00 6.206181e-01 1.258600e+00 6.683603e-01 6.335463e-01 2.329952e+00
<GCONST> 1.441368e+02
<STATE> 3
<MEAN> 39
 -8.449909e+00 6.826119e-01 7.395079e+00 -5.072998e-01 5.263141e+00 -2.283749e-01 7.573950e+00 2.515421e-03 -2.091952e+00 -6.252343e+00 1.036824e+00 3.965041e+00 6.135112e+01 -5.941833e-01 -7.241877e-01 2.501121e-01 -9.435961e-01 7.134032e-01 5.043542e-01 3.870495e-01 -4.452137e-01 2.079152e-01 9.036902e-02 2.993466e-01 5.064366e-01 1.200365e+00 3.528486e-01 1.523313e-01 1.182371e-01 7.856069e-02 7.889850e-03 -3.704785e-01 -2.180580e-01 2.810370e-01 -5.947549e-02 -4.550695e-01 -1.428205e-02 -1.263447e-01 5.026190e-02
<VARIANCE> 39
 4.905787e+01 4.943983e+01 2.704486e+01 4.171497e+01 4.907148e+01 5.101838e+01 5.751626e+01 7.630000e+01 3.265613e+01 7.050046e+01 3.238229e+01 3.063869e+01 6.848837e+01 7.289105e+00 7.023368e+00 3.114778e+00 4.466135e+00 4.363522e+00 5.868866e+00 5.318969e+00 1.068573e+01 3.611877e+00 9.660412e+00 3.745245e+00 3.354841e+00 9.041814e+00 1.225600e+00 1.479664e+00 6.007194e-01 9.482943e-01 7.432234e-01 8.423942e-01 8.944225e-01 1.888863e+00 6.351685e-01 1.235611e+00 7.198232e-01 6.642928e-01 2.060034e+00
<GCONST> 1.435475e+02
<STATE> 4
<MEAN> 39
 -8.376515e+00 -1.736583e-01 8.611237e+00 -2.587787e+00 6.762152e+00 -1.254818e-01 7.972698e+00 6.604531e-01 -1.408215e+00 -7.893778e+00 1.383903e+00 4.822340e+00 6.399310e+01 4.599837e-01 8.596370e-02 4.472620e-01 -4.389983e-01 3.973459e-01 -5.136411e-01 -2.435949e-01 4.552135e-01 1.079056e-01 -9.025600e-01 9.150319e-02 8.314920e-03 7.720493e-01 3.236428e-01 2.554714e-01 -5.127204e-02 2.372630e-01 -1.476450e-01 -3.610391e-01 -2.728716e-01 1.982650e-01 -7.669738e-02 -2.109172e-01 -7.252791e-02 -1.978947e-01 -2.122225e-01
<VARIANCE> 39
 3.729212e+01 3.588187e+01 2.918716e+01 3.168099e+01 4.889093e+01 5.434958e+01 7.027271e+01 7.778636e+01 3.606419e+01 8.227876e+01 3.444213e+01 2.595751e+01 4.608885e+01 5.477883e+00 5.457641e+00 3.185400e+00 3.586336e+00 4.933041e+00 6.273356e+00 5.603806e+00 8.360755e+00 3.525208e+00 7.875761e+00 3.613889e+00 3.012429e+00 5.212722e+00 9.035372e-01 9.981142e-01 6.641630e-01 6.902528e-01 7.087964e-01 9.415569e-01 8.753123e-01 1.519249e+00 6.234325e-01 1.291748e+00 6.671449e-01 5.638167e-01 1.128770e+00
<GCONST> 1.392180e+02
<TRANSP> 5
 0.000000e+00 1.000000e+00 0.000000e+00 0.000000e+00 0.000000e+00
 0.000000e+00 5.535556e-01 4.464443e-01 0.000000e+00 0.000000e+00
 0.000000e+00 0.000000e+00 5.475139e-01 4.524861e-01 0.000000e+00
 0.000000e+00 0.000000e+00 0.000000e+00 6.310627e-01 3.689373e-01
 0.000000e+00 0.000000e+00 0.000000e+00 0.000000e+00 0.000000e+00
<ENDHMM>
~h "DX"
<BEGINHMM>
<NUMSTATES> 5
<STATE> 2
<MEAN> 39
 -2.081883e-01 3.009020e+00 2.067901e+00 2.472416e+00 1.319786e+01 -3.323479e+00 -3.034759e+00 1.269440e+00 -8.849182e+00 -1.067158e+01 2.717250e+00 2.490328e+00 5.927232e+01 -5.741721e-02 3.789591e-01 -3.886162e-02 3.647628e-01 -6.713336e-03 5.031534e-01 4.085787e-01 -8.144495e-02 -2.851451e-01 1.986858e-01 7.854933e-02 2.942923e-01 -4.399846e-01 -1.184158e-01 -1.943145e-01 2.555482e-02 2.762640e-02 -2.187905e-01 -3.324291e-01 1.322395e-01 -2.655683e-02 1.022461e-01 -1.802818e-02 5.194878e-02 3.378047e-02 2.396168e-01
<VARIANCE> 39
 3.953659e+01 4.335418e+01 4.205669e+01 1.023253e+02 5.226291e+01 9.954183e+01 7.130260e+01 4.774786e+01 8.932245e+01 1.041933e+02 6.494389e+01 3.517139e+01 9.502120e+01 2.181253e+00 4.368573e+00 2.547507e+00 4.162232e+00 4.225945e+00 9.621737e+00 5.847654e+00 3.633654e+00 6.627090e+00 5.946326e+00 4.724439e+00 2.757496e+00 6.960053e+00 3.800647e-01 7.626508e-01 4.538939e-01 8.196003e-01 7.171536e-01 1.498883e+00 1.125619e+00 6.893196e-01 1.196938e+00 1.140679e+00 8.477414e-01 5.362248e-01 1.196443e+00
<GCONST> 1.424591e+02
<STATE> 3
<MEAN> 39
 -5.975190e-01 3.596468e+00 2.265943e+00 3.686779e+00 1.283952e+01 -2.764192e+00 -1.985573e+00 8.817225e-01 -8.919565e+00 -9.968734e+00 2.689933e+00 2.887353e+00 5.859113e+01 -3.349862e-01 -2.081675e-01 6.078504e-02 3.402227e-01 -4.310556e-01 -3.775619e-01 5.036736e-01 -1.434218e-01 -3.661833e-02 1.018478e-01 1.980659e-01 3.038968e-01 2.429134e-01 -1.039356e-01 -3.465728e-01 6.380124e-02 -1.231271e-01 -1.553824e-01 -4.579674e-01 2.565709e-03 -2.432335e-02 4.277740e-02 -1.123752e-01 9.101465e-02 -1.891968e-02 4.086174e-01
<VARIANCE> 39
 3.596413e+01 4.818038e+01 3.931010e+01 8.761451e+01 4.954841e+01 9.540303e+01 6.549284e+01 4.319025e+01 7.466911e+01 9.742968e+01 5.873201e+01 3.470516e+01 9.214477e+01 2.491323e+00 5.540071e+00 2.931591e+00 5.008619e+00 4.164937e+00 1.035041e+01 6.072402e+00 3.545728e+00 6.378119e+00 6.401726e+00 5.277450e+00 3.238314e+00 8.698592e+00 4.512694e-01 9.489561e-01 5.415710e-01 8.322090e-01 7.831424e-01 1.659098e+00 1.179450e+00 7.172721e-01 1.157298e+00 1.198066e+00 9.473345e-01 6.075336e-01 1.441380e+00
<GCONST> 1.441685e+02
<STATE> 4
<MEAN> 39
 -1.979934e+00 2.662633e+00 2.833102e+00 4.478137e+00 1.172817e+01 -4.107349e+00 -1.064520e+00 5.188335e-01 -8.517285e+00 -9.421523e+00 3.328755e+00 3.307336e+00 5.932533e+01 -4.226970e-01 -1.030339e+00 1.384850e-01 -1.554372e-01 -6.237873e-01 -1.367583e+00 3.899035e-01 -8.846757e-02 -9.549394e-02 -2.546341e-01 5.180825e-01 2.931336e-01 1.250991e+00 2.700100e-02 -2.067104e-01 4.705193e-02 -1.814857e-01 -6.547395e-02 -2.252804e-01 -2.242274e-02 3.729672e-02 1.855297e-02 -8.784091e-02 5.075309e-02 -8.316706e-02 2.366331e-01
<VARIANCE> 39
 3.625487e+01 5.685012e+01 3.679537e+01 6.375082e+01 5.059436e+01 1.066909e+02 6.441795e+01 4.223189e+01 6.717142e+01 9.254298e+01 5.658337e+01 3.770950e+01 1.117258e+02 2.805351e+00 6.090857e+00 3.675437e+00 4.784079e+00 4.476786e+00 1.005594e+01 5.780762e+00 3.927989e+00 5.491389e+00 6.493755e+00 5.791451e+00 4.038058e+00 9.337421e+00 5.335057e-01 1.120501e+00 5.932804e-01 7.355767e-01 8.018493e-01 1.704836e+00 1.166694e+00 7.159342e-01 1.049877e+00 1.189447e+00 1.019361e+00 6.869699e-01 1.634361e+00
<GCONST> 1.454288e+02
<TRANSP> 5
 0.000000e+00 1.000000e+00 0.000000e+00 0.000000e+00 0.000000e+00
 0.000000e+00 4.727206e-01 5.272794e-01 0.000000e+00 0.000000e+00
 0.000000e+00 0.000000e+00 4.766110e-01 5.233890e-01 0.000000e+00
 0.000000e+00 0.000000e+00 0.000000e+00 5.895966e-01 4.104033e-01
 0.000000e+00 0.000000e+00 0.000000e+00 0.000000e+00 0.000000e+00
<ENDHMM>
~h "EH"
<BEGINHMM>
<NUMSTATES> 5
<STATE> 2
<MEAN> 39
 -4.988267e+00 -3.904953e+00 -1.087927e+00 2.790374e+00 7.203054e+00 -1.154950e+01 2.272630e-01 -2.785508e+00 -1.089330e+01 -2.843499e+00 1.083162e+01 4.057931e+00 6.200997e+01 1.821133e-01 -7.238810e-01 -7.766672e-01 -8.871569e-02 -2.900582e-01 -9.793537e-01 3.787231e-01 -2.699500e-01 -3.041285e-01 7.374294e-01 1.349821e+00 2.578044e-01 8.841053e-01 -2.429835e-02 2.179292e-01 1.139866e-01 6.647714e-02 -2.184031e-02 2.891181e-01 6.808936e-02 8.376624e-02 2.455444e-01 -1.297130e-03 -2.988336e-01 -1.584453e-01 -2.485440e-01
<VARIANCE> 39
 4.428564e+01 4.351178e+01 2.694391e+01 3.123880e+01 3.694383e+01 1.319374e+02 4.637732e+01 5.437981e+01 9.019784e+01 7.652907e+01 6.045913e+01 2.682278e+01 1.670049e+02 1.961320e+00 3.653287e+00 2.340621e+00 2.136175e+00 2.580046e+00 7.260798e+00 3.332440e+00 2.945695e+00 4.810049e+00 3.859549e+00 6.006406e+00 2.653305e+00 6.535863e+00 3.659887e-01 5.485247e-01 4.059959e-01 3.703314e-01 4.619808e-01 1.138635e+00 6.125007e-01 5.396611e-01 8.430737e-01 6.917300e-01 9.388594e-01 4.682764e-01 9.969271e-01
<GCONST> 1.333960e+02
<STATE> 3
<MEAN> 39
 -4.273355e+00 -4.582446e+00 -2.485120e+00 3.148047e+00 6.626810e+00 -1.352227e+01 1.379436e+00 -3.757171e+00 -1.085393e+01 -1.068913e+00 1.312349e+01 3.727803e+00 6.414994e+01 7.645576e-02 1.373521e-01 -2.866032e-01 6.261005e-02 -1.837055e-01 -1.184247e-01 3.479373e-01 -1.307596e-01 2.216391e-01 3.156901e-01 1.996106e-01 -7.195280e-02 2.558856e-02 -7.897404e-02 2.663515e-01 1.962311e-01 3.332235e-02 2.979676e-02 3.475690e-01 -5.245782e-02 9.635054e-02 1.956670e-01 -1.511841e-01 -4.305613e-01 -8.655574e-02 -3.655749e-01
<VARIANCE> 39
 4.133909e+01 4.074600e+01 2.668316e+01 2.835993e+01 3.931805e+01 1.193228e+02 4.110192e+01 5.521286e+01 8.264742e+01 6.815528e+01 5.726138e+01 2.713549e+01 1.577360e+02 2.077177e+00 3.566787e+00 2.279611e+00 2.030098e+00 2.802131e+00 6.099328e+00 3.075228e+00 2.944686e+00 4.147632e+00 3.625063e+00 5.125289e+00 2.300162e+00 7.455201e+00 3.586347e-01 5.551523e-01 4.155235e-01 3.772907e-01 5.196484e-01 9.830498e-01 5.725605e-01 5.271385e-01 7.795859e-01 6.219934e-01 8.838205e-01 4.686135e-01 9.717267e-01
<GCONST> 1.317546e+02
<STATE> 4
<MEAN> 39
 -5.245385e+00 -2.436448e+00 -2.623991e+00 3.894830e+00 6.335435e+00 -1.171982e+01 1.812567e+00 -3.793774e+00 -8.394282e+00 3.134573e-01 1.207671e+01 3.160116e+00 6.138593e+01 -1.150966e-01 5.713472e-01 1.491724e-01 -5.502137e-02 -8.655302e-02 4.358861e-01 9.779209e-03 8.150864e-02 3.834864e-01 -1.555079e-01 -5.723089e-01 -7.235014e-02 -6.401591e-01 -8.926950e-02 3.405732e-02 1.370256e-01 -4.705307e-02 -1.347407e-02 1.988284e-01 -2.123548e-02 9.793182e-02 9.065850e-02 -7.769970e-02 -2.068254e-01 -2.966137e-02 -1.281813e-01
<VARIANCE> 39
 4.614686e+01 4.281091e+01 3.020215e+01 3.075670e+01 4.174799e+01 1.175966e+02 3.910715e+01 5.511945e+01 7.072475e+01 6.235718e+01 5.545490e+01 2.926414e+01 1.677870e+02 2.978808e+00 3.495627e+00 2.625261e+00 2.443562e+00 3.362441e+00 6.522057e+00 3.075626e+00 3.257253e+00 4.314461e+00 3.504747e+00 4.642606e+00 2.318126e+00 9.009395e+00 4.814361e-01 6.010773e-01 4.946699e-01 4.371058e-01 6.587930e-01 9.070284e-01 6.151103e-01 5.636596e-01 7.225526e-01 6.201977e-01 7.614791e-01 4.603779e-01 1.255921e+00
<GCONST> 1.340965e+02
<TRANSP> 5
 0.000000e+00 1.000000e+00 0.000000e+00 0.000000e+00 0.000000e+00
 0.000000e+00 6.841490e-01 3.158509e-01 0.000000e+00 0.000000e+00
 0.000000e+00 0.000000e+00 6.816157e-01 3.183843e-01 0.000000e+00
 0.000000e+00 0.000000e+00 0.000000e+00 8.285280e-01 1.714720e-01
 0.000000e+00 0.000000e+00 0.000000e+00 0.000000e+00 0.000000e+00
<ENDHMM>
~h "EX"
<BEGINHMM>
<NUMSTATES> 5
<STATE> 2
<MEAN> 39
 -6.990335e+00 -1.296390e+00 8.686039e+00 1.086804e+01 1.454607e+01 -6.216983e+00 -4.487863e+00 -4.537965e+00 -6.625094e+00 -3.543927e+00 4.363798e+00 -2.295270e+00 6.239620e+01 -2.477635e-01 -8.627750e-01 1.133158e-01 -2.793749e-01 5.574523e-01 -5.822937e-01 -3.464275e-01 -6.817870e-01 -5.868658e-01 -3.980498e-01 2.184265e-01 -1.842787e-01 1.460684e+00 7.196350e-03 -4.369371e-03 4.769660e-02 -2.108795e-02 -1.203715e-01 7.773499e-03 -1.173790e-02 2.908332e-02 8.056698e-02 -6.098412e-02 8.887701e-03 8.683766e-02 -5.306796e-02
<VARIANCE> 39
 4.408038e+01 5.201738e+01 3.928413e+01 6.111291e+01 3.608025e+01 6.877180e+01 7.383721e+01 4.229959e+01 6.894863e+01 5.267518e+01 3.756616e+01 2.289384e+01 8.334504e+01 5.967549e+00 5.476996e+00 4.023602e+00 5.643651e+00 4.610954e+00 6.761897e+00 1.098554e+01 3.616807e+00 5.613125e+00 5.255067e+00 4.341208e+00 2.466547e+00 8.650686e+00 1.314798e+00 9.629130e-01 7.369305e-01 9.946044e-01 7.945885e-01 1.203994e+00 2.127533e+00 6.345913e-01 1.066368e+00 9.622269e-01 7.993694e-01 4.465253e-01 1.509712e+00
<GCONST> 1.436720e+02
<STATE> 3
<MEAN> 39
