~o
<STREAMINFO> 1 39
<VECSIZE> 39<NULLD><MFCC_D_A_0><DIAGC>
~h "A"
<BEGINHMM>
<NUMSTATES> 5
<STATE> 2
<MEAN> 39
 -5.393061e+00 -8.130414e-01 4.225391e+00 1.244660e+00 4.291618e+00 -8.014654e+00 2.649770e+00 2.489001e+00 -3.901865e+00 -9.005487e+00 2.298481e+00 2.925963e+00 6.046559e+01 9.936574e-03 2.120424e-02 1.317144e-02 -1.003115e-02 -2.733112e-02 -3.172620e-02 1.773176e-02 1.892669e-02 9.395044e-03 -5.891072e-03 -1.154958e-02 -9.144006e-03 9.938177e-03 -1.596059e-04 -4.310487e-04 2.763146e-04 -6.319063e-04 8.458007e-04 9.975712e-04 -3.908668e-04 -5.374773e-05 -9.963159e-05 -4.726610e-04 8.021840e-04 -2.227116e-04 1.313161e-03
<VARIANCE> 39
 7.573717e+01 6.784394e+01 4.493873e+01 5.557222e+01 8.989375e+01 1.439763e+02 7.672254e+01 8.709772e+01 7.359843e+01 8.795887e+01 4.450323e+01 3.701494e+01 1.135465e+02 4.349276e+00 4.218298e+00 2.830729e+00 3.348595e+00 4.285027e+00 8.708552e+00 4.909962e+00 4.872405e+00 4.535281e+00 5.173733e+00 3.255156e+00 2.688188e+00 5.672466e+00 6.545859e-01 6.741170e-01 5.058649e-01 5.963458e-01 6.766642e-01 1.427928e+00 8.884948e-01 8.471527e-01 7.833401e-01 8.894788e-01 6.032588e-01 4.986095e-01 9.081570e-01
<GCONST> 1.422538e+02
<STATE> 3
<MEAN> 39
 -5.363841e+00 -7.631484e-01 4.255977e+00 1.216676e+00 4.225876e+00 -8.098272e+00 2.689387e+00 2.535267e+00 -3.882807e+00 -9.023368e+00 2.272612e+00 2.903317e+00 6.049837e+01 1.018810e-02 2.013780e-02 1.268328e-02 -1.123202e-02 -2.434164e-02 -2.872804e-02 1.571965e-02 1.867222e-02 8.063001e-03 -6.899978e-03 -8.874142e-03 -9.399766e-03 1.235905e-02 3.565585e-04 -6.872272e-04 -4.484188e-04 -4.942581e-04 1.217033e-03 9.077148e-04 -7.635613e-04 -6.616583e-05 -8.801867e-04 -6.941694e-04 1.173390e-03 5.673200e-05 1.322639e-03
<VARIANCE> 39
 7.607921e+01 6.796265e+01 4.464617e+01 5.584679e+01 8.998017e+01 1.443636e+02 7.634335e+01 8.755730e+01 7.399458e+01 8.804631e+01 4.439017e+01 3.702621e+01 1.130361e+02 4.380265e+00 4.235934e+00 2.842603e+00 3.355236e+00 4.293366e+00 8.796000e+00 4.900043e+00 4.904136e+00 4.549814e+00 5.191080e+00 3.270290e+00 2.700717e+00 5.701910e+00 6.585633e-01 6.771639e-01 5.082434e-01 5.972270e-01 6.787316e-01 1.438957e+00 8.873560e-01 8.527181e-01 7.856530e-01 8.919036e-01 6.059740e-01 5.010769e-01 9.112299e-01
<GCONST> 1.423681e+02
<STATE> 4
<MEAN> 39
 -5.330939e+00 -6.831254e-01 4.306888e+00 1.188532e+00 4.161551e+00 -8.159170e+00 2.695194e+00 2.655532e+00 -3.799272e+00 -9.040822e+00 2.245645e+00 2.873888e+00 6.050160e+01 1.107589e-02 1.830847e-02 9.707564e-03 -1.139958e-02 -1.857959e-02 -2.385311e-02 1.154605e-02 1.693667e-02 3.506625e-03 -7.054333e-03 -4.718386e-03 -9.027545e-03 1.293793e-02 2.786148e-04 -8.815178e-04 -1.069030e-03 4.529381e-05 2.020740e-03 1.666290e-03 -1.207900e-03 -5.754265e-04 -1.798461e-03 -2.140208e-04 1.471568e-03 2.311121e-04 3.814089e-04
<VARIANCE> 39
 7.653229e+01 6.804203e+01 4.448073e+01 5.621199e+01 9.025174e+01 1.450559e+02 7.627338e+01 8.801554e+01 7.424291e+01 8.811211e+01 4.430190e+01 3.700034e+01 1.132678e+02 4.390827e+00 4.239561e+00 2.851260e+00 3.354818e+00 4.297651e+00 8.865928e+00 4.877062e+00 4.924287e+00 4.538461e+00 5.191216e+00 3.281429e+00 2.706321e+00 5.715896e+00 6.584414e-01 6.776464e-01 5.099272e-01 5.961581e-01 6.797897e-01 1.444547e+00 8.831854e-01 8.565704e-01 7.839409e-01 8.912256e-01 6.071677e-01 5.022677e-01 9.113123e-01
<GCONST> 1.424223e+02
<TRANSP> 5
 0.000000e+00 1.000000e+00 0.000000e+00 0.000000e+00 0.000000e+00
 0.000000e+00 5.951416e-01 4.048583e-01 0.000000e+00 0.000000e+00
 0.000000e+00 0.000000e+00 5.951475e-01 4.048525e-01 0.000000e+00
 0.000000e+00 0.000000e+00 0.000000e+00 6.968181e-01 3.031819e-01
 0.000000e+00 0.000000e+00 0.000000e+00 0.000000e+00 0.000000e+00
<ENDHMM>
~h "B"
<BEGINHMM>
<NUMSTATES> 5
<STATE> 2
<MEAN> 39
 -4.930898e+00 -9.754580e-02 4.505814e+00 3.047358e+00 5.565609e+00 -7.701220e+00 1.747813e+00 2.163028e+00 -4.647967e+00 -8.892529e+00 2.102513e+00 2.466594e+00 5.971315e+01 1.128062e-02 2.310863e-02 8.210313e-03 -3.663656e-04 -1.263373e-02 -7.976650e-03 -2.538513e-03 1.723823e-02 1.841851e-02 -2.017910e-02 -1.752420e-02 1.206310e-04 1.017443e-03 -2.271060e-03 1.025911e-03 -9.729435e-04 -1.003587e-03 3.135327e-04 5.676601e-03 2.049758e-03 -3.939567e-06 1.717103e-03 2.116355e-03 7.374714e-04 1.329339e-04 -3.341722e-03
<VARIANCE> 39
 7.370882e+01 6.495029e+01 4.634904e+01 5.819788e+01 8.850954e+01 1.379669e+02 7.575914e+01 8.587905e+01 7.389307e+01 9.042154e+01 4.892282e+01 3.470704e+01 1.191148e+02 3.696422e+00 4.027555e+00 2.735680e+00 3.305335e+00 4.100968e+00 8.275894e+00 4.734404e+00 4.491783e+00 4.362949e+00 5.368768e+00 3.333087e+00 2.464538e+00 6.098260e+00 5.532030e-01 6.300229e-01 4.777609e-01 5.755923e-01 6.578718e-01 1.375083e+00 8.546981e-01 7.825146e-01 7.589859e-01 9.377850e-01 6.067932e-01 4.540215e-01 9.628931e-01
<GCONST> 1.413033e+02
<STATE> 3
<MEAN> 39
 -4.906876e+00 -3.439916e-02 4.523925e+00 3.046758e+00 5.536706e+00 -7.708649e+00 1.746352e+00 2.202220e+00 -4.599069e+00 -8.932543e+00 2.060993e+00 2.465005e+00 5.970581e+01 4.960747e-03 2.474512e-02 5.988544e-03 -3.071656e-03 -1.118340e-02 6.140844e-03 2.320675e-03 1.547599e-02 2.238615e-02 -1.393162e-02 -1.474097e-02 6.750537e-04 -6.467306e-03 -2.287656e-03 4.183241e-04 -8.684171e-04 -8.813077e-04 7.987951e-04 5.080147e-03 1.861995e-03 -1.051128e-03 1.103361e-03 2.561968e-03 1.178108e-03 1.373719e-04 -2.605528e-03
<VARIANCE> 39
 7.383806e+01 6.488940e+01 4.631463e+01 5.819960e+01 8.874009e+01 1.379779e+02 7.599993e+01 8.608081e+01 7.360828e+01 9.055042e+01 4.917214e+01 3.467977e+01 1.193680e+02 3.715820e+00 4.029620e+00 2.738390e+00 3.310704e+00 4.108298e+00 8.260447e+00 4.747915e+00 4.490612e+00 4.344221e+00 5.378161e+00 3.345170e+00 2.467140e+00 6.078509e+00 5.557622e-01 6.302997e-01 4.778963e-01 5.760981e-01 6.590191e-01 1.369856e+00 8.569923e-01 7.826733e-01 7.548197e-01 9.397662e-01 6.082407e-01 4.540697e-01 9.603022e-01
<GCONST> 1.413287e+02
<STATE> 4
<MEAN> 39
 -4.899359e+00 7.646325e-02 4.569902e+00 3.051193e+00 5.517501e+00 -7.651121e+00 1.722368e+00 2.305292e+00 -4.458254e+00 -8.950565e+00 2.008591e+00 2.454115e+00 5.963682e+01 -2.798066e-03 2.309886e-02 3.971715e-03 -6.245730e-03 -7.035856e-03 1.886028e-02 6.459100e-03 9.587727e-03 2.371881e-02 -6.112477e-03 -1.084060e-02 1.473189e-03 -1.135742e-02 -2.468510e-03 -1.031024e-03 -7.159839e-04 -1.085377e-03 1.458948e-03 3.686266e-03 1.292385e-03 -2.072800e-03 -2.203268e-05 2.479177e-03 1.365713e-03 3.036523e-04 -1.191789e-03
<VARIANCE> 39
 7.385656e+01 6.485979e+01 4.640996e+01 5.831128e+01 8.913690e+01 1.383304e+02 7.679177e+01 8.610921e+01 7.318954e+01 9.063457e+01 4.943062e+01 3.468813e+01 1.206741e+02 3.720415e+00 4.032702e+00 2.739573e+00 3.313500e+00 4.112573e+00 8.217297e+00 4.765321e+00 4.477133e+00 4.305120e+00 5.366879e+00 3.345172e+00 2.467044e+00 6.048583e+00 5.564025e-01 6.305654e-01 4.776242e-01 5.761523e-01 6.589196e-01 1.357337e+00 8.579322e-01 7.809395e-01 7.469259e-01 9.366873e-01 6.068594e-01 4.531629e-01 9.545903e-01
<GCONST> 1.413120e+02
<TRANSP> 5
 0.000000e+00 1.000000e+00 0.000000e+00 0.000000e+00 0.000000e+00
 0.000000e+00 5.946780e-01 4.053220e-01 0.000000e+00 0.000000e+00
 0.000000e+00 0.000000e+00 5.946767e-01 4.053233e-01 0.000000e+00
 0.000000e+00 0.000000e+00 0.000000e+00 6.964434e-01 3.035566e-01
 0.000000e+00 0.000000e+00 0.000000e+00 0.000000e+00 0.000000e+00
<ENDHMM>
~h "C"
<BEGINHMM>
<NUMSTATES> 5
<STATE> 2
<MEAN> 39
 -7.771748e+00 -2.430243e+00 5.706457e+00 2.193530e+00 6.261343e+00 -6.719527e+00 1.861971e+00 -1.375691e+00 -5.515223e+00 -7.229644e+00 3.047487e+00 2.275310e+00 6.085086e+01 5.857316e-03 -7.880194e-03 -7.305054e-03 2.919319e-02 1.096801e-02 -2.335650e-02 2.339758e-03 -3.030242e-02 -2.381176e-02 3.506776e-02 -2.701083e-04 -1.721723e-02 -7.304940e-03 1.408611e-03 6.303006e-03 -3.966906e-03 -1.812350e-03 -7.774904e-04 3.144946e-03 8.158195e-04 6.435549e-03 2.057419e-03 -2.085587e-03 -6.562005e-04 4.510336e-04 -6.825956e-03
<VARIANCE> 39
 9.539307e+01 6.871168e+01 5.501126e+01 5.465839e+01 7.816370e+01 1.119459e+02 7.626884e+01 8.332615e+01 7.440414e+01 8.978993e+01 4.442799e+01 3.516537e+01 1.062584e+02 6.663507e+00 4.899335e+00 3.634791e+00 3.314055e+00 4.298928e+00 7.135566e+00 5.042408e+00 4.449694e+00 5.175019e+00 5.077470e+00 3.491523e+00 2.550990e+00 5.792744e+00 1.051243e+00 8.210828e-01 6.568596e-01 5.875556e-01 7.215088e-01 1.215076e+00 9.175521e-01 8.096343e-01 9.312291e-01 8.756697e-01 6.452250e-01 4.729130e-01 9.753194e-01
<GCONST> 1.439111e+02
<STATE> 3
<MEAN> 39
 -7.751530e+00 -2.440751e+00 5.678349e+00 2.256091e+00 6.284728e+00 -6.776528e+00 1.869815e+00 -1.438684e+00 -5.574337e+00 -7.153810e+00 3.046339e+00 2.235117e+00 6.082932e+01 1.034134e-02 6.800129e-03 -1.829757e-02 2.479395e-02 8.495863e-03 -1.660823e-02 3.900026e-03 -1.409492e-02 -1.923671e-02 2.847938e-02 -1.055129e-03 -1.524212e-02 -2.251308e-02 1.261616e-03 5.475790e-03 -4.492770e-03 -2.140824e-03 -1.370390e-03 2.849307e-03 9.302185e-04 7.031332e-03 2.379308e-03 -3.014388e-03 1.084134e-05 1.281839e-03 -5.791947e-03
<VARIANCE> 39
 9.516746e+01 6.865395e+01 5.488215e+01 5.480833e+01 7.777879e+01 1.119256e+02 7.621416e+01 8.314030e+01 7.476984e+01 8.972149e+01 4.440856e+01 3.532964e+01 1.058302e+02 6.684747e+00 4.903420e+00 3.617826e+00 3.329759e+00 4.282206e+00 7.140926e+00 5.023135e+00 4.449946e+00 5.194324e+00 5.059752e+00 3.489166e+00 2.557225e+00 5.783644e+00 1.057789e+00 8.202582e-01 6.533562e-01 5.915341e-01 7.192194e-01 1.214949e+00 9.125519e-01 8.092497e-01 9.340501e-01 8.717127e-01 6.445882e-01 4.734957e-01 9.733294e-01
<GCONST> 1.438962e+02
<STATE> 4
<MEAN> 39
 -7.736446e+00 -2.405684e+00 5.616641e+00 2.305722e+00 6.300860e+00 -6.780904e+00 1.861335e+00 -1.362209e+00 -5.540367e+00 -7.092282e+00 3.053412e+00 2.204153e+00 6.071672e+01 1.741980e-02 1.995198e-02 -3.260740e-02 1.919311e-02 4.332453e-03 -1.224538e-02 5.782932e-03 4.830893e-03 -1.462359e-02 1.720015e-02 -5.587999e-04 -1.061992e-02 -3.345949e-02 1.543230e-03 4.360368e-03 -4.717248e-03 -2.117516e-03 -1.605307e-03 2.195543e-03 1.017055e-03 7.026686e-03 2.358400e-03 -3.690550e-03 3.169283e-04 1.852512e-03 -4.352819e-03
<VARIANCE> 39
 9.510064e+01 6.875433e+01 5.489759e+01 5.494221e+01 7.740469e+01 1.123915e+02 7.668678e+01 8.267598e+01 7.497761e+01 8.952629e+01 4.449010e+01 3.559144e+01 1.069274e+02 6.660650e+00 4.896853e+00 3.591624e+00 3.343608e+00 4.250385e+00 7.130836e+00 5.000507e+00 4.442656e+00 5.174544e+00 5.025832e+00 3.472044e+00 2.558713e+00 5.788156e+00 1.056039e+00 8.164662e-01 6.478736e-01 5.960359e-01 7.144868e-01 1.209807e+00 9.050202e-01 8.077546e-01 9.293551e-01 8.635579e-01 6.405871e-01 4.728971e-01 9.702466e-01
<GCONST> 1.438292e+02
<TRANSP> 5
 0.000000e+00 1.000000e+00 0.000000e+00 0.000000e+00 0.000000e+00
 0.000000e+00 5.939175e-01 4.060825e-01 0.000000e+00 0.000000e+00
 0.000000e+00 0.000000e+00 5.939121e-01 4.060879e-01 0.000000e+00
 0.000000e+00 0.000000e+00 0.000000e+00 6.959547e-01 3.040453e-01
 0.000000e+00 0.000000e+00 0.000000e+00 0.000000e+00 0.000000e+00
<ENDHMM>
~h "D"
<BEGINHMM>
<NUMSTATES> 5
<STATE> 2
<MEAN> 39
 -5.317084e+00 -2.730734e-01 5.216874e+00 3.069711e+00 6.913595e+00 -6.806301e+00 1.347652e+00 3.558510e-01 -5.637089e+00 -8.779816e+00 2.485670e+00 2.265039e+00 6.054695e+01 4.210898e-03 2.005046e-02 2.175358e-02 4.479187e-03 2.131403e-02 -7.655685e-03 -1.192753e-02 -3.000385e-02 -6.662531e-03 -7.849775e-03 -1.886981e-02 -8.880901e-03 1.611623e-02 -1.790834e-03 1.083102e-04 -1.848750e-04 -8.517807e-04 7.474389e-04 2.565908e-03 -1.366539e-04 5.192673e-04 1.970964e-03 1.326244e-03 -1.031760e-03 -3.289447e-05 -2.096361e-03
<VARIANCE> 39
 6.530489e+01 6.289783e+01 4.602242e+01 5.422675e+01 8.932944e+01 1.251423e+02 8.376064e+01 8.777656e+01 7.388184e+01 8.837251e+01 4.832084e+01 3.468778e+01 1.155494e+02 3.833612e+00 4.283648e+00 2.659135e+00 3.268374e+00 4.156113e+00 7.570494e+00 5.043989e+00 4.772896e+00 4.460846e+00 5.375473e+00 3.285244e+00 2.495944e+00 6.769083e+00 6.228023e-01 6.965076e-01 4.662276e-01 5.875469e-01 6.699689e-01 1.245648e+00 9.076644e-01 8.746374e-01 7.899594e-01 9.425717e-01 6.028722e-01 4.639636e-01 1.126686e+00
<GCONST> 1.417958e+02
<STATE> 3
<MEAN> 39
 -5.313490e+00 -2.268587e-01 5.271868e+00 3.081702e+00 6.972225e+00 -6.818795e+00 1.314948e+00 2.801260e-01 -5.649765e+00 -8.794425e+00 2.435006e+00 2.242601e+00 6.058354e+01 -2.257303e-04 1.802285e-02 2.042068e-02 2.671309e-03 2.238279e-02 -2.530766e-03 -1.244674e-02 -2.903609e-02 -2.933674e-03 -5.192411e-03 -2.061211e-02 -8.333772e-03 1.252548e-02 -1.670855e-03 -9.860310e-04 -6.523469e-04 -6.571806e-04 9.390853e-05 2.130171e-03 2.252351e-05 5.887533e-04 1.456055e-03 1.004894e-03 -6.309696e-04 3.399571e-04 -1.441973e-03
<VARIANCE> 39
 6.508523e+01 6.284583e+01 4.580553e+01 5.431319e+01 8.922878e+01 1.249026e+02 8.380122e+01 8.798194e+01 7.401417e+01 8.849698e+01 4.855066e+01 3.470082e+01 1.150169e+02 3.846484e+00 4.297048e+00 2.666007e+00 3.283199e+00 4.161549e+00 7.542830e+00 5.065618e+00 4.778479e+00 4.470572e+00 5.397639e+00 3.298580e+00 2.502499e+00 6.778041e+00 6.258383e-01 6.995980e-01 4.675333e-01 5.898739e-01 6.705786e-01 1.241678e+00 9.125133e-01 8.761674e-01 7.904749e-01 9.468490e-01 6.051638e-01 4.651623e-01 1.128590e+00
<GCONST> 1.418569e+02
<STATE> 4
<MEAN> 39
 -5.333923e+00 -1.548738e-01 5.350340e+00 3.095761e+00 7.038018e+00 -6.773837e+00 1.254434e+00 2.623489e-01 -5.575871e+00 -8.787898e+00 2.358482e+00 2.214863e+00 6.056345e+01 -5.396705e-03 1.094238e-02 1.663043e-02 5.786135e-04 2.156222e-02 8.140436e-04 -1.243292e-02 -2.756793e-02 -4.516136e-04 -2.700182e-03 -2.064992e-02 -6.471307e-03 1.090421e-02 -1.634173e-03 -2.247593e-03 -1.441256e-03 -9.010157e-04 -7.841320e-04 1.221400e-03 3.554904e-04 8.148804e-04 9.819233e-04 8.750400e-04 1.044371e-04 8.888704e-04 -8.127272e-04
<VARIANCE> 39
 6.514427e+01 6.308206e+01 4.565584e+01 5.452115e+01 8.906090e+01 1.248212e+02 8.401382e+01 8.796198e+01 7.401930e+01 8.868842e+01 4.882921e+01 3.476610e+01 1.153404e+02 3.855813e+00 4.309869e+00 2.673973e+00 3.298043e+00 4.157749e+00 7.489846e+00 5.090441e+00 4.765533e+00 4.456841e+00 5.406559e+00 3.308135e+00 2.506472e+00 6.766528e+00 6.267365e-01 7.021930e-01 4.692246e-01 5.915890e-01 6.691115e-01 1.231213e+00 9.169996e-01 8.741036e-01 7.866591e-01 9.476559e-01 6.059732e-01 4.658234e-01 1.124218e+00
<GCONST> 1.418815e+02
<TRANSP> 5
 0.000000e+00 1.000000e+00 0.000000e+00 0.000000e+00 0.000000e+00
 0.000000e+00 5.942503e-01 4.057497e-01 0.000000e+00 0.000000e+00
 0.000000e+00 0.000000e+00 5.942476e-01 4.057523e-01 0.000000e+00
 0.000000e+00 0.000000e+00 0.000000e+00 6.956479e-01 3.043521e-01
 0.000000e+00 0.000000e+00 0.000000e+00 0.000000e+00 0.000000e+00
<ENDHMM>
~h "E"
<BEGINHMM>
<NUMSTATES> 5
<STATE> 2
<MEAN> 39
 -6.653357e+00 -1.128585e+00 4.462115e+00 3.512595e+00 8.246875e+00 -7.006113e+00 4.290778e-01 -1.435805e+00 -6.449212e+00 -6.536480e+00 3.256464e+00 1.865290e+00 5.986857e+01 -2.382048e-02 7.935325e-03 -1.184727e-02 7.786611e-03 -1.528602e-02 3.903205e-02 6.876924e-03 1.678131e-02 2.558113e-02 1.747560e-02 -2.214719e-03 8.391857e-03 -5.835346e-02 -2.507029e-04 -1.426143e-03 -8.502277e-04 -1.908363e-03 -2.363977e-03 3.123161e-04 2.556860e-03 3.021223e-03 1.025063e-03 -1.545267e-03 3.550787e-04 1.476780e-03 2.923364e-04
<VARIANCE> 39
 7.449652e+01 5.959236e+01 4.704462e+01 5.773893e+01 7.752052e+01 1.190826e+02 7.883056e+01 8.290556e+01 8.040638e+01 8.912119e+01 4.567801e+01 3.508775e+01 1.190026e+02 4.231462e+00 3.848031e+00 2.877823e+00 3.264189e+00 4.049321e+00 7.271932e+00 4.871407e+00 4.188371e+00 4.874962e+00 4.508946e+00 3.409662e+00 2.458496e+00 5.640644e+00 6.428043e-01 6.250721e-01 5.146555e-01 5.762531e-01 6.552182e-01 1.219324e+00 8.732742e-01 7.354223e-01 8.261290e-01 7.782680e-01 6.304888e-01 4.543860e-01 9.190890e-01
<GCONST> 1.407376e+02
<STATE> 3
<MEAN> 39
 -6.711750e+00 -1.111098e+00 4.431757e+00 3.527905e+00 8.203425e+00 -6.909656e+00 4.517296e-01 -1.387223e+00 -6.383486e+00 -6.498072e+00 3.251233e+00 1.887740e+00 5.972609e+01 -2.337057e-02 4.118695e-03 -1.418588e-02 3.078367e-03 -2.117807e-02 3.827648e-02 1.293377e-02 2.375717e-02 2.714892e-02 1.346255e-02 -1.193015e-03 1.154659e-02 -5.641477e-02 5.092145e-04 -1.824510e-03 -8.259584e-04 -1.524923e-03 -1.835535e-03 -1.206174e-03 1.711658e-03 1.923403e-03 -9.886927e-05 -1.308408e-03 5.487461e-04 1.027402e-03 1.380251e-03
<VARIANCE> 39
 7.443785e+01 5.986670e+01 4.712681e+01 5.723873e+01 7.754952e+01 1.193035e+02 7.915354e+01 8.205127e+01 7.980858e+01 8.859516e+01 4.557862e+01 3.510901e+01 1.209997e+02 4.206138e+00 3.840325e+00 2.869883e+00 3.255262e+00 4.035000e+00 7.225396e+00 4.871107e+00 4.167814e+00 4.838127e+00 4.480832e+00 3.383502e+00 2.449856e+00 5.630237e+00 6.395618e-01 6.228687e-01 5.130192e-01 5.754060e-01 6.531133e-01 1.211024e+00 8.724331e-01 7.317918e-01 8.203468e-01 7.740410e-01 6.259418e-01 4.525689e-01 9.154191e-01
<GCONST> 1.406198e+02
<STATE> 4
<MEAN> 39
 -6.786979e+00 -1.083738e+00 4.422679e+00 3.548050e+00 8.159307e+00 -6.773735e+00 4.390276e-01 -1.258137e+00 -6.235047e+00 -6.461987e+00 3.239250e+00 1.910627e+00 5.953756e+01 -2.072143e-02 -3.142259e-04 -1.694272e-02 -1.687615e-03 -2.744443e-02 3.407302e-02 1.793615e-02 2.919979e-02 2.686783e-02 9.396341e-03 1.495948e-04 1.384805e-02 -5.205568e-02 1.073813e-03 -1.747472e-03 -7.998719e-04 -1.346353e-03 -1.668626e-03 -2.011077e-03 1.060368e-03 1.168506e-03 -5.404965e-04 -1.099420e-03 5.408112e-04 6.488906e-04 1.873721e-03
<VARIANCE> 39
 7.438631e+01 6.033134e+01 4.738414e+01 5.688028e+01 7.776393e+01 1.199700e+02 7.983134e+01 8.122076e+01 7.901607e+01 8.796165e+01 4.542385e+01 3.513996e+01 1.237977e+02 4.163490e+00 3.830467e+00 2.855917e+00 3.244405e+00 4.011632e+00 7.167030e+00 4.867009e+00 4.132312e+00 4.771116e+00 4.444992e+00 3.344311e+00 2.433395e+00 5.624538e+00 6.324691e-01 6.188779e-01 5.099917e-01 5.733129e-01 6.487803e-01 1.197119e+00 8.712007e-01 7.259607e-01 8.101285e-01 7.684878e-01 6.177534e-01 4.498121e-01 9.112366e-01
<GCONST> 1.404519e+02
<TRANSP> 5
 0.000000e+00 1.000000e+00 0.000000e+00 0.000000e+00 0.000000e+00
 0.000000e+00 5.910724e-01 4.089276e-01 0.000000e+00 0.000000e+00
 0.000000e+00 0.000000e+00 5.910717e-01 4.089283e-01 0.000000e+00
 0.000000e+00 0.000000e+00 0.000000e+00 6.918432e-01 3.081568e-01
 0.000000e+00 0.000000e+00 0.000000e+00 0.000000e+00 0.000000e+00
<ENDHMM>
~h "G"
<BEGINHMM>
<NUMSTATES> 5
<STATE> 2
<MEAN> 39
 -5.010747e+00 -5.361741e-01 4.894503e+00 3.035186e+00 7.239403e+00 -8.113955e+00 1.050949e+00 9.093327e-01 -5.622248e+00 -8.871037e+00 2.616601e+00 1.718641e+00 6.104448e+01 1.396372e-02 2.461004e-02 -2.731740e-04 -4.832719e-03 -1.482420e-02 -1.545798e-02 3.403877e-03 1.129231e-02 6.874236e-03 -1.096235e-02 -3.021017e-02 -1.654718e-02 -1.163137e-02 -1.373765e-03 8.339651e-04 -1.455928e-03 1.868082e-04 -4.642534e-04 3.252064e-03 8.597584e-04 5.888421e-04 9.220123e-04 9.396650e-04 -8.325070e-04 5.365938e-04 -3.254121e-03
<VARIANCE> 39
 6.722126e+01 6.186866e+01 5.068659e+01 6.376852e+01 8.349998e+01 1.218465e+02 8.257175e+01 8.527497e+01 8.009664e+01 9.405982e+01 5.351839e+01 3.823266e+01 1.066995e+02 3.860811e+00 4.034829e+00 2.917906e+00 3.531693e+00 3.966660e+00 7.050704e+00 5.611830e+00 4.482127e+00 4.505603e+00 5.263998e+00 3.462402e+00 2.732811e+00 5.565642e+00 6.149266e-01 6.436704e-01 5.140003e-01 6.276770e-01 6.363299e-01 1.156492e+00 1.040333e+00 7.933004e-01 7.817348e-01 8.973656e-01 6.269804e-01 5.000144e-01 8.941489e-01
<GCONST> 1.419807e+02
<STATE> 3
<MEAN> 39
 -4.982287e+00 -4.759843e-01 4.892123e+00 3.025832e+00 7.206232e+00 -8.143930e+00 1.058718e+00 9.329945e-01 -5.606863e+00 -8.892983e+00 2.540532e+00 1.677348e+00 6.101071e+01 1.073082e-02 2.624040e-02 -4.097882e-03 -4.263034e-03 -1.587616e-02 -7.576912e-03 5.478234e-03 1.249028e-02 8.979445e-03 -8.474763e-03 -3.212436e-02 -1.513575e-02 -1.946166e-02 -1.386570e-03 7.091980e-04 -1.659099e-03 2.372965e-04 -2.880724e-04 3.145673e-03 7.903981e-04 2.578856e-04 6.932174e-04 1.171715e-03 -4.058055e-04 8.550349e-04 -3.265779e-03
<VARIANCE> 39
 6.694633e+01 6.163105e+01 5.047519e+01 6.344530e+01 8.360012e+01 1.219555e+02 8.286639e+01 8.527049e+01 7.981927e+01 9.446825e+01 5.391894e+01 3.819570e+01 1.066802e+02 3.844729e+00 4.012835e+00 2.912119e+00 3.538733e+00 3.966602e+00 7.070751e+00 5.633584e+00 4.471852e+00 4.505498e+00 5.247571e+00 3.471040e+00 2.743633e+00 5.551365e+00 6.125935e-01 6.402313e-01 5.135388e-01 6.301479e-01 6.362334e-01 1.159071e+00 1.045889e+00 7.914175e-01 7.805920e-01 8.947836e-01 6.279627e-01 5.020940e-01 8.908135e-01
<GCONST> 1.419683e+02
<STATE> 4
<MEAN> 39
 -5.016014e+00 -3.426675e-01 4.865164e+00 3.034774e+00 7.160524e+00 -8.039303e+00 1.037151e+00 1.071595e+00 -5.465320e+00 -8.889189e+00 2.425125e+00 1.625543e+00 6.078666e+01 6.602812e-03 2.664781e-02 -8.137985e-03 -4.230148e-03 -1.632746e-02 1.008605e-03 7.424150e-03 1.205579e-02 1.044406e-02 -4.576439e-03 -3.214407e-02 -1.147949e-02 -2.712700e-02 -1.587061e-03 3.136073e-04 -1.632167e-03 -2.669663e-04 -4.109167e-04 3.171731e-03 8.189186e-04 6.451522e-05 8.087681e-04 1.353349e-03 2.336935e-04 1.672474e-03 -3.155677e-03
<VARIANCE> 39
 6.734195e+01 6.137098e+01 5.024575e+01 6.264347e+01 8.355611e+01 1.230445e+02 8.327412e+01 8.531142e+01 7.921930e+01 9.512325e+01 5.410810e+01 3.809472e+01 1.100478e+02 3.792913e+00 3.965081e+00 2.889009e+00 3.526644e+00 3.949763e+00 7.063532e+00 5.628305e+00 4.435089e+00 4.468910e+00 5.201010e+00 3.462567e+00 2.742560e+00 5.511144e+00 6.037559e-01 6.325148e-01 5.100783e-01 6.299248e-01 6.332842e-01 1.153894e+00 1.044395e+00 7.844729e-01 7.735710e-01 8.861312e-01 6.255283e-01 5.017279e-01 8.811158e-01
<GCONST> 1.418317e+02
<TRANSP> 5
 0.000000e+00 1.000000e+00 0.000000e+00 0.000000e+00 0.000000e+00
 0.000000e+00 5.945330e-01 4.054671e-01 0.000000e+00 0.000000e+00
 0.000000e+00 0.000000e+00 5.945317e-01 4.054683e-01 0.000000e+00
 0.000000e+00 0.000000e+00 0.000000e+00 6.976088e-01 3.023911e-01
 0.000000e+00 0.000000e+00 0.000000e+00 0.000000e+00 0.000000e+00
<ENDHMM>
~h "H"
<BEGINHMM>
<NUMSTATES> 5
<STATE> 2
<MEAN> 39
 -5.653171e+00 -6.850521e-01 4.550090e+00 1.552763e+00 5.649189e+00 -7.663988e+00 3.566807e+00 2.110063e+00 -4.475598e+00 -7.889371e+00 2.796038e+00 2.951924e+00 6.059955e+01 -9.958143e-03 1.291694e-02 6.575743e-03 2.036922e-02 3.507816e-02 -4.717339e-02 -1.839532e-02 -5.297886e-02 -5.264528e-02 4.418863e-02 7.388451e-03 -1.802307e-02 3.228511e-03 -2.810779e-03 -7.648043e-04 -1.917458e-04 4.135546e-04 -2.306463e-04 2.887570e-03 -3.270968e-03 -3.293275e-03 4.253470e-04 3.646454e-03 1.038532e-03 -3.538377e-04 -3.307707e-03
<VARIANCE> 39
 6.843809e+01 5.793797e+01 4.780326e+01 5.940201e+01 8.367155e+01 1.270953e+02 8.211907e+01 8.963046e+01 8.378321e+01 8.594489e+01 4.687994e+01 3.413569e+01 1.075150e+02 3.665119e+00 3.823129e+00 2.849718e+00 3.230381e+00 3.802707e+00 7.826242e+00 4.790744e+00 4.431539e+00 5.026752e+00 4.719655e+00 3.215047e+00 2.473173e+00 4.787905e+00 5.471744e-01 6.331143e-01 5.020085e-01 5.323415e-01 5.898808e-01 1.300911e+00 8.067760e-01 7.507334e-01 8.218522e-01 8.076759e-01 5.837023e-01 4.561510e-01 7.529851e-01
<GCONST> 1.399788e+02
<STATE> 3
<MEAN> 39
 -5.668172e+00 -6.664761e-01 4.563163e+00 1.595171e+00 5.740918e+00 -7.807515e+00 3.513128e+00 1.967585e+00 -4.617341e+00 -7.776215e+00 2.821311e+00 2.903435e+00 6.063779e+01 -1.633279e-02 1.084110e-02 5.643744e-03 2.176843e-02 3.441419e-02 -3.922478e-02 -2.671303e-02 -6.054065e-02 -5.208970e-02 5.286570e-02 9.769602e-03 -1.922657e-02 -5.868186e-03 -2.697441e-03 -1.044293e-03 -5.649825e-04 -2.358349e-04 -1.275080e-03 4.386371e-03 -2.521381e-03 -1.787652e-03 1.730045e-03 3.170833e-03 6.554845e-04 -7.200924e-05 -4.056511e-03
<VARIANCE> 39
 6.837440e+01 5.767867e+01 4.791904e+01 6.004937e+01 8.299657e+01 1.264836e+02 8.147736e+01 9.033151e+01 8.429031e+01 8.653727e+01 4.725620e+01 3.409329e+01 1.064279e+02 3.691664e+00 3.832038e+00 2.867931e+00 3.248278e+00 3.815949e+00 7.806960e+00 4.784945e+00 4.415231e+00 5.027549e+00 4.699674e+00 3.227795e+00 2.464559e+00 4.814010e+00 5.494651e-01 6.343141e-01 5.058855e-01 5.361905e-01 5.930200e-01 1.292862e+00 8.055710e-01 7.474844e-01 8.203563e-01 8.042192e-01 5.856493e-01 4.543428e-01 7.530999e-01
<GCONST> 1.400101e+02
<STATE> 4
<MEAN> 39
 -5.724456e+00 -6.382832e-01 4.556714e+00 1.645431e+00 5.889048e+00 -7.922396e+00 3.408129e+00 1.840874e+00 -4.690783e+00 -7.524472e+00 2.893336e+00 2.846870e+00 6.060976e+01 -1.984439e-02 9.490256e-03 2.298868e-03 2.356749e-02 3.156424e-02 -2.882697e-02 -3.516352e-02 -6.367122e-02 -4.871788e-02 5.954434e-02 1.164528e-02 -1.925410e-02 -1.777986e-02 -2.757148e-03 -4.640318e-04 -1.150556e-03 -2.531762e-04 -2.306454e-03 6.848443e-03 -1.957915e-03 3.346153e-05 3.505412e-03 2.378823e-03 1.467038e-04 5.095300e-04 -6.203611e-03
<VARIANCE> 39
 6.825914e+01 5.734949e+01 4.807825e+01 6.067652e+01 8.235425e+01 1.260332e+02 8.058633e+01 9.046205e+01 8.407786e+01 8.791162e+01 4.772175e+01 3.391083e+01 1.071770e+02 3.691796e+00 3.826667e+00 2.863450e+00 3.252168e+00 3.803898e+00 7.704486e+00 4.737305e+00 4.345567e+00 4.952430e+00 4.636219e+00 3.212316e+00 2.436413e+00 4.826003e+00 5.473498e-01 6.331076e-01 5.055690e-01 5.378836e-01 5.931087e-01 1.267026e+00 7.976311e-01 7.361813e-01 8.064207e-01 7.923768e-01 5.816571e-01 4.485910e-01 7.464058e-01
<GCONST> 1.398250e+02
<TRANSP> 5
 0.000000e+00 1.000000e+00 0.000000e+00 0.000000e+00 0.000000e+00
 0.000000e+00 5.977568e-01 4.022432e-01 0.000000e+00 0.000000e+00
 0.000000e+00 0.000000e+00 5.977489e-01 4.022511e-01 0.000000e+00
 0.000000e+00 0.000000e+00 0.000000e+00 7.015753e-01 2.984247e-01
 0.000000e+00 0.000000e+00 0.000000e+00 0.000000e+00 0.000000e+00
<ENDHMM>
~h "I"
<BEGINHMM>
<NUMSTATES> 5
<STATE> 2
<MEAN> 39
 -6.948240e+00 -9.852324e-01 5.740849e+00 4.218003e+00 9.148111e+00 -5.967077e+00 -2.375360e-01 -7.996467e-01 -5.094612e+00 -7.320261e+00 2.378083e+00 1.288358e+00 5.990383e+01 8.137104e-04 1.534172e-03 1.194212e-02 -2.895662e-03 1.051341e-02 1.172355e-02 -1.105956e-02 -1.863091e-02 6.811491e-03 -5.712941e-03 -7.696726e-03 -4.228973e-03 2.040115e-02 1.042472e-03 -1.061870e-03 -2.686643e-03 -3.472375e-03 -3.981440e-03 -4.053338e-04 2.380562e-03 1.068141e-03 -5.867675e-04 -8.422079e-04 1.271996e-03 2.669166e-03 8.647304e-04
<VARIANCE> 39
 7.408973e+01 6.062512e+01 5.288868e+01 6.291872e+01 8.277592e+01 1.180415e+02 8.445446e+01 7.621122e+01 7.320378e+01 8.575679e+01 4.558617e+01 3.700594e+01 1.216583e+02 4.206195e+00 3.957404e+00 3.126893e+00 3.466368e+00 4.347462e+00 7.015612e+00 5.493551e+00 4.240492e+00 4.567494e+00 5.031562e+00 3.236310e+00 2.518829e+00 5.889934e+00 6.529852e-01 6.474364e-01 5.416014e-01 6.019297e-01 6.987088e-01 1.175942e+00 9.865910e-01 7.656599e-01 8.044854e-01 8.673292e-01 5.969817e-01 4.615729e-01 9.526032e-01
<GCONST> 1.417420e+02
<STATE> 3
<MEAN> 39
 -6.943016e+00 -9.842761e-01 5.761813e+00 4.200255e+00 9.160472e+00 -5.938865e+00 -2.583549e-01 -8.409002e-01 -5.078146e+00 -7.337527e+00 2.362078e+00 1.285598e+00 5.995465e+01 3.398154e-03 -1.212077e-03 4.269461e-03 -1.184296e-02 -3.731245e-04 1.020642e-02 -4.344280e-03 -1.525041e-02 5.155301e-03 -7.705112e-03 -4.321447e-03 2.826590e-03 2.170038e-02 1.178464e-03 -1.323453e-03 -2.792476e-03 -3.129695e-03 -3.981159e-03 -1.283588e-03 2.353474e-03 1.142730e-03 -1.223299e-03 -8.772711e-04 1.125807e-03 2.500456e-03 7.518737e-04
<VARIANCE> 39
 7.415236e+01 6.058208e+01 5.281350e+01 6.247050e+01 8.287785e+01 1.175877e+02 8.517422e+01 7.621107e+01 7.314037e+01 8.541426e+01 4.559537e+01 3.682973e+01 1.213203e+02 4.220005e+00 3.955342e+00 3.129066e+00 3.465524e+00 4.346450e+00 7.003898e+00 5.534813e+00 4.243176e+00 4.569541e+00 5.035851e+00 3.241721e+00 2.519750e+00 5.880912e+00 6.547807e-01 6.467478e-01 5.422288e-01 6.024528e-01 6.984401e-01 1.174960e+00 9.932815e-01 7.654901e-01 8.051168e-01 8.687679e-01 5.975464e-01 4.615948e-01 9.526497e-01
<GCONST> 1.417510e+02
<STATE> 4
<MEAN> 39
 -6.953374e+00 -9.608546e-01 5.784027e+00 4.174168e+00 9.142972e+00 -5.862993e+00 -2.962113e-01 -7.873322e-01 -4.970660e+00 -7.355867e+00 2.334710e+00 1.284797e+00 5.993238e+01 6.101544e-03 -4.187225e-03 -6.127728e-03 -2.201330e-02 -1.460765e-02 6.836485e-03 4.851405e-03 -9.180907e-03 2.517310e-03 -9.612476e-03 -7.267876e-04 1.094172e-02 2.036588e-02 1.094031e-03 -1.220560e-03 -2.963439e-03 -2.920715e-03 -4.132756e-03 -1.940917e-03 2.650453e-03 1.772253e-03 -1.477276e-03 -8.054514e-04 7.803113e-04 2.276858e-03 2.427523e-05
<VARIANCE> 39
 7.445779e+01 6.067864e+01 5.289265e+01 6.211686e+01 8.306884e+01 1.175972e+02 8.612057e+01 7.639540e+01 7.282270e+01 8.515888e+01 4.566380e+01 3.671990e+01 1.222818e+02 4.207980e+00 3.941638e+00 3.115922e+00 3.452334e+00 4.320716e+00 6.958225e+00 5.557964e+00 4.227715e+00 4.532199e+00 5.022045e+00 3.236615e+00 2.512941e+00 5.842192e+00 6.513600e-01 6.431722e-01 5.405514e-01 6.007921e-01 6.934520e-01 1.167187e+00 9.957424e-01 7.611800e-01 7.975798e-01 8.656290e-01 5.961427e-01 4.597940e-01 9.462302e-01
<GCONST> 1.416596e+02
<TRANSP> 5
 0.000000e+00 1.000000e+00 0.000000e+00 0.000000e+00 0.000000e+00
 0.000000e+00 5.955560e-01 4.044440e-01 0.000000e+00 0.000000e+00
 0.000000e+00 0.000000e+00 5.955515e-01 4.044485e-01 0.000000e+00
 0.000000e+00 0.000000e+00 0.000000e+00 6.981113e-01 3.018887e-01
 0.000000e+00 0.000000e+00 0.000000e+00 0.000000e+00 0.000000e+00
<ENDHMM>
~h "J"
<BEGINHMM>
<NUMSTATES> 5
<STATE> 2
<MEAN> 39
 -6.504495e+00 -1.274710e+00 5.538847e+00 3.019345e+00 7.392591e+00 -6.190997e+00 1.615797e+00 -4.059968e-01 -5.830782e+00 -7.790126e+00 3.268245e+00 2.338907e+00 6.042913e+01 2.445224e-02 1.722328e-02 2.949194e-02 1.284525e-02 1.013719e-02 -3.854591e-02 5.380596e-03 -1.161774e-02 -1.985402e-02 -1.620080e-02 -1.004302e-02 -2.106991e-02 4.057876e-02 -1.322845e-03 2.431437e-03 5.207010e-05 -4.152214e-04 -9.861769e-04 1.305212e-03 9.397184e-04 1.927889e-03 2.485311e-03 4.838134e-04 -1.160759e-03 -8.992407e-04 -2.628765e-03
<VARIANCE> 39
 6.995176e+01 5.789320e+01 6.550443e+01 5.417744e+01 7.170789e+01 1.210671e+02 7.760863e+01 7.747955e+01 7.604941e+01 8.885252e+01 4.796023e+01 3.525367e+01 1.266711e+02 4.574683e+00 4.011683e+00 3.796543e+00 3.220966e+00 3.767926e+00 7.035887e+00 5.011269e+00 4.307012e+00 4.923604e+00 4.795650e+00 3.511447e+00 2.430448e+00 5.289117e+00 7.632769e-01 6.673850e-01 6.218256e-01 5.755659e-01 6.399238e-01 1.147899e+00 9.132596e-01 7.819707e-01 8.857507e-01 8.168064e-01 6.448917e-01 4.473285e-01 8.355423e-01
<GCONST> 1.416624e+02
<STATE> 3
<MEAN> 39
 -6.449639e+00 -1.228799e+00 5.619776e+00 3.052431e+00 7.416432e+00 -6.286193e+00 1.633625e+00 -4.318843e-01 -5.875995e+00 -7.829524e+00 3.237919e+00 2.283107e+00 6.053013e+01 2.100742e-02 2.145892e-02 2.955798e-02 1.195640e-02 8.495057e-03 -3.511105e-02 7.005816e-03 -7.845269e-03 -1.400294e-02 -1.468978e-02 -1.362560e-02 -2.278184e-02 3.445372e-02 -1.696874e-03 1.439210e-03 1.634127e-04 -4.673626e-04 -6.346607e-04 1.803763e-03 7.263733e-04 1.386352e-03 2.553034e-03 6.817486e-04 -1.442947e-03 -3.841115e-04 -2.557348e-03
<VARIANCE> 39
 6.983073e+01 5.753974e+01 6.559054e+01 5.442066e+01 7.207471e+01 1.213214e+02 7.774229e+01 7.774413e+01 7.611419e+01 8.880895e+01 4.822156e+01 3.534952e+01 1.254386e+02 4.595044e+00 4.019682e+00 3.811645e+00 3.240461e+00 3.787971e+00 7.056411e+00 5.035672e+00 4.324699e+00 4.930393e+00 4.810459e+00 3.538884e+00 2.447277e+00 5.326453e+00 7.694476e-01 6.684787e-01 6.239046e-01 5.788765e-01 6.434271e-01 1.149783e+00 9.178079e-01 7.851512e-01 8.864545e-01 8.187810e-01 6.498973e-01 4.505658e-01 8.400019e-01
<GCONST> 1.417895e+02
<STATE> 4
<MEAN> 39
 -6.437285e+00 -1.136613e+00 5.746797e+00 3.099145e+00 7.452199e+00 -6.333835e+00 1.631974e+00 -3.811921e-01 -5.830281e+00 -7.855906e+00 3.177960e+00 2.203471e+00 6.057194e+01 1.746039e-02 2.191142e-02 2.736685e-02 1.119733e-02 7.442810e-03 -3.209488e-02 7.840623e-03 -4.349642e-03 -8.130399e-03 -1.328647e-02 -1.796681e-02 -2.294587e-02 2.853425e-02 -1.590348e-03 3.884642e-04 -8.822763e-04 -6.797278e-04 -5.523771e-04 1.961730e-03 4.459176e-04 1.403594e-03 2.577485e-03 4.787957e-04 -1.427116e-03 2.871629e-04 -2.578388e-03
<VARIANCE> 39
 7.030351e+01 5.740778e+01 6.577328e+01 5.492010e+01 7.276920e+01 1.220116e+02 7.806818e+01 7.803239e+01 7.609726e+01 8.868919e+01 4.839766e+01 3.548520e+01 1.253054e+02 4.629854e+00 4.039860e+00 3.822724e+00 3.267183e+00 3.813413e+00 7.058642e+00 5.057368e+00 4.338215e+00 4.909891e+00 4.814528e+00 3.556170e+00 2.463156e+00 5.360342e+00 7.785677e-01 6.711146e-01 6.245328e-01 5.832800e-01 6.474309e-01 1.146919e+00 9.205661e-01 7.877144e-01 8.819992e-01 8.184140e-01 6.526757e-01 4.537805e-01 8.414749e-01
<GCONST> 1.419283e+02
<TRANSP> 5
 0.000000e+00 1.000000e+00 0.000000e+00 0.000000e+00 0.000000e+00
 0.000000e+00 5.955615e-01 4.044385e-01 0.000000e+00 0.000000e+00
 0.000000e+00 0.000000e+00 5.955644e-01 4.044356e-01 0.000000e+00
 0.000000e+00 0.000000e+00 0.000000e+00 6.978410e-01 3.021590e-01
 0.000000e+00 0.000000e+00 0.000000e+00 0.000000e+00 0.000000e+00
<ENDHMM>
~h "K"
<BEGINHMM>
<NUMSTATES> 5
<STATE> 2
<MEAN> 39
 -7.094810e+00 -4.655967e-01 3.627526e+00 1.090806e+00 6.433517e+00 -6.423612e+00 1.962706e+00 1.195757e-01 -4.608335e+00 -7.011164e+00 3.598443e+00 2.178627e+00 5.994586e+01 2.240553e-02 2.445202e-02 4.002942e-03 -2.217759e-02 -2.277634e-02 -3.945471e-02 3.364106e-02 1.383148e-02 1.203030e-02 -1.266445e-02 -2.483948e-02 -2.232018e-02 3.870979e-02 1.927766e-03 -2.987134e-04 -6.641769e-04 1.608055e-03 -9.003463e-04 -7.018620e-04 -1.133425e-03 8.984492e-04 -8.419498e-04 -1.393883e-03 -1.098531e-03 2.898403e-04 -7.345948e-04
<VARIANCE> 39
 6.976050e+01 5.975395e+01 4.512555e+01 6.554401e+01 7.874499e+01 1.131898e+02 8.010549e+01 8.220673e+01 7.742879e+01 8.883410e+01 4.944772e+01 3.563527e+01 1.116704e+02 4.367841e+00 4.417668e+00 3.058637e+00 3.775794e+00 4.004261e+00 7.257477e+00 5.076853e+00 4.216310e+00 4.640845e+00 5.221566e+00 3.371565e+00 2.615704e+00 6.108174e+00 6.623363e-01 7.510375e-01 5.565791e-01 6.425175e-01 6.662835e-01 1.224614e+00 8.969327e-01 7.575292e-01 8.170910e-01 9.067953e-01 6.162835e-01 4.891747e-01 1.013616e+00
<GCONST> 1.421303e+02
<STATE> 3
<MEAN> 39
 -7.033627e+00 -4.058523e-01 3.636146e+00 1.039075e+00 6.374005e+00 -6.519402e+00 2.041808e+00 1.551836e-01 -4.581530e+00 -7.044477e+00 3.533297e+00 2.124880e+00 6.003826e+01 2.681897e-02 2.371931e-02 2.918306e-03 -1.734556e-02 -2.501985e-02 -3.889799e-02 3.042568e-02 1.640490e-02 9.991041e-03 -1.511162e-02 -2.759728e-02 -2.064173e-02 3.440963e-02 1.446236e-03 -4.322997e-04 -4.948929e-04 1.852552e-03 -8.331615e-04 6.275924e-04 -1.454861e-03 8.919616e-04 -8.248115e-04 -6.450347e-04 -7.678829e-04 9.283760e-04 -2.112984e-03
<VARIANCE> 39
 6.977423e+01 5.964138e+01 4.504685e+01 6.608796e+01 7.919346e+01 1.134719e+02 8.036678e+01 8.260362e+01 7.755380e+01 8.852354e+01 4.975827e+01 3.578541e+01 1.102136e+02 4.366871e+00 4.409095e+00 3.074132e+00 3.793888e+00 4.018420e+00 7.321746e+00 5.104875e+00 4.220962e+00 4.650874e+00 5.242498e+00 3.386787e+00 2.622727e+00 6.094812e+00 6.594918e-01 7.503377e-01 5.598120e-01 6.441805e-01 6.690266e-01 1.235497e+00 9.009824e-01 7.574762e-01 8.182007e-01 9.098781e-01 6.185112e-01 4.904554e-01 1.010539e+00
<GCONST> 1.422131e+02
<STATE> 4
<MEAN> 39
 -6.950719e+00 -3.267451e-01 3.671340e+00 9.798163e-01 6.297002e+00 -6.586585e+00 2.089884e+00 2.779809e-01 -4.463928e+00 -7.093342e+00 3.442083e+00 2.072944e+00 6.010347e+01 3.033140e-02 2.244298e-02 2.652791e-03 -1.093152e-02 -2.595543e-02 -3.448379e-02 2.553864e-02 2.036987e-02 7.060166e-03 -1.638979e-02 -2.952743e-02 -1.656761e-02 2.498871e-02 1.006864e-03 -6.960804e-04 -3.012675e-04 2.033748e-03 -2.106988e-04 1.480310e-03 -1.758508e-03 1.154587e-03 -1.097854e-03 -2.563607e-04 -1.908151e-04 1.567592e-03 -3.094477e-03
<VARIANCE> 39
 6.972344e+01 5.957851e+01 4.514455e+01 6.665983e+01 7.997041e+01 1.142439e+02 8.100771e+01 8.312679e+01 7.749988e+01 8.830869e+01 4.999927e+01 3.595795e+01 1.093394e+02 4.336295e+00 4.384114e+00 3.090305e+00 3.808063e+00 4.031011e+00 7.371612e+00 5.131524e+00 4.224194e+00 4.637353e+00 5.256332e+00 3.391207e+00 2.623533e+00 6.067842e+00 6.507217e-01 7.452316e-01 5.625998e-01 6.447244e-01 6.713353e-01 1.241702e+00 9.041513e-01 7.565280e-01 8.147104e-01 9.112166e-01 6.183898e-01 4.901801e-01 1.003833e+00
<GCONST> 1.422466e+02
<TRANSP> 5
 0.000000e+00 1.000000e+00 0.000000e+00 0.000000e+00 0.000000e+00
 0.000000e+00 5.942491e-01 4.057509e-01 0.000000e+00 0.000000e+00
 0.000000e+00 0.000000e+00 5.942478e-01 4.057522e-01 0.000000e+00
 0.000000e+00 0.000000e+00 0.000000e+00 6.958131e-01 3.041869e-01
 0.000000e+00 0.000000e+00 0.000000e+00 0.000000e+00 0.000000e+00
<ENDHMM>
~h "L"
<BEGINHMM>
<NUMSTATES> 5
<STATE> 2
<MEAN> 39
 -4.924205e+00 -5.358830e-03 4.008204e+00 3.101904e+00 5.416503e+00 -8.697000e+00 2.211546e+00 2.684236e+00 -5.293359e+00 -9.516489e+00 8.300034e-01 2.050016e+00 5.958067e+01 -4.047507e-02 2.399782e-03 -6.256972e-03 -1.824074e-02 -6.360235e-03 5.591566e-02 -5.852518e-03 -2.585286e-02 2.092291e-02 5.074085e-02 2.506283e-02 1.499074e-02 -4.935348e-02 -3.803805e-03 -2.621399e-03 -5.756625e-04 -7.007339e-04 3.056846e-03 7.321863e-03 -8.804045e-04 -3.796408e-03 4.955186e-04 4.340522e-03 5.133755e-03 2.284954e-03 -2.060630e-03
<VARIANCE> 39
 6.939443e+01 5.535963e+01 4.393071e+01 5.812705e+01 8.367226e+01 1.380324e+02 7.619603e+01 7.935205e+01 7.693870e+01 9.516106e+01 5.978899e+01 3.508246e+01 1.224284e+02 3.370968e+00 3.234583e+00 2.708041e+00 3.536580e+00 3.813726e+00 7.198748e+00 4.617873e+00 4.350971e+00 4.299011e+00 4.788084e+00 3.610724e+00 2.677383e+00 4.910298e+00 5.082487e-01 5.222072e-01 4.848414e-01 6.215500e-01 6.074812e-01 1.141463e+00 8.286701e-01 8.044454e-01 7.441611e-01 7.996469e-01 6.350266e-01 5.008402e-01 7.563584e-01
<GCONST> 1.397968e+02
<STATE> 3
<MEAN> 39
 -5.032710e+00 -6.350905e-03 3.990141e+00 3.057903e+00 5.410205e+00 -8.541870e+00 2.194530e+00 2.608128e+00 -5.246127e+00 -9.377627e+00 9.062239e-01 2.091866e+00 5.945205e+01 -4.958022e-02 -3.594430e-03 -7.871421e-03 -1.920121e-02 1.220918e-03 7.378863e-02 -7.319571e-03 -3.445781e-02 2.214427e-02 6.149747e-02 3.701442e-02 2.006036e-02 -5.495790e-02 -3.153824e-03 -2.695547e-03 -8.413756e-04 8.605925e-05 3.129005e-03 6.214858e-03 -3.254387e-04 -3.052108e-03 -2.964345e-05 3.594585e-03 4.480145e-03 1.836688e-03 -1.653106e-03
<VARIANCE> 39
 6.970196e+01 5.555967e+01 4.396928e+01 5.761195e+01 8.348069e+01 1.376544e+02 7.624226e+01 7.935799e+01 7.672312e+01 9.625242e+01 5.922729e+01 3.515741e+01 1.246671e+02 3.366419e+00 3.233574e+00 2.705458e+00 3.504232e+00 3.788925e+00 7.143132e+00 4.597226e+00 4.323141e+00 4.284314e+00 4.744386e+00 3.593378e+00 2.669532e+00 4.893412e+00 5.069399e-01 5.218930e-01 4.845095e-01 6.170902e-01 6.040830e-01 1.129081e+00 8.232326e-01 7.983224e-01 7.411885e-01 7.914550e-01 6.319405e-01 4.986393e-01 7.524040e-01
<GCONST> 1.396804e+02
<STATE> 4
<MEAN> 39
 -5.218019e+00 2.942023e-04 3.990956e+00 3.029552e+00 5.449471e+00 -8.241097e+00 2.133724e+00 2.563331e+00 -5.104487e+00 -9.181085e+00 1.024779e+00 2.151594e+00 5.921939e+01 -5.764591e-02 -9.874510e-03 -1.021085e-02 -1.792701e-02 9.347027e-03 8.921741e-02 -7.174938e-03 -4.222668e-02 2.149964e-02 7.189272e-02 4.807204e-02 2.371221e-02 -5.996490e-02 -2.317268e-03 -2.434277e-03 -9.991227e-04 6.299653e-04 2.704076e-03 4.482577e-03 2.060752e-04 -2.166318e-03 -4.950304e-04 2.713717e-03 3.541379e-03 1.229592e-03 -1.111397e-03
<VARIANCE> 39
 7.051389e+01 5.587298e+01 4.427023e+01 5.720466e+01 8.328584e+01 1.374758e+02 7.662226e+01 7.934947e+01 7.630430e+01 9.760139e+01 5.837088e+01 3.526042e+01 1.286624e+02 3.351210e+00 3.234483e+00 2.700732e+00 3.455983e+00 3.752882e+00 7.033221e+00 4.568610e+00 4.280654e+00 4.246181e+00 4.686987e+00 3.558301e+00 2.646862e+00 4.866543e+00 5.035136e-01 5.216984e-01 4.831530e-01 6.093738e-01 5.990607e-01 1.108888e+00 8.155714e-01 7.888063e-01 7.347580e-01 7.806501e-01 6.258546e-01 4.931687e-01 7.465810e-01
<GCONST> 1.394997e+02
<TRANSP> 5
 0.000000e+00 1.000000e+00 0.000000e+00 0.000000e+00 0.000000e+00
 0.000000e+00 5.944015e-01 4.055986e-01 0.000000e+00 0.000000e+00
 0.000000e+00 0.000000e+00 5.944075e-01 4.055925e-01 0.000000e+00
 0.000000e+00 0.000000e+00 0.000000e+00 6.969106e-01 3.030895e-01
 0.000000e+00 0.000000e+00 0.000000e+00 0.000000e+00 0.000000e+00
<ENDHMM>
~h "M"
<BEGINHMM>
<NUMSTATES> 5
<STATE> 2
<MEAN> 39
 -4.928094e+00 -2.839554e-01 4.012567e+00 1.915121e+00 5.149914e+00 -7.269378e+00 2.248998e+00 3.043180e+00 -3.808428e+00 -8.477315e+00 2.706077e+00 2.073606e+00 5.974621e+01 4.265610e-02 1.912829e-02 8.335440e-03 -5.003541e-03 -1.284573e-02 -4.972392e-02 1.108929e-02 2.523411e-02 5.321918e-03 -3.252581e-02 -6.675702e-03 -8.782445e-03 4.281644e-02 -5.682644e-04 1.294030e-03 1.986220e-04 1.015243e-03 1.182068e-03 -9.489975e-05 -3.380316e-04 -2.484100e-03 -3.678514e-04 2.231010e-04 -5.472951e-04 -2.918238e-04 3.547099e-04
<VARIANCE> 39
 7.673443e+01 5.885469e+01 4.695581e+01 5.126297e+01 8.244460e+01 1.404418e+02 8.553803e+01 8.312487e+01 7.125834e+01 8.658887e+01 4.769851e+01 4.081506e+01 1.215673e+02 3.707734e+00 3.585063e+00 2.789830e+00 2.955938e+00 4.072392e+00 8.500436e+00 4.943180e+00 4.351650e+00 4.444474e+00 4.799751e+00 3.461802e+00 3.049202e+00 5.039334e+00 5.420890e-01 5.774595e-01 4.944757e-01 5.222859e-01 6.551285e-01 1.414227e+00 8.605796e-01 7.556292e-01 7.811155e-01 8.323215e-01 6.262011e-01 5.545823e-01 7.988452e-01
<GCONST> 1.408163e+02
<STATE> 3
<MEAN> 39
 -4.824305e+00 -2.292487e-01 4.037588e+00 1.908224e+00 5.123109e+00 -7.392221e+00 2.273869e+00 3.095425e+00 -3.794340e+00 -8.555558e+00 2.684673e+00 2.047699e+00 5.985294e+01 4.053786e-02 2.081754e-02 9.618063e-03 -2.257049e-03 -8.889426e-03 -4.899972e-02 8.677562e-03 1.682526e-02 3.485470e-03 -3.172681e-02 -8.056021e-03 -9.390484e-03 4.421458e-02 -7.926034e-04 4.789175e-04 5.953775e-04 1.305785e-03 1.635403e-03 3.920369e-04 -1.169354e-03 -3.718943e-03 -8.409341e-04 4.238430e-04 -6.502740e-04 -4.221390e-04 6.240914e-04
<VARIANCE> 39
 7.642539e+01 5.853473e+01 4.704366e+01 5.128410e+01 8.312733e+01 1.406052e+02 8.617529e+01 8.354498e+01 7.178426e+01 8.598724e+01 4.784054e+01 4.083240e+01 1.199894e+02 3.727947e+00 3.597065e+00 2.815737e+00 2.961155e+00 4.115523e+00 8.625763e+00 4.955373e+00 4.371811e+00 4.485984e+00 4.820012e+00 3.491360e+00 3.067890e+00 5.089637e+00 5.442367e-01 5.794711e-01 4.987051e-01 5.234801e-01 6.617036e-01 1.435149e+00 8.616339e-01 7.587472e-01 7.881780e-01 8.359601e-01 6.312105e-01 5.583829e-01 8.072609e-01
<GCONST> 1.409986e+02
<STATE> 4
<MEAN> 39
 -4.773115e+00 -1.003169e-01 4.084911e+00 1.949379e+00 5.116036e+00 -7.425420e+00 2.256021e+00 3.213411e+00 -3.693469e+00 -8.612129e+00 2.628123e+00 1.983359e+00 5.982764e+01 3.477171e-02 1.929011e-02 1.261771e-02 1.321520e-03 -1.452226e-03 -4.422553e-02 1.879377e-03 2.095772e-03 -4.859688e-04 -2.883301e-02 -9.993239e-03 -9.645285e-03 4.438031e-02 -1.606440e-03 -7.352189e-04 9.025767e-04 1.220346e-03 2.392760e-03 1.348705e-03 -2.310739e-03 -4.905717e-03 -1.595398e-03 7.733990e-04 -4.968976e-04 -1.867480e-04 3.763425e-04
<VARIANCE> 39
 7.678181e+01 5.812498e+01 4.733110e+01 5.146520e+01 8.397021e+01 1.414174e+02 8.694957e+01 8.421090e+01 7.205360e+01 8.538522e+01 4.807551e+01 4.088549e+01 1.206964e+02 3.719542e+00 3.590990e+00 2.832955e+00 2.960627e+00 4.143628e+00 8.702357e+00 4.947292e+00 4.370285e+00 4.486617e+00 4.815185e+00 3.514442e+00 3.076958e+00 5.119694e+00 5.414932e-01 5.777690e-01 5.001296e-01 5.228593e-01 6.655067e-01 1.445068e+00 8.584331e-01 7.581171e-01 7.879761e-01 8.341722e-01 6.342389e-01 5.597929e-01 8.100251e-01
<GCONST> 1.410877e+02
<TRANSP> 5
 0.000000e+00 1.000000e+00 0.000000e+00 0.000000e+00 0.000000e+00
 0.000000e+00 5.956656e-01 4.043344e-01 0.000000e+00 0.000000e+00
 0.000000e+00 0.000000e+00 5.956722e-01 4.043279e-01 0.000000e+00
 0.000000e+00 0.000000e+00 0.000000e+00 6.991983e-01 3.008017e-01
 0.000000e+00 0.000000e+00 0.000000e+00 0.000000e+00 0.000000e+00
<ENDHMM>
~h "N"
<BEGINHMM>
<NUMSTATES> 5
<STATE> 2
<MEAN> 39
 -5.352855e+00 5.292295e-03 4.324480e+00 2.259107e+00 6.664043e+00 -6.794150e+00 1.891906e+00 1.605628e+00 -4.695919e+00 -8.023019e+00 2.245427e+00 1.758652e+00 5.967136e+01 -1.095046e-02 1.441056e-02 1.219873e-02 -1.464778e-02 -8.322822e-03 1.378953e-02 -1.198701e-02 1.634837e-02 2.838185e-02 1.917156e-03 -7.513482e-03 7.056563e-03 -2.486642e-02 -2.343463e-03 -2.356398e-03 -7.081906e-04 5.776949e-04 9.081156e-04 2.767592e-03 -1.727550e-03 -2.058749e-03 -5.743664e-05 9.280826e-04 1.233084e-03 1.806117e-03 -1.190278e-03
<VARIANCE> 39
 6.882087e+01 5.515119e+01 4.978263e+01 5.504744e+01 8.012323e+01 1.316086e+02 8.714848e+01 7.511868e+01 7.370012e+01 8.826259e+01 5.357281e+01 3.931678e+01 1.188697e+02 3.646209e+00 3.517967e+00 2.898387e+00 3.019663e+00 3.878724e+00 7.798676e+00 5.032360e+00 4.033201e+00 4.587851e+00 4.605999e+00 3.890129e+00 2.774254e+00 4.978934e+00 5.565839e-01 5.770343e-01 5.136680e-01 5.353072e-01 6.255765e-01 1.290726e+00 8.855756e-01 7.140291e-01 8.133686e-01 7.854974e-01 7.024094e-01 5.092115e-01 7.793744e-01
<GCONST> 1.404468e+02
<STATE> 3
<MEAN> 39
 -5.386289e+00 3.655816e-02 4.353619e+00 2.225120e+00 6.644287e+00 -6.753593e+00 1.861864e+00 1.639211e+00 -4.628611e+00 -8.014190e+00 2.228930e+00 1.779742e+00 5.960497e+01 -1.710811e-02 7.871537e-03 1.022552e-02 -1.286402e-02 -5.865555e-03 2.072079e-02 -1.574177e-02 1.077192e-02 2.746744e-02 4.407071e-03 -4.136460e-03 1.141299e-02 -2.744677e-02 -1.844964e-03 -2.937482e-03 -7.625504e-04 9.482859e-04 1.242521e-03 2.428655e-03 -1.464751e-03 -2.712353e-03 -1.109110e-03 5.186764e-04 9.449274e-04 1.253600e-03 -2.497541e-04
<VARIANCE> 39
 6.857223e+01 5.517973e+01 4.973980e+01 5.489027e+01 8.032449e+01 1.317812e+02 8.710204e+01 7.514596e+01 7.379650e+01 8.871883e+01 5.307388e+01 3.905793e+01 1.198338e+02 3.632029e+00 3.516602e+00 2.898481e+00 3.018318e+00 3.883327e+00 7.787028e+00 5.024761e+00 4.033968e+00 4.595876e+00 4.607431e+00 3.858982e+00 2.760331e+00 4.969378e+00 5.545020e-01 5.760145e-01 5.143891e-01 5.356374e-01 6.261104e-01 1.288130e+00 8.838978e-01 7.139260e-01 8.140743e-01 7.865354e-01 6.980217e-01 5.073572e-01 7.785755e-01
<GCONST> 1.404075e+02
<STATE> 4
<MEAN> 39
 -5.445037e+00 8.609698e-02 4.405423e+00 2.206305e+00 6.635155e+00 -6.645011e+00 1.788353e+00 1.725291e+00 -4.488879e+00 -8.004451e+00 2.197366e+00 1.802765e+00 5.947923e+01 -2.297072e-02 -1.072370e-03 7.389093e-03 -9.891953e-03 -3.769421e-03 2.662683e-02 -1.781668e-02 2.495392e-03 2.278375e-02 6.933952e-03 -5.241402e-04 1.518813e-02 -2.853568e-02 -1.349536e-03 -3.531336e-03 -9.665193e-04 1.154872e-03 9.717320e-04 1.540868e-03 -8.635927e-04 -3.333351e-03 -2.270909e-03 2.222140e-04 8.921124e-04 9.218410e-04 6.340237e-04
<VARIANCE> 39
 6.875046e+01 5.538903e+01 4.984954e+01 5.482306e+01 8.059782e+01 1.321702e+02 8.703511e+01 7.532517e+01 7.384794e+01 8.936661e+01 5.267294e+01 3.878183e+01 1.217591e+02 3.603416e+00 3.515409e+00 2.892365e+00 3.015752e+00 3.880872e+00 7.741638e+00 5.004000e+00 4.027099e+00 4.577367e+00 4.604859e+00 3.814758e+00 2.741734e+00 4.957042e+00 5.498198e-01 5.742969e-01 5.133472e-01 5.347148e-01 6.251531e-01 1.279877e+00 8.790028e-01 7.133139e-01 8.099361e-01 7.866609e-01 6.911885e-01 5.038205e-01 7.769908e-01
<GCONST> 1.403299e+02
<TRANSP> 5
 0.000000e+00 1.000000e+00 0.000000e+00 0.000000e+00 0.000000e+00
 0.000000e+00 5.936031e-01 4.063970e-01 0.000000e+00 0.000000e+00
 0.000000e+00 0.000000e+00 5.936095e-01 4.063905e-01 0.000000e+00
 0.000000e+00 0.000000e+00 0.000000e+00 6.954364e-01 3.045637e-01
 0.000000e+00 0.000000e+00 0.000000e+00 0.000000e+00 0.000000e+00
<ENDHMM>
~h "O"
<BEGINHMM>
<NUMSTATES> 5
<STATE> 2
<MEAN> 39
 -5.363810e+00 3.430693e-01 4.702489e+00 1.282029e+00 4.999021e+00 -7.486761e+00 2.210803e+00 2.503113e+00 -4.159594e+00 -9.626984e+00 1.475871e+00 2.340436e+00 5.986428e+01 -6.240188e-03 -5.239144e-03 5.806169e-03 3.968554e-03 1.507900e-02 1.107346e-02 -6.488799e-03 -1.877705e-02 -5.414319e-03 1.179090e-02 5.820570e-03 1.492833e-03 1.390162e-03 -1.101980e-03 -2.963267e-03 -7.616181e-04 2.181504e-03 2.556548e-03 1.164606e-03 -8.368146e-04 -2.855913e-03 -1.766015e-03 2.550456e-03 2.018742e-03 3.392795e-04 -8.666344e-05
<VARIANCE> 39
 7.215525e+01 6.187599e+01 4.709353e+01 5.564975e+01 8.301373e+01 1.334279e+02 7.603523e+01 7.989398e+01 7.409297e+01 9.612864e+01 5.025767e+01 3.491563e+01 1.143364e+02 4.180655e+00 3.895109e+00 2.974497e+00 3.493910e+00 4.076803e+00 8.181655e+00 5.095647e+00 4.574313e+00 4.559580e+00 5.665744e+00 3.391484e+00 2.599042e+00 5.720157e+00 6.497677e-01 6.378610e-01 5.328636e-01 6.255999e-01 6.584360e-01 1.373519e+00 9.313256e-01 8.247630e-01 8.022566e-01 9.565899e-01 6.151316e-01 4.844943e-01 9.278296e-01
<GCONST> 1.421227e+02
<STATE> 3
<MEAN> 39
 -5.383349e+00 3.226726e-01 4.715006e+00 1.297715e+00 5.044264e+00 -7.455183e+00 2.192281e+00 2.448727e+00 -4.177901e+00 -9.590774e+00 1.494345e+00 2.344430e+00 5.986613e+01 -8.788299e-03 -1.244765e-02 3.860268e-03 9.153455e-03 2.111961e-02 1.345447e-02 -8.667393e-03 -2.574189e-02 -9.982273e-03 1.798327e-02 1.059590e-02 2.269030e-03 1.197698e-03 -6.554325e-04 -2.518618e-03 -8.262331e-04 1.954910e-03 1.997886e-03 2.939508e-04 -9.816854e-04 -2.343578e-03 -1.771080e-03 2.194449e-03 1.560722e-03 2.188984e-04 -1.251374e-04
<VARIANCE> 39
 7.229247e+01 6.184696e+01 4.715438e+01 5.585529e+01 8.285926e+01 1.330906e+02 7.608627e+01 8.034817e+01 7.459284e+01 9.685835e+01 5.015895e+01 3.494849e+01 1.143652e+02 4.181042e+00 3.900347e+00 2.976561e+00 3.487025e+00 4.076270e+00 8.164134e+00 5.089096e+00 4.575704e+00 4.569947e+00 5.664888e+00 3.399851e+00 2.599500e+00 5.705921e+00 6.491082e-01 6.381715e-01 5.330018e-01 6.237136e-01 6.586056e-01 1.371135e+00 9.294885e-01 8.249237e-01 8.032945e-01 9.561867e-01 6.165608e-01 4.843403e-01 9.264888e-01
<GCONST> 1.421386e+02
<STATE> 4
<MEAN> 39
 -5.421709e+00 3.040507e-01 4.748851e+00 1.342593e+00 5.119703e+00 -7.378577e+00 2.126966e+00 2.431746e+00 -4.134134e+00 -9.521607e+00 1.516170e+00 2.347224e+00 5.982027e+01 -1.088937e-02 -1.892184e-02 9.184697e-04 1.418770e-02 2.635973e-02 1.453663e-02 -1.130120e-02 -3.225944e-02 -1.518664e-02 2.460979e-02 1.486574e-02 2.967281e-03 9.867422e-05 -3.862967e-04 -1.740842e-03 -1.072285e-03 1.536249e-03 1.276789e-03 -1.639925e-04 -9.916100e-04 -1.836057e-03 -1.599316e-03 2.033540e-03 1.199979e-03 1.778976e-04 -4.633291e-04
<VARIANCE> 39
 7.251561e+01 6.195383e+01 4.731552e+01 5.625986e+01 8.280195e+01 1.332538e+02 7.639401e+01 8.074989e+01 7.495497e+01 9.766091e+01 5.004600e+01 3.501258e+01 1.152523e+02 4.159942e+00 3.901198e+00 2.967954e+00 3.473039e+00 4.070828e+00 8.120790e+00 5.069509e+00 4.562797e+00 4.553619e+00 5.638449e+00 3.398125e+00 2.590627e+00 5.682815e+00 6.432656e-01 6.363838e-01 5.311488e-01 6.196079e-01 6.569031e-01 1.360533e+00 9.251147e-01 8.226406e-01 7.995223e-01 9.517900e-01 6.153727e-01 4.829176e-01 9.227777e-01
<GCONST> 1.420847e+02
<TRANSP> 5
 0.000000e+00 1.000000e+00 0.000000e+00 0.000000e+00 0.000000e+00
 0.000000e+00 5.936952e-01 4.063048e-01 0.000000e+00 0.000000e+00
 0.000000e+00 0.000000e+00 5.936959e-01 4.063041e-01 0.000000e+00
 0.000000e+00 0.000000e+00 0.000000e+00 6.951331e-01 3.048669e-01
 0.000000e+00 0.000000e+00 0.000000e+00 0.000000e+00 0.000000e+00
<ENDHMM>
~h "P"
<BEGINHMM>
<NUMSTATES> 5
<STATE> 2
<MEAN> 39
 -5.425439e+00 3.706421e-02 3.710851e+00 1.945791e+00 5.273714e+00 -7.205764e+00 1.542006e+00 1.704721e+00 -4.437250e+00 -8.546488e+00 2.441557e+00 2.908193e+00 5.919203e+01 1.396621e-02 2.662245e-02 -7.048063e-03 3.902311e-03 -3.199821e-03 -3.439229e-02 4.605333e-03 7.364365e-04 4.510516e-03 1.644911e-03 -8.294767e-03 -8.944897e-03 5.892396e-03 -2.784766e-03 1.420253e-05 2.511769e-03 8.877960e-04 2.414998e-03 2.839893e-03 1.665598e-04 -2.316853e-03 4.417818e-04 2.280670e-03 -2.236494e-04 -1.673899e-03 -4.826134e-04
<VARIANCE> 39
 6.838348e+01 5.913559e+01 4.956479e+01 5.584734e+01 9.247131e+01 1.336901e+02 7.870820e+01 7.848884e+01 7.334969e+01 9.221338e+01 4.607966e+01 3.459774e+01 1.250195e+02 4.160084e+00 3.771711e+00 2.925699e+00 3.324778e+00 4.556853e+00 8.620010e+00 5.255218e+00 4.693275e+00 4.446288e+00 5.846501e+00 3.222755e+00 2.499817e+00 7.138336e+00 6.645121e-01 6.191773e-01 5.171054e-01 5.903180e-01 7.400145e-01 1.479575e+00 9.697698e-01 8.626601e-01 7.747645e-01 9.780859e-01 6.020361e-01 4.675447e-01 1.089206e+00
<GCONST> 1.426730e+02
<STATE> 3
<MEAN> 39
 -5.397948e+00 1.010785e-01 3.699374e+00 1.955120e+00 5.270599e+00 -7.285817e+00 1.556468e+00 1.700091e+00 -4.422778e+00 -8.537489e+00 2.420537e+00 2.883098e+00 5.920877e+01 7.186262e-03 2.399096e-02 -1.323479e-03 4.682519e-03 2.448409e-03 -2.819448e-02 4.934915e-03 -5.188903e-03 4.606901e-03 6.341216e-03 -8.766999e-03 -1.300371e-02 7.061312e-03 -2.553343e-03 -1.334555e-03 2.366737e-03 2.381670e-04 2.247846e-03 2.428195e-03 8.955183e-05 -2.386049e-03 -1.320191e-04 1.514512e-03 -1.541152e-04 -1.634801e-03 8.858107e-04
<VARIANCE> 39
 6.828828e+01 5.875742e+01 4.949173e+01 5.612847e+01 9.305148e+01 1.344626e+02 7.874991e+01 7.907130e+01 7.384138e+01 9.256618e+01 4.627114e+01 3.465991e+01 1.244883e+02 4.182520e+00 3.776292e+00 2.940290e+00 3.338122e+00 4.590731e+00 8.691090e+00 5.272017e+00 4.716916e+00 4.468504e+00 5.898591e+00 3.243579e+00 2.504383e+00 7.158773e+00 6.682042e-01 6.205625e-01 5.192990e-01 5.915205e-01 7.440747e-01 1.489146e+00 9.733812e-01 8.670220e-01 7.790498e-01 9.850352e-01 6.056264e-01 4.678543e-01 1.091360e+00
<GCONST> 1.428212e+02
<STATE> 4
<MEAN> 39
 -5.398269e+00 1.789725e-01 3.746584e+00 1.977888e+00 5.294071e+00 -7.326097e+00 1.536260e+00 1.745365e+00 -4.323882e+00 -8.507401e+00 2.390946e+00 2.837306e+00 5.920570e+01 8.370089e-04 1.657631e-02 5.050456e-03 3.262400e-03 9.602549e-03 -2.197383e-02 4.275883e-03 -1.171678e-02 2.197866e-03 7.985004e-03 -8.197079e-03 -1.646310e-02 1.330791e-02 -1.967680e-03 -2.516388e-03 2.206623e-03 -2.695689e-04 2.417844e-03 2.136391e-03 -4.284311e-04 -2.063140e-03 -8.838603e-04 2.649559e-04 2.716035e-04 -1.213156e-03 2.219535e-03
<VARIANCE> 39
 6.851359e+01 5.847344e+01 4.947626e+01 5.653087e+01 9.385619e+01 1.358817e+02 7.916759e+01 7.980659e+01 7.432798e+01 9.304209e+01 4.649686e+01 3.475084e+01 1.246174e+02 4.202497e+00 3.778104e+00 2.954865e+00 3.350316e+00 4.619725e+00 8.757799e+00 5.289899e+00 4.734979e+00 4.474453e+00 5.945029e+00 3.264066e+00 2.504173e+00 7.173100e+00 6.699656e-01 6.212658e-01 5.215159e-01 5.920746e-01 7.469404e-01 1.493961e+00 9.758256e-01 8.699252e-01 7.801436e-01 9.891792e-01 6.082164e-01 4.671479e-01 1.091174e+00
<GCONST> 1.429628e+02
<TRANSP> 5
 0.000000e+00 1.000000e+00 0.000000e+00 0.000000e+00 0.000000e+00
 0.000000e+00 5.946353e-01 4.053647e-01 0.000000e+00 0.000000e+00
 0.000000e+00 0.000000e+00 5.946364e-01 4.053635e-01 0.000000e+00
 0.000000e+00 0.000000e+00 0.000000e+00 6.963587e-01 3.036413e-01
 0.000000e+00 0.000000e+00 0.000000e+00 0.000000e+00 0.000000e+00
<ENDHMM>
~h "R"
<BEGINHMM>
<NUMSTATES> 5
<STATE> 2
<MEAN> 39
 -5.393120e+00 -5.465676e-01 3.841560e+00 1.491916e+00 6.438082e+00 -7.092450e+00 1.612936e+00 1.093828e+00 -5.326832e+00 -9.379334e+00 2.615659e+00 3.089948e+00 6.068491e+01 1.181896e-02 -7.222249e-04 1.089076e-02 4.350399e-03 5.007147e-03 -2.124738e-02 -3.559439e-03 -8.316126e-03 -7.888103e-03 -3.577252e-03 -3.659847e-03 -6.803231e-03 2.389108e-02 -1.406043e-03 -6.269582e-04 5.381798e-04 3.150126e-04 -7.558551e-04 9.726809e-04 4.009906e-04 3.853013e-04 8.477619e-04 1.677496e-03 4.519531e-04 -6.964388e-04 -1.263646e-03
<VARIANCE> 39
 7.423127e+01 5.906537e+01 4.751657e+01 5.660909e+01 8.785702e+01 1.251414e+02 8.201141e+01 8.222848e+01 7.653230e+01 9.338584e+01 4.862725e+01 3.756435e+01 1.144342e+02 4.279577e+00 3.831892e+00 2.975646e+00 3.353294e+00 4.328571e+00 7.890419e+00 5.326601e+00 4.520253e+00 4.578338e+00 5.392721e+00 3.425349e+00 2.641156e+00 6.057663e+00 6.627156e-01 6.265224e-01 5.290481e-01 6.003228e-01 6.966199e-01 1.330567e+00 9.688765e-01 8.079568e-01 7.959921e-01 9.073418e-01 6.313310e-01 4.836854e-01 9.673566e-01
<GCONST> 1.423349e+02
<STATE> 3
<MEAN> 39
 -5.368104e+00 -5.496108e-01 3.868952e+00 1.503026e+00 6.448688e+00 -7.140604e+00 1.604484e+00 1.075458e+00 -5.343736e+00 -9.383261e+00 2.607709e+00 3.070970e+00 6.073804e+01 8.099846e-03 -1.710778e-03 1.192722e-02 5.287359e-03 2.952531e-03 -1.799223e-02 -2.491140e-03 -7.406703e-03 -5.666042e-03 1.093207e-03 -2.634500e-03 -8.574937e-03 1.940899e-02 -1.553543e-03 -3.724660e-04 2.639900e-04 3.500376e-04 -6.903516e-04 1.448251e-03 4.366165e-04 3.626569e-04 7.863785e-04 1.766905e-03 4.226570e-04 -5.288853e-04 -1.990885e-03
<VARIANCE> 39
 7.429200e+01 5.900077e+01 4.740866e+01 5.687429e+01 8.815150e+01 1.250137e+02 8.233531e+01 8.267451e+01 7.659446e+01 9.357134e+01 4.872615e+01 3.766032e+01 1.136585e+02 4.279915e+00 3.834421e+00 2.977653e+00 3.353974e+00 4.332390e+00 7.891287e+00 5.333671e+00 4.521715e+00 4.588336e+00 5.390226e+00 3.431344e+00 2.645628e+00 6.046732e+00 6.619565e-01 6.274786e-01 5.293292e-01 5.991310e-01 6.969137e-01 1.328164e+00 9.693641e-01 8.077555e-01 7.970459e-01 9.065021e-01 6.321083e-01 4.845140e-01 9.648319e-01
<GCONST> 1.423554e+02
<STATE> 4
<MEAN> 39
 -5.368868e+00 -5.306763e-01 3.921000e+00 1.532767e+00 6.462092e+00 -7.130563e+00 1.559496e+00 1.130489e+00 -5.275557e+00 -9.359680e+00 2.595528e+00 3.035600e+00 6.071540e+01 3.249748e-03 -2.048464e-03 1.225304e-02 6.562668e-03 4.048325e-04 -1.267270e-02 -8.384798e-04 -6.019219e-03 -2.695458e-03 7.142331e-03 -1.710239e-03 -1.044575e-02 1.154359e-02 -1.708279e-03 -1.447389e-04 9.711898e-05 4.393805e-04 -6.987698e-04 1.777634e-03 5.174146e-04 3.507487e-04 8.984981e-04 1.960062e-03 4.242808e-04 -4.396742e-04 -2.649009e-03
<VARIANCE> 39
 7.460413e+01 5.905907e+01 4.735966e+01 5.717704e+01 8.840953e+01 1.252852e+02 8.293301e+01 8.307077e+01 7.644950e+01 9.367919e+01 4.882718e+01 3.780115e+01 1.142199e+02 4.258563e+00 3.829233e+00 2.971213e+00 3.346470e+00 4.328378e+00 7.854547e+00 5.328475e+00 4.507678e+00 4.571815e+00 5.364532e+00 3.427388e+00 2.642702e+00 6.004676e+00 6.561422e-01 6.264769e-01 5.284389e-01 5.965135e-01 6.948096e-01 1.316424e+00 9.666082e-01 8.038694e-01 7.927574e-01 9.020538e-01 6.303334e-01 4.842093e-01 9.570656e-01
<GCONST> 1.422960e+02
<TRANSP> 5
 0.000000e+00 1.000000e+00 0.000000e+00 0.000000e+00 0.000000e+00
 0.000000e+00 5.934575e-01 4.065425e-01 0.000000e+00 0.000000e+00
 0.000000e+00 0.000000e+00 5.934691e-01 4.065309e-01 0.000000e+00
 0.000000e+00 0.000000e+00 0.000000e+00 6.951330e-01 3.048670e-01
 0.000000e+00 0.000000e+00 0.000000e+00 0.000000e+00 0.000000e+00
<ENDHMM>
~h "S"
<BEGINHMM>
<NUMSTATES> 5
<STATE> 2
<MEAN> 39
 -9.934319e+00 -7.917414e-01 6.073399e+00 -1.920779e-01 6.053463e+00 -4.977440e+00 2.612679e+00 -6.070614e-01 -5.026367e+00 -6.789575e+00 3.225194e+00 2.375827e+00 6.052480e+01 -4.024301e-02 -2.288897e-03 3.445661e-02 -2.358712e-02 8.544018e-04 -5.491150e-03 1.059617e-02 -3.695082e-02 -4.331401e-04 1.013387e-02 -6.108799e-03 -5.104018e-03 3.952394e-02 3.494319e-03 3.746190e-04 -2.527937e-03 2.015142e-03 2.029181e-03 -1.516797e-03 -2.072187e-03 1.855682e-03 8.304162e-04 -1.642323e-03 -3.211083e-04 1.649227e-04 -1.062069e-03
<VARIANCE> 39
 1.358760e+02 5.025110e+01 6.492813e+01 7.206458e+01 8.098505e+01 1.272938e+02 8.272829e+01 8.325931e+01 6.741458e+01 8.553365e+01 4.287391e+01 3.436724e+01 1.229558e+02 7.631434e+00 3.317127e+00 3.505897e+00 3.689605e+00 3.785250e+00 7.379591e+00 4.868278e+00 4.392305e+00 4.499677e+00 5.198541e+00 3.197743e+00 2.453471e+00 5.112306e+00 1.034672e+00 5.567821e-01 5.611976e-01 5.810137e-01 6.132060e-01 1.219160e+00 8.561105e-01 7.692056e-01 7.848766e-01 8.733883e-01 5.916652e-01 4.565529e-01 8.155413e-01
<GCONST> 1.425586e+02
<STATE> 3
<MEAN> 39
 -1.002726e+01 -7.997708e-01 6.149326e+00 -2.514818e-01 6.063350e+00 -4.994156e+00 2.634763e+00 -6.912612e-01 -5.023078e+00 -6.769242e+00 3.208858e+00 2.364675e+00 6.062451e+01 -2.990916e-02 -1.629041e-03 2.584303e-02 -1.767085e-02 6.551867e-03 -9.682170e-03 5.096631e-03 -3.134590e-02 1.177667e-03 6.023293e-03 -6.347044e-03 -4.770424e-03 3.719196e-02 3.799741e-03 -1.102850e-04 -3.142550e-03 1.957401e-03 2.464792e-03 -1.534143e-03 -2.333176e-03 2.088627e-03 5.933318e-04 -1.649130e-03 1.364722e-05 1.414625e-04 -4.982033e-04
<VARIANCE> 39
 1.379574e+02 5.003827e+01 6.455021e+01 7.285020e+01 8.112434e+01 1.270967e+02 8.267350e+01 8.336356e+01 6.761202e+01 8.502213e+01 4.279416e+01 3.439542e+01 1.210534e+02 7.730987e+00 3.341392e+00 3.526682e+00 3.737910e+00 3.799623e+00 7.399107e+00 4.883262e+00 4.400990e+00 4.525729e+00 5.209178e+00 3.202478e+00 2.457555e+00 5.140302e+00 1.044231e+00 5.618932e-01 5.651885e-01 5.870593e-01 6.160556e-01 1.222241e+00 8.594021e-01 7.709707e-01 7.894601e-01 8.749116e-01 5.921634e-01 4.569756e-01 8.203471e-01
<GCONST> 1.426870e+02
<STATE> 4
<MEAN> 39
 -1.011914e+01 -7.972495e-01 6.211862e+00 -2.960766e-01 6.113071e+00 -4.983922e+00 2.600158e+00 -6.976494e-01 -4.941876e+00 -6.747268e+00 3.187021e+00 2.350355e+00 6.066481e+01 -1.306506e-02 -4.250884e-03 1.254313e-02 -9.115246e-03 1.331480e-02 -1.691084e-02 -2.419905e-03 -2.256606e-02 7.071463e-04 -4.667571e-04 -5.481603e-03 -3.780711e-03 3.625436e-02 5.094942e-03 -9.348063e-04 -3.787881e-03 2.612230e-03 2.394824e-03 -2.051472e-03 -2.881015e-03 2.631066e-03 -1.888292e-04 -2.058174e-03 2.836310e-04 1.084681e-04 -2.798701e-04
<VARIANCE> 39
 1.403918e+02 4.998262e+01 6.415468e+01 7.406683e+01 8.136967e+01 1.269496e+02 8.289500e+01 8.338757e+01 6.806308e+01 8.463400e+01 4.277234e+01 3.451662e+01 1.201210e+02 7.773317e+00 3.369766e+00 3.539401e+00 3.791332e+00 3.811842e+00 7.391096e+00 4.899285e+00 4.399719e+00 4.539643e+00 5.195920e+00 3.207110e+00 2.460411e+00 5.177796e+00 1.043780e+00 5.673069e-01 5.691432e-01 5.940142e-01 6.190815e-01 1.218427e+00 8.625001e-01 7.708314e-01 7.919240e-01 8.717251e-01 5.918934e-01 4.565003e-01 8.251639e-01
<GCONST> 1.428001e+02
<TRANSP> 5
 0.000000e+00 1.000000e+00 0.000000e+00 0.000000e+00 0.000000e+00
 0.000000e+00 5.983253e-01 4.016747e-01 0.000000e+00 0.000000e+00
 0.000000e+00 0.000000e+00 5.983229e-01 4.016770e-01 0.000000e+00
 0.000000e+00 0.000000e+00 0.000000e+00 7.011928e-01 2.988072e-01
 0.000000e+00 0.000000e+00 0.000000e+00 0.000000e+00 0.000000e+00
<ENDHMM>
~h "T"
<BEGINHMM>
<NUMSTATES> 5
<STATE> 2
<MEAN> 39
 -6.224792e+00 -4.122188e-02 4.642809e+00 1.738083e+00 5.544427e+00 -6.697272e+00 2.201531e+00 6.820899e-01 -5.084252e+00 -7.964227e+00 2.365484e+00 2.302118e+00 5.942775e+01 1.676344e-02 1.366488e-02 5.239910e-04 -1.671737e-03 -1.320967e-02 -3.805248e-02 1.074036e-02 -2.861215e-04 -1.482720e-02 -8.698565e-03 -7.342561e-03 -4.047636e-03 1.833852e-02 9.947033e-05 -8.740707e-04 -5.662586e-04 8.217862e-04 5.914279e-04 -3.763610e-04 1.008346e-04 1.201826e-03 8.369954e-04 -9.945305e-04 2.817330e-04 5.853622e-04 4.344777e-04
<VARIANCE> 39
 6.493290e+01 5.605846e+01 4.700935e+01 5.316517e+01 8.892294e+01 1.222419e+02 7.955560e+01 8.345692e+01 7.052454e+01 9.041460e+01 4.463015e+01 3.523854e+01 1.214099e+02 4.230090e+00 3.843567e+00 2.969515e+00 3.301253e+00 4.333256e+00 7.719331e+00 5.202697e+00 4.908185e+00 4.744393e+00 5.983935e+00 3.168902e+00 2.506892e+00 7.463954e+00 7.030826e-01 6.441326e-01 5.391997e-01 6.018181e-01 7.059103e-01 1.310607e+00 9.528979e-01 9.073450e-01 8.478633e-01 1.033642e+00 5.892743e-01 4.673275e-01 1.232491e+00
<GCONST> 1.426120e+02
<STATE> 3
<MEAN> 39
 -6.181193e+00 -1.202143e-02 4.643242e+00 1.736327e+00 5.512476e+00 -6.796038e+00 2.227176e+00 6.864960e-01 -5.118532e+00 -7.990618e+00 2.348472e+00 2.293880e+00 5.947828e+01 1.774796e-02 9.808325e-03 -1.083906e-03 1.141688e-04 -1.140174e-02 -4.064476e-02 1.043832e-02 2.962282e-03 -1.364811e-02 -1.188679e-02 -5.975765e-03 -2.550575e-03 2.162820e-02 4.486433e-04 -1.843276e-03 -5.499857e-04 7.064173e-04 8.570096e-04 -1.278329e-03 -3.168807e-04 1.165709e-03 2.128425e-04 -1.328330e-03 6.986761e-04 5.103763e-04 1.674186e-03
<VARIANCE> 39
 6.485939e+01 5.576059e+01 4.680599e+01 5.344158e+01 8.930358e+01 1.227280e+02 7.959049e+01 8.372841e+01 7.079470e+01 9.069350e+01 4.471257e+01 3.533560e+01 1.210860e+02 4.239939e+00 3.850496e+00 2.972481e+00 3.318558e+00 4.349809e+00 7.761223e+00 5.196607e+00 4.935320e+00 4.760633e+00 6.037005e+00 3.177262e+00 2.511419e+00 7.515239e+00 7.042331e-01 6.445428e-01 5.395577e-01 6.037447e-01 7.074890e-01 1.315414e+00 9.516223e-01 9.129183e-01 8.498760e-01 1.042663e+00 5.908248e-01 4.674734e-01 1.240266e+00
<GCONST> 1.427117e+02
<STATE> 4
<MEAN> 39
 -6.130038e+00 2.316570e-02 4.658974e+00 1.744025e+00 5.491478e+00 -6.895453e+00 2.215217e+00 7.631823e-01 -5.090319e+00 -8.029379e+00 2.331758e+00 2.289546e+00 5.952053e+01 2.059109e-02 2.285336e-03 -3.462119e-03 2.027904e-03 -8.098255e-03 -4.618625e-02 8.022048e-03 6.889693e-03 -1.475086e-02 -1.724175e-02 -3.227693e-03 -8.849392e-04 2.912112e-02 8.271870e-04 -2.627801e-03 -7.289723e-04 6.224531e-04 1.347549e-03 -1.738864e-03 -9.945522e-04 9.893734e-04 -6.211537e-04 -1.650637e-03 1.030440e-03 5.218104e-04 2.491989e-03
<VARIANCE> 39
 6.503117e+01 5.555630e+01 4.667612e+01 5.391928e+01 8.985280e+01 1.236734e+02 8.000739e+01 8.403025e+01 7.109035e+01 9.112840e+01 4.489541e+01 3.554890e+01 1.214769e+02 4.238328e+00 3.853134e+00 2.972698e+00 3.337626e+00 4.363780e+00 7.796091e+00 5.182479e+00 4.951679e+00 4.751216e+00 6.076925e+00 3.183936e+00 2.514077e+00 7.564700e+00 7.009921e-01 6.433907e-01 5.393245e-01 6.054719e-01 7.074842e-01 1.314813e+00 9.478927e-01 9.159751e-01 8.462100e-01 1.048193e+00 5.918472e-01 4.671313e-01 1.243318e+00
<GCONST> 1.427898e+02
<TRANSP> 5
 0.000000e+00 1.000000e+00 0.000000e+00 0.000000e+00 0.000000e+00
 0.000000e+00 5.917374e-01 4.082626e-01 0.000000e+00 0.000000e+00
 0.000000e+00 0.000000e+00 5.917308e-01 4.082692e-01 0.000000e+00
 0.000000e+00 0.000000e+00 0.000000e+00 6.927204e-01 3.072796e-01
 0.000000e+00 0.000000e+00 0.000000e+00 0.000000e+00 0.000000e+00
<ENDHMM>
~h "U"
<BEGINHMM>
<NUMSTATES> 5
<STATE> 2
<MEAN> 39
 -6.275374e+00 1.842590e-01 5.621323e+00 1.999794e+00 7.130580e+00 -4.898611e+00 1.199507e+00 1.259630e+00 -3.709887e+00 -9.724064e+00 7.144552e-01 2.107580e+00 5.955736e+01 2.749144e-02 1.580506e-02 2.924378e-02 -4.487798e-03 7.055775e-03 -1.906186e-02 1.201842e-04 -1.125869e-03 1.298215e-02 -5.115873e-02 -4.993661e-02 -4.690943e-03 5.282575e-02 8.944807e-04 -2.409423e-03 -2.735208e-03 2.995999e-04 -8.725193e-04 -2.812564e-03 -1.012022e-03 -6.402298e-04 -1.691128e-03 1.094313e-03 2.111437e-03 1.544166e-03 1.306264e-03
<VARIANCE> 39
 7.435863e+01 6.916148e+01 5.008347e+01 5.488582e+01 7.433787e+01 1.186306e+02 7.957578e+01 7.496114e+01 7.378172e+01 9.709100e+01 5.388914e+01 3.511153e+01 1.152902e+02 4.405165e+00 4.323171e+00 3.110932e+00 3.514405e+00 3.988254e+00 7.158579e+00 5.592027e+00 4.431190e+00 4.540578e+00 6.071552e+00 3.383043e+00 2.585699e+00 5.881123e+00 6.818348e-01 6.991206e-01 5.563954e-01 6.246454e-01 6.587873e-01 1.216879e+00 1.019967e+00 8.083532e-01 8.050447e-01 1.042145e+00 6.044027e-01 4.845704e-01 9.568185e-01
<GCONST> 1.425874e+02
<STATE> 3
<MEAN> 39
 -6.207513e+00 2.143059e-01 5.685797e+00 1.989507e+00 7.145356e+00 -4.951463e+00 1.195357e+00 1.254985e+00 -3.680603e+00 -9.842130e+00 5.972064e-01 2.099243e+00 5.968874e+01 2.937115e-02 9.346864e-03 2.210246e-02 -3.678925e-03 4.877800e-03 -2.620829e-02 -3.321880e-03 -2.912841e-03 8.230836e-03 -4.734044e-02 -4.298034e-02 -9.653138e-04 5.539626e-02 8.363980e-04 -2.677382e-03 -2.941682e-03 4.258350e-05 -9.728196e-04 -3.055670e-03 -1.610580e-03 -6.890732e-04 -1.977168e-03 1.564164e-03 3.015182e-03 1.553744e-03 1.058064e-03
<VARIANCE> 39
 7.433271e+01 6.924100e+01 4.967293e+01 5.533515e+01 7.445106e+01 1.186801e+02 7.971715e+01 7.526030e+01 7.456460e+01 9.726018e+01 5.447152e+01 3.510117e+01 1.134561e+02 4.430700e+00 4.334064e+00 3.119138e+00 3.538371e+00 3.992872e+00 7.188774e+00 5.616047e+00 4.451016e+00 4.565428e+00 6.143799e+00 3.413197e+00 2.595446e+00 5.905717e+00 6.850868e-01 7.005104e-01 5.575299e-01 6.283485e-01 6.592695e-01 1.222122e+00 1.024211e+00 8.129330e-01 8.089980e-01 1.053741e+00 6.081899e-01 4.865930e-01 9.609587e-01
<GCONST> 1.427287e+02
<STATE> 4
<MEAN> 39
 -6.128850e+00 2.546928e-01 5.758152e+00 1.988150e+00 7.151711e+00 -5.007682e+00 1.151831e+00 1.310335e+00 -3.590064e+00 -9.946954e+00 4.645991e-01 2.089382e+00 5.979494e+01 2.913320e-02 1.978986e-03 1.261895e-02 -2.536344e-03 2.076218e-03 -3.332748e-02 -7.334978e-03 -5.194193e-03 2.317484e-03 -3.749239e-02 -3.102547e-02 3.055651e-03 5.374606e-02 2.218262e-04 -2.448882e-03 -3.173213e-03 1.294999e-04 -9.992619e-04 -2.802911e-03 -1.425615e-03 -7.325754e-04 -2.179356e-03 2.956508e-03 4.103683e-03 1.395572e-03 -1.568444e-04
<VARIANCE> 39
 7.427410e+01 6.926684e+01 4.932499e+01 5.590485e+01 7.474397e+01 1.191299e+02 7.999830e+01 7.561567e+01 7.542617e+01 9.751080e+01 5.529279e+01 3.511029e+01 1.121784e+02 4.426330e+00 4.321562e+00 3.120430e+00 3.554096e+00 3.986004e+00 7.208850e+00 5.623675e+00 4.459191e+00 4.569185e+00 6.188605e+00 3.444557e+00 2.599118e+00 5.905904e+00 6.824175e-01 6.975973e-01 5.569049e-01 6.301824e-01 6.572139e-01 1.223343e+00 1.023899e+00 8.149266e-01 8.088368e-01 1.059104e+00 6.113408e-01 4.871866e-01 9.600568e-01
<GCONST> 1.427934e+02
<TRANSP> 5
 0.000000e+00 1.000000e+00 0.000000e+00 0.000000e+00 0.000000e+00
 0.000000e+00 5.932556e-01 4.067443e-01 0.000000e+00 0.000000e+00
 0.000000e+00 0.000000e+00 5.932550e-01 4.067450e-01 0.000000e+00
 0.000000e+00 0.000000e+00 0.000000e+00 6.947857e-01 3.052143e-01
 0.000000e+00 0.000000e+00 0.000000e+00 0.000000e+00 0.000000e+00
<ENDHMM>
~h "Y"
<BEGINHMM>
<NUMSTATES> 5
<STATE> 2
<MEAN> 39
 -6.197254e+00 -1.376192e+00 4.395874e+00 3.412322e+00 7.363881e+00 -8.457073e+00 9.887209e-01 -5.819812e-01 -6.370377e+00 -6.393393e+00 3.895953e+00 2.191101e+00 6.033254e+01 -3.706210e-02 6.958656e-03 3.885698e-03 -8.631650e-04 -1.339735e-02 5.795333e-02 -1.288670e-02 -1.317526e-02 3.448874e-02 2.943976e-02 -1.311222e-02 -1.867419e-03 -5.392993e-02 3.700117e-03 -2.864982e-03 -3.950374e-03 -2.038043e-03 -3.685264e-03 -1.327268e-04 3.160118e-03 2.776107e-03 -3.900788e-04 -3.411362e-03 -1.131771e-03 2.280578e-03 2.039753e-03
<VARIANCE> 39
 7.430341e+01 5.701294e+01 5.294821e+01 6.214516e+01 7.712051e+01 1.339946e+02 7.909794e+01 8.546690e+01 8.713572e+01 8.924876e+01 5.021988e+01 3.701111e+01 1.209118e+02 3.934021e+00 3.650380e+00 3.096423e+00 3.209753e+00 3.722002e+00 7.106541e+00 4.541985e+00 4.050901e+00 4.773291e+00 4.213446e+00 3.353429e+00 2.480459e+00 4.848930e+00 5.821300e-01 5.821469e-01 5.179847e-01 5.369544e-01 5.937979e-01 1.115164e+00 7.856165e-01 7.045082e-01 7.663730e-01 7.140790e-01 5.959421e-01 4.503881e-01 7.421433e-01
<GCONST> 1.397362e+02
<STATE> 3
<MEAN> 39
 -6.282452e+00 -1.365027e+00 4.394023e+00 3.402205e+00 7.321249e+00 -8.310265e+00 9.641795e-01 -6.072398e-01 -6.288266e+00 -6.329081e+00 3.862753e+00 2.191767e+00 6.019915e+01 -2.857755e-02 3.337881e-04 -6.554401e-03 -5.923246e-03 -2.203998e-02 5.724483e-02 -4.718683e-03 -6.262659e-03 3.241438e-02 2.196347e-02 -1.543488e-02 3.799490e-03 -5.052032e-02 3.639634e-03 -2.357434e-03 -4.216685e-03 -1.629198e-03 -2.693936e-03 -1.492831e-03 2.702943e-03 2.141785e-03 -1.965169e-03 -2.944592e-03 -5.547334e-04 2.087959e-03 1.382793e-03
<VARIANCE> 39
 7.476322e+01 5.737827e+01 5.304612e+01 6.160184e+01 7.668220e+01 1.334761e+02 7.871148e+01 8.512334e+01 8.618083e+01 8.912852e+01 5.025320e+01 3.684098e+01 1.224912e+02 3.962342e+00 3.644064e+00 3.091683e+00 3.203128e+00 3.703798e+00 7.076979e+00 4.512176e+00 4.032232e+00 4.739621e+00 4.177443e+00 3.334141e+00 2.461373e+00 4.848526e+00 5.872290e-01 5.804873e-01 5.175179e-01 5.369782e-01 5.922515e-01 1.110143e+00 7.822192e-01 7.024088e-01 7.645729e-01 7.075860e-01 5.931181e-01 4.472156e-01 7.419624e-01
<GCONST> 1.396393e+02
<STATE> 4
<MEAN> 39
 -6.359410e+00 -1.333191e+00 4.363872e+00 3.376417e+00 7.244541e+00 -8.112567e+00 9.338274e-01 -5.339554e-01 -6.127652e+00 -6.280543e+00 3.811163e+00 2.211583e+00 5.999906e+01 -2.158072e-02 -3.888372e-03 -1.827459e-02 -1.092349e-02 -2.906998e-02 5.541594e-02 3.969920e-03 2.112575e-04 2.733685e-02 1.606137e-02 -1.667896e-02 9.092350e-03 -5.162254e-02 2.787349e-03 -7.158949e-04 -3.746286e-03 -9.900397e-04 -1.616195e-03 -1.585033e-03 2.387948e-03 1.900483e-03 -2.305153e-03 -2.275492e-03 -4.170052e-04 1.446479e-03 -4.140856e-04
<VARIANCE> 39
 7.514401e+01 5.778725e+01 5.318657e+01 6.080720e+01 7.631049e+01 1.331242e+02 7.851637e+01 8.477751e+01 8.474258e+01 8.912154e+01 5.031448e+01 3.665495e+01 1.250601e+02 3.951967e+00 3.622103e+00 3.067311e+00 3.183103e+00 3.678488e+00 7.010673e+00 4.473094e+00 3.999286e+00 4.669643e+00 4.139326e+00 3.304392e+00 2.435972e+00 4.834991e+00 5.862155e-01 5.765829e-01 5.139551e-01 5.347500e-01 5.895249e-01 1.099055e+00 7.763128e-01 6.974382e-01 7.575818e-01 7.008316e-01 5.882165e-01 4.427500e-01 7.394323e-01
<GCONST> 1.394355e+02
<TRANSP> 5
 0.000000e+00 1.000000e+00 0.000000e+00 0.000000e+00 0.000000e+00
 0.000000e+00 5.921597e-01 4.078403e-01 0.000000e+00 0.000000e+00
 0.000000e+00 0.000000e+00 5.921562e-01 4.078437e-01 0.000000e+00
 0.000000e+00 0.000000e+00 0.000000e+00 6.936037e-01 3.063963e-01
 0.000000e+00 0.000000e+00 0.000000e+00 0.000000e+00 0.000000e+00
<ENDHMM>
~h "AH"
<BEGINHMM>
<NUMSTATES> 5
<STATE> 2
<MEAN> 39
 -5.499608e+00 -1.080459e+00 3.100055e+00 1.459662e+00 4.647658e+00 -8.071138e+00 3.388750e+00 1.902076e+00 -5.455923e+00 -7.880789e+00 3.858335e+00 3.239388e+00 6.039761e+01 1.107411e-02 1.304485e-02 4.269434e-03 4.843046e-03 4.862794e-03 -2.518201e-02 -1.859301e-03 3.993996e-03 -7.288913e-03 -4.920038e-03 -1.539314e-03 -1.369449e-02 1.092467e-02 -4.870285e-04 -1.911429e-04 8.557802e-04 1.295784e-03 1.878578e-03 1.464141e-03 -1.137056e-03 -1.471518e-03 -3.581879e-05 -3.557174e-04 -8.222265e-04 -1.061296e-03 -4.465507e-04
<VARIANCE> 39
 7.569497e+01 5.733055e+01 4.938529e+01 5.502411e+01 8.281292e+01 1.324519e+02 8.037454e+01 8.639348e+01 7.327534e+01 8.711288e+01 4.705361e+01 3.819603e+01 1.251922e+02 4.131285e+00 3.744921e+00 3.019536e+00 3.161618e+00 4.004451e+00 7.680034e+00 4.725432e+00 4.405083e+00 4.426207e+00 4.684399e+00 3.468351e+00 2.705330e+00 5.768266e+00 6.331940e-01 6.100863e-01 5.269080e-01 5.582394e-01 6.487564e-01 1.258176e+00 8.293441e-01 7.810037e-01 7.705162e-01 8.031597e-01 6.359870e-01 4.920039e-01 9.129052e-01
<GCONST> 1.411288e+02
<STATE> 3
<MEAN> 39
 -5.472043e+00 -1.048741e+00 3.112200e+00 1.474339e+00 4.662954e+00 -8.131196e+00 3.382540e+00 1.908273e+00 -5.474840e+00 -7.894492e+00 3.851057e+00 3.203739e+00 6.042315e+01 9.739053e-03 1.215157e-02 6.327572e-03 8.096695e-03 9.469911e-03 -2.157266e-02 -5.141190e-03 2.864613e-05 -7.708149e-03 -5.695700e-03 -3.705251e-03 -1.617208e-02 9.454912e-03 -3.875830e-04 -6.373371e-04 6.430402e-04 9.429347e-04 1.246299e-03 1.228202e-03 -8.157220e-04 -1.444517e-03 -2.433091e-04 -4.764699e-04 -8.010525e-04 -5.882028e-04 -2.757578e-04
<VARIANCE> 39
 7.569683e+01 5.718974e+01 4.920774e+01 5.538763e+01 8.293592e+01 1.324279e+02 7.989169e+01 8.688097e+01 7.340363e+01 8.727760e+01 4.715769e+01 3.835201e+01 1.249502e+02 4.135386e+00 3.745512e+00 3.025269e+00 3.171499e+00 4.020811e+00 7.721303e+00 4.713583e+00 4.416309e+00 4.445265e+00 4.682942e+00 3.479367e+00 2.712429e+00 5.778626e+00 6.334751e-01 6.103365e-01 5.281160e-01 5.595992e-01 6.509839e-01 1.264532e+00 8.280379e-01 7.824392e-01 7.734049e-01 8.025068e-01 6.379235e-01 4.931877e-01 9.143166e-01
<GCONST> 1.411897e+02
<STATE> 4
<MEAN> 39
 -5.452011e+00 -9.835234e-01 3.150353e+00 1.502271e+00 4.685182e+00 -8.147905e+00 3.350403e+00 1.997017e+00 -5.413837e+00 -7.920218e+00 3.823306e+00 3.155332e+00 6.039851e+01 7.563058e-03 1.057209e-02 8.499331e-03 1.122406e-02 1.381650e-02 -1.613645e-02 -9.240492e-03 -4.923504e-03 -7.974972e-03 -5.440021e-03 -6.878523e-03 -1.800840e-02 5.849448e-03 -6.504322e-04 -7.416155e-04 6.198249e-04 7.345204e-04 1.008456e-03 1.776429e-03 -9.101444e-04 -1.401280e-03 -3.798449e-05 -4.412461e-05 -9.973313e-04 -3.347377e-04 -8.924880e-04
<VARIANCE> 39
 7.591058e+01 5.721889e+01 4.924731e+01 5.585512e+01 8.340723e+01 1.326068e+02 7.999216e+01 8.753545e+01 7.337743e+01 8.745591e+01 4.739050e+01 3.856952e+01 1.256470e+02 4.119106e+00 3.741305e+00 3.028412e+00 3.178194e+00 4.032702e+00 7.740270e+00 4.700235e+00 4.414061e+00 4.436810e+00 4.674257e+00 3.481858e+00 2.714205e+00 5.782926e+00 6.302201e-01 6.095555e-01 5.275978e-01 5.594531e-01 6.527631e-01 1.265926e+00 8.258265e-01 7.822095e-01 7.729919e-01 8.007808e-01 6.377377e-01 4.928029e-01 9.121009e-01
<GCONST> 1.412213e+02
<TRANSP> 5
 0.000000e+00 1.000000e+00 0.000000e+00 0.000000e+00 0.000000e+00
 0.000000e+00 5.948834e-01 4.051165e-01 0.000000e+00 0.000000e+00
 0.000000e+00 0.000000e+00 5.948842e-01 4.051158e-01 0.000000e+00
 0.000000e+00 0.000000e+00 0.000000e+00 6.971786e-01 3.028214e-01
 0.000000e+00 0.000000e+00 0.000000e+00 0.000000e+00 0.000000e+00
<ENDHMM>
~h "AX"
<BEGINHMM>
<NUMSTATES> 5
<STATE> 2
<MEAN> 39
 -5.775114e+00 -2.725583e+00 5.332230e+00 2.016392e+00 6.763496e+00 -6.893423e+00 1.166891e+00 1.231643e+00 -3.581624e+00 -1.171522e+01 1.679926e+00 2.838581e+00 6.299575e+01 8.217560e-03 1.447667e-02 -7.696734e-02 -6.048580e-02 -9.968660e-02 -9.467563e-02 4.681620e-02 4.706387e-02 -3.280348e-03 2.793565e-02 2.042060e-02 2.023502e-02 -3.846478e-02 2.608550e-04 1.179848e-02 3.419994e-03 1.512128e-03 2.917375e-03 4.008288e-03 -3.970644e-03 -1.779257e-03 6.426455e-04 7.693183e-03 -1.542590e-03 -3.911101e-03 -1.099110e-02
<VARIANCE> 39
 9.521416e+01 8.879362e+01 4.396875e+01 6.979808e+01 8.493539e+01 1.247996e+02 7.246152e+01 8.325652e+01 5.036274e+01 7.968423e+01 4.400831e+01 3.395785e+01 7.419285e+01 5.150319e+00 4.738154e+00 2.804189e+00 3.121923e+00 4.271099e+00 7.930902e+00 4.609018e+00 4.682476e+00 3.486506e+00 5.335862e+00 2.910726e+00 2.449442e+00 4.902527e+00 6.996189e-01 7.225648e-01 4.832512e-01 4.937893e-01 6.925034e-01 1.306329e+00 8.558166e-01 7.902869e-01 6.218306e-01 8.464914e-01 5.402693e-01 4.657777e-01 7.972149e-01
<GCONST> 1.402175e+02
<STATE> 3
<MEAN> 39
 -5.759495e+00 -2.645697e+00 5.149667e+00 1.868022e+00 6.520947e+00 -7.090545e+00 1.278340e+00 1.336985e+00 -3.585444e+00 -1.162636e+01 1.728746e+00 2.883513e+00 6.285330e+01 1.144385e-02 4.476845e-02 -6.692833e-02 -5.648482e-02 -8.984353e-02 -8.450648e-02 3.391525e-02 4.174915e-02 -1.323561e-03 4.549804e-02 1.411447e-02 1.059582e-02 -6.475318e-02 1.843610e-03 1.322645e-02 5.027325e-03 1.647429e-03 4.518656e-03 4.872305e-03 -6.635078e-03 -1.432050e-03 5.776834e-04 6.189335e-03 -4.001244e-03 -5.040905e-03 -1.095667e-02
<VARIANCE> 39
 9.595417e+01 8.862751e+01 4.402628e+01 6.983768e+01 8.439511e+01 1.253115e+02 7.317581e+01 8.396429e+01 5.039366e+01 7.992793e+01 4.432757e+01 3.414956e+01 7.654057e+01 5.112900e+00 4.683683e+00 2.808932e+00 3.097341e+00 4.195331e+00 7.840714e+00 4.560198e+00 4.589146e+00 3.442988e+00 5.167605e+00 2.940609e+00 2.404597e+00 4.810679e+00 6.911178e-01 7.144936e-01 4.835544e-01 4.910172e-01 6.831557e-01 1.285109e+00 8.447339e-01 7.761184e-01 6.179089e-01 8.170261e-01 5.448930e-01 4.572279e-01 7.742972e-01
<GCONST> 1.399615e+02
<STATE> 4
<MEAN> 39
 -5.689929e+00 -2.375170e+00 4.938580e+00 1.682197e+00 6.233815e+00 -7.235714e+00 1.365568e+00 1.568427e+00 -3.556334e+00 -1.151278e+01 1.741461e+00 2.882936e+00 6.251505e+01 1.506392e-02 8.223409e-02 -5.155632e-02 -5.009267e-02 -7.478555e-02 -6.461273e-02 1.602943e-02 3.420344e-02 3.636413e-03 6.408880e-02 1.960789e-03 -1.784756e-03 -9.727321e-02 1.942023e-03 1.273325e-02 6.399415e-03 2.491311e-03 6.090784e-03 6.163123e-03 -8.075495e-03 -1.464376e-03 1.230441e-03 5.251581e-03 -5.563720e-03 -5.858973e-03 -9.933176e-03
<VARIANCE> 39
 9.606440e+01 8.778018e+01 4.386473e+01 7.076859e+01 8.345948e+01 1.254924e+02 7.397285e+01 8.448296e+01 5.061234e+01 8.173898e+01 4.502980e+01 3.437218e+01 8.170908e+01 5.023384e+00 4.606654e+00 2.806711e+00 3.093987e+00 4.076835e+00 7.678246e+00 4.545891e+00 4.498712e+00 3.409996e+00 5.004488e+00 2.961654e+00 2.353343e+00 4.754003e+00 6.750602e-01 7.045559e-01 4.831094e-01 4.915661e-01 6.650037e-01 1.250002e+00 8.395982e-01 7.607896e-01 6.164289e-01 7.873247e-01 5.489313e-01 4.477310e-01 7.511016e-01
<GCONST> 1.397060e+02
<TRANSP> 5
 0.000000e+00 1.000000e+00 0.000000e+00 0.000000e+00 0.000000e+00
 0.000000e+00 5.880445e-01 4.119555e-01 0.000000e+00 0.000000e+00
 0.000000e+00 0.000000e+00 5.880446e-01 4.119553e-01 0.000000e+00
 0.000000e+00 0.000000e+00 0.000000e+00 6.880766e-01 3.119234e-01
 0.000000e+00 0.000000e+00 0.000000e+00 0.000000e+00 0.000000e+00
<ENDHMM>
~h "BH"
<BEGINHMM>
<NUMSTATES> 5
<STATE> 2
<MEAN> 39
 -5.234906e+00 8.345227e-02 5.115830e+00 2.142582e+00 6.704819e+00 -5.812114e+00 2.561445e+00 2.876177e+00 -2.907903e+00 -9.187707e+00 1.895406e+00 3.109132e+00 6.045255e+01 4.248413e-02 5.047384e-02 2.726414e-02 1.352100e-02 2.695709e-02 -3.792913e-02 1.388770e-02 1.905444e-02 -5.685050e-04 -2.393107e-02 -2.113929e-02 -1.831841e-02 4.529278e-02 -9.950078e-04 1.800597e-03 -1.208917e-03 4.394036e-04 -8.459767e-05 -6.205669e-04 -1.497591e-03 -2.234058e-03 -2.914476e-03 2.765928e-03 1.124827e-03 -2.103308e-03 -3.143372e-03
<VARIANCE> 39
 6.653218e+01 6.148386e+01 4.670205e+01 5.682129e+01 8.617820e+01 1.224741e+02 8.831128e+01 8.498740e+01 7.534677e+01 9.034569e+01 4.522255e+01 3.441438e+01 1.064036e+02 3.970879e+00 3.945912e+00 2.901073e+00 3.377811e+00 3.923753e+00 7.092755e+00 5.420733e+00 4.694201e+00 4.326777e+00 5.713348e+00 3.115747e+00 2.565208e+00 5.250847e+00 6.191797e-01 6.405057e-01 5.240117e-01 5.837804e-01 6.283198e-01 1.137734e+00 9.134182e-01 8.408306e-01 7.247630e-01 9.487096e-01 5.689108e-01 4.769557e-01 8.314927e-01
<GCONST> 1.408769e+02
<STATE> 3
<MEAN> 39
 -5.130795e+00 2.118991e-01 5.180352e+00 2.176080e+00 6.769372e+00 -5.914363e+00 2.593810e+00 2.920542e+00 -2.915107e+00 -9.238223e+00 1.845677e+00 3.057658e+00 6.056001e+01 3.884335e-02 5.142739e-02 2.324515e-02 1.293885e-02 2.554515e-02 -3.915888e-02 9.730506e-03 1.174390e-02 -7.370615e-03 -1.677134e-02 -1.694782e-02 -2.185201e-02 3.886295e-02 -1.548206e-03 -7.819704e-05 -1.835138e-03 -3.717673e-04 -6.598365e-04 -4.502452e-04 -1.669728e-03 -3.189648e-03 -2.763187e-03 3.129426e-03 1.927263e-03 -1.196485e-03 -2.445249e-03
<VARIANCE> 39
 6.526813e+01 6.023053e+01 4.663629e+01 5.715503e+01 8.607797e+01 1.223969e+02 8.856487e+01 8.515250e+01 7.619191e+01 8.998744e+01 4.550635e+01 3.441364e+01 1.043722e+02 3.968349e+00 3.901345e+00 2.927782e+00 3.392169e+00 3.930541e+00 7.127189e+00 5.463836e+00 4.704397e+00 4.363398e+00 5.742742e+00 3.142642e+00 2.575431e+00 5.248669e+00 6.213467e-01 6.351516e-01 5.281909e-01 5.868657e-01 6.288621e-01 1.142888e+00 9.190236e-01 8.429596e-01 7.306060e-01 9.529129e-01 5.729663e-01 4.795418e-01 8.320670e-01
<GCONST> 1.409305e+02
<STATE> 4
<MEAN> 39
 -5.040314e+00 3.792289e-01 5.264734e+00 2.220641e+00 6.840770e+00 -6.007500e+00 2.588845e+00 3.021029e+00 -2.869606e+00 -9.240657e+00 1.804130e+00 2.974169e+00 6.060978e+01 3.274615e-02 4.532604e-02 1.659553e-02 1.005684e-02 2.227063e-02 -4.050010e-02 4.301421e-03 1.396303e-03 -1.554439e-02 -8.839110e-03 -1.054798e-02 -2.169252e-02 3.372232e-02 -2.279746e-03 -2.199394e-03 -2.406026e-03 -9.786744e-04 -1.014536e-03 -1.174950e-04 -1.849143e-03 -3.940335e-03 -2.942577e-03 2.972052e-03 2.393667e-03 1.704311e-04 -1.929137e-03
<VARIANCE> 39
 6.410700e+01 5.858739e+01 4.671417e+01 5.782043e+01 8.627903e+01 1.227881e+02 8.944021e+01 8.514352e+01 7.717517e+01 8.967111e+01 4.596296e+01 3.466211e+01 1.032452e+02 3.939152e+00 3.841402e+00 2.948878e+00 3.410974e+00 3.931738e+00 7.154685e+00 5.492273e+00 4.697532e+00 4.379302e+00 5.735260e+00 3.181650e+00 2.590368e+00 5.237177e+00 6.188676e-01 6.277747e-01 5.311184e-01 5.893761e-01 6.273495e-01 1.145423e+00 9.208797e-01 8.418052e-01 7.332535e-01 9.505886e-01 5.788468e-01 4.830134e-01 8.290864e-01
<GCONST> 1.409546e+02
<TRANSP> 5
 0.000000e+00 1.000000e+00 0.000000e+00 0.000000e+00 0.000000e+00
 0.000000e+00 5.989801e-01 4.010199e-01 0.000000e+00 0.000000e+00
 0.000000e+00 0.000000e+00 5.989826e-01 4.010174e-01 0.000000e+00
 0.000000e+00 0.000000e+00 0.000000e+00 7.016206e-01 2.983794e-01
 0.000000e+00 0.000000e+00 0.000000e+00 0.000000e+00 0.000000e+00
<ENDHMM>
~h "CH"
<BEGINHMM>
<NUMSTATES> 5
<STATE> 2
<MEAN> 39
 -9.157740e+00 -2.077042e+00 4.978431e+00 2.731413e+00 7.042607e+00 -5.965041e+00 1.523539e+00 -3.918814e+00 -6.045367e+00 -3.115144e+00 3.232387e+00 1.793907e+00 5.872032e+01 4.371159e-02 1.210549e-01 -9.955940e-02 7.632396e-02 2.512233e-03 1.012691e-01 1.279410e-02 1.346112e-01 5.237999e-02 2.380735e-02 -2.841554e-02 -6.068602e-03 -2.458771e-01 -9.909517e-03 2.017459e-03 -2.299460e-03 -1.116358e-02 -8.852958e-03 1.435304e-02 8.197399e-03 1.738904e-02 1.023170e-02 -1.040683e-02 2.956466e-03 6.189372e-03 -7.211973e-03
<VARIANCE> 39
 9.486024e+01 6.688024e+01 5.051234e+01 5.670713e+01 6.449495e+01 1.072383e+02 6.410147e+01 8.915579e+01 6.894604e+01 9.264449e+01 4.226065e+01 3.031521e+01 1.156143e+02 5.770235e+00 4.514907e+00 3.124365e+00 3.155403e+00 3.757967e+00 6.292540e+00 4.286992e+00 3.871527e+00 4.347578e+00 4.045011e+00 3.328390e+00 2.187505e+00 4.738822e+00 7.688035e-01 7.304060e-01 5.715731e-01 5.238387e-01 6.126371e-01 9.908389e-01 7.848672e-01 6.615500e-01 7.087976e-01 6.895305e-01 6.160555e-01 4.060980e-01 7.908567e-01
<GCONST> 1.392083e+02
<STATE> 3
<MEAN> 39
 -9.069006e+00 -1.777313e+00 4.731697e+00 2.899562e+00 7.035484e+00 -5.690674e+00 1.566949e+00 -3.559586e+00 -5.895650e+00 -3.074947e+00 3.167914e+00 1.790303e+00 5.810475e+01 2.022822e-02 1.225409e-01 -1.045819e-01 4.922186e-02 -1.845537e-02 1.346451e-01 3.304392e-02 1.741192e-01 7.579917e-02 -4.522995e-04 -2.038760e-02 9.405965e-03 -2.594667e-01 -1.030409e-02 -3.610282e-03 -6.517853e-04 -1.176911e-02 -8.272462e-03 1.219625e-02 7.879452e-03 1.257294e-02 7.630910e-03 -8.349088e-03 4.139638e-03 6.585367e-03 -1.324723e-03
<VARIANCE> 39
 9.102008e+01 6.596232e+01 5.013848e+01 5.525597e+01 6.379987e+01 1.093006e+02 6.433926e+01 8.702559e+01 6.892998e+01 9.172577e+01 4.196515e+01 3.047613e+01 1.216062e+02 5.470616e+00 4.397279e+00 3.045833e+00 3.069695e+00 3.699458e+00 6.221977e+00 4.246583e+00 3.836454e+00 4.279693e+00 4.010622e+00 3.287489e+00 2.192095e+00 4.663140e+00 7.366849e-01 7.121093e-01 5.581314e-01 5.157430e-01 6.058515e-01 9.818959e-01 7.746661e-01 6.559421e-01 6.999921e-01 6.869641e-01 6.089166e-01 4.065254e-01 7.717007e-01
<GCONST> 1.387167e+02
<STATE> 4
<MEAN> 39
 -9.055854e+00 -1.459113e+00 4.464393e+00 2.998642e+00 6.967928e+00 -5.289270e+00 1.648580e+00 -3.011919e+00 -5.608395e+00 -3.090693e+00 3.117768e+00 1.835413e+00 5.739149e+01 -1.862033e-03 1.105059e-01 -1.062540e-01 2.141007e-02 -3.745874e-02 1.599600e-01 5.132679e-02 2.001319e-01 9.140631e-02 -2.023014e-02 -9.835136e-03 2.566974e-02 -2.572969e-01 -8.036314e-03 -8.346911e-03 2.298540e-04 -1.032476e-02 -6.500070e-03 7.105006e-03 6.052130e-03 6.103318e-03 2.987793e-03 -5.878758e-03 4.684257e-03 6.241820e-03 4.750824e-03
<VARIANCE> 39
 8.760163e+01 6.518184e+01 4.970122e+01 5.382328e+01 6.321488e+01 1.115084e+02 6.478210e+01 8.436730e+01 6.875276e+01 9.039912e+01 4.157190e+01 3.067350e+01 1.284406e+02 5.149790e+00 4.269491e+00 2.965101e+00 2.990351e+00 3.627089e+00 6.121502e+00 4.199232e+00 3.790881e+00 4.182487e+00 3.964755e+00 3.228415e+00 2.187207e+00 4.598392e+00 7.010820e-01 6.899940e-01 5.445774e-01 5.087526e-01 5.969732e-01 9.692989e-01 7.631572e-01 6.501909e-01 6.878161e-01 6.823954e-01 5.978853e-01 4.049006e-01 7.542175e-01
<GCONST> 1.381415e+02
<TRANSP> 5
 0.000000e+00 1.000000e+00 0.000000e+00 0.000000e+00 0.000000e+00
 0.000000e+00 5.906091e-01 4.093908e-01 0.000000e+00 0.000000e+00
 0.000000e+00 0.000000e+00 5.906130e-01 4.093870e-01 0.000000e+00
 0.000000e+00 0.000000e+00 0.000000e+00 6.915012e-01 3.084988e-01
 0.000000e+00 0.000000e+00 0.000000e+00 0.000000e+00 0.000000e+00
<ENDHMM>
~h "DH"
<BEGINHMM>
<NUMSTATES> 5
<STATE> 2
<MEAN> 39
 -5.299789e+00 -2.415181e-02 5.665703e+00 1.661314e+00 6.112358e+00 -6.067893e+00 2.481481e+00 1.943195e+00 -3.884583e+00 -9.610390e+00 2.031526e+00 2.939879e+00 6.084324e+01 1.061001e-02 2.025106e-02 1.332571e-02 -1.382074e-02 2.712653e-02 -9.854059e-03 2.023955e-02 -9.600662e-03 -6.975449e-03 -1.533864e-02 -1.018167e-02 -1.798446e-03 4.537424e-02 1.064140e-03 1.270960e-03 -1.868767e-03 8.178913e-04 4.210767e-04 -2.758604e-03 -2.560199e-03 -5.322456e-04 -1.678130e-03 7.157816e-04 9.449496e-04 -2.917306e-04 -1.222510e-03
<VARIANCE> 39
 6.336056e+01 6.443601e+01 4.555846e+01 5.322339e+01 8.797551e+01 1.277275e+02 8.546281e+01 8.701540e+01 6.576506e+01 9.426121e+01 4.663623e+01 3.582502e+01 1.031945e+02 4.014823e+00 4.582226e+00 2.835979e+00 3.449618e+00 4.119159e+00 7.498148e+00 5.129073e+00 4.953274e+00 4.187612e+00 5.945915e+00 3.356507e+00 2.682717e+00 6.287070e+00 6.325341e-01 7.631612e-01 5.059587e-01 6.100336e-01 6.572781e-01 1.201429e+00 9.000985e-01 8.960645e-01 7.247751e-01 9.703173e-01 6.147394e-01 4.983378e-01 1.037019e+00
<GCONST> 1.420716e+02
<STATE> 3
<MEAN> 39
 -5.271857e+00 3.038568e-02 5.693917e+00 1.631619e+00 6.183097e+00 -6.096706e+00 2.522682e+00 1.917982e+00 -3.905488e+00 -9.642319e+00 2.008147e+00 2.931271e+00 6.094869e+01 1.257879e-02 2.189179e-02 8.451615e-03 -1.132049e-02 2.801932e-02 -1.578770e-02 1.291080e-02 -1.110852e-02 -1.108868e-02 -1.334148e-02 -7.794808e-03 -2.547373e-03 4.134760e-02 6.043058e-04 3.134602e-04 -1.950817e-03 8.419454e-04 1.434733e-04 -2.109725e-03 -3.106201e-03 -6.662139e-04 -1.736588e-03 7.154758e-04 8.443893e-04 -3.160226e-04 -1.857566e-03
<VARIANCE> 39
 6.288236e+01 6.387819e+01 4.564177e+01 5.362210e+01 8.760683e+01 1.273495e+02 8.565154e+01 8.701203e+01 6.610959e+01 9.409187e+01 4.685914e+01 3.587389e+01 1.016520e+02 4.028491e+00 4.551313e+00 2.859546e+00 3.454099e+00 4.119866e+00 7.510793e+00 5.140679e+00 4.949221e+00 4.206297e+00 5.955917e+00 3.383576e+00 2.685269e+00 6.247407e+00 6.350228e-01 7.588719e-01 5.098568e-01 6.109603e-01 6.576976e-01 1.204297e+00 9.006395e-01 8.958960e-01 7.273762e-01 9.717919e-01 6.188926e-01 4.988282e-01 1.031510e+00
<GCONST> 1.420908e+02
<STATE> 4
<MEAN> 39
 -5.249161e+00 1.056479e-01 5.732154e+00 1.611405e+00 6.275631e+00 -6.095913e+00 2.521511e+00 1.926513e+00 -3.879851e+00 -9.649284e+00 1.976490e+00 2.911358e+00 6.101292e+01 1.281859e-02 1.974470e-02 2.277321e-03 -8.093867e-03 2.849049e-02 -1.934059e-02 3.082220e-03 -1.324929e-02 -1.569863e-02 -1.067837e-02 -5.807802e-03 -3.313545e-03 3.405655e-02 -1.343123e-04 -9.393683e-04 -2.001179e-03 7.836158e-04 -3.137750e-04 -1.098408e-03 -3.099749e-03 -8.384287e-04 -1.514808e-03 6.930355e-04 4.265272e-04 -1.445561e-04 -2.488177e-03
<VARIANCE> 39
 6.246102e+01 6.313161e+01 4.588129e+01 5.429161e+01 8.713392e+01 1.273041e+02 8.607208e+01 8.691468e+01 6.659126e+01 9.393747e+01 4.727397e+01 3.594481e+01 1.009313e+02 4.016748e+00 4.499870e+00 2.879778e+00 3.452297e+00 4.108672e+00 7.505522e+00 5.145002e+00 4.926542e+00 4.214246e+00 5.935313e+00 3.412468e+00 2.681064e+00 6.179543e+00 6.323807e-01 7.511029e-01 5.128433e-01 6.105427e-01 6.558453e-01 1.203424e+00 8.990485e-01 8.913435e-01 7.282082e-01 9.680979e-01 6.226519e-01 4.980142e-01 1.020752e+00
<GCONST> 1.420483e+02
<TRANSP> 5
 0.000000e+00 1.000000e+00 0.000000e+00 0.000000e+00 0.000000e+00
 0.000000e+00 5.973697e-01 4.026304e-01 0.000000e+00 0.000000e+00
 0.000000e+00 0.000000e+00 5.973684e-01 4.026316e-01 0.000000e+00
 0.000000e+00 0.000000e+00 0.000000e+00 6.990683e-01 3.009317e-01
 0.000000e+00 0.000000e+00 0.000000e+00 0.000000e+00 0.000000e+00
<ENDHMM>
~h "DX"
<BEGINHMM>
<NUMSTATES> 5
<STATE> 2
<MEAN> 39
 -4.784677e+00 -4.629202e-02 3.664662e+00 2.374723e+00 8.000573e+00 -6.720217e+00 8.311299e-02 1.254769e+00 -6.000463e+00 -8.590329e+00 3.105522e+00 2.383348e+00 6.006174e+01 -1.288593e-02 7.112050e-03 2.257515e-02 6.233078e-03 1.233118e-02 2.685931e-02 -5.836472e-03 -2.313519e-02 -3.703777e-03 1.358035e-02 2.407910e-03 -3.698759e-03 -5.541922e-03 -3.283129e-03 -5.052966e-04 2.892796e-03 5.395120e-04 -2.567873e-03 -5.010192e-04 3.468540e-03 -6.542723e-04 6.623684e-04 3.012056e-03 9.691162e-04 -1.729510e-03 9.813602e-04
<VARIANCE> 39
 7.662289e+01 5.383994e+01 5.402644e+01 6.872527e+01 8.366515e+01 1.313671e+02 8.005903e+01 7.264758e+01 7.857204e+01 9.398811e+01 5.244065e+01 3.803525e+01 1.292081e+02 3.629954e+00 3.744103e+00 2.994982e+00 3.558004e+00 3.964860e+00 7.789577e+00 5.127707e+00 4.043950e+00 4.793315e+00 5.064889e+00 3.587427e+00 2.648944e+00 5.895211e+00 5.549060e-01 6.262088e-01 5.147453e-01 6.082955e-01 6.572101e-01 1.262921e+00 9.387343e-01 7.418281e-01 8.466744e-01 8.784644e-01 6.429473e-01 4.891160e-01 9.364160e-01
<GCONST> 1.419297e+02
<STATE> 3
<MEAN> 39
 -4.826468e+00 -3.085969e-02 3.737228e+00 2.394861e+00 8.024611e+00 -6.656251e+00 8.134704e-02 1.190740e+00 -6.009078e+00 -8.545629e+00 3.113348e+00 2.366868e+00 6.005631e+01 -1.801679e-02 3.718601e-03 2.820237e-02 7.175663e-03 4.396547e-03 2.107629e-02 3.045608e-03 -2.652915e-02 -3.683203e-03 1.996592e-02 4.714960e-03 -6.245637e-03 -1.404938e-04 -1.265458e-03 -1.321799e-03 2.085746e-03 4.147742e-04 -3.077431e-03 -3.507302e-03 3.468880e-03 -9.881265e-04 -3.932783e-04 1.804922e-03 1.869223e-04 -9.508312e-04 2.589114e-03
<VARIANCE> 39
 7.660229e+01 5.401057e+01 5.418328e+01 6.881958e+01 8.426639e+01 1.313556e+02 8.013721e+01 7.298050e+01 7.849507e+01 9.389930e+01 5.234354e+01 3.817302e+01 1.289285e+02 3.657636e+00 3.790444e+00 3.015192e+00 3.566359e+00 3.985545e+00 7.795198e+00 5.135409e+00 4.056251e+00 4.797095e+00 5.064068e+00 3.606915e+00 2.672255e+00 5.960797e+00 5.606326e-01 6.348217e-01 5.192825e-01 6.102144e-01 6.623428e-01 1.263746e+00 9.420766e-01 7.437907e-01 8.463064e-01 8.798937e-01 6.468918e-01 4.934218e-01 9.485579e-01
<GCONST> 1.420920e+02
<STATE> 4
<MEAN> 39
 -4.916763e+00 2.965540e-02 3.869093e+00 2.444898e+00 8.003975e+00 -6.552102e+00 9.935288e-02 1.174718e+00 -5.929335e+00 -8.448410e+00 3.086920e+00 2.335877e+00 5.996519e+01 -1.795041e-02 -1.974682e-03 2.942899e-02 7.254413e-03 -6.891696e-03 5.346016e-03 1.402993e-02 -2.918871e-02 -3.802657e-03 2.225821e-02 7.075968e-03 -5.645295e-03 1.076984e-02 2.194480e-04 -1.715955e-03 4.118413e-04 -4.028469e-05 -3.104884e-03 -5.809352e-03 2.977948e-03 -5.944442e-04 -4.974134e-04 -3.134647e-05 -1.284300e-04 3.653976e-04 3.586919e-03
<VARIANCE> 39
 7.681544e+01 5.450108e+01 5.423150e+01 6.855611e+01 8.487620e+01 1.320267e+02 8.014761e+01 7.331621e+01 7.803819e+01 9.383598e+01 5.229209e+01 3.827250e+01 1.297479e+02 3.696552e+00 3.839101e+00 3.027750e+00 3.561812e+00 3.995711e+00 7.787139e+00 5.128414e+00 4.057745e+00 4.757190e+00 5.044403e+00 3.621935e+00 2.691084e+00 6.042766e+00 5.666524e-01 6.437092e-01 5.224005e-01 6.102754e-01 6.659374e-01 1.258154e+00 9.424653e-01 7.427792e-01 8.376579e-01 8.764021e-01 6.503211e-01 4.967367e-01 9.603606e-01
<GCONST> 1.421994e+02
<TRANSP> 5
 0.000000e+00 1.000000e+00 0.000000e+00 0.000000e+00 0.000000e+00
 0.000000e+00 6.000326e-01 3.999673e-01 0.000000e+00 0.000000e+00
 0.000000e+00 0.000000e+00 6.000289e-01 3.999711e-01 0.000000e+00
 0.000000e+00 0.000000e+00 0.000000e+00 7.028683e-01 2.971317e-01
 0.000000e+00 0.000000e+00 0.000000e+00 0.000000e+00 0.000000e+00
<ENDHMM>
~h "EH"
<BEGINHMM>
<NUMSTATES> 5
<STATE> 2
<MEAN> 39
 -6.182614e+00 -8.089674e-01 2.333000e+00 2.554837e+00 6.442045e+00 -7.654264e+00 1.354998e+00 -3.274396e-01 -6.374891e+00 -5.482000e+00 4.905853e+00 2.349756e+00 5.921038e+01 1.509683e-02 2.765313e-02 -1.914210e-02 -6.761758e-04 -1.124436e-02 -3.669506e-02 1.034957e-02 -8.241242e-03 6.486397e-03 3.281464e-02 1.446714e-02 -1.200894e-02 4.182789e-03 -1.712343e-03 1.891378e-03 2.151236e-03 -9.500656e-04 6.642950e-04 2.089965e-03 1.125220e-03 1.502287e-03 2.692360e-03 -1.345217e-03 -2.367969e-04 9.781488e-04 1.270177e-04
<VARIANCE> 39
 7.110726e+01 5.465907e+01 4.912141e+01 5.191626e+01 6.463551e+01 1.275240e+02 6.849612e+01 7.666580e+01 7.948703e+01 9.474052e+01 6.300988e+01 3.441627e+01 1.406301e+02 3.624120e+00 3.615923e+00 2.816985e+00 3.041529e+00 3.477427e+00 7.180681e+00 4.301294e+00 3.795789e+00 4.543735e+00 4.486339e+00 4.079146e+00 2.555225e+00 6.174045e+00 5.648838e-01 5.986568e-01 4.937024e-01 5.352939e-01 6.018850e-01 1.178521e+00 7.903540e-01 6.777567e-01 7.836347e-01 7.660648e-01 7.077430e-01 4.788001e-01 9.688082e-01
<GCONST> 1.398283e+02
<STATE> 3
<MEAN> 39
 -6.139544e+00 -7.410631e-01 2.290925e+00 2.544303e+00 6.410539e+00 -7.755709e+00 1.388372e+00 -3.476677e-01 -6.359728e+00 -5.414824e+00 4.943899e+00 2.323413e+00 5.924632e+01 1.228375e-02 3.065835e-02 -1.489862e-02 -3.879034e-03 -1.194444e-02 -3.056780e-02 1.447408e-02 -4.403710e-03 1.227209e-02 2.802111e-02 1.370560e-02 -9.215384e-03 5.687367e-03 -1.477229e-03 4.339019e-04 1.771622e-03 -1.615830e-03 -6.455880e-04 3.246753e-03 1.997870e-03 1.209874e-03 2.126447e-03 -2.203127e-03 2.283879e-04 1.475020e-03 1.223162e-03
<VARIANCE> 39
 7.096365e+01 5.446873e+01 4.922923e+01 5.189021e+01 6.464560e+01 1.271314e+02 6.827877e+01 7.683001e+01 7.942561e+01 9.449403e+01 6.380230e+01 3.450148e+01 1.407314e+02 3.655940e+00 3.627868e+00 2.839978e+00 3.051022e+00 3.492952e+00 7.264133e+00 4.291504e+00 3.792358e+00 4.588575e+00 4.474902e+00 4.110607e+00 2.557130e+00 6.280665e+00 5.692773e-01 6.008127e-01 4.979436e-01 5.376208e-01 6.059417e-01 1.186902e+00 7.879097e-01 6.769152e-01 7.907677e-01 7.639442e-01 7.120404e-01 4.795270e-01 9.802646e-01
<GCONST> 1.399611e+02
<STATE> 4
<MEAN> 39
 -6.125695e+00 -6.415759e-01 2.289139e+00 2.543264e+00 6.389621e+00 -7.786012e+00 1.389899e+00 -2.767443e-01 -6.223850e+00 -5.366714e+00 4.977958e+00 2.289303e+00 5.924381e+01 1.112542e-02 2.978456e-02 -9.836236e-03 -1.030354e-02 -1.748166e-02 -2.105123e-02 2.146198e-02 -3.172130e-04 1.641587e-02 1.747552e-02 1.116071e-02 -6.105393e-03 1.105043e-02 -1.396106e-03 -6.721180e-04 1.937824e-03 -2.134527e-03 -1.587583e-03 4.875391e-03 2.148830e-03 1.138856e-03 1.919987e-03 -3.146906e-03 -4.868380e-04 1.358664e-03 9.869487e-04
<VARIANCE> 39
 7.130515e+01 5.446663e+01 4.962718e+01 5.214659e+01 6.495640e+01 1.270206e+02 6.832861e+01 7.690287e+01 7.893972e+01 9.415462e+01 6.465526e+01 3.473842e+01 1.422031e+02 3.699799e+00 3.643598e+00 2.876898e+00 3.061519e+00 3.513808e+00 7.333845e+00 4.283010e+00 3.779299e+00 4.603217e+00 4.461125e+00 4.135638e+00 2.557287e+00 6.423320e+00 5.744491e-01 6.022934e-01 5.035110e-01 5.397045e-01 6.109224e-01 1.190331e+00 7.841469e-01 6.742121e-01 7.927014e-01 7.612584e-01 7.140146e-01 4.789658e-01 9.940640e-01
<GCONST> 1.401198e+02
<TRANSP> 5
 0.000000e+00 1.000000e+00 0.000000e+00 0.000000e+00 0.000000e+00
 0.000000e+00 5.932285e-01 4.067715e-01 0.000000e+00 0.000000e+00
 0.000000e+00 0.000000e+00 5.932276e-01 4.067724e-01 0.000000e+00
 0.000000e+00 0.000000e+00 0.000000e+00 6.957861e-01 3.042140e-01
 0.000000e+00 0.000000e+00 0.000000e+00 0.000000e+00 0.000000e+00
<ENDHMM>
~h "EX"
<BEGINHMM>
<NUMSTATES> 5
<STATE> 2
<MEAN> 39
 -7.744044e+00 -1.602482e+00 5.613476e+00 4.607334e+00 9.054033e+00 -6.179237e+00 2.521944e-01 -2.273071e+00 -6.033256e+00 -6.759675e+00 2.983935e+00 1.310863e+00 6.071030e+01 -3.259109e-02 -3.885101e-06 -5.838796e-02 -1.041373e-01 -6.031564e-02 -1.503562e-02 5.870939e-02 5.484343e-03 7.765972e-04 -3.659629e-02 -5.058356e-02 3.425734e-02 -1.819394e-02 8.104001e-03 2.163459e-03 -4.990099e-03 -7.227223e-04 -4.366836e-03 -4.621238e-03 2.001038e-03 1.274180e-02 -1.134261e-03 -7.155089e-04 2.542732e-03 1.570652e-03 -3.300638e-03
<VARIANCE> 39
 8.202920e+01 7.406590e+01 5.336987e+01 6.928242e+01 7.151531e+01 1.001729e+02 7.869527e+01 8.389726e+01 6.816073e+01 7.882435e+01 4.514547e+01 3.514745e+01 1.065030e+02 5.857384e+00 4.953171e+00 3.436522e+00 4.078043e+00 4.504122e+00 7.169100e+00 6.559206e+00 3.818471e+00 4.860348e+00 4.793445e+00 3.211940e+00 2.449612e+00 6.090201e+00 9.971095e-01 7.609475e-01 6.403943e-01 7.436211e-01 7.834202e-01 1.153969e+00 1.284081e+00 6.369429e-01 8.421888e-01 8.552421e-01 5.854256e-01 4.428759e-01 9.846510e-01
<GCONST> 1.436112e+02
<STATE> 3
<MEAN> 39
