~o
<STREAMINFO> 1 39
<VECSIZE> 39<NULLD><MFCC_D_A_0><DIAGC>
~s "silst"
<MEAN> 39
 -1.324655e+01 1.402612e+00 -5.415542e-01 4.015698e+00 4.876342e+00 4.835258e+00 3.791962e+00 3.210098e+00 -5.634437e-01 1.733082e+00 4.097854e+00 4.556521e+00 4.229135e+01 -2.081037e-01 -1.598076e-02 3.197162e-02 1.499089e-01 1.438446e-01 3.098506e-01 1.860906e-01 1.642233e-01 1.658847e-01 1.530815e-01 9.645979e-02 8.551260e-04 -2.160522e-01 6.069320e-02 -1.797562e-02 7.079439e-02 -2.201785e-02 2.223502e-02 -1.412314e-01 -3.991367e-02 -5.877767e-02 -7.560757e-02 -8.391567e-02 -5.401682e-02 -4.085774e-02 1.557582e-01
<VARIANCE> 39
 1.542275e+01 5.265738e+01 1.999916e+01 2.146519e+01 1.614882e+01 2.045984e+01 2.239295e+01 2.134683e+01 3.084774e+01 2.026591e+01 1.834622e+01 1.895802e+01 2.940487e+01 1.076064e+00 2.406227e+00 1.943660e+00 1.653332e+00 1.514539e+00 1.773807e+00 1.859022e+00 1.899542e+00 2.196717e+00 1.695526e+00 1.547947e+00 1.400508e+00 1.314094e+00 2.029025e-01 3.505551e-01 3.234642e-01 3.077103e-01 2.919447e-01 3.501159e-01 3.442677e-01 3.592620e-01 3.860257e-01 3.312153e-01 2.828327e-01 2.569411e-01 2.545715e-01
<GCONST> 1.034422e+02
~h "A"
<BEGINHMM>
<NUMSTATES> 5
<STATE> 2
<MEAN> 39
 -6.341534e-01 9.223615e-01 5.626556e+00 -3.290949e+00 -1.792752e+00 -1.588040e+01 4.359263e+00 8.099882e+00 -4.463820e-01 -1.462339e+01 8.659230e-01 3.666147e+00 6.558646e+01 2.617061e+00 8.350732e-02 -4.798526e-01 5.015388e-02 -2.068913e+00 -5.163055e+00 -1.002485e+00 2.533214e+00 -1.762303e-01 -1.909045e+00 8.728131e-01 -4.672977e-01 1.998487e+00 -5.681652e-01 -4.861210e-01 -3.263310e-01 2.217797e-01 1.184689e-01 5.337978e-01 8.930257e-02 -3.130189e-01 -4.610728e-02 4.687555e-01 2.091610e-01 3.646408e-02 -2.408621e-01
<VARIANCE> 39
 2.631699e+01 2.308188e+01 2.821835e+01 3.198409e+01 6.917599e+01 1.056560e+02 7.025149e+01 5.493026e+01 6.920070e+01 6.431551e+01 3.325352e+01 2.311516e+01 4.826335e+01 3.465610e+00 5.452695e+00 3.243591e+00 4.239104e+00 4.498518e+00 7.653831e+00 7.513648e+00 5.414818e+00 4.763406e+00 5.150828e+00 3.243791e+00 3.552175e+00 3.246085e+00 7.109475e-01 7.357343e-01 5.412003e-01 5.148920e-01 6.678796e-01 1.637705e+00 8.693352e-01 6.883584e-01 9.216827e-01 9.307020e-01 6.046731e-01 6.171306e-01 7.842007e-01
<GCONST> 1.368637e+02
<STATE> 3
<MEAN> 39
 2.433063e+00 -1.992061e+00 3.732755e+00 -2.611542e+00 -6.369226e+00 -2.574337e+01 3.747018e+00 1.305509e+01 -1.491740e+00 -1.692586e+01 4.187504e+00 2.864000e+00 7.005019e+01 4.073342e-01 -4.545472e-01 -5.250010e-01 1.247364e-01 -7.732007e-01 -1.385305e+00 2.959021e-01 7.228010e-01 -1.766462e-01 -1.112333e-01 4.618151e-01 -2.409633e-01 4.471709e-01 -5.643446e-01 3.194405e-01 1.538640e-01 8.597898e-02 6.907895e-01 1.751277e+00 2.432144e-01 -8.574459e-01 4.586367e-02 5.681232e-01 -4.243977e-01 2.118769e-02 -7.480788e-01
<VARIANCE> 39
 8.592556e+00 1.667304e+01 2.783253e+01 2.665275e+01 6.641552e+01 7.458973e+01 7.238414e+01 5.432010e+01 5.737375e+01 4.677163e+01 3.057321e+01 2.142623e+01 1.181547e+01 7.240618e-01 1.563144e+00 1.755165e+00 1.940188e+00 2.948649e+00 5.416327e+00 3.984959e+00 3.129364e+00 3.478839e+00 3.072680e+00 2.683946e+00 1.777181e+00 1.327304e+00 3.099079e-01 3.717172e-01 3.808683e-01 4.453323e-01 4.261151e-01 9.430586e-01 8.413596e-01 5.938548e-01 6.608152e-01 7.822391e-01 4.912809e-01 4.590332e-01 2.222650e-01
<GCONST> 1.185488e+02
<STATE> 4
<MEAN> 39
 1.737570e+00 -2.370598e-01 3.624710e+00 -1.648606e+00 -7.071085e+00 -2.393600e+01 6.422680e+00 1.065464e+01 -2.222794e+00 -1.534696e+01 2.817995e+00 2.588230e+00 6.814848e+01 -1.334288e-01 9.560974e-01 -1.864089e-01 3.574542e-01 1.257187e+00 2.684656e+00 -2.769872e-01 -9.854817e-01 -1.465785e-01 6.810684e-01 -7.636138e-01 -7.533540e-02 -1.583550e+00 -1.731950e-01 1.539991e-01 4.512775e-02 1.420942e-01 4.271736e-01 8.237770e-01 -2.170583e-01 -2.105292e-01 2.965913e-02 3.497560e-01 -1.224433e-01 5.922820e-03 -5.225323e-01
<VARIANCE> 39
 1.056297e+01 1.970935e+01 3.296326e+01 3.105481e+01 7.340448e+01 8.106635e+01 7.440830e+01 4.742900e+01 5.250983e+01 4.802647e+01 3.627877e+01 2.357393e+01 2.503206e+01 1.188189e+00 1.735868e+00 1.950747e+00 2.359932e+00 3.615288e+00 5.339229e+00 3.859020e+00 3.660636e+00 3.930214e+00 3.778610e+00 2.962405e+00 2.419196e+00 2.808895e+00 2.485356e-01 3.260408e-01 3.713526e-01 3.623666e-01 5.177518e-01 1.007202e+00 7.725232e-01 6.527158e-01 7.040230e-01 6.612507e-01 5.308865e-01 4.436820e-01 3.676113e-01
<GCONST> 1.231050e+02
<TRANSP> 5
 0.000000e+00 1.000000e+00 0.000000e+00 0.000000e+00 0.000000e+00
 0.000000e+00 4.061064e-01 5.938936e-01 0.000000e+00 0.000000e+00
 0.000000e+00 0.000000e+00 5.812002e-01 4.187998e-01 0.000000e+00
 0.000000e+00 0.000000e+00 0.000000e+00 6.360983e-01 3.639017e-01
 0.000000e+00 0.000000e+00 0.000000e+00 0.000000e+00 0.000000e+00
<ENDHMM>
~h "B"
<BEGINHMM>
<NUMSTATES> 5
<STATE> 2
<MEAN> 39
 2.789373e+00 6.157985e+00 3.737409e+00 7.945768e+00 3.990437e+00 -4.975096e+00 1.840223e+00 8.484409e+00 -4.021286e+00 -8.509583e+00 5.345663e-01 1.391089e+00 5.385832e+01 3.000616e-01 1.997715e+00 3.610741e-01 1.748022e+00 -7.196253e-01 1.909021e+00 3.854894e-01 7.232081e-01 1.217173e+00 2.281913e+00 -2.647668e-01 -5.044463e-01 -2.700187e+00 -4.713001e-01 -3.513443e-01 1.431843e-01 -4.530498e-01 1.289288e-01 -6.326807e-01 -2.347692e-02 -5.185817e-01 -9.556330e-02 -4.479778e-01 9.488662e-02 7.876126e-02 8.319418e-01
<VARIANCE> 39
 2.759979e+01 2.085684e+01 1.898398e+01 3.641074e+01 4.745207e+01 6.578276e+01 3.451836e+01 4.141593e+01 4.695657e+01 4.130394e+01 2.487098e+01 2.085334e+01 3.159370e+01 1.879263e+00 1.205388e+00 1.284329e+00 2.243566e+00 3.097069e+00 4.864792e+00 3.084610e+00 2.930386e+00 3.041794e+00 4.072829e+00 2.372682e+00 1.947194e+00 3.444357e+00 3.063750e-01 2.154916e-01 2.280319e-01 4.380782e-01 4.042342e-01 6.293437e-01 4.685820e-01 4.986479e-01 4.038493e-01 6.140025e-01 4.089335e-01 3.002313e-01 3.756441e-01
<GCONST> 1.169155e+02
<STATE> 3
<MEAN> 39
 1.868830e+00 1.112968e+01 5.744969e+00 1.061612e+01 3.243882e+00 -3.533158e+00 2.815732e+00 8.423359e+00 -1.367136e+00 -5.488367e+00 -4.810521e-01 -4.726887e-01 5.027019e+01 -7.086526e-01 1.843870e-01 3.563828e-01 -4.280383e-01 -2.627886e-01 -3.236691e-01 5.397578e-01 -6.370354e-01 4.281617e-01 -4.895571e-02 -3.601210e-01 4.919189e-02 4.293440e-01 -2.548058e-01 -1.012122e+00 -1.309682e-01 -7.659789e-01 2.238403e-01 -9.916129e-01 -2.029459e-01 -3.677837e-01 -4.141304e-01 -9.729460e-01 1.176934e-01 2.945390e-01 1.346275e+00
<VARIANCE> 39
 1.181128e+01 2.205669e+01 1.725612e+01 2.477357e+01 3.089971e+01 3.982695e+01 2.473875e+01 3.572704e+01 3.102887e+01 2.593521e+01 2.066739e+01 2.056726e+01 1.601727e+01 2.747866e+00 2.064260e+00 1.172753e+00 2.598376e+00 2.562196e+00 5.123701e+00 2.322939e+00 3.323595e+00 2.495978e+00 3.297099e+00 1.784664e+00 1.681371e+00 3.060702e+00 3.127858e-01 3.437090e-01 2.823065e-01 4.198323e-01 7.198465e-01 1.147632e+00 6.384321e-01 7.268610e-01 6.418952e-01 7.213500e-01 5.394859e-01 3.890936e-01 6.535786e-01
<GCONST> 1.164296e+02
<STATE> 4
<MEAN> 39
 -1.252126e+00 6.872827e+00 5.628944e+00 5.538828e+00 3.582109e+00 -5.738246e+00 4.395741e+00 4.373551e+00 -1.704084e+00 -8.678899e+00 -1.711921e+00 1.199120e+00 5.646342e+01 -3.658025e-01 -2.565305e+00 -3.717667e-01 -1.559649e+00 3.248111e-01 -3.547409e+00 -8.057419e-01 -9.320665e-01 -1.213831e+00 -2.650510e+00 5.741118e-01 7.762808e-01 4.001939e+00 2.987514e-01 -5.410618e-01 -1.385006e-01 1.233834e-01 1.481471e-01 -9.205700e-01 -5.916712e-01 2.756335e-01 -3.660204e-01 -4.086984e-01 5.156318e-01 4.106540e-02 6.375068e-01
<VARIANCE> 39
 2.053374e+01 2.482418e+01 1.852764e+01 2.540552e+01 4.480004e+01 8.829621e+01 2.392580e+01 4.445666e+01 4.339327e+01 3.992419e+01 1.700879e+01 1.680380e+01 3.912106e+01 1.911434e+00 3.483006e+00 2.582477e+00 3.403975e+00 9.523594e+00 1.215150e+01 4.693736e+00 7.465839e+00 6.845526e+00 4.843385e+00 4.423226e+00 2.676204e+00 3.469295e+00 3.733392e-01 4.810238e-01 3.908360e-01 5.543494e-01 7.687244e-01 1.456574e+00 8.817060e-01 9.466798e-01 7.176903e-01 9.631460e-01 6.236550e-01 4.451793e-01 6.770521e-01
<GCONST> 1.303358e+02
<TRANSP> 5
 0.000000e+00 1.000000e+00 0.000000e+00 0.000000e+00 0.000000e+00
 0.000000e+00 4.917035e-01 5.082965e-01 0.000000e+00 0.000000e+00
 0.000000e+00 0.000000e+00 5.929019e-01 4.070981e-01 0.000000e+00
 0.000000e+00 0.000000e+00 0.000000e+00 4.776238e-01 5.223762e-01
 0.000000e+00 0.000000e+00 0.000000e+00 0.000000e+00 0.000000e+00
<ENDHMM>
~h "C"
<BEGINHMM>
<NUMSTATES> 5
<STATE> 2
<MEAN> 39
 -1.460637e+01 2.425934e-01 9.512923e+00 -1.014690e+00 4.853811e+00 -1.744425e+00 5.010097e+00 -2.891194e+00 -2.911122e+00 -3.029801e+00 6.978980e-01 2.525208e+00 5.526817e+01 -2.351554e+00 -2.272851e+00 4.993333e-01 -3.493778e-01 -9.451619e-01 2.120278e-01 -1.398418e-01 4.376849e-01 9.813005e-01 3.540543e-01 3.206336e-01 2.605738e-01 3.404505e-01 -1.150253e-01 -8.208815e-01 1.301301e-01 1.766276e-01 1.118652e-02 -3.128491e-01 -1.560051e-01 -2.220606e-02 -1.214670e-01 -5.035522e-01 3.158467e-01 3.502864e-02 1.031240e+00
<VARIANCE> 39
 3.784127e+01 4.872905e+01 4.757514e+01 4.784451e+01 4.768264e+01 4.526143e+01 4.341788e+01 5.801407e+01 4.740378e+01 4.010339e+01 2.615956e+01 3.025172e+01 5.678358e+01 5.101877e+00 6.655395e+00 6.183298e+00 4.210538e+00 4.657774e+00 4.156465e+00 5.263447e+00 4.692440e+00 4.076890e+00 5.210628e+00 2.778059e+00 2.563249e+00 9.408500e+00 9.075575e-01 8.613116e-01 1.268676e+00 8.092157e-01 8.617241e-01 7.120506e-01 1.008209e+00 1.029712e+00 7.439160e-01 7.555845e-01 5.083619e-01 4.739418e-01 1.168706e+00
<GCONST> 1.383996e+02
<STATE> 3
<MEAN> 39
 -2.623501e+01 -1.536407e+01 1.432137e+01 -4.703806e-01 1.789333e+00 -3.134656e+00 3.630985e+00 -2.854384e+00 5.699964e-01 -5.175222e+00 4.792308e+00 3.557704e+00 6.675275e+01 -6.746566e-01 -1.618450e+00 6.945198e-01 6.173174e-01 9.704795e-01 7.755039e-02 -7.188067e-01 -1.573438e+00 -2.156678e-01 -2.966660e-01 8.772638e-01 1.393386e-01 2.430951e+00 2.064657e+00 1.541517e+00 -6.558459e-01 2.464529e-01 8.040678e-01 -9.339146e-02 -2.987954e-01 -3.511717e-01 -9.276416e-01 -1.037567e-01 -2.487084e-01 -1.676663e-01 -7.481852e-01
<VARIANCE> 39
 2.084206e+01 2.416394e+01 2.352025e+01 2.942820e+01 2.259596e+01 1.986374e+01 3.294731e+01 3.687558e+01 2.694766e+01 3.345268e+01 2.253929e+01 2.305195e+01 1.823645e+01 1.009696e+01 6.825962e+00 3.684593e+00 2.850113e+00 3.777071e+00 2.995638e+00 3.111541e+00 3.087659e+00 3.891086e+00 2.745857e+00 2.505206e+00 1.948180e+00 3.927197e+00 9.987969e-01 6.168465e-01 8.362947e-01 5.183533e-01 5.798928e-01 6.875864e-01 8.631148e-01 8.143413e-01 8.427979e-01 6.100020e-01 4.815203e-01 4.180837e-01 4.539306e-01
<GCONST> 1.245533e+02
<STATE> 4
<MEAN> 39
 -1.304593e+01 -9.764194e+00 1.207474e+01 3.084155e+00 9.288772e+00 -3.011908e+00 -6.597053e-02 -8.707958e+00 -6.657911e+00 -8.353926e+00 4.267619e+00 3.445550e+00 6.777414e+01 5.960895e+00 2.354328e+00 -2.013729e+00 6.511897e-01 1.542786e+00 -2.134337e+00 -9.940855e-01 -7.990176e-02 -3.477277e+00 -1.794641e+00 3.504834e-01 -4.660948e-01 2.590842e-01 1.343313e-01 1.191915e-01 -6.010982e-01 -2.956864e-01 -6.347654e-01 -7.929977e-01 2.619947e-01 9.741651e-01 1.446191e-01 -1.184051e-01 8.368026e-02 -6.638128e-02 -2.873182e-01
<VARIANCE> 39
 1.087453e+02 2.867890e+01 2.914261e+01 3.480084e+01 3.503806e+01 4.495311e+01 3.344915e+01 2.993345e+01 5.245442e+01 5.198871e+01 2.511961e+01 2.597077e+01 1.432471e+01 5.157089e+00 3.373527e+00 4.138897e+00 3.448074e+00 3.892087e+00 6.378234e+00 5.478813e+00 4.885067e+00 4.441356e+00 4.739142e+00 3.558389e+00 3.196224e+00 1.392711e+00 2.496793e+00 8.037325e-01 6.462216e-01 3.746825e-01 5.854263e-01 8.540223e-01 7.566658e-01 5.894507e-01 1.299494e+00 6.086164e-01 4.880155e-01 4.047789e-01 3.353340e-01
<GCONST> 1.306203e+02
<TRANSP> 5
 0.000000e+00 1.000000e+00 0.000000e+00 0.000000e+00 0.000000e+00
 0.000000e+00 7.763951e-01 2.236049e-01 0.000000e+00 0.000000e+00
 0.000000e+00 0.000000e+00 6.607447e-01 3.392553e-01 0.000000e+00
 0.000000e+00 0.000000e+00 0.000000e+00 5.560051e-01 4.439950e-01
 0.000000e+00 0.000000e+00 0.000000e+00 0.000000e+00 0.000000e+00
<ENDHMM>
~h "D"
<BEGINHMM>
<NUMSTATES> 5
<STATE> 2
<MEAN> 39
 1.390645e-01 9.440299e+00 7.416806e+00 7.972426e+00 4.575904e+00 -8.396824e-01 2.703566e+00 4.501540e+00 -4.478179e+00 -6.370555e+00 -6.768789e-02 1.293655e+00 5.158586e+01 1.201835e-01 1.440526e+00 -1.749817e-01 1.044056e+00 -3.742417e-01 1.045247e+00 1.928897e-02 3.633092e-01 6.698414e-01 1.369755e+00 -2.359269e-01 -1.529871e-01 -1.903238e+00 -6.718538e-01 -8.726152e-01 2.221198e-02 -6.058709e-01 2.628952e-01 -4.409759e-01 3.231842e-02 -8.237446e-01 -2.809031e-01 -5.369983e-01 7.959940e-02 9.411488e-02 1.277424e+00
<VARIANCE> 39
 2.338323e+01 2.463786e+01 1.976375e+01 2.896161e+01 5.821085e+01 4.711448e+01 4.880489e+01 5.323476e+01 3.806861e+01 3.737301e+01 3.046853e+01 2.114905e+01 2.621420e+01 3.072075e+00 1.877737e+00 1.705795e+00 2.284526e+00 2.704319e+00 3.089386e+00 3.184445e+00 3.832013e+00 2.443514e+00 3.602637e+00 2.168665e+00 1.515928e+00 4.122057e+00 5.187408e-01 4.801269e-01 3.567634e-01 4.463095e-01 5.898342e-01 4.850314e-01 6.404638e-01 9.333528e-01 4.596148e-01 5.812671e-01 5.150443e-01 3.946819e-01 9.197382e-01
<GCONST> 1.216859e+02
<STATE> 3
<MEAN> 39
 -1.651667e+00 1.112570e+01 7.543510e+00 8.339252e+00 5.160549e+00 6.398571e-01 3.494350e+00 2.598619e+00 -3.389151e+00 -4.766430e+00 -8.941731e-01 8.443491e-01 5.035162e+01 -2.477470e+00 -2.215208e+00 3.072598e-01 -1.223760e+00 7.354502e-01 1.550848e-01 5.506851e-01 -2.863281e+00 -4.242358e-01 -2.663149e-01 -1.744046e-01 2.905787e-01 3.172055e+00 -1.610479e-01 -1.368373e+00 7.181385e-02 -6.003149e-01 5.303511e-01 -9.445370e-01 -4.904952e-01 -6.244438e-01 -7.103490e-01 -1.080834e+00 3.456340e-01 2.081329e-01 1.840067e+00
<VARIANCE> 39
 2.283169e+01 2.255477e+01 1.883288e+01 2.496298e+01 4.306295e+01 3.394798e+01 3.587403e+01 4.635946e+01 3.025482e+01 3.052699e+01 2.705085e+01 1.918702e+01 2.673016e+01 2.585013e+00 3.716455e+00 1.954754e+00 2.824514e+00 4.112261e+00 3.961909e+00 5.140788e+00 5.142185e+00 3.968916e+00 3.903928e+00 3.001368e+00 2.614366e+00 4.845142e+00 5.581955e-01 4.075106e-01 3.791851e-01 5.018219e-01 7.380526e-01 9.447557e-01 9.357692e-01 8.970402e-01 6.320491e-01 8.237831e-01 7.146211e-01 5.307895e-01 5.491158e-01
<GCONST> 1.256622e+02
<STATE> 4
<MEAN> 39
 -9.035336e+00 8.678454e-01 8.380692e+00 3.017225e+00 7.957627e+00 -1.379362e-01 4.130127e+00 -6.996495e+00 -6.236302e+00 -8.045057e+00 -8.279411e-01 2.487520e+00 6.469717e+01 -4.743090e-01 -3.290794e+00 1.516135e-01 -1.308808e+00 1.628246e+00 -2.423299e+00 -1.784244e+00 -1.915742e+00 -1.962367e+00 -2.786925e+00 7.812138e-01 6.548898e-01 4.504667e+00 1.069480e+00 2.612067e-01 -1.426674e-01 3.106805e-01 8.016792e-02 -8.998709e-01 -6.973059e-01 1.089639e+00 -1.077675e-01 -3.941635e-01 3.351617e-01 -7.547747e-02 -5.542395e-01
<VARIANCE> 39
 1.957090e+01 2.065083e+01 1.601537e+01 2.698153e+01 3.673728e+01 3.368487e+01 5.227815e+01 4.230635e+01 4.502412e+01 4.838636e+01 2.310798e+01 1.928650e+01 5.144670e+01 3.452392e+00 3.510068e+00 2.403455e+00 3.361432e+00 6.427840e+00 7.539220e+00 6.994015e+00 7.232894e+00 4.448245e+00 6.817809e+00 5.236169e+00 3.854702e+00 5.084204e+00 4.061256e-01 7.469674e-01 3.985292e-01 6.574541e-01 6.649598e-01 1.032663e+00 1.161171e+00 9.722251e-01 1.045860e+00 1.056638e+00 6.905678e-01 4.883278e-01 1.145923e+00
<GCONST> 1.330905e+02
<TRANSP> 5
 0.000000e+00 1.000000e+00 0.000000e+00 0.000000e+00 0.000000e+00
 0.000000e+00 6.073254e-01 3.926745e-01 0.000000e+00 0.000000e+00
 0.000000e+00 0.000000e+00 4.096157e-01 5.903844e-01 0.000000e+00
 0.000000e+00 0.000000e+00 0.000000e+00 4.696347e-01 5.303653e-01
 0.000000e+00 0.000000e+00 0.000000e+00 0.000000e+00 0.000000e+00
<ENDHMM>
~h "E"
<BEGINHMM>
<NUMSTATES> 5
<STATE> 2
<MEAN> 39
 -2.837790e+00 -4.189633e+00 5.119134e+00 6.611812e+00 1.760998e+01 -1.498437e+01 -5.739530e+00 -6.842845e+00 -1.633609e+01 -9.702892e+00 7.651250e+00 7.452406e-01 6.858575e+01 8.059137e-01 -5.656906e-01 -3.486500e-02 3.212840e-01 8.929128e-01 -2.277300e+00 -1.224839e+00 -4.752612e-01 -1.706923e+00 -3.662033e-01 1.203634e+00 -3.400253e-01 1.212583e+00 -4.002687e-01 2.721933e-01 2.427286e-02 -1.472467e-01 -7.190682e-01 1.017122e+00 5.065500e-01 3.145686e-01 9.846630e-01 4.137402e-01 -5.524166e-01 1.210234e-03 -8.141885e-01
<VARIANCE> 39
 1.540175e+01 1.706398e+01 3.366471e+01 4.463482e+01 2.930330e+01 6.035562e+01 6.516809e+01 5.166432e+01 6.273152e+01 7.367847e+01 3.717699e+01 3.348074e+01 2.907533e+01 2.746926e+00 2.683466e+00 2.517065e+00 2.915134e+00 3.059490e+00 6.260913e+00 5.252315e+00 3.722122e+00 5.033185e+00 5.499288e+00 3.477104e+00 2.655021e+00 3.759370e+00 5.376495e-01 5.738914e-01 5.042102e-01 5.294604e-01 5.447549e-01 9.866520e-01 9.623795e-01 6.839595e-01 8.590958e-01 8.182089e-01 7.902445e-01 5.515635e-01 5.593379e-01
<GCONST> 1.305827e+02
<STATE> 3
<MEAN> 39
 -2.812140e+00 -4.361320e+00 6.340766e+00 6.368116e+00 1.642795e+01 -1.600235e+01 -7.099503e+00 -8.062526e+00 -1.625926e+01 -7.439872e+00 6.628812e+00 -3.258472e-01 6.791194e+01 -8.822350e-02 9.277954e-01 1.075801e-01 -1.323151e-01 -7.095872e-01 1.293140e+00 4.908901e-01 1.800719e-01 8.031926e-01 5.087172e-01 -6.874976e-01 6.432045e-02 -1.431396e+00 -1.362075e-01 2.780971e-01 -3.617934e-02 9.837049e-02 -2.938693e-01 6.001866e-01 2.834180e-01 2.415599e-01 4.753833e-01 1.377856e-01 -2.692048e-01 4.419426e-02 -5.671148e-01
<VARIANCE> 39
 1.015975e+01 1.734742e+01 2.766792e+01 4.662071e+01 2.796300e+01 5.523949e+01 7.179230e+01 5.295023e+01 5.126233e+01 8.543608e+01 3.623853e+01 3.571018e+01 2.421070e+01 9.139906e-01 1.500055e+00 1.593519e+00 1.863996e+00 1.905525e+00 3.374432e+00 3.564956e+00 2.647844e+00 3.008537e+00 2.942025e+00 2.115936e+00 1.693391e+00 2.410486e+00 2.208757e-01 2.432878e-01 2.895370e-01 3.742650e-01 3.832949e-01 5.951959e-01 6.709104e-01 4.642555e-01 5.939642e-01 5.838380e-01 4.846095e-01 3.592024e-01 2.701271e-01
<GCONST> 1.162745e+02
<STATE> 4
<MEAN> 39
 -5.912724e+00 1.804835e+00 4.510985e+00 6.339222e+00 1.058039e+01 -6.268262e+00 -3.546488e+00 -5.893525e+00 -8.952093e+00 -2.866706e+00 3.430961e+00 1.307819e+00 5.477998e+01 -7.657715e-01 7.184342e-01 -2.601138e-01 1.036348e-01 -1.092577e+00 1.877941e+00 6.948025e-01 9.195693e-01 1.660016e+00 5.783946e-01 -5.271063e-01 1.966427e-01 -2.086903e+00 -1.718644e-01 -3.538359e-01 3.834118e-02 -1.751317e-01 6.117109e-02 -2.240470e-01 1.136385e-02 4.266548e-02 -2.367441e-02 -1.224345e-01 4.590207e-02 -4.237146e-02 4.642996e-01
<VARIANCE> 39
 3.254696e+01 3.176037e+01 3.216594e+01 4.190759e+01 4.013132e+01 5.472386e+01 5.742123e+01 5.202420e+01 5.303363e+01 7.518885e+01 3.102323e+01 2.920351e+01 8.135994e+01 2.509889e+00 2.700329e+00 2.808887e+00 3.158578e+00 3.193105e+00 4.270063e+00 4.801302e+00 3.557641e+00 3.700341e+00 3.856277e+00 3.098594e+00 2.231038e+00 4.043062e+00 4.313012e-01 4.395351e-01 4.745550e-01 5.631769e-01 5.669175e-01 6.649001e-01 8.018807e-01 6.101903e-01 5.856417e-01 5.923507e-01 4.673029e-01 3.863744e-01 6.984221e-01
<GCONST> 1.287533e+02
<TRANSP> 5
 0.000000e+00 1.000000e+00 0.000000e+00 0.000000e+00 0.000000e+00
 0.000000e+00 5.824049e-01 4.175951e-01 0.000000e+00 0.000000e+00
 0.000000e+00 0.000000e+00 7.127149e-01 2.872851e-01 0.000000e+00
 0.000000e+00 0.000000e+00 0.000000e+00 5.752556e-01 4.247445e-01
 0.000000e+00 0.000000e+00 0.000000e+00 0.000000e+00 0.000000e+00
<ENDHMM>
~h "G"
<BEGINHMM>
<NUMSTATES> 5
<STATE> 2
<MEAN> 39
 -2.132434e+00 7.207309e+00 5.326542e+00 8.166363e+00 9.085721e+00 -4.571073e+00 2.457391e-01 1.731730e+00 -4.512292e+00 -4.380934e+00 2.529440e+00 -1.879199e+00 5.329249e+01 -4.176524e-01 1.223977e+00 2.871918e-01 2.586100e-01 -2.086026e-01 9.261540e-01 3.557252e-01 -4.587956e-01 5.137321e-01 8.208817e-01 -4.405402e-01 -3.917863e-01 -1.009390e+00 -2.201038e-01 -7.147424e-01 7.663968e-02 -5.706207e-01 2.003911e-02 -5.225453e-01 9.269234e-02 -1.785523e-01 -3.315510e-01 -6.648931e-01 8.245488e-02 1.685375e-01 1.085726e+00
<VARIANCE> 39
 3.999514e+01 3.170187e+01 3.058299e+01 5.400666e+01 5.162859e+01 6.186905e+01 6.840391e+01 5.183419e+01 6.338308e+01 5.582104e+01 4.403479e+01 3.012181e+01 4.236311e+01 2.779799e+00 2.390579e+00 2.138279e+00 3.364933e+00 3.342623e+00 3.578451e+00 6.240278e+00 3.626200e+00 4.119313e+00 3.442449e+00 2.895002e+00 2.776577e+00 3.344073e+00 5.927355e-01 5.105157e-01 3.919169e-01 7.432337e-01 6.524966e-01 6.252386e-01 1.132988e+00 7.240579e-01 7.060837e-01 7.088341e-01 6.042262e-01 5.167272e-01 5.310314e-01
<GCONST> 1.309813e+02
<STATE> 3
<MEAN> 39
 -2.699955e+00 8.973310e+00 7.077375e+00 8.070482e+00 9.720694e+00 -4.047311e+00 1.660273e-01 -2.463073e-01 -3.685464e+00 -3.506806e+00 1.095891e+00 -3.462350e+00 5.358639e+01 -1.081335e+00 -6.329744e-01 -4.794454e-02 -1.585400e+00 -2.833409e-01 -2.689726e-01 1.395713e+00 -6.071512e-01 -3.517461e-01 -8.207095e-01 1.637742e-02 3.438459e-02 1.701085e+00 -9.153222e-02 -9.498899e-01 -5.972582e-02 -5.236683e-01 -5.092997e-02 -6.148040e-01 -3.887092e-02 1.771355e-01 -2.994892e-01 -8.351077e-01 2.067621e-01 3.593778e-01 1.068510e+00
<VARIANCE> 39
 2.467745e+01 3.419889e+01 2.767833e+01 5.246856e+01 4.805530e+01 4.976971e+01 5.673647e+01 4.661539e+01 5.617739e+01 5.128164e+01 3.735028e+01 2.697739e+01 3.827250e+01 4.565606e+00 3.324085e+00 3.058780e+00 5.676061e+00 4.845664e+00 4.960804e+00 9.794804e+00 4.904156e+00 5.250313e+00 4.091557e+00 4.273561e+00 3.509304e+00 3.309487e+00 6.829390e-01 4.101606e-01 5.050043e-01 8.429047e-01 6.456842e-01 8.325483e-01 1.525911e+00 7.773614e-01 7.751598e-01 7.866673e-01 6.165228e-01 5.309626e-01 6.198310e-01
<GCONST> 1.348134e+02
<STATE> 4
<MEAN> 39
 -6.897684e+00 4.952615e+00 5.681659e+00 2.947491e-01 7.504419e+00 -4.992982e+00 6.446700e+00 -1.848534e-01 -4.814212e+00 -8.288790e+00 2.235727e+00 -1.795214e+00 6.088451e+01 -9.754696e-02 -1.956036e+00 3.252706e-01 -1.255021e+00 -2.483032e-01 -1.597073e+00 -4.910053e-01 6.170664e-02 -7.176070e-01 -2.234035e+00 -3.891276e-02 9.764962e-01 2.665406e+00 7.958296e-01 -3.397572e-01 1.254639e-01 6.668373e-01 1.667040e-01 -6.368632e-01 -1.188216e+00 2.821591e-01 -4.161593e-02 -2.985417e-01 -8.149452e-02 2.657330e-01 4.402662e-02
<VARIANCE> 39
 2.512589e+01 4.340123e+01 3.295880e+01 7.055422e+01 8.340117e+01 6.051067e+01 8.417633e+01 6.638459e+01 7.290577e+01 5.323155e+01 3.609166e+01 2.795569e+01 3.726820e+01 3.727266e+00 3.161473e+00 3.640997e+00 6.423880e+00 5.796235e+00 6.291171e+00 9.828748e+00 5.443656e+00 5.451632e+00 5.173413e+00 4.720288e+00 3.722361e+00 3.253146e+00 5.320815e-01 5.971900e-01 7.118177e-01 1.244042e+00 8.601738e-01 1.126148e+00 1.949279e+00 9.509950e-01 9.710539e-01 8.205699e-01 8.431332e-01 5.801049e-01 6.208137e-01
<GCONST> 1.408555e+02
<TRANSP> 5
 0.000000e+00 1.000000e+00 0.000000e+00 0.000000e+00 0.000000e+00
 0.000000e+00 4.143767e-01 5.856233e-01 0.000000e+00 0.000000e+00
 0.000000e+00 0.000000e+00 3.278399e-01 6.721601e-01 0.000000e+00
 0.000000e+00 0.000000e+00 0.000000e+00 4.375439e-01 5.624561e-01
 0.000000e+00 0.000000e+00 0.000000e+00 0.000000e+00 0.000000e+00
<ENDHMM>
~h "H"
<BEGINHMM>
<NUMSTATES> 5
<STATE> 2
<MEAN> 39
 -5.748986e+00 -3.230543e-01 7.195730e+00 -3.994430e+00 4.531992e+00 -3.535244e+00 1.133542e+01 6.206099e+00 1.175741e+00 -7.568535e+00 2.593759e+00 5.530412e+00 6.303204e+01 -7.762268e-01 -7.684146e-01 2.774100e-03 -8.400763e-01 -4.952262e-01 1.930276e+00 1.795450e+00 8.759777e-01 1.626930e+00 1.125144e+00 -5.343980e-01 3.670336e-01 -7.327391e-01 2.605615e-01 -9.397209e-02 -1.679154e-01 1.779121e-01 -1.330008e-01 -6.757457e-01 -4.802327e-01 -6.013045e-02 -4.102382e-01 -3.269360e-01 7.036672e-02 -2.418437e-01 2.351147e-01
<VARIANCE> 39
 1.624690e+01 2.595071e+01 3.080496e+01 2.464395e+01 8.696610e+01 5.519302e+01 4.763050e+01 7.197501e+01 5.822163e+01 4.704929e+01 3.011562e+01 2.534419e+01 2.790017e+01 1.188801e+00 2.156777e+00 3.100381e+00 2.297746e+00 4.347989e+00 4.497940e+00 4.217904e+00 4.527238e+00 3.928845e+00 4.007780e+00 2.654279e+00 2.394340e+00 1.142951e+00 1.435382e-01 4.153072e-01 3.896709e-01 3.162522e-01 4.609435e-01 5.976013e-01 5.648530e-01 5.854736e-01 7.094331e-01 5.686274e-01 4.374779e-01 4.316561e-01 1.089111e-01
<GCONST> 1.203173e+02
<STATE> 3
<MEAN> 39
 -6.805131e+00 -2.887945e+00 6.278831e+00 -6.382926e+00 1.245041e+00 -1.625702e+00 1.437513e+01 8.734694e+00 4.358118e+00 -5.785866e+00 1.489207e+00 5.404013e+00 6.204860e+01 3.459477e-01 5.849930e-01 3.917796e-01 1.693754e-01 -2.553584e-01 -3.748630e-01 -6.319418e-02 3.067901e-01 4.289158e-02 -3.391993e-01 -3.105031e-01 -5.825061e-01 -6.580095e-03 4.868446e-01 5.593781e-01 5.090287e-02 3.300025e-01 5.035564e-02 -9.756912e-01 -6.948802e-01 -1.903722e-01 -5.686122e-01 -6.222290e-01 1.212801e-01 -2.095510e-01 3.099710e-01
<VARIANCE> 39
 1.444797e+01 2.780443e+01 3.101560e+01 2.937511e+01 7.441020e+01 3.718417e+01 4.839801e+01 5.800708e+01 4.869226e+01 3.742862e+01 2.470778e+01 2.346447e+01 2.378282e+01 8.787838e-01 2.055092e+00 1.366249e+00 1.425987e+00 3.021280e+00 2.842982e+00 2.249468e+00 2.365438e+00 2.530041e+00 2.570027e+00 1.737181e+00 1.569249e+00 5.906369e-01 1.398710e-01 3.095709e-01 4.239511e-01 3.291540e-01 4.016128e-01 6.748307e-01 5.418975e-01 4.930158e-01 4.992397e-01 5.579800e-01 3.983849e-01 3.436532e-01 9.185535e-02
<GCONST> 1.114328e+02
<STATE> 4
<MEAN> 39
 -4.270266e+00 2.220978e+00 8.119683e+00 -4.077620e+00 1.702976e+00 -6.088402e+00 1.093197e+01 8.147806e+00 1.500520e+00 -9.064731e+00 1.181311e+00 2.817761e+00 6.265009e+01 1.578016e+00 1.037526e+00 -3.476077e-01 4.591282e-01 -5.079761e-01 -3.276603e+00 -1.603800e+00 -1.922479e-02 -1.458133e+00 -1.774288e+00 3.532037e-01 -6.393421e-01 1.244818e+00 1.381066e-01 -4.883299e-01 -5.331362e-01 1.203863e-01 9.857969e-02 -5.051115e-01 -3.284056e-01 -6.800027e-02 -4.334924e-01 -1.955841e-01 2.422231e-01 1.731936e-01 2.580316e-01
<VARIANCE> 39
 1.940502e+01 3.266317e+01 3.493789e+01 2.677852e+01 7.749962e+01 5.665535e+01 5.594555e+01 5.758926e+01 5.090208e+01 4.576776e+01 2.728651e+01 2.122679e+01 3.463683e+01 1.090458e+00 2.983386e+00 2.904959e+00 2.868204e+00 3.023521e+00 4.766566e+00 3.009041e+00 2.477354e+00 3.519789e+00 3.057526e+00 2.209033e+00 1.919689e+00 1.127582e+00 1.974952e-01 5.393408e-01 2.940570e-01 3.646083e-01 4.298702e-01 7.899569e-01 4.885759e-01 4.249877e-01 5.447620e-01 4.893132e-01 3.723637e-01 3.442243e-01 1.636887e-01
<GCONST> 1.187019e+02
<TRANSP> 5
 0.000000e+00 1.000000e+00 0.000000e+00 0.000000e+00 0.000000e+00
 0.000000e+00 5.607901e-01 4.392100e-01 0.000000e+00 0.000000e+00
 0.000000e+00 0.000000e+00 6.123073e-01 3.876927e-01 0.000000e+00
 0.000000e+00 0.000000e+00 0.000000e+00 5.246658e-01 4.753342e-01
 0.000000e+00 0.000000e+00 0.000000e+00 0.000000e+00 0.000000e+00
<ENDHMM>
~h "I"
<BEGINHMM>
<NUMSTATES> 5
<STATE> 2
<MEAN> 39
 -4.671839e+00 -3.616062e+00 1.033493e+01 1.005482e+01 1.963416e+01 -8.798734e+00 -6.737368e+00 -6.479240e+00 -1.018592e+01 -9.508689e+00 2.964958e+00 -1.918540e+00 6.657593e+01 1.018208e+00 -7.318608e-01 1.222269e+00 1.216546e+00 1.943877e+00 -2.384366e+00 -2.796412e+00 8.825539e-02 -1.312949e+00 -1.441453e+00 5.219892e-01 -9.062156e-01 1.317490e+00 -2.451282e-01 2.674857e-01 -2.715870e-01 -3.608622e-01 -7.769530e-01 5.058696e-01 3.889743e-01 3.864216e-01 6.736072e-01 3.485113e-01 -1.595247e-01 1.577754e-01 -6.470107e-01
<VARIANCE> 39
 1.854479e+01 1.803888e+01 3.719994e+01 3.924624e+01 2.774108e+01 8.312548e+01 5.409936e+01 4.709463e+01 6.847321e+01 5.364505e+01 3.866659e+01 2.653362e+01 2.301979e+01 4.535827e+00 3.966512e+00 3.203761e+00 3.095669e+00 3.695637e+00 5.632375e+00 5.771945e+00 4.518853e+00 5.063897e+00 4.916718e+00 3.672869e+00 2.600697e+00 3.082632e+00 5.994561e-01 5.643357e-01 6.466128e-01 5.262991e-01 6.519685e-01 1.036308e+00 1.127743e+00 7.108841e-01 8.138775e-01 8.582798e-01 6.936899e-01 5.167197e-01 5.198110e-01
<GCONST> 1.319055e+02
<STATE> 3
<MEAN> 39
 -4.235872e+00 -5.193027e+00 1.295589e+01 1.111049e+01 2.028928e+01 -1.213704e+01 -1.125487e+01 -4.281401e+00 -9.321401e+00 -1.145387e+01 2.401065e+00 -3.435775e+00 6.766092e+01 -2.688934e-02 5.602461e-01 1.227336e-01 -1.749876e-01 -4.697340e-01 5.914453e-01 2.299829e-01 -5.740243e-02 3.839969e-01 4.398007e-01 -2.584583e-01 -7.785496e-02 -7.219622e-01 -1.553333e-01 4.045770e-01 -3.511691e-01 -2.111789e-01 -5.810269e-01 7.062282e-01 7.843826e-01 -2.341918e-02 3.146008e-01 5.124339e-01 -1.185190e-01 2.162949e-01 -5.853058e-01
<VARIANCE> 39
 9.091654e+00 1.392083e+01 2.713353e+01 4.590126e+01 2.641833e+01 7.302106e+01 5.734819e+01 5.262544e+01 7.355920e+01 4.777161e+01 3.973111e+01 2.808756e+01 1.466955e+01 9.559793e-01 1.571417e+00 2.257290e+00 1.871910e+00 1.800642e+00 3.422981e+00 3.820888e+00 2.665004e+00 2.813134e+00 3.333436e+00 1.966432e+00 1.706708e+00 1.701101e+00 3.360044e-01 2.888551e-01 3.326437e-01 3.845219e-01 5.143775e-01 6.722435e-01 8.946435e-01 5.639392e-01 6.775478e-01 6.179829e-01 4.962090e-01 3.545669e-01 2.970475e-01
<GCONST> 1.171009e+02
<STATE> 4
<MEAN> 39
 -5.978126e+00 1.265263e+00 1.050824e+01 9.957816e+00 1.489424e+01 -6.016078e+00 -5.611032e+00 -5.958016e+00 -6.959081e+00 -4.648125e+00 9.087275e-01 -2.736621e+00 5.836088e+01 -4.973818e-01 1.075472e+00 -8.832161e-01 -2.581810e-01 -1.614031e+00 1.632895e+00 1.321348e+00 5.688508e-01 1.084534e+00 1.178020e+00 -2.235414e-01 4.684942e-01 -2.281175e+00 -2.152537e-01 -3.595317e-01 -1.722454e-01 -2.015017e-01 -7.786471e-02 -1.369216e-01 9.917138e-02 2.025322e-01 3.242370e-02 -2.376421e-01 -9.444296e-03 8.896119e-02 2.857852e-01
<VARIANCE> 39
 2.284200e+01 2.635783e+01 3.281693e+01 4.624008e+01 3.427412e+01 7.725666e+01 5.153947e+01 5.590718e+01 5.115936e+01 5.588506e+01 3.926317e+01 2.746132e+01 6.749979e+01 2.736667e+00 2.786758e+00 2.770357e+00 3.273393e+00 2.871925e+00 4.399119e+00 5.493047e+00 3.634346e+00 3.665772e+00 4.120138e+00 2.881184e+00 2.168006e+00 3.961592e+00 4.100937e-01 4.433883e-01 4.943481e-01 6.203961e-01 5.021471e-01 6.697866e-01 8.697192e-01 6.995419e-01 5.945439e-01 7.131517e-01 4.606281e-01 3.944925e-01 8.116035e-01
<GCONST> 1.288484e+02
<TRANSP> 5
 0.000000e+00 1.000000e+00 0.000000e+00 0.000000e+00 0.000000e+00
 0.000000e+00 4.727979e-01 5.272022e-01 0.000000e+00 0.000000e+00
 0.000000e+00 0.000000e+00 7.060999e-01 2.939001e-01 0.000000e+00
 0.000000e+00 0.000000e+00 0.000000e+00 5.925863e-01 4.074137e-01
 0.000000e+00 0.000000e+00 0.000000e+00 0.000000e+00 0.000000e+00
<ENDHMM>
~h "J"
<BEGINHMM>
<NUMSTATES> 5
<STATE> 2
<MEAN> 39
 -1.024708e+01 4.768754e+00 1.329706e+01 2.641096e+00 9.583925e+00 8.074967e-01 4.387683e+00 -2.231521e+00 -2.689950e+00 -3.354689e+00 1.103167e+00 1.813235e+00 5.638789e+01 -1.609478e+00 -1.129665e+00 1.741732e+00 3.812848e-01 -5.445533e-01 4.755675e-01 3.753957e-01 -8.370922e-02 8.390284e-01 2.902010e-01 -6.785413e-02 -1.801934e-01 6.255878e-01 -8.629362e-02 -8.789006e-01 -1.403464e-01 1.671745e-01 3.790029e-03 -4.030551e-01 -2.341346e-01 -1.592070e-01 -2.989450e-01 -5.742816e-01 2.150259e-01 1.327819e-02 8.052198e-01
<VARIANCE> 39
 5.084041e+01 3.920919e+01 4.567789e+01 6.149358e+01 4.228440e+01 3.964462e+01 4.256758e+01 5.163766e+01 4.190638e+01 4.117471e+01 2.686333e+01 2.695131e+01 6.945114e+01 7.558366e+00 7.876132e+00 4.487573e+00 4.642857e+00 4.414837e+00 4.240489e+00 4.680404e+00 4.432724e+00 4.533719e+00 5.282327e+00 3.187150e+00 2.788162e+00 6.161452e+00 1.255085e+00 9.639136e-01 7.926302e-01 9.437808e-01 8.191681e-01 7.062465e-01 8.205675e-01 9.396414e-01 8.793156e-01 7.644245e-01 6.384830e-01 5.244156e-01 9.006314e-01
<GCONST> 1.383745e+02
<STATE> 3
<MEAN> 39
 -1.881966e+01 -7.670291e+00 2.049625e+01 5.019888e+00 7.124316e+00 -2.505170e-01 4.807629e+00 -4.775306e+00 -1.557342e+00 -6.443106e+00 2.912358e+00 1.374082e+00 6.687643e+01 -2.401834e-01 -2.085214e+00 2.352208e-01 9.598236e-01 8.083866e-01 -6.114739e-01 -1.280920e+00 -1.697079e+00 -1.087416e+00 -1.204729e+00 3.606308e-01 -9.407425e-02 2.346511e+00 1.741104e+00 8.497899e-01 -1.229045e+00 -1.843804e-02 6.273302e-01 -6.379731e-01 -7.062004e-01 -1.335226e-02 -9.160343e-01 -2.955261e-01 5.967715e-02 1.004219e-01 -3.584334e-01
<VARIANCE> 39
 3.552674e+01 3.605045e+01 2.847982e+01 4.353581e+01 2.879220e+01 1.961304e+01 3.044334e+01 5.165219e+01 3.622728e+01 3.135340e+01 2.173883e+01 2.193628e+01 2.157472e+01 8.624520e+00 4.969143e+00 4.255131e+00 3.450267e+00 3.120416e+00 3.024600e+00 3.642453e+00 3.705276e+00 4.236178e+00 2.780511e+00 2.405117e+00 1.920930e+00 3.317188e+00 8.429596e-01 8.650057e-01 7.713789e-01 7.185124e-01 5.432730e-01 8.471498e-01 8.605520e-01 1.056085e+00 8.722036e-01 5.666875e-01 6.020967e-01 4.190453e-01 5.448340e-01
<GCONST> 1.279465e+02
<STATE> 4
<MEAN> 39
 -7.073269e+00 -7.593822e+00 1.315095e+01 7.815936e+00 1.261754e+01 -5.839002e+00 -2.848063e+00 -9.038694e+00 -1.089139e+01 -1.196573e+01 4.085455e+00 2.298548e+00 6.991712e+01 3.793536e+00 2.662973e-01 -3.500843e+00 -2.278623e-01 8.508816e-01 -3.057729e+00 -1.455640e+00 9.470784e-01 -2.930669e+00 -1.741204e+00 1.334132e+00 5.886139e-01 4.294316e-01 -1.733497e-01 4.325675e-01 -2.834315e-01 -5.112525e-01 -5.703784e-01 -1.949524e-01 7.416592e-01 9.558607e-01 5.043378e-01 2.598540e-01 1.293746e-01 6.528606e-02 -4.907892e-01
<VARIANCE> 39
 4.225402e+01 1.644580e+01 3.758145e+01 3.270383e+01 2.565877e+01 5.108408e+01 3.476271e+01 3.599683e+01 5.632736e+01 4.689044e+01 3.089477e+01 2.368630e+01 1.713082e+01 3.069812e+00 2.391396e+00 3.393699e+00 4.472667e+00 3.027803e+00 5.816608e+00 6.207666e+00 4.875945e+00 4.773604e+00 4.146680e+00 3.883390e+00 2.438676e+00 1.673488e+00 1.211926e+00 4.302383e-01 8.693935e-01 3.783994e-01 3.907267e-01 8.867375e-01 7.589585e-01 6.913181e-01 1.072276e+00 5.179930e-01 5.723296e-01 3.637846e-01 2.522037e-01
<GCONST> 1.266985e+02
<TRANSP> 5
 0.000000e+00 1.000000e+00 0.000000e+00 0.000000e+00 0.000000e+00
 0.000000e+00 7.433008e-01 2.566993e-01 0.000000e+00 0.000000e+00
 0.000000e+00 0.000000e+00 6.211405e-01 3.788596e-01 0.000000e+00
 0.000000e+00 0.000000e+00 0.000000e+00 6.178379e-01 3.821621e-01
 0.000000e+00 0.000000e+00 0.000000e+00 0.000000e+00 0.000000e+00
<ENDHMM>
~h "K"
<BEGINHMM>
<NUMSTATES> 5
<STATE> 2
<MEAN> 39
 -1.371061e+01 4.006761e+00 9.945123e-01 -2.063514e+00 4.919797e+00 -5.801793e+00 4.587983e+00 -2.931877e+00 -3.005692e+00 -2.619452e+00 4.923742e+00 6.251258e-01 5.521963e+01 -1.713240e+00 -5.519484e-01 -9.888092e-01 -2.378340e+00 -1.179702e+00 8.425971e-01 1.311383e+00 -1.328314e-01 3.663443e-01 -2.693298e-01 -6.334106e-02 2.393830e-01 8.409240e-01 6.050220e-01 -6.322433e-01 1.439909e-01 -5.052779e-02 5.114340e-02 -7.812203e-02 -9.248177e-02 1.158348e-01 -2.563271e-01 -3.828553e-01 9.686414e-02 1.778685e-01 9.000264e-01
<VARIANCE> 39
 2.528557e+01 3.254204e+01 3.359008e+01 6.249883e+01 5.995475e+01 6.396928e+01 5.213209e+01 5.966584e+01 4.896179e+01 5.056016e+01 3.830972e+01 3.644713e+01 5.638297e+01 3.075094e+00 2.914951e+00 3.546969e+00 4.865292e+00 4.268093e+00 5.186420e+00 5.130449e+00 4.364403e+00 4.348406e+00 5.275250e+00 3.275871e+00 3.140704e+00 6.811271e+00 4.486716e-01 4.914641e-01 5.764540e-01 9.692153e-01 7.539609e-01 7.681079e-01 9.648252e-01 6.912711e-01 6.548630e-01 9.230378e-01 5.699115e-01 5.817608e-01 1.073785e+00
<GCONST> 1.354701e+02
<STATE> 3
<MEAN> 39
 -1.472102e+01 -1.591753e+00 -1.097839e+00 -9.307700e+00 1.130554e+00 -3.677976e+00 7.919150e+00 -3.727136e+00 -3.813524e+00 -4.906641e+00 5.554759e+00 3.161239e+00 6.404988e+01 4.162192e-01 -2.211691e+00 2.867955e-01 -5.756208e-01 2.576375e-01 1.178178e+00 2.121755e-01 -1.570579e-01 4.023836e-01 2.531721e-01 -2.215293e-01 9.537542e-01 1.192713e+00 5.556270e-01 1.486346e-01 5.377812e-01 9.004148e-01 6.961519e-01 -3.305425e-02 -3.039205e-01 2.896869e-01 2.219846e-01 1.779277e-01 -2.086532e-01 -2.076519e-01 -6.740599e-01
<VARIANCE> 39
 1.542236e+01 3.635891e+01 1.657881e+01 4.966742e+01 5.173457e+01 3.002474e+01 6.337608e+01 5.543227e+01 4.414580e+01 4.488927e+01 2.776199e+01 2.835891e+01 2.200482e+01 1.383693e+00 2.473011e+00 2.163129e+00 3.577794e+00 4.605363e+00 3.747318e+00 3.717236e+00 4.039485e+00 3.765591e+00 3.539261e+00 3.012595e+00 2.731350e+00 3.683698e+00 3.609095e-01 7.583286e-01 4.629824e-01 5.429523e-01 6.823534e-01 7.910486e-01 8.341411e-01 8.321493e-01 7.294561e-01 7.954869e-01 4.990906e-01 5.538280e-01 5.356748e-01
<GCONST> 1.263065e+02
<STATE> 4
<MEAN> 39
 -1.132439e+01 -6.254514e+00 2.882207e+00 -6.900640e+00 5.857985e+00 -2.168234e-01 8.519917e+00 -8.148076e-01 -1.160683e-01 -3.620340e+00 3.601423e+00 3.908022e+00 6.347647e+01 2.041642e+00 1.288396e+00 1.794207e+00 1.369585e+00 1.105576e+00 -6.086288e-01 -3.524612e-01 1.344356e+00 2.509875e-01 -1.001525e+00 -5.953860e-01 -6.861827e-01 1.812956e-01 4.540156e-01 9.820722e-01 -6.938681e-02 2.110875e-01 -2.453208e-01 -9.274085e-01 -5.335839e-01 8.757712e-02 -4.538638e-01 -6.817428e-01 1.428417e-01 -2.209752e-01 2.082394e-01
<VARIANCE> 39
 1.948166e+01 2.842238e+01 2.534386e+01 4.780088e+01 6.297570e+01 2.835114e+01 6.108897e+01 7.134981e+01 4.796140e+01 3.816283e+01 2.996142e+01 2.750064e+01 1.877459e+01 1.680610e+00 5.294613e+00 2.379143e+00 2.033673e+00 3.702009e+00 4.911983e+00 3.989148e+00 3.331375e+00 3.926331e+00 3.752715e+00 2.363145e+00 2.155814e+00 1.481025e+00 2.547528e-01 7.991946e-01 6.478465e-01 4.434786e-01 5.875126e-01 5.957205e-01 7.047071e-01 7.081857e-01 7.204856e-01 5.460512e-01 4.621793e-01 4.845870e-01 2.738640e-01
<GCONST> 1.237727e+02
<TRANSP> 5
 0.000000e+00 1.000000e+00 0.000000e+00 0.000000e+00 0.000000e+00
 0.000000e+00 6.352898e-01 3.647102e-01 0.000000e+00 0.000000e+00
 0.000000e+00 0.000000e+00 6.402564e-01 3.597436e-01 0.000000e+00
 0.000000e+00 0.000000e+00 0.000000e+00 6.867207e-01 3.132794e-01
 0.000000e+00 0.000000e+00 0.000000e+00 0.000000e+00 0.000000e+00
<ENDHMM>
~h "L"
<BEGINHMM>
<NUMSTATES> 5
<STATE> 2
<MEAN> 39
 2.171702e+00 -1.525119e+00 3.548371e+00 9.038416e+00 9.100426e+00 -1.330312e+01 1.766675e+00 6.990851e+00 -7.670380e+00 -1.857800e+01 -6.725061e+00 -8.816036e-01 6.281940e+01 3.834341e-01 -1.744139e-01 1.984814e-01 1.958336e+00 4.025044e-01 -6.966460e-01 6.998053e-01 1.548325e+00 -9.670358e-01 -9.693631e-01 -9.308041e-01 -7.317437e-01 -7.995910e-01 -3.466534e-01 3.769888e-02 -2.416427e-02 -5.496343e-01 -3.550465e-01 -2.595228e-01 -4.987952e-02 -2.928083e-01 -8.460040e-03 2.211314e-01 5.495861e-01 3.448960e-01 4.201852e-01
<VARIANCE> 39
 1.304327e+01 2.092588e+01 2.906413e+01 6.127873e+01 7.218369e+01 7.899587e+01 6.037022e+01 6.129377e+01 7.538481e+01 5.076110e+01 5.424496e+01 2.981390e+01 2.074091e+01 1.271969e+00 1.223778e+00 1.949605e+00 3.467090e+00 3.555883e+00 5.523643e+00 3.366270e+00 4.093737e+00 4.250290e+00 4.179174e+00 3.382454e+00 2.936461e+00 1.735876e+00 1.992862e-01 2.067604e-01 4.663177e-01 7.446886e-01 5.497960e-01 1.065524e+00 7.252316e-01 1.201242e+00 8.889602e-01 9.156488e-01 6.707897e-01 5.942146e-01 2.463942e-01
<GCONST> 1.265393e+02
<STATE> 3
<MEAN> 39
 1.179472e+00 -1.379849e+00 3.849497e+00 1.021941e+01 6.751904e+00 -1.710077e+01 3.892222e+00 8.887629e+00 -1.045867e+01 -1.957756e+01 -6.502029e+00 -1.036676e+00 6.289188e+01 -6.224806e-01 1.699438e-01 -3.466302e-01 -1.362761e+00 -5.980480e-01 -9.038490e-02 -1.484722e-01 -1.310978e+00 -4.156772e-01 6.422457e-01 1.179328e+00 9.522250e-01 7.658935e-01 -1.661544e-01 2.106774e-02 -1.099679e-01 -7.599188e-01 -8.195598e-02 1.759028e-01 -2.771765e-01 -5.943614e-01 1.648752e-01 4.899158e-01 5.622030e-01 3.640065e-01 2.413443e-01
<VARIANCE> 39
 1.197151e+01 2.308994e+01 3.113105e+01 6.541522e+01 7.981268e+01 7.675483e+01 6.120523e+01 5.802321e+01 7.000935e+01 5.287302e+01 5.060881e+01 2.827897e+01 2.184138e+01 1.002431e+00 1.347627e+00 1.957445e+00 3.656248e+00 3.970685e+00 5.343738e+00 3.756675e+00 5.007775e+00 5.165835e+00 4.539543e+00 4.524828e+00 3.430001e+00 2.112826e+00 1.818368e-01 2.103611e-01 3.852432e-01 8.491473e-01 4.711087e-01 7.925760e-01 7.088211e-01 1.069955e+00 8.908231e-01 8.062149e-01 8.043696e-01 6.574861e-01 3.556978e-01
<GCONST> 1.276389e+02
<STATE> 4
<MEAN> 39
 -1.841681e+00 8.537806e-01 2.233233e+00 4.638211e+00 5.410233e+00 -1.256126e+01 2.433939e+00 3.353259e+00 -8.527186e+00 -1.447675e+01 -3.235430e+00 2.377886e+00 6.179809e+01 -7.182852e-01 -2.485904e-03 -3.076382e-01 -1.486447e+00 -2.233281e-01 2.149575e-01 -4.541255e-01 -1.213182e+00 -6.767502e-02 1.110438e+00 1.611088e+00 9.762459e-01 4.049166e-01 5.927895e-02 -8.293935e-02 1.657769e-01 4.184434e-03 2.755188e-02 -6.165477e-02 -4.433193e-02 2.173795e-01 1.247612e-01 6.523808e-02 -1.376796e-02 -2.056659e-01 -1.376124e-01
<VARIANCE> 39
 2.524363e+01 4.045722e+01 2.938689e+01 4.715462e+01 7.829208e+01 1.008240e+02 5.124434e+01 5.636521e+01 6.895905e+01 6.402517e+01 6.143092e+01 3.109629e+01 8.080337e+01 1.373960e+00 1.830384e+00 2.256737e+00 4.066463e+00 3.482970e+00 5.363397e+00 4.084695e+00 5.808478e+00 5.339703e+00 5.548088e+00 5.140189e+00 3.399797e+00 3.570566e+00 2.013527e-01 2.566648e-01 3.201273e-01 4.091985e-01 4.669029e-01 7.021661e-01 5.998261e-01 6.720491e-01 6.245586e-01 5.618473e-01 5.191135e-01 4.552553e-01 2.746330e-01
<GCONST> 1.290761e+02
<TRANSP> 5
 0.000000e+00 1.000000e+00 0.000000e+00 0.000000e+00 0.000000e+00
 0.000000e+00 6.041319e-01 3.958681e-01 0.000000e+00 0.000000e+00
 0.000000e+00 0.000000e+00 5.759208e-01 4.240792e-01 0.000000e+00
 0.000000e+00 0.000000e+00 0.000000e+00 2.650140e-01 7.349861e-01
 0.000000e+00 0.000000e+00 0.000000e+00 0.000000e+00 0.000000e+00
<ENDHMM>
~h "M"
<BEGINHMM>
<NUMSTATES> 5
<STATE> 2
<MEAN> 39
 1.732958e+00 4.308567e+00 4.575122e+00 3.205554e+00 4.896574e+00 -4.885269e+00 1.467461e+00 7.527529e+00 -8.592208e-02 -9.781167e+00 3.947422e-01 -2.455972e+00 5.822685e+01 5.306848e-01 7.617217e-01 1.170416e+00 1.071992e+00 1.226458e+00 3.203313e+00 -1.023053e+00 -2.931008e-01 1.550332e+00 1.192696e+00 -1.378905e+00 -2.342800e+00 -1.256270e+00 -1.461932e-01 -3.530278e-01 -5.949406e-02 -1.513865e-01 -6.834173e-02 -5.739257e-01 1.109758e-01 -1.019012e-01 -2.616057e-01 -2.129407e-01 1.693031e-01 2.589436e-01 5.322082e-01
<VARIANCE> 39
 3.565819e+01 2.006839e+01 2.450949e+01 2.802079e+01 4.362990e+01 1.012032e+02 6.030540e+01 4.305331e+01 5.405332e+01 4.912544e+01 3.201163e+01 2.786435e+01 5.460829e+01 2.271505e+00 1.402141e+00 1.998696e+00 1.912341e+00 3.601727e+00 7.139174e+00 4.348524e+00 4.600746e+00 5.462123e+00 4.711205e+00 3.170994e+00 2.858239e+00 3.328252e+00 2.928655e-01 2.104331e-01 2.771938e-01 3.022342e-01 3.827496e-01 8.076949e-01 6.327400e-01 4.661978e-01 5.465778e-01 5.874127e-01 4.541922e-01 4.688659e-01 2.077781e-01
<GCONST> 1.231968e+02
<STATE> 3
<MEAN> 39
 3.124324e+00 4.286653e+00 6.571257e+00 4.887281e+00 7.571263e+00 -1.788193e+00 -1.457974e+00 7.134497e+00 2.227451e+00 -9.658708e+00 -1.861978e+00 -6.578683e+00 5.886228e+01 -3.422576e-02 -5.084448e-02 1.303878e-01 1.515743e-01 4.125171e-03 -2.932356e-01 -1.323015e-03 -2.757762e-01 -1.077826e-01 -1.108001e-02 -6.752022e-02 2.524703e-02 2.569757e-01 -2.045185e-01 -1.818021e-01 -3.320132e-01 -3.930438e-01 -5.629766e-01 -1.451210e+00 3.729473e-01 6.731877e-02 -6.851697e-01 -4.364831e-01 5.397081e-01 9.652277e-01 5.276484e-01
<VARIANCE> 39
 6.942353e+00 1.819142e+01 1.895044e+01 2.382363e+01 3.526740e+01 5.214861e+01 6.571738e+01 6.110357e+01 6.748936e+01 3.458098e+01 3.591079e+01 2.641566e+01 1.478418e+01 1.318686e+00 1.097259e+00 1.153096e+00 1.311026e+00 2.302853e+00 6.259644e+00 2.903147e+00 2.931757e+00 3.117181e+00 2.842555e+00 2.041868e+00 3.167599e+00 1.782047e+00 1.831144e-01 2.584372e-01 2.583912e-01 2.959526e-01 4.280715e-01 8.663330e-01 5.934869e-01 6.284998e-01 8.348499e-01 6.546646e-01 4.787476e-01 4.714156e-01 2.439622e-01
<GCONST> 1.148626e+02
<STATE> 4
<MEAN> 39
 2.743384e+00 3.911657e+00 5.511312e+00 3.317319e+00 3.616334e+00 -1.029561e+01 1.989738e-01 6.519033e+00 -1.135301e+00 -1.161415e+01 8.960088e-01 -8.863478e-01 6.177971e+01 -2.959228e-01 -5.442016e-01 -5.662876e-01 -9.344635e-01 -1.746874e+00 -4.331461e+00 6.650735e-01 5.463917e-01 -1.666664e+00 -1.061234e+00 1.503107e+00 2.097252e+00 1.675919e+00 -1.939233e-01 -2.600302e-01 -1.672604e-02 -1.215216e-01 -4.433878e-04 -1.028618e-01 7.452471e-02 2.298502e-01 -1.617785e-02 -2.815472e-02 1.465993e-01 -6.838178e-02 1.713063e-01
<VARIANCE> 39
 8.351628e+00 1.598065e+01 2.459275e+01 2.957988e+01 5.131187e+01 1.129205e+02 5.207017e+01 4.833162e+01 5.836886e+01 3.444186e+01 3.760107e+01 3.773075e+01 1.977419e+01 1.071881e+00 1.772491e+00 2.290817e+00 2.237737e+00 5.060987e+00 8.245983e+00 4.505487e+00 4.146543e+00 5.249963e+00 3.943378e+00 3.630242e+00 3.308213e+00 1.985055e+00 1.638011e-01 2.053828e-01 3.317622e-01 3.410791e-01 5.603386e-01 1.595730e+00 6.896735e-01 5.704377e-01 6.325048e-01 5.550859e-01 6.368920e-01 6.663698e-01 2.177757e-01
<GCONST> 1.225967e+02
<TRANSP> 5
 0.000000e+00 1.000000e+00 0.000000e+00 0.000000e+00 0.000000e+00
 0.000000e+00 4.278255e-01 5.721745e-01 0.000000e+00 0.000000e+00
 0.000000e+00 0.000000e+00 6.625014e-01 3.374985e-01 0.000000e+00
 0.000000e+00 0.000000e+00 0.000000e+00 4.969560e-01 5.030440e-01
 0.000000e+00 0.000000e+00 0.000000e+00 0.000000e+00 0.000000e+00
<ENDHMM>
~h "N"
<BEGINHMM>
<NUMSTATES> 5
<STATE> 2
<MEAN> 39
 2.308402e+00 3.379069e+00 5.207823e+00 3.092600e+00 1.090956e+01 -2.362976e+00 -3.014394e+00 3.304320e+00 -3.275766e+00 -1.262381e+01 -3.812501e+00 -3.438774e+00 6.000944e+01 2.543760e-01 8.554978e-01 6.776869e-01 6.905233e-01 1.014827e+00 2.396849e+00 -1.269640e+00 -4.771536e-01 1.353467e+00 1.563141e-01 -1.923573e+00 -1.300472e+00 -1.357113e+00 -3.795013e-01 -1.917550e-01 -7.618483e-02 -1.670125e-01 -3.042706e-01 -8.889193e-01 5.029475e-01 -1.537639e-01 -4.247321e-01 1.450236e-01 5.563225e-01 4.146606e-01 4.740547e-01
<VARIANCE> 39
 1.009397e+01 1.683879e+01 2.136298e+01 3.869622e+01 3.445832e+01 4.653943e+01 6.304841e+01 5.599028e+01 6.793555e+01 5.025205e+01 3.300684e+01 2.465697e+01 1.928402e+01 1.127868e+00 1.253570e+00 1.643560e+00 2.275282e+00 3.168532e+00 4.122236e+00 4.001492e+00 3.101095e+00 4.428734e+00 3.041081e+00 3.508162e+00 2.709532e+00 1.443393e+00 1.555597e-01 2.387206e-01 3.290703e-01 3.328559e-01 4.013809e-01 6.567234e-01 6.831051e-01 4.704364e-01 6.394055e-01 5.217523e-01 5.444608e-01 4.442866e-01 2.458430e-01
<GCONST> 1.169552e+02
<STATE> 3
<MEAN> 39
 1.679495e+00 5.197927e+00 6.355325e+00 3.837932e+00 1.321680e+01 7.152290e-01 -5.480896e+00 6.750744e-01 -2.660407e-01 -1.180187e+01 -6.665197e+00 -4.659949e+00 5.878412e+01 -6.392713e-01 -2.361647e-02 -1.366090e-01 7.921834e-02 -1.312537e-01 -6.926920e-01 9.204872e-01 -4.201066e-01 -7.406330e-01 2.567935e-01 3.590728e-01 4.539296e-01 3.941828e-01 -3.836527e-01 -4.914487e-01 -1.876081e-01 -2.351330e-01 -4.530966e-01 -1.218648e+00 6.792186e-01 2.157276e-01 -7.763920e-01 7.848957e-02 1.032969e+00 6.543708e-01 5.741509e-01
<VARIANCE> 39
 9.715407e+00 1.903710e+01 2.014999e+01 3.095468e+01 2.890038e+01 4.294344e+01 6.302749e+01 5.375462e+01 7.413824e+01 5.105996e+01 2.757795e+01 2.084626e+01 1.759519e+01 1.296631e+00 1.603585e+00 1.755571e+00 2.147200e+00 2.236196e+00 4.080340e+00 3.752730e+00 3.007014e+00 4.029190e+00 3.811462e+00 3.578941e+00 2.820763e+00 2.218779e+00 2.266362e-01 3.171622e-01 3.915820e-01 4.535502e-01 4.545069e-01 1.043620e+00 7.608014e-01 5.961667e-01 8.424889e-01 6.469956e-01 7.654600e-01 5.648640e-01 3.498319e-01
<GCONST> 1.201865e+02
<STATE> 4
<MEAN> 39
 -3.137987e+00 5.084864e+00 5.099964e+00 3.526136e+00 1.040655e+01 -1.636391e+00 9.862201e-01 -1.274266e-01 -4.318896e+00 -8.936996e+00 -3.594172e+00 -1.445925e+00 5.733147e+01 -1.115260e+00 -7.980641e-01 -2.581438e-01 -2.901099e-01 -5.984746e-01 -1.804790e+00 1.210503e+00 2.121997e-01 -1.169291e+00 6.609243e-01 1.737783e+00 1.207170e+00 5.020293e-01 2.812576e-02 -3.212181e-01 -1.699996e-02 -1.158812e-01 -1.591629e-01 -3.355431e-01 -1.500902e-01 1.956332e-01 4.100854e-02 -2.104494e-02 3.293506e-01 6.450456e-02 1.493736e-01
<VARIANCE> 39
 2.966801e+01 2.936104e+01 3.472599e+01 3.641805e+01 3.604055e+01 5.303912e+01 5.418708e+01 4.990794e+01 6.265467e+01 7.041576e+01 4.257215e+01 3.821813e+01 6.950101e+01 2.310201e+00 2.981454e+00 2.970378e+00 3.032612e+00 3.719999e+00 8.736848e+00 5.326014e+00 4.057631e+00 6.512553e+00 5.410274e+00 5.965725e+00 3.951422e+00 5.047813e+00 3.274465e-01 4.832174e-01 5.601550e-01 4.237723e-01 5.005491e-01 8.200065e-01 8.169783e-01 6.206169e-01 7.504507e-01 7.408016e-01 6.725228e-01 5.820067e-01 4.888496e-01
<GCONST> 1.330068e+02
<TRANSP> 5
 0.000000e+00 1.000000e+00 0.000000e+00 0.000000e+00 0.000000e+00
 0.000000e+00 5.412787e-01 4.587213e-01 0.000000e+00 0.000000e+00
 0.000000e+00 0.000000e+00 5.335331e-01 4.664669e-01 0.000000e+00
 0.000000e+00 0.000000e+00 0.000000e+00 4.143842e-01 5.856158e-01
 0.000000e+00 0.000000e+00 0.000000e+00 0.000000e+00 0.000000e+00
<ENDHMM>
~h "O"
<BEGINHMM>
<NUMSTATES> 5
<STATE> 2
<MEAN> 39
 8.146822e-02 2.340105e+00 7.944678e+00 -2.669361e+00 2.578254e+00 -1.556645e+01 -8.327645e-01 7.226947e+00 -3.514966e+00 -1.999189e+01 -1.323826e+00 2.605404e+00 6.571326e+01 1.490628e+00 4.651976e-02 4.572627e-01 -1.071417e-01 -8.896219e-01 -3.220739e+00 -1.279271e+00 1.899710e+00 -1.749175e-01 -2.180934e+00 -1.446712e-01 -3.761464e-01 1.102494e+00 -5.435494e-01 -6.946550e-02 -3.189435e-01 2.073913e-01 1.055873e-01 9.959789e-01 4.267389e-01 -3.713046e-01 2.211659e-01 9.267523e-01 1.115151e-02 -1.464768e-01 -5.740093e-01
<VARIANCE> 39
 1.642895e+01 2.539601e+01 3.445234e+01 3.497730e+01 5.743145e+01 1.042590e+02 7.193439e+01 5.166523e+01 7.731498e+01 7.101248e+01 4.035714e+01 3.046511e+01 3.350745e+01 3.163243e+00 3.207129e+00 2.911668e+00 4.066332e+00 3.728973e+00 7.318735e+00 7.611794e+00 4.329038e+00 4.891552e+00 6.184693e+00 3.679939e+00 2.759241e+00 2.829871e+00 5.489643e-01 5.514624e-01 6.609055e-01 6.436635e-01 6.577390e-01 1.579182e+00 1.059714e+00 7.706695e-01 1.007206e+00 1.156814e+00 6.307087e-01 5.918764e-01 5.537828e-01
<GCONST> 1.356801e+02
<STATE> 3
<MEAN> 39
 1.000263e+00 2.014107e+00 8.565891e+00 -2.322314e+00 -7.563260e-01 -2.039278e+01 -4.964600e-01 1.016362e+01 -3.736744e+00 -2.090765e+01 -1.485816e+00 1.018919e+00 6.689891e+01 -2.905894e-02 4.782589e-01 -2.825592e-01 1.835170e-01 5.574145e-02 9.494196e-01 4.135091e-01 -2.077515e-01 1.429718e-01 6.952170e-01 -4.205936e-01 -3.995504e-01 -7.290103e-01 -2.854542e-01 2.327208e-01 -2.088412e-01 2.245259e-01 4.006307e-01 1.272564e+00 2.575715e-01 -5.580280e-01 1.832081e-01 8.178161e-01 -1.329903e-01 6.836601e-02 -6.899769e-01
<VARIANCE> 39
 8.490392e+00 1.769115e+01 3.538185e+01 3.490910e+01 5.773307e+01 8.475042e+01 7.443587e+01 4.472083e+01 7.415012e+01 6.230660e+01 3.998711e+01 3.080566e+01 1.645590e+01 7.799247e-01 1.775219e+00 2.106800e+00 2.018438e+00 3.341007e+00 5.469934e+00 4.011878e+00 3.136418e+00 3.643360e+00 4.001456e+00 2.875360e+00 2.073258e+00 2.143722e+00 2.922381e-01 3.200451e-01 3.458512e-01 4.598137e-01 4.889416e-01 9.658833e-01 9.585136e-01 6.533064e-01 7.811947e-01 9.092436e-01 5.371490e-01 4.592739e-01 2.753747e-01
<GCONST> 1.227496e+02
<STATE> 4
<MEAN> 39
 -1.046477e+00 6.259958e+00 5.208919e+00 -1.256996e+00 3.329418e-01 -1.218454e+01 1.991413e+00 6.659646e+00 -3.011748e+00 -1.376880e+01 -3.254570e+00 5.512621e-01 5.870434e+01 -6.641548e-01 6.269287e-01 -6.893789e-01 7.774734e-01 6.684585e-01 2.964336e+00 3.603086e-01 -9.043870e-01 5.505167e-01 2.117482e+00 -2.373400e-01 2.869380e-02 -2.262079e+00 -2.561331e-01 -3.200030e-01 3.975525e-02 7.739350e-02 1.152458e-01 9.802034e-02 -4.250517e-02 -1.004939e-01 -3.423198e-02 8.079857e-02 2.083469e-01 1.240222e-01 7.330475e-02
<VARIANCE> 39
 2.043882e+01 3.024683e+01 3.388123e+01 3.561872e+01 7.027460e+01 8.594919e+01 6.029360e+01 4.560260e+01 5.797038e+01 6.795183e+01 3.911981e+01 2.507452e+01 7.046570e+01 2.333656e+00 2.827828e+00 2.630399e+00 2.955421e+00 4.343052e+00 5.379062e+00 5.640839e+00 4.263524e+00 4.472185e+00 5.195575e+00 3.267991e+00 2.686349e+00 3.227200e+00 3.780259e-01 4.333193e-01 4.545494e-01 5.146874e-01 5.738811e-01 9.771425e-01 8.744942e-01 7.237463e-01 7.218500e-01 7.864766e-01 5.665040e-01 4.168958e-01 6.194630e-01
<GCONST> 1.312202e+02
<TRANSP> 5
 0.000000e+00 1.000000e+00 0.000000e+00 0.000000e+00 0.000000e+00
 0.000000e+00 4.222029e-01 5.777971e-01 0.000000e+00 0.000000e+00
 0.000000e+00 0.000000e+00 6.261255e-01 3.738745e-01 0.000000e+00
 0.000000e+00 0.000000e+00 0.000000e+00 4.839652e-01 5.160348e-01
 0.000000e+00 0.000000e+00 0.000000e+00 0.000000e+00 0.000000e+00
<ENDHMM>
~h "P"
<BEGINHMM>
<NUMSTATES> 5
<STATE> 2
<MEAN> 39
 -5.257690e+00 7.373978e+00 1.330527e+00 4.781769e+00 1.172884e+00 -2.094233e+00 1.032570e+00 3.890189e+00 -1.950287e+00 -3.927428e+00 1.002153e+00 2.928085e+00 4.623751e+01 -1.524358e+00 1.511846e-01 -3.411464e-01 -2.546450e-01 -2.664374e-01 7.866978e-01 2.833516e-01 -7.144197e-01 6.467899e-01 1.171478e+00 -1.343918e-01 4.466369e-02 -1.316802e+00 -1.458208e-02 -5.270584e-01 2.003091e-01 -4.283229e-01 4.213093e-01 -3.169212e-01 2.100376e-01 -2.365526e-01 -4.983865e-02 -5.340588e-01 -4.968983e-02 -1.117024e-02 1.277012e+00
<VARIANCE> 39
 3.179420e+01 2.238272e+01 2.631088e+01 3.395964e+01 4.807800e+01 5.172417e+01 2.918427e+01 4.474866e+01 4.022794e+01 3.821205e+01 2.502347e+01 2.360027e+01 2.352292e+01 1.702493e+00 1.945756e+00 1.938177e+00 2.588496e+00 2.641026e+00 2.653759e+00 2.922624e+00 3.034920e+00 2.175218e+00 3.022803e+00 1.796310e+00 1.671145e+00 4.213795e+00 4.178319e-01 3.774461e-01 3.688450e-01 4.857428e-01 4.981177e-01 7.103781e-01 6.580064e-01 6.518164e-01 4.621466e-01 5.136223e-01 3.965701e-01 3.649227e-01 5.264136e-01
<GCONST> 1.188068e+02
<STATE> 3
<MEAN> 39
 -1.107633e+01 4.432562e+00 2.062932e+00 2.078518e+00 3.253778e+00 -1.001450e-01 3.675571e+00 7.999135e-02 4.944782e-01 -1.418722e+00 3.988433e-01 2.870728e+00 4.798217e+01 3.508661e-02 -1.436059e+00 2.578146e-01 -1.205969e+00 1.021595e+00 -3.618934e-01 1.171069e+00 -7.266567e-01 3.025510e-01 -1.098288e+00 -2.990637e-01 5.946718e-02 3.868075e+00 1.317212e+00 -5.320591e-02 7.977232e-02 4.878749e-02 -2.662789e-01 -1.421438e+00 -4.370318e-01 7.287248e-01 -3.296575e-01 -1.178249e+00 1.644585e-01 -5.386856e-02 1.256580e+00
<VARIANCE> 39
 2.034305e+01 2.712785e+01 1.839415e+01 3.038996e+01 3.375637e+01 3.585355e+01 2.505899e+01 3.116471e+01 2.779900e+01 2.408088e+01 1.906711e+01 1.914714e+01 4.280725e+01 4.658941e+00 3.632832e+00 3.008143e+00 3.719659e+00 6.266862e+00 9.548069e+00 4.473974e+00 5.366003e+00 4.431522e+00 4.124911e+00 2.781106e+00 2.618832e+00 4.599590e+00 4.148733e-01 6.544227e-01 6.386644e-01 7.011920e-01 1.149825e+00 1.565962e+00 1.099372e+00 9.678224e-01 7.366268e-01 6.428257e-01 5.463403e-01 4.244451e-01 7.046951e-01
<GCONST> 1.291541e+02
<STATE> 4
<MEAN> 39
 -7.111842e+00 2.060555e+00 2.170878e+00 -4.809698e-01 5.068346e+00 -2.277965e+00 6.067146e+00 2.346660e-01 5.455078e-01 -6.230780e+00 -4.176247e-01 2.695489e+00 5.967237e+01 3.388178e+00 -4.250587e-01 3.899454e-01 -8.127101e-01 -7.429962e-01 -4.510661e+00 -1.213761e+00 1.666655e+00 -3.380786e-01 -3.875337e+00 1.399271e-01 -5.518071e-02 4.658840e+00 5.639538e-01 2.347575e-01 -1.087044e-02 2.756228e-01 -4.949732e-01 -1.026833e+00 -9.505061e-01 7.119623e-01 -2.838633e-01 -6.397604e-01 2.682422e-01 2.484391e-02 -4.631425e-01
<VARIANCE> 39
 3.430912e+01 2.756451e+01 2.043010e+01 1.884484e+01 4.994743e+01 9.062164e+01 3.080026e+01 3.606823e+01 2.882441e+01 2.780773e+01 1.972089e+01 1.498241e+01 2.783327e+01 3.484312e+00 3.953513e+00 5.093259e+00 4.908012e+00 1.062273e+01 1.632092e+01 8.975899e+00 7.751384e+00 5.958654e+00 5.769626e+00 4.336413e+00 2.906283e+00 4.937328e+00 8.071368e-01 8.112138e-01 6.563365e-01 5.784068e-01 8.971244e-01 1.719362e+00 1.318380e+00 9.338971e-01 7.288703e-01 8.922806e-01 6.187049e-01 4.854564e-01 6.659975e-01
<GCONST> 1.357319e+02
<TRANSP> 5
 0.000000e+00 1.000000e+00 0.000000e+00 0.000000e+00 0.000000e+00
 0.000000e+00 6.968238e-01 3.031763e-01 0.000000e+00 0.000000e+00
 0.000000e+00 0.000000e+00 4.961257e-01 5.038743e-01 0.000000e+00
 0.000000e+00 0.000000e+00 0.000000e+00 3.762299e-01 6.237701e-01
 0.000000e+00 0.000000e+00 0.000000e+00 0.000000e+00 0.000000e+00
<ENDHMM>
~h "R"
<BEGINHMM>
<NUMSTATES> 5
<STATE> 2
<MEAN> 39
 -6.236256e-01 1.244175e+00 1.096420e+00 -9.025217e-01 9.686202e+00 -4.410159e+00 1.466807e-02 1.796355e-01 -6.409729e+00 -1.546435e+01 -1.178764e+00 5.369942e+00 6.315726e+01 4.619220e-01 5.818725e-01 -5.490328e-01 -1.708803e-01 1.421785e+00 9.120402e-01 -5.872669e-01 -2.505877e-01 -6.397478e-01 -5.619897e-01 -2.201921e-01 4.254985e-01 -4.860815e-01 -1.705101e-01 -1.826208e-01 2.246895e-01 3.953709e-02 -2.273972e-01 -8.653008e-01 -1.476138e-01 3.031563e-01 -1.856048e-01 -2.884394e-02 5.135493e-01 -4.858344e-02 2.407369e-01
<VARIANCE> 39
 3.035842e+01 1.957779e+01 2.745453e+01 4.792839e+01 4.453047e+01 6.343543e+01 5.363891e+01 5.090610e+01 5.731542e+01 6.029408e+01 5.048471e+01 2.746505e+01 3.938039e+01 3.566412e+00 2.295929e+00 2.424280e+00 3.167463e+00 4.461655e+00 9.983274e+00 7.821477e+00 4.544462e+00 4.874309e+00 7.970478e+00 3.765760e+00 2.909164e+00 4.371966e+00 5.071348e-01 4.047837e-01 5.086539e-01 6.247157e-01 6.810619e-01 1.208694e+00 1.144775e+00 7.898326e-01 8.379614e-01 9.475104e-01 7.494221e-01 4.774932e-01 7.742074e-01
<GCONST> 1.346588e+02
<STATE> 3
<MEAN> 39
 2.273080e-01 1.623559e+00 8.183543e-02 -1.767750e+00 1.226902e+01 -5.097754e+00 -2.308718e+00 5.963993e-01 -8.247358e+00 -1.777006e+01 -1.642371e-01 6.367233e+00 6.372149e+01 3.704571e-03 2.224242e-01 -6.386330e-02 1.161508e-01 6.255327e-01 -6.720151e-01 -5.003617e-01 3.803832e-01 -7.310652e-01 -3.376842e-01 5.987721e-01 2.933521e-01 -2.573683e-01 -3.719390e-01 -2.620738e-01 3.784352e-01 2.769594e-01 -6.376360e-01 -6.466886e-01 2.895456e-01 1.534155e-01 1.085443e-01 4.957448e-01 3.486229e-01 -2.789086e-01 5.895999e-02
<VARIANCE> 39
 2.126584e+01 2.000858e+01 2.741581e+01 5.352546e+01 4.673980e+01 5.859792e+01 6.337519e+01 5.043021e+01 6.516097e+01 8.088468e+01 4.877108e+01 3.035250e+01 3.435167e+01 2.765523e+00 2.626075e+00 2.608828e+00 3.445307e+00 4.938439e+00 9.449980e+00 7.183758e+00 5.087338e+00 6.269300e+00 7.753308e+00 4.638975e+00 3.064341e+00 4.729591e+00 5.128585e-01 4.752395e-01 5.025947e-01 6.259754e-01 7.444818e-01 1.483466e+00 1.241224e+00 7.698494e-01 9.159272e-01 1.161133e+00 6.857120e-01 5.132210e-01 8.542303e-01
<GCONST> 1.364709e+02
<STATE> 4
<MEAN> 39
 -1.888195e+00 2.200947e+00 5.977541e-01 -7.190183e-01 1.018157e+01 -7.142549e+00 -1.862126e+00 7.904974e-01 -9.184312e+00 -1.508758e+01 1.364963e+00 6.642124e+00 6.044995e+01 -6.817916e-01 -6.233747e-02 4.719120e-01 6.920581e-01 -6.173105e-01 -6.149799e-01 4.743794e-01 2.695468e-01 1.383317e-01 1.012599e+00 5.560296e-01 -3.844285e-01 -5.861470e-01 -1.912799e-01 -2.449923e-01 2.546007e-01 1.320231e-01 -3.955053e-01 -1.206170e-01 2.852366e-01 5.479662e-03 2.780623e-01 3.184701e-01 5.101157e-02 -2.855676e-01 1.595864e-01
<VARIANCE> 39
 3.280994e+01 2.822436e+01 3.248534e+01 5.063269e+01 7.686601e+01 7.256570e+01 7.001950e+01 6.193421e+01 7.619368e+01 9.751127e+01 5.243377e+01 3.690163e+01 7.393589e+01 3.474373e+00 3.427449e+00 3.499464e+00 3.529569e+00 6.345752e+00 9.019985e+00 6.054866e+00 5.247415e+00 7.081297e+00 6.456758e+00 4.592806e+00 3.057549e+00 6.944835e+00 5.580330e-01 5.167667e-01 5.468702e-01 6.184158e-01 9.826792e-01 1.346459e+00 1.367996e+00 7.913873e-01 9.090881e-01 1.330944e+00 6.625029e-01 5.725004e-01 8.875990e-01
<GCONST> 1.417323e+02
<TRANSP> 5
 0.000000e+00 1.000000e+00 0.000000e+00 0.000000e+00 0.000000e+00
 0.000000e+00 2.887342e-01 7.112657e-01 0.000000e+00 0.000000e+00
 0.000000e+00 0.000000e+00 1.711790e-01 8.288210e-01 0.000000e+00
 0.000000e+00 0.000000e+00 0.000000e+00 3.156142e-01 6.843858e-01
 0.000000e+00 0.000000e+00 0.000000e+00 0.000000e+00 0.000000e+00
<ENDHMM>
~h "S"
<BEGINHMM>
<NUMSTATES> 5
<STATE> 2
<MEAN> 39
 -1.365884e+01 1.367198e+00 1.350648e+01 -3.746241e+00 5.154702e+00 -2.985683e-01 7.902688e+00 -4.641091e+00 -5.689445e+00 -5.338773e+00 1.189996e+00 1.423745e+00 6.290046e+01 -5.520687e+00 -5.293102e-01 2.704475e+00 -2.347214e+00 -3.464760e-01 2.523073e+00 1.351377e+00 -1.437155e+00 1.373748e+00 2.291304e+00 3.659800e-01 2.044304e-01 1.210456e+00 -5.881286e-01 -3.481556e-01 -3.173733e-01 -2.761211e-01 -1.101875e-01 -5.663005e-01 -5.315344e-01 2.733811e-01 7.125905e-02 -8.922125e-02 3.243757e-01 -1.059649e-02 1.671749e-01
<VARIANCE> 39
 6.281277e+01 2.465524e+01 4.959641e+01 3.745252e+01 5.523772e+01 6.751891e+01 5.847934e+01 7.584533e+01 5.360426e+01 5.727513e+01 3.170825e+01 2.822118e+01 1.014651e+02 6.118804e+00 4.155973e+00 3.029739e+00 3.688931e+00 4.841563e+00 6.203045e+00 6.107572e+00 5.887498e+00 5.147309e+00 6.936870e+00 3.729242e+00 2.559401e+00 3.761772e+00 1.060772e+00 5.073488e-01 6.954148e-01 5.441615e-01 5.322951e-01 8.932756e-01 7.336846e-01 7.642741e-01 7.872481e-01 8.433927e-01 5.290884e-01 4.419689e-01 5.060670e-01
<GCONST> 1.369502e+02
<STATE> 3
<MEAN> 39
 -3.212467e+01 -1.601680e+00 1.721618e+01 -1.261778e+01 4.071766e+00 2.002331e+00 7.041635e+00 -6.270107e+00 -2.271397e+00 -1.252551e+00 3.731696e+00 1.077832e+00 6.706473e+01 -1.454347e+00 -2.937216e-01 -3.904673e-01 -6.613431e-01 2.463980e-02 -1.401542e-01 -1.702388e-01 5.823945e-02 4.815453e-01 4.801825e-01 1.012965e-01 1.831028e-01 -3.349220e-01 1.378884e+00 6.322564e-02 -5.167654e-01 6.581929e-01 2.087279e-01 -2.383022e-01 -8.658567e-02 1.458034e-01 -1.530830e-01 -3.043942e-01 -1.192580e-01 1.038281e-01 -4.256934e-01
<VARIANCE> 39
 1.807133e+01 2.923421e+01 2.631094e+01 2.624843e+01 3.060504e+01 2.909882e+01 4.097456e+01 2.877996e+01 3.134611e+01 2.443347e+01 2.365173e+01 1.988620e+01 1.628558e+01 7.284986e+00 1.951892e+00 2.620563e+00 2.918944e+00 1.830983e+00 1.849350e+00 2.004201e+00 2.669112e+00 2.231404e+00 2.156646e+00 1.839385e+00 1.641335e+00 3.017629e+00 5.489168e-01 3.807130e-01 4.890941e-01 3.296680e-01 3.620985e-01 5.344374e-01 5.134158e-01 5.335300e-01 4.940607e-01 5.475648e-01 3.870920e-01 3.240604e-01 3.052576e-01
<GCONST> 1.144027e+02
<STATE> 4
<MEAN> 39
 -2.439411e+01 -3.860886e+00 1.148679e+01 -7.393488e+00 6.397274e+00 1.387440e+00 6.966581e+00 -5.118046e+00 -1.194602e+00 -1.606805e+00 3.123650e+00 4.125636e+00 6.182731e+01 3.846846e+00 5.176227e-02 -1.276380e+00 1.873961e+00 6.355369e-01 -3.642263e-01 -7.436029e-01 4.231719e-01 -5.112253e-01 -1.054102e+00 -2.249593e-01 1.317983e-01 -1.023193e+00 4.424301e-01 1.159194e-01 -9.491871e-02 1.007185e-01 -1.717425e-02 -3.748779e-01 -2.925234e-01 1.284892e-01 -3.576004e-01 -4.156228e-01 6.143486e-02 -1.884109e-01 5.019292e-01
<VARIANCE> 39
 5.261905e+01 5.766771e+01 4.304091e+01 4.509856e+01 3.530764e+01 3.673156e+01 4.698347e+01 4.668062e+01 3.607891e+01 3.911789e+01 2.791102e+01 2.536127e+01 6.311677e+01 8.138889e+00 2.856208e+00 4.263971e+00 3.577653e+00 3.623389e+00 5.638724e+00 4.249315e+00 4.452943e+00 5.008346e+00 4.919869e+00 2.778039e+00 2.583383e+00 5.169024e+00 1.282800e+00 6.276942e-01 7.577839e-01 7.135096e-01 5.647619e-01 1.018245e+00 8.498006e-01 8.655162e-01 7.574186e-01 7.008436e-01 5.411469e-01 4.425617e-01 9.746853e-01
<GCONST> 1.349525e+02
<TRANSP> 5
 0.000000e+00 1.000000e+00 0.000000e+00 0.000000e+00 0.000000e+00
 0.000000e+00 6.219678e-01 3.780322e-01 0.000000e+00 0.000000e+00
 0.000000e+00 0.000000e+00 8.156840e-01 1.843160e-01 0.000000e+00
 0.000000e+00 0.000000e+00 0.000000e+00 7.308370e-01 2.691630e-01
 0.000000e+00 0.000000e+00 0.000000e+00 0.000000e+00 0.000000e+00
<ENDHMM>
~h "T"
<BEGINHMM>
<NUMSTATES> 5
<STATE> 2
<MEAN> 39
 -7.909639e+00 6.174801e+00 4.125023e+00 2.718191e+00 1.027824e+00 -1.990660e+00 3.551235e+00 1.966311e+00 -2.347999e+00 -2.588349e+00 5.037521e-01 1.412674e+00 4.820477e+01 -1.178608e+00 -3.685133e-01 -9.199276e-01 2.900012e-02 -3.142090e-01 6.779939e-01 -6.930801e-02 -1.999990e-01 7.623454e-01 1.224789e+00 9.244790e-02 3.384725e-01 -1.124713e+00 -1.375477e-01 -7.202383e-01 2.297591e-01 -4.059943e-01 4.031507e-01 -2.229338e-01 1.254685e-01 -5.701332e-01 -2.167713e-01 -5.946262e-01 7.307196e-02 1.269603e-01 1.630504e+00
<VARIANCE> 39
 3.582920e+01 2.186059e+01 3.380103e+01 4.104324e+01 7.156133e+01 6.108906e+01 4.208022e+01 5.866196e+01 3.673465e+01 4.296338e+01 2.789528e+01 2.650565e+01 4.288781e+01 3.076276e+00 3.439099e+00 3.031303e+00 3.269901e+00 3.656317e+00 3.001880e+00 3.816595e+00 4.682308e+00 2.481068e+00 3.245752e+00 2.090104e+00 1.988698e+00 7.723819e+00 6.257957e-01 6.103030e-01 7.506530e-01 6.258841e-01 7.834001e-01 7.121524e-01 9.219109e-01 1.058890e+00 6.044964e-01 6.627619e-01 4.782660e-01 4.607436e-01 1.484978e+00
<GCONST> 1.306276e+02
<STATE> 3
<MEAN> 39
 -1.313862e+01 1.925832e+00 3.050223e+00 1.493812e+00 2.718362e+00 4.258361e-02 4.743865e+00 -1.486917e+00 3.752766e-01 2.433561e-02 1.002154e+00 2.781690e+00 5.083907e+01 -1.243475e+00 -2.457056e+00 6.836608e-01 -1.150129e+00 9.575139e-01 1.219238e-01 7.662161e-01 -2.558111e+00 -5.400431e-01 -8.198356e-01 6.931442e-02 7.298287e-01 5.050164e+00 1.109294e+00 9.106119e-03 5.345067e-01 -1.153074e-02 4.272933e-01 -8.906042e-01 -3.815053e-01 9.812395e-02 -1.019782e+00 -1.336815e+00 7.786832e-02 -1.582044e-01 1.224152e+00
<VARIANCE> 39
 2.950730e+01 4.081303e+01 2.134664e+01 3.561855e+01 4.756002e+01 4.422907e+01 3.656918e+01 5.348893e+01 2.976007e+01 3.163703e+01 2.359693e+01 2.346816e+01 8.758913e+01 4.428873e+00 2.949525e+00 3.551773e+00 4.165110e+00 6.771035e+00 6.157457e+00 5.365348e+00 6.158255e+00 4.879784e+00 5.204908e+00 3.250706e+00 3.339104e+00 6.581278e+00 5.210887e-01 6.333472e-01 6.032859e-01 8.280969e-01 1.063911e+00 9.899796e-01 1.008936e+00 1.153794e+00 7.377828e-01 8.756030e-01 6.281024e-01 5.590010e-01 1.351792e+00
<GCONST> 1.354862e+02
<STATE> 4
<MEAN> 39
 -1.277467e+01 -2.152452e+00 6.356359e+00 -9.863216e-01 5.636658e+00 -8.427590e-01 5.824978e+00 -7.492235e+00 -4.357959e+00 -5.455508e+00 8.548064e-01 4.014729e+00 6.570921e+01 2.586505e+00 -7.666668e-01 9.706863e-01 -4.716551e-01 1.292931e+00 -2.718164e+00 -1.035577e+00 5.059828e-02 -2.700649e+00 -3.947476e+00 2.583953e-01 -8.237813e-02 4.115673e+00 1.079285e+00 6.194072e-01 -2.440438e-01 3.479848e-01 -1.293137e-01 -9.589167e-01 -6.163225e-01 1.292011e+00 -2.390682e-01 -5.115379e-01 1.663389e-01 -3.520570e-01 -1.192400e+00
<VARIANCE> 39
 3.253650e+01 2.113072e+01 1.913162e+01 2.402493e+01 3.625284e+01 3.604549e+01 4.572916e+01 4.101658e+01 4.004143e+01 4.453957e+01 2.408207e+01 2.099773e+01 3.274574e+01 4.710323e+00 3.275472e+00 3.308845e+00 4.582592e+00 8.355694e+00 8.566996e+00 7.407165e+00 8.101562e+00 5.395339e+00 8.395920e+00 4.550950e+00 3.865042e+00 9.480335e+00 7.150800e-01 5.161801e-01 5.424796e-01 7.123550e-01 8.531458e-01 1.084732e+00 1.132051e+00 9.832731e-01 1.201318e+00 1.202916e+00 7.083721e-01 5.186499e-01 8.140608e-01
<GCONST> 1.362473e+02
<TRANSP> 5
 0.000000e+00 1.000000e+00 0.000000e+00 0.000000e+00 0.000000e+00
 0.000000e+00 6.369890e-01 3.630110e-01 0.000000e+00 0.000000e+00
 0.000000e+00 0.000000e+00 3.776047e-01 6.223953e-01 0.000000e+00
 0.000000e+00 0.000000e+00 0.000000e+00 4.728797e-01 5.271203e-01
 0.000000e+00 0.000000e+00 0.000000e+00 0.000000e+00 0.000000e+00
<ENDHMM>
~h "U"
<BEGINHMM>
<NUMSTATES> 5
<STATE> 2
<MEAN> 39
 -2.839026e+00 2.666224e+00 9.757961e+00 -1.325784e+00 8.260189e+00 -4.283773e+00 9.620870e-01 1.905240e+00 -4.525727e+00 -1.663313e+01 -3.540841e+00 1.781676e+00 6.262217e+01 2.278002e+00 1.194128e+00 1.488692e+00 -3.568800e-01 -8.481608e-02 -2.507227e+00 -2.223679e+00 1.639186e+00 3.791105e-01 -2.852200e+00 -1.392610e+00 -2.208735e-01 9.149179e-01 -3.406608e-01 -1.536372e-01 -3.009884e-01 2.089259e-01 -2.261375e-01 2.267243e-02 -1.702097e-01 5.548824e-02 5.267515e-01 5.063736e-01 1.294775e-01 -1.070033e-02 -2.775042e-01
<VARIANCE> 39
 2.539836e+01 3.379269e+01 3.017937e+01 2.951996e+01 5.180180e+01 1.019912e+02 6.459204e+01 5.325811e+01 7.175447e+01 6.163379e+01 3.608462e+01 2.556014e+01 5.322459e+01 4.372347e+00 4.743974e+00 3.862572e+00 4.324216e+00 4.031417e+00 6.886479e+00 7.851666e+00 5.162141e+00 5.292873e+00 6.565902e+00 3.922098e+00 3.321803e+00 3.228755e+00 7.605847e-01 6.741204e-01 6.461086e-01 5.009287e-01 6.583556e-01 1.421072e+00 9.647090e-01 8.163555e-01 7.952625e-01 1.127270e+00 5.785840e-01 4.977046e-01 8.497097e-01
<GCONST> 1.376782e+02
<STATE> 3
<MEAN> 39
 1.395511e-01 2.663821e+00 1.208278e+01 -2.187840e+00 6.616634e+00 -1.092748e+01 -3.893491e+00 6.897089e+00 -9.234627e-01 -2.262679e+01 -6.094794e+00 1.996849e+00 6.574609e+01 4.929282e-01 3.198963e-01 -6.604450e-03 -1.957447e-02 -1.589836e-01 -5.603299e-01 -8.040128e-01 5.503289e-01 9.478828e-01 -3.625850e-01 -6.713700e-01 -2.843759e-01 4.059735e-02 -5.748633e-01 -1.807724e-02 -5.937873e-01 3.087601e-01 1.223428e-01 1.148205e+00 7.559015e-01 -6.932853e-01 -1.133954e-02 1.311309e+00 3.515465e-01 -1.140912e-01 -6.107023e-01
<VARIANCE> 39
 8.356875e+00 2.059723e+01 2.956767e+01 2.883706e+01 5.659242e+01 7.423344e+01 5.371489e+01 4.683745e+01 9.270993e+01 4.708862e+01 4.383046e+01 2.970310e+01 1.399638e+01 1.409274e+00 2.335280e+00 2.163301e+00 2.136474e+00 3.399901e+00 6.036329e+00 6.057061e+00 4.727162e+00 3.817340e+00 5.535309e+00 3.505579e+00 2.290909e+00 2.095723e+00 4.202273e-01 4.956205e-01 5.094337e-01 4.984226e-01 6.756565e-01 9.674554e-01 9.235224e-01 7.056938e-01 9.977065e-01 9.644292e-01 6.482863e-01 5.509880e-01 3.040588e-01
<GCONST> 1.268596e+02
<STATE> 4
<MEAN> 39
 -2.558691e-01 5.096128e+00 9.407809e+00 -1.684663e+00 6.805847e+00 -7.056075e+00 -2.116066e+00 3.974813e+00 2.228923e-02 -1.721523e+01 -7.094275e+00 1.321113e-01 6.278141e+01 -3.520828e-01 7.207409e-01 -1.125501e+00 9.624489e-01 3.360152e-01 2.164632e+00 1.109354e+00 -8.617304e-01 9.389833e-02 2.369697e+00 4.058608e-01 -3.254916e-01 -1.759973e+00 -3.475600e-01 -1.478625e-01 -1.090958e-01 2.740364e-01 -2.185212e-03 2.960692e-01 2.090328e-01 -3.661249e-02 -9.045064e-02 2.955547e-01 2.801403e-01 1.327600e-01 -2.946463e-01
<VARIANCE> 39
 1.415046e+01 2.682791e+01 3.273931e+01 3.852275e+01 6.244954e+01 8.724081e+01 7.233856e+01 5.404500e+01 8.431480e+01 5.668671e+01 5.663130e+01 2.946279e+01 3.215024e+01 2.214563e+00 2.667402e+00 2.866137e+00 3.202502e+00 4.399235e+00 5.581653e+00 5.444479e+00 4.339270e+00 4.796388e+00 5.277357e+00 3.554628e+00 2.746079e+00 2.965547e+00 3.602706e-01 4.916628e-01 4.089587e-01 4.973839e-01 5.806500e-01 1.141495e+00 1.108520e+00 8.343233e-01 8.707103e-01 1.062497e+00 6.839471e-01 4.985536e-01 5.078929e-01
<GCONST> 1.323017e+02
<TRANSP> 5
 0.000000e+00 1.000000e+00 0.000000e+00 0.000000e+00 0.000000e+00
 0.000000e+00 2.775421e-01 7.224579e-01 0.000000e+00 0.000000e+00
 0.000000e+00 0.000000e+00 5.652208e-01 4.347792e-01 0.000000e+00
 0.000000e+00 0.000000e+00 0.000000e+00 5.495725e-01 4.504276e-01
 0.000000e+00 0.000000e+00 0.000000e+00 0.000000e+00 0.000000e+00
<ENDHMM>
~h "Y"
<BEGINHMM>
<NUMSTATES> 5
<STATE> 2
<MEAN> 39
 -4.561207e-01 -6.539972e+00 1.313464e+00 5.667918e+00 9.474034e+00 -1.965666e+01 -1.146625e-01 -2.087902e+00 -1.544855e+01 -8.092506e+00 1.091627e+01 3.656472e+00 6.997649e+01 -2.932242e-01 -2.071486e-01 5.611073e-01 4.044869e-01 1.036636e+00 -1.631060e-01 -1.018860e+00 -1.177711e+00 -1.116359e+00 1.129006e+00 4.531949e-01 -3.814116e-01 -6.542044e-02 -4.024974e-02 2.420226e-01 1.563664e-01 -7.910598e-02 -7.352938e-02 1.240665e-01 6.079117e-02 1.496512e-01 3.077899e-01 -9.739424e-02 -3.552625e-01 -1.616452e-01 -1.788284e-01
<VARIANCE> 39
 1.172172e+01 1.674433e+01 5.813920e+01 5.111322e+01 5.902188e+01 4.276851e+01 8.893159e+01 6.044397e+01 6.210587e+01 7.854182e+01 4.540896e+01 4.176337e+01 1.527259e+01 2.574249e-01 9.389220e-01 1.633410e+00 1.670985e+00 2.240877e+00 1.657214e+00 2.559466e+00 2.634099e+00 2.786593e+00 2.115484e+00 2.577343e+00 1.984977e+00 3.526337e-01 4.230826e-02 1.535095e-01 2.149894e-01 2.001624e-01 2.715782e-01 3.691470e-01 3.957745e-01 3.970825e-01 5.073759e-01 3.872145e-01 3.926628e-01 2.890601e-01 6.609707e-02
<GCONST> 1.064587e+02
<STATE> 3
<MEAN> 39
 -2.401140e+00 -5.213678e+00 5.497179e+00 7.099994e+00 1.299059e+01 -2.003428e+01 -4.161151e+00 -5.881251e+00 -1.669695e+01 -4.671816e+00 8.372017e+00 -5.060071e-02 6.791731e+01 -1.996764e-01 9.019725e-01 3.189347e-01 -1.687192e-01 7.656854e-02 9.178748e-01 -2.116026e-01 -3.839270e-01 4.323190e-01 2.704904e-01 -8.022816e-01 -2.878499e-01 -1.087465e+00 3.791177e-02 3.101637e-01 -1.960021e-01 -1.124959e-01 -3.364814e-01 5.318941e-01 3.368681e-01 2.591439e-01 4.016295e-01 -1.226817e-01 -1.596545e-01 1.962927e-01 -4.264434e-01
<VARIANCE> 39
 9.830052e+00 1.608533e+01 3.112717e+01 4.705687e+01 4.073071e+01 4.417254e+01 6.823672e+01 6.307853e+01 5.463586e+01 7.734668e+01 3.714468e+01 3.474030e+01 2.177463e+01 5.582772e-01 1.323219e+00 2.275786e+00 2.190517e+00 2.202212e+00 2.697385e+00 2.691067e+00 2.239663e+00 2.940841e+00 2.221734e+00 2.995279e+00 2.475661e+00 1.821372e+00 9.707892e-02 1.985047e-01 2.440913e-01 2.580549e-01 3.580004e-01 4.193468e-01 4.419871e-01 4.170265e-01 5.219221e-01 4.058278e-01 4.506502e-01 3.421834e-01 1.610569e-01
<GCONST> 1.122978e+02
<STATE> 4
<MEAN> 39
 -4.902463e+00 -6.618392e-01 4.245000e+00 5.911065e+00 9.789105e+00 -1.272110e+01 -4.234554e+00 -4.824689e+00 -1.102231e+01 -2.735950e+00 5.325921e+00 1.854566e+00 5.825122e+01 -4.929585e-01 8.547670e-01 -3.299133e-01 -2.302931e-01 -5.862861e-01 1.798023e+00 4.733418e-01 4.072455e-01 1.073932e+00 1.517558e-01 -3.400109e-01 3.034119e-01 -1.655421e+00 -4.599845e-02 -2.388640e-02 -3.521025e-02 -2.507624e-02 -9.255802e-02 1.693451e-01 2.574419e-01 1.828735e-01 1.871454e-01 -5.451860e-02 -3.568928e-02 2.174237e-02 -1.905840e-02
<VARIANCE> 39
 2.533110e+01 3.713910e+01 3.155925e+01 3.978882e+01 5.476937e+01 6.940348e+01 6.060689e+01 6.261165e+01 6.543436e+01 8.282596e+01 3.965548e+01 3.253744e+01 1.073863e+02 1.258303e+00 2.021293e+00 2.309240e+00 2.172846e+00 3.012511e+00 3.611483e+00 3.232539e+00 3.014560e+00 3.647041e+00 2.559121e+00 3.054773e+00 2.282311e+00 2.896329e+00 2.006176e-01 3.853354e-01 3.819222e-01 3.531592e-01 5.449018e-01 5.908594e-01 5.224690e-01 5.071027e-01 5.688535e-01 4.392599e-01 5.264111e-01 4.056900e-01 4.550579e-01
<GCONST> 1.242867e+02
<TRANSP> 5
 0.000000e+00 1.000000e+00 0.000000e+00 0.000000e+00 0.000000e+00
 0.000000e+00 6.968480e-01 3.031520e-01 0.000000e+00 0.000000e+00
 0.000000e+00 0.000000e+00 5.491689e-01 4.508311e-01 0.000000e+00
 0.000000e+00 0.000000e+00 0.000000e+00 4.916595e-01 5.083405e-01
 0.000000e+00 0.000000e+00 0.000000e+00 0.000000e+00 0.000000e+00
<ENDHMM>
~h "AH"
<BEGINHMM>
<NUMSTATES> 5
<STATE> 2
<MEAN> 39
 1.732467e-02 -3.755637e+00 -8.503993e-01 -2.074004e+00 -1.842821e-01 -1.785818e+01 6.389894e+00 6.546964e+00 -8.519164e+00 -1.405346e+01 8.655284e+00 6.491104e+00 6.941077e+01 1.265493e+00 -1.138630e+00 -1.477767e+00 -5.618101e-01 -1.521910e+00 -2.932373e+00 1.148016e+00 1.303473e+00 -8.193564e-01 -9.527425e-01 1.555794e+00 5.193153e-01 1.916369e+00 -4.988850e-01 1.525863e-01 2.734121e-01 2.369221e-01 2.959445e-01 1.019117e+00 7.420468e-02 -3.787423e-01 3.824163e-01 5.843329e-01 -4.858496e-01 -3.007148e-01 -7.201584e-01
<VARIANCE> 39
 2.282674e+01 2.049936e+01 2.729161e+01 3.375036e+01 6.675982e+01 7.536227e+01 8.881881e+01 8.714703e+01 7.519108e+01 6.861658e+01 3.724064e+01 2.927693e+01 4.901333e+01 3.101624e+00 2.602703e+00 2.054555e+00 2.634936e+00 3.653009e+00 6.557528e+00 6.482011e+00 4.484942e+00 4.313479e+00 5.414476e+00 3.748479e+00 2.900697e+00 4.015728e+00 6.123559e-01 5.506838e-01 5.269396e-01 4.659319e-01 6.968063e-01 1.290221e+00 9.391735e-01 7.915726e-01 8.659549e-01 8.907565e-01 7.167751e-01 6.145672e-01 7.747683e-01
<GCONST> 1.345853e+02
<STATE> 3
<MEAN> 39
 1.315033e+00 -5.977075e+00 -2.204947e+00 -2.342836e+00 -3.959993e+00 -2.133743e+01 1.105000e+01 8.264377e+00 -9.023648e+00 -1.371874e+01 9.664187e+00 6.670334e+00 7.183971e+01 -1.427021e-02 5.084829e-01 2.562405e-01 8.784116e-02 1.859054e-01 5.229192e-01 5.255428e-02 -4.548351e-01 -1.381809e-01 7.363846e-02 -4.061731e-01 -1.125450e-01 -5.000576e-01 -1.459562e-01 5.128936e-01 3.864245e-01 2.192280e-01 4.901377e-01 8.005687e-01 -4.762603e-01 -2.748549e-01 2.042298e-01 1.452713e-01 -5.308161e-01 -1.880899e-01 -6.794612e-01
<VARIANCE> 39
 8.878988e+00 1.648692e+01 2.065419e+01 2.650616e+01 5.938707e+01 4.355700e+01 8.465356e+01 7.748093e+01 5.493733e+01 5.025460e+01 2.919344e+01 2.509816e+01 1.334995e+01 4.579978e-01 1.479400e+00 1.203526e+00 1.386397e+00 2.955761e+00 2.690490e+00 3.472435e+00 3.325404e+00 2.834249e+00 2.521899e+00 2.383592e+00 1.873853e+00 1.062417e+00 1.850441e-01 2.271296e-01 2.537538e-01 2.825286e-01 3.461563e-01 6.564507e-01 5.862510e-01 5.600181e-01 5.866449e-01 5.742242e-01 4.748676e-01 3.821209e-01 2.247946e-01
<GCONST> 1.122059e+02
<STATE> 4
<MEAN> 39
 -3.822168e-01 1.705771e-01 -3.507535e-01 -1.886887e+00 -7.897766e-01 -1.438335e+01 7.886795e+00 4.425371e+00 -9.031419e+00 -1.184484e+01 5.836425e+00 6.463440e+00 6.388349e+01 -5.054066e-01 1.483976e+00 6.169165e-01 5.429651e-01 9.133591e-01 2.391305e+00 -1.042045e+00 -2.453862e-01 9.497596e-01 1.022738e+00 -1.292814e+00 -4.155349e-01 -2.717202e+00 -2.577895e-01 -1.848152e-01 7.546955e-02 4.011516e-02 6.680333e-03 2.256043e-01 -5.738187e-02 7.403633e-02 2.685840e-01 3.138686e-01 9.529399e-03 -1.189920e-01 -1.065404e-01
<VARIANCE> 39
 1.662913e+01 2.305030e+01 2.775393e+01 3.335643e+01 6.871272e+01 5.981765e+01 6.629153e+01 7.333518e+01 5.268762e+01 6.656925e+01 3.531254e+01 2.862406e+01 6.409591e+01 2.064500e+00 1.923075e+00 2.543663e+00 2.631212e+00 3.844430e+00 3.914987e+00 4.119283e+00 4.282677e+00 3.577974e+00 3.630449e+00 3.074365e+00 2.563373e+00 2.533206e+00 3.220879e-01 3.775060e-01 4.426652e-01 4.263661e-01 6.189101e-01 7.227764e-01 5.749872e-01 7.440246e-01 6.476671e-01 6.059644e-01 5.241690e-01 4.358949e-01 6.287835e-01
<GCONST> 1.266245e+02
<TRANSP> 5
 0.000000e+00 1.000000e+00 0.000000e+00 0.000000e+00 0.000000e+00
 0.000000e+00 5.343307e-01 4.656692e-01 0.000000e+00 0.000000e+00
 0.000000e+00 0.000000e+00 7.011306e-01 2.988694e-01 0.000000e+00
 0.000000e+00 0.000000e+00 0.000000e+00 5.580366e-01 4.419634e-01
 0.000000e+00 0.000000e+00 0.000000e+00 0.000000e+00 0.000000e+00
<ENDHMM>
~h "AX"
<BEGINHMM>
<NUMSTATES> 5
<STATE> 2
<MEAN> 39
 -1.332066e+00 6.658212e-01 5.568789e+00 -3.681870e+00 7.310368e+00 -6.263093e+00 3.226224e+00 1.769830e-01 -5.621539e+00 -1.647722e+01 1.357103e+00 3.831868e+00 6.673693e+01 3.851491e+00 1.384918e+00 -3.669016e-01 -4.901179e-01 -2.209215e+00 -5.616859e+00 -1.404116e+00 3.698870e+00 -2.207291e-01 -3.311171e+00 1.166386e-01 -4.526709e-01 1.315947e+00 -7.726133e-01 -9.330738e-01 -4.153661e-01 2.155537e-01 7.848791e-03 -2.460051e-01 -2.158005e-01 -2.701169e-02 3.380847e-01 5.577326e-01 4.039926e-01 -8.539062e-02 1.462844e-01
<VARIANCE> 39
 1.820105e+01 1.948725e+01 1.500008e+01 1.268582e+01 3.438132e+01 5.259179e+01 4.199397e+01 4.811938e+01 3.601055e+01 2.882264e+01 2.694052e+01 2.357137e+01 1.437160e+01 1.925532e+00 7.506928e+00 1.472759e+00 2.887813e+00 2.469772e+00 3.235214e+00 4.917126e+00 3.302621e+00 4.073958e+00 2.795625e+00 2.107919e+00 3.954408e+00 5.934007e-01 7.937939e-01 8.193673e-01 2.479679e-01 2.144851e-01 3.201689e-01 1.116559e+00 6.434995e-01 7.201193e-01 6.749724e-01 6.037636e-01 3.974971e-01 7.277319e-01 3.004642e-01
<GCONST> 1.184854e+02
<STATE> 3
<MEAN> 39
 2.715156e+00 -1.256185e+00 2.377335e+00 -4.488116e+00 3.592710e+00 -1.691457e+01 2.067134e+00 8.361255e+00 -4.717034e+00 -2.145287e+01 3.624694e+00 4.229294e+00 6.940685e+01 9.739255e-01 -2.914314e-01 -1.231153e+00 -2.394429e-03 -1.200066e+00 -3.000068e+00 1.013222e-01 2.309138e+00 1.780256e-02 -5.816910e-01 1.021846e+00 -4.498197e-01 3.332688e-01 -9.274290e-01 -3.363704e-01 1.797305e-01 2.498624e-01 4.123197e-01 1.342367e+00 2.989420e-01 -1.078437e+00 -1.619959e-01 9.505939e-01 -3.982013e-03 8.571799e-02 -3.597392e-01
<VARIANCE> 39
 7.109743e+00 9.113476e+00 1.830007e+01 2.168898e+01 3.222771e+01 3.039779e+01 4.842417e+01 4.756749e+01 4.107292e+01 2.029656e+01 1.789388e+01 2.967669e+01 7.336592e+00 5.760993e-01 7.551312e-01 5.701812e-01 1.300281e+00 8.458975e-01 4.223438e+00 3.196112e+00 3.536350e+00 2.354636e+00 2.088641e+00 2.038497e+00 1.943181e+00 5.619187e-01 2.365600e-01 5.643395e-01 1.514246e-01 2.768727e-01 2.393572e-01 6.253728e-01 6.279454e-01 5.499549e-01 5.308259e-01 3.447900e-01 4.917506e-01 7.130229e-01 4.941304e-02
<GCONST> 1.025131e+02
<STATE> 4
<MEAN> 39
 2.998767e+00 -1.339927e+00 1.572111e+00 -3.608209e+00 1.700902e-01 -1.945365e+01 4.139008e+00 9.244425e+00 -5.784713e+00 -1.937732e+01 4.802857e+00 3.329274e+00 6.917419e+01 -4.317106e-01 3.604074e-01 4.271940e-01 3.123600e-01 -1.816531e-02 9.162090e-01 -4.193431e-02 -1.083680e+00 -4.079027e-01 7.353031e-01 -3.163759e-01 1.196306e-01 -6.694598e-01 -4.160643e-01 2.750824e-01 3.796018e-01 3.845445e-02 4.736312e-01 9.260734e-01 -2.356084e-01 -6.205069e-01 8.088788e-02 4.384422e-01 -2.901078e-01 3.157593e-02 -4.263617e-01
<VARIANCE> 39
 6.716099e+00 6.259734e+00 2.379090e+01 2.331324e+01 4.794208e+01 3.898527e+01 5.508664e+01 5.355418e+01 2.979967e+01 1.913890e+01 1.426844e+01 2.432271e+01 7.341378e+00 5.749980e-01 1.059513e+00 1.554129e+00 1.479893e+00 2.895528e+00 3.337729e+00 2.260383e+00 3.332444e+00 2.080996e+00 1.967741e+00 3.394356e+00 1.632663e+00 1.548396e+00 1.768243e-01 1.693155e-01 3.348913e-01 3.047298e-01 3.565815e-01 7.002509e-01 4.318261e-01 6.056560e-01 4.403817e-01 4.214323e-01 6.753468e-01 4.354933e-01 2.440832e-01
<GCONST> 1.067927e+02
<TRANSP> 5
 0.000000e+00 1.000000e+00 0.000000e+00 0.000000e+00 0.000000e+00
 0.000000e+00 4.988082e-01 5.011919e-01 0.000000e+00 0.000000e+00
 0.000000e+00 0.000000e+00 5.298909e-01 4.701091e-01 0.000000e+00
 0.000000e+00 0.000000e+00 0.000000e+00 7.146681e-01 2.853319e-01
 0.000000e+00 0.000000e+00 0.000000e+00 0.000000e+00 0.000000e+00
<ENDHMM>
~h "BH"
<BEGINHMM>
<NUMSTATES> 5
<STATE> 2
<MEAN> 39
 -3.062674e+00 8.308741e+00 6.237781e+00 6.786380e+00 6.659352e+00 -3.659523e-01 3.697304e+00 4.686757e+00 -1.715565e-01 -5.125071e+00 -1.327004e+00 -1.007609e-01 5.275907e+01 -1.861580e+00 -3.506773e-01 5.541790e-02 -6.845278e-01 2.759013e-01 1.229884e+00 1.432835e+00 -1.249920e+00 7.033734e-01 1.458581e+00 -3.167878e-02 1.406302e-01 4.303722e-01 -2.151290e-01 -8.431013e-01 -1.233834e-01 -6.326933e-01 1.586924e-01 -3.494008e-01 8.554852e-02 4.447909e-02 -3.788397e-02 -5.254376e-01 3.441084e-01 4.008793e-01 9.886968e-01
<VARIANCE> 39
 4.939355e+01 2.207004e+01 2.241805e+01 2.959730e+01 3.400402e+01 4.657516e+01 2.864546e+01 4.872812e+01 3.567710e+01 3.308955e+01 2.249286e+01 2.878345e+01 3.805506e+01 6.486998e+00 4.314092e+00 2.229680e+00 4.228315e+00 2.927396e+00 4.797402e+00 4.236506e+00 4.422900e+00 3.216396e+00 5.276215e+00 2.751742e+00 3.391119e+00 5.624475e+00 1.087706e+00 4.658898e-01 3.869872e-01 5.905369e-01 6.411214e-01 6.917853e-01 7.311456e-01 1.236968e+00 5.477226e-01 7.713822e-01 4.976298e-01 5.073388e-01 6.062512e-01
<GCONST> 1.290956e+02
<STATE> 3
<MEAN> 39
 -1.043823e+01 5.217248e-01 3.383707e+00 -1.460554e-01 8.459625e+00 2.772498e+00 9.937764e+00 9.618113e-01 1.524983e+00 -3.165751e+00 1.816553e+00 4.682850e+00 6.124267e+01 -2.594925e-01 -1.761751e+00 2.093363e-01 -1.763726e+00 8.504803e-02 -1.156078e-02 1.495169e+00 1.465487e+00 1.023677e+00 -1.842339e-01 9.344578e-01 1.265721e+00 2.093645e+00 1.014834e+00 4.794725e-01 6.440079e-01 3.501406e-01 -2.462349e-01 -8.000655e-01 -5.208291e-01 8.117140e-01 3.855237e-02 -6.669150e-01 -2.196471e-01 -2.848451e-01 -1.664375e-01
<VARIANCE> 39
 2.243776e+01 1.749643e+01 2.151064e+01 2.272760e+01 3.765926e+01 2.775525e+01 2.392668e+01 3.739100e+01 2.890673e+01 2.186971e+01 1.974345e+01 2.061181e+01 1.982738e+01 3.259564e+00 2.725348e+00 3.474587e+00 3.236014e+00 5.950678e+00 4.954937e+00 4.461233e+00 6.948085e+00 4.708263e+00 3.609803e+00 2.662125e+00 3.011653e+00 2.228433e+00 4.243861e-01 5.273406e-01 5.663541e-01 5.393378e-01 5.915524e-01 7.061939e-01 8.750286e-01 9.903945e-01 5.973349e-01 6.366171e-01 5.147725e-01 5.167935e-01 4.303630e-01
<GCONST> 1.233400e+02
<STATE> 4
<MEAN> 39
 -6.351617e+00 -9.346593e-01 8.873552e+00 -4.287153e+00 2.608105e+00 -3.903121e+00 1.499075e+01 1.157133e+01 5.947346e+00 -7.665681e+00 1.696012e+00 5.469045e+00 6.556161e+01 1.049733e+00 3.370888e-01 4.725792e-01 -3.715849e-01 -5.192131e-01 -1.711831e+00 -5.338917e-01 3.891851e-01 -5.113297e-01 -1.647776e+00 -2.196035e-02 -2.690465e-01 1.110589e+00 2.569824e-01 3.235873e-01 -3.780457e-01 2.635735e-01 1.114249e-01 -3.110114e-01 -8.025033e-01 -5.446582e-01 -4.906669e-01 -2.189694e-01 -1.742049e-02 -1.530833e-01 -1.673459e-01
<VARIANCE> 39
 1.371423e+01 2.467749e+01 2.741695e+01 2.465747e+01 7.151797e+01 4.809550e+01 5.628958e+01 5.993892e+01 4.865158e+01 4.221281e+01 2.728479e+01 2.419351e+01 1.718988e+01 1.448416e+00 2.419350e+00 3.535447e+00 1.879106e+00 3.265813e+00 3.789957e+00 5.414712e+00 4.686985e+00 3.631717e+00 2.784953e+00 2.420859e+00 1.992320e+00 7.629803e-01 1.738126e-01 4.411225e-01 5.096505e-01 3.805884e-01 4.821613e-01 6.937133e-01 5.121823e-01 7.266611e-01 6.179006e-01 5.323474e-01 4.784935e-01 5.001056e-01 1.657210e-01
<GCONST> 1.191319e+02
<TRANSP> 5
 0.000000e+00 1.000000e+00 0.000000e+00 0.000000e+00 0.000000e+00
 0.000000e+00 7.034357e-01 2.965643e-01 0.000000e+00 0.000000e+00
 0.000000e+00 0.000000e+00 5.928053e-01 4.071947e-01 0.000000e+00
 0.000000e+00 0.000000e+00 0.000000e+00 7.289307e-01 2.710694e-01
 0.000000e+00 0.000000e+00 0.000000e+00 0.000000e+00 0.000000e+00
<ENDHMM>
~h "CH"
<BEGINHMM>
<NUMSTATES> 5
<STATE> 2
<MEAN> 39
 -2.491940e+01 -7.401172e+00 1.305116e+01 -5.592385e+00 2.395803e+00 -1.503965e+00 4.469243e+00 -6.210968e+00 -1.728837e+00 -2.120052e+00 4.666105e+00 3.145195e+00 6.421410e+01 -1.601768e+00 -2.377008e+00 1.550449e-01 -2.201285e-01 -4.230119e-01 3.762396e-01 -1.295308e-01 -8.126641e-01 5.232292e-01 8.192561e-01 1.096410e+00 2.362071e-01 1.544528e+00 1.011786e+00 2.234636e-01 -4.745323e-01 3.708208e-01 3.748440e-01 -1.771189e-01 -1.123576e-01 -1.451541e-01 -3.366160e-01 -9.297907e-02 -5.704671e-02 9.627376e-03 -1.776347e-01
<VARIANCE> 39
 4.952251e+01 7.294580e+01 3.586243e+01 4.496115e+01 3.217550e+01 2.897617e+01 2.739461e+01 4.233595e+01 2.695554e+01 3.068081e+01 2.973746e+01 2.237470e+01 5.246660e+01 1.038904e+01 3.951077e+00 7.309200e+00 4.593030e+00 4.224423e+00 3.534614e+00 3.520905e+00 3.982162e+00 3.097814e+00 3.191344e+00 2.310603e+00 2.075366e+00 5.280814e+00 1.092347e+00 1.223757e+00 1.060700e+00 6.663073e-01 7.314000e-01 6.407253e-01 8.414588e-01 8.039408e-01 5.157250e-01 5.883173e-01 5.967898e-01 3.852740e-01 1.438271e+00
<GCONST> 1.329173e+02
<STATE> 3
<MEAN> 39
 -1.716478e+01 -1.322892e+01 7.834798e+00 -4.779496e-01 6.210006e+00 -3.154672e+00 8.357981e-01 -1.304561e+01 -3.613182e+00 3.418133e+00 6.966875e+00 3.470872e+00 6.531513e+01 3.984699e+00 1.834480e+00 -6.797827e-01 1.669253e+00 2.137724e+00 -8.924917e-01 -5.746727e-01 -6.802405e-02 -1.312787e+00 3.652482e-02 -1.192411e+00 -5.785075e-01 -1.146866e+00 1.755747e-01 6.294568e-01 2.968551e-01 1.190230e-01 4.082644e-02 -3.793325e-01 1.826522e-01 4.755220e-01 -3.186812e-01 -4.135159e-01 -2.042964e-01 -2.267564e-01 1.375836e-01
<VARIANCE> 39
 6.093584e+01 2.389017e+01 1.566799e+01 3.084246e+01 2.621609e+01 2.911760e+01 2.055530e+01 2.878311e+01 2.870074e+01 3.596389e+01 2.540096e+01 1.775859e+01 1.646517e+01 2.451361e+00 2.932839e+00 2.116546e+00 2.724858e+00 2.079478e+00 3.784051e+00 2.865538e+00 2.786187e+00 2.477925e+00 1.900111e+00 2.200557e+00 1.366962e+00 1.126160e+00 7.274177e-01 6.893384e-01 4.549703e-01 3.555716e-01 4.454740e-01 4.956710e-01 4.624106e-01 5.142769e-01 4.941343e-01 4.030396e-01 6.415259e-01 3.012127e-01 4.155024e-01
<GCONST> 1.150542e+02
<STATE> 4
<MEAN> 39
 -7.961388e+00 -5.452985e+00 7.391271e+00 3.192443e+00 1.162777e+01 -4.049121e+00 2.448247e+00 -9.346410e+00 -6.746727e+00 8.645189e-01 3.272902e+00 2.113415e+00 6.317785e+01 3.317830e+00 2.436944e+00 -4.394963e-01 1.115124e+00 1.266902e+00 -1.954362e+00 -1.067797e-01 8.988486e-01 -1.913649e+00 -1.339885e+00 -4.793614e-01 -9.276066e-01 2.065867e-01 -6.165025e-01 -4.139927e-01 -8.412207e-02 -2.851104e-01 -6.484407e-01 -4.709063e-01 -2.634344e-01 7.549585e-02 7.468245e-03 -3.510309e-01 3.876950e-01 4.578022e-02 3.714807e-01
<VARIANCE> 39
 2.784127e+01 2.584642e+01 3.588424e+01 4.410455e+01 2.960571e+01 6.888651e+01 4.486322e+01 6.185164e+01 3.939437e+01 5.457687e+01 2.259888e+01 2.341447e+01 2.089846e+01 4.397569e+00 3.903605e+00 2.811917e+00 2.617115e+00 3.178292e+00 4.736621e+00 4.394068e+00 3.647769e+00 4.964237e+00 3.653815e+00 2.762508e+00 1.818194e+00 1.668239e+00 4.076591e-01 6.160563e-01 4.637232e-01 4.438612e-01 3.785506e-01 8.347064e-01 6.708249e-01 4.983885e-01 5.234455e-01 4.143302e-01 4.896260e-01 3.080887e-01 2.817578e-01
<GCONST> 1.236077e+02
<TRANSP> 5
 0.000000e+00 1.000000e+00 0.000000e+00 0.000000e+00 0.000000e+00
 0.000000e+00 8.406771e-01 1.593229e-01 0.000000e+00 0.000000e+00
 0.000000e+00 0.000000e+00 7.265997e-01 2.734003e-01 0.000000e+00
 0.000000e+00 0.000000e+00 0.000000e+00 1.590508e-01 8.409492e-01
 0.000000e+00 0.000000e+00 0.000000e+00 0.000000e+00 0.000000e+00
<ENDHMM>
~h "DH"
<BEGINHMM>
<NUMSTATES> 5
<STATE> 2
<MEAN> 39
 -3.874587e+00 7.764486e+00 7.128794e+00 5.627524e+00 3.196562e+00 -1.543455e+00 4.732294e+00 3.497241e+00 -2.861076e+00 -5.596982e+00 -1.223439e+00 1.924630e-01 5.142390e+01 -2.490090e+00 -1.646796e+00 -5.940503e-01 -1.072684e+00 1.786373e-01 1.109477e+00 5.843558e-01 -1.950382e+00 7.188185e-01 2.043082e+00 4.850781e-01 6.893686e-01 1.361214e+00 -5.022964e-01 -1.051028e+00 5.253328e-02 -7.856371e-01 3.321723e-01 -1.008796e-01 1.625880e-01 -6.103808e-01 -1.438803e-01 -4.562832e-01 4.299018e-01 4.448040e-01 1.671084e+00
<VARIANCE> 39
 4.185201e+01 2.462435e+01 3.019568e+01 3.821317e+01 5.579832e+01 4.667575e+01 4.249760e+01 6.551431e+01 3.452260e+01 4.742987e+01 2.744461e+01 2.597801e+01 3.455358e+01 5.158371e+00 6.870810e+00 2.532660e+00 5.297642e+00 4.087114e+00 4.151036e+00 5.205274e+00 7.725105e+00 3.490816e+00 5.215465e+00 3.316806e+00 3.124048e+00 1.342906e+01 1.013305e+00 6.614169e-01 5.892299e-01 8.017101e-01 6.206954e-01 6.051576e-01 8.880161e-01 1.373341e+00 5.501748e-01 8.333967e-01 4.994515e-01 4.812016e-01 8.919342e-01
<GCONST> 1.352519e+02
<STATE> 3
<MEAN> 39
 -1.536441e+01 -4.212359e+00 4.971103e+00 -2.137480e+00 4.781314e+00 1.403778e+00 7.806162e+00 -7.266959e+00 -1.178496e+00 -7.717269e-01 3.261225e+00 5.482646e+00 6.652749e+01 -1.445151e+00 -2.424466e+00 2.085544e-01 -2.187696e+00 1.320556e+00 1.375628e+00 1.102311e+00 -1.389763e+00 -2.266321e-01 1.161539e-01 1.323356e+00 1.529802e+00 3.400076e+00 1.453490e+00 1.070826e+00 5.740766e-01 5.285932e-01 3.036275e-01 -3.748345e-01 -2.175650e-01 1.430591e+00 -1.765372e-01 -1.056179e+00 -4.068900e-01 -4.474698e-01 -1.154180e+00
<VARIANCE> 39
 1.061046e+01 1.326229e+01 1.342405e+01 2.019329e+01 1.740578e+01 1.908564e+01 3.647200e+01 2.501601e+01 2.596073e+01 2.263345e+01 2.271819e+01 2.253532e+01 2.765110e+01 4.446448e+00 3.120847e+00 2.754053e+00 3.432732e+00 4.536375e+00 3.764971e+00 4.474896e+00 7.947426e+00 3.776175e+00 5.678451e+00 2.874657e+00 3.207268e+00 5.970834e+00 3.854121e-01 6.028629e-01 4.491200e-01 6.813258e-01 6.720545e-01 8.496361e-01 8.928339e-01 9.237425e-01 7.334321e-01 8.628187e-01 6.856076e-01 5.871065e-01 9.285810e-01
<GCONST> 1.243032e+02
<STATE> 4
<MEAN> 39
 -9.982907e+00 -2.939144e+00 8.355615e+00 -4.412700e+00 8.773727e+00 2.420861e+00 1.133843e+01 5.985292e-01 -1.091354e+00 -5.842965e+00 2.956784e+00 5.944045e+00 6.502158e+01 1.871902e+00 1.311900e+00 1.258898e+00 2.598737e-01 6.590795e-01 -1.154438e+00 -3.123316e-01 1.745684e+00 -4.554517e-02 -2.105354e+00 -5.739788e-01 -5.800908e-01 -6.864071e-02 3.850241e-01 5.439484e-01 -1.258825e-01 3.929107e-01 -4.430037e-01 -7.765452e-01 -6.877324e-01 3.426931e-02 -8.098384e-02 -3.113224e-01 -1.778309e-01 -2.872048e-01 -2.015972e-01
<VARIANCE> 39
 1.723514e+01 2.134618e+01 2.354039e+01 2.200732e+01 4.830299e+01 3.330626e+01 5.738583e+01 7.017182e+01 3.640628e+01 5.085045e+01 2.650542e+01 2.076539e+01 1.626259e+01 1.167069e+00 2.274952e+00 2.654894e+00 2.549404e+00 4.555901e+00 3.931474e+00 4.767344e+00 4.279661e+00 3.405426e+00 3.848524e+00 2.818452e+00 2.006411e+00 1.405840e+00 4.183679e-01 5.656199e-01 5.363399e-01 5.212445e-01 5.259141e-01 6.008590e-01 5.590081e-01 1.041546e+00 6.281286e-01 7.215061e-01 5.619684e-01 4.658715e-01 5.733473e-01
<GCONST> 1.224818e+02
<TRANSP> 5
 0.000000e+00 1.000000e+00 0.000000e+00 0.000000e+00 0.000000e+00
 0.000000e+00 6.072501e-01 3.927499e-01 0.000000e+00 0.000000e+00
 0.000000e+00 0.000000e+00 5.593096e-01 4.406904e-01 0.000000e+00
 0.000000e+00 0.000000e+00 0.000000e+00 7.094685e-01 2.905315e-01
 0.000000e+00 0.000000e+00 0.000000e+00 0.000000e+00 0.000000e+00
<ENDHMM>
~h "DX"
<BEGINHMM>
<NUMSTATES> 5
<STATE> 2
<MEAN> 39
 8.640460e-01 5.539711e+00 2.370275e+00 1.895305e+00 1.339049e+01 1.061556e+00 -2.092324e+00 1.587211e+00 -8.522068e+00 -9.197126e+00 1.613720e+00 2.624495e+00 5.606616e+01 -3.293351e-02 1.625574e+00 5.340619e-02 1.424624e+00 -8.366231e-01 1.708666e+00 1.612192e+00 1.356204e-02 4.449165e-01 1.260680e+00 -4.616400e-01 1.258217e-01 -1.870822e+00 -3.522586e-01 -4.935357e-01 3.901548e-02 1.138461e-01 -2.344401e-01 -8.791215e-01 -1.348679e-02 -1.488229e-01 1.091471e-01 -2.969183e-01 9.865031e-02 1.584852e-03 7.317600e-01
<VARIANCE> 39
 3.857467e+01 2.927077e+01 4.352101e+01 1.363183e+02 4.475700e+01 5.472820e+01 5.993917e+01 4.063260e+01 7.165951e+01 1.082808e+02 5.762558e+01 3.161696e+01 5.572076e+01 2.759302e+00 2.225846e+00 2.350612e+00 4.264131e+00 4.493761e+00 4.748145e+00 5.860575e+00 3.359022e+00 6.765720e+00 4.689822e+00 3.447172e+00 2.358502e+00 4.467449e+00 4.604214e-01 6.037223e-01 4.975878e-01 1.041471e+00 8.009368e-01 1.023137e+00 1.072614e+00 7.947365e-01 1.209459e+00 1.135918e+00 7.795971e-01 5.253487e-01 9.522858e-01
<GCONST> 1.377706e+02
<STATE> 3
<MEAN> 39
 6.176499e-01 1.002234e+01 3.540059e+00 8.217888e+00 1.128536e+01 3.086471e+00 6.583431e-01 5.010517e-01 -6.412110e+00 -5.186676e+00 6.817480e-01 1.796620e+00 5.151950e+01 -1.125968e+00 -7.084255e-01 2.471484e-01 4.350002e-01 -5.144837e-01 -9.280025e-01 9.055913e-01 -5.250948e-01 1.359623e-01 -2.509316e-02 -1.094042e-01 1.802214e-01 1.094477e+00 -3.166383e-01 -1.310019e+00 1.063464e-01 -6.208931e-01 3.084813e-01 -1.238875e+00 -4.273005e-01 -1.614799e-01 -4.232149e-01 -7.549666e-01 3.518364e-01 1.090275e-01 1.495665e+00
<VARIANCE> 39
 2.115615e+01 2.489639e+01 3.629009e+01 5.708392e+01 2.459838e+01 3.797850e+01 3.510864e+01 2.874766e+01 3.711171e+01 4.962988e+01 4.008650e+01 2.570502e+01 2.726627e+01 3.733753e+00 4.429346e+00 2.828261e+00 5.084659e+00 3.288789e+00 4.567897e+00 4.535226e+00 3.511819e+00 5.006625e+00 4.331817e+00 3.992104e+00 2.789133e+00 4.747811e+00 4.637249e-01 4.934053e-01 6.349471e-01 5.379959e-01 7.011743e-01 1.008178e+00 1.117172e+00 7.753848e-01 7.952074e-01 8.805861e-01 8.590732e-01 6.636313e-01 8.493093e-01
<GCONST> 1.309711e+02
<STATE> 4
<MEAN> 39
 -5.676110e+00 1.663381e+00 4.409425e+00 5.594172e+00 1.168365e+01 -2.808136e+00 2.529526e+00 -1.833400e+00 -6.758360e+00 -6.815328e+00 8.856197e-01 2.834221e+00 6.026685e+01 -5.501786e-01 -2.875797e+00 1.979953e-01 -1.019850e+00 -2.836706e-02 -3.095524e+00 -5.672358e-01 -3.622321e-01 -1.144982e+00 -1.909073e+00 1.114525e+00 7.964525e-01 3.629910e+00 5.838255e-01 2.749094e-02 -3.467845e-02 -2.870924e-01 -2.343228e-02 -3.484530e-01 -5.235217e-01 3.545833e-01 -1.602701e-01 -4.253918e-01 3.317237e-01 -1.274057e-02 3.755413e-02
<VARIANCE> 39
 2.605966e+01 5.201707e+01 3.726368e+01 3.880737e+01 3.344718e+01 5.206140e+01 4.505149e+01 4.545771e+01 5.196362e+01 7.363730e+01 3.533512e+01 3.095420e+01 7.397851e+01 3.286138e+00 6.113272e+00 5.483545e+00 3.977306e+00 5.345095e+00 9.100747e+00 6.381257e+00 5.450745e+00 5.176037e+00 7.342333e+00 6.556544e+00 5.623732e+00 8.791682e+00 5.406181e-01 1.173800e+00 7.820193e-01 7.547905e-01 1.074631e+00 1.230156e+00 1.481899e+00 8.511347e-01 1.044562e+00 1.129084e+00 8.800113e-01 6.570086e-01 1.296952e+00
<GCONST> 1.431452e+02
<TRANSP> 5
 0.000000e+00 1.000000e+00 0.000000e+00 0.000000e+00 0.000000e+00
 0.000000e+00 3.748173e-01 6.251827e-01 0.000000e+00 0.000000e+00
 0.000000e+00 0.000000e+00 5.125952e-01 4.874049e-01 0.000000e+00
 0.000000e+00 0.000000e+00 0.000000e+00 5.330532e-01 4.669468e-01
 0.000000e+00 0.000000e+00 0.000000e+00 0.000000e+00 0.000000e+00
<ENDHMM>
~h "EH"
<BEGINHMM>
<NUMSTATES> 5
<STATE> 2
<MEAN> 39
 -5.054209e+00 -3.882488e+00 1.483180e-01 2.875213e+00 8.424126e+00 -1.291607e+01 -1.387589e+00 -2.921623e+00 -1.057182e+01 -4.184720e+00 1.105798e+01 4.310972e+00 6.342643e+01 1.496302e+00 -1.910664e+00 -1.666669e+00 -3.412394e-01 -4.754740e-01 -3.301727e+00 2.044055e-01 -6.781241e-01 -1.574243e+00 6.270788e-01 2.833379e+00 3.028667e-01 3.426509e+00 -2.534741e-02 1.873563e-01 -4.990787e-02 1.236803e-01 -2.517400e-01 3.850323e-01 3.492129e-01 1.383256e-01 3.961438e-01 3.119236e-01 -2.413652e-01 -2.462619e-01 -2.625994e-01
<VARIANCE> 39
 5.355139e+01 2.951963e+01 3.521762e+01 3.632053e+01 4.379048e+01 9.813546e+01 5.852620e+01 5.528417e+01 1.056466e+02 1.018212e+02 4.440599e+01 2.572902e+01 1.456418e+02 4.210807e+00 3.487452e+00 2.882929e+00 2.772246e+00 3.305937e+00 7.901902e+00 4.536928e+00 3.590380e+00 5.880372e+00 4.732828e+00 5.519998e+00 3.671617e+00 9.536819e+00 8.506968e-01 7.970672e-01 6.537938e-01 5.174301e-01 5.839315e-01 1.675207e+00 8.357905e-01 7.076259e-01 1.283812e+00 8.246755e-01 1.005401e+00 5.829833e-01 2.103666e+00
<GCONST> 1.416059e+02
<STATE> 3
<MEAN> 39
 -7.693276e-01 -8.323343e+00 -4.262033e+00 2.875833e+00 5.613852e+00 -2.049225e+01 1.949607e+00 -4.950307e+00 -1.391887e+01 -1.553337e+00 1.739210e+01 3.570940e+00 7.319344e+01 4.305648e-02 5.014819e-01 -6.977292e-02 2.888874e-01 -9.441568e-02 8.454386e-02 6.790857e-01 -2.094179e-01 2.567658e-01 3.400778e-02 -2.263077e-01 -2.522209e-01 -1.450837e-01 -2.040524e-01 6.622887e-01 4.679922e-01 7.909334e-02 2.776716e-01 7.403354e-01 -1.538574e-01 1.086830e-01 3.277273e-01 -3.358694e-01 -8.269458e-01 -1.220296e-01 -8.683758e-01
<VARIANCE> 39
 7.912751e+00 1.538957e+01 1.947513e+01 2.361603e+01 4.251303e+01 2.900004e+01 4.372105e+01 4.776727e+01 4.590020e+01 7.263519e+01 2.705695e+01 2.546564e+01 1.211180e+01 4.332665e-01 1.939395e+00 1.572437e+00 1.690072e+00 3.264137e+00 2.606860e+00 2.910497e+00 2.977629e+00 2.542799e+00 4.211549e+00 3.196401e+00 2.015186e+00 1.705371e+00 2.188976e-01 2.250185e-01 2.402855e-01 3.045674e-01 4.201629e-01 6.892950e-01 5.130259e-01 4.924196e-01 6.151955e-01 5.672292e-01 5.688769e-01 4.240736e-01 3.277085e-01
<GCONST> 1.125537e+02
<STATE> 4
<MEAN> 39
 -3.294304e+00 -7.531145e-01 -2.021392e+00 4.112546e+00 8.182980e+00 -1.501860e+01 8.745646e-01 -6.927110e+00 -1.075657e+01 -1.370413e+00 1.198214e+01 2.420398e+00 6.382988e+01 -8.049752e-01 1.561008e+00 5.674935e-01 -2.784436e-01 -2.735780e-01 2.087014e+00 -4.412644e-01 6.989295e-01 1.492557e+00 2.783299e-01 -1.565599e+00 1.557624e-01 -3.109914e+00 -2.110341e-01 -2.922511e-01 -1.089672e-02 -1.784406e-01 -3.448669e-01 2.467685e-01 -2.469629e-02 2.011980e-01 1.344655e-01 1.447736e-01 -3.466790e-03 3.977505e-02 -2.478113e-02
<VARIANCE> 39
 2.027187e+01 1.849702e+01 3.359503e+01 3.680653e+01 6.420055e+01 4.429696e+01 5.300212e+01 5.630019e+01 5.034599e+01 7.458720e+01 3.947098e+01 3.873554e+01 6.283066e+01 2.911429e+00 2.216469e+00 2.531264e+00 2.959511e+00 4.236322e+00 3.468097e+00 3.265733e+00 3.356789e+00 3.303699e+00 4.116137e+00 3.340987e+00 2.548852e+00 2.300655e+00 4.492934e-01 3.700053e-01 5.593010e-01 5.370952e-01 9.222144e-01 6.589797e-01 8.145030e-01 6.785682e-01 6.937377e-01 7.667264e-01 6.293063e-01 5.643394e-01 9.515569e-01
<GCONST> 1.291227e+02
<TRANSP> 5
 0.000000e+00 1.000000e+00 0.000000e+00 0.000000e+00 0.000000e+00
 0.000000e+00 6.351733e-01 3.648267e-01 0.000000e+00 0.000000e+00
 0.000000e+00 0.000000e+00 7.708615e-01 2.291384e-01 0.000000e+00
 0.000000e+00 0.000000e+00 0.000000e+00 6.825934e-01 3.174066e-01
 0.000000e+00 0.000000e+00 0.000000e+00 0.000000e+00 0.000000e+00
<ENDHMM>
~h "EX"
<BEGINHMM>
<NUMSTATES> 5
<STATE> 2
<MEAN> 39
