~h "N"
<BEGINHMM>
<NUMSTATES> 5
<STATE> 2
<MEAN> 39
 -6.300072e+00 -6.418931e-01 4.145716e+00 2.313722e+00 6.271030e+00 -6.623523e+00 1.844872e+00 9.671586e-01 -4.869741e+00 -7.713646e+00 2.723762e+00 2.477545e+00 5.914436e+01 -2.586058e-04 1.549587e-03 6.870025e-04 1.207150e-04 -5.714423e-05 3.079417e-04 3.382612e-04 4.012045e-05 1.036941e-03 4.536691e-04 -8.661473e-04 -6.659820e-04 -5.150501e-04 -5.894177e-05 -1.953656e-04 -1.476647e-05 -5.817539e-05 -4.167217e-05 1.104925e-04 8.316743e-05 -7.257758e-05 -9.883386e-05 1.284908e-06 8.549621e-05 1.260234e-04 7.885860e-05
<VARIANCE> 39
 7.489158e+01 6.163103e+01 4.911285e+01 5.660658e+01 8.159623e+01 1.283595e+02 7.828905e+01 8.165112e+01 7.384118e+01 9.152923e+01 4.755254e+01 3.611581e+01 1.517972e+02 4.105834e+00 3.834689e+00 2.901074e+00 3.245545e+00 3.975756e+00 7.411990e+00 4.877269e+00 4.304575e+00 4.450325e+00 4.901345e+00 3.298242e+00 2.531864e+00 5.585910e+00 6.288179e-01 6.214429e-01 5.137152e-01 5.740775e-01 6.440730e-01 1.230075e+00 8.772646e-01 7.654092e-01 7.735459e-01 8.384765e-01 6.029965e-01 4.666039e-01 8.966993e-01
<GCONST> 1.411034e+02
<STATE> 3
<MEAN> 39
 -6.300072e+00 -6.418931e-01 4.145716e+00 2.313722e+00 6.271030e+00 -6.623523e+00 1.844872e+00 9.671586e-01 -4.869741e+00 -7.713646e+00 2.723762e+00 2.477545e+00 5.914436e+01 -2.586058e-04 1.549587e-03 6.870025e-04 1.207150e-04 -5.714423e-05 3.079417e-04 3.382612e-04 4.012045e-05 1.036941e-03 4.536691e-04 -8.661473e-04 -6.659820e-04 -5.150501e-04 -5.894177e-05 -1.953656e-04 -1.476647e-05 -5.817539e-05 -4.167217e-05 1.104925e-04 8.316743e-05 -7.257758e-05 -9.883386e-05 1.284908e-06 8.549621e-05 1.260234e-04 7.885860e-05
<VARIANCE> 39
 7.489158e+01 6.163103e+01 4.911285e+01 5.660658e+01 8.159623e+01 1.283595e+02 7.828905e+01 8.165112e+01 7.384118e+01 9.152923e+01 4.755254e+01 3.611581e+01 1.517972e+02 4.105834e+00 3.834689e+00 2.901074e+00 3.245545e+00 3.975756e+00 7.411990e+00 4.877269e+00 4.304575e+00 4.450325e+00 4.901345e+00 3.298242e+00 2.531864e+00 5.585910e+00 6.288179e-01 6.214429e-01 5.137152e-01 5.740775e-01 6.440730e-01 1.230075e+00 8.772646e-01 7.654092e-01 7.735459e-01 8.384765e-01 6.029965e-01 4.666039e-01 8.966993e-01
<GCONST> 1.411034e+02
<STATE> 4
<MEAN> 39
 -6.300072e+00 -6.418931e-01 4.145716e+00 2.313722e+00 6.271030e+00 -6.623523e+00 1.844872e+00 9.671586e-01 -4.869741e+00 -7.713646e+00 2.723762e+00 2.477545e+00 5.914436e+01 -2.586058e-04 1.549587e-03 6.870025e-04 1.207150e-04 -5.714423e-05 3.079417e-04 3.382612e-04 4.012045e-05 1.036941e-03 4.536691e-04 -8.661473e-04 -6.659820e-04 -5.150501e-04 -5.894177e-05 -1.953656e-04 -1.476647e-05 -5.817539e-05 -4.167217e-05 1.104925e-04 8.316743e-05 -7.257758e-05 -9.883386e-05 1.284908e-06 8.549621e-05 1.260234e-04 7.885860e-05
<VARIANCE> 39
 7.489158e+01 6.163103e+01 4.911285e+01 5.660658e+01 8.159623e+01 1.283595e+02 7.828905e+01 8.165112e+01 7.384118e+01 9.152923e+01 4.755254e+01 3.611581e+01 1.517972e+02 4.105834e+00 3.834689e+00 2.901074e+00 3.245545e+00 3.975756e+00 7.411990e+00 4.877269e+00 4.304575e+00 4.450325e+00 4.901345e+00 3.298242e+00 2.531864e+00 5.585910e+00 6.288179e-01 6.214429e-01 5.137152e-01 5.740775e-01 6.440730e-01 1.230075e+00 8.772646e-01 7.654092e-01 7.735459e-01 8.384765e-01 6.029965e-01 4.666039e-01 8.966993e-01
<GCONST> 1.411034e+02
<TRANSP> 5
 0.000000e+00 1.000000e+00 0.000000e+00 0.000000e+00 0.000000e+00
 0.000000e+00 6.000000e-01 4.000000e-01 0.000000e+00 0.000000e+00
 0.000000e+00 0.000000e+00 6.000000e-01 4.000000e-01 0.000000e+00
 0.000000e+00 0.000000e+00 0.000000e+00 7.000000e-01 3.000000e-01
 0.000000e+00 0.000000e+00 0.000000e+00 0.000000e+00 0.000000e+00
<ENDHMM>
~h "A"
<BEGINHMM>
<NUMSTATES> 5
<STATE> 2
<MEAN> 39
 -6.300072e+00 -6.418931e-01 4.145716e+00 2.313722e+00 6.271030e+00 -6.623523e+00 1.844872e+00 9.671586e-01 -4.869741e+00 -7.713646e+00 2.723762e+00 2.477545e+00 5.914436e+01 -2.586058e-04 1.549587e-03 6.870025e-04 1.207150e-04 -5.714423e-05 3.079417e-04 3.382612e-04 4.012045e-05 1.036941e-03 4.536691e-04 -8.661473e-04 -6.659820e-04 -5.150501e-04 -5.894177e-05 -1.953656e-04 -1.476647e-05 -5.817539e-05 -4.167217e-05 1.104925e-04 8.316743e-05 -7.257758e-05 -9.883386e-05 1.284908e-06 8.549621e-05 1.260234e-04 7.885860e-05
<VARIANCE> 39
 7.489158e+01 6.163103e+01 4.911285e+01 5.660658e+01 8.159623e+01 1.283595e+02 7.828905e+01 8.165112e+01 7.384118e+01 9.152923e+01 4.755254e+01 3.611581e+01 1.517972e+02 4.105834e+00 3.834689e+00 2.901074e+00 3.245545e+00 3.975756e+00 7.411990e+00 4.877269e+00 4.304575e+00 4.450325e+00 4.901345e+00 3.298242e+00 2.531864e+00 5.585910e+00 6.288179e-01 6.214429e-01 5.137152e-01 5.740775e-01 6.440730e-01 1.230075e+00 8.772646e-01 7.654092e-01 7.735459e-01 8.384765e-01 6.029965e-01 4.666039e-01 8.966993e-01
<GCONST> 1.411034e+02
<STATE> 3
<MEAN> 39
 -6.300072e+00 -6.418931e-01 4.145716e+00 2.313722e+00 6.271030e+00 -6.623523e+00 1.844872e+00 9.671586e-01 -4.869741e+00 -7.713646e+00 2.723762e+00 2.477545e+00 5.914436e+01 -2.586058e-04 1.549587e-03 6.870025e-04 1.207150e-04 -5.714423e-05 3.079417e-04 3.382612e-04 4.012045e-05 1.036941e-03 4.536691e-04 -8.661473e-04 -6.659820e-04 -5.150501e-04 -5.894177e-05 -1.953656e-04 -1.476647e-05 -5.817539e-05 -4.167217e-05 1.104925e-04 8.316743e-05 -7.257758e-05 -9.883386e-05 1.284908e-06 8.549621e-05 1.260234e-04 7.885860e-05
<VARIANCE> 39
 7.489158e+01 6.163103e+01 4.911285e+01 5.660658e+01 8.159623e+01 1.283595e+02 7.828905e+01 8.165112e+01 7.384118e+01 9.152923e+01 4.755254e+01 3.611581e+01 1.517972e+02 4.105834e+00 3.834689e+00 2.901074e+00 3.245545e+00 3.975756e+00 7.411990e+00 4.877269e+00 4.304575e+00 4.450325e+00 4.901345e+00 3.298242e+00 2.531864e+00 5.585910e+00 6.288179e-01 6.214429e-01 5.137152e-01 5.740775e-01 6.440730e-01 1.230075e+00 8.772646e-01 7.654092e-01 7.735459e-01 8.384765e-01 6.029965e-01 4.666039e-01 8.966993e-01
<GCONST> 1.411034e+02
<STATE> 4
<MEAN> 39
 -6.300072e+00 -6.418931e-01 4.145716e+00 2.313722e+00 6.271030e+00 -6.623523e+00 1.844872e+00 9.671586e-01 -4.869741e+00 -7.713646e+00 2.723762e+00 2.477545e+00 5.914436e+01 -2.586058e-04 1.549587e-03 6.870025e-04 1.207150e-04 -5.714423e-05 3.079417e-04 3.382612e-04 4.012045e-05 1.036941e-03 4.536691e-04 -8.661473e-04 -6.659820e-04 -5.150501e-04 -5.894177e-05 -1.953656e-04 -1.476647e-05 -5.817539e-05 -4.167217e-05 1.104925e-04 8.316743e-05 -7.257758e-05 -9.883386e-05 1.284908e-06 8.549621e-05 1.260234e-04 7.885860e-05
<VARIANCE> 39
 7.489158e+01 6.163103e+01 4.911285e+01 5.660658e+01 8.159623e+01 1.283595e+02 7.828905e+01 8.165112e+01 7.384118e+01 9.152923e+01 4.755254e+01 3.611581e+01 1.517972e+02 4.105834e+00 3.834689e+00 2.901074e+00 3.245545e+00 3.975756e+00 7.411990e+00 4.877269e+00 4.304575e+00 4.450325e+00 4.901345e+00 3.298242e+00 2.531864e+00 5.585910e+00 6.288179e-01 6.214429e-01 5.137152e-01 5.740775e-01 6.440730e-01 1.230075e+00 8.772646e-01 7.654092e-01 7.735459e-01 8.384765e-01 6.029965e-01 4.666039e-01 8.966993e-01
<GCONST> 1.411034e+02
<TRANSP> 5
 0.000000e+00 1.000000e+00 0.000000e+00 0.000000e+00 0.000000e+00
 0.000000e+00 6.000000e-01 4.000000e-01 0.000000e+00 0.000000e+00
 0.000000e+00 0.000000e+00 6.000000e-01 4.000000e-01 0.000000e+00
 0.000000e+00 0.000000e+00 0.000000e+00 7.000000e-01 3.000000e-01
 0.000000e+00 0.000000e+00 0.000000e+00 0.000000e+00 0.000000e+00
<ENDHMM>
~h "Y"
<BEGINHMM>
<NUMSTATES> 5
<STATE> 2
<MEAN> 39
 -6.300072e+00 -6.418931e-01 4.145716e+00 2.313722e+00 6.271030e+00 -6.623523e+00 1.844872e+00 9.671586e-01 -4.869741e+00 -7.713646e+00 2.723762e+00 2.477545e+00 5.914436e+01 -2.586058e-04 1.549587e-03 6.870025e-04 1.207150e-04 -5.714423e-05 3.079417e-04 3.382612e-04 4.012045e-05 1.036941e-03 4.536691e-04 -8.661473e-04 -6.659820e-04 -5.150501e-04 -5.894177e-05 -1.953656e-04 -1.476647e-05 -5.817539e-05 -4.167217e-05 1.104925e-04 8.316743e-05 -7.257758e-05 -9.883386e-05 1.284908e-06 8.549621e-05 1.260234e-04 7.885860e-05
<VARIANCE> 39
 7.489158e+01 6.163103e+01 4.911285e+01 5.660658e+01 8.159623e+01 1.283595e+02 7.828905e+01 8.165112e+01 7.384118e+01 9.152923e+01 4.755254e+01 3.611581e+01 1.517972e+02 4.105834e+00 3.834689e+00 2.901074e+00 3.245545e+00 3.975756e+00 7.411990e+00 4.877269e+00 4.304575e+00 4.450325e+00 4.901345e+00 3.298242e+00 2.531864e+00 5.585910e+00 6.288179e-01 6.214429e-01 5.137152e-01 5.740775e-01 6.440730e-01 1.230075e+00 8.772646e-01 7.654092e-01 7.735459e-01 8.384765e-01 6.029965e-01 4.666039e-01 8.966993e-01
<GCONST> 1.411034e+02
<STATE> 3
<MEAN> 39
 -6.300072e+00 -6.418931e-01 4.145716e+00 2.313722e+00 6.271030e+00 -6.623523e+00 1.844872e+00 9.671586e-01 -4.869741e+00 -7.713646e+00 2.723762e+00 2.477545e+00 5.914436e+01 -2.586058e-04 1.549587e-03 6.870025e-04 1.207150e-04 -5.714423e-05 3.079417e-04 3.382612e-04 4.012045e-05 1.036941e-03 4.536691e-04 -8.661473e-04 -6.659820e-04 -5.150501e-04 -5.894177e-05 -1.953656e-04 -1.476647e-05 -5.817539e-05 -4.167217e-05 1.104925e-04 8.316743e-05 -7.257758e-05 -9.883386e-05 1.284908e-06 8.549621e-05 1.260234e-04 7.885860e-05
<VARIANCE> 39
 7.489158e+01 6.163103e+01 4.911285e+01 5.660658e+01 8.159623e+01 1.283595e+02 7.828905e+01 8.165112e+01 7.384118e+01 9.152923e+01 4.755254e+01 3.611581e+01 1.517972e+02 4.105834e+00 3.834689e+00 2.901074e+00 3.245545e+00 3.975756e+00 7.411990e+00 4.877269e+00 4.304575e+00 4.450325e+00 4.901345e+00 3.298242e+00 2.531864e+00 5.585910e+00 6.288179e-01 6.214429e-01 5.137152e-01 5.740775e-01 6.440730e-01 1.230075e+00 8.772646e-01 7.654092e-01 7.735459e-01 8.384765e-01 6.029965e-01 4.666039e-01 8.966993e-01
<GCONST> 1.411034e+02
<STATE> 4
<MEAN> 39
 -6.300072e+00 -6.418931e-01 4.145716e+00 2.313722e+00 6.271030e+00 -6.623523e+00 1.844872e+00 9.671586e-01 -4.869741e+00 -7.713646e+00 2.723762e+00 2.477545e+00 5.914436e+01 -2.586058e-04 1.549587e-03 6.870025e-04 1.207150e-04 -5.714423e-05 3.079417e-04 3.382612e-04 4.012045e-05 1.036941e-03 4.536691e-04 -8.661473e-04 -6.659820e-04 -5.150501e-04 -5.894177e-05 -1.953656e-04 -1.476647e-05 -5.817539e-05 -4.167217e-05 1.104925e-04 8.316743e-05 -7.257758e-05 -9.883386e-05 1.284908e-06 8.549621e-05 1.260234e-04 7.885860e-05
<VARIANCE> 39
 7.489158e+01 6.163103e+01 4.911285e+01 5.660658e+01 8.159623e+01 1.283595e+02 7.828905e+01 8.165112e+01 7.384118e+01 9.152923e+01 4.755254e+01 3.611581e+01 1.517972e+02 4.105834e+00 3.834689e+00 2.901074e+00 3.245545e+00 3.975756e+00 7.411990e+00 4.877269e+00 4.304575e+00 4.450325e+00 4.901345e+00 3.298242e+00 2.531864e+00 5.585910e+00 6.288179e-01 6.214429e-01 5.137152e-01 5.740775e-01 6.440730e-01 1.230075e+00 8.772646e-01 7.654092e-01 7.735459e-01 8.384765e-01 6.029965e-01 4.666039e-01 8.966993e-01
<GCONST> 1.411034e+02
<TRANSP> 5
 0.000000e+00 1.000000e+00 0.000000e+00 0.000000e+00 0.000000e+00
 0.000000e+00 6.000000e-01 4.000000e-01 0.000000e+00 0.000000e+00
 0.000000e+00 0.000000e+00 6.000000e-01 4.000000e-01 0.000000e+00
 0.000000e+00 0.000000e+00 0.000000e+00 7.000000e-01 3.000000e-01
 0.000000e+00 0.000000e+00 0.000000e+00 0.000000e+00 0.000000e+00
<ENDHMM>
~h "O"
<BEGINHMM>
<NUMSTATES> 5
<STATE> 2
<MEAN> 39
 -6.300072e+00 -6.418931e-01 4.145716e+00 2.313722e+00 6.271030e+00 -6.623523e+00 1.844872e+00 9.671586e-01 -4.869741e+00 -7.713646e+00 2.723762e+00 2.477545e+00 5.914436e+01 -2.586058e-04 1.549587e-03 6.870025e-04 1.207150e-04 -5.714423e-05 3.079417e-04 3.382612e-04 4.012045e-05 1.036941e-03 4.536691e-04 -8.661473e-04 -6.659820e-04 -5.150501e-04 -5.894177e-05 -1.953656e-04 -1.476647e-05 -5.817539e-05 -4.167217e-05 1.104925e-04 8.316743e-05 -7.257758e-05 -9.883386e-05 1.284908e-06 8.549621e-05 1.260234e-04 7.885860e-05
<VARIANCE> 39
 7.489158e+01 6.163103e+01 4.911285e+01 5.660658e+01 8.159623e+01 1.283595e+02 7.828905e+01 8.165112e+01 7.384118e+01 9.152923e+01 4.755254e+01 3.611581e+01 1.517972e+02 4.105834e+00 3.834689e+00 2.901074e+00 3.245545e+00 3.975756e+00 7.411990e+00 4.877269e+00 4.304575e+00 4.450325e+00 4.901345e+00 3.298242e+00 2.531864e+00 5.585910e+00 6.288179e-01 6.214429e-01 5.137152e-01 5.740775e-01 6.440730e-01 1.230075e+00 8.772646e-01 7.654092e-01 7.735459e-01 8.384765e-01 6.029965e-01 4.666039e-01 8.966993e-01
<GCONST> 1.411034e+02
<STATE> 3
<MEAN> 39
 -6.300072e+00 -6.418931e-01 4.145716e+00 2.313722e+00 6.271030e+00 -6.623523e+00 1.844872e+00 9.671586e-01 -4.869741e+00 -7.713646e+00 2.723762e+00 2.477545e+00 5.914436e+01 -2.586058e-04 1.549587e-03 6.870025e-04 1.207150e-04 -5.714423e-05 3.079417e-04 3.382612e-04 4.012045e-05 1.036941e-03 4.536691e-04 -8.661473e-04 -6.659820e-04 -5.150501e-04 -5.894177e-05 -1.953656e-04 -1.476647e-05 -5.817539e-05 -4.167217e-05 1.104925e-04 8.316743e-05 -7.257758e-05 -9.883386e-05 1.284908e-06 8.549621e-05 1.260234e-04 7.885860e-05
<VARIANCE> 39
 7.489158e+01 6.163103e+01 4.911285e+01 5.660658e+01 8.159623e+01 1.283595e+02 7.828905e+01 8.165112e+01 7.384118e+01 9.152923e+01 4.755254e+01 3.611581e+01 1.517972e+02 4.105834e+00 3.834689e+00 2.901074e+00 3.245545e+00 3.975756e+00 7.411990e+00 4.877269e+00 4.304575e+00 4.450325e+00 4.901345e+00 3.298242e+00 2.531864e+00 5.585910e+00 6.288179e-01 6.214429e-01 5.137152e-01 5.740775e-01 6.440730e-01 1.230075e+00 8.772646e-01 7.654092e-01 7.735459e-01 8.384765e-01 6.029965e-01 4.666039e-01 8.966993e-01
<GCONST> 1.411034e+02
<STATE> 4
<MEAN> 39
 -6.300072e+00 -6.418931e-01 4.145716e+00 2.313722e+00 6.271030e+00 -6.623523e+00 1.844872e+00 9.671586e-01 -4.869741e+00 -7.713646e+00 2.723762e+00 2.477545e+00 5.914436e+01 -2.586058e-04 1.549587e-03 6.870025e-04 1.207150e-04 -5.714423e-05 3.079417e-04 3.382612e-04 4.012045e-05 1.036941e-03 4.536691e-04 -8.661473e-04 -6.659820e-04 -5.150501e-04 -5.894177e-05 -1.953656e-04 -1.476647e-05 -5.817539e-05 -4.167217e-05 1.104925e-04 8.316743e-05 -7.257758e-05 -9.883386e-05 1.284908e-06 8.549621e-05 1.260234e-04 7.885860e-05
<VARIANCE> 39
 7.489158e+01 6.163103e+01 4.911285e+01 5.660658e+01 8.159623e+01 1.283595e+02 7.828905e+01 8.165112e+01 7.384118e+01 9.152923e+01 4.755254e+01 3.611581e+01 1.517972e+02 4.105834e+00 3.834689e+00 2.901074e+00 3.245545e+00 3.975756e+00 7.411990e+00 4.877269e+00 4.304575e+00 4.450325e+00 4.901345e+00 3.298242e+00 2.531864e+00 5.585910e+00 6.288179e-01 6.214429e-01 5.137152e-01 5.740775e-01 6.440730e-01 1.230075e+00 8.772646e-01 7.654092e-01 7.735459e-01 8.384765e-01 6.029965e-01 4.666039e-01 8.966993e-01
<GCONST> 1.411034e+02
<TRANSP> 5
 0.000000e+00 1.000000e+00 0.000000e+00 0.000000e+00 0.000000e+00
 0.000000e+00 6.000000e-01 4.000000e-01 0.000000e+00 0.000000e+00
 0.000000e+00 0.000000e+00 6.000000e-01 4.000000e-01 0.000000e+00
 0.000000e+00 0.000000e+00 0.000000e+00 7.000000e-01 3.000000e-01
 0.000000e+00 0.000000e+00 0.000000e+00 0.000000e+00 0.000000e+00
<ENDHMM>
~h "B"
<BEGINHMM>
<NUMSTATES> 5
<STATE> 2
<MEAN> 39
 -6.300072e+00 -6.418931e-01 4.145716e+00 2.313722e+00 6.271030e+00 -6.623523e+00 1.844872e+00 9.671586e-01 -4.869741e+00 -7.713646e+00 2.723762e+00 2.477545e+00 5.914436e+01 -2.586058e-04 1.549587e-03 6.870025e-04 1.207150e-04 -5.714423e-05 3.079417e-04 3.382612e-04 4.012045e-05 1.036941e-03 4.536691e-04 -8.661473e-04 -6.659820e-04 -5.150501e-04 -5.894177e-05 -1.953656e-04 -1.476647e-05 -5.817539e-05 -4.167217e-05 1.104925e-04 8.316743e-05 -7.257758e-05 -9.883386e-05 1.284908e-06 8.549621e-05 1.260234e-04 7.885860e-05
<VARIANCE> 39
 7.489158e+01 6.163103e+01 4.911285e+01 5.660658e+01 8.159623e+01 1.283595e+02 7.828905e+01 8.165112e+01 7.384118e+01 9.152923e+01 4.755254e+01 3.611581e+01 1.517972e+02 4.105834e+00 3.834689e+00 2.901074e+00 3.245545e+00 3.975756e+00 7.411990e+00 4.877269e+00 4.304575e+00 4.450325e+00 4.901345e+00 3.298242e+00 2.531864e+00 5.585910e+00 6.288179e-01 6.214429e-01 5.137152e-01 5.740775e-01 6.440730e-01 1.230075e+00 8.772646e-01 7.654092e-01 7.735459e-01 8.384765e-01 6.029965e-01 4.666039e-01 8.966993e-01
<GCONST> 1.411034e+02
<STATE> 3
<MEAN> 39
 -6.300072e+00 -6.418931e-01 4.145716e+00 2.313722e+00 6.271030e+00 -6.623523e+00 1.844872e+00 9.671586e-01 -4.869741e+00 -7.713646e+00 2.723762e+00 2.477545e+00 5.914436e+01 -2.586058e-04 1.549587e-03 6.870025e-04 1.207150e-04 -5.714423e-05 3.079417e-04 3.382612e-04 4.012045e-05 1.036941e-03 4.536691e-04 -8.661473e-04 -6.659820e-04 -5.150501e-04 -5.894177e-05 -1.953656e-04 -1.476647e-05 -5.817539e-05 -4.167217e-05 1.104925e-04 8.316743e-05 -7.257758e-05 -9.883386e-05 1.284908e-06 8.549621e-05 1.260234e-04 7.885860e-05
<VARIANCE> 39
 7.489158e+01 6.163103e+01 4.911285e+01 5.660658e+01 8.159623e+01 1.283595e+02 7.828905e+01 8.165112e+01 7.384118e+01 9.152923e+01 4.755254e+01 3.611581e+01 1.517972e+02 4.105834e+00 3.834689e+00 2.901074e+00 3.245545e+00 3.975756e+00 7.411990e+00 4.877269e+00 4.304575e+00 4.450325e+00 4.901345e+00 3.298242e+00 2.531864e+00 5.585910e+00 6.288179e-01 6.214429e-01 5.137152e-01 5.740775e-01 6.440730e-01 1.230075e+00 8.772646e-01 7.654092e-01 7.735459e-01 8.384765e-01 6.029965e-01 4.666039e-01 8.966993e-01
<GCONST> 1.411034e+02
<STATE> 4
<MEAN> 39
 -6.300072e+00 -6.418931e-01 4.145716e+00 2.313722e+00 6.271030e+00 -6.623523e+00 1.844872e+00 9.671586e-01 -4.869741e+00 -7.713646e+00 2.723762e+00 2.477545e+00 5.914436e+01 -2.586058e-04 1.549587e-03 6.870025e-04 1.207150e-04 -5.714423e-05 3.079417e-04 3.382612e-04 4.012045e-05 1.036941e-03 4.536691e-04 -8.661473e-04 -6.659820e-04 -5.150501e-04 -5.894177e-05 -1.953656e-04 -1.476647e-05 -5.817539e-05 -4.167217e-05 1.104925e-04 8.316743e-05 -7.257758e-05 -9.883386e-05 1.284908e-06 8.549621e-05 1.260234e-04 7.885860e-05
<VARIANCE> 39
 7.489158e+01 6.163103e+01 4.911285e+01 5.660658e+01 8.159623e+01 1.283595e+02 7.828905e+01 8.165112e+01 7.384118e+01 9.152923e+01 4.755254e+01 3.611581e+01 1.517972e+02 4.105834e+00 3.834689e+00 2.901074e+00 3.245545e+00 3.975756e+00 7.411990e+00 4.877269e+00 4.304575e+00 4.450325e+00 4.901345e+00 3.298242e+00 2.531864e+00 5.585910e+00 6.288179e-01 6.214429e-01 5.137152e-01 5.740775e-01 6.440730e-01 1.230075e+00 8.772646e-01 7.654092e-01 7.735459e-01 8.384765e-01 6.029965e-01 4.666039e-01 8.966993e-01
<GCONST> 1.411034e+02
<TRANSP> 5
 0.000000e+00 1.000000e+00 0.000000e+00 0.000000e+00 0.000000e+00
 0.000000e+00 6.000000e-01 4.000000e-01 0.000000e+00 0.000000e+00
 0.000000e+00 0.000000e+00 6.000000e-01 4.000000e-01 0.000000e+00
 0.000000e+00 0.000000e+00 0.000000e+00 7.000000e-01 3.000000e-01
 0.000000e+00 0.000000e+00 0.000000e+00 0.000000e+00 0.000000e+00
<ENDHMM>
~h "OI"
<BEGINHMM>
<NUMSTATES> 5
<STATE> 2
<MEAN> 39
 -6.300072e+00 -6.418931e-01 4.145716e+00 2.313722e+00 6.271030e+00 -6.623523e+00 1.844872e+00 9.671586e-01 -4.869741e+00 -7.713646e+00 2.723762e+00 2.477545e+00 5.914436e+01 -2.586058e-04 1.549587e-03 6.870025e-04 1.207150e-04 -5.714423e-05 3.079417e-04 3.382612e-04 4.012045e-05 1.036941e-03 4.536691e-04 -8.661473e-04 -6.659820e-04 -5.150501e-04 -5.894177e-05 -1.953656e-04 -1.476647e-05 -5.817539e-05 -4.167217e-05 1.104925e-04 8.316743e-05 -7.257758e-05 -9.883386e-05 1.284908e-06 8.549621e-05 1.260234e-04 7.885860e-05
<VARIANCE> 39
 7.489158e+01 6.163103e+01 4.911285e+01 5.660658e+01 8.159623e+01 1.283595e+02 7.828905e+01 8.165112e+01 7.384118e+01 9.152923e+01 4.755254e+01 3.611581e+01 1.517972e+02 4.105834e+00 3.834689e+00 2.901074e+00 3.245545e+00 3.975756e+00 7.411990e+00 4.877269e+00 4.304575e+00 4.450325e+00 4.901345e+00 3.298242e+00 2.531864e+00 5.585910e+00 6.288179e-01 6.214429e-01 5.137152e-01 5.740775e-01 6.440730e-01 1.230075e+00 8.772646e-01 7.654092e-01 7.735459e-01 8.384765e-01 6.029965e-01 4.666039e-01 8.966993e-01
<GCONST> 1.411034e+02
<STATE> 3
<MEAN> 39
 -6.300072e+00 -6.418931e-01 4.145716e+00 2.313722e+00 6.271030e+00 -6.623523e+00 1.844872e+00 9.671586e-01 -4.869741e+00 -7.713646e+00 2.723762e+00 2.477545e+00 5.914436e+01 -2.586058e-04 1.549587e-03 6.870025e-04 1.207150e-04 -5.714423e-05 3.079417e-04 3.382612e-04 4.012045e-05 1.036941e-03 4.536691e-04 -8.661473e-04 -6.659820e-04 -5.150501e-04 -5.894177e-05 -1.953656e-04 -1.476647e-05 -5.817539e-05 -4.167217e-05 1.104925e-04 8.316743e-05 -7.257758e-05 -9.883386e-05 1.284908e-06 8.549621e-05 1.260234e-04 7.885860e-05
<VARIANCE> 39
 7.489158e+01 6.163103e+01 4.911285e+01 5.660658e+01 8.159623e+01 1.283595e+02 7.828905e+01 8.165112e+01 7.384118e+01 9.152923e+01 4.755254e+01 3.611581e+01 1.517972e+02 4.105834e+00 3.834689e+00 2.901074e+00 3.245545e+00 3.975756e+00 7.411990e+00 4.877269e+00 4.304575e+00 4.450325e+00 4.901345e+00 3.298242e+00 2.531864e+00 5.585910e+00 6.288179e-01 6.214429e-01 5.137152e-01 5.740775e-01 6.440730e-01 1.230075e+00 8.772646e-01 7.654092e-01 7.735459e-01 8.384765e-01 6.029965e-01 4.666039e-01 8.966993e-01
<GCONST> 1.411034e+02
<STATE> 4
<MEAN> 39
 -6.300072e+00 -6.418931e-01 4.145716e+00 2.313722e+00 6.271030e+00 -6.623523e+00 1.844872e+00 9.671586e-01 -4.869741e+00 -7.713646e+00 2.723762e+00 2.477545e+00 5.914436e+01 -2.586058e-04 1.549587e-03 6.870025e-04 1.207150e-04 -5.714423e-05 3.079417e-04 3.382612e-04 4.012045e-05 1.036941e-03 4.536691e-04 -8.661473e-04 -6.659820e-04 -5.150501e-04 -5.894177e-05 -1.953656e-04 -1.476647e-05 -5.817539e-05 -4.167217e-05 1.104925e-04 8.316743e-05 -7.257758e-05 -9.883386e-05 1.284908e-06 8.549621e-05 1.260234e-04 7.885860e-05
<VARIANCE> 39
 7.489158e+01 6.163103e+01 4.911285e+01 5.660658e+01 8.159623e+01 1.283595e+02 7.828905e+01 8.165112e+01 7.384118e+01 9.152923e+01 4.755254e+01 3.611581e+01 1.517972e+02 4.105834e+00 3.834689e+00 2.901074e+00 3.245545e+00 3.975756e+00 7.411990e+00 4.877269e+00 4.304575e+00 4.450325e+00 4.901345e+00 3.298242e+00 2.531864e+00 5.585910e+00 6.288179e-01 6.214429e-01 5.137152e-01 5.740775e-01 6.440730e-01 1.230075e+00 8.772646e-01 7.654092e-01 7.735459e-01 8.384765e-01 6.029965e-01 4.666039e-01 8.966993e-01
<GCONST> 1.411034e+02
<TRANSP> 5
 0.000000e+00 1.000000e+00 0.000000e+00 0.000000e+00 0.000000e+00
 0.000000e+00 6.000000e-01 4.000000e-01 0.000000e+00 0.000000e+00
 0.000000e+00 0.000000e+00 6.000000e-01 4.000000e-01 0.000000e+00
 0.000000e+00 0.000000e+00 0.000000e+00 7.000000e-01 3.000000e-01
 0.000000e+00 0.000000e+00 0.000000e+00 0.000000e+00 0.000000e+00
<ENDHMM>
~h "SH"
<BEGINHMM>
<NUMSTATES> 5
<STATE> 2
<MEAN> 39
 -6.300072e+00 -6.418931e-01 4.145716e+00 2.313722e+00 6.271030e+00 -6.623523e+00 1.844872e+00 9.671586e-01 -4.869741e+00 -7.713646e+00 2.723762e+00 2.477545e+00 5.914436e+01 -2.586058e-04 1.549587e-03 6.870025e-04 1.207150e-04 -5.714423e-05 3.079417e-04 3.382612e-04 4.012045e-05 1.036941e-03 4.536691e-04 -8.661473e-04 -6.659820e-04 -5.150501e-04 -5.894177e-05 -1.953656e-04 -1.476647e-05 -5.817539e-05 -4.167217e-05 1.104925e-04 8.316743e-05 -7.257758e-05 -9.883386e-05 1.284908e-06 8.549621e-05 1.260234e-04 7.885860e-05
<VARIANCE> 39
 7.489158e+01 6.163103e+01 4.911285e+01 5.660658e+01 8.159623e+01 1.283595e+02 7.828905e+01 8.165112e+01 7.384118e+01 9.152923e+01 4.755254e+01 3.611581e+01 1.517972e+02 4.105834e+00 3.834689e+00 2.901074e+00 3.245545e+00 3.975756e+00 7.411990e+00 4.877269e+00 4.304575e+00 4.450325e+00 4.901345e+00 3.298242e+00 2.531864e+00 5.585910e+00 6.288179e-01 6.214429e-01 5.137152e-01 5.740775e-01 6.440730e-01 1.230075e+00 8.772646e-01 7.654092e-01 7.735459e-01 8.384765e-01 6.029965e-01 4.666039e-01 8.966993e-01
<GCONST> 1.411034e+02
<STATE> 3
<MEAN> 39
 -6.300072e+00 -6.418931e-01 4.145716e+00 2.313722e+00 6.271030e+00 -6.623523e+00 1.844872e+00 9.671586e-01 -4.869741e+00 -7.713646e+00 2.723762e+00 2.477545e+00 5.914436e+01 -2.586058e-04 1.549587e-03 6.870025e-04 1.207150e-04 -5.714423e-05 3.079417e-04 3.382612e-04 4.012045e-05 1.036941e-03 4.536691e-04 -8.661473e-04 -6.659820e-04 -5.150501e-04 -5.894177e-05 -1.953656e-04 -1.476647e-05 -5.817539e-05 -4.167217e-05 1.104925e-04 8.316743e-05 -7.257758e-05 -9.883386e-05 1.284908e-06 8.549621e-05 1.260234e-04 7.885860e-05
<VARIANCE> 39
 7.489158e+01 6.163103e+01 4.911285e+01 5.660658e+01 8.159623e+01 1.283595e+02 7.828905e+01 8.165112e+01 7.384118e+01 9.152923e+01 4.755254e+01 3.611581e+01 1.517972e+02 4.105834e+00 3.834689e+00 2.901074e+00 3.245545e+00 3.975756e+00 7.411990e+00 4.877269e+00 4.304575e+00 4.450325e+00 4.901345e+00 3.298242e+00 2.531864e+00 5.585910e+00 6.288179e-01 6.214429e-01 5.137152e-01 5.740775e-01 6.440730e-01 1.230075e+00 8.772646e-01 7.654092e-01 7.735459e-01 8.384765e-01 6.029965e-01 4.666039e-01 8.966993e-01
<GCONST> 1.411034e+02
<STATE> 4
<MEAN> 39
 -6.300072e+00 -6.418931e-01 4.145716e+00 2.313722e+00 6.271030e+00 -6.623523e+00 1.844872e+00 9.671586e-01 -4.869741e+00 -7.713646e+00 2.723762e+00 2.477545e+00 5.914436e+01 -2.586058e-04 1.549587e-03 6.870025e-04 1.207150e-04 -5.714423e-05 3.079417e-04 3.382612e-04 4.012045e-05 1.036941e-03 4.536691e-04 -8.661473e-04 -6.659820e-04 -5.150501e-04 -5.894177e-05 -1.953656e-04 -1.476647e-05 -5.817539e-05 -4.167217e-05 1.104925e-04 8.316743e-05 -7.257758e-05 -9.883386e-05 1.284908e-06 8.549621e-05 1.260234e-04 7.885860e-05
<VARIANCE> 39
 7.489158e+01 6.163103e+01 4.911285e+01 5.660658e+01 8.159623e+01 1.283595e+02 7.828905e+01 8.165112e+01 7.384118e+01 9.152923e+01 4.755254e+01 3.611581e+01 1.517972e+02 4.105834e+00 3.834689e+00 2.901074e+00 3.245545e+00 3.975756e+00 7.411990e+00 4.877269e+00 4.304575e+00 4.450325e+00 4.901345e+00 3.298242e+00 2.531864e+00 5.585910e+00 6.288179e-01 6.214429e-01 5.137152e-01 5.740775e-01 6.440730e-01 1.230075e+00 8.772646e-01 7.654092e-01 7.735459e-01 8.384765e-01 6.029965e-01 4.666039e-01 8.966993e-01
<GCONST> 1.411034e+02
<TRANSP> 5
 0.000000e+00 1.000000e+00 0.000000e+00 0.000000e+00 0.000000e+00
 0.000000e+00 6.000000e-01 4.000000e-01 0.000000e+00 0.000000e+00
 0.000000e+00 0.000000e+00 6.000000e-01 4.000000e-01 0.000000e+00
 0.000000e+00 0.000000e+00 0.000000e+00 7.000000e-01 3.000000e-01
 0.000000e+00 0.000000e+00 0.000000e+00 0.000000e+00 0.000000e+00
<ENDHMM>
~h "R"
<BEGINHMM>
<NUMSTATES> 5
<STATE> 2
<MEAN> 39
 -6.300072e+00 -6.418931e-01 4.145716e+00 2.313722e+00 6.271030e+00 -6.623523e+00 1.844872e+00 9.671586e-01 -4.869741e+00 -7.713646e+00 2.723762e+00 2.477545e+00 5.914436e+01 -2.586058e-04 1.549587e-03 6.870025e-04 1.207150e-04 -5.714423e-05 3.079417e-04 3.382612e-04 4.012045e-05 1.036941e-03 4.536691e-04 -8.661473e-04 -6.659820e-04 -5.150501e-04 -5.894177e-05 -1.953656e-04 -1.476647e-05 -5.817539e-05 -4.167217e-05 1.104925e-04 8.316743e-05 -7.257758e-05 -9.883386e-05 1.284908e-06 8.549621e-05 1.260234e-04 7.885860e-05
<VARIANCE> 39
 7.489158e+01 6.163103e+01 4.911285e+01 5.660658e+01 8.159623e+01 1.283595e+02 7.828905e+01 8.165112e+01 7.384118e+01 9.152923e+01 4.755254e+01 3.611581e+01 1.517972e+02 4.105834e+00 3.834689e+00 2.901074e+00 3.245545e+00 3.975756e+00 7.411990e+00 4.877269e+00 4.304575e+00 4.450325e+00 4.901345e+00 3.298242e+00 2.531864e+00 5.585910e+00 6.288179e-01 6.214429e-01 5.137152e-01 5.740775e-01 6.440730e-01 1.230075e+00 8.772646e-01 7.654092e-01 7.735459e-01 8.384765e-01 6.029965e-01 4.666039e-01 8.966993e-01
<GCONST> 1.411034e+02
<STATE> 3
<MEAN> 39
 -6.300072e+00 -6.418931e-01 4.145716e+00 2.313722e+00 6.271030e+00 -6.623523e+00 1.844872e+00 9.671586e-01 -4.869741e+00 -7.713646e+00 2.723762e+00 2.477545e+00 5.914436e+01 -2.586058e-04 1.549587e-03 6.870025e-04 1.207150e-04 -5.714423e-05 3.079417e-04 3.382612e-04 4.012045e-05 1.036941e-03 4.536691e-04 -8.661473e-04 -6.659820e-04 -5.150501e-04 -5.894177e-05 -1.953656e-04 -1.476647e-05 -5.817539e-05 -4.167217e-05 1.104925e-04 8.316743e-05 -7.257758e-05 -9.883386e-05 1.284908e-06 8.549621e-05 1.260234e-04 7.885860e-05
<VARIANCE> 39
 7.489158e+01 6.163103e+01 4.911285e+01 5.660658e+01 8.159623e+01 1.283595e+02 7.828905e+01 8.165112e+01 7.384118e+01 9.152923e+01 4.755254e+01 3.611581e+01 1.517972e+02 4.105834e+00 3.834689e+00 2.901074e+00 3.245545e+00 3.975756e+00 7.411990e+00 4.877269e+00 4.304575e+00 4.450325e+00 4.901345e+00 3.298242e+00 2.531864e+00 5.585910e+00 6.288179e-01 6.214429e-01 5.137152e-01 5.740775e-01 6.440730e-01 1.230075e+00 8.772646e-01 7.654092e-01 7.735459e-01 8.384765e-01 6.029965e-01 4.666039e-01 8.966993e-01
<GCONST> 1.411034e+02
<STATE> 4
<MEAN> 39
 -6.300072e+00 -6.418931e-01 4.145716e+00 2.313722e+00 6.271030e+00 -6.623523e+00 1.844872e+00 9.671586e-01 -4.869741e+00 -7.713646e+00 2.723762e+00 2.477545e+00 5.914436e+01 -2.586058e-04 1.549587e-03 6.870025e-04 1.207150e-04 -5.714423e-05 3.079417e-04 3.382612e-04 4.012045e-05 1.036941e-03 4.536691e-04 -8.661473e-04 -6.659820e-04 -5.150501e-04 -5.894177e-05 -1.953656e-04 -1.476647e-05 -5.817539e-05 -4.167217e-05 1.104925e-04 8.316743e-05 -7.257758e-05 -9.883386e-05 1.284908e-06 8.549621e-05 1.260234e-04 7.885860e-05
<VARIANCE> 39
 7.489158e+01 6.163103e+01 4.911285e+01 5.660658e+01 8.159623e+01 1.283595e+02 7.828905e+01 8.165112e+01 7.384118e+01 9.152923e+01 4.755254e+01 3.611581e+01 1.517972e+02 4.105834e+00 3.834689e+00 2.901074e+00 3.245545e+00 3.975756e+00 7.411990e+00 4.877269e+00 4.304575e+00 4.450325e+00 4.901345e+00 3.298242e+00 2.531864e+00 5.585910e+00 6.288179e-01 6.214429e-01 5.137152e-01 5.740775e-01 6.440730e-01 1.230075e+00 8.772646e-01 7.654092e-01 7.735459e-01 8.384765e-01 6.029965e-01 4.666039e-01 8.966993e-01
<GCONST> 1.411034e+02
<TRANSP> 5
 0.000000e+00 1.000000e+00 0.000000e+00 0.000000e+00 0.000000e+00
 0.000000e+00 6.000000e-01 4.000000e-01 0.000000e+00 0.000000e+00
 0.000000e+00 0.000000e+00 6.000000e-01 4.000000e-01 0.000000e+00
 0.000000e+00 0.000000e+00 0.000000e+00 7.000000e-01 3.000000e-01
 0.000000e+00 0.000000e+00 0.000000e+00 0.000000e+00 0.000000e+00
<ENDHMM>
~h "E"
<BEGINHMM>
<NUMSTATES> 5
<STATE> 2
<MEAN> 39
 -6.300072e+00 -6.418931e-01 4.145716e+00 2.313722e+00 6.271030e+00 -6.623523e+00 1.844872e+00 9.671586e-01 -4.869741e+00 -7.713646e+00 2.723762e+00 2.477545e+00 5.914436e+01 -2.586058e-04 1.549587e-03 6.870025e-04 1.207150e-04 -5.714423e-05 3.079417e-04 3.382612e-04 4.012045e-05 1.036941e-03 4.536691e-04 -8.661473e-04 -6.659820e-04 -5.150501e-04 -5.894177e-05 -1.953656e-04 -1.476647e-05 -5.817539e-05 -4.167217e-05 1.104925e-04 8.316743e-05 -7.257758e-05 -9.883386e-05 1.284908e-06 8.549621e-05 1.260234e-04 7.885860e-05
<VARIANCE> 39
 7.489158e+01 6.163103e+01 4.911285e+01 5.660658e+01 8.159623e+01 1.283595e+02 7.828905e+01 8.165112e+01 7.384118e+01 9.152923e+01 4.755254e+01 3.611581e+01 1.517972e+02 4.105834e+00 3.834689e+00 2.901074e+00 3.245545e+00 3.975756e+00 7.411990e+00 4.877269e+00 4.304575e+00 4.450325e+00 4.901345e+00 3.298242e+00 2.531864e+00 5.585910e+00 6.288179e-01 6.214429e-01 5.137152e-01 5.740775e-01 6.440730e-01 1.230075e+00 8.772646e-01 7.654092e-01 7.735459e-01 8.384765e-01 6.029965e-01 4.666039e-01 8.966993e-01
<GCONST> 1.411034e+02
<STATE> 3
<MEAN> 39
 -6.300072e+00 -6.418931e-01 4.145716e+00 2.313722e+00 6.271030e+00 -6.623523e+00 1.844872e+00 9.671586e-01 -4.869741e+00 -7.713646e+00 2.723762e+00 2.477545e+00 5.914436e+01 -2.586058e-04 1.549587e-03 6.870025e-04 1.207150e-04 -5.714423e-05 3.079417e-04 3.382612e-04 4.012045e-05 1.036941e-03 4.536691e-04 -8.661473e-04 -6.659820e-04 -5.150501e-04 -5.894177e-05 -1.953656e-04 -1.476647e-05 -5.817539e-05 -4.167217e-05 1.104925e-04 8.316743e-05 -7.257758e-05 -9.883386e-05 1.284908e-06 8.549621e-05 1.260234e-04 7.885860e-05
<VARIANCE> 39
 7.489158e+01 6.163103e+01 4.911285e+01 5.660658e+01 8.159623e+01 1.283595e+02 7.828905e+01 8.165112e+01 7.384118e+01 9.152923e+01 4.755254e+01 3.611581e+01 1.517972e+02 4.105834e+00 3.834689e+00 2.901074e+00 3.245545e+00 3.975756e+00 7.411990e+00 4.877269e+00 4.304575e+00 4.450325e+00 4.901345e+00 3.298242e+00 2.531864e+00 5.585910e+00 6.288179e-01 6.214429e-01 5.137152e-01 5.740775e-01 6.440730e-01 1.230075e+00 8.772646e-01 7.654092e-01 7.735459e-01 8.384765e-01 6.029965e-01 4.666039e-01 8.966993e-01
<GCONST> 1.411034e+02
<STATE> 4
<MEAN> 39
 -6.300072e+00 -6.418931e-01 4.145716e+00 2.313722e+00 6.271030e+00 -6.623523e+00 1.844872e+00 9.671586e-01 -4.869741e+00 -7.713646e+00 2.723762e+00 2.477545e+00 5.914436e+01 -2.586058e-04 1.549587e-03 6.870025e-04 1.207150e-04 -5.714423e-05 3.079417e-04 3.382612e-04 4.012045e-05 1.036941e-03 4.536691e-04 -8.661473e-04 -6.659820e-04 -5.150501e-04 -5.894177e-05 -1.953656e-04 -1.476647e-05 -5.817539e-05 -4.167217e-05 1.104925e-04 8.316743e-05 -7.257758e-05 -9.883386e-05 1.284908e-06 8.549621e-05 1.260234e-04 7.885860e-05
<VARIANCE> 39
 7.489158e+01 6.163103e+01 4.911285e+01 5.660658e+01 8.159623e+01 1.283595e+02 7.828905e+01 8.165112e+01 7.384118e+01 9.152923e+01 4.755254e+01 3.611581e+01 1.517972e+02 4.105834e+00 3.834689e+00 2.901074e+00 3.245545e+00 3.975756e+00 7.411990e+00 4.877269e+00 4.304575e+00 4.450325e+00 4.901345e+00 3.298242e+00 2.531864e+00 5.585910e+00 6.288179e-01 6.214429e-01 5.137152e-01 5.740775e-01 6.440730e-01 1.230075e+00 8.772646e-01 7.654092e-01 7.735459e-01 8.384765e-01 6.029965e-01 4.666039e-01 8.966993e-01
<GCONST> 1.411034e+02
<TRANSP> 5
 0.000000e+00 1.000000e+00 0.000000e+00 0.000000e+00 0.000000e+00
 0.000000e+00 6.000000e-01 4.000000e-01 0.000000e+00 0.000000e+00
 0.000000e+00 0.000000e+00 6.000000e-01 4.000000e-01 0.000000e+00
 0.000000e+00 0.000000e+00 0.000000e+00 7.000000e-01 3.000000e-01
 0.000000e+00 0.000000e+00 0.000000e+00 0.000000e+00 0.000000e+00
<ENDHMM>
~h "AH"
<BEGINHMM>
<NUMSTATES> 5
<STATE> 2
<MEAN> 39
 -6.300072e+00 -6.418931e-01 4.145716e+00 2.313722e+00 6.271030e+00 -6.623523e+00 1.844872e+00 9.671586e-01 -4.869741e+00 -7.713646e+00 2.723762e+00 2.477545e+00 5.914436e+01 -2.586058e-04 1.549587e-03 6.870025e-04 1.207150e-04 -5.714423e-05 3.079417e-04 3.382612e-04 4.012045e-05 1.036941e-03 4.536691e-04 -8.661473e-04 -6.659820e-04 -5.150501e-04 -5.894177e-05 -1.953656e-04 -1.476647e-05 -5.817539e-05 -4.167217e-05 1.104925e-04 8.316743e-05 -7.257758e-05 -9.883386e-05 1.284908e-06 8.549621e-05 1.260234e-04 7.885860e-05
<VARIANCE> 39
 7.489158e+01 6.163103e+01 4.911285e+01 5.660658e+01 8.159623e+01 1.283595e+02 7.828905e+01 8.165112e+01 7.384118e+01 9.152923e+01 4.755254e+01 3.611581e+01 1.517972e+02 4.105834e+00 3.834689e+00 2.901074e+00 3.245545e+00 3.975756e+00 7.411990e+00 4.877269e+00 4.304575e+00 4.450325e+00 4.901345e+00 3.298242e+00 2.531864e+00 5.585910e+00 6.288179e-01 6.214429e-01 5.137152e-01 5.740775e-01 6.440730e-01 1.230075e+00 8.772646e-01 7.654092e-01 7.735459e-01 8.384765e-01 6.029965e-01 4.666039e-01 8.966993e-01
<GCONST> 1.411034e+02
<STATE> 3
<MEAN> 39
 -6.300072e+00 -6.418931e-01 4.145716e+00 2.313722e+00 6.271030e+00 -6.623523e+00 1.844872e+00 9.671586e-01 -4.869741e+00 -7.713646e+00 2.723762e+00 2.477545e+00 5.914436e+01 -2.586058e-04 1.549587e-03 6.870025e-04 1.207150e-04 -5.714423e-05 3.079417e-04 3.382612e-04 4.012045e-05 1.036941e-03 4.536691e-04 -8.661473e-04 -6.659820e-04 -5.150501e-04 -5.894177e-05 -1.953656e-04 -1.476647e-05 -5.817539e-05 -4.167217e-05 1.104925e-04 8.316743e-05 -7.257758e-05 -9.883386e-05 1.284908e-06 8.549621e-05 1.260234e-04 7.885860e-05
<VARIANCE> 39
 7.489158e+01 6.163103e+01 4.911285e+01 5.660658e+01 8.159623e+01 1.283595e+02 7.828905e+01 8.165112e+01 7.384118e+01 9.152923e+01 4.755254e+01 3.611581e+01 1.517972e+02 4.105834e+00 3.834689e+00 2.901074e+00 3.245545e+00 3.975756e+00 7.411990e+00 4.877269e+00 4.304575e+00 4.450325e+00 4.901345e+00 3.298242e+00 2.531864e+00 5.585910e+00 6.288179e-01 6.214429e-01 5.137152e-01 5.740775e-01 6.440730e-01 1.230075e+00 8.772646e-01 7.654092e-01 7.735459e-01 8.384765e-01 6.029965e-01 4.666039e-01 8.966993e-01
<GCONST> 1.411034e+02
<STATE> 4
<MEAN> 39
 -6.300072e+00 -6.418931e-01 4.145716e+00 2.313722e+00 6.271030e+00 -6.623523e+00 1.844872e+00 9.671586e-01 -4.869741e+00 -7.713646e+00 2.723762e+00 2.477545e+00 5.914436e+01 -2.586058e-04 1.549587e-03 6.870025e-04 1.207150e-04 -5.714423e-05 3.079417e-04 3.382612e-04 4.012045e-05 1.036941e-03 4.536691e-04 -8.661473e-04 -6.659820e-04 -5.150501e-04 -5.894177e-05 -1.953656e-04 -1.476647e-05 -5.817539e-05 -4.167217e-05 1.104925e-04 8.316743e-05 -7.257758e-05 -9.883386e-05 1.284908e-06 8.549621e-05 1.260234e-04 7.885860e-05
<VARIANCE> 39
 7.489158e+01 6.163103e+01 4.911285e+01 5.660658e+01 8.159623e+01 1.283595e+02 7.828905e+01 8.165112e+01 7.384118e+01 9.152923e+01 4.755254e+01 3.611581e+01 1.517972e+02 4.105834e+00 3.834689e+00 2.901074e+00 3.245545e+00 3.975756e+00 7.411990e+00 4.877269e+00 4.304575e+00 4.450325e+00 4.901345e+00 3.298242e+00 2.531864e+00 5.585910e+00 6.288179e-01 6.214429e-01 5.137152e-01 5.740775e-01 6.440730e-01 1.230075e+00 8.772646e-01 7.654092e-01 7.735459e-01 8.384765e-01 6.029965e-01 4.666039e-01 8.966993e-01
<GCONST> 1.411034e+02
<TRANSP> 5
 0.000000e+00 1.000000e+00 0.000000e+00 0.000000e+00 0.000000e+00
 0.000000e+00 6.000000e-01 4.000000e-01 0.000000e+00 0.000000e+00
 0.000000e+00 0.000000e+00 6.000000e-01 4.000000e-01 0.000000e+00
 0.000000e+00 0.000000e+00 0.000000e+00 7.000000e-01 3.000000e-01
 0.000000e+00 0.000000e+00 0.000000e+00 0.000000e+00 0.000000e+00
<ENDHMM>
~h "RX"
<BEGINHMM>
<NUMSTATES> 5
<STATE> 2
<MEAN> 39
 -6.300072e+00 -6.418931e-01 4.145716e+00 2.313722e+00 6.271030e+00 -6.623523e+00 1.844872e+00 9.671586e-01 -4.869741e+00 -7.713646e+00 2.723762e+00 2.477545e+00 5.914436e+01 -2.586058e-04 1.549587e-03 6.870025e-04 1.207150e-04 -5.714423e-05 3.079417e-04 3.382612e-04 4.012045e-05 1.036941e-03 4.536691e-04 -8.661473e-04 -6.659820e-04 -5.150501e-04 -5.894177e-05 -1.953656e-04 -1.476647e-05 -5.817539e-05 -4.167217e-05 1.104925e-04 8.316743e-05 -7.257758e-05 -9.883386e-05 1.284908e-06 8.549621e-05 1.260234e-04 7.885860e-05
<VARIANCE> 39
 7.489158e+01 6.163103e+01 4.911285e+01 5.660658e+01 8.159623e+01 1.283595e+02 7.828905e+01 8.165112e+01 7.384118e+01 9.152923e+01 4.755254e+01 3.611581e+01 1.517972e+02 4.105834e+00 3.834689e+00 2.901074e+00 3.245545e+00 3.975756e+00 7.411990e+00 4.877269e+00 4.304575e+00 4.450325e+00 4.901345e+00 3.298242e+00 2.531864e+00 5.585910e+00 6.288179e-01 6.214429e-01 5.137152e-01 5.740775e-01 6.440730e-01 1.230075e+00 8.772646e-01 7.654092e-01 7.735459e-01 8.384765e-01 6.029965e-01 4.666039e-01 8.966993e-01
<GCONST> 1.411034e+02
<STATE> 3
<MEAN> 39
 -6.300072e+00 -6.418931e-01 4.145716e+00 2.313722e+00 6.271030e+00 -6.623523e+00 1.844872e+00 9.671586e-01 -4.869741e+00 -7.713646e+00 2.723762e+00 2.477545e+00 5.914436e+01 -2.586058e-04 1.549587e-03 6.870025e-04 1.207150e-04 -5.714423e-05 3.079417e-04 3.382612e-04 4.012045e-05 1.036941e-03 4.536691e-04 -8.661473e-04 -6.659820e-04 -5.150501e-04 -5.894177e-05 -1.953656e-04 -1.476647e-05 -5.817539e-05 -4.167217e-05 1.104925e-04 8.316743e-05 -7.257758e-05 -9.883386e-05 1.284908e-06 8.549621e-05 1.260234e-04 7.885860e-05
<VARIANCE> 39
 7.489158e+01 6.163103e+01 4.911285e+01 5.660658e+01 8.159623e+01 1.283595e+02 7.828905e+01 8.165112e+01 7.384118e+01 9.152923e+01 4.755254e+01 3.611581e+01 1.517972e+02 4.105834e+00 3.834689e+00 2.901074e+00 3.245545e+00 3.975756e+00 7.411990e+00 4.877269e+00 4.304575e+00 4.450325e+00 4.901345e+00 3.298242e+00 2.531864e+00 5.585910e+00 6.288179e-01 6.214429e-01 5.137152e-01 5.740775e-01 6.440730e-01 1.230075e+00 8.772646e-01 7.654092e-01 7.735459e-01 8.384765e-01 6.029965e-01 4.666039e-01 8.966993e-01
<GCONST> 1.411034e+02
<STATE> 4
<MEAN> 39
 -6.300072e+00 -6.418931e-01 4.145716e+00 2.313722e+00 6.271030e+00 -6.623523e+00 1.844872e+00 9.671586e-01 -4.869741e+00 -7.713646e+00 2.723762e+00 2.477545e+00 5.914436e+01 -2.586058e-04 1.549587e-03 6.870025e-04 1.207150e-04 -5.714423e-05 3.079417e-04 3.382612e-04 4.012045e-05 1.036941e-03 4.536691e-04 -8.661473e-04 -6.659820e-04 -5.150501e-04 -5.894177e-05 -1.953656e-04 -1.476647e-05 -5.817539e-05 -4.167217e-05 1.104925e-04 8.316743e-05 -7.257758e-05 -9.883386e-05 1.284908e-06 8.549621e-05 1.260234e-04 7.885860e-05
<VARIANCE> 39
 7.489158e+01 6.163103e+01 4.911285e+01 5.660658e+01 8.159623e+01 1.283595e+02 7.828905e+01 8.165112e+01 7.384118e+01 9.152923e+01 4.755254e+01 3.611581e+01 1.517972e+02 4.105834e+00 3.834689e+00 2.901074e+00 3.245545e+00 3.975756e+00 7.411990e+00 4.877269e+00 4.304575e+00 4.450325e+00 4.901345e+00 3.298242e+00 2.531864e+00 5.585910e+00 6.288179e-01 6.214429e-01 5.137152e-01 5.740775e-01 6.440730e-01 1.230075e+00 8.772646e-01 7.654092e-01 7.735459e-01 8.384765e-01 6.029965e-01 4.666039e-01 8.966993e-01
<GCONST> 1.411034e+02
<TRANSP> 5
 0.000000e+00 1.000000e+00 0.000000e+00 0.000000e+00 0.000000e+00
 0.000000e+00 6.000000e-01 4.000000e-01 0.000000e+00 0.000000e+00
 0.000000e+00 0.000000e+00 6.000000e-01 4.000000e-01 0.000000e+00
 0.000000e+00 0.000000e+00 0.000000e+00 7.000000e-01 3.000000e-01
 0.000000e+00 0.000000e+00 0.000000e+00 0.000000e+00 0.000000e+00
<ENDHMM>
~h "I"
<BEGINHMM>
<NUMSTATES> 5
<STATE> 2
<MEAN> 39
 -6.300072e+00 -6.418931e-01 4.145716e+00 2.313722e+00 6.271030e+00 -6.623523e+00 1.844872e+00 9.671586e-01 -4.869741e+00 -7.713646e+00 2.723762e+00 2.477545e+00 5.914436e+01 -2.586058e-04 1.549587e-03 6.870025e-04 1.207150e-04 -5.714423e-05 3.079417e-04 3.382612e-04 4.012045e-05 1.036941e-03 4.536691e-04 -8.661473e-04 -6.659820e-04 -5.150501e-04 -5.894177e-05 -1.953656e-04 -1.476647e-05 -5.817539e-05 -4.167217e-05 1.104925e-04 8.316743e-05 -7.257758e-05 -9.883386e-05 1.284908e-06 8.549621e-05 1.260234e-04 7.885860e-05
<VARIANCE> 39
 7.489158e+01 6.163103e+01 4.911285e+01 5.660658e+01 8.159623e+01 1.283595e+02 7.828905e+01 8.165112e+01 7.384118e+01 9.152923e+01 4.755254e+01 3.611581e+01 1.517972e+02 4.105834e+00 3.834689e+00 2.901074e+00 3.245545e+00 3.975756e+00 7.411990e+00 4.877269e+00 4.304575e+00 4.450325e+00 4.901345e+00 3.298242e+00 2.531864e+00 5.585910e+00 6.288179e-01 6.214429e-01 5.137152e-01 5.740775e-01 6.440730e-01 1.230075e+00 8.772646e-01 7.654092e-01 7.735459e-01 8.384765e-01 6.029965e-01 4.666039e-01 8.966993e-01
<GCONST> 1.411034e+02
<STATE> 3
<MEAN> 39
 -6.300072e+00 -6.418931e-01 4.145716e+00 2.313722e+00 6.271030e+00 -6.623523e+00 1.844872e+00 9.671586e-01 -4.869741e+00 -7.713646e+00 2.723762e+00 2.477545e+00 5.914436e+01 -2.586058e-04 1.549587e-03 6.870025e-04 1.207150e-04 -5.714423e-05 3.079417e-04 3.382612e-04 4.012045e-05 1.036941e-03 4.536691e-04 -8.661473e-04 -6.659820e-04 -5.150501e-04 -5.894177e-05 -1.953656e-04 -1.476647e-05 -5.817539e-05 -4.167217e-05 1.104925e-04 8.316743e-05 -7.257758e-05 -9.883386e-05 1.284908e-06 8.549621e-05 1.260234e-04 7.885860e-05
<VARIANCE> 39
 7.489158e+01 6.163103e+01 4.911285e+01 5.660658e+01 8.159623e+01 1.283595e+02 7.828905e+01 8.165112e+01 7.384118e+01 9.152923e+01 4.755254e+01 3.611581e+01 1.517972e+02 4.105834e+00 3.834689e+00 2.901074e+00 3.245545e+00 3.975756e+00 7.411990e+00 4.877269e+00 4.304575e+00 4.450325e+00 4.901345e+00 3.298242e+00 2.531864e+00 5.585910e+00 6.288179e-01 6.214429e-01 5.137152e-01 5.740775e-01 6.440730e-01 1.230075e+00 8.772646e-01 7.654092e-01 7.735459e-01 8.384765e-01 6.029965e-01 4.666039e-01 8.966993e-01
<GCONST> 1.411034e+02
<STATE> 4
<MEAN> 39
 -6.300072e+00 -6.418931e-01 4.145716e+00 2.313722e+00 6.271030e+00 -6.623523e+00 1.844872e+00 9.671586e-01 -4.869741e+00 -7.713646e+00 2.723762e+00 2.477545e+00 5.914436e+01 -2.586058e-04 1.549587e-03 6.870025e-04 1.207150e-04 -5.714423e-05 3.079417e-04 3.382612e-04 4.012045e-05 1.036941e-03 4.536691e-04 -8.661473e-04 -6.659820e-04 -5.150501e-04 -5.894177e-05 -1.953656e-04 -1.476647e-05 -5.817539e-05 -4.167217e-05 1.104925e-04 8.316743e-05 -7.257758e-05 -9.883386e-05 1.284908e-06 8.549621e-05 1.260234e-04 7.885860e-05
<VARIANCE> 39
 7.489158e+01 6.163103e+01 4.911285e+01 5.660658e+01 8.159623e+01 1.283595e+02 7.828905e+01 8.165112e+01 7.384118e+01 9.152923e+01 4.755254e+01 3.611581e+01 1.517972e+02 4.105834e+00 3.834689e+00 2.901074e+00 3.245545e+00 3.975756e+00 7.411990e+00 4.877269e+00 4.304575e+00 4.450325e+00 4.901345e+00 3.298242e+00 2.531864e+00 5.585910e+00 6.288179e-01 6.214429e-01 5.137152e-01 5.740775e-01 6.440730e-01 1.230075e+00 8.772646e-01 7.654092e-01 7.735459e-01 8.384765e-01 6.029965e-01 4.666039e-01 8.966993e-01
<GCONST> 1.411034e+02
<TRANSP> 5
 0.000000e+00 1.000000e+00 0.000000e+00 0.000000e+00 0.000000e+00
 0.000000e+00 6.000000e-01 4.000000e-01 0.000000e+00 0.000000e+00
 0.000000e+00 0.000000e+00 6.000000e-01 4.000000e-01 0.000000e+00
 0.000000e+00 0.000000e+00 0.000000e+00 7.000000e-01 3.000000e-01
 0.000000e+00 0.000000e+00 0.000000e+00 0.000000e+00 0.000000e+00
<ENDHMM>
~h "L"
<BEGINHMM>
<NUMSTATES> 5
<STATE> 2
<MEAN> 39
 -6.300072e+00 -6.418931e-01 4.145716e+00 2.313722e+00 6.271030e+00 -6.623523e+00 1.844872e+00 9.671586e-01 -4.869741e+00 -7.713646e+00 2.723762e+00 2.477545e+00 5.914436e+01 -2.586058e-04 1.549587e-03 6.870025e-04 1.207150e-04 -5.714423e-05 3.079417e-04 3.382612e-04 4.012045e-05 1.036941e-03 4.536691e-04 -8.661473e-04 -6.659820e-04 -5.150501e-04 -5.894177e-05 -1.953656e-04 -1.476647e-05 -5.817539e-05 -4.167217e-05 1.104925e-04 8.316743e-05 -7.257758e-05 -9.883386e-05 1.284908e-06 8.549621e-05 1.260234e-04 7.885860e-05
<VARIANCE> 39
 7.489158e+01 6.163103e+01 4.911285e+01 5.660658e+01 8.159623e+01 1.283595e+02 7.828905e+01 8.165112e+01 7.384118e+01 9.152923e+01 4.755254e+01 3.611581e+01 1.517972e+02 4.105834e+00 3.834689e+00 2.901074e+00 3.245545e+00 3.975756e+00 7.411990e+00 4.877269e+00 4.304575e+00 4.450325e+00 4.901345e+00 3.298242e+00 2.531864e+00 5.585910e+00 6.288179e-01 6.214429e-01 5.137152e-01 5.740775e-01 6.440730e-01 1.230075e+00 8.772646e-01 7.654092e-01 7.735459e-01 8.384765e-01 6.029965e-01 4.666039e-01 8.966993e-01
<GCONST> 1.411034e+02
<STATE> 3
<MEAN> 39
 -6.300072e+00 -6.418931e-01 4.145716e+00 2.313722e+00 6.271030e+00 -6.623523e+00 1.844872e+00 9.671586e-01 -4.869741e+00 -7.713646e+00 2.723762e+00 2.477545e+00 5.914436e+01 -2.586058e-04 1.549587e-03 6.870025e-04 1.207150e-04 -5.714423e-05 3.079417e-04 3.382612e-04 4.012045e-05 1.036941e-03 4.536691e-04 -8.661473e-04 -6.659820e-04 -5.150501e-04 -5.894177e-05 -1.953656e-04 -1.476647e-05 -5.817539e-05 -4.167217e-05 1.104925e-04 8.316743e-05 -7.257758e-05 -9.883386e-05 1.284908e-06 8.549621e-05 1.260234e-04 7.885860e-05
<VARIANCE> 39
 7.489158e+01 6.163103e+01 4.911285e+01 5.660658e+01 8.159623e+01 1.283595e+02 7.828905e+01 8.165112e+01 7.384118e+01 9.152923e+01 4.755254e+01 3.611581e+01 1.517972e+02 4.105834e+00 3.834689e+00 2.901074e+00 3.245545e+00 3.975756e+00 7.411990e+00 4.877269e+00 4.304575e+00 4.450325e+00 4.901345e+00 3.298242e+00 2.531864e+00 5.585910e+00 6.288179e-01 6.214429e-01 5.137152e-01 5.740775e-01 6.440730e-01 1.230075e+00 8.772646e-01 7.654092e-01 7.735459e-01 8.384765e-01 6.029965e-01 4.666039e-01 8.966993e-01
<GCONST> 1.411034e+02
<STATE> 4
<MEAN> 39
 -6.300072e+00 -6.418931e-01 4.145716e+00 2.313722e+00 6.271030e+00 -6.623523e+00 1.844872e+00 9.671586e-01 -4.869741e+00 -7.713646e+00 2.723762e+00 2.477545e+00 5.914436e+01 -2.586058e-04 1.549587e-03 6.870025e-04 1.207150e-04 -5.714423e-05 3.079417e-04 3.382612e-04 4.012045e-05 1.036941e-03 4.536691e-04 -8.661473e-04 -6.659820e-04 -5.150501e-04 -5.894177e-05 -1.953656e-04 -1.476647e-05 -5.817539e-05 -4.167217e-05 1.104925e-04 8.316743e-05 -7.257758e-05 -9.883386e-05 1.284908e-06 8.549621e-05 1.260234e-04 7.885860e-05
<VARIANCE> 39
 7.489158e+01 6.163103e+01 4.911285e+01 5.660658e+01 8.159623e+01 1.283595e+02 7.828905e+01 8.165112e+01 7.384118e+01 9.152923e+01 4.755254e+01 3.611581e+01 1.517972e+02 4.105834e+00 3.834689e+00 2.901074e+00 3.245545e+00 3.975756e+00 7.411990e+00 4.877269e+00 4.304575e+00 4.450325e+00 4.901345e+00 3.298242e+00 2.531864e+00 5.585910e+00 6.288179e-01 6.214429e-01 5.137152e-01 5.740775e-01 6.440730e-01 1.230075e+00 8.772646e-01 7.654092e-01 7.735459e-01 8.384765e-01 6.029965e-01 4.666039e-01 8.966993e-01
<GCONST> 1.411034e+02
<TRANSP> 5
 0.000000e+00 1.000000e+00 0.000000e+00 0.000000e+00 0.000000e+00
 0.000000e+00 6.000000e-01 4.000000e-01 0.000000e+00 0.000000e+00
 0.000000e+00 0.000000e+00 6.000000e-01 4.000000e-01 0.000000e+00
 0.000000e+00 0.000000e+00 0.000000e+00 7.000000e-01 3.000000e-01
 0.000000e+00 0.000000e+00 0.000000e+00 0.000000e+00 0.000000e+00
<ENDHMM>
~h "C"
<BEGINHMM>
<NUMSTATES> 5
<STATE> 2
<MEAN> 39
 -6.300072e+00 -6.418931e-01 4.145716e+00 2.313722e+00 6.271030e+00 -6.623523e+00 1.844872e+00 9.671586e-01 -4.869741e+00 -7.713646e+00 2.723762e+00 2.477545e+00 5.914436e+01 -2.586058e-04 1.549587e-03 6.870025e-04 1.207150e-04 -5.714423e-05 3.079417e-04 3.382612e-04 4.012045e-05 1.036941e-03 4.536691e-04 -8.661473e-04 -6.659820e-04 -5.150501e-04 -5.894177e-05 -1.953656e-04 -1.476647e-05 -5.817539e-05 -4.167217e-05 1.104925e-04 8.316743e-05 -7.257758e-05 -9.883386e-05 1.284908e-06 8.549621e-05 1.260234e-04 7.885860e-05
<VARIANCE> 39
 7.489158e+01 6.163103e+01 4.911285e+01 5.660658e+01 8.159623e+01 1.283595e+02 7.828905e+01 8.165112e+01 7.384118e+01 9.152923e+01 4.755254e+01 3.611581e+01 1.517972e+02 4.105834e+00 3.834689e+00 2.901074e+00 3.245545e+00 3.975756e+00 7.411990e+00 4.877269e+00 4.304575e+00 4.450325e+00 4.901345e+00 3.298242e+00 2.531864e+00 5.585910e+00 6.288179e-01 6.214429e-01 5.137152e-01 5.740775e-01 6.440730e-01 1.230075e+00 8.772646e-01 7.654092e-01 7.735459e-01 8.384765e-01 6.029965e-01 4.666039e-01 8.966993e-01
<GCONST> 1.411034e+02
<STATE> 3
<MEAN> 39
 -6.300072e+00 -6.418931e-01 4.145716e+00 2.313722e+00 6.271030e+00 -6.623523e+00 1.844872e+00 9.671586e-01 -4.869741e+00 -7.713646e+00 2.723762e+00 2.477545e+00 5.914436e+01 -2.586058e-04 1.549587e-03 6.870025e-04 1.207150e-04 -5.714423e-05 3.079417e-04 3.382612e-04 4.012045e-05 1.036941e-03 4.536691e-04 -8.661473e-04 -6.659820e-04 -5.150501e-04 -5.894177e-05 -1.953656e-04 -1.476647e-05 -5.817539e-05 -4.167217e-05 1.104925e-04 8.316743e-05 -7.257758e-05 -9.883386e-05 1.284908e-06 8.549621e-05 1.260234e-04 7.885860e-05
<VARIANCE> 39
 7.489158e+01 6.163103e+01 4.911285e+01 5.660658e+01 8.159623e+01 1.283595e+02 7.828905e+01 8.165112e+01 7.384118e+01 9.152923e+01 4.755254e+01 3.611581e+01 1.517972e+02 4.105834e+00 3.834689e+00 2.901074e+00 3.245545e+00 3.975756e+00 7.411990e+00 4.877269e+00 4.304575e+00 4.450325e+00 4.901345e+00 3.298242e+00 2.531864e+00 5.585910e+00 6.288179e-01 6.214429e-01 5.137152e-01 5.740775e-01 6.440730e-01 1.230075e+00 8.772646e-01 7.654092e-01 7.735459e-01 8.384765e-01 6.029965e-01 4.666039e-01 8.966993e-01
<GCONST> 1.411034e+02
<STATE> 4
<MEAN> 39
 -6.300072e+00 -6.418931e-01 4.145716e+00 2.313722e+00 6.271030e+00 -6.623523e+00 1.844872e+00 9.671586e-01 -4.869741e+00 -7.713646e+00 2.723762e+00 2.477545e+00 5.914436e+01 -2.586058e-04 1.549587e-03 6.870025e-04 1.207150e-04 -5.714423e-05 3.079417e-04 3.382612e-04 4.012045e-05 1.036941e-03 4.536691e-04 -8.661473e-04 -6.659820e-04 -5.150501e-04 -5.894177e-05 -1.953656e-04 -1.476647e-05 -5.817539e-05 -4.167217e-05 1.104925e-04 8.316743e-05 -7.257758e-05 -9.883386e-05 1.284908e-06 8.549621e-05 1.260234e-04 7.885860e-05
<VARIANCE> 39
 7.489158e+01 6.163103e+01 4.911285e+01 5.660658e+01 8.159623e+01 1.283595e+02 7.828905e+01 8.165112e+01 7.384118e+01 9.152923e+01 4.755254e+01 3.611581e+01 1.517972e+02 4.105834e+00 3.834689e+00 2.901074e+00 3.245545e+00 3.975756e+00 7.411990e+00 4.877269e+00 4.304575e+00 4.450325e+00 4.901345e+00 3.298242e+00 2.531864e+00 5.585910e+00 6.288179e-01 6.214429e-01 5.137152e-01 5.740775e-01 6.440730e-01 1.230075e+00 8.772646e-01 7.654092e-01 7.735459e-01 8.384765e-01 6.029965e-01 4.666039e-01 8.966993e-01
<GCONST> 1.411034e+02
<TRANSP> 5
 0.000000e+00 1.000000e+00 0.000000e+00 0.000000e+00 0.000000e+00
 0.000000e+00 6.000000e-01 4.000000e-01 0.000000e+00 0.000000e+00
 0.000000e+00 0.000000e+00 6.000000e-01 4.000000e-01 0.000000e+00
 0.000000e+00 0.000000e+00 0.000000e+00 7.000000e-01 3.000000e-01
 0.000000e+00 0.000000e+00 0.000000e+00 0.000000e+00 0.000000e+00
<ENDHMM>
~h "K"
<BEGINHMM>
<NUMSTATES> 5
<STATE> 2
<MEAN> 39
 -6.300072e+00 -6.418931e-01 4.145716e+00 2.313722e+00 6.271030e+00 -6.623523e+00 1.844872e+00 9.671586e-01 -4.869741e+00 -7.713646e+00 2.723762e+00 2.477545e+00 5.914436e+01 -2.586058e-04 1.549587e-03 6.870025e-04 1.207150e-04 -5.714423e-05 3.079417e-04 3.382612e-04 4.012045e-05 1.036941e-03 4.536691e-04 -8.661473e-04 -6.659820e-04 -5.150501e-04 -5.894177e-05 -1.953656e-04 -1.476647e-05 -5.817539e-05 -4.167217e-05 1.104925e-04 8.316743e-05 -7.257758e-05 -9.883386e-05 1.284908e-06 8.549621e-05 1.260234e-04 7.885860e-05
<VARIANCE> 39
 7.489158e+01 6.163103e+01 4.911285e+01 5.660658e+01 8.159623e+01 1.283595e+02 7.828905e+01 8.165112e+01 7.384118e+01 9.152923e+01 4.755254e+01 3.611581e+01 1.517972e+02 4.105834e+00 3.834689e+00 2.901074e+00 3.245545e+00 3.975756e+00 7.411990e+00 4.877269e+00 4.304575e+00 4.450325e+00 4.901345e+00 3.298242e+00 2.531864e+00 5.585910e+00 6.288179e-01 6.214429e-01 5.137152e-01 5.740775e-01 6.440730e-01 1.230075e+00 8.772646e-01 7.654092e-01 7.735459e-01 8.384765e-01 6.029965e-01 4.666039e-01 8.966993e-01
<GCONST> 1.411034e+02
<STATE> 3
<MEAN> 39
 -6.300072e+00 -6.418931e-01 4.145716e+00 2.313722e+00 6.271030e+00 -6.623523e+00 1.844872e+00 9.671586e-01 -4.869741e+00 -7.713646e+00 2.723762e+00 2.477545e+00 5.914436e+01 -2.586058e-04 1.549587e-03 6.870025e-04 1.207150e-04 -5.714423e-05 3.079417e-04 3.382612e-04 4.012045e-05 1.036941e-03 4.536691e-04 -8.661473e-04 -6.659820e-04 -5.150501e-04 -5.894177e-05 -1.953656e-04 -1.476647e-05 -5.817539e-05 -4.167217e-05 1.104925e-04 8.316743e-05 -7.257758e-05 -9.883386e-05 1.284908e-06 8.549621e-05 1.260234e-04 7.885860e-05
<VARIANCE> 39
 7.489158e+01 6.163103e+01 4.911285e+01 5.660658e+01 8.159623e+01 1.283595e+02 7.828905e+01 8.165112e+01 7.384118e+01 9.152923e+01 4.755254e+01 3.611581e+01 1.517972e+02 4.105834e+00 3.834689e+00 2.901074e+00 3.245545e+00 3.975756e+00 7.411990e+00 4.877269e+00 4.304575e+00 4.450325e+00 4.901345e+00 3.298242e+00 2.531864e+00 5.585910e+00 6.288179e-01 6.214429e-01 5.137152e-01 5.740775e-01 6.440730e-01 1.230075e+00 8.772646e-01 7.654092e-01 7.735459e-01 8.384765e-01 6.029965e-01 4.666039e-01 8.966993e-01
<GCONST> 1.411034e+02
<STATE> 4
<MEAN> 39
 -6.300072e+00 -6.418931e-01 4.145716e+00 2.313722e+00 6.271030e+00 -6.623523e+00 1.844872e+00 9.671586e-01 -4.869741e+00 -7.713646e+00 2.723762e+00 2.477545e+00 5.914436e+01 -2.586058e-04 1.549587e-03 6.870025e-04 1.207150e-04 -5.714423e-05 3.079417e-04 3.382612e-04 4.012045e-05 1.036941e-03 4.536691e-04 -8.661473e-04 -6.659820e-04 -5.150501e-04 -5.894177e-05 -1.953656e-04 -1.476647e-05 -5.817539e-05 -4.167217e-05 1.104925e-04 8.316743e-05 -7.257758e-05 -9.883386e-05 1.284908e-06 8.549621e-05 1.260234e-04 7.885860e-05
<VARIANCE> 39
 7.489158e+01 6.163103e+01 4.911285e+01 5.660658e+01 8.159623e+01 1.283595e+02 7.828905e+01 8.165112e+01 7.384118e+01 9.152923e+01 4.755254e+01 3.611581e+01 1.517972e+02 4.105834e+00 3.834689e+00 2.901074e+00 3.245545e+00 3.975756e+00 7.411990e+00 4.877269e+00 4.304575e+00 4.450325e+00 4.901345e+00 3.298242e+00 2.531864e+00 5.585910e+00 6.288179e-01 6.214429e-01 5.137152e-01 5.740775e-01 6.440730e-01 1.230075e+00 8.772646e-01 7.654092e-01 7.735459e-01 8.384765e-01 6.029965e-01 4.666039e-01 8.966993e-01
<GCONST> 1.411034e+02
<TRANSP> 5
 0.000000e+00 1.000000e+00 0.000000e+00 0.000000e+00 0.000000e+00
 0.000000e+00 6.000000e-01 4.000000e-01 0.000000e+00 0.000000e+00
 0.000000e+00 0.000000e+00 6.000000e-01 4.000000e-01 0.000000e+00
 0.000000e+00 0.000000e+00 0.000000e+00 7.000000e-01 3.000000e-01
 0.000000e+00 0.000000e+00 0.000000e+00 0.000000e+00 0.000000e+00
<ENDHMM>
~h "M"
<BEGINHMM>
<NUMSTATES> 5
<STATE> 2
<MEAN> 39
 -6.300072e+00 -6.418931e-01 4.145716e+00 2.313722e+00 6.271030e+00 -6.623523e+00 1.844872e+00 9.671586e-01 -4.869741e+00 -7.713646e+00 2.723762e+00 2.477545e+00 5.914436e+01 -2.586058e-04 1.549587e-03 6.870025e-04 1.207150e-04 -5.714423e-05 3.079417e-04 3.382612e-04 4.012045e-05 1.036941e-03 4.536691e-04 -8.661473e-04 -6.659820e-04 -5.150501e-04 -5.894177e-05 -1.953656e-04 -1.476647e-05 -5.817539e-05 -4.167217e-05 1.104925e-04 8.316743e-05 -7.257758e-05 -9.883386e-05 1.284908e-06 8.549621e-05 1.260234e-04 7.885860e-05
<VARIANCE> 39
 7.489158e+01 6.163103e+01 4.911285e+01 5.660658e+01 8.159623e+01 1.283595e+02 7.828905e+01 8.165112e+01 7.384118e+01 9.152923e+01 4.755254e+01 3.611581e+01 1.517972e+02 4.105834e+00 3.834689e+00 2.901074e+00 3.245545e+00 3.975756e+00 7.411990e+00 4.877269e+00 4.304575e+00 4.450325e+00 4.901345e+00 3.298242e+00 2.531864e+00 5.585910e+00 6.288179e-01 6.214429e-01 5.137152e-01 5.740775e-01 6.440730e-01 1.230075e+00 8.772646e-01 7.654092e-01 7.735459e-01 8.384765e-01 6.029965e-01 4.666039e-01 8.966993e-01
<GCONST> 1.411034e+02
<STATE> 3
<MEAN> 39
 -6.300072e+00 -6.418931e-01 4.145716e+00 2.313722e+00 6.271030e+00 -6.623523e+00 1.844872e+00 9.671586e-01 -4.869741e+00 -7.713646e+00 2.723762e+00 2.477545e+00 5.914436e+01 -2.586058e-04 1.549587e-03 6.870025e-04 1.207150e-04 -5.714423e-05 3.079417e-04 3.382612e-04 4.012045e-05 1.036941e-03 4.536691e-04 -8.661473e-04 -6.659820e-04 -5.150501e-04 -5.894177e-05 -1.953656e-04 -1.476647e-05 -5.817539e-05 -4.167217e-05 1.104925e-04 8.316743e-05 -7.257758e-05 -9.883386e-05 1.284908e-06 8.549621e-05 1.260234e-04 7.885860e-05
<VARIANCE> 39
 7.489158e+01 6.163103e+01 4.911285e+01 5.660658e+01 8.159623e+01 1.283595e+02 7.828905e+01 8.165112e+01 7.384118e+01 9.152923e+01 4.755254e+01 3.611581e+01 1.517972e+02 4.105834e+00 3.834689e+00 2.901074e+00 3.245545e+00 3.975756e+00 7.411990e+00 4.877269e+00 4.304575e+00 4.450325e+00 4.901345e+00 3.298242e+00 2.531864e+00 5.585910e+00 6.288179e-01 6.214429e-01 5.137152e-01 5.740775e-01 6.440730e-01 1.230075e+00 8.772646e-01 7.654092e-01 7.735459e-01 8.384765e-01 6.029965e-01 4.666039e-01 8.966993e-01
<GCONST> 1.411034e+02
<STATE> 4
<MEAN> 39
 -6.300072e+00 -6.418931e-01 4.145716e+00 2.313722e+00 6.271030e+00 -6.623523e+00 1.844872e+00 9.671586e-01 -4.869741e+00 -7.713646e+00 2.723762e+00 2.477545e+00 5.914436e+01 -2.586058e-04 1.549587e-03 6.870025e-04 1.207150e-04 -5.714423e-05 3.079417e-04 3.382612e-04 4.012045e-05 1.036941e-03 4.536691e-04 -8.661473e-04 -6.659820e-04 -5.150501e-04 -5.894177e-05 -1.953656e-04 -1.476647e-05 -5.817539e-05 -4.167217e-05 1.104925e-04 8.316743e-05 -7.257758e-05 -9.883386e-05 1.284908e-06 8.549621e-05 1.260234e-04 7.885860e-05
<VARIANCE> 39
 7.489158e+01 6.163103e+01 4.911285e+01 5.660658e+01 8.159623e+01 1.283595e+02 7.828905e+01 8.165112e+01 7.384118e+01 9.152923e+01 4.755254e+01 3.611581e+01 1.517972e+02 4.105834e+00 3.834689e+00 2.901074e+00 3.245545e+00 3.975756e+00 7.411990e+00 4.877269e+00 4.304575e+00 4.450325e+00 4.901345e+00 3.298242e+00 2.531864e+00 5.585910e+00 6.288179e-01 6.214429e-01 5.137152e-01 5.740775e-01 6.440730e-01 1.230075e+00 8.772646e-01 7.654092e-01 7.735459e-01 8.384765e-01 6.029965e-01 4.666039e-01 8.966993e-01
<GCONST> 1.411034e+02
<TRANSP> 5
 0.000000e+00 1.000000e+00 0.000000e+00 0.000000e+00 0.000000e+00
 0.000000e+00 6.000000e-01 4.000000e-01 0.000000e+00 0.000000e+00
 0.000000e+00 0.000000e+00 6.000000e-01 4.000000e-01 0.000000e+00
 0.000000e+00 0.000000e+00 0.000000e+00 7.000000e-01 3.000000e-01
 0.000000e+00 0.000000e+00 0.000000e+00 0.000000e+00 0.000000e+00
<ENDHMM>
~h "P"
<BEGINHMM>
<NUMSTATES> 5
<STATE> 2
<MEAN> 39
 -6.300072e+00 -6.418931e-01 4.145716e+00 2.313722e+00 6.271030e+00 -6.623523e+00 1.844872e+00 9.671586e-01 -4.869741e+00 -7.713646e+00 2.723762e+00 2.477545e+00 5.914436e+01 -2.586058e-04 1.549587e-03 6.870025e-04 1.207150e-04 -5.714423e-05 3.079417e-04 3.382612e-04 4.012045e-05 1.036941e-03 4.536691e-04 -8.661473e-04 -6.659820e-04 -5.150501e-04 -5.894177e-05 -1.953656e-04 -1.476647e-05 -5.817539e-05 -4.167217e-05 1.104925e-04 8.316743e-05 -7.257758e-05 -9.883386e-05 1.284908e-06 8.549621e-05 1.260234e-04 7.885860e-05
<VARIANCE> 39
 7.489158e+01 6.163103e+01 4.911285e+01 5.660658e+01 8.159623e+01 1.283595e+02 7.828905e+01 8.165112e+01 7.384118e+01 9.152923e+01 4.755254e+01 3.611581e+01 1.517972e+02 4.105834e+00 3.834689e+00 2.901074e+00 3.245545e+00 3.975756e+00 7.411990e+00 4.877269e+00 4.304575e+00 4.450325e+00 4.901345e+00 3.298242e+00 2.531864e+00 5.585910e+00 6.288179e-01 6.214429e-01 5.137152e-01 5.740775e-01 6.440730e-01 1.230075e+00 8.772646e-01 7.654092e-01 7.735459e-01 8.384765e-01 6.029965e-01 4.666039e-01 8.966993e-01
<GCONST> 1.411034e+02
<STATE> 3
<MEAN> 39
 -6.300072e+00 -6.418931e-01 4.145716e+00 2.313722e+00 6.271030e+00 -6.623523e+00 1.844872e+00 9.671586e-01 -4.869741e+00 -7.713646e+00 2.723762e+00 2.477545e+00 5.914436e+01 -2.586058e-04 1.549587e-03 6.870025e-04 1.207150e-04 -5.714423e-05 3.079417e-04 3.382612e-04 4.012045e-05 1.036941e-03 4.536691e-04 -8.661473e-04 -6.659820e-04 -5.150501e-04 -5.894177e-05 -1.953656e-04 -1.476647e-05 -5.817539e-05 -4.167217e-05 1.104925e-04 8.316743e-05 -7.257758e-05 -9.883386e-05 1.284908e-06 8.549621e-05 1.260234e-04 7.885860e-05
<VARIANCE> 39
 7.489158e+01 6.163103e+01 4.911285e+01 5.660658e+01 8.159623e+01 1.283595e+02 7.828905e+01 8.165112e+01 7.384118e+01 9.152923e+01 4.755254e+01 3.611581e+01 1.517972e+02 4.105834e+00 3.834689e+00 2.901074e+00 3.245545e+00 3.975756e+00 7.411990e+00 4.877269e+00 4.304575e+00 4.450325e+00 4.901345e+00 3.298242e+00 2.531864e+00 5.585910e+00 6.288179e-01 6.214429e-01 5.137152e-01 5.740775e-01 6.440730e-01 1.230075e+00 8.772646e-01 7.654092e-01 7.735459e-01 8.384765e-01 6.029965e-01 4.666039e-01 8.966993e-01
<GCONST> 1.411034e+02
<STATE> 4
<MEAN> 39
 -6.300072e+00 -6.418931e-01 4.145716e+00 2.313722e+00 6.271030e+00 -6.623523e+00 1.844872e+00 9.671586e-01 -4.869741e+00 -7.713646e+00 2.723762e+00 2.477545e+00 5.914436e+01 -2.586058e-04 1.549587e-03 6.870025e-04 1.207150e-04 -5.714423e-05 3.079417e-04 3.382612e-04 4.012045e-05 1.036941e-03 4.536691e-04 -8.661473e-04 -6.659820e-04 -5.150501e-04 -5.894177e-05 -1.953656e-04 -1.476647e-05 -5.817539e-05 -4.167217e-05 1.104925e-04 8.316743e-05 -7.257758e-05 -9.883386e-05 1.284908e-06 8.549621e-05 1.260234e-04 7.885860e-05
<VARIANCE> 39
 7.489158e+01 6.163103e+01 4.911285e+01 5.660658e+01 8.159623e+01 1.283595e+02 7.828905e+01 8.165112e+01 7.384118e+01 9.152923e+01 4.755254e+01 3.611581e+01 1.517972e+02 4.105834e+00 3.834689e+00 2.901074e+00 3.245545e+00 3.975756e+00 7.411990e+00 4.877269e+00 4.304575e+00 4.450325e+00 4.901345e+00 3.298242e+00 2.531864e+00 5.585910e+00 6.288179e-01 6.214429e-01 5.137152e-01 5.740775e-01 6.440730e-01 1.230075e+00 8.772646e-01 7.654092e-01 7.735459e-01 8.384765e-01 6.029965e-01 4.666039e-01 8.966993e-01
<GCONST> 1.411034e+02
<TRANSP> 5
 0.000000e+00 1.000000e+00 0.000000e+00 0.000000e+00 0.000000e+00
 0.000000e+00 6.000000e-01 4.000000e-01 0.000000e+00 0.000000e+00
 0.000000e+00 0.000000e+00 6.000000e-01 4.000000e-01 0.000000e+00
 0.000000e+00 0.000000e+00 0.000000e+00 7.000000e-01 3.000000e-01
 0.000000e+00 0.000000e+00 0.000000e+00 0.000000e+00 0.000000e+00
<ENDHMM>
~h "U"
<BEGINHMM>
<NUMSTATES> 5
<STATE> 2
<MEAN> 39
 -6.300072e+00 -6.418931e-01 4.145716e+00 2.313722e+00 6.271030e+00 -6.623523e+00 1.844872e+00 9.671586e-01 -4.869741e+00 -7.713646e+00 2.723762e+00 2.477545e+00 5.914436e+01 -2.586058e-04 1.549587e-03 6.870025e-04 1.207150e-04 -5.714423e-05 3.079417e-04 3.382612e-04 4.012045e-05 1.036941e-03 4.536691e-04 -8.661473e-04 -6.659820e-04 -5.150501e-04 -5.894177e-05 -1.953656e-04 -1.476647e-05 -5.817539e-05 -4.167217e-05 1.104925e-04 8.316743e-05 -7.257758e-05 -9.883386e-05 1.284908e-06 8.549621e-05 1.260234e-04 7.885860e-05
<VARIANCE> 39
 7.489158e+01 6.163103e+01 4.911285e+01 5.660658e+01 8.159623e+01 1.283595e+02 7.828905e+01 8.165112e+01 7.384118e+01 9.152923e+01 4.755254e+01 3.611581e+01 1.517972e+02 4.105834e+00 3.834689e+00 2.901074e+00 3.245545e+00 3.975756e+00 7.411990e+00 4.877269e+00 4.304575e+00 4.450325e+00 4.901345e+00 3.298242e+00 2.531864e+00 5.585910e+00 6.288179e-01 6.214429e-01 5.137152e-01 5.740775e-01 6.440730e-01 1.230075e+00 8.772646e-01 7.654092e-01 7.735459e-01 8.384765e-01 6.029965e-01 4.666039e-01 8.966993e-01
<GCONST> 1.411034e+02
<STATE> 3
<MEAN> 39
 -6.300072e+00 -6.418931e-01 4.145716e+00 2.313722e+00 6.271030e+00 -6.623523e+00 1.844872e+00 9.671586e-01 -4.869741e+00 -7.713646e+00 2.723762e+00 2.477545e+00 5.914436e+01 -2.586058e-04 1.549587e-03 6.870025e-04 1.207150e-04 -5.714423e-05 3.079417e-04 3.382612e-04 4.012045e-05 1.036941e-03 4.536691e-04 -8.661473e-04 -6.659820e-04 -5.150501e-04 -5.894177e-05 -1.953656e-04 -1.476647e-05 -5.817539e-05 -4.167217e-05 1.104925e-04 8.316743e-05 -7.257758e-05 -9.883386e-05 1.284908e-06 8.549621e-05 1.260234e-04 7.885860e-05
<VARIANCE> 39
 7.489158e+01 6.163103e+01 4.911285e+01 5.660658e+01 8.159623e+01 1.283595e+02 7.828905e+01 8.165112e+01 7.384118e+01 9.152923e+01 4.755254e+01 3.611581e+01 1.517972e+02 4.105834e+00 3.834689e+00 2.901074e+00 3.245545e+00 3.975756e+00 7.411990e+00 4.877269e+00 4.304575e+00 4.450325e+00 4.901345e+00 3.298242e+00 2.531864e+00 5.585910e+00 6.288179e-01 6.214429e-01 5.137152e-01 5.740775e-01 6.440730e-01 1.230075e+00 8.772646e-01 7.654092e-01 7.735459e-01 8.384765e-01 6.029965e-01 4.666039e-01 8.966993e-01
<GCONST> 1.411034e+02
<STATE> 4
<MEAN> 39
 -6.300072e+00 -6.418931e-01 4.145716e+00 2.313722e+00 6.271030e+00 -6.623523e+00 1.844872e+00 9.671586e-01 -4.869741e+00 -7.713646e+00 2.723762e+00 2.477545e+00 5.914436e+01 -2.586058e-04 1.549587e-03 6.870025e-04 1.207150e-04 -5.714423e-05 3.079417e-04 3.382612e-04 4.012045e-05 1.036941e-03 4.536691e-04 -8.661473e-04 -6.659820e-04 -5.150501e-04 -5.894177e-05 -1.953656e-04 -1.476647e-05 -5.817539e-05 -4.167217e-05 1.104925e-04 8.316743e-05 -7.257758e-05 -9.883386e-05 1.284908e-06 8.549621e-05 1.260234e-04 7.885860e-05
<VARIANCE> 39
 7.489158e+01 6.163103e+01 4.911285e+01 5.660658e+01 8.159623e+01 1.283595e+02 7.828905e+01 8.165112e+01 7.384118e+01 9.152923e+01 4.755254e+01 3.611581e+01 1.517972e+02 4.105834e+00 3.834689e+00 2.901074e+00 3.245545e+00 3.975756e+00 7.411990e+00 4.877269e+00 4.304575e+00 4.450325e+00 4.901345e+00 3.298242e+00 2.531864e+00 5.585910e+00 6.288179e-01 6.214429e-01 5.137152e-01 5.740775e-01 6.440730e-01 1.230075e+00 8.772646e-01 7.654092e-01 7.735459e-01 8.384765e-01 6.029965e-01 4.666039e-01 8.966993e-01
<GCONST> 1.411034e+02
<TRANSP> 5
 0.000000e+00 1.000000e+00 0.000000e+00 0.000000e+00 0.000000e+00
 0.000000e+00 6.000000e-01 4.000000e-01 0.000000e+00 0.000000e+00
 0.000000e+00 0.000000e+00 6.000000e-01 4.000000e-01 0.000000e+00
 0.000000e+00 0.000000e+00 0.000000e+00 7.000000e-01 3.000000e-01
 0.000000e+00 0.000000e+00 0.000000e+00 0.000000e+00 0.000000e+00
<ENDHMM>
~h "AHX"
<BEGINHMM>
<NUMSTATES> 5
<STATE> 2
<MEAN> 39
 -6.300072e+00 -6.418931e-01 4.145716e+00 2.313722e+00 6.271030e+00 -6.623523e+00 1.844872e+00 9.671586e-01 -4.869741e+00 -7.713646e+00 2.723762e+00 2.477545e+00 5.914436e+01 -2.586058e-04 1.549587e-03 6.870025e-04 1.207150e-04 -5.714423e-05 3.079417e-04 3.382612e-04 4.012045e-05 1.036941e-03 4.536691e-04 -8.661473e-04 -6.659820e-04 -5.150501e-04 -5.894177e-05 -1.953656e-04 -1.476647e-05 -5.817539e-05 -4.167217e-05 1.104925e-04 8.316743e-05 -7.257758e-05 -9.883386e-05 1.284908e-06 8.549621e-05 1.260234e-04 7.885860e-05
<VARIANCE> 39
 7.489158e+01 6.163103e+01 4.911285e+01 5.660658e+01 8.159623e+01 1.283595e+02 7.828905e+01 8.165112e+01 7.384118e+01 9.152923e+01 4.755254e+01 3.611581e+01 1.517972e+02 4.105834e+00 3.834689e+00 2.901074e+00 3.245545e+00 3.975756e+00 7.411990e+00 4.877269e+00 4.304575e+00 4.450325e+00 4.901345e+00 3.298242e+00 2.531864e+00 5.585910e+00 6.288179e-01 6.214429e-01 5.137152e-01 5.740775e-01 6.440730e-01 1.230075e+00 8.772646e-01 7.654092e-01 7.735459e-01 8.384765e-01 6.029965e-01 4.666039e-01 8.966993e-01
<GCONST> 1.411034e+02
<STATE> 3
<MEAN> 39
 -6.300072e+00 -6.418931e-01 4.145716e+00 2.313722e+00 6.271030e+00 -6.623523e+00 1.844872e+00 9.671586e-01 -4.869741e+00 -7.713646e+00 2.723762e+00 2.477545e+00 5.914436e+01 -2.586058e-04 1.549587e-03 6.870025e-04 1.207150e-04 -5.714423e-05 3.079417e-04 3.382612e-04 4.012045e-05 1.036941e-03 4.536691e-04 -8.661473e-04 -6.659820e-04 -5.150501e-04 -5.894177e-05 -1.953656e-04 -1.476647e-05 -5.817539e-05 -4.167217e-05 1.104925e-04 8.316743e-05 -7.257758e-05 -9.883386e-05 1.284908e-06 8.549621e-05 1.260234e-04 7.885860e-05
<VARIANCE> 39
 7.489158e+01 6.163103e+01 4.911285e+01 5.660658e+01 8.159623e+01 1.283595e+02 7.828905e+01 8.165112e+01 7.384118e+01 9.152923e+01 4.755254e+01 3.611581e+01 1.517972e+02 4.105834e+00 3.834689e+00 2.901074e+00 3.245545e+00 3.975756e+00 7.411990e+00 4.877269e+00 4.304575e+00 4.450325e+00 4.901345e+00 3.298242e+00 2.531864e+00 5.585910e+00 6.288179e-01 6.214429e-01 5.137152e-01 5.740775e-01 6.440730e-01 1.230075e+00 8.772646e-01 7.654092e-01 7.735459e-01 8.384765e-01 6.029965e-01 4.666039e-01 8.966993e-01
<GCONST> 1.411034e+02
<STATE> 4
<MEAN> 39
 -6.300072e+00 -6.418931e-01 4.145716e+00 2.313722e+00 6.271030e+00 -6.623523e+00 1.844872e+00 9.671586e-01 -4.869741e+00 -7.713646e+00 2.723762e+00 2.477545e+00 5.914436e+01 -2.586058e-04 1.549587e-03 6.870025e-04 1.207150e-04 -5.714423e-05 3.079417e-04 3.382612e-04 4.012045e-05 1.036941e-03 4.536691e-04 -8.661473e-04 -6.659820e-04 -5.150501e-04 -5.894177e-05 -1.953656e-04 -1.476647e-05 -5.817539e-05 -4.167217e-05 1.104925e-04 8.316743e-05 -7.257758e-05 -9.883386e-05 1.284908e-06 8.549621e-05 1.260234e-04 7.885860e-05
<VARIANCE> 39
 7.489158e+01 6.163103e+01 4.911285e+01 5.660658e+01 8.159623e+01 1.283595e+02 7.828905e+01 8.165112e+01 7.384118e+01 9.152923e+01 4.755254e+01 3.611581e+01 1.517972e+02 4.105834e+00 3.834689e+00 2.901074e+00 3.245545e+00 3.975756e+00 7.411990e+00 4.877269e+00 4.304575e+00 4.450325e+00 4.901345e+00 3.298242e+00 2.531864e+00 5.585910e+00 6.288179e-01 6.214429e-01 5.137152e-01 5.740775e-01 6.440730e-01 1.230075e+00 8.772646e-01 7.654092e-01 7.735459e-01 8.384765e-01 6.029965e-01 4.666039e-01 8.966993e-01
<GCONST> 1.411034e+02
<TRANSP> 5
 0.000000e+00 1.000000e+00 0.000000e+00 0.000000e+00 0.000000e+00
 0.000000e+00 6.000000e-01 4.000000e-01 0.000000e+00 0.000000e+00
 0.000000e+00 0.000000e+00 6.000000e-01 4.000000e-01 0.000000e+00
 0.000000e+00 0.000000e+00 0.000000e+00 7.000000e-01 3.000000e-01
 0.000000e+00 0.000000e+00 0.000000e+00 0.000000e+00 0.000000e+00
<ENDHMM>
~h "DH"
<BEGINHMM>
<NUMSTATES> 5
<STATE> 2
<MEAN> 39
 -6.300072e+00 -6.418931e-01 4.145716e+00 2.313722e+00 6.271030e+00 -6.623523e+00 1.844872e+00 9.671586e-01 -4.869741e+00 -7.713646e+00 2.723762e+00 2.477545e+00 5.914436e+01 -2.586058e-04 1.549587e-03 6.870025e-04 1.207150e-04 -5.714423e-05 3.079417e-04 3.382612e-04 4.012045e-05 1.036941e-03 4.536691e-04 -8.661473e-04 -6.659820e-04 -5.150501e-04 -5.894177e-05 -1.953656e-04 -1.476647e-05 -5.817539e-05 -4.167217e-05 1.104925e-04 8.316743e-05 -7.257758e-05 -9.883386e-05 1.284908e-06 8.549621e-05 1.260234e-04 7.885860e-05
<VARIANCE> 39
 7.489158e+01 6.163103e+01 4.911285e+01 5.660658e+01 8.159623e+01 1.283595e+02 7.828905e+01 8.165112e+01 7.384118e+01 9.152923e+01 4.755254e+01 3.611581e+01 1.517972e+02 4.105834e+00 3.834689e+00 2.901074e+00 3.245545e+00 3.975756e+00 7.411990e+00 4.877269e+00 4.304575e+00 4.450325e+00 4.901345e+00 3.298242e+00 2.531864e+00 5.585910e+00 6.288179e-01 6.214429e-01 5.137152e-01 5.740775e-01 6.440730e-01 1.230075e+00 8.772646e-01 7.654092e-01 7.735459e-01 8.384765e-01 6.029965e-01 4.666039e-01 8.966993e-01
<GCONST> 1.411034e+02
<STATE> 3
<MEAN> 39
 -6.300072e+00 -6.418931e-01 4.145716e+00 2.313722e+00 6.271030e+00 -6.623523e+00 1.844872e+00 9.671586e-01 -4.869741e+00 -7.713646e+00 2.723762e+00 2.477545e+00 5.914436e+01 -2.586058e-04 1.549587e-03 6.870025e-04 1.207150e-04 -5.714423e-05 3.079417e-04 3.382612e-04 4.012045e-05 1.036941e-03 4.536691e-04 -8.661473e-04 -6.659820e-04 -5.150501e-04 -5.894177e-05 -1.953656e-04 -1.476647e-05 -5.817539e-05 -4.167217e-05 1.104925e-04 8.316743e-05 -7.257758e-05 -9.883386e-05 1.284908e-06 8.549621e-05 1.260234e-04 7.885860e-05
<VARIANCE> 39
 7.489158e+01 6.163103e+01 4.911285e+01 5.660658e+01 8.159623e+01 1.283595e+02 7.828905e+01 8.165112e+01 7.384118e+01 9.152923e+01 4.755254e+01 3.611581e+01 1.517972e+02 4.105834e+00 3.834689e+00 2.901074e+00 3.245545e+00 3.975756e+00 7.411990e+00 4.877269e+00 4.304575e+00 4.450325e+00 4.901345e+00 3.298242e+00 2.531864e+00 5.585910e+00 6.288179e-01 6.214429e-01 5.137152e-01 5.740775e-01 6.440730e-01 1.230075e+00 8.772646e-01 7.654092e-01 7.735459e-01 8.384765e-01 6.029965e-01 4.666039e-01 8.966993e-01
<GCONST> 1.411034e+02
<STATE> 4
<MEAN> 39
 -6.300072e+00 -6.418931e-01 4.145716e+00 2.313722e+00 6.271030e+00 -6.623523e+00 1.844872e+00 9.671586e-01 -4.869741e+00 -7.713646e+00 2.723762e+00 2.477545e+00 5.914436e+01 -2.586058e-04 1.549587e-03 6.870025e-04 1.207150e-04 -5.714423e-05 3.079417e-04 3.382612e-04 4.012045e-05 1.036941e-03 4.536691e-04 -8.661473e-04 -6.659820e-04 -5.150501e-04 -5.894177e-05 -1.953656e-04 -1.476647e-05 -5.817539e-05 -4.167217e-05 1.104925e-04 8.316743e-05 -7.257758e-05 -9.883386e-05 1.284908e-06 8.549621e-05 1.260234e-04 7.885860e-05
<VARIANCE> 39
 7.489158e+01 6.163103e+01 4.911285e+01 5.660658e+01 8.159623e+01 1.283595e+02 7.828905e+01 8.165112e+01 7.384118e+01 9.152923e+01 4.755254e+01 3.611581e+01 1.517972e+02 4.105834e+00 3.834689e+00 2.901074e+00 3.245545e+00 3.975756e+00 7.411990e+00 4.877269e+00 4.304575e+00 4.450325e+00 4.901345e+00 3.298242e+00 2.531864e+00 5.585910e+00 6.288179e-01 6.214429e-01 5.137152e-01 5.740775e-01 6.440730e-01 1.230075e+00 8.772646e-01 7.654092e-01 7.735459e-01 8.384765e-01 6.029965e-01 4.666039e-01 8.966993e-01
<GCONST> 1.411034e+02
<TRANSP> 5
 0.000000e+00 1.000000e+00 0.000000e+00 0.000000e+00 0.000000e+00
 0.000000e+00 6.000000e-01 4.000000e-01 0.000000e+00 0.000000e+00
 0.000000e+00 0.000000e+00 6.000000e-01 4.000000e-01 0.000000e+00
 0.000000e+00 0.000000e+00 0.000000e+00 7.000000e-01 3.000000e-01
 0.000000e+00 0.000000e+00 0.000000e+00 0.000000e+00 0.000000e+00
<ENDHMM>
~h "KH"
<BEGINHMM>
<NUMSTATES> 5
<STATE> 2
<MEAN> 39
 -6.300072e+00 -6.418931e-01 4.145716e+00 2.313722e+00 6.271030e+00 -6.623523e+00 1.844872e+00 9.671586e-01 -4.869741e+00 -7.713646e+00 2.723762e+00 2.477545e+00 5.914436e+01 -2.586058e-04 1.549587e-03 6.870025e-04 1.207150e-04 -5.714423e-05 3.079417e-04 3.382612e-04 4.012045e-05 1.036941e-03 4.536691e-04 -8.661473e-04 -6.659820e-04 -5.150501e-04 -5.894177e-05 -1.953656e-04 -1.476647e-05 -5.817539e-05 -4.167217e-05 1.104925e-04 8.316743e-05 -7.257758e-05 -9.883386e-05 1.284908e-06 8.549621e-05 1.260234e-04 7.885860e-05
<VARIANCE> 39
 7.489158e+01 6.163103e+01 4.911285e+01 5.660658e+01 8.159623e+01 1.283595e+02 7.828905e+01 8.165112e+01 7.384118e+01 9.152923e+01 4.755254e+01 3.611581e+01 1.517972e+02 4.105834e+00 3.834689e+00 2.901074e+00 3.245545e+00 3.975756e+00 7.411990e+00 4.877269e+00 4.304575e+00 4.450325e+00 4.901345e+00 3.298242e+00 2.531864e+00 5.585910e+00 6.288179e-01 6.214429e-01 5.137152e-01 5.740775e-01 6.440730e-01 1.230075e+00 8.772646e-01 7.654092e-01 7.735459e-01 8.384765e-01 6.029965e-01 4.666039e-01 8.966993e-01
<GCONST> 1.411034e+02
<STATE> 3
<MEAN> 39
 -6.300072e+00 -6.418931e-01 4.145716e+00 2.313722e+00 6.271030e+00 -6.623523e+00 1.844872e+00 9.671586e-01 -4.869741e+00 -7.713646e+00 2.723762e+00 2.477545e+00 5.914436e+01 -2.586058e-04 1.549587e-03 6.870025e-04 1.207150e-04 -5.714423e-05 3.079417e-04 3.382612e-04 4.012045e-05 1.036941e-03 4.536691e-04 -8.661473e-04 -6.659820e-04 -5.150501e-04 -5.894177e-05 -1.953656e-04 -1.476647e-05 -5.817539e-05 -4.167217e-05 1.104925e-04 8.316743e-05 -7.257758e-05 -9.883386e-05 1.284908e-06 8.549621e-05 1.260234e-04 7.885860e-05
<VARIANCE> 39
 7.489158e+01 6.163103e+01 4.911285e+01 5.660658e+01 8.159623e+01 1.283595e+02 7.828905e+01 8.165112e+01 7.384118e+01 9.152923e+01 4.755254e+01 3.611581e+01 1.517972e+02 4.105834e+00 3.834689e+00 2.901074e+00 3.245545e+00 3.975756e+00 7.411990e+00 4.877269e+00 4.304575e+00 4.450325e+00 4.901345e+00 3.298242e+00 2.531864e+00 5.585910e+00 6.288179e-01 6.214429e-01 5.137152e-01 5.740775e-01 6.440730e-01 1.230075e+00 8.772646e-01 7.654092e-01 7.735459e-01 8.384765e-01 6.029965e-01 4.666039e-01 8.966993e-01
<GCONST> 1.411034e+02
<STATE> 4
<MEAN> 39
 -6.300072e+00 -6.418931e-01 4.145716e+00 2.313722e+00 6.271030e+00 -6.623523e+00 1.844872e+00 9.671586e-01 -4.869741e+00 -7.713646e+00 2.723762e+00 2.477545e+00 5.914436e+01 -2.586058e-04 1.549587e-03 6.870025e-04 1.207150e-04 -5.714423e-05 3.079417e-04 3.382612e-04 4.012045e-05 1.036941e-03 4.536691e-04 -8.661473e-04 -6.659820e-04 -5.150501e-04 -5.894177e-05 -1.953656e-04 -1.476647e-05 -5.817539e-05 -4.167217e-05 1.104925e-04 8.316743e-05 -7.257758e-05 -9.883386e-05 1.284908e-06 8.549621e-05 1.260234e-04 7.885860e-05
<VARIANCE> 39
 7.489158e+01 6.163103e+01 4.911285e+01 5.660658e+01 8.159623e+01 1.283595e+02 7.828905e+01 8.165112e+01 7.384118e+01 9.152923e+01 4.755254e+01 3.611581e+01 1.517972e+02 4.105834e+00 3.834689e+00 2.901074e+00 3.245545e+00 3.975756e+00 7.411990e+00 4.877269e+00 4.304575e+00 4.450325e+00 4.901345e+00 3.298242e+00 2.531864e+00 5.585910e+00 6.288179e-01 6.214429e-01 5.137152e-01 5.740775e-01 6.440730e-01 1.230075e+00 8.772646e-01 7.654092e-01 7.735459e-01 8.384765e-01 6.029965e-01 4.666039e-01 8.966993e-01
<GCONST> 1.411034e+02
<TRANSP> 5
 0.000000e+00 1.000000e+00 0.000000e+00 0.000000e+00 0.000000e+00
 0.000000e+00 6.000000e-01 4.000000e-01 0.000000e+00 0.000000e+00
 0.000000e+00 0.000000e+00 6.000000e-01 4.000000e-01 0.000000e+00
 0.000000e+00 0.000000e+00 0.000000e+00 7.000000e-01 3.000000e-01
 0.000000e+00 0.000000e+00 0.000000e+00 0.000000e+00 0.000000e+00
<ENDHMM>
~h "T"
<BEGINHMM>
<NUMSTATES> 5
<STATE> 2
<MEAN> 39
 -6.300072e+00 -6.418931e-01 4.145716e+00 2.313722e+00 6.271030e+00 -6.623523e+00 1.844872e+00 9.671586e-01 -4.869741e+00 -7.713646e+00 2.723762e+00 2.477545e+00 5.914436e+01 -2.586058e-04 1.549587e-03 6.870025e-04 1.207150e-04 -5.714423e-05 3.079417e-04 3.382612e-04 4.012045e-05 1.036941e-03 4.536691e-04 -8.661473e-04 -6.659820e-04 -5.150501e-04 -5.894177e-05 -1.953656e-04 -1.476647e-05 -5.817539e-05 -4.167217e-05 1.104925e-04 8.316743e-05 -7.257758e-05 -9.883386e-05 1.284908e-06 8.549621e-05 1.260234e-04 7.885860e-05
<VARIANCE> 39
 7.489158e+01 6.163103e+01 4.911285e+01 5.660658e+01 8.159623e+01 1.283595e+02 7.828905e+01 8.165112e+01 7.384118e+01 9.152923e+01 4.755254e+01 3.611581e+01 1.517972e+02 4.105834e+00 3.834689e+00 2.901074e+00 3.245545e+00 3.975756e+00 7.411990e+00 4.877269e+00 4.304575e+00 4.450325e+00 4.901345e+00 3.298242e+00 2.531864e+00 5.585910e+00 6.288179e-01 6.214429e-01 5.137152e-01 5.740775e-01 6.440730e-01 1.230075e+00 8.772646e-01 7.654092e-01 7.735459e-01 8.384765e-01 6.029965e-01 4.666039e-01 8.966993e-01
<GCONST> 1.411034e+02
<STATE> 3
<MEAN> 39
 -6.300072e+00 -6.418931e-01 4.145716e+00 2.313722e+00 6.271030e+00 -6.623523e+00 1.844872e+00 9.671586e-01 -4.869741e+00 -7.713646e+00 2.723762e+00 2.477545e+00 5.914436e+01 -2.586058e-04 1.549587e-03 6.870025e-04 1.207150e-04 -5.714423e-05 3.079417e-04 3.382612e-04 4.012045e-05 1.036941e-03 4.536691e-04 -8.661473e-04 -6.659820e-04 -5.150501e-04 -5.894177e-05 -1.953656e-04 -1.476647e-05 -5.817539e-05 -4.167217e-05 1.104925e-04 8.316743e-05 -7.257758e-05 -9.883386e-05 1.284908e-06 8.549621e-05 1.260234e-04 7.885860e-05
<VARIANCE> 39
 7.489158e+01 6.163103e+01 4.911285e+01 5.660658e+01 8.159623e+01 1.283595e+02 7.828905e+01 8.165112e+01 7.384118e+01 9.152923e+01 4.755254e+01 3.611581e+01 1.517972e+02 4.105834e+00 3.834689e+00 2.901074e+00 3.245545e+00 3.975756e+00 7.411990e+00 4.877269e+00 4.304575e+00 4.450325e+00 4.901345e+00 3.298242e+00 2.531864e+00 5.585910e+00 6.288179e-01 6.214429e-01 5.137152e-01 5.740775e-01 6.440730e-01 1.230075e+00 8.772646e-01 7.654092e-01 7.735459e-01 8.384765e-01 6.029965e-01 4.666039e-01 8.966993e-01
<GCONST> 1.411034e+02
<STATE> 4
<MEAN> 39
 -6.300072e+00 -6.418931e-01 4.145716e+00 2.313722e+00 6.271030e+00 -6.623523e+00 1.844872e+00 9.671586e-01 -4.869741e+00 -7.713646e+00 2.723762e+00 2.477545e+00 5.914436e+01 -2.586058e-04 1.549587e-03 6.870025e-04 1.207150e-04 -5.714423e-05 3.079417e-04 3.382612e-04 4.012045e-05 1.036941e-03 4.536691e-04 -8.661473e-04 -6.659820e-04 -5.150501e-04 -5.894177e-05 -1.953656e-04 -1.476647e-05 -5.817539e-05 -4.167217e-05 1.104925e-04 8.316743e-05 -7.257758e-05 -9.883386e-05 1.284908e-06 8.549621e-05 1.260234e-04 7.885860e-05
<VARIANCE> 39
 7.489158e+01 6.163103e+01 4.911285e+01 5.660658e+01 8.159623e+01 1.283595e+02 7.828905e+01 8.165112e+01 7.384118e+01 9.152923e+01 4.755254e+01 3.611581e+01 1.517972e+02 4.105834e+00 3.834689e+00 2.901074e+00 3.245545e+00 3.975756e+00 7.411990e+00 4.877269e+00 4.304575e+00 4.450325e+00 4.901345e+00 3.298242e+00 2.531864e+00 5.585910e+00 6.288179e-01 6.214429e-01 5.137152e-01 5.740775e-01 6.440730e-01 1.230075e+00 8.772646e-01 7.654092e-01 7.735459e-01 8.384765e-01 6.029965e-01 4.666039e-01 8.966993e-01
<GCONST> 1.411034e+02
<TRANSP> 5
 0.000000e+00 1.000000e+00 0.000000e+00 0.000000e+00 0.000000e+00
 0.000000e+00 6.000000e-01 4.000000e-01 0.000000e+00 0.000000e+00
 0.000000e+00 0.000000e+00 6.000000e-01 4.000000e-01 0.000000e+00
 0.000000e+00 0.000000e+00 0.000000e+00 7.000000e-01 3.000000e-01
 0.000000e+00 0.000000e+00 0.000000e+00 0.000000e+00 0.000000e+00
<ENDHMM>
~h "TX"
<BEGINHMM>
<NUMSTATES> 5
<STATE> 2
<MEAN> 39
 -6.300072e+00 -6.418931e-01 4.145716e+00 2.313722e+00 6.271030e+00 -6.623523e+00 1.844872e+00 9.671586e-01 -4.869741e+00 -7.713646e+00 2.723762e+00 2.477545e+00 5.914436e+01 -2.586058e-04 1.549587e-03 6.870025e-04 1.207150e-04 -5.714423e-05 3.079417e-04 3.382612e-04 4.012045e-05 1.036941e-03 4.536691e-04 -8.661473e-04 -6.659820e-04 -5.150501e-04 -5.894177e-05 -1.953656e-04 -1.476647e-05 -5.817539e-05 -4.167217e-05 1.104925e-04 8.316743e-05 -7.257758e-05 -9.883386e-05 1.284908e-06 8.549621e-05 1.260234e-04 7.885860e-05
<VARIANCE> 39
 7.489158e+01 6.163103e+01 4.911285e+01 5.660658e+01 8.159623e+01 1.283595e+02 7.828905e+01 8.165112e+01 7.384118e+01 9.152923e+01 4.755254e+01 3.611581e+01 1.517972e+02 4.105834e+00 3.834689e+00 2.901074e+00 3.245545e+00 3.975756e+00 7.411990e+00 4.877269e+00 4.304575e+00 4.450325e+00 4.901345e+00 3.298242e+00 2.531864e+00 5.585910e+00 6.288179e-01 6.214429e-01 5.137152e-01 5.740775e-01 6.440730e-01 1.230075e+00 8.772646e-01 7.654092e-01 7.735459e-01 8.384765e-01 6.029965e-01 4.666039e-01 8.966993e-01
<GCONST> 1.411034e+02
<STATE> 3
<MEAN> 39
 -6.300072e+00 -6.418931e-01 4.145716e+00 2.313722e+00 6.271030e+00 -6.623523e+00 1.844872e+00 9.671586e-01 -4.869741e+00 -7.713646e+00 2.723762e+00 2.477545e+00 5.914436e+01 -2.586058e-04 1.549587e-03 6.870025e-04 1.207150e-04 -5.714423e-05 3.079417e-04 3.382612e-04 4.012045e-05 1.036941e-03 4.536691e-04 -8.661473e-04 -6.659820e-04 -5.150501e-04 -5.894177e-05 -1.953656e-04 -1.476647e-05 -5.817539e-05 -4.167217e-05 1.104925e-04 8.316743e-05 -7.257758e-05 -9.883386e-05 1.284908e-06 8.549621e-05 1.260234e-04 7.885860e-05
<VARIANCE> 39
 7.489158e+01 6.163103e+01 4.911285e+01 5.660658e+01 8.159623e+01 1.283595e+02 7.828905e+01 8.165112e+01 7.384118e+01 9.152923e+01 4.755254e+01 3.611581e+01 1.517972e+02 4.105834e+00 3.834689e+00 2.901074e+00 3.245545e+00 3.975756e+00 7.411990e+00 4.877269e+00 4.304575e+00 4.450325e+00 4.901345e+00 3.298242e+00 2.531864e+00 5.585910e+00 6.288179e-01 6.214429e-01 5.137152e-01 5.740775e-01 6.440730e-01 1.230075e+00 8.772646e-01 7.654092e-01 7.735459e-01 8.384765e-01 6.029965e-01 4.666039e-01 8.966993e-01
<GCONST> 1.411034e+02
<STATE> 4
<MEAN> 39
 -6.300072e+00 -6.418931e-01 4.145716e+00 2.313722e+00 6.271030e+00 -6.623523e+00 1.844872e+00 9.671586e-01 -4.869741e+00 -7.713646e+00 2.723762e+00 2.477545e+00 5.914436e+01 -2.586058e-04 1.549587e-03 6.870025e-04 1.207150e-04 -5.714423e-05 3.079417e-04 3.382612e-04 4.012045e-05 1.036941e-03 4.536691e-04 -8.661473e-04 -6.659820e-04 -5.150501e-04 -5.894177e-05 -1.953656e-04 -1.476647e-05 -5.817539e-05 -4.167217e-05 1.104925e-04 8.316743e-05 -7.257758e-05 -9.883386e-05 1.284908e-06 8.549621e-05 1.260234e-04 7.885860e-05
<VARIANCE> 39
 7.489158e+01 6.163103e+01 4.911285e+01 5.660658e+01 8.159623e+01 1.283595e+02 7.828905e+01 8.165112e+01 7.384118e+01 9.152923e+01 4.755254e+01 3.611581e+01 1.517972e+02 4.105834e+00 3.834689e+00 2.901074e+00 3.245545e+00 3.975756e+00 7.411990e+00 4.877269e+00 4.304575e+00 4.450325e+00 4.901345e+00 3.298242e+00 2.531864e+00 5.585910e+00 6.288179e-01 6.214429e-01 5.137152e-01 5.740775e-01 6.440730e-01 1.230075e+00 8.772646e-01 7.654092e-01 7.735459e-01 8.384765e-01 6.029965e-01 4.666039e-01 8.966993e-01
<GCONST> 1.411034e+02
<TRANSP> 5
 0.000000e+00 1.000000e+00 0.000000e+00 0.000000e+00 0.000000e+00
 0.000000e+00 6.000000e-01 4.000000e-01 0.000000e+00 0.000000e+00
 0.000000e+00 0.000000e+00 6.000000e-01 4.000000e-01 0.000000e+00
 0.000000e+00 0.000000e+00 0.000000e+00 7.000000e-01 3.000000e-01
 0.000000e+00 0.000000e+00 0.000000e+00 0.000000e+00 0.000000e+00
<ENDHMM>
~h "D"
<BEGINHMM>
<NUMSTATES> 5
<STATE> 2
<MEAN> 39
 -6.300072e+00 -6.418931e-01 4.145716e+00 2.313722e+00 6.271030e+00 -6.623523e+00 1.844872e+00 9.671586e-01 -4.869741e+00 -7.713646e+00 2.723762e+00 2.477545e+00 5.914436e+01 -2.586058e-04 1.549587e-03 6.870025e-04 1.207150e-04 -5.714423e-05 3.079417e-04 3.382612e-04 4.012045e-05 1.036941e-03 4.536691e-04 -8.661473e-04 -6.659820e-04 -5.150501e-04 -5.894177e-05 -1.953656e-04 -1.476647e-05 -5.817539e-05 -4.167217e-05 1.104925e-04 8.316743e-05 -7.257758e-05 -9.883386e-05 1.284908e-06 8.549621e-05 1.260234e-04 7.885860e-05
<VARIANCE> 39
 7.489158e+01 6.163103e+01 4.911285e+01 5.660658e+01 8.159623e+01 1.283595e+02 7.828905e+01 8.165112e+01 7.384118e+01 9.152923e+01 4.755254e+01 3.611581e+01 1.517972e+02 4.105834e+00 3.834689e+00 2.901074e+00 3.245545e+00 3.975756e+00 7.411990e+00 4.877269e+00 4.304575e+00 4.450325e+00 4.901345e+00 3.298242e+00 2.531864e+00 5.585910e+00 6.288179e-01 6.214429e-01 5.137152e-01 5.740775e-01 6.440730e-01 1.230075e+00 8.772646e-01 7.654092e-01 7.735459e-01 8.384765e-01 6.029965e-01 4.666039e-01 8.966993e-01
<GCONST> 1.411034e+02
<STATE> 3
<MEAN> 39
 -6.300072e+00 -6.418931e-01 4.145716e+00 2.313722e+00 6.271030e+00 -6.623523e+00 1.844872e+00 9.671586e-01 -4.869741e+00 -7.713646e+00 2.723762e+00 2.477545e+00 5.914436e+01 -2.586058e-04 1.549587e-03 6.870025e-04 1.207150e-04 -5.714423e-05 3.079417e-04 3.382612e-04 4.012045e-05 1.036941e-03 4.536691e-04 -8.661473e-04 -6.659820e-04 -5.150501e-04 -5.894177e-05 -1.953656e-04 -1.476647e-05 -5.817539e-05 -4.167217e-05 1.104925e-04 8.316743e-05 -7.257758e-05 -9.883386e-05 1.284908e-06 8.549621e-05 1.260234e-04 7.885860e-05
<VARIANCE> 39
 7.489158e+01 6.163103e+01 4.911285e+01 5.660658e+01 8.159623e+01 1.283595e+02 7.828905e+01 8.165112e+01 7.384118e+01 9.152923e+01 4.755254e+01 3.611581e+01 1.517972e+02 4.105834e+00 3.834689e+00 2.901074e+00 3.245545e+00 3.975756e+00 7.411990e+00 4.877269e+00 4.304575e+00 4.450325e+00 4.901345e+00 3.298242e+00 2.531864e+00 5.585910e+00 6.288179e-01 6.214429e-01 5.137152e-01 5.740775e-01 6.440730e-01 1.230075e+00 8.772646e-01 7.654092e-01 7.735459e-01 8.384765e-01 6.029965e-01 4.666039e-01 8.966993e-01
<GCONST> 1.411034e+02
<STATE> 4
<MEAN> 39
 -6.300072e+00 -6.418931e-01 4.145716e+00 2.313722e+00 6.271030e+00 -6.623523e+00 1.844872e+00 9.671586e-01 -4.869741e+00 -7.713646e+00 2.723762e+00 2.477545e+00 5.914436e+01 -2.586058e-04 1.549587e-03 6.870025e-04 1.207150e-04 -5.714423e-05 3.079417e-04 3.382612e-04 4.012045e-05 1.036941e-03 4.536691e-04 -8.661473e-04 -6.659820e-04 -5.150501e-04 -5.894177e-05 -1.953656e-04 -1.476647e-05 -5.817539e-05 -4.167217e-05 1.104925e-04 8.316743e-05 -7.257758e-05 -9.883386e-05 1.284908e-06 8.549621e-05 1.260234e-04 7.885860e-05
<VARIANCE> 39
 7.489158e+01 6.163103e+01 4.911285e+01 5.660658e+01 8.159623e+01 1.283595e+02 7.828905e+01 8.165112e+01 7.384118e+01 9.152923e+01 4.755254e+01 3.611581e+01 1.517972e+02 4.105834e+00 3.834689e+00 2.901074e+00 3.245545e+00 3.975756e+00 7.411990e+00 4.877269e+00 4.304575e+00 4.450325e+00 4.901345e+00 3.298242e+00 2.531864e+00 5.585910e+00 6.288179e-01 6.214429e-01 5.137152e-01 5.740775e-01 6.440730e-01 1.230075e+00 8.772646e-01 7.654092e-01 7.735459e-01 8.384765e-01 6.029965e-01 4.666039e-01 8.966993e-01
<GCONST> 1.411034e+02
<TRANSP> 5
 0.000000e+00 1.000000e+00 0.000000e+00 0.000000e+00 0.000000e+00
 0.000000e+00 6.000000e-01 4.000000e-01 0.000000e+00 0.000000e+00
 0.000000e+00 0.000000e+00 6.000000e-01 4.000000e-01 0.000000e+00
 0.000000e+00 0.000000e+00 0.000000e+00 7.000000e-01 3.000000e-01
 0.000000e+00 0.000000e+00 0.000000e+00 0.000000e+00 0.000000e+00
<ENDHMM>
~h "DX"
<BEGINHMM>
<NUMSTATES> 5
<STATE> 2
<MEAN> 39
 -6.300072e+00 -6.418931e-01 4.145716e+00 2.313722e+00 6.271030e+00 -6.623523e+00 1.844872e+00 9.671586e-01 -4.869741e+00 -7.713646e+00 2.723762e+00 2.477545e+00 5.914436e+01 -2.586058e-04 1.549587e-03 6.870025e-04 1.207150e-04 -5.714423e-05 3.079417e-04 3.382612e-04 4.012045e-05 1.036941e-03 4.536691e-04 -8.661473e-04 -6.659820e-04 -5.150501e-04 -5.894177e-05 -1.953656e-04 -1.476647e-05 -5.817539e-05 -4.167217e-05 1.104925e-04 8.316743e-05 -7.257758e-05 -9.883386e-05 1.284908e-06 8.549621e-05 1.260234e-04 7.885860e-05
<VARIANCE> 39
 7.489158e+01 6.163103e+01 4.911285e+01 5.660658e+01 8.159623e+01 1.283595e+02 7.828905e+01 8.165112e+01 7.384118e+01 9.152923e+01 4.755254e+01 3.611581e+01 1.517972e+02 4.105834e+00 3.834689e+00 2.901074e+00 3.245545e+00 3.975756e+00 7.411990e+00 4.877269e+00 4.304575e+00 4.450325e+00 4.901345e+00 3.298242e+00 2.531864e+00 5.585910e+00 6.288179e-01 6.214429e-01 5.137152e-01 5.740775e-01 6.440730e-01 1.230075e+00 8.772646e-01 7.654092e-01 7.735459e-01 8.384765e-01 6.029965e-01 4.666039e-01 8.966993e-01
<GCONST> 1.411034e+02
<STATE> 3
<MEAN> 39
 -6.300072e+00 -6.418931e-01 4.145716e+00 2.313722e+00 6.271030e+00 -6.623523e+00 1.844872e+00 9.671586e-01 -4.869741e+00 -7.713646e+00 2.723762e+00 2.477545e+00 5.914436e+01 -2.586058e-04 1.549587e-03 6.870025e-04 1.207150e-04 -5.714423e-05 3.079417e-04 3.382612e-04 4.012045e-05 1.036941e-03 4.536691e-04 -8.661473e-04 -6.659820e-04 -5.150501e-04 -5.894177e-05 -1.953656e-04 -1.476647e-05 -5.817539e-05 -4.167217e-05 1.104925e-04 8.316743e-05 -7.257758e-05 -9.883386e-05 1.284908e-06 8.549621e-05 1.260234e-04 7.885860e-05
<VARIANCE> 39
 7.489158e+01 6.163103e+01 4.911285e+01 5.660658e+01 8.159623e+01 1.283595e+02 7.828905e+01 8.165112e+01 7.384118e+01 9.152923e+01 4.755254e+01 3.611581e+01 1.517972e+02 4.105834e+00 3.834689e+00 2.901074e+00 3.245545e+00 3.975756e+00 7.411990e+00 4.877269e+00 4.304575e+00 4.450325e+00 4.901345e+00 3.298242e+00 2.531864e+00 5.585910e+00 6.288179e-01 6.214429e-01 5.137152e-01 5.740775e-01 6.440730e-01 1.230075e+00 8.772646e-01 7.654092e-01 7.735459e-01 8.384765e-01 6.029965e-01 4.666039e-01 8.966993e-01
<GCONST> 1.411034e+02
<STATE> 4
<MEAN> 39
 -6.300072e+00 -6.418931e-01 4.145716e+00 2.313722e+00 6.271030e+00 -6.623523e+00 1.844872e+00 9.671586e-01 -4.869741e+00 -7.713646e+00 2.723762e+00 2.477545e+00 5.914436e+01 -2.586058e-04 1.549587e-03 6.870025e-04 1.207150e-04 -5.714423e-05 3.079417e-04 3.382612e-04 4.012045e-05 1.036941e-03 4.536691e-04 -8.661473e-04 -6.659820e-04 -5.150501e-04 -5.894177e-05 -1.953656e-04 -1.476647e-05 -5.817539e-05 -4.167217e-05 1.104925e-04 8.316743e-05 -7.257758e-05 -9.883386e-05 1.284908e-06 8.549621e-05 1.260234e-04 7.885860e-05
<VARIANCE> 39
 7.489158e+01 6.163103e+01 4.911285e+01 5.660658e+01 8.159623e+01 1.283595e+02 7.828905e+01 8.165112e+01 7.384118e+01 9.152923e+01 4.755254e+01 3.611581e+01 1.517972e+02 4.105834e+00 3.834689e+00 2.901074e+00 3.245545e+00 3.975756e+00 7.411990e+00 4.877269e+00 4.304575e+00 4.450325e+00 4.901345e+00 3.298242e+00 2.531864e+00 5.585910e+00 6.288179e-01 6.214429e-01 5.137152e-01 5.740775e-01 6.440730e-01 1.230075e+00 8.772646e-01 7.654092e-01 7.735459e-01 8.384765e-01 6.029965e-01 4.666039e-01 8.966993e-01
<GCONST> 1.411034e+02
<TRANSP> 5
 0.000000e+00 1.000000e+00 0.000000e+00 0.000000e+00 0.000000e+00
 0.000000e+00 6.000000e-01 4.000000e-01 0.000000e+00 0.000000e+00
 0.000000e+00 0.000000e+00 6.000000e-01 4.000000e-01 0.000000e+00
 0.000000e+00 0.000000e+00 0.000000e+00 7.000000e-01 3.000000e-01
 0.000000e+00 0.000000e+00 0.000000e+00 0.000000e+00 0.000000e+00
<ENDHMM>
~h "GH"
<BEGINHMM>
<NUMSTATES> 5
<STATE> 2
<MEAN> 39
 -6.300072e+00 -6.418931e-01 4.145716e+00 2.313722e+00 6.271030e+00 -6.623523e+00 1.844872e+00 9.671586e-01 -4.869741e+00 -7.713646e+00 2.723762e+00 2.477545e+00 5.914436e+01 -2.586058e-04 1.549587e-03 6.870025e-04 1.207150e-04 -5.714423e-05 3.079417e-04 3.382612e-04 4.012045e-05 1.036941e-03 4.536691e-04 -8.661473e-04 -6.659820e-04 -5.150501e-04 -5.894177e-05 -1.953656e-04 -1.476647e-05 -5.817539e-05 -4.167217e-05 1.104925e-04 8.316743e-05 -7.257758e-05 -9.883386e-05 1.284908e-06 8.549621e-05 1.260234e-04 7.885860e-05
<VARIANCE> 39
 7.489158e+01 6.163103e+01 4.911285e+01 5.660658e+01 8.159623e+01 1.283595e+02 7.828905e+01 8.165112e+01 7.384118e+01 9.152923e+01 4.755254e+01 3.611581e+01 1.517972e+02 4.105834e+00 3.834689e+00 2.901074e+00 3.245545e+00 3.975756e+00 7.411990e+00 4.877269e+00 4.304575e+00 4.450325e+00 4.901345e+00 3.298242e+00 2.531864e+00 5.585910e+00 6.288179e-01 6.214429e-01 5.137152e-01 5.740775e-01 6.440730e-01 1.230075e+00 8.772646e-01 7.654092e-01 7.735459e-01 8.384765e-01 6.029965e-01 4.666039e-01 8.966993e-01
<GCONST> 1.411034e+02
<STATE> 3
<MEAN> 39
 -6.300072e+00 -6.418931e-01 4.145716e+00 2.313722e+00 6.271030e+00 -6.623523e+00 1.844872e+00 9.671586e-01 -4.869741e+00 -7.713646e+00 2.723762e+00 2.477545e+00 5.914436e+01 -2.586058e-04 1.549587e-03 6.870025e-04 1.207150e-04 -5.714423e-05 3.079417e-04 3.382612e-04 4.012045e-05 1.036941e-03 4.536691e-04 -8.661473e-04 -6.659820e-04 -5.150501e-04 -5.894177e-05 -1.953656e-04 -1.476647e-05 -5.817539e-05 -4.167217e-05 1.104925e-04 8.316743e-05 -7.257758e-05 -9.883386e-05 1.284908e-06 8.549621e-05 1.260234e-04 7.885860e-05
<VARIANCE> 39
 7.489158e+01 6.163103e+01 4.911285e+01 5.660658e+01 8.159623e+01 1.283595e+02 7.828905e+01 8.165112e+01 7.384118e+01 9.152923e+01 4.755254e+01 3.611581e+01 1.517972e+02 4.105834e+00 3.834689e+00 2.901074e+00 3.245545e+00 3.975756e+00 7.411990e+00 4.877269e+00 4.304575e+00 4.450325e+00 4.901345e+00 3.298242e+00 2.531864e+00 5.585910e+00 6.288179e-01 6.214429e-01 5.137152e-01 5.740775e-01 6.440730e-01 1.230075e+00 8.772646e-01 7.654092e-01 7.735459e-01 8.384765e-01 6.029965e-01 4.666039e-01 8.966993e-01
<GCONST> 1.411034e+02
<STATE> 4
<MEAN> 39
 -6.300072e+00 -6.418931e-01 4.145716e+00 2.313722e+00 6.271030e+00 -6.623523e+00 1.844872e+00 9.671586e-01 -4.869741e+00 -7.713646e+00 2.723762e+00 2.477545e+00 5.914436e+01 -2.586058e-04 1.549587e-03 6.870025e-04 1.207150e-04 -5.714423e-05 3.079417e-04 3.382612e-04 4.012045e-05 1.036941e-03 4.536691e-04 -8.661473e-04 -6.659820e-04 -5.150501e-04 -5.894177e-05 -1.953656e-04 -1.476647e-05 -5.817539e-05 -4.167217e-05 1.104925e-04 8.316743e-05 -7.257758e-05 -9.883386e-05 1.284908e-06 8.549621e-05 1.260234e-04 7.885860e-05
<VARIANCE> 39
 7.489158e+01 6.163103e+01 4.911285e+01 5.660658e+01 8.159623e+01 1.283595e+02 7.828905e+01 8.165112e+01 7.384118e+01 9.152923e+01 4.755254e+01 3.611581e+01 1.517972e+02 4.105834e+00 3.834689e+00 2.901074e+00 3.245545e+00 3.975756e+00 7.411990e+00 4.877269e+00 4.304575e+00 4.450325e+00 4.901345e+00 3.298242e+00 2.531864e+00 5.585910e+00 6.288179e-01 6.214429e-01 5.137152e-01 5.740775e-01 6.440730e-01 1.230075e+00 8.772646e-01 7.654092e-01 7.735459e-01 8.384765e-01 6.029965e-01 4.666039e-01 8.966993e-01
<GCONST> 1.411034e+02
<TRANSP> 5
 0.000000e+00 1.000000e+00 0.000000e+00 0.000000e+00 0.000000e+00
 0.000000e+00 6.000000e-01 4.000000e-01 0.000000e+00 0.000000e+00
 0.000000e+00 0.000000e+00 6.000000e-01 4.000000e-01 0.000000e+00
 0.000000e+00 0.000000e+00 0.000000e+00 7.000000e-01 3.000000e-01
 0.000000e+00 0.000000e+00 0.000000e+00 0.000000e+00 0.000000e+00
<ENDHMM>
~h "THX"
<BEGINHMM>
<NUMSTATES> 5
<STATE> 2
<MEAN> 39
 -6.300072e+00 -6.418931e-01 4.145716e+00 2.313722e+00 6.271030e+00 -6.623523e+00 1.844872e+00 9.671586e-01 -4.869741e+00 -7.713646e+00 2.723762e+00 2.477545e+00 5.914436e+01 -2.586058e-04 1.549587e-03 6.870025e-04 1.207150e-04 -5.714423e-05 3.079417e-04 3.382612e-04 4.012045e-05 1.036941e-03 4.536691e-04 -8.661473e-04 -6.659820e-04 -5.150501e-04 -5.894177e-05 -1.953656e-04 -1.476647e-05 -5.817539e-05 -4.167217e-05 1.104925e-04 8.316743e-05 -7.257758e-05 -9.883386e-05 1.284908e-06 8.549621e-05 1.260234e-04 7.885860e-05
<VARIANCE> 39
 7.489158e+01 6.163103e+01 4.911285e+01 5.660658e+01 8.159623e+01 1.283595e+02 7.828905e+01 8.165112e+01 7.384118e+01 9.152923e+01 4.755254e+01 3.611581e+01 1.517972e+02 4.105834e+00 3.834689e+00 2.901074e+00 3.245545e+00 3.975756e+00 7.411990e+00 4.877269e+00 4.304575e+00 4.450325e+00 4.901345e+00 3.298242e+00 2.531864e+00 5.585910e+00 6.288179e-01 6.214429e-01 5.137152e-01 5.740775e-01 6.440730e-01 1.230075e+00 8.772646e-01 7.654092e-01 7.735459e-01 8.384765e-01 6.029965e-01 4.666039e-01 8.966993e-01
<GCONST> 1.411034e+02
<STATE> 3
<MEAN> 39
 -6.300072e+00 -6.418931e-01 4.145716e+00 2.313722e+00 6.271030e+00 -6.623523e+00 1.844872e+00 9.671586e-01 -4.869741e+00 -7.713646e+00 2.723762e+00 2.477545e+00 5.914436e+01 -2.586058e-04 1.549587e-03 6.870025e-04 1.207150e-04 -5.714423e-05 3.079417e-04 3.382612e-04 4.012045e-05 1.036941e-03 4.536691e-04 -8.661473e-04 -6.659820e-04 -5.150501e-04 -5.894177e-05 -1.953656e-04 -1.476647e-05 -5.817539e-05 -4.167217e-05 1.104925e-04 8.316743e-05 -7.257758e-05 -9.883386e-05 1.284908e-06 8.549621e-05 1.260234e-04 7.885860e-05
<VARIANCE> 39
 7.489158e+01 6.163103e+01 4.911285e+01 5.660658e+01 8.159623e+01 1.283595e+02 7.828905e+01 8.165112e+01 7.384118e+01 9.152923e+01 4.755254e+01 3.611581e+01 1.517972e+02 4.105834e+00 3.834689e+00 2.901074e+00 3.245545e+00 3.975756e+00 7.411990e+00 4.877269e+00 4.304575e+00 4.450325e+00 4.901345e+00 3.298242e+00 2.531864e+00 5.585910e+00 6.288179e-01 6.214429e-01 5.137152e-01 5.740775e-01 6.440730e-01 1.230075e+00 8.772646e-01 7.654092e-01 7.735459e-01 8.384765e-01 6.029965e-01 4.666039e-01 8.966993e-01
<GCONST> 1.411034e+02
<STATE> 4
<MEAN> 39
 -6.300072e+00 -6.418931e-01 4.145716e+00 2.313722e+00 6.271030e+00 -6.623523e+00 1.844872e+00 9.671586e-01 -4.869741e+00 -7.713646e+00 2.723762e+00 2.477545e+00 5.914436e+01 -2.586058e-04 1.549587e-03 6.870025e-04 1.207150e-04 -5.714423e-05 3.079417e-04 3.382612e-04 4.012045e-05 1.036941e-03 4.536691e-04 -8.661473e-04 -6.659820e-04 -5.150501e-04 -5.894177e-05 -1.953656e-04 -1.476647e-05 -5.817539e-05 -4.167217e-05 1.104925e-04 8.316743e-05 -7.257758e-05 -9.883386e-05 1.284908e-06 8.549621e-05 1.260234e-04 7.885860e-05
<VARIANCE> 39
 7.489158e+01 6.163103e+01 4.911285e+01 5.660658e+01 8.159623e+01 1.283595e+02 7.828905e+01 8.165112e+01 7.384118e+01 9.152923e+01 4.755254e+01 3.611581e+01 1.517972e+02 4.105834e+00 3.834689e+00 2.901074e+00 3.245545e+00 3.975756e+00 7.411990e+00 4.877269e+00 4.304575e+00 4.450325e+00 4.901345e+00 3.298242e+00 2.531864e+00 5.585910e+00 6.288179e-01 6.214429e-01 5.137152e-01 5.740775e-01 6.440730e-01 1.230075e+00 8.772646e-01 7.654092e-01 7.735459e-01 8.384765e-01 6.029965e-01 4.666039e-01 8.966993e-01
<GCONST> 1.411034e+02
<TRANSP> 5
 0.000000e+00 1.000000e+00 0.000000e+00 0.000000e+00 0.000000e+00
 0.000000e+00 6.000000e-01 4.000000e-01 0.000000e+00 0.000000e+00
 0.000000e+00 0.000000e+00 6.000000e-01 4.000000e-01 0.000000e+00
 0.000000e+00 0.000000e+00 0.000000e+00 7.000000e-01 3.000000e-01
 0.000000e+00 0.000000e+00 0.000000e+00 0.000000e+00 0.000000e+00
<ENDHMM>
~h "J"
<BEGINHMM>
<NUMSTATES> 5
<STATE> 2
<MEAN> 39
 -6.300072e+00 -6.418931e-01 4.145716e+00 2.313722e+00 6.271030e+00 -6.623523e+00 1.844872e+00 9.671586e-01 -4.869741e+00 -7.713646e+00 2.723762e+00 2.477545e+00 5.914436e+01 -2.586058e-04 1.549587e-03 6.870025e-04 1.207150e-04 -5.714423e-05 3.079417e-04 3.382612e-04 4.012045e-05 1.036941e-03 4.536691e-04 -8.661473e-04 -6.659820e-04 -5.150501e-04 -5.894177e-05 -1.953656e-04 -1.476647e-05 -5.817539e-05 -4.167217e-05 1.104925e-04 8.316743e-05 -7.257758e-05 -9.883386e-05 1.284908e-06 8.549621e-05 1.260234e-04 7.885860e-05
<VARIANCE> 39
 7.489158e+01 6.163103e+01 4.911285e+01 5.660658e+01 8.159623e+01 1.283595e+02 7.828905e+01 8.165112e+01 7.384118e+01 9.152923e+01 4.755254e+01 3.611581e+01 1.517972e+02 4.105834e+00 3.834689e+00 2.901074e+00 3.245545e+00 3.975756e+00 7.411990e+00 4.877269e+00 4.304575e+00 4.450325e+00 4.901345e+00 3.298242e+00 2.531864e+00 5.585910e+00 6.288179e-01 6.214429e-01 5.137152e-01 5.740775e-01 6.440730e-01 1.230075e+00 8.772646e-01 7.654092e-01 7.735459e-01 8.384765e-01 6.029965e-01 4.666039e-01 8.966993e-01
<GCONST> 1.411034e+02
<STATE> 3
<MEAN> 39
