~o
<STREAMINFO> 1 39
<VECSIZE> 39<NULLD><MFCC_D_A_0><DIAGC>
~h "A"
<BEGINHMM>
<NUMSTATES> 5
<STATE> 2
<MEAN> 39
 -9.752698e-01 3.736480e-01 5.483109e+00 -3.460085e+00 -1.836160e+00 -1.570084e+01 4.695436e+00 8.336205e+00 -5.476462e-01 -1.454038e+01 1.151810e+00 3.828457e+00 6.562149e+01 2.376861e+00 6.826784e-02 -3.996898e-01 2.418175e-03 -2.056083e+00 -4.843388e+00 -7.921762e-01 2.514402e+00 -4.245537e-02 -1.709448e+00 7.622131e-01 -4.848479e-01 1.820371e+00 -5.177523e-01 -3.856131e-01 -2.738370e-01 2.627698e-01 1.510148e-01 5.434529e-01 4.611463e-02 -3.474214e-01 -2.744233e-02 4.643337e-01 1.554857e-01 1.189612e-03 -2.579749e-01
<VARIANCE> 39
 2.970882e+01 2.515881e+01 2.888772e+01 3.305198e+01 6.551785e+01 1.144181e+02 7.171742e+01 5.610902e+01 7.058379e+01 6.693996e+01 3.361110e+01 2.419460e+01 5.006915e+01 3.724262e+00 5.550253e+00 3.159108e+00 4.065769e+00 4.299650e+00 8.178336e+00 7.354067e+00 5.316556e+00 4.771308e+00 5.331846e+00 3.253755e+00 3.636492e+00 3.345327e+00 7.378289e-01 7.598113e-01 5.568756e-01 5.569425e-01 6.504071e-01 1.740046e+00 9.526620e-01 7.294359e-01 8.992565e-01 9.588466e-01 6.427103e-01 6.117969e-01 7.508418e-01
<GCONST> 1.378171e+02
<STATE> 3
<MEAN> 39
 2.190193e+00 -1.655438e+00 3.861650e+00 -2.794483e+00 -6.258505e+00 -2.513357e+01 4.151401e+00 1.257751e+01 -1.431312e+00 -1.668055e+01 3.701980e+00 2.804747e+00 6.975686e+01 4.742354e-01 -3.714154e-01 -5.488878e-01 1.707626e-01 -8.058633e-01 -1.441557e+00 2.141282e-01 7.319916e-01 -1.238232e-01 -1.381117e-01 4.292353e-01 -2.546228e-01 4.473654e-01 -5.695512e-01 2.606699e-01 1.089568e-01 1.055978e-01 6.961033e-01 1.707289e+00 1.972662e-01 -8.220511e-01 1.685771e-02 5.632752e-01 -3.623520e-01 4.901209e-02 -7.412523e-01
<VARIANCE> 39
 9.712930e+00 1.799885e+01 2.860751e+01 2.706825e+01 6.460944e+01 7.939909e+01 7.366922e+01 5.441882e+01 5.756141e+01 4.782929e+01 3.073179e+01 2.129350e+01 1.421786e+01 9.849334e-01 1.806110e+00 1.865130e+00 2.033817e+00 2.942301e+00 6.162471e+00 4.326278e+00 3.225117e+00 3.646307e+00 3.417186e+00 2.847007e+00 1.835426e+00 1.741051e+00 3.317182e-01 4.305909e-01 3.979311e-01 4.495155e-01 4.346520e-01 1.012335e+00 8.796946e-01 6.283889e-01 6.718864e-01 7.868106e-01 5.170351e-01 4.713092e-01 2.518794e-01
<GCONST> 1.210550e+02
<STATE> 4
<MEAN> 39
 1.712994e+00 -1.673644e-01 3.552619e+00 -1.693187e+00 -7.513118e+00 -2.392162e+01 6.141158e+00 1.122219e+01 -1.777154e+00 -1.497144e+01 3.023709e+00 2.600485e+00 6.761642e+01 -1.750353e-01 7.852911e-01 -2.531317e-01 3.120335e-01 1.113403e+00 2.357589e+00 -2.741227e-01 -9.101009e-01 -1.889728e-01 6.386461e-01 -5.863354e-01 -3.074178e-02 -1.423308e+00 -2.030526e-01 1.355814e-01 6.704073e-02 9.893472e-02 4.561534e-01 8.382727e-01 -1.672875e-01 -2.926560e-01 7.547235e-03 3.077461e-01 -1.346703e-01 1.617124e-02 -4.456099e-01
<VARIANCE> 39
 1.185273e+01 2.126947e+01 3.219427e+01 3.050632e+01 7.231564e+01 8.427824e+01 7.104926e+01 4.859984e+01 5.080521e+01 4.795686e+01 3.555239e+01 2.268648e+01 3.427010e+01 1.303368e+00 1.860719e+00 1.957558e+00 2.297382e+00 3.675862e+00 6.080128e+00 3.798565e+00 3.657967e+00 3.740326e+00 3.689659e+00 2.960312e+00 2.278828e+00 3.067525e+00 2.566720e-01 3.768654e-01 3.660072e-01 3.701128e-01 5.289429e-01 1.138180e+00 7.479196e-01 6.887939e-01 6.693767e-01 6.607595e-01 5.383118e-01 4.265046e-01 4.834808e-01
<GCONST> 1.242470e+02
<TRANSP> 5
 0.000000e+00 1.000000e+00 0.000000e+00 0.000000e+00 0.000000e+00
 0.000000e+00 4.486641e-01 5.513359e-01 0.000000e+00 0.000000e+00
 0.000000e+00 0.000000e+00 5.177306e-01 4.822694e-01 0.000000e+00
 0.000000e+00 0.000000e+00 0.000000e+00 6.753789e-01 3.246211e-01
 0.000000e+00 0.000000e+00 0.000000e+00 0.000000e+00 0.000000e+00
<ENDHMM>
~h "B"
<BEGINHMM>
<NUMSTATES> 5
<STATE> 2
<MEAN> 39
 1.371298e+00 6.168797e+00 3.597481e+00 7.558763e+00 4.203044e+00 -4.290644e+00 2.038776e+00 8.047849e+00 -3.596509e+00 -7.912531e+00 6.522146e-01 1.391930e+00 5.299449e+01 2.788909e-01 1.814814e+00 3.447752e-01 1.559489e+00 -6.663250e-01 1.642020e+00 4.515842e-01 6.981104e-01 1.136057e+00 1.991388e+00 -3.102106e-01 -4.860364e-01 -2.371374e+00 -3.972928e-01 -3.295794e-01 1.256003e-01 -3.893741e-01 1.144853e-01 -5.256068e-01 -3.138718e-02 -4.268617e-01 -9.479734e-02 -3.813885e-01 9.158247e-02 9.546816e-02 7.110280e-01
<VARIANCE> 39
 4.327299e+01 2.644595e+01 2.106031e+01 3.806380e+01 4.393239e+01 7.479660e+01 3.358868e+01 3.941042e+01 4.659858e+01 5.147720e+01 2.553844e+01 2.314940e+01 4.734303e+01 1.956684e+00 1.580931e+00 1.409283e+00 2.455781e+00 3.047533e+00 5.150071e+00 2.912377e+00 2.928217e+00 2.921591e+00 4.407869e+00 2.272942e+00 1.880178e+00 4.080041e+00 3.355633e-01 2.782519e-01 2.492339e-01 5.019471e-01 4.039298e-01 7.521354e-01 4.816548e-01 5.126159e-01 4.278634e-01 7.309982e-01 4.168186e-01 3.288102e-01 5.056106e-01
<GCONST> 1.205244e+02
<STATE> 3
<MEAN> 39
 1.734405e+00 1.054423e+01 5.430948e+00 1.011477e+01 2.997460e+00 -3.751283e+00 3.097444e+00 8.566189e+00 -1.422733e+00 -5.823941e+00 -4.482607e-01 -1.292234e-01 5.061206e+01 -6.742131e-01 2.424305e-01 3.637048e-01 -3.702219e-01 -3.015555e-01 -3.528094e-01 4.749497e-01 -5.367855e-01 4.268293e-01 -4.950432e-02 -3.385422e-01 4.544217e-02 3.472205e-01 -2.418314e-01 -9.523211e-01 -1.079437e-01 -7.386618e-01 2.244344e-01 -9.839300e-01 -2.163428e-01 -3.822774e-01 -4.110877e-01 -9.405202e-01 1.285521e-01 2.581830e-01 1.326134e+00
<VARIANCE> 39
 1.625224e+01 2.292108e+01 1.719790e+01 2.644369e+01 3.204534e+01 4.573734e+01 2.450354e+01 3.602378e+01 3.145029e+01 2.863333e+01 1.975632e+01 1.959157e+01 2.017221e+01 2.502275e+00 2.193351e+00 1.262267e+00 2.772587e+00 2.672568e+00 6.093660e+00 2.378001e+00 3.224156e+00 2.658003e+00 3.910269e+00 1.880300e+00 1.702434e+00 3.617889e+00 3.376407e-01 3.572059e-01 2.782597e-01 4.306558e-01 6.870543e-01 1.115049e+00 6.164080e-01 7.428082e-01 6.199917e-01 7.143821e-01 5.357139e-01 3.794511e-01 6.017358e-01
<GCONST> 1.179294e+02
<STATE> 4
<MEAN> 39
 -8.560965e-01 7.164526e+00 5.644524e+00 5.851965e+00 2.725839e+00 -7.047825e+00 4.049671e+00 5.455908e+00 -1.560012e+00 -8.809780e+00 -1.393084e+00 1.133485e+00 5.612023e+01 -4.511602e-01 -2.433429e+00 -3.495449e-01 -1.524696e+00 2.978004e-01 -3.218420e+00 -6.275965e-01 -9.428658e-01 -1.104071e+00 -2.391978e+00 5.676315e-01 7.321829e-01 3.750069e+00 2.342464e-01 -5.648295e-01 -1.488807e-01 5.816273e-02 2.114203e-01 -7.515572e-01 -4.921318e-01 1.566282e-01 -3.698659e-01 -3.805211e-01 4.588647e-01 5.457703e-02 6.561767e-01
<VARIANCE> 39
 2.081917e+01 2.897194e+01 1.900750e+01 2.837823e+01 4.849659e+01 1.136063e+02 2.626361e+01 4.698414e+01 4.213159e+01 4.551713e+01 1.827786e+01 1.758446e+01 4.783474e+01 1.973830e+00 3.521546e+00 2.542166e+00 3.182384e+00 8.733536e+00 1.270593e+01 4.582567e+00 7.260352e+00 6.277170e+00 5.046255e+00 4.325687e+00 2.608560e+00 4.017976e+00 3.617893e-01 5.516456e-01 3.744901e-01 5.690341e-01 7.874553e-01 1.878128e+00 9.064096e-01 9.512525e-01 7.197948e-01 1.036200e+00 6.219037e-01 4.393218e-01 8.305157e-01
<GCONST> 1.321237e+02
<TRANSP> 5
 0.000000e+00 1.000000e+00 0.000000e+00 0.000000e+00 0.000000e+00
 0.000000e+00 5.804383e-01 4.195618e-01 0.000000e+00 0.000000e+00
 0.000000e+00 0.000000e+00 5.600849e-01 4.399151e-01 0.000000e+00
 0.000000e+00 0.000000e+00 0.000000e+00 5.277360e-01 4.722640e-01
 0.000000e+00 0.000000e+00 0.000000e+00 0.000000e+00 0.000000e+00
<ENDHMM>
~h "C"
<BEGINHMM>
<NUMSTATES> 5
<STATE> 2
<MEAN> 39
 -1.478522e+01 1.284604e-01 9.368298e+00 -1.052877e+00 4.832952e+00 -1.459821e+00 5.126594e+00 -3.002099e+00 -2.852019e+00 -2.868442e+00 8.720482e-01 2.575081e+00 5.528081e+01 -2.332625e+00 -2.199674e+00 5.764973e-01 -3.441718e-01 -8.828106e-01 2.341810e-01 -6.872815e-02 3.674444e-01 9.747190e-01 3.967237e-01 3.375731e-01 2.413747e-01 4.050742e-01 -4.623537e-02 -7.490931e-01 1.024008e-01 1.931825e-01 2.621970e-02 -3.062441e-01 -1.815475e-01 2.975473e-04 -1.384853e-01 -4.821549e-01 3.050805e-01 3.526806e-02 9.295849e-01
<VARIANCE> 39
 3.897194e+01 4.969968e+01 4.984324e+01 4.614859e+01 4.518089e+01 4.416441e+01 4.155981e+01 5.645641e+01 4.610645e+01 4.058414e+01 2.553126e+01 2.969210e+01 6.420548e+01 5.369604e+00 6.828330e+00 6.113570e+00 4.179782e+00 4.630247e+00 4.059407e+00 5.171411e+00 4.728892e+00 4.088799e+00 5.091894e+00 2.778393e+00 2.531855e+00 9.088878e+00 9.681708e-01 9.847404e-01 1.266807e+00 8.059095e-01 8.697732e-01 6.942220e-01 9.904090e-01 1.034832e+00 7.399284e-01 7.542369e-01 5.097841e-01 4.648730e-01 1.245444e+00
<GCONST> 1.385296e+02
<STATE> 3
<MEAN> 39
 -2.523319e+01 -1.473466e+01 1.395009e+01 -8.112571e-02 2.102117e+00 -3.150840e+00 3.547105e+00 -2.554409e+00 4.042008e-01 -5.277366e+00 4.463916e+00 3.605608e+00 6.589610e+01 -7.432924e-01 -1.779473e+00 8.261318e-01 6.432843e-01 9.278578e-01 4.344331e-02 -8.039343e-01 -1.409702e+00 -1.718053e-01 -4.903547e-01 8.360631e-01 1.659122e-01 2.464819e+00 1.933154e+00 1.478100e+00 -5.746721e-01 2.264492e-01 7.732770e-01 -9.619896e-02 -2.668692e-01 -3.634609e-01 -9.116622e-01 -1.321269e-01 -2.034660e-01 -1.738476e-01 -6.117993e-01
<VARIANCE> 39
 2.508861e+01 2.908642e+01 2.543509e+01 2.874032e+01 2.419585e+01 2.074675e+01 3.183306e+01 3.956639e+01 2.852056e+01 3.311050e+01 2.222742e+01 2.370041e+01 2.667673e+01 1.110089e+01 7.557913e+00 3.893211e+00 3.045891e+00 4.013546e+00 3.366793e+00 3.266814e+00 3.584086e+00 4.374755e+00 2.936616e+00 2.569206e+00 2.067124e+00 4.550861e+00 1.341535e+00 8.115675e-01 8.747193e-01 5.401144e-01 6.723313e-01 7.205529e-01 8.752272e-01 8.796051e-01 8.987354e-01 6.401839e-01 4.977641e-01 4.298288e-01 6.496421e-01
<GCONST> 1.281500e+02
<STATE> 4
<MEAN> 39
 -1.312501e+01 -9.924525e+00 1.171474e+01 2.791208e+00 8.682807e+00 -3.897633e+00 -6.064022e-02 -7.898983e+00 -6.812730e+00 -8.734696e+00 4.710430e+00 3.653601e+00 6.785213e+01 5.385816e+00 2.073406e+00 -1.888655e+00 5.675359e-01 1.349016e+00 -2.086985e+00 -7.880659e-01 -7.396965e-02 -3.207749e+00 -1.685831e+00 4.315024e-01 -4.018913e-01 4.661877e-01 1.785090e-01 2.008233e-01 -5.798030e-01 -2.632511e-01 -5.678861e-01 -6.834278e-01 2.845193e-01 8.671492e-01 1.538009e-01 -5.094659e-02 1.316618e-02 -8.847532e-02 -3.318726e-01
<VARIANCE> 39
 1.212058e+02 3.015532e+01 3.420182e+01 3.510907e+01 3.627374e+01 5.201774e+01 3.550846e+01 3.348243e+01 5.945741e+01 5.119669e+01 2.634837e+01 2.572535e+01 1.610099e+01 8.058058e+00 4.146575e+00 4.710488e+00 3.436035e+00 4.451514e+00 6.888247e+00 5.464148e+00 5.352311e+00 4.857189e+00 4.570586e+00 3.651285e+00 3.189323e+00 1.718388e+00 2.993897e+00 9.911337e-01 7.635098e-01 4.117116e-01 6.685181e-01 9.817360e-01 7.952692e-01 6.775290e-01 1.557117e+00 6.426229e-01 5.110964e-01 4.115847e-01 3.784651e-01
<GCONST> 1.344632e+02
<TRANSP> 5
 0.000000e+00 1.000000e+00 0.000000e+00 0.000000e+00 0.000000e+00
 0.000000e+00 7.729558e-01 2.270442e-01 0.000000e+00 0.000000e+00
 0.000000e+00 0.000000e+00 6.172295e-01 3.827706e-01 0.000000e+00
 0.000000e+00 0.000000e+00 0.000000e+00 5.993626e-01 4.006374e-01
 0.000000e+00 0.000000e+00 0.000000e+00 0.000000e+00 0.000000e+00
<ENDHMM>
~h "D"
<BEGINHMM>
<NUMSTATES> 5
<STATE> 2
<MEAN> 39
 -7.355267e-01 9.081030e+00 7.154969e+00 7.415140e+00 4.537794e+00 -5.955018e-01 3.138824e+00 4.267865e+00 -4.400263e+00 -6.363836e+00 3.093948e-03 1.491784e+00 5.144551e+01 -9.310427e-02 1.278834e+00 -5.622104e-02 9.590248e-01 -2.394094e-01 1.145734e+00 1.198258e-01 2.007025e-01 6.864771e-01 1.381835e+00 -2.703191e-01 -1.341954e-01 -1.717136e+00 -5.567431e-01 -8.330854e-01 1.629438e-02 -5.406124e-01 2.597203e-01 -4.549058e-01 -3.877733e-02 -7.514532e-01 -2.898084e-01 -5.218917e-01 9.908070e-02 9.515869e-02 1.229612e+00
<VARIANCE> 39
 3.275367e+01 2.612835e+01 2.110613e+01 3.163726e+01 5.391485e+01 4.870090e+01 4.600317e+01 5.365931e+01 3.821608e+01 4.232041e+01 2.940186e+01 2.104592e+01 3.775332e+01 3.222654e+00 2.587354e+00 1.812084e+00 2.584287e+00 2.906734e+00 3.096049e+00 3.284081e+00 4.415780e+00 2.542329e+00 3.713922e+00 2.264599e+00 1.584487e+00 5.026661e+00 5.745313e-01 5.697216e-01 3.612799e-01 5.089565e-01 5.940890e-01 5.008894e-01 6.496835e-01 1.008271e+00 4.879656e-01 6.432317e-01 5.095202e-01 3.908064e-01 1.043701e+00
<GCONST> 1.245635e+02
<STATE> 3
<MEAN> 39
 -2.514244e+00 1.049766e+01 7.584050e+00 8.022795e+00 5.335964e+00 1.022403e+00 3.675237e+00 2.054810e+00 -3.259082e+00 -4.608382e+00 -8.455557e-01 1.068407e+00 5.072898e+01 -2.172858e+00 -2.076126e+00 2.797789e-01 -1.096036e+00 7.480678e-01 2.622016e-02 3.539314e-01 -2.714964e+00 -5.035440e-01 -3.566340e-01 -1.317876e-01 2.812861e-01 3.079991e+00 -9.588301e-02 -1.248598e+00 5.607818e-02 -5.541555e-01 5.068083e-01 -9.239879e-01 -4.854117e-01 -5.243833e-01 -6.620940e-01 -1.017201e+00 3.336475e-01 1.746798e-01 1.675716e+00
<VARIANCE> 39
 3.075633e+01 2.826219e+01 1.851088e+01 2.583527e+01 4.165738e+01 3.392945e+01 3.671586e+01 4.843166e+01 3.079596e+01 3.132369e+01 2.597896e+01 1.902070e+01 3.720193e+01 3.617401e+00 4.553367e+00 1.959378e+00 3.015755e+00 4.244512e+00 4.019975e+00 5.235136e+00 5.884991e+00 3.981242e+00 4.199578e+00 2.996997e+00 2.647282e+00 5.901168e+00 7.137336e-01 5.482450e-01 3.876006e-01 5.512366e-01 7.485670e-01 9.678897e-01 1.017442e+00 1.004672e+00 6.794062e-01 8.639431e-01 7.224849e-01 5.367611e-01 8.060001e-01
<GCONST> 1.290710e+02
<STATE> 4
<MEAN> 39
 -8.510012e+00 9.635808e-01 8.292216e+00 3.106467e+00 8.133552e+00 -6.155774e-01 3.446694e+00 -6.661528e+00 -6.510127e+00 -8.417439e+00 -4.777933e-01 2.653988e+00 6.431386e+01 -3.784325e-01 -3.209715e+00 9.989331e-02 -1.271641e+00 1.561204e+00 -2.506080e+00 -1.725240e+00 -1.737432e+00 -1.907104e+00 -2.710507e+00 8.788215e-01 6.554936e-01 4.395566e+00 9.808046e-01 2.584648e-01 -1.433109e-01 2.973531e-01 4.104261e-02 -8.295556e-01 -5.819528e-01 1.053257e+00 -6.874986e-02 -3.178859e-01 3.002423e-01 -9.702794e-02 -5.311091e-01
<VARIANCE> 39
 2.164188e+01 2.586172e+01 1.608539e+01 2.846465e+01 4.019273e+01 3.801702e+01 5.839695e+01 4.549662e+01 4.713046e+01 5.401455e+01 2.547571e+01 2.105461e+01 6.361082e+01 3.689000e+00 3.804557e+00 2.418936e+00 3.449221e+00 6.446807e+00 7.694480e+00 7.319689e+00 7.505246e+00 4.564949e+00 7.084957e+00 5.289985e+00 3.912892e+00 5.820893e+00 4.936653e-01 8.216950e-01 3.909074e-01 6.616805e-01 6.836101e-01 1.122003e+00 1.272985e+00 1.023826e+00 1.043507e+00 1.166713e+00 7.033875e-01 5.006167e-01 1.315885e+00
<GCONST> 1.357414e+02
<TRANSP> 5
 0.000000e+00 1.000000e+00 0.000000e+00 0.000000e+00 0.000000e+00
 0.000000e+00 6.347358e-01 3.652642e-01 0.000000e+00 0.000000e+00
 0.000000e+00 0.000000e+00 4.108496e-01 5.891504e-01 0.000000e+00
 0.000000e+00 0.000000e+00 0.000000e+00 4.794072e-01 5.205928e-01
 0.000000e+00 0.000000e+00 0.000000e+00 0.000000e+00 0.000000e+00
<ENDHMM>
~h "E"
<BEGINHMM>
<NUMSTATES> 5
<STATE> 2
<MEAN> 39
 -3.072985e+00 -4.400042e+00 5.308679e+00 6.943002e+00 1.756083e+01 -1.533732e+01 -5.646563e+00 -7.094043e+00 -1.646994e+01 -8.997345e+00 7.711820e+00 3.578743e-01 6.843090e+01 6.383749e-01 -3.555332e-01 3.950499e-02 2.578056e-01 7.158604e-01 -1.751743e+00 -1.014549e+00 -4.182646e-01 -1.342465e+00 -1.744728e-01 8.957326e-01 -3.581335e-01 8.684224e-01 -3.184816e-01 2.845099e-01 5.847611e-04 -1.267274e-01 -6.347041e-01 9.350101e-01 4.514976e-01 3.079215e-01 8.565505e-01 3.033384e-01 -5.163836e-01 3.828341e-02 -7.388196e-01
<VARIANCE> 39
 1.584495e+01 1.798817e+01 3.181263e+01 4.383044e+01 2.909758e+01 6.561028e+01 6.545948e+01 5.019067e+01 6.464661e+01 7.055672e+01 3.696018e+01 3.255244e+01 3.356145e+01 2.531554e+00 2.626436e+00 2.355677e+00 2.701277e+00 3.000804e+00 6.767636e+00 4.942969e+00 3.377186e+00 5.217097e+00 4.975230e+00 3.553951e+00 2.454317e+00 3.659615e+00 4.896941e-01 5.095648e-01 4.561493e-01 4.915448e-01 5.465125e-01 9.740483e-01 9.177263e-01 6.359466e-01 8.890926e-01 7.894693e-01 7.323359e-01 4.981909e-01 5.290783e-01
<GCONST> 1.294926e+02
<STATE> 3
<MEAN> 39
 -2.983022e+00 -3.874029e+00 6.500398e+00 6.413374e+00 1.642256e+01 -1.518424e+01 -7.135507e+00 -7.785663e+00 -1.601085e+01 -7.580411e+00 6.349671e+00 -4.656540e-01 6.723729e+01 -1.069447e-01 9.583956e-01 8.153569e-02 -1.246245e-01 -7.642225e-01 1.358185e+00 4.586207e-01 2.114189e-01 8.542777e-01 4.931389e-01 -6.889674e-01 1.252211e-01 -1.527013e+00 -1.657452e-01 2.237806e-01 -4.069986e-02 8.439785e-02 -3.029614e-01 5.446357e-01 2.690199e-01 2.203354e-01 4.754744e-01 1.540134e-01 -2.292842e-01 5.321635e-02 -5.257353e-01
<VARIANCE> 39
 1.166094e+01 1.913746e+01 2.784221e+01 4.575362e+01 2.853235e+01 5.963316e+01 7.254874e+01 5.155294e+01 5.205997e+01 7.672128e+01 3.563962e+01 3.516571e+01 3.187866e+01 1.088039e+00 1.560794e+00 1.699888e+00 2.009629e+00 2.067090e+00 3.712883e+00 3.790513e+00 2.723335e+00 3.321294e+00 3.139601e+00 2.201871e+00 1.734692e+00 2.741124e+00 2.611884e-01 2.885344e-01 3.125433e-01 3.930099e-01 4.284944e-01 6.838802e-01 7.348164e-01 4.881030e-01 6.425770e-01 5.925530e-01 5.015656e-01 3.664428e-01 3.581876e-01
<GCONST> 1.189910e+02
<STATE> 4
<MEAN> 39
 -8.235907e+00 7.372692e-01 2.849351e+00 5.766591e+00 9.117279e+00 -3.023444e+00 -1.745937e+00 -2.910778e+00 -6.622073e+00 -1.524752e+00 3.902863e+00 2.291314e+00 5.134584e+01 -5.370660e-01 4.875296e-01 -1.876155e-01 1.812400e-02 -6.995788e-01 1.276175e+00 5.895807e-01 6.287691e-01 1.102170e+00 3.796292e-01 -3.287265e-01 1.819911e-01 -1.366188e+00 -8.721588e-02 -1.897895e-01 4.513893e-02 -9.922008e-02 3.895349e-02 -1.437566e-01 2.160356e-02 2.757580e-02 -6.639007e-03 -9.052990e-02 4.429996e-03 -3.754586e-02 3.019656e-01
<VARIANCE> 39
 3.645958e+01 4.414565e+01 3.489182e+01 3.572564e+01 3.650703e+01 6.977203e+01 5.386527e+01 5.567733e+01 5.823722e+01 6.014847e+01 2.670519e+01 2.841279e+01 9.855645e+01 2.001319e+00 2.716302e+00 2.342631e+00 2.512490e+00 2.699529e+00 3.745809e+00 3.661043e+00 2.950982e+00 3.482390e+00 2.908401e+00 2.427577e+00 1.803397e+00 3.800631e+00 3.484730e-01 4.469974e-01 3.947003e-01 4.808614e-01 4.493316e-01 5.645024e-01 6.345978e-01 5.181193e-01 5.156258e-01 4.939043e-01 4.035611e-01 3.324461e-01 6.342793e-01
<GCONST> 1.248707e+02
<TRANSP> 5
 0.000000e+00 1.000000e+00 0.000000e+00 0.000000e+00 0.000000e+00
 0.000000e+00 6.399756e-01 3.600244e-01 0.000000e+00 0.000000e+00
 0.000000e+00 0.000000e+00 6.533504e-01 3.466496e-01 0.000000e+00
 0.000000e+00 0.000000e+00 0.000000e+00 7.324804e-01 2.675196e-01
 0.000000e+00 0.000000e+00 0.000000e+00 0.000000e+00 0.000000e+00
<ENDHMM>
~h "G"
<BEGINHMM>
<NUMSTATES> 5
<STATE> 2
<MEAN> 39
 -2.992627e+00 6.308791e+00 5.132794e+00 7.269916e+00 9.530576e+00 -4.236094e+00 8.066337e-01 1.226834e+00 -4.819974e+00 -4.811877e+00 2.787083e+00 -1.624524e+00 5.401712e+01 -4.133513e-01 1.040092e+00 2.811030e-01 1.778849e-01 -5.315100e-02 8.149300e-01 4.025509e-01 -4.501154e-01 3.163550e-01 6.559944e-01 -3.798409e-01 -4.344716e-01 -7.661597e-01 -1.109115e-01 -6.238762e-01 5.241692e-02 -4.600898e-01 -6.347571e-02 -4.883229e-01 -9.232644e-03 -6.643125e-02 -2.397092e-01 -5.777460e-01 8.419795e-02 1.938687e-01 9.022052e-01
<VARIANCE> 39
 4.370279e+01 3.840449e+01 3.283531e+01 5.227503e+01 5.114578e+01 6.930670e+01 7.117587e+01 5.339587e+01 6.803816e+01 6.079356e+01 4.566762e+01 3.229004e+01 5.725965e+01 2.967950e+00 3.190183e+00 2.211181e+00 3.740786e+00 3.437961e+00 3.940660e+00 6.735276e+00 3.930648e+00 4.491291e+00 4.167758e+00 3.126216e+00 3.071167e+00 4.586552e+00 5.870373e-01 5.749252e-01 4.162763e-01 7.473871e-01 6.313398e-01 6.715875e-01 1.196180e+00 7.422897e-01 7.636549e-01 7.879242e-01 6.015602e-01 5.070570e-01 6.730313e-01
<GCONST> 1.342739e+02
<STATE> 3
<MEAN> 39
 -3.117118e+00 7.860053e+00 6.333591e+00 7.085031e+00 9.692616e+00 -4.194936e+00 1.187790e+00 -2.465914e-01 -4.688374e+00 -4.622352e+00 1.733815e+00 -2.883514e+00 5.485088e+01 -7.867813e-01 -4.647239e-01 1.293522e-01 -1.159734e+00 -2.346414e-01 -2.669883e-01 8.028560e-01 -5.516713e-01 -2.864921e-01 -6.794004e-01 -6.353307e-02 8.028487e-02 1.317088e+00 1.169394e-02 -8.399463e-01 -2.130314e-02 -4.369132e-01 -6.397321e-02 -6.377017e-01 -1.744344e-01 1.681067e-01 -2.132215e-01 -7.360222e-01 1.630906e-01 3.336682e-01 9.460515e-01
<VARIANCE> 39
 2.970494e+01 3.797224e+01 2.885342e+01 5.578039e+01 5.069761e+01 5.420714e+01 6.637427e+01 5.107295e+01 6.153491e+01 5.509149e+01 4.006293e+01 2.779146e+01 4.700255e+01 4.240195e+00 3.842946e+00 2.761306e+00 5.250744e+00 4.501624e+00 4.968634e+00 9.453516e+00 4.606234e+00 5.332265e+00 4.649697e+00 4.095530e+00 3.510241e+00 4.369709e+00 7.563319e-01 5.072001e-01 5.213286e-01 9.496779e-01 6.675597e-01 8.223321e-01 1.725062e+00 8.095562e-01 8.255842e-01 8.276792e-01 6.584615e-01 5.345166e-01 7.125041e-01
<GCONST> 1.371366e+02
<STATE> 4
<MEAN> 39
 -5.340436e+00 5.350507e+00 6.047228e+00 2.271091e+00 8.162512e+00 -5.430383e+00 4.184002e+00 -4.241560e-01 -5.084191e+00 -7.726363e+00 2.161978e+00 -1.878310e+00 5.968978e+01 -2.763002e-01 -1.746362e+00 6.942120e-02 -1.502066e+00 -4.604645e-01 -1.445736e+00 -3.253761e-02 1.283619e-01 -5.044193e-01 -1.965616e+00 1.527521e-01 9.469656e-01 2.477634e+00 5.212578e-01 -3.901772e-01 3.497771e-02 3.519530e-01 7.460321e-02 -5.473918e-01 -7.830190e-01 2.969975e-01 -3.154337e-02 -3.335175e-01 -3.556959e-02 2.539830e-01 2.096454e-01
<VARIANCE> 39
 2.666739e+01 4.942483e+01 3.106418e+01 7.085959e+01 7.403732e+01 6.270454e+01 9.425368e+01 6.280546e+01 7.489030e+01 5.954502e+01 4.046089e+01 3.044827e+01 5.107310e+01 3.864449e+00 3.384668e+00 3.559474e+00 6.386144e+00 5.867143e+00 6.255083e+00 1.065752e+01 5.216197e+00 5.494153e+00 5.438123e+00 4.716800e+00 3.722083e+00 3.713785e+00 7.058473e-01 6.361225e-01 6.319899e-01 1.265032e+00 7.977918e-01 1.115899e+00 2.242155e+00 9.048777e-01 9.273720e-01 8.932911e-01 8.074260e-01 6.052197e-01 7.404454e-01
<GCONST> 1.423914e+02
<TRANSP> 5
 0.000000e+00 1.000000e+00 0.000000e+00 0.000000e+00 0.000000e+00
 0.000000e+00 3.742748e-01 6.257252e-01 0.000000e+00 0.000000e+00
 0.000000e+00 0.000000e+00 2.973006e-01 7.026994e-01 0.000000e+00
 0.000000e+00 0.000000e+00 0.000000e+00 4.014662e-01 5.985339e-01
 0.000000e+00 0.000000e+00 0.000000e+00 0.000000e+00 0.000000e+00
<ENDHMM>
~h "H"
<BEGINHMM>
<NUMSTATES> 5
<STATE> 2
<MEAN> 39
 -5.817514e+00 -4.922904e-01 6.709723e+00 -4.252066e+00 3.677005e+00 -3.397025e+00 1.182083e+01 6.641850e+00 1.352633e+00 -7.527177e+00 2.591089e+00 5.697376e+00 6.260941e+01 -7.015423e-01 -6.418586e-01 8.911398e-02 -7.849599e-01 -5.473889e-01 1.764146e+00 1.635085e+00 8.850055e-01 1.596426e+00 1.005013e+00 -5.533865e-01 3.194290e-01 -7.227089e-01 2.536317e-01 -5.406578e-02 -1.204117e-01 1.918737e-01 -7.798992e-02 -6.525496e-01 -4.978612e-01 -7.786401e-02 -4.054659e-01 -3.168108e-01 6.571799e-02 -2.291292e-01 2.197627e-01
<VARIANCE> 39
 1.800669e+01 2.657689e+01 3.212151e+01 2.481265e+01 7.964010e+01 5.799664e+01 4.831059e+01 6.709380e+01 5.737553e+01 4.649336e+01 2.897525e+01 2.519500e+01 3.822914e+01 1.215708e+00 2.270423e+00 2.881066e+00 2.137689e+00 4.134645e+00 4.607225e+00 3.914308e+00 4.253600e+00 3.941713e+00 3.789501e+00 2.531291e+00 2.264452e+00 1.101158e+00 1.542028e-01 4.336489e-01 4.041876e-01 3.237691e-01 4.422876e-01 6.345269e-01 5.673268e-01 5.733889e-01 6.752521e-01 5.678024e-01 4.288577e-01 4.290895e-01 1.216893e-01
<GCONST> 1.204251e+02
<STATE> 3
<MEAN> 39
 -6.630541e+00 -2.232466e+00 6.523358e+00 -6.027726e+00 1.341828e+00 -1.765164e+00 1.407658e+01 8.720502e+00 4.082295e+00 -6.148180e+00 1.474415e+00 5.348773e+00 6.175478e+01 3.388352e-01 4.701149e-01 2.869841e-01 8.952941e-02 -3.253728e-01 -4.280649e-01 -1.063545e-01 2.701013e-01 1.403897e-02 -2.997690e-01 -2.616459e-01 -5.378755e-01 8.197890e-03 4.473278e-01 4.520580e-01 -9.605471e-03 2.868044e-01 4.156400e-02 -9.334412e-01 -6.699727e-01 -1.888423e-01 -5.719903e-01 -5.743802e-01 1.334779e-01 -1.982014e-01 3.124691e-01
<VARIANCE> 39
 1.534924e+01 2.991466e+01 3.198703e+01 2.793147e+01 7.029420e+01 3.979700e+01 4.956376e+01 5.718319e+01 5.134119e+01 3.952940e+01 2.515655e+01 2.331103e+01 3.114671e+01 9.829769e-01 2.156584e+00 1.468495e+00 1.551228e+00 3.133892e+00 3.539114e+00 2.387608e+00 2.413919e+00 2.678517e+00 2.773415e+00 1.774161e+00 1.609216e+00 7.532744e-01 1.454664e-01 3.757123e-01 4.293709e-01 3.262748e-01 3.919591e-01 6.686712e-01 5.355240e-01 4.815544e-01 5.129455e-01 5.487151e-01 3.913414e-01 3.380819e-01 9.958587e-02
<GCONST> 1.132558e+02
<STATE> 4
<MEAN> 39
 -4.980752e+00 1.346528e+00 7.073168e+00 -4.153815e+00 1.077427e+00 -5.262391e+00 1.074888e+01 8.274407e+00 1.561083e+00 -8.203069e+00 1.462371e+00 3.359304e+00 6.117308e+01 1.298613e+00 8.932431e-01 -2.334824e-01 4.244345e-01 -3.567761e-01 -2.654589e+00 -1.347483e+00 -5.524961e-02 -1.250853e+00 -1.449644e+00 2.337531e-01 -6.002630e-01 9.917542e-01 1.662319e-01 -2.980271e-01 -3.896569e-01 1.396638e-01 9.592726e-02 -4.843110e-01 -3.040216e-01 -6.783522e-02 -3.767700e-01 -2.303314e-01 1.757579e-01 1.164511e-01 2.422559e-01
<VARIANCE> 39
 2.511822e+01 3.820337e+01 4.091769e+01 2.973559e+01 7.008176e+01 6.522218e+01 5.639613e+01 5.559697e+01 5.074904e+01 5.093944e+01 2.643220e+01 2.225374e+01 5.666934e+01 1.282752e+00 3.116466e+00 2.762590e+00 2.604229e+00 2.867239e+00 5.545749e+00 2.922112e+00 2.350803e+00 3.450600e+00 3.009415e+00 2.049457e+00 1.826786e+00 1.339558e+00 2.150993e-01 6.046891e-01 3.638285e-01 3.691095e-01 4.213293e-01 8.589754e-01 5.014759e-01 4.275618e-01 5.387474e-01 5.259326e-01 3.744614e-01 3.385093e-01 1.852916e-01
<GCONST> 1.207867e+02
<TRANSP> 5
 0.000000e+00 1.000000e+00 0.000000e+00 0.000000e+00 0.000000e+00
 0.000000e+00 5.952695e-01 4.047305e-01 0.000000e+00 0.000000e+00
 0.000000e+00 0.000000e+00 5.802847e-01 4.197153e-01 0.000000e+00
 0.000000e+00 0.000000e+00 0.000000e+00 5.582724e-01 4.417276e-01
 0.000000e+00 0.000000e+00 0.000000e+00 0.000000e+00 0.000000e+00
<ENDHMM>
~h "I"
<BEGINHMM>
<NUMSTATES> 5
<STATE> 2
<MEAN> 39
 -5.080000e+00 -3.488632e+00 1.031951e+01 9.980866e+00 1.921167e+01 -8.420255e+00 -6.315339e+00 -6.187568e+00 -9.635700e+00 -8.927730e+00 2.881707e+00 -1.979054e+00 6.595427e+01 9.166159e-01 -6.290728e-01 1.272565e+00 1.151663e+00 1.797247e+00 -2.023568e+00 -2.524780e+00 -1.621875e-02 -1.080610e+00 -1.284645e+00 3.165862e-01 -9.167302e-01 1.216647e+00 -1.666569e-01 2.813199e-01 -2.612397e-01 -3.057310e-01 -7.001589e-01 4.577465e-01 3.350583e-01 3.602384e-01 5.849638e-01 2.805045e-01 -1.433897e-01 1.635240e-01 -6.010075e-01
<VARIANCE> 39
 2.287187e+01 2.247908e+01 3.554476e+01 3.917533e+01 3.080119e+01 9.344852e+01 5.889304e+01 4.868738e+01 7.393594e+01 5.530528e+01 3.896233e+01 2.658140e+01 3.582255e+01 4.546360e+00 4.023241e+00 3.162143e+00 3.026483e+00 3.994381e+00 6.129336e+00 6.112905e+00 4.398101e+00 5.201027e+00 4.986962e+00 3.600972e+00 2.494780e+00 3.558836e+00 6.102821e-01 5.740584e-01 6.123593e-01 5.317006e-01 6.837856e-01 1.151731e+00 1.205681e+00 7.395824e-01 8.620476e-01 8.708782e-01 6.850356e-01 4.963119e-01 5.924029e-01
<GCONST> 1.338837e+02
<STATE> 3
<MEAN> 39
 -4.429259e+00 -4.779524e+00 1.281902e+01 1.110190e+01 2.029433e+01 -1.138656e+01 -1.080696e+01 -4.809351e+00 -9.331406e+00 -1.099307e+01 2.398808e+00 -3.446503e+00 6.719254e+01 1.079647e-03 5.983217e-01 1.052761e-01 -1.074746e-01 -4.872554e-01 6.091427e-01 1.554579e-01 -7.281259e-03 4.351702e-01 4.523130e-01 -2.470061e-01 -6.962600e-02 -8.028517e-01 -1.940066e-01 3.544570e-01 -3.688508e-01 -2.217453e-01 -6.054603e-01 6.591914e-01 7.679550e-01 1.668412e-02 3.189648e-01 5.008829e-01 -1.014277e-01 2.268914e-01 -5.772374e-01
<VARIANCE> 39
 1.019985e+01 1.634897e+01 2.736587e+01 4.425186e+01 2.634690e+01 7.264561e+01 5.923345e+01 5.242603e+01 6.860452e+01 4.913697e+01 3.729201e+01 2.697277e+01 1.957605e+01 1.270092e+00 1.779147e+00 2.292015e+00 1.949917e+00 2.152916e+00 3.981536e+00 4.434434e+00 2.838633e+00 3.075712e+00 3.852701e+00 2.028021e+00 1.714811e+00 2.241123e+00 3.761872e-01 3.470135e-01 3.684513e-01 4.105493e-01 5.332556e-01 7.024835e-01 9.766393e-01 5.864549e-01 6.721103e-01 6.657988e-01 4.881453e-01 3.618475e-01 3.411199e-01
<GCONST> 1.199437e+02
<STATE> 4
<MEAN> 39
 -6.159208e+00 6.002330e-01 1.042537e+01 9.723071e+00 1.485559e+01 -5.151120e+00 -6.328812e+00 -5.348841e+00 -6.014275e+00 -5.194496e+00 9.057887e-01 -2.369947e+00 5.837810e+01 -4.621613e-01 8.566225e-01 -8.395112e-01 -3.933056e-01 -1.414020e+00 1.356455e+00 1.298384e+00 4.837270e-01 8.306772e-01 9.399695e-01 -1.757134e-01 4.835976e-01 -1.836802e+00 -1.828826e-01 -2.925866e-01 -1.583059e-01 -2.164261e-01 -7.711104e-02 -1.228365e-01 1.666294e-01 1.556397e-01 6.034934e-04 -2.068059e-01 -7.032260e-04 9.562773e-02 2.939875e-01
<VARIANCE> 39
 2.511107e+01 3.090775e+01 3.715168e+01 4.586010e+01 3.652752e+01 7.130386e+01 5.837586e+01 5.354359e+01 5.287493e+01 5.850651e+01 3.734581e+01 2.763580e+01 8.283013e+01 2.749261e+00 2.982585e+00 2.694276e+00 3.236665e+00 2.901625e+00 4.323814e+00 5.362181e+00 3.490052e+00 3.619771e+00 4.064145e+00 2.737382e+00 2.106185e+00 4.516511e+00 4.115910e-01 4.900957e-01 4.804487e-01 6.096076e-01 5.015627e-01 6.790321e-01 9.191568e-01 6.784982e-01 5.910873e-01 7.275398e-01 4.646721e-01 3.893657e-01 8.770070e-01
<GCONST> 1.296915e+02
<TRANSP> 5
 0.000000e+00 1.000000e+00 0.000000e+00 0.000000e+00 0.000000e+00
 0.000000e+00 5.428059e-01 4.571941e-01 0.000000e+00 0.000000e+00
 0.000000e+00 0.000000e+00 6.711472e-01 3.288527e-01 0.000000e+00
 0.000000e+00 0.000000e+00 0.000000e+00 6.358401e-01 3.641599e-01
 0.000000e+00 0.000000e+00 0.000000e+00 0.000000e+00 0.000000e+00
<ENDHMM>
~h "J"
<BEGINHMM>
<NUMSTATES> 5
<STATE> 2
<MEAN> 39
 -1.083711e+01 3.846231e+00 1.273685e+01 2.347312e+00 8.932392e+00 1.009450e+00 4.585890e+00 -2.187092e+00 -2.686157e+00 -3.439942e+00 1.497751e+00 2.217486e+00 5.629032e+01 -1.775961e+00 -1.046739e+00 1.789312e+00 3.080145e-01 -4.303333e-01 6.289070e-01 4.324049e-01 -1.830609e-01 8.547430e-01 3.964438e-01 -6.797405e-02 -2.524439e-01 5.430120e-01 5.672492e-02 -7.335758e-01 -1.798997e-01 1.752883e-01 5.024778e-02 -4.380438e-01 -2.736926e-01 -1.510187e-01 -3.357632e-01 -5.335917e-01 1.899098e-01 -1.125801e-02 7.258261e-01
<VARIANCE> 39
 5.002545e+01 4.496716e+01 5.547199e+01 5.701918e+01 4.139379e+01 3.960251e+01 3.998772e+01 5.252510e+01 4.258516e+01 4.361449e+01 2.579007e+01 2.563876e+01 8.432206e+01 6.315958e+00 7.502211e+00 4.352127e+00 4.341350e+00 4.238955e+00 3.955219e+00 4.316433e+00 4.278647e+00 4.226429e+00 4.988169e+00 3.036061e+00 2.494826e+00 5.939250e+00 1.141598e+00 1.043903e+00 8.019379e-01 8.738238e-01 7.965382e-01 6.648272e-01 7.855180e-01 8.986290e-01 8.634846e-01 7.550641e-01 6.137386e-01 4.659975e-01 8.722457e-01
<GCONST> 1.373694e+02
<STATE> 3
<MEAN> 39
 -1.771365e+01 -5.811606e+00 1.977936e+01 5.070070e+00 7.620937e+00 1.022997e-01 4.778883e+00 -4.453161e+00 -1.656977e+00 -5.808218e+00 2.377492e+00 1.137317e+00 6.515688e+01 -1.030152e-01 -2.070881e+00 2.450950e-01 1.043686e+00 6.017925e-01 -7.276953e-01 -1.191540e+00 -1.411343e+00 -1.028122e+00 -1.223215e+00 3.508053e-01 -1.318370e-04 2.284472e+00 1.435113e+00 6.160072e-01 -1.103799e+00 -1.877803e-02 5.267993e-01 -5.783854e-01 -6.152598e-01 -2.526996e-03 -7.876203e-01 -3.087314e-01 1.169137e-01 1.285187e-01 -2.302034e-01
<VARIANCE> 39
 4.738861e+01 5.709481e+01 3.276388e+01 4.638734e+01 3.145306e+01 2.228452e+01 3.294958e+01 5.236897e+01 3.818022e+01 3.348656e+01 2.288793e+01 2.302280e+01 4.172671e+01 9.058932e+00 5.594789e+00 4.463557e+00 3.693114e+00 3.458477e+00 3.309630e+00 3.823653e+00 4.385807e+00 4.661587e+00 2.967391e+00 2.621850e+00 2.254110e+00 3.898868e+00 1.687302e+00 1.255557e+00 9.130061e-01 7.867476e-01 6.747893e-01 8.911198e-01 9.693654e-01 1.091270e+00 1.025724e+00 5.727937e-01 6.155577e-01 4.764636e-01 6.871623e-01
<GCONST> 1.336475e+02
<STATE> 4
<MEAN> 39
 -8.047251e+00 -7.600314e+00 1.338889e+01 7.506439e+00 1.201164e+01 -5.656764e+00 -2.136798e+00 -8.452923e+00 -1.032389e+01 -1.156471e+01 4.360973e+00 2.388179e+00 6.964364e+01 3.533814e+00 1.833648e-01 -3.260087e+00 -1.737159e-01 8.121919e-01 -2.862821e+00 -1.341099e+00 6.981064e-01 -2.735676e+00 -1.665230e+00 1.227238e+00 5.398491e-01 5.730725e-01 -9.606102e-03 4.685189e-01 -3.399700e-01 -4.782629e-01 -4.752384e-01 -1.975188e-01 6.190568e-01 8.786259e-01 4.361732e-01 2.197053e-01 7.275525e-02 5.710996e-02 -4.990801e-01
<VARIANCE> 39
 5.420824e+01 1.940725e+01 4.453740e+01 3.179302e+01 2.758685e+01 5.417358e+01 3.744495e+01 3.992951e+01 6.305523e+01 4.851870e+01 3.244046e+01 2.393120e+01 2.214836e+01 3.996959e+00 2.827789e+00 4.021340e+00 4.461220e+00 3.257474e+00 6.081181e+00 6.449569e+00 5.540216e+00 5.163081e+00 4.089967e+00 3.952261e+00 2.462487e+00 2.037430e+00 1.523502e+00 5.075157e-01 9.908928e-01 4.049572e-01 4.875558e-01 9.643403e-01 9.129117e-01 7.687569e-01 1.264120e+00 5.507855e-01 6.341323e-01 3.830400e-01 3.176318e-01
<GCONST> 1.309975e+02
<TRANSP> 5
 0.000000e+00 1.000000e+00 0.000000e+00 0.000000e+00 0.000000e+00
 0.000000e+00 7.516086e-01 2.483914e-01 0.000000e+00 0.000000e+00
 0.000000e+00 0.000000e+00 6.037866e-01 3.962133e-01 0.000000e+00
 0.000000e+00 0.000000e+00 0.000000e+00 6.495583e-01 3.504417e-01
 0.000000e+00 0.000000e+00 0.000000e+00 0.000000e+00 0.000000e+00
<ENDHMM>
~h "K"
<BEGINHMM>
<NUMSTATES> 5
<STATE> 2
<MEAN> 39
 -1.398189e+01 3.207269e+00 4.238488e-01 -2.032367e+00 4.777786e+00 -4.347070e+00 4.701583e+00 -2.813890e+00 -3.262329e+00 -2.210067e+00 5.213695e+00 1.426636e+00 5.482442e+01 -1.438794e+00 -6.676574e-01 -7.668043e-01 -2.029765e+00 -8.811739e-01 9.150600e-01 1.120873e+00 -1.359964e-01 3.368756e-01 -9.267648e-02 3.435533e-02 3.820395e-01 8.332548e-01 5.744973e-01 -5.180268e-01 1.798827e-01 4.458665e-02 8.722425e-02 -7.956101e-02 -9.320033e-02 1.433411e-01 -1.737175e-01 -2.964938e-01 4.469499e-02 1.192126e-01 6.461209e-01
<VARIANCE> 39
 2.436327e+01 3.679094e+01 3.009050e+01 5.984080e+01 5.117006e+01 6.252332e+01 4.788591e+01 5.758335e+01 4.637513e+01 4.977243e+01 3.559890e+01 3.579338e+01 7.661653e+01 3.060856e+00 3.162103e+00 3.389328e+00 5.128553e+00 4.150275e+00 4.473342e+00 4.829212e+00 4.058040e+00 4.185007e+00 4.713775e+00 3.136945e+00 3.104448e+00 6.222609e+00 4.624257e-01 5.435719e-01 5.628605e-01 9.586073e-01 7.644585e-01 6.832761e-01 9.106136e-01 6.855882e-01 6.564981e-01 8.837593e-01 5.346683e-01 5.501025e-01 1.205698e+00
<GCONST> 1.346061e+02
<STATE> 3
<MEAN> 39
 -1.492344e+01 -1.598833e+00 -9.431469e-01 -8.538173e+00 1.903867e+00 -3.311879e+00 7.611982e+00 -3.814932e+00 -3.709053e+00 -4.173552e+00 5.745109e+00 3.237103e+00 6.296621e+01 4.062316e-01 -1.915364e+00 2.976577e-01 -7.492959e-01 9.406012e-02 9.894726e-01 4.339575e-01 2.819946e-02 3.817833e-01 2.061511e-02 -2.173890e-01 7.759329e-01 1.239543e+00 6.013579e-01 1.493311e-01 5.027444e-01 8.347585e-01 6.037605e-01 -8.914376e-02 -3.057184e-01 2.696840e-01 1.431515e-01 8.556017e-02 -2.095884e-01 -2.137094e-01 -5.052437e-01
<VARIANCE> 39
 1.530651e+01 4.127884e+01 1.774130e+01 5.118760e+01 5.386855e+01 3.288823e+01 6.160269e+01 5.637339e+01 4.281132e+01 4.633328e+01 2.736927e+01 2.971433e+01 3.536528e+01 1.616470e+00 3.084101e+00 2.366269e+00 4.137701e+00 5.096939e+00 4.314421e+00 3.975216e+00 4.295431e+00 3.838281e+00 4.087457e+00 2.954666e+00 3.003705e+00 4.090925e+00 3.660043e-01 8.120281e-01 4.747356e-01 6.095340e-01 7.510929e-01 8.183329e-01 8.369637e-01 8.353487e-01 7.616364e-01 8.631150e-01 5.000422e-01 5.747188e-01 7.176862e-01
<GCONST> 1.292941e+02
<STATE> 4
<MEAN> 39
 -1.145818e+01 -5.529002e+00 2.217643e+00 -7.828026e+00 4.675706e+00 -4.711384e-01 9.107377e+00 -6.206583e-01 -3.451425e-01 -4.219628e+00 3.671023e+00 3.830486e+00 6.345993e+01 1.838792e+00 7.434012e-01 1.617870e+00 1.240061e+00 1.056064e+00 -3.510333e-01 -3.659083e-01 1.161039e+00 3.379070e-01 -8.038151e-01 -6.371738e-01 -4.974944e-01 2.361682e-01 4.265771e-01 9.017884e-01 2.488846e-02 3.093464e-01 -1.093578e-01 -8.127521e-01 -5.244010e-01 1.106768e-01 -3.451899e-01 -5.579467e-01 9.865508e-02 -2.142303e-01 6.963692e-02
<VARIANCE> 39
 1.858668e+01 3.219974e+01 2.386774e+01 4.890068e+01 6.398509e+01 2.978888e+01 5.731027e+01 6.443658e+01 4.767263e+01 3.850949e+01 2.899879e+01 2.769273e+01 2.269106e+01 1.875916e+00 6.612436e+00 2.591661e+00 2.288254e+00 3.803842e+00 5.140302e+00 3.800014e+00 3.595403e+00 3.871005e+00 3.980012e+00 2.369144e+00 2.388239e+00 1.680623e+00 2.716682e-01 8.708372e-01 6.639487e-01 5.116684e-01 7.045525e-01 7.384545e-01 7.158036e-01 7.211437e-01 7.784591e-01 6.725227e-01 4.693598e-01 5.010117e-01 4.213625e-01
<GCONST> 1.263048e+02
<TRANSP> 5
 0.000000e+00 1.000000e+00 0.000000e+00 0.000000e+00 0.000000e+00
 0.000000e+00 6.610204e-01 3.389796e-01 0.000000e+00 0.000000e+00
 0.000000e+00 0.000000e+00 5.665902e-01 4.334098e-01 0.000000e+00
 0.000000e+00 0.000000e+00 0.000000e+00 7.104723e-01 2.895277e-01
 0.000000e+00 0.000000e+00 0.000000e+00 0.000000e+00 0.000000e+00
<ENDHMM>
~h "L"
<BEGINHMM>
<NUMSTATES> 5
<STATE> 2
<MEAN> 39
 1.962058e+00 -1.493704e+00 3.399894e+00 8.490056e+00 8.058478e+00 -1.490573e+01 1.976959e+00 7.461333e+00 -8.054248e+00 -1.889882e+01 -6.523755e+00 -6.592171e-01 6.339153e+01 3.182866e-01 -9.187756e-02 1.542702e-01 1.435034e+00 2.079687e-01 -5.686369e-01 5.530267e-01 1.227279e+00 -7.995766e-01 -7.976785e-01 -8.071256e-01 -5.984567e-01 -6.631948e-01 -2.799302e-01 5.928268e-02 3.638655e-03 -4.611107e-01 -2.683607e-01 -1.179441e-01 -1.467810e-02 -2.729156e-01 1.019246e-02 2.666169e-01 4.766648e-01 2.714611e-01 2.797618e-01
<VARIANCE> 39
 1.185349e+01 2.022847e+01 2.836841e+01 6.502800e+01 7.442830e+01 7.968890e+01 6.060875e+01 5.913963e+01 7.383460e+01 4.878263e+01 5.546078e+01 3.073507e+01 2.217734e+01 1.072458e+00 1.206596e+00 2.089032e+00 4.808170e+00 4.179428e+00 6.037365e+00 3.444367e+00 4.541480e+00 4.359674e+00 4.056324e+00 3.671274e+00 3.117834e+00 1.964786e+00 1.936101e-01 1.974173e-01 4.315211e-01 8.409159e-01 5.486649e-01 1.073221e+00 7.126319e-01 1.173588e+00 8.568811e-01 8.235547e-01 6.959567e-01 6.147655e-01 3.261739e-01
<GCONST> 1.275031e+02
<STATE> 3
<MEAN> 39
 1.183132e+00 -6.934484e-01 4.064286e+00 8.081790e+00 5.223974e+00 -1.749299e+01 3.455651e+00 8.786013e+00 -9.949613e+00 -1.926594e+01 -6.381077e+00 -8.203341e-01 6.309779e+01 -5.548928e-01 2.472117e-01 -1.566029e-01 -1.160786e+00 -5.578777e-01 2.038676e-05 -9.750132e-02 -1.047956e+00 -3.516243e-01 6.047218e-01 1.056305e+00 8.156129e-01 4.283475e-01 -1.604649e-01 4.255073e-02 -1.062512e-01 -5.685337e-01 -2.165992e-02 2.180584e-01 -2.140471e-01 -5.115687e-01 1.763593e-01 4.402035e-01 4.553988e-01 2.956774e-01 1.380432e-01
<VARIANCE> 39
 1.141677e+01 2.507875e+01 3.052505e+01 7.348871e+01 8.760341e+01 8.086702e+01 6.051183e+01 5.528470e+01 6.723192e+01 5.408987e+01 5.039987e+01 2.915480e+01 2.482342e+01 8.982792e-01 1.388479e+00 1.905680e+00 3.799438e+00 3.593681e+00 5.302291e+00 3.549502e+00 5.040011e+00 4.972960e+00 4.077726e+00 4.545975e+00 3.443454e+00 2.524640e+00 1.699824e-01 2.088335e-01 3.575155e-01 8.816922e-01 4.670739e-01 7.733204e-01 6.813437e-01 1.002193e+00 8.355104e-01 7.504252e-01 8.146217e-01 6.512198e-01 3.808049e-01
<GCONST> 1.274938e+02
<STATE> 4
<MEAN> 39
 -8.204914e+00 3.149468e+00 6.735277e-01 3.363374e+00 2.847550e+00 -3.353192e+00 3.556127e+00 4.118921e+00 -3.895495e+00 -5.472507e+00 2.354360e-01 3.456853e+00 4.907650e+01 -5.109692e-01 -1.315833e-02 -1.501540e-01 -3.190724e-01 1.388299e-01 6.088845e-01 -1.025416e-01 -4.742603e-01 1.871179e-01 6.964185e-01 6.663744e-01 3.554069e-01 -2.695936e-01 2.116408e-02 -3.563184e-02 5.373917e-02 4.653424e-03 2.720946e-02 -2.934137e-02 -1.210365e-02 5.634731e-02 3.294228e-02 4.749216e-03 -2.116770e-02 -7.707439e-02 5.542698e-03
<VARIANCE> 39
 5.174160e+01 4.750755e+01 2.831506e+01 3.194030e+01 5.045997e+01 1.423468e+02 3.287661e+01 3.431281e+01 5.497328e+01 9.086734e+01 4.782988e+01 2.523706e+01 1.332101e+02 1.019543e+00 1.710128e+00 1.706748e+00 2.618843e+00 2.102827e+00 3.350907e+00 2.392093e+00 3.163698e+00 2.884569e+00 2.896447e+00 2.928663e+00 2.064649e+00 2.188183e+00 1.576547e-01 2.466458e-01 2.768960e-01 3.257414e-01 3.398168e-01 4.572224e-01 4.179835e-01 4.340814e-01 4.312374e-01 4.022459e-01 3.735011e-01 3.338482e-01 2.255398e-01
<GCONST> 1.188940e+02
<TRANSP> 5
 0.000000e+00 1.000000e+00 0.000000e+00 0.000000e+00 0.000000e+00
 0.000000e+00 6.713381e-01 3.286619e-01 0.000000e+00 0.000000e+00
 0.000000e+00 0.000000e+00 6.011035e-01 3.988965e-01 0.000000e+00
 0.000000e+00 0.000000e+00 0.000000e+00 7.787544e-01 2.212456e-01
 0.000000e+00 0.000000e+00 0.000000e+00 0.000000e+00 0.000000e+00
<ENDHMM>
~h "M"
<BEGINHMM>
<NUMSTATES> 5
<STATE> 2
<MEAN> 39
 1.084874e+00 3.728287e+00 3.845182e+00 2.910208e+00 4.513527e+00 -5.426300e+00 1.303136e+00 7.590778e+00 -2.740702e-01 -9.719879e+00 9.012662e-01 -1.459105e+00 5.792342e+01 3.284231e-01 6.892027e-01 9.622117e-01 9.958991e-01 1.011013e+00 2.862127e+00 -8.431732e-01 -1.578426e-01 1.404706e+00 1.114936e+00 -1.070469e+00 -1.990407e+00 -1.286994e+00 -1.577596e-01 -2.879809e-01 -6.196238e-03 -1.303206e-01 -3.318166e-02 -4.259412e-01 1.087659e-01 -1.044427e-01 -2.483843e-01 -1.556444e-01 1.454437e-01 2.101493e-01 4.209820e-01
<VARIANCE> 39
 4.296020e+01 2.227529e+01 2.819024e+01 2.746812e+01 4.735332e+01 1.156099e+02 6.591663e+01 4.520278e+01 5.375564e+01 5.368434e+01 3.490915e+01 3.553963e+01 6.854570e+01 1.479030e+00 1.492100e+00 2.077320e+00 1.840286e+00 3.431701e+00 6.948233e+00 3.911587e+00 4.072731e+00 4.973706e+00 3.812991e+00 3.169198e+00 3.203992e+00 2.358892e+00 2.468643e-01 2.345887e-01 2.861511e-01 3.174300e-01 4.143121e-01 1.066068e+00 6.413627e-01 4.841156e-01 6.217326e-01 6.230783e-01 4.905370e-01 5.570717e-01 2.480042e-01
<GCONST> 1.244356e+02
<STATE> 3
<MEAN> 39
 2.991390e+00 4.186469e+00 6.289297e+00 4.794405e+00 6.978714e+00 -2.402306e+00 -9.503354e-01 7.446251e+00 1.892701e+00 -9.616077e+00 -1.282433e+00 -6.200878e+00 5.881408e+01 -3.842339e-02 1.298584e-03 2.002311e-01 1.629878e-01 2.979504e-02 -2.494956e-01 -2.250163e-02 -2.385913e-01 -1.348843e-01 2.778396e-02 -8.177991e-02 -4.761465e-02 1.999176e-01 -1.796692e-01 -1.895975e-01 -3.154095e-01 -3.897097e-01 -5.342383e-01 -1.407758e+00 3.581041e-01 6.509142e-02 -6.488900e-01 -4.260637e-01 4.872124e-01 9.090939e-01 5.446258e-01
<VARIANCE> 39
 1.068681e+01 1.766296e+01 1.928884e+01 2.388249e+01 3.586012e+01 5.751990e+01 6.390417e+01 5.561490e+01 6.268221e+01 3.582373e+01 3.506307e+01 2.873199e+01 1.984385e+01 1.313244e+00 1.109175e+00 1.299510e+00 1.370893e+00 2.786945e+00 7.887471e+00 3.008430e+00 3.056810e+00 3.407368e+00 2.983136e+00 2.367031e+00 3.600511e+00 1.925885e+00 1.748734e-01 2.384644e-01 2.569370e-01 2.878375e-01 4.341403e-01 9.059558e-01 5.819063e-01 6.062475e-01 8.253137e-01 6.103677e-01 4.891396e-01 5.210429e-01 2.261221e-01
<GCONST> 1.165613e+02
<STATE> 4
<MEAN> 39
 2.451836e+00 3.871131e+00 6.015739e+00 3.342973e+00 3.226571e+00 -1.100845e+01 1.546155e-01 7.388957e+00 -1.002070e+00 -1.138621e+01 1.084027e+00 -1.027465e+00 6.156240e+01 -2.983170e-01 -5.164771e-01 -4.719856e-01 -8.524097e-01 -1.516278e+00 -3.668263e+00 7.077082e-01 4.149430e-01 -1.401954e+00 -9.106687e-01 1.192593e+00 1.776073e+00 1.490746e+00 -1.702834e-01 -2.166141e-01 -6.346021e-02 -1.144127e-01 3.403198e-02 -8.502454e-03 9.521703e-02 1.149434e-01 -2.846557e-02 -3.710714e-02 9.539293e-02 -2.957777e-02 1.479608e-01
<VARIANCE> 39
 1.214492e+01 1.627370e+01 2.709670e+01 2.864122e+01 5.549109e+01 1.350195e+02 5.723369e+01 5.208810e+01 5.816940e+01 3.925540e+01 3.955924e+01 4.319285e+01 2.738369e+01 1.067693e+00 1.701385e+00 2.261033e+00 2.083309e+00 4.910688e+00 9.649031e+00 4.312867e+00 3.979807e+00 5.069134e+00 3.679415e+00 3.913628e+00 3.764761e+00 2.097863e+00 1.728078e-01 2.324707e-01 3.482013e-01 3.462649e-01 6.546392e-01 2.082687e+00 6.668139e-01 6.232454e-01 6.920073e-01 6.051301e-01 7.149638e-01 8.027391e-01 2.893279e-01
<GCONST> 1.256673e+02
<TRANSP> 5
 0.000000e+00 1.000000e+00 0.000000e+00 0.000000e+00 0.000000e+00
 0.000000e+00 5.156862e-01 4.843138e-01 0.000000e+00 0.000000e+00
 0.000000e+00 0.000000e+00 6.320438e-01 3.679562e-01 0.000000e+00
 0.000000e+00 0.000000e+00 0.000000e+00 5.663615e-01 4.336385e-01
 0.000000e+00 0.000000e+00 0.000000e+00 0.000000e+00 0.000000e+00
<ENDHMM>
~h "N"
<BEGINHMM>
<NUMSTATES> 5
<STATE> 2
<MEAN> 39
 2.057629e+00 3.370156e+00 5.182903e+00 2.931415e+00 1.084490e+01 -2.750394e+00 -3.072879e+00 3.162501e+00 -3.052254e+00 -1.253607e+01 -3.575836e+00 -3.129527e+00 6.024049e+01 2.596891e-01 7.901229e-01 5.907122e-01 6.957274e-01 1.005638e+00 2.338000e+00 -1.172396e+00 -4.358639e-01 1.290326e+00 1.425160e-01 -1.875520e+00 -1.267276e+00 -1.302755e+00 -3.624147e-01 -2.079894e-01 -5.668490e-02 -1.575233e-01 -2.844929e-01 -8.433028e-01 4.719488e-01 -1.194552e-01 -4.203393e-01 1.264499e-01 5.433854e-01 3.995670e-01 4.564987e-01
<VARIANCE> 39
 1.246889e+01 1.757043e+01 2.268690e+01 3.814397e+01 3.875473e+01 5.593299e+01 6.752186e+01 5.742320e+01 7.103494e+01 5.093066e+01 3.882517e+01 2.719470e+01 2.298658e+01 1.073801e+00 1.352190e+00 1.760955e+00 2.217097e+00 3.243528e+00 4.710381e+00 4.195954e+00 3.145328e+00 4.623868e+00 3.059839e+00 3.880198e+00 2.838400e+00 1.604545e+00 1.746457e-01 2.480228e-01 3.437086e-01 3.550086e-01 4.313070e-01 8.329261e-01 7.425499e-01 4.995831e-01 7.458730e-01 5.269279e-01 6.762373e-01 5.012314e-01 2.859094e-01
<GCONST> 1.201017e+02
<STATE> 3
<MEAN> 39
 1.444521e+00 4.889806e+00 6.051292e+00 3.786175e+00 1.263497e+01 5.887550e-02 -4.627960e+00 1.230149e+00 -9.063255e-01 -1.189342e+01 -6.307763e+00 -4.487742e+00 5.879103e+01 -6.366209e-01 5.861684e-02 -9.268797e-02 4.966107e-02 -7.173523e-02 -5.299746e-01 8.006228e-01 -3.839398e-01 -6.683282e-01 2.967751e-01 3.043596e-01 4.325489e-01 2.366619e-01 -3.450446e-01 -4.245746e-01 -1.825313e-01 -2.448523e-01 -4.352086e-01 -1.130798e+00 6.363854e-01 1.618340e-01 -7.056898e-01 1.014248e-01 9.566800e-01 6.207960e-01 5.282508e-01
<VARIANCE> 39
 1.265203e+01 1.956151e+01 2.129361e+01 3.123777e+01 3.005520e+01 4.407521e+01 6.583054e+01 5.398741e+01 7.404369e+01 5.193266e+01 3.059288e+01 2.348097e+01 2.184869e+01 1.125567e+00 1.656111e+00 1.790325e+00 2.038132e+00 2.330319e+00 4.587331e+00 3.787198e+00 2.964961e+00 4.434289e+00 3.578046e+00 4.018298e+00 2.984973e+00 2.258181e+00 2.140339e-01 3.248410e-01 3.951588e-01 4.241707e-01 4.584653e-01 1.073775e+00 7.832232e-01 5.807219e-01 8.718625e-01 6.266726e-01 8.079212e-01 5.871332e-01 3.676577e-01
<GCONST> 1.214378e+02
<STATE> 4
<MEAN> 39
 -5.320701e+00 3.870151e+00 3.649158e+00 3.509726e+00 9.128955e+00 -2.728340e-01 1.125412e+00 1.374955e+00 -3.287725e+00 -6.616475e+00 -1.466653e+00 1.416914e-01 5.376755e+01 -7.888453e-01 -5.354599e-01 -1.705109e-01 -1.869787e-01 -4.157316e-01 -1.275282e+00 9.299837e-01 1.353104e-01 -8.354475e-01 5.099964e-01 1.275754e+00 8.397352e-01 3.638452e-01 1.664156e-02 -2.301421e-01 1.003721e-02 -7.660385e-02 -1.250136e-01 -2.840683e-01 -5.022728e-02 1.051203e-01 -1.233165e-02 -2.726682e-02 2.309995e-01 4.680223e-02 1.610002e-01
<VARIANCE> 39
 4.706966e+01 4.005629e+01 3.688171e+01 3.184667e+01 3.711890e+01 6.269998e+01 5.223916e+01 4.448937e+01 5.918048e+01 7.867871e+01 5.100673e+01 4.135351e+01 1.027114e+02 1.894134e+00 2.710641e+00 2.590205e+00 2.484059e+00 3.096884e+00 7.324971e+00 4.529727e+00 3.348965e+00 5.500365e+00 4.192165e+00 5.313239e+00 3.505309e+00 3.754534e+00 2.820987e-01 4.551494e-01 4.751799e-01 3.695012e-01 4.379025e-01 7.996148e-01 6.808888e-01 5.504190e-01 6.854324e-01 6.207037e-01 6.649209e-01 5.255099e-01 4.262963e-01
<GCONST> 1.306656e+02
<TRANSP> 5
 0.000000e+00 1.000000e+00 0.000000e+00 0.000000e+00 0.000000e+00
 0.000000e+00 5.586019e-01 4.413981e-01 0.000000e+00 0.000000e+00
 0.000000e+00 0.000000e+00 5.011645e-01 4.988355e-01 0.000000e+00
 0.000000e+00 0.000000e+00 0.000000e+00 5.845360e-01 4.154640e-01
 0.000000e+00 0.000000e+00 0.000000e+00 0.000000e+00 0.000000e+00
<ENDHMM>
~h "O"
<BEGINHMM>
<NUMSTATES> 5
<STATE> 2
<MEAN> 39
 -2.893082e-01 2.192117e+00 8.080176e+00 -2.804465e+00 2.241494e+00 -1.517295e+01 -4.496643e-01 7.540670e+00 -3.284098e+00 -1.972227e+01 -1.094121e+00 2.321712e+00 6.531569e+01 1.253673e+00 1.899122e-01 4.433645e-01 -7.449784e-02 -7.902862e-01 -2.583095e+00 -1.079569e+00 1.628759e+00 2.794214e-02 -1.787109e+00 -2.710276e-01 -4.108568e-01 8.389742e-01 -4.777876e-01 -1.886903e-02 -3.024186e-01 2.214798e-01 1.510488e-01 9.612767e-01 3.381772e-01 -4.138216e-01 2.087079e-01 8.737382e-01 -9.623722e-03 -7.995758e-02 -5.330473e-01
<VARIANCE> 39
 2.156064e+01 2.517024e+01 3.433424e+01 3.660459e+01 5.727850e+01 1.159504e+02 7.493677e+01 5.186341e+01 7.514534e+01 8.122964e+01 3.807971e+01 3.071363e+01 4.528933e+01 3.176167e+00 3.114245e+00 2.767325e+00 3.726001e+00 3.575578e+00 8.375552e+00 7.352784e+00 4.365429e+00 4.626877e+00 6.546793e+00 3.473477e+00 2.674605e+00 3.144099e+00 5.538245e-01 5.358933e-01 6.228077e-01 6.286911e-01 6.459029e-01 1.622693e+00 1.121560e+00 7.646947e-01 9.522765e-01 1.197842e+00 6.131740e-01 5.660274e-01 5.677709e-01
<GCONST> 1.362974e+02
<STATE> 3
<MEAN> 39
 6.907739e-01 2.521216e+00 8.591119e+00 -2.538378e+00 -9.390394e-02 -1.890897e+01 -8.587888e-01 9.817206e+00 -2.940293e+00 -2.068057e+01 -1.613007e+00 1.113344e+00 6.624310e+01 1.604509e-03 5.025468e-01 -3.682202e-01 3.053585e-01 1.403206e-01 1.002891e+00 3.483407e-01 -2.329798e-01 1.642840e-01 7.346761e-01 -4.702365e-01 -3.709277e-01 -7.785112e-01 -3.344815e-01 1.475364e-01 -2.335220e-01 2.180401e-01 3.635867e-01 1.221317e+00 3.133044e-01 -5.731721e-01 1.167441e-01 8.510617e-01 -6.542392e-02 8.243360e-02 -6.531265e-01
<VARIANCE> 39
 1.278176e+01 1.958774e+01 3.731932e+01 3.612112e+01 5.855557e+01 9.868902e+01 7.382642e+01 4.707682e+01 7.251607e+01 6.852315e+01 3.841430e+01 3.044170e+01 2.766729e+01 1.147739e+00 2.005651e+00 2.208870e+00 2.209647e+00 3.373966e+00 6.428374e+00 4.703235e+00 3.457024e+00 3.877800e+00 4.853142e+00 3.001168e+00 2.146393e+00 2.850439e+00 3.483705e-01 4.006528e-01 3.956763e-01 5.086325e-01 5.292617e-01 1.130731e+00 1.013890e+00 7.067227e-01 8.135147e-01 9.671551e-01 5.537781e-01 4.705396e-01 3.548444e-01
<GCONST> 1.272073e+02
<STATE> 4
<MEAN> 39
 -1.103092e+00 5.512052e+00 5.489449e+00 -1.055097e+00 9.912012e-01 -1.147004e+01 1.506329e+00 6.906907e+00 -2.459887e+00 -1.432022e+01 -2.894568e+00 7.333856e-01 5.926532e+01 -5.555352e-01 4.941294e-01 -7.040750e-01 7.926823e-01 7.346653e-01 2.673096e+00 4.521875e-01 -9.426721e-01 3.047777e-01 1.947812e+00 -2.354699e-01 -1.863472e-02 -1.920344e+00 -2.581655e-01 -2.846857e-01 4.839889e-02 5.732013e-02 1.457972e-01 1.200547e-01 -1.253901e-02 -1.502526e-01 -4.443290e-02 1.094990e-01 2.139411e-01 1.255516e-01 8.279349e-02
<VARIANCE> 39
 2.580679e+01 3.017788e+01 3.670329e+01 3.731093e+01 6.672462e+01 1.058602e+02 6.149905e+01 4.622054e+01 5.961111e+01 7.735958e+01 3.943454e+01 2.653727e+01 7.873351e+01 2.533239e+00 2.926748e+00 2.764919e+00 2.978741e+00 4.349667e+00 6.479798e+00 5.550103e+00 4.357126e+00 4.580995e+00 5.585017e+00 3.213686e+00 2.688426e+00 4.029597e+00 4.104618e-01 4.971227e-01 4.587493e-01 5.382648e-01 5.906963e-01 1.277979e+00 9.054590e-01 7.431161e-01 7.585723e-01 9.060963e-01 6.008289e-01 4.307861e-01 7.940574e-01
<GCONST> 1.339336e+02
<TRANSP> 5
 0.000000e+00 1.000000e+00 0.000000e+00 0.000000e+00 0.000000e+00
 0.000000e+00 4.867632e-01 5.132368e-01 0.000000e+00 0.000000e+00
 0.000000e+00 0.000000e+00 5.207161e-01 4.792839e-01 0.000000e+00
 0.000000e+00 0.000000e+00 0.000000e+00 4.738233e-01 5.261767e-01
 0.000000e+00 0.000000e+00 0.000000e+00 0.000000e+00 0.000000e+00
<ENDHMM>
~h "P"
<BEGINHMM>
<NUMSTATES> 5
<STATE> 2
<MEAN> 39
 -7.496702e+00 6.509910e+00 1.228637e+00 4.452446e+00 2.179709e+00 3.194324e-03 2.250697e+00 3.801816e+00 -1.170792e+00 -2.498446e+00 1.590129e+00 3.425779e+00 4.512123e+01 -1.156650e+00 1.037316e-01 -2.407990e-01 -1.559920e-01 -1.673029e-01 6.527234e-01 3.463229e-01 -4.655334e-01 5.929240e-01 9.644425e-01 -1.034925e-01 2.085020e-02 -9.268290e-01 7.998195e-02 -3.982204e-01 1.271565e-01 -3.088375e-01 2.503553e-01 -3.481708e-01 7.870524e-02 -1.282261e-01 -6.730244e-02 -4.609969e-01 -1.976219e-02 -3.930517e-03 9.788416e-01
<VARIANCE> 39
 4.092862e+01 2.861976e+01 2.509266e+01 2.948942e+01 4.104906e+01 5.483974e+01 2.806539e+01 3.819009e+01 3.567207e+01 4.199902e+01 2.342229e+01 2.286978e+01 3.206213e+01 1.915443e+00 2.352423e+00 2.073585e+00 2.716137e+00 2.512863e+00 2.853112e+00 2.957163e+00 2.899126e+00 2.302509e+00 3.325868e+00 1.821364e+00 1.705675e+00 4.790062e+00 4.619093e-01 4.225863e-01 3.871656e-01 4.754907e-01 5.245600e-01 7.389045e-01 6.096104e-01 6.397251e-01 4.431593e-01 5.629908e-01 3.756983e-01 3.446434e-01 7.316875e-01
<GCONST> 1.202370e+02
<STATE> 3
<MEAN> 39
 -1.066752e+01 4.666301e+00 1.905242e+00 1.794590e+00 2.846850e+00 -3.886802e-01 4.058558e+00 6.481972e-01 6.964648e-01 -1.713017e+00 2.641136e-01 2.997264e+00 4.836676e+01 2.595321e-01 -1.331764e+00 2.329978e-01 -1.186308e+00 7.426875e-01 -7.997121e-01 9.846544e-01 -5.579649e-01 2.986912e-01 -1.211429e+00 -2.301537e-01 4.906661e-02 3.846340e+00 1.182069e+00 -1.293104e-01 8.061165e-02 5.930307e-02 -2.188258e-01 -1.317616e+00 -4.313521e-01 6.538372e-01 -3.279444e-01 -1.106105e+00 1.983503e-01 -4.677653e-02 1.178549e+00
<VARIANCE> 39
 2.365144e+01 2.665868e+01 1.864055e+01 2.717332e+01 3.757851e+01 4.124492e+01 2.479966e+01 3.440269e+01 2.612860e+01 2.543989e+01 1.901763e+01 1.813684e+01 4.609087e+01 5.634381e+00 3.711240e+00 3.142058e+00 3.549902e+00 6.724915e+00 1.165454e+01 4.690165e+00 6.002554e+00 4.126439e+00 4.789699e+00 2.737592e+00 2.537132e+00 5.572486e+00 5.655500e-01 6.859579e-01 6.603978e-01 6.727185e-01 1.203923e+00 1.666372e+00 1.109259e+00 1.037779e+00 7.208866e-01 6.817304e-01 5.469743e-01 4.197090e-01 7.626585e-01
<GCONST> 1.310365e+02
<STATE> 4
<MEAN> 39
 -6.145467e+00 1.833999e+00 2.039656e+00 -3.965427e-01 2.944151e+00 -5.536928e+00 5.934798e+00 2.123227e+00 8.023170e-01 -6.983392e+00 4.521372e-01 2.819804e+00 5.994208e+01 2.903805e+00 -6.933345e-01 2.299034e-01 -6.801248e-01 -6.557670e-01 -4.112587e+00 -9.085062e-01 1.503419e+00 -4.365864e-01 -3.485397e+00 3.012017e-01 -5.673522e-02 4.340861e+00 4.081662e-01 2.053823e-01 -4.934594e-03 2.518767e-01 -2.805830e-01 -6.564525e-01 -7.729403e-01 4.853115e-01 -3.191180e-01 -4.794003e-01 2.031154e-01 1.485241e-02 -4.498973e-01
<VARIANCE> 39
 4.566063e+01 2.921003e+01 2.681269e+01 2.184306e+01 6.905054e+01 1.452072e+02 3.946984e+01 5.627729e+01 3.066015e+01 4.184639e+01 2.342629e+01 1.658306e+01 4.287046e+01 4.735308e+00 4.092076e+00 5.238862e+00 4.593378e+00 1.121068e+01 1.815404e+01 8.777524e+00 8.677043e+00 5.578202e+00 6.887070e+00 4.262509e+00 2.868587e+00 5.960896e+00 1.153929e+00 7.992530e-01 6.596295e-01 6.004485e-01 1.162046e+00 2.682024e+00 1.356121e+00 1.284342e+00 7.431990e-01 1.186568e+00 6.411355e-01 4.969279e-01 9.471160e-01
<GCONST> 1.421335e+02
<TRANSP> 5
 0.000000e+00 1.000000e+00 0.000000e+00 0.000000e+00 0.000000e+00
 0.000000e+00 7.774351e-01 2.225649e-01 0.000000e+00 0.000000e+00
 0.000000e+00 0.000000e+00 4.396888e-01 5.603111e-01 0.000000e+00
 0.000000e+00 0.000000e+00 0.000000e+00 4.788487e-01 5.211514e-01
 0.000000e+00 0.000000e+00 0.000000e+00 0.000000e+00 0.000000e+00
<ENDHMM>
~h "R"
<BEGINHMM>
<NUMSTATES> 5
<STATE> 2
<MEAN> 39
 -8.604829e-01 8.528197e-01 6.403609e-01 -1.166279e+00 9.791734e+00 -5.024901e+00 -5.042246e-01 6.639723e-01 -6.589182e+00 -1.588454e+01 -3.925876e-01 5.911781e+00 6.325754e+01 4.195336e-01 5.346359e-01 -5.344585e-01 -1.066559e-01 1.405650e+00 8.357653e-01 -5.567299e-01 -1.912428e-01 -6.087897e-01 -6.029621e-01 -1.928174e-01 4.971158e-01 -4.814447e-01 -1.690706e-01 -1.383762e-01 2.634769e-01 9.457613e-02 -2.661736e-01 -7.210024e-01 -2.351445e-02 2.345461e-01 -1.367090e-01 1.015271e-01 4.222082e-01 -1.278009e-01 1.644388e-01
<VARIANCE> 39
 3.430810e+01 2.137933e+01 2.759459e+01 4.720250e+01 4.797263e+01 7.034979e+01 5.974325e+01 5.061418e+01 5.944284e+01 7.112035e+01 5.094675e+01 2.843400e+01 5.117634e+01 3.178103e+00 2.498137e+00 2.432836e+00 3.199304e+00 4.631999e+00 1.004677e+01 7.574710e+00 4.684587e+00 5.010935e+00 7.667529e+00 4.179046e+00 2.879042e+00 4.740316e+00 5.274051e-01 4.242907e-01 4.894631e-01 6.182179e-01 6.881574e-01 1.330219e+00 1.163404e+00 7.752017e-01 8.222955e-01 9.973376e-01 7.546115e-01 4.742291e-01 7.790598e-01
<GCONST> 1.360142e+02
<STATE> 3
<MEAN> 39
 -1.586220e-01 1.430727e+00 -5.270823e-02 -1.545853e+00 1.203476e+01 -5.435934e+00 -2.124891e+00 8.542579e-01 -8.327008e+00 -1.755883e+01 2.428030e-01 6.691272e+00 6.336572e+01 -7.723523e-03 2.320830e-01 -6.652140e-03 2.263365e-01 5.393592e-01 -5.642672e-01 -3.076485e-01 2.760788e-01 -6.590729e-01 -1.480305e-01 5.140637e-01 1.692121e-01 -2.878860e-01 -3.313207e-01 -2.246930e-01 3.851900e-01 2.399916e-01 -6.186799e-01 -5.568522e-01 3.037933e-01 1.162032e-01 1.373799e-01 4.973719e-01 2.806390e-01 -3.265588e-01 7.304675e-02
<VARIANCE> 39
 2.569860e+01 2.106964e+01 2.743111e+01 5.133649e+01 5.003950e+01 6.329587e+01 6.413860e+01 4.981799e+01 6.481303e+01 8.475677e+01 4.899944e+01 3.031069e+01 4.523316e+01 2.729960e+00 2.758112e+00 2.586959e+00 3.422321e+00 5.253718e+00 9.953447e+00 7.058678e+00 5.165556e+00 6.281356e+00 7.753342e+00 4.984329e+00 2.985097e+00 5.118292e+00 5.182512e-01 4.767353e-01 5.016401e-01 6.107871e-01 7.574443e-01 1.477341e+00 1.244966e+00 7.915255e-01 9.038213e-01 1.176662e+00 7.187954e-01 5.264700e-01 8.191079e-01
<GCONST> 1.374563e+02
<STATE> 4
<MEAN> 39
 -1.760859e+00 1.885555e+00 4.406166e-01 -6.069493e-01 1.046248e+01 -7.012626e+00 -1.751891e+00 1.295686e+00 -8.832182e+00 -1.536847e+01 1.532169e+00 6.598521e+00 6.077553e+01 -5.787297e-01 -4.518650e-02 5.992793e-01 6.996099e-01 -5.802597e-01 -5.945563e-01 5.940661e-01 1.952349e-01 7.545181e-02 1.041082e+00 4.770541e-01 -5.507416e-01 -4.328537e-01 -2.085928e-01 -2.116767e-01 2.718857e-01 1.064597e-01 -4.108804e-01 -7.378536e-02 2.904703e-01 -3.293556e-02 2.794019e-01 3.456079e-01 1.727896e-02 -2.845669e-01 1.325394e-01
<VARIANCE> 39
 3.474247e+01 2.911216e+01 3.144348e+01 5.071483e+01 7.584398e+01 7.937562e+01 6.964340e+01 6.058834e+01 7.621720e+01 1.034132e+02 5.334394e+01 3.456738e+01 8.219014e+01 3.388292e+00 3.318407e+00 3.354679e+00 3.389168e+00 5.850330e+00 8.576827e+00 6.099319e+00 5.185186e+00 6.548486e+00 6.341638e+00 4.458401e+00 2.988178e+00 6.230451e+00 5.150996e-01 5.315661e-01 5.163615e-01 6.000658e-01 9.154099e-01 1.367331e+00 1.297661e+00 7.957069e-01 8.997799e-01 1.323544e+00 7.276213e-01 5.624005e-01 9.031929e-01
<GCONST> 1.412566e+02
<TRANSP> 5
 0.000000e+00 1.000000e+00 0.000000e+00 0.000000e+00 0.000000e+00
 0.000000e+00 3.026602e-01 6.973398e-01 0.000000e+00 0.000000e+00
 0.000000e+00 0.000000e+00 2.297288e-01 7.702712e-01 0.000000e+00
 0.000000e+00 0.000000e+00 0.000000e+00 3.185197e-01 6.814803e-01
 0.000000e+00 0.000000e+00 0.000000e+00 0.000000e+00 0.000000e+00
<ENDHMM>
~h "S"
<BEGINHMM>
<NUMSTATES> 5
<STATE> 2
<MEAN> 39
 -1.322739e+01 1.451443e+00 1.331913e+01 -3.485413e+00 5.264352e+00 -6.119878e-01 7.789011e+00 -4.638018e+00 -6.107809e+00 -5.745023e+00 1.025777e+00 1.226679e+00 6.310532e+01 -5.456851e+00 -3.945071e-01 2.689670e+00 -2.238962e+00 -3.791053e-01 2.602691e+00 1.433162e+00 -1.436597e+00 1.406332e+00 2.377492e+00 3.058833e-01 2.196552e-01 1.048060e+00 -6.091316e-01 -3.566211e-01 -2.874143e-01 -2.917325e-01 -1.007195e-01 -5.394006e-01 -5.271933e-01 2.683491e-01 1.129312e-01 -5.804972e-02 3.318998e-01 1.015027e-02 1.704292e-01
<VARIANCE> 39
 6.506749e+01 2.420459e+01 5.091082e+01 3.758339e+01 5.664535e+01 6.637990e+01 6.017949e+01 7.779453e+01 5.186090e+01 5.640953e+01 3.159963e+01 2.807683e+01 1.026851e+02 6.321413e+00 4.099450e+00 3.213326e+00 3.620049e+00 4.833096e+00 6.088289e+00 6.129941e+00 5.932999e+00 5.125673e+00 6.733014e+00 3.836638e+00 2.536839e+00 3.331726e+00 1.153210e+00 4.799126e-01 6.890938e-01 5.351835e-01 5.318993e-01 8.957214e-01 7.328898e-01 7.691810e-01 7.699625e-01 8.688769e-01 5.407681e-01 4.381063e-01 4.898592e-01
<GCONST> 1.369254e+02
<STATE> 3
<MEAN> 39
 -3.144453e+01 -1.452212e+00 1.741729e+01 -1.219193e+01 3.985149e+00 2.002399e+00 7.330682e+00 -6.372569e+00 -2.307427e+00 -1.241016e+00 3.582954e+00 1.103100e+00 6.677039e+01 -1.765873e+00 -3.043301e-01 -2.217963e-01 -8.666250e-01 -1.453636e-02 -3.338031e-02 -1.791943e-01 5.930834e-02 5.767989e-01 5.502317e-01 1.265969e-01 1.413228e-01 -2.748689e-01 1.312567e+00 6.326903e-02 -5.682163e-01 6.202149e-01 2.005670e-01 -2.698756e-01 -1.260356e-01 1.711065e-01 -1.727493e-01 -3.106491e-01 -1.078449e-01 9.089506e-02 -4.086899e-01
<VARIANCE> 39
 2.339314e+01 3.033456e+01 2.626961e+01 2.814552e+01 3.018062e+01 2.995518e+01 4.109027e+01 2.954685e+01 3.172332e+01 2.468602e+01 2.397600e+01 2.048207e+01 2.096823e+01 7.701226e+00 2.045639e+00 2.853990e+00 2.999914e+00 1.910516e+00 1.941884e+00 2.056983e+00 2.779838e+00 2.307191e+00 2.295485e+00 1.856257e+00 1.639066e+00 3.589595e+00 6.298650e-01 4.047810e-01 4.745520e-01 3.439342e-01 3.679225e-01 5.613267e-01 5.303156e-01 5.354198e-01 5.068057e-01 5.498997e-01 3.948108e-01 3.304625e-01 3.361458e-01
<GCONST> 1.162559e+02
<STATE> 4
<MEAN> 39
 -2.464404e+01 -3.548504e+00 1.140471e+01 -7.787749e+00 6.278012e+00 1.466814e+00 6.533125e+00 -5.078028e+00 -1.276423e+00 -1.615170e+00 3.256474e+00 3.852367e+00 6.206224e+01 3.471200e+00 -6.678703e-02 -1.328125e+00 1.747395e+00 5.874969e-01 -5.098350e-01 -6.746740e-01 3.332365e-01 -5.548761e-01 -1.027408e+00 -1.354568e-01 1.860274e-01 -6.833745e-01 4.808340e-01 8.402817e-02 -6.396263e-02 1.488955e-01 5.851675e-03 -3.411374e-01 -2.251820e-01 1.151695e-01 -3.160710e-01 -3.810076e-01 5.403515e-02 -1.394446e-01 4.198460e-01
<VARIANCE> 39
 6.765076e+01 5.242625e+01 4.306835e+01 4.796367e+01 3.525861e+01 3.609986e+01 4.493433e+01 4.479797e+01 3.582495e+01 3.894273e+01 2.690097e+01 2.491923e+01 6.633033e+01 8.770305e+00 2.891605e+00 4.235633e+00 3.626071e+00 3.494678e+00 5.486963e+00 4.281255e+00 4.342768e+00 4.717485e+00 4.699862e+00 2.749128e+00 2.537700e+00 5.283477e+00 1.377988e+00 5.842360e-01 7.454982e-01 7.247907e-01 5.500140e-01 9.284428e-01 8.150043e-01 8.299878e-01 7.379968e-01 6.872759e-01 5.233712e-01 4.395745e-01 9.903102e-01
<GCONST> 1.346776e+02
<TRANSP> 5
 0.000000e+00 1.000000e+00 0.000000e+00 0.000000e+00 0.000000e+00
 0.000000e+00 6.061836e-01 3.938165e-01 0.000000e+00 0.000000e+00
 0.000000e+00 0.000000e+00 8.079265e-01 1.920735e-01 0.000000e+00
 0.000000e+00 0.000000e+00 0.000000e+00 7.780935e-01 2.219065e-01
 0.000000e+00 0.000000e+00 0.000000e+00 0.000000e+00 0.000000e+00
<ENDHMM>
~h "T"
<BEGINHMM>
<NUMSTATES> 5
<STATE> 2
<MEAN> 39
 -9.063764e+00 5.766086e+00 3.849547e+00 2.750284e+00 1.995545e+00 -4.600678e-01 3.962348e+00 1.743217e+00 -1.776928e+00 -1.761353e+00 8.688998e-01 1.826990e+00 4.754184e+01 -1.078682e+00 -3.960809e-01 -6.998611e-01 3.669722e-02 -2.506126e-01 6.256314e-01 7.454433e-02 -2.285936e-01 6.605404e-01 1.108493e+00 8.014790e-02 3.190883e-01 -8.168028e-01 -2.783892e-02 -6.086837e-01 1.629685e-01 -3.330355e-01 3.175322e-01 -2.649076e-01 2.811894e-02 -4.214238e-01 -2.448405e-01 -5.634161e-01 7.043816e-02 1.041307e-01 1.351796e+00
<VARIANCE> 39
 3.676019e+01 2.665164e+01 3.437390e+01 3.812627e+01 6.051199e+01 5.938023e+01 3.802086e+01 5.318303e+01 3.622886e+01 4.380606e+01 2.731896e+01 2.612664e+01 5.291637e+01 2.955679e+00 3.752925e+00 3.127035e+00 3.315783e+00 3.516756e+00 3.044087e+00 3.757584e+00 4.578400e+00 2.648032e+00 3.518872e+00 2.084232e+00 2.042574e+00 8.435624e+00 6.170289e-01 6.543978e-01 7.365019e-01 6.133336e-01 7.361627e-01 6.686311e-01 8.698654e-01 1.043954e+00 6.150574e-01 7.012610e-01 4.549048e-01 4.363389e-01 1.662421e+00
<GCONST> 1.307677e+02
<STATE> 3
<MEAN> 39
 -1.308540e+01 1.691276e+00 3.084248e+00 1.310542e+00 2.521596e+00 2.279622e-02 5.012196e+00 -1.565330e+00 3.713148e-02 -3.473357e-01 9.222470e-01 2.974112e+00 5.146046e+01 -1.045746e+00 -2.281147e+00 6.381040e-01 -1.091904e+00 9.315419e-01 -1.850032e-02 6.342614e-01 -2.353975e+00 -6.246702e-01 -9.237807e-01 8.657552e-02 6.741431e-01 4.800016e+00 1.058844e+00 1.382596e-02 5.000897e-01 -2.210886e-02 4.288952e-01 -8.746781e-01 -3.717842e-01 1.329674e-01 -9.360932e-01 -1.269432e+00 1.003225e-01 -1.637020e-01 1.140411e+00
<VARIANCE> 39
 3.087590e+01 4.074203e+01 2.142562e+01 3.341883e+01 4.764701e+01 4.477750e+01 3.605581e+01 5.558909e+01 3.137116e+01 3.334470e+01 2.349635e+01 2.324940e+01 9.307001e+01 5.041143e+00 3.190756e+00 3.525621e+00 4.048984e+00 6.435523e+00 6.374636e+00 5.237414e+00 6.540283e+00 5.074941e+00 5.915147e+00 3.216994e+00 3.285051e+00 7.884957e+00 6.568504e-01 7.050094e-01 6.337501e-01 8.202159e-01 1.092061e+00 1.023647e+00 1.067276e+00 1.275275e+00 8.089163e-01 9.319727e-01 6.385621e-01 5.597327e-01 1.563700e+00
<GCONST> 1.370863e+02
<STATE> 4
<MEAN> 39
 -1.180836e+01 -2.020437e+00 6.233099e+00 -1.093741e+00 5.427868e+00 -1.763733e+00 5.437307e+00 -6.653794e+00 -4.769734e+00 -6.372349e+00 1.062263e+00 4.087352e+00 6.551740e+01 2.567784e+00 -7.952865e-01 8.819469e-01 -4.957971e-01 1.220615e+00 -2.839910e+00 -1.023983e+00 1.892976e-01 -2.613523e+00 -3.919837e+00 3.741352e-01 -8.262182e-02 4.028223e+00 9.358391e-01 5.754408e-01 -2.330213e-01 3.584207e-01 -1.275257e-01 -8.374676e-01 -5.292091e-01 1.194855e+00 -1.621079e-01 -3.735073e-01 1.531004e-01 -3.497173e-01 -1.154348e+00
<VARIANCE> 39
 3.845721e+01 2.163932e+01 1.941214e+01 2.488008e+01 3.867463e+01 4.651848e+01 4.825624e+01 4.820814e+01 4.521440e+01 6.009693e+01 2.556860e+01 2.181907e+01 4.161180e+01 5.206833e+00 3.315984e+00 3.433382e+00 4.445317e+00 8.639215e+00 9.114178e+00 7.612878e+00 9.333357e+00 5.665284e+00 8.693534e+00 4.641024e+00 3.849989e+00 9.137303e+00 9.050769e-01 5.468172e-01 5.462817e-01 7.010379e-01 8.802324e-01 1.266996e+00 1.178514e+00 1.071690e+00 1.320092e+00 1.485423e+00 6.993530e-01 5.271621e-01 1.050354e+00
<GCONST> 1.393883e+02
<TRANSP> 5
 0.000000e+00 1.000000e+00 0.000000e+00 0.000000e+00 0.000000e+00
 0.000000e+00 6.914725e-01 3.085275e-01 0.000000e+00 0.000000e+00
 0.000000e+00 0.000000e+00 3.524746e-01 6.475254e-01 0.000000e+00
 0.000000e+00 0.000000e+00 0.000000e+00 5.037650e-01 4.962350e-01
 0.000000e+00 0.000000e+00 0.000000e+00 0.000000e+00 0.000000e+00
<ENDHMM>
~h "U"
<BEGINHMM>
<NUMSTATES> 5
<STATE> 2
<MEAN> 39
 -3.411155e+00 2.454926e+00 9.455353e+00 -1.141832e+00 8.304523e+00 -3.631736e+00 1.342266e+00 2.247889e+00 -4.075624e+00 -1.612675e+01 -3.365060e+00 1.682451e+00 6.199272e+01 2.021436e+00 1.153326e+00 1.378853e+00 -3.891984e-01 -3.183310e-02 -1.969070e+00 -1.993615e+00 1.441576e+00 5.793095e-01 -2.503481e+00 -1.431654e+00 -2.970564e-01 7.621785e-01 -2.913162e-01 -1.084646e-01 -2.729684e-01 2.051784e-01 -2.091739e-01 8.804257e-03 -1.899514e-01 -9.588027e-03 4.743168e-01 4.938319e-01 1.188571e-01 2.071850e-02 -2.493008e-01
<VARIANCE> 39
 3.087296e+01 3.503944e+01 3.185600e+01 3.255407e+01 5.067331e+01 1.017416e+02 6.723640e+01 5.408176e+01 7.227288e+01 7.732005e+01 3.502053e+01 2.603472e+01 6.453602e+01 4.814458e+00 4.725612e+00 3.881425e+00 4.123279e+00 3.915164e+00 7.300456e+00 8.062811e+00 5.424598e+00 4.992612e+00 7.498180e+00 3.687175e+00 3.160325e+00 3.667665e+00 8.255978e-01 6.569713e-01 6.896449e-01 5.617582e-01 6.681175e-01 1.468716e+00 1.153572e+00 8.924244e-01 8.126522e-01 1.336980e+00 5.740482e-01 4.953414e-01 8.679522e-01
<GCONST> 1.395053e+02
<STATE> 3
<MEAN> 39
 -2.612308e-01 3.074186e+00 1.158721e+01 -2.191920e+00 7.187042e+00 -9.550518e+00 -3.185849e+00 5.827396e+00 -1.374423e+00 -2.157106e+01 -5.960521e+00 1.591901e+00 6.511637e+01 5.857505e-01 4.357993e-01 7.520547e-02 5.557062e-03 -1.793277e-01 -6.143507e-01 -9.477887e-01 5.592172e-01 1.103621e+00 -3.800123e-01 -7.712932e-01 -2.388449e-01 2.037930e-02 -6.115928e-01 -1.326331e-01 -5.917034e-01 3.307421e-01 6.220121e-02 1.007383e+00 6.886691e-01 -6.005960e-01 1.808534e-03 1.229227e+00 3.979871e-01 -4.183239e-02 -5.564393e-01
<VARIANCE> 39
 1.075196e+01 2.376334e+01 3.048582e+01 3.092408e+01 5.423709e+01 7.513937e+01 5.733639e+01 5.000150e+01 8.859959e+01 5.611217e+01 4.235530e+01 2.855429e+01 1.980519e+01 2.072761e+00 2.726261e+00 2.559349e+00 2.476419e+00 3.631910e+00 7.436058e+00 6.982225e+00 5.196373e+00 4.030500e+00 6.866931e+00 3.464682e+00 2.464022e+00 3.035131e+00 4.756535e-01 5.477077e-01 5.671842e-01 5.379139e-01 6.863235e-01 1.091385e+00 1.032438e+00 8.142025e-01 9.725251e-01 1.126195e+00 6.310725e-01 5.494488e-01 3.721280e-01
<GCONST> 1.310278e+02
<STATE> 4
<MEAN> 39
 -3.425697e-01 4.957603e+00 9.816513e+00 -1.787165e+00 6.835519e+00 -6.050942e+00 -2.670061e+00 4.207206e+00 1.427527e+00 -1.755820e+01 -7.729427e+00 5.186462e-01 6.257968e+01 -3.582980e-01 4.577717e-01 -9.668942e-01 8.282053e-01 2.186810e-01 1.538693e+00 8.512773e-01 -6.279263e-01 3.336636e-02 1.808151e+00 3.973524e-01 -2.226004e-01 -1.333516e+00 -3.368486e-01 -1.682433e-01 -1.370512e-01 2.091994e-01 1.821495e-02 2.568214e-01 2.555550e-01 -9.827861e-02 -1.888418e-01 2.954238e-01 3.183950e-01 9.901806e-02 -1.965603e-01
<VARIANCE> 39
 1.617073e+01 2.664612e+01 3.525595e+01 3.865587e+01 5.896074e+01 8.347301e+01 7.158430e+01 5.391617e+01 8.217358e+01 6.785647e+01 5.417150e+01 2.921042e+01 3.942657e+01 2.276696e+00 2.792833e+00 2.860866e+00 3.315622e+00 4.143692e+00 6.466409e+00 5.757549e+00 4.430525e+00 4.575409e+00 6.328015e+00 3.584969e+00 2.716954e+00 3.530642e+00 3.718427e-01 5.379725e-01 4.696921e-01 5.519016e-01 5.991466e-01 1.316621e+00 1.179714e+00 8.680341e-01 8.866490e-01 1.318979e+00 6.843091e-01 5.281544e-01 6.485710e-01
<GCONST> 1.344508e+02
<TRANSP> 5
 0.000000e+00 1.000000e+00 0.000000e+00 0.000000e+00 0.000000e+00
 0.000000e+00 3.513172e-01 6.486828e-01 0.000000e+00 0.000000e+00
 0.000000e+00 0.000000e+00 4.589996e-01 5.410004e-01 0.000000e+00
 0.000000e+00 0.000000e+00 0.000000e+00 6.252854e-01 3.747146e-01
 0.000000e+00 0.000000e+00 0.000000e+00 0.000000e+00 0.000000e+00
<ENDHMM>
~h "Y"
<BEGINHMM>
<NUMSTATES> 5
<STATE> 2
<MEAN> 39
 -8.009477e-01 -6.518532e+00 2.100487e+00 6.330268e+00 1.030327e+01 -1.979797e+01 -6.066203e-01 -2.113934e+00 -1.563064e+01 -8.062378e+00 1.060486e+01 2.912395e+00 6.972974e+01 -2.677018e-01 -1.629251e-01 5.120138e-01 3.777889e-01 9.137895e-01 -1.689433e-01 -9.278107e-01 -1.084198e+00 -1.023041e+00 1.024491e+00 3.749796e-01 -3.760835e-01 -9.010007e-02 -3.866009e-02 2.510697e-01 1.253580e-01 -9.406962e-02 -9.216314e-02 1.978664e-01 7.732903e-02 1.057356e-01 3.186762e-01 -6.714202e-02 -3.422702e-01 -1.207826e-01 -1.972235e-01
<VARIANCE> 39
 1.229126e+01 1.645370e+01 6.213245e+01 5.550719e+01 5.933219e+01 4.229846e+01 8.808977e+01 6.115635e+01 6.091104e+01 7.714767e+01 4.545685e+01 4.565175e+01 1.643208e+01 2.763959e-01 1.022919e+00 1.693601e+00 1.706125e+00 2.254823e+00 1.717684e+00 2.566987e+00 2.596097e+00 2.867661e+00 2.151306e+00 2.641821e+00 1.992421e+00 4.447227e-01 5.028668e-02 1.594028e-01 2.367520e-01 2.071503e-01 2.744431e-01 3.934241e-01 4.004726e-01 4.189058e-01 5.110452e-01 3.955296e-01 3.988272e-01 2.975010e-01 7.900951e-02
<GCONST> 1.080419e+02
<STATE> 3
<MEAN> 39
 -2.569650e+00 -5.084521e+00 5.914625e+00 7.302320e+00 1.325614e+01 -1.953749e+01 -4.652153e+00 -5.672294e+00 -1.636299e+01 -5.091568e+00 8.042082e+00 -2.890104e-01 6.770059e+01 -1.789146e-01 8.578635e-01 2.230736e-01 -2.683924e-01 -3.439927e-02 9.088791e-01 -9.249187e-02 -3.787963e-01 4.211893e-01 2.670076e-01 -7.094040e-01 -1.796175e-01 -1.001856e+00 1.881642e-02 2.923330e-01 -1.666639e-01 -1.045519e-01 -2.874641e-01 4.947285e-01 3.260234e-01 2.314685e-01 3.709929e-01 -1.102559e-01 -1.556821e-01 1.822088e-01 -3.961949e-01
<VARIANCE> 39
 1.056323e+01 1.670801e+01 3.352610e+01 4.903635e+01 4.174316e+01 4.522166e+01 7.037173e+01 6.289075e+01 5.603289e+01 7.677935e+01 3.815081e+01 3.670107e+01 2.504728e+01 5.323908e-01 1.295083e+00 2.169771e+00 2.088540e+00 2.116255e+00 2.582952e+00 2.669932e+00 2.197821e+00 2.852151e+00 2.123373e+00 2.888389e+00 2.348284e+00 1.752573e+00 9.475502e-02 2.041825e-01 2.404674e-01 2.569848e-01 3.526261e-01 4.250751e-01 4.307687e-01 4.077140e-01 5.108822e-01 3.844105e-01 4.346299e-01 3.375931e-01 1.739361e-01
<GCONST> 1.122474e+02
<STATE> 4
<MEAN> 39
 -8.291190e+00 -4.561557e-01 2.156527e+00 5.464046e+00 7.834019e+00 -5.992039e+00 -1.406023e+00 -1.576857e+00 -7.019876e+00 -8.707821e-01 4.879919e+00 2.717283e+00 5.193331e+01 -3.753037e-01 5.233693e-01 -2.121358e-01 -1.463290e-01 -3.319049e-01 1.223302e+00 4.297027e-01 3.080341e-01 7.253383e-01 1.128794e-01 -2.356442e-01 2.061536e-01 -1.084958e+00 -1.253066e-02 -2.823452e-03 -9.572435e-03 -1.044047e-02 -5.884375e-02 7.456324e-02 1.213786e-01 9.700700e-02 1.012466e-01 -3.515954e-02 -1.681781e-02 1.834437e-02 6.922697e-04
<VARIANCE> 39
 3.690307e+01 4.550467e+01 3.525994e+01 3.210473e+01 4.214993e+01 1.116792e+02 5.419112e+01 5.761606e+01 7.148534e+01 5.869521e+01 3.105681e+01 3.035456e+01 1.290402e+02 1.043980e+00 2.297963e+00 1.947628e+00 1.770660e+00 2.209936e+00 3.205725e+00 2.493354e+00 2.399225e+00 3.001933e+00 1.998545e+00 2.333296e+00 1.816435e+00 2.621383e+00 1.766973e-01 3.364033e-01 3.276281e-01 3.100289e-01 4.235055e-01 4.764248e-01 4.327364e-01 4.391652e-01 4.756134e-01 3.574480e-01 4.118676e-01 3.348469e-01 3.542961e-01
<GCONST> 1.195867e+02
<TRANSP> 5
 0.000000e+00 1.000000e+00 0.000000e+00 0.000000e+00 0.000000e+00
 0.000000e+00 7.498090e-01 2.501909e-01 0.000000e+00 0.000000e+00
 0.000000e+00 0.000000e+00 5.499557e-01 4.500444e-01 0.000000e+00
 0.000000e+00 0.000000e+00 0.000000e+00 7.217878e-01 2.782122e-01
 0.000000e+00 0.000000e+00 0.000000e+00 0.000000e+00 0.000000e+00
<ENDHMM>
~h "AH"
<BEGINHMM>
<NUMSTATES> 5
<STATE> 2
<MEAN> 39
 -6.241840e-02 -4.427469e+00 -1.190393e+00 -2.147769e+00 -5.956000e-01 -1.828589e+01 7.343284e+00 6.807286e+00 -8.709723e+00 -1.363363e+01 9.084888e+00 6.763632e+00 6.967012e+01 9.369240e-01 -9.449281e-01 -1.212434e+00 -4.827119e-01 -1.388544e+00 -2.241980e+00 1.297439e+00 1.043440e+00 -5.894782e-01 -5.695983e-01 1.227532e+00 4.036261e-01 1.468528e+00 -4.122685e-01 2.444761e-01 3.253430e-01 2.499073e-01 3.395464e-01 9.818764e-01 -6.368391e-02 -4.014170e-01 3.378001e-01 4.565457e-01 -5.385029e-01 -3.145654e-01 -6.883548e-01
<VARIANCE> 39
 2.355127e+01 2.059285e+01 2.595491e+01 3.227317e+01 6.312886e+01 7.964005e+01 8.595389e+01 8.613826e+01 7.213932e+01 6.825407e+01 3.595035e+01 2.811836e+01 4.918458e+01 2.617626e+00 2.515306e+00 2.118519e+00 2.340339e+00 3.399928e+00 6.660326e+00 5.569334e+00 4.353305e+00 4.202082e+00 4.852703e+00 3.813136e+00 2.774147e+00 3.654184e+00 5.410078e-01 5.125322e-01 4.761621e-01 4.318145e-01 6.148200e-01 1.203950e+00 8.851945e-01 7.432073e-01 8.107927e-01 8.549848e-01 6.766795e-01 5.678769e-01 6.427299e-01
<GCONST> 1.324550e+02
<STATE> 3
<MEAN> 39
 1.136016e+00 -5.724405e+00 -2.124021e+00 -2.419404e+00 -3.957990e+00 -2.084719e+01 1.126023e+01 7.947536e+00 -9.039376e+00 -1.353847e+01 9.476258e+00 6.565952e+00 7.148997e+01 3.967486e-04 5.816745e-01 2.464500e-01 1.305210e-01 2.060506e-01 5.365745e-01 -3.883312e-02 -4.429284e-01 -1.441156e-01 4.372614e-02 -4.303615e-01 -1.014250e-01 -5.715143e-01 -1.576353e-01 4.850128e-01 3.607399e-01 2.116740e-01 4.720843e-01 7.615595e-01 -4.830376e-01 -2.452173e-01 2.156680e-01 1.633099e-01 -4.938344e-01 -1.539753e-01 -6.710207e-01
<VARIANCE> 39
 1.004029e+01 1.816263e+01 2.138251e+01 2.670687e+01 6.047556e+01 4.840829e+01 8.422764e+01 7.818874e+01 5.529547e+01 5.069608e+01 2.922285e+01 2.490613e+01 1.733653e+01 5.680133e-01 1.498853e+00 1.271682e+00 1.419456e+00 2.758541e+00 2.964985e+00 3.231224e+00 3.351624e+00 2.851266e+00 2.589871e+00 2.424322e+00 1.838730e+00 1.384108e+00 2.047017e-01 2.607235e-01 2.738233e-01 2.926470e-01 3.696485e-01 6.771222e-01 5.932657e-01 5.709699e-01 6.080477e-01 5.869178e-01 4.879850e-01 3.846351e-01 2.595069e-01
<GCONST> 1.141448e+02
<STATE> 4
<MEAN> 39
 -1.426260e+00 -6.875417e-01 -8.757333e-01 -1.617356e+00 -9.382416e-01 -1.307161e+01 7.870401e+00 5.029513e+00 -8.267283e+00 -1.053768e+01 6.259348e+00 6.737333e+00 6.237274e+01 -4.397720e-01 1.253203e+00 5.492100e-01 4.732754e-01 8.900197e-01 1.971624e+00 -1.003548e+00 -3.137442e-01 7.459995e-01 7.658209e-01 -1.075768e+00 -3.646809e-01 -2.215952e+00 -2.077471e-01 -1.045183e-01 1.134706e-01 4.558250e-02 7.421365e-02 2.415258e-01 -7.529325e-02 2.814775e-02 2.281592e-01 2.406350e-01 -5.350468e-02 -1.297386e-01 -1.120469e-01
<VARIANCE> 39
 2.757964e+01 2.922357e+01 2.597931e+01 3.143065e+01 6.474355e+01 9.133083e+01 6.288285e+01 6.584580e+01 5.139004e+01 7.286481e+01 3.257685e+01 2.714710e+01 9.720142e+01 1.852333e+00 2.214483e+00 2.377902e+00 2.369191e+00 3.604698e+00 4.196372e+00 3.719159e+00 3.885980e+00 3.496353e+00 3.410132e+00 2.963285e+00 2.369221e+00 3.153511e+00 3.125606e-01 4.008946e-01 4.129419e-01 4.014153e-01 5.868692e-01 7.258028e-01 5.489756e-01 6.842069e-01 6.101128e-01 5.815328e-01 4.989328e-01 4.148104e-01 6.334164e-01
<GCONST> 1.270061e+02
<TRANSP> 5
 0.000000e+00 1.000000e+00 0.000000e+00 0.000000e+00 0.000000e+00
 0.000000e+00 5.789280e-01 4.210720e-01 0.000000e+00 0.000000e+00
 0.000000e+00 0.000000e+00 6.447322e-01 3.552678e-01 0.000000e+00
 0.000000e+00 0.000000e+00 0.000000e+00 6.170407e-01 3.829593e-01
 0.000000e+00 0.000000e+00 0.000000e+00 0.000000e+00 0.000000e+00
<ENDHMM>
~h "AX"
<BEGINHMM>
<NUMSTATES> 5
<STATE> 2
<MEAN> 39
 -1.610892e+00 2.511889e-01 5.583968e+00 -3.689523e+00 7.348581e+00 -6.351677e+00 3.015857e+00 -4.653896e-02 -5.328641e+00 -1.656469e+01 1.272052e+00 4.207215e+00 6.701706e+01 3.711119e+00 1.371775e+00 -4.096204e-01 -5.831771e-01 -2.272088e+00 -5.395578e+00 -1.173875e+00 3.690632e+00 -2.339667e-01 -3.254493e+00 1.842226e-01 -3.989928e-01 1.249213e+00 -7.075465e-01 -8.599575e-01 -3.619192e-01 2.434337e-01 1.060903e-02 -2.661764e-01 -1.827383e-01 8.152655e-03 3.189067e-01 5.305360e-01 3.895592e-01 -1.516296e-01 1.186747e-01
<VARIANCE> 39
 2.084190e+01 2.279746e+01 1.571570e+01 1.587713e+01 3.515266e+01 5.464967e+01 4.486613e+01 4.747775e+01 3.734578e+01 3.137262e+01 2.692593e+01 2.596473e+01 1.535005e+01 2.222935e+00 7.148189e+00 1.566786e+00 2.825083e+00 2.315585e+00 3.699679e+00 5.748979e+00 3.246427e+00 4.360222e+00 2.865207e+00 2.106717e+00 4.221111e+00 6.197703e-01 8.359809e-01 8.547701e-01 2.937805e-01 2.575999e-01 3.378879e-01 1.095859e+00 7.180158e-01 7.511587e-01 6.621853e-01 6.493157e-01 4.029241e-01 7.615806e-01 3.400242e-01
<GCONST> 1.208594e+02
<STATE> 3
<MEAN> 39
 2.672275e+00 -1.211802e+00 2.448409e+00 -4.563226e+00 3.578129e+00 -1.676142e+01 2.062221e+00 8.253423e+00 -4.729214e+00 -2.124917e+01 3.635776e+00 4.213090e+00 6.935152e+01 1.030507e+00 -2.787217e-01 -1.209737e+00 1.660591e-02 -1.254471e+00 -3.036031e+00 9.229640e-02 2.261542e+00 3.568197e-02 -5.761693e-01 9.897847e-01 -4.370492e-01 3.450856e-01 -9.327818e-01 -3.394451e-01 1.709916e-01 2.530897e-01 3.786149e-01 1.339075e+00 2.889113e-01 -1.080045e+00 -1.078713e-01 9.319022e-01 -2.096746e-02 9.054630e-02 -3.510104e-01
<VARIANCE> 39
 7.196152e+00 9.217793e+00 1.817450e+01 2.128908e+01 3.246508e+01 3.189435e+01 5.187063e+01 5.004286e+01 3.769530e+01 2.136084e+01 1.778640e+01 2.983936e+01 7.290790e+00 6.881068e-01 7.776029e-01 6.549650e-01 1.407808e+00 8.781100e-01 4.745806e+00 3.116359e+00 3.694862e+00 2.169705e+00 2.150994e+00 2.040706e+00 2.062695e+00 5.947841e-01 2.444388e-01 5.689113e-01 1.659145e-01 2.759473e-01 2.447892e-01 6.363928e-01 6.362753e-01 5.872863e-01 5.286087e-01 3.608327e-01 5.148037e-01 7.030535e-01 5.398468e-02
<GCONST> 1.037165e+02
<STATE> 4
<MEAN> 39
 3.017696e+00 -1.379730e+00 1.449611e+00 -3.766977e+00 4.266984e-01 -1.929066e+01 3.858213e+00 9.013174e+00 -5.704569e+00 -1.956906e+01 4.748039e+00 3.364904e+00 6.907986e+01 -4.145726e-01 3.445054e-01 3.883662e-01 3.107660e-01 -4.221711e-03 8.393862e-01 -4.403879e-02 -1.034642e+00 -4.197276e-01 7.331639e-01 -2.950289e-01 7.864504e-02 -6.525739e-01 -4.226904e-01 2.479178e-01 3.812791e-01 4.496239e-02 4.719608e-01 9.139103e-01 -2.086442e-01 -6.084870e-01 5.240189e-02 4.460740e-01 -2.832994e-01 3.691172e-02 -4.057795e-01
<VARIANCE> 39
 6.654202e+00 6.677304e+00 2.357646e+01 2.394109e+01 4.935022e+01 3.855187e+01 5.475947e+01 5.571558e+01 3.124701e+01 1.863901e+01 1.470218e+01 2.367346e+01 7.598456e+00 6.033286e-01 1.093667e+00 1.599425e+00 1.424809e+00 2.743592e+00 3.623014e+00 2.217617e+00 3.641006e+00 2.055617e+00 1.916032e+00 3.353093e+00 1.625307e+00 1.505264e+00 1.757661e-01 1.821756e-01 3.146376e-01 3.054170e-01 3.409531e-01 6.867931e-01 4.318819e-01 5.931045e-01 4.515387e-01 4.198608e-01 6.415407e-01 4.290746e-01 2.360279e-01
<GCONST> 1.069030e+02
<TRANSP> 5
 0.000000e+00 1.000000e+00 0.000000e+00 0.000000e+00 0.000000e+00
 0.000000e+00 5.267415e-01 4.732584e-01 0.000000e+00 0.000000e+00
 0.000000e+00 0.000000e+00 5.076488e-01 4.923513e-01 0.000000e+00
 0.000000e+00 0.000000e+00 0.000000e+00 7.298892e-01 2.701108e-01
 0.000000e+00 0.000000e+00 0.000000e+00 0.000000e+00 0.000000e+00
<ENDHMM>
~h "BH"
<BEGINHMM>
<NUMSTATES> 5
<STATE> 2
<MEAN> 39
 -5.306757e+00 6.728151e+00 4.790582e+00 5.342340e+00 6.472904e+00 5.689385e-01 4.552824e+00 4.111236e+00 -1.386442e-01 -4.509984e+00 -3.630066e-01 1.394485e+00 5.258160e+01 -1.613557e+00 -4.597416e-01 2.860147e-02 -7.516457e-01 2.019613e-01 1.152153e+00 1.436436e+00 -7.656303e-01 8.639879e-01 1.341909e+00 8.762802e-02 2.399937e-01 4.660368e-01 1.940391e-02 -5.986374e-01 3.027194e-02 -4.310577e-01 7.704582e-02 -3.864838e-01 1.279316e-02 1.952366e-01 -3.922564e-04 -4.726716e-01 2.386919e-01 2.482190e-01 7.689041e-01
<VARIANCE> 39
 6.197337e+01 3.054638e+01 2.539050e+01 3.180441e+01 3.067069e+01 4.542205e+01 2.973205e+01 4.623168e+01 3.216419e+01 3.718342e+01 2.264305e+01 2.862048e+01 5.756958e+01 5.704079e+00 4.647627e+00 2.389935e+00 4.635509e+00 3.064477e+00 4.364255e+00 4.090950e+00 5.202757e+00 3.172711e+00 4.807584e+00 2.650332e+00 3.300921e+00 5.542185e+00 1.159092e+00 6.451755e-01 4.482995e-01 6.648102e-01 6.168535e-01 6.746135e-01 6.693788e-01 1.314961e+00 5.282673e-01 7.541972e-01 4.798321e-01 5.020860e-01 6.952531e-01
<GCONST> 1.307234e+02
<STATE> 3
<MEAN> 39
 -9.088860e+00 1.567318e+00 4.680432e+00 -7.395832e-02 7.547650e+00 2.215513e+00 1.004201e+01 2.987315e+00 2.852720e+00 -3.138690e+00 1.084495e+00 3.855945e+00 6.020023e+01 -1.163228e-01 -1.465363e+00 4.286987e-01 -1.543326e+00 -1.192398e-01 -2.526319e-01 1.509132e+00 1.468690e+00 9.526637e-01 -3.782543e-01 6.979297e-01 1.060337e+00 1.946188e+00 8.005909e-01 3.464473e-01 4.442300e-01 2.839437e-01 -1.569725e-01 -6.880957e-01 -5.075073e-01 5.472226e-01 -1.282739e-01 -6.802428e-01 -1.256470e-01 -1.921630e-01 -6.140321e-02
<VARIANCE> 39
 2.426139e+01 2.507270e+01 2.594790e+01 2.771599e+01 3.773035e+01 3.299788e+01 3.163904e+01 4.551570e+01 3.188907e+01 2.482383e+01 2.221778e+01 3.145063e+01 2.999348e+01 3.815653e+00 2.949768e+00 3.362256e+00 2.722011e+00 5.234858e+00 5.011552e+00 4.430206e+00 7.677523e+00 4.620432e+00 3.728432e+00 2.814114e+00 3.207274e+00 2.197014e+00 6.181991e-01 6.297894e-01 6.843449e-01 5.855016e-01 6.195615e-01 7.475916e-01 8.667859e-01 1.145040e+00 6.474642e-01 6.828822e-01 5.593788e-01 6.033728e-01 5.018445e-01
<GCONST> 1.277252e+02
<STATE> 4
<MEAN> 39
 -6.378989e+00 -6.590322e-01 8.832124e+00 -4.175581e+00 2.796768e+00 -3.482905e+00 1.457692e+01 1.118094e+01 5.896670e+00 -7.736187e+00 1.487131e+00 5.417679e+00 6.533698e+01 1.015826e+00 2.262957e-01 4.149065e-01 -4.692150e-01 -4.735702e-01 -1.621932e+00 -5.250859e-01 3.785255e-01 -5.307791e-01 -1.666741e+00 6.495880e-02 -1.447317e-01 1.185304e+00 2.768167e-01 3.173512e-01 -3.510435e-01 2.632390e-01 1.155343e-01 -3.266509e-01 -7.981861e-01 -4.900268e-01 -4.656464e-01 -2.093932e-01 -6.696480e-03 -1.592157e-01 -1.651553e-01
<VARIANCE> 39
 1.499802e+01 2.542912e+01 2.938103e+01 2.465512e+01 6.533636e+01 5.033760e+01 5.997710e+01 6.393909e+01 4.800551e+01 4.282998e+01 2.758455e+01 2.458359e+01 1.921263e+01 1.625412e+00 2.601575e+00 3.340966e+00 1.954053e+00 3.613950e+00 4.119565e+00 5.395899e+00 4.749876e+00 3.659948e+00 3.090898e+00 2.565984e+00 2.181518e+00 9.550519e-01 2.267263e-01 4.613197e-01 6.036372e-01 3.935431e-01 4.638221e-01 7.312714e-01 5.816140e-01 7.837254e-01 6.130028e-01 5.459212e-01 4.858240e-01 5.160072e-01 1.849380e-01
<GCONST> 1.212968e+02
<TRANSP> 5
 0.000000e+00 1.000000e+00 0.000000e+00 0.000000e+00 0.000000e+00
 0.000000e+00 7.455632e-01 2.544368e-01 0.000000e+00 0.000000e+00
 0.000000e+00 0.000000e+00 4.971961e-01 5.028039e-01 0.000000e+00
 0.000000e+00 0.000000e+00 0.000000e+00 7.269191e-01 2.730809e-01
 0.000000e+00 0.000000e+00 0.000000e+00 0.000000e+00 0.000000e+00
<ENDHMM>
~h "CH"
<BEGINHMM>
<NUMSTATES> 5
<STATE> 2
<MEAN> 39
 -2.472008e+01 -7.838004e+00 1.276027e+01 -5.602522e+00 2.419278e+00 -1.475078e+00 4.302425e+00 -7.150791e+00 -1.888490e+00 -1.517276e+00 5.080114e+00 3.163983e+00 6.450458e+01 -1.172518e+00 -2.088727e+00 8.717883e-02 -5.097568e-02 -2.476228e-01 2.758704e-01 -2.468626e-01 -8.185331e-01 4.242406e-01 8.471715e-01 9.441888e-01 1.505956e-01 1.239701e+00 9.869449e-01 2.758161e-01 -4.047023e-01 3.654192e-01 3.769514e-01 -2.009557e-01 -1.116645e-01 -8.011074e-02 -3.448179e-01 -1.225987e-01 -1.103013e-01 -1.278792e-02 -1.784618e-01
<VARIANCE> 39
 5.171227e+01 7.427810e+01 3.599661e+01 4.135306e+01 3.138495e+01 2.767284e+01 2.613176e+01 4.245836e+01 2.705880e+01 3.257158e+01 3.026320e+01 2.086655e+01 4.761806e+01 1.218933e+01 4.432707e+00 6.912745e+00 4.725904e+00 4.328472e+00 3.474464e+00 3.448832e+00 3.766206e+00 3.212909e+00 2.894145e+00 2.508234e+00 1.987373e+00 5.403339e+00 1.074043e+00 1.200582e+00 1.077428e+00 6.338049e-01 6.920641e-01 6.036631e-01 7.937839e-01 7.784666e-01 5.036607e-01 5.580763e-01 6.055554e-01 3.672513e-01 1.330714e+00
<GCONST> 1.324134e+02
<STATE> 3
<MEAN> 39
 -1.264164e+01 -1.108344e+01 6.933744e+00 2.514209e+00 8.030602e+00 -7.040724e+00 1.457817e-02 -1.353280e+01 -7.002025e+00 3.927953e+00 5.902256e+00 2.440584e+00 6.495705e+01 3.057835e+00 1.574340e+00 -7.154469e-01 1.316031e+00 1.617826e+00 -9.824297e-01 -3.939338e-01 -7.573745e-03 -1.237032e+00 -1.567157e-03 -8.758082e-01 -4.652200e-01 -9.064268e-01 -9.065907e-02 4.071600e-01 2.255512e-01 -7.122761e-02 -9.565012e-02 -9.302898e-02 1.751340e-01 3.812367e-01 -5.371703e-02 -2.899011e-01 -7.240671e-02 -1.395905e-01 3.504359e-02
<VARIANCE> 39
 8.321643e+01 3.362756e+01 2.120677e+01 4.367199e+01 2.798805e+01 6.490889e+01 2.753913e+01 3.655267e+01 5.676385e+01 4.077340e+01 2.849822e+01 2.100287e+01 1.768598e+01 4.590411e+00 3.171278e+00 2.049945e+00 2.920790e+00 2.862281e+00 4.394813e+00 2.664517e+00 2.518830e+00 3.332416e+00 1.902671e+00 2.621414e+00 1.344651e+00 1.464477e+00 7.117448e-01 7.820224e-01 4.300591e-01 3.948677e-01 4.338326e-01 6.808864e-01 4.270917e-01 5.089247e-01 6.621068e-01 4.065032e-01 6.147556e-01 2.981641e-01 4.113591e-01
<GCONST> 1.212683e+02
<STATE> 4
<MEAN> 39
 -1.090357e+01 -1.249720e+00 2.016413e+00 4.389701e+00 7.656431e+00 -3.686346e-01 1.704961e+00 -3.194031e+00 -4.110549e+00 2.572553e+00 3.912735e+00 2.928527e+00 4.994371e+01 5.519946e-01 7.508665e-01 -1.300702e-01 1.616740e-01 2.748551e-01 9.618571e-02 1.573486e-01 5.767635e-01 -8.120605e-02 -3.513300e-01 -1.212630e-01 -1.372501e-01 -4.042948e-01 -1.021222e-01 -8.115149e-02 2.348743e-02 -3.967921e-02 -1.248330e-01 -1.384497e-01 -5.180018e-02 4.192532e-02 -3.248969e-02 -1.243541e-01 5.718215e-02 -1.421953e-02 1.462497e-01
<VARIANCE> 39
 3.464103e+01 5.756707e+01 3.748314e+01 2.860295e+01 2.787862e+01 7.503477e+01 3.988758e+01 6.935784e+01 4.503864e+01 3.738683e+01 2.345105e+01 2.417169e+01 1.049005e+02 4.557353e+00 3.788525e+00 2.059648e+00 2.009726e+00 2.427198e+00 3.606415e+00 2.673316e+00 2.505226e+00 3.559976e+00 2.376276e+00 2.031980e+00 1.706654e+00 1.990235e+00 3.152585e-01 4.119025e-01 3.643073e-01 3.334841e-01 3.992764e-01 5.226088e-01 4.362969e-01 4.248138e-01 4.260864e-01 3.761458e-01 3.636444e-01 2.762035e-01 2.819391e-01
<GCONST> 1.198562e+02
<TRANSP> 5
 0.000000e+00 1.000000e+00 0.000000e+00 0.000000e+00 0.000000e+00
 0.000000e+00 8.564206e-01 1.435793e-01 0.000000e+00 0.000000e+00
 0.000000e+00 0.000000e+00 7.554895e-01 2.445105e-01 0.000000e+00
 0.000000e+00 0.000000e+00 0.000000e+00 7.619671e-01 2.380329e-01
 0.000000e+00 0.000000e+00 0.000000e+00 0.000000e+00 0.000000e+00
<ENDHMM>
~h "DH"
<BEGINHMM>
<NUMSTATES> 5
<STATE> 2
<MEAN> 39
 -4.396121e+00 6.797042e+00 7.036487e+00 4.949505e+00 3.108403e+00 -1.362730e+00 5.487829e+00 3.256526e+00 -2.810099e+00 -5.878181e+00 -1.005117e+00 7.245545e-01 5.270697e+01 -2.426920e+00 -1.513538e+00 -5.154561e-01 -1.070464e+00 2.716616e-01 1.220010e+00 6.918288e-01 -1.932805e+00 6.717926e-01 2.099769e+00 4.589354e-01 6.721624e-01 1.301007e+00 -4.071839e-01 -9.191856e-01 5.279406e-02 -6.948379e-01 3.219422e-01 -1.257162e-01 7.011078e-02 -5.057191e-01 -1.328316e-01 -4.244534e-01 3.924664e-01 3.731583e-01 1.430765e+00
<VARIANCE> 39
 4.913026e+01 3.581568e+01 2.986832e+01 3.790756e+01 5.038894e+01 4.650627e+01 4.085854e+01 6.902945e+01 3.457802e+01 4.984703e+01 2.768068e+01 2.792795e+01 4.605621e+01 5.202147e+00 7.297645e+00 2.525074e+00 5.684251e+00 3.932823e+00 4.046530e+00 5.203559e+00 7.792336e+00 3.517314e+00 5.363210e+00 3.332382e+00 3.182122e+00 1.406277e+01 1.150237e+00 9.541351e-01 5.915374e-01 8.605370e-01 6.298316e-01 5.998510e-01 8.428795e-01 1.575837e+00 5.479757e-01 8.315638e-01 5.328930e-01 5.268776e-01 1.393640e+00
<GCONST> 1.375347e+02
<STATE> 3
<MEAN> 39
 -1.473420e+01 -3.249599e+00 5.218140e+00 -1.872742e+00 4.848994e+00 1.404319e+00 7.999043e+00 -6.525062e+00 -1.286798e+00 -1.055315e+00 2.609430e+00 4.928955e+00 6.534242e+01 -1.667389e+00 -2.449852e+00 1.149217e-01 -2.183376e+00 1.240072e+00 1.377641e+00 1.023643e+00 -1.550288e+00 -1.008381e-01 2.862894e-01 1.277246e+00 1.508065e+00 3.360145e+00 1.366565e+00 9.225167e-01 5.405881e-01 4.702676e-01 2.683330e-01 -3.698996e-01 -2.343813e-01 1.327125e+00 -1.710508e-01 -1.058686e+00 -3.109938e-01 -3.535141e-01 -9.320773e-01
<VARIANCE> 39
 1.565765e+01 2.252726e+01 1.740448e+01 2.269075e+01 2.021751e+01 2.158016e+01 3.688029e+01 3.047810e+01 2.642840e+01 2.440507e+01 2.448750e+01 2.657856e+01 4.314397e+01 4.840056e+00 3.469136e+00 2.895076e+00 3.390553e+00 4.541101e+00 3.929190e+00 4.478996e+00 8.265783e+00 3.907840e+00 5.969868e+00 3.103192e+00 3.279137e+00 5.791006e+00 5.084254e-01 8.559572e-01 5.138339e-01 7.380999e-01 7.025704e-01 8.371463e-01 9.146177e-01 1.103293e+00 7.366706e-01 9.042055e-01 7.253293e-01 6.564526e-01 1.380303e+00
<GCONST> 1.290113e+02
<STATE> 4
<MEAN> 39
 -1.046713e+01 -2.865191e+00 8.112276e+00 -4.448371e+00 8.463434e+00 2.542215e+00 1.070489e+01 -2.327017e-01 -1.138477e+00 -5.538150e+00 3.050131e+00 6.123728e+00 6.516844e+01 1.701965e+00 1.031711e+00 1.190201e+00 5.302422e-02 6.987831e-01 -9.730893e-01 -2.347931e-01 1.652319e+00 -2.932766e-02 -2.002326e+00 -3.826723e-01 -3.897929e-01 9.217978e-02 4.844955e-01 5.881020e-01 -6.413695e-02 4.360396e-01 -3.787541e-01 -7.481040e-01 -6.194685e-01 1.901590e-01 -7.479934e-02 -3.674426e-01 -2.210049e-01 -3.425404e-01 -3.294989e-01
<VARIANCE> 39
 2.021957e+01 2.167126e+01 2.352045e+01 2.026091e+01 4.110606e+01 3.074067e+01 5.674684e+01 6.946684e+01 3.427903e+01 5.451204e+01 2.732226e+01 1.968776e+01 1.978546e+01 1.614172e+00 2.895784e+00 2.689716e+00 2.705559e+00 4.684652e+00 4.330353e+00 4.894708e+00 4.601234e+00 3.454105e+00 4.366281e+00 3.059254e+00 2.377095e+00 2.000363e+00 5.567843e-01 6.241919e-01 6.095622e-01 5.404817e-01 5.735334e-01 6.501672e-01 6.474361e-01 1.190630e+00 6.448641e-01 8.386456e-01 6.015593e-01 4.864946e-01 7.091334e-01
<GCONST> 1.255942e+02
<TRANSP> 5
 0.000000e+00 1.000000e+00 0.000000e+00 0.000000e+00 0.000000e+00
 0.000000e+00 5.937759e-01 4.062241e-01 0.000000e+00 0.000000e+00
 0.000000e+00 0.000000e+00 4.829137e-01 5.170863e-01 0.000000e+00
 0.000000e+00 0.000000e+00 0.000000e+00 7.198308e-01 2.801692e-01
 0.000000e+00 0.000000e+00 0.000000e+00 0.000000e+00 0.000000e+00
<ENDHMM>
~h "DX"
<BEGINHMM>
<NUMSTATES> 5
<STATE> 2
<MEAN> 39
 3.557938e-01 5.202639e+00 2.087940e+00 1.919138e+00 1.322088e+01 4.941376e-01 -2.272731e+00 1.600336e+00 -8.345449e+00 -9.044816e+00 1.883746e+00 2.439236e+00 5.613708e+01 -5.140624e-02 1.290057e+00 -2.135164e-02 1.046178e+00 -5.051906e-01 1.547143e+00 1.378113e+00 -3.973769e-02 1.242042e-01 8.815987e-01 -3.138865e-01 2.308091e-01 -1.472358e+00 -2.952687e-01 -4.543957e-01 4.515295e-02 1.162196e-01 -2.493008e-01 -7.835222e-01 5.714778e-02 -9.223000e-02 1.131132e-01 -2.640187e-01 6.470185e-02 4.173237e-02 6.327236e-01
<VARIANCE> 39
 4.122270e+01 3.291129e+01 4.306100e+01 1.338815e+02 4.488938e+01 6.211309e+01 6.544726e+01 3.907467e+01 7.604633e+01 1.123919e+02 5.981263e+01 3.114640e+01 7.081812e+01 2.476216e+00 2.853187e+00 2.471586e+00 4.086242e+00 4.403188e+00 5.847250e+00 5.827899e+00 3.411792e+00 7.001485e+00 4.932018e+00 3.726743e+00 2.440764e+00 5.132313e+00 4.205284e-01 6.591281e-01 4.538370e-01 1.026906e+00 7.692614e-01 1.075514e+00 1.056119e+00 7.751032e-01 1.202774e+00 1.187866e+00 7.784804e-01 5.135249e-01 1.054952e+00
<GCONST> 1.391211e+02
<STATE> 3
<MEAN> 39
 2.179799e-01 8.520697e+00 2.594235e+00 6.471852e+00 1.185211e+01 2.630425e+00 5.199162e-01 7.744848e-01 -6.926589e+00 -6.399241e+00 9.406956e-01 2.308231e+00 5.284552e+01 -9.493846e-01 -3.179568e-01 1.955727e-01 7.470673e-01 -7.127445e-01 -6.688257e-01 9.371994e-01 -3.462374e-01 2.178114e-01 9.920187e-02 -8.022352e-02 2.648348e-01 5.990039e-01 -2.595568e-01 -1.128240e+00 1.518115e-01 -5.216427e-01 1.556031e-01 -1.230407e+00 -4.211082e-01 -1.393904e-01 -3.475739e-01 -6.892073e-01 2.985804e-01 6.450853e-02 1.345697e+00
<VARIANCE> 39
 2.962311e+01 2.889811e+01 3.836090e+01 7.327328e+01 2.955139e+01 4.552851e+01 4.179744e+01 3.128181e+01 4.378817e+01 6.545335e+01 4.196688e+01 2.673573e+01 3.939903e+01 3.273211e+00 4.534345e+00 2.895391e+00 5.827357e+00 3.645432e+00 5.822252e+00 5.175498e+00 3.373281e+00 5.722999e+00 5.538590e+00 4.523546e+00 2.937025e+00 5.995550e+00 5.054796e-01 6.512335e-01 6.449005e-01 6.969920e-01 7.840127e-01 1.132537e+00 1.198343e+00 8.042011e-01 9.614114e-01 9.970316e-01 8.875856e-01 6.179413e-01 1.003065e+00
<GCONST> 1.359740e+02
<STATE> 4
<MEAN> 39
 -4.493910e+00 3.137372e+00 3.868517e+00 5.938648e+00 1.119236e+01 -2.240946e+00 1.638817e+00 -6.082366e-01 -7.074883e+00 -7.153901e+00 1.820298e+00 3.375771e+00 5.820231e+01 -5.292552e-01 -2.540983e+00 1.880200e-01 -8.741685e-01 -2.508352e-01 -2.931753e+00 -2.418969e-01 -2.791862e-01 -8.750246e-01 -1.541589e+00 9.979272e-01 6.835499e-01 3.303769e+00 3.688177e-01 -1.982476e-01 1.176469e-02 -3.175001e-01 2.602363e-02 -3.906856e-01 -3.514022e-01 1.893044e-01 -1.206899e-01 -3.084219e-01 2.583239e-01 -8.584327e-02 2.760882e-01
<VARIANCE> 39
 3.258771e+01 6.078168e+01 3.359965e+01 4.278939e+01 3.242430e+01 6.914650e+01 4.526194e+01 4.088856e+01 5.461339e+01 8.017082e+01 3.825911e+01 3.276359e+01 9.717786e+01 3.763155e+00 6.384299e+00 4.911573e+00 4.326555e+00 4.835122e+00 8.815019e+00 6.152558e+00 5.023732e+00 5.248800e+00 6.941935e+00 6.651473e+00 5.276893e+00 8.265668e+00 6.581753e-01 1.338512e+00 7.475372e-01 7.217559e-01 9.771625e-01 1.311569e+00 1.383957e+00 8.251131e-01 1.040408e+00 1.202931e+00 9.326971e-01 7.456567e-01 1.601418e+00
<GCONST> 1.445263e+02
<TRANSP> 5
 0.000000e+00 1.000000e+00 0.000000e+00 0.000000e+00 0.000000e+00
 0.000000e+00 3.877799e-01 6.122201e-01 0.000000e+00 0.000000e+00
 0.000000e+00 0.000000e+00 3.925703e-01 6.074297e-01 0.000000e+00
 0.000000e+00 0.000000e+00 0.000000e+00 6.170809e-01 3.829191e-01
 0.000000e+00 0.000000e+00 0.000000e+00 0.000000e+00 0.000000e+00
<ENDHMM>
~h "EH"
<BEGINHMM>
<NUMSTATES> 5
<STATE> 2
<MEAN> 39
 -4.485695e+00 -4.493763e+00 -4.644749e-01 2.453314e+00 8.417762e+00 -1.335103e+01 -1.233687e+00 -2.726694e+00 -1.182370e+01 -4.790114e+00 1.151365e+01 4.683450e+00 6.407784e+01 9.230621e-01 -1.669229e+00 -1.476401e+00 -3.223311e-01 -4.951348e-01 -2.550955e+00 3.958964e-01 -5.107749e-01 -1.111114e+00 9.937795e-01 2.558189e+00 3.804125e-01 2.504640e+00 -4.382939e-02 2.786795e-01 6.463487e-02 1.291812e-01 -1.963072e-01 4.939835e-01 3.073602e-01 1.381173e-01 4.574278e-01 2.350289e-01 -3.985856e-01 -2.955254e-01 -3.557054e-01
<VARIANCE> 39
 4.628289e+01 3.046247e+01 2.597090e+01 3.346763e+01 3.731449e+01 1.081120e+02 5.125814e+01 5.227228e+01 9.809839e+01 9.133264e+01 4.805989e+01 2.450040e+01 1.414108e+02 3.249975e+00 3.300636e+00 2.490983e+00 2.303305e+00 2.823469e+00 8.232852e+00 3.971617e+00 3.217490e+00 5.574010e+00 4.205776e+00 5.707566e+00 3.230115e+00 8.625463e+00 5.646672e-01 6.296690e-01 4.647976e-01 4.198297e-01 4.879090e-01 1.423061e+00 7.111694e-01 6.168270e-01 1.094074e+00 7.693787e-01 9.991323e-01 5.007111e-01 1.439588e+00
<GCONST> 1.366950e+02
<STATE> 3
<MEAN> 39
 -1.300900e+00 -8.227220e+00 -4.222398e+00 2.621610e+00 5.766053e+00 -1.940571e+01 2.039297e+00 -4.921038e+00 -1.372824e+01 -9.394092e-01 1.697313e+01 3.586478e+00 7.189702e+01 8.366422e-02 4.233996e-01 -1.730395e-01 3.099169e-01 -2.015750e-01 1.270605e-01 7.011089e-01 -1.932999e-01 3.180201e-01 1.263860e-01 -1.790991e-01 -2.566541e-01 -9.904816e-02 -2.030581e-01 6.315442e-01 4.351435e-01 1.012278e-01 2.339587e-01 6.725466e-01 -1.701067e-01 9.862698e-02 3.039700e-01 -3.732876e-01 -7.693205e-01 -7.528908e-02 -8.110886e-01
<VARIANCE> 39
 1.265943e+01 1.880697e+01 1.909665e+01 2.308869e+01 4.175499e+01 4.761457e+01 3.898901e+01 4.650353e+01 5.041072e+01 6.629242e+01 3.152008e+01 2.540555e+01 3.605887e+01 6.508116e-01 2.024624e+00 1.472360e+00 1.674456e+00 2.881896e+00 2.975760e+00 2.796680e+00 2.742174e+00 2.665940e+00 3.778171e+00 3.070208e+00 1.946571e+00 2.851265e+00 2.350436e-01 2.803267e-01 2.668573e-01 2.924826e-01 4.446098e-01 7.289330e-01 4.903427e-01 4.942070e-01 6.428018e-01 5.598678e-01 6.104831e-01 4.263555e-01 4.012716e-01
<GCONST> 1.161358e+02
<STATE> 4
<MEAN> 39
 -4.936686e+00 -1.650148e+00 -2.776254e+00 4.218596e+00 6.795842e+00 -1.260150e+01 1.521625e+00 -5.458206e+00 -8.625339e+00 5.444025e-01 1.209305e+01 2.985949e+00 6.139442e+01 -4.720186e-01 1.193022e+00 4.101764e-01 -1.180734e-01 -1.283498e-01 1.266794e+00 -2.959902e-01 3.833316e-01 9.561404e-01 -3.826974e-02 -1.092474e+00 5.170038e-02 -1.970927e+00 -1.467912e-01 -1.353051e-01 7.594004e-02 -1.451516e-01 -1.536471e-01 2.049878e-01 -4.165142e-02 1.768520e-01 9.034947e-02 2.995840e-02 -9.499364e-02 -4.998129e-03 -6.267581e-02
<VARIANCE> 39
 3.641274e+01 2.972127e+01 3.056383e+01 3.067030e+01 5.253821e+01 8.823966e+01 4.334131e+01 5.872422e+01 6.304111e+01 6.156447e+01 4.059350e+01 3.337677e+01 1.315092e+02 3.059884e+00 3.066919e+00 2.640754e+00 2.606588e+00 4.120157e+00 5.265323e+00 2.987642e+00 3.508141e+00 3.959646e+00 3.661380e+00 3.678531e+00 2.326084e+00 6.903773e+00 4.979540e-01 5.213007e-01 5.584055e-01 4.990672e-01 8.390043e-01 7.439297e-01 7.103337e-01 6.123390e-01 6.814077e-01 6.485633e-01 6.209205e-01 5.071730e-01 1.178852e+00
<GCONST> 1.327549e+02
<TRANSP> 5
 0.000000e+00 1.000000e+00 0.000000e+00 0.000000e+00 0.000000e+00
 0.000000e+00 6.426612e-01 3.573388e-01 0.000000e+00 0.000000e+00
 0.000000e+00 0.000000e+00 7.234476e-01 2.765525e-01 0.000000e+00
 0.000000e+00 0.000000e+00 0.000000e+00 7.657256e-01 2.342744e-01
 0.000000e+00 0.000000e+00 0.000000e+00 0.000000e+00 0.000000e+00
<ENDHMM>
~h "EX"
<BEGINHMM>
<NUMSTATES> 5
<STATE> 2
<MEAN> 39
 -8.002716e+00 -2.552814e+00 6.323646e+00 8.791520e+00 1.523062e+01 -6.323470e+00 -2.709491e+00 -4.146655e+00 -7.500681e+00 -4.578097e+00 3.761137e+00 -3.085093e+00 6.404586e+01 7.554126e-01 -1.705508e+00 5.829956e-01 5.713584e-01 1.732809e+00 -2.583684e+00 -2.829840e+00 -1.098810e+00 -1.887457e+00 -1.764717e+00 1.351289e+00 -1.763585e-01 3.315289e+00 5.042312e-01 3.032570e-01 1.408192e-01 3.418938e-01 -2.535265e-01 -3.886620e-01 -5.836941e-01 1.838263e-01 1.191719e-01 1.224329e-01 2.707473e-01 1.997718e-01 -5.782332e-01
<VARIANCE> 39
 3.409738e+01 2.273837e+01 3.145501e+01 3.324124e+01 2.485303e+01 6.460744e+01 5.980121e+01 4.428041e+01 7.940361e+01 5.547626e+01 2.921985e+01 2.560755e+01 4.896781e+01 4.515969e+00 4.848306e+00 3.866400e+00 4.550211e+00 2.867524e+00 6.687088e+00 7.898761e+00 3.892244e+00 5.380584e+00 5.225009e+00 5.435585e+00 2.855826e+00 5.551318e+00 9.387439e-01 6.644674e-01 9.459177e-01 9.280972e-01 5.261907e-01 1.158414e+00 1.895069e+00 5.554233e-01 1.149167e+00 9.579244e-01 7.166159e-01 5.443965e-01 8.530556e-01
<GCONST> 1.375206e+02
<STATE> 3
<MEAN> 39
