~o
<STREAMINFO> 1 39
<VECSIZE> 39<NULLD><MFCC_D_A_0><DIAGC>
~s "silst"
<MEAN> 39
 -1.286766e+01 1.305932e+00 -5.257787e-01 3.911097e+00 4.796161e+00 4.421513e+00 3.473815e+00 3.073252e+00 -8.644680e-01 1.475849e+00 4.035070e+00 4.567671e+00 4.266213e+01 -2.770439e-01 1.777985e-02 4.095749e-02 1.477338e-01 1.565933e-01 3.983421e-01 2.111647e-01 2.040317e-01 2.543415e-01 1.970444e-01 8.854342e-02 1.040345e-02 -2.973131e-01 5.739823e-02 -2.077279e-02 8.329256e-02 -2.019214e-02 3.469984e-02 -1.398702e-01 -3.019266e-02 -5.365459e-02 -7.192893e-02 -7.682141e-02 -5.376113e-02 -4.593728e-02 1.617420e-01
<VARIANCE> 39
 1.551445e+01 5.567638e+01 1.964161e+01 2.285079e+01 1.744631e+01 2.225765e+01 2.472095e+01 2.282942e+01 3.085553e+01 2.153738e+01 1.928951e+01 1.993720e+01 3.129747e+01 1.014361e+00 2.464101e+00 1.850828e+00 1.619263e+00 1.531817e+00 1.797320e+00 1.929286e+00 1.916155e+00 2.144402e+00 1.705690e+00 1.526248e+00 1.411356e+00 1.291159e+00 1.964642e-01 3.568560e-01 3.093230e-01 3.009239e-01 2.959902e-01 3.522650e-01 3.575663e-01 3.608872e-01 3.784963e-01 3.364369e-01 2.805588e-01 2.599851e-01 2.578059e-01
<GCONST> 1.040162e+02
~h "A"
<BEGINHMM>
<NUMSTATES> 5
<STATE> 2
<MEAN> 39
 -2.409021e-01 1.021257e+00 5.530283e+00 -3.156778e+00 -2.269198e+00 -1.687092e+01 3.965741e+00 8.391190e+00 -4.827735e-01 -1.483064e+01 1.106831e+00 3.512068e+00 6.585512e+01 2.561513e+00 -1.261377e-01 -5.469829e-01 6.166330e-02 -2.012673e+00 -5.199310e+00 -1.058655e+00 2.476912e+00 -2.446727e-01 -1.945008e+00 9.446212e-01 -3.653696e-01 2.056883e+00 -6.111848e-01 -4.539032e-01 -3.201363e-01 1.859780e-01 1.588049e-01 6.648961e-01 1.621727e-01 -3.380901e-01 -3.758525e-02 5.131782e-01 1.735791e-01 4.743200e-02 -3.185472e-01
<VARIANCE> 39
 2.481619e+01 2.276717e+01 2.814968e+01 3.173588e+01 6.852229e+01 1.021604e+02 6.919911e+01 5.502157e+01 6.815724e+01 6.340625e+01 3.267984e+01 2.301477e+01 4.750533e+01 3.260701e+00 4.971499e+00 3.240296e+00 4.224798e+00 4.599980e+00 7.717855e+00 7.252915e+00 5.320992e+00 4.625950e+00 5.058880e+00 3.199542e+00 3.294131e+00 3.159415e+00 6.964962e-01 7.359414e-01 5.383876e-01 5.169302e-01 6.780921e-01 1.645390e+00 8.627290e-01 7.178949e-01 9.166325e-01 9.194271e-01 5.910325e-01 6.210777e-01 7.656760e-01
<GCONST> 1.362887e+02
<STATE> 3
<MEAN> 39
 2.378715e+00 -2.203045e+00 3.639007e+00 -2.166838e+00 -7.352032e+00 -2.675602e+01 4.527334e+00 1.311710e+01 -1.463379e+00 -1.632018e+01 4.414643e+00 2.979707e+00 7.013490e+01 2.707697e-01 -3.355475e-01 -4.281513e-01 6.931672e-02 -5.635591e-01 -9.162636e-01 3.904684e-01 4.754213e-01 -1.915627e-01 -4.964228e-02 3.178970e-01 -2.214081e-01 3.222090e-01 -4.686476e-01 3.554747e-01 1.653754e-01 7.484983e-02 6.991025e-01 1.652018e+00 1.406117e-01 -7.943523e-01 2.220522e-02 4.534033e-01 -4.189506e-01 2.561582e-03 -7.017786e-01
<VARIANCE> 39
 8.578443e+00 1.606289e+01 2.718859e+01 2.637593e+01 7.168435e+01 7.374677e+01 7.358743e+01 5.297602e+01 5.517848e+01 4.679706e+01 3.054272e+01 2.128366e+01 1.188704e+01 5.310882e-01 1.424213e+00 1.654242e+00 1.802818e+00 2.978005e+00 5.073891e+00 3.521041e+00 2.999066e+00 3.281370e+00 2.721401e+00 2.600412e+00 1.735026e+00 1.093276e+00 2.950283e-01 3.223409e-01 3.397169e-01 4.043312e-01 4.059939e-01 9.601831e-01 8.160039e-01 5.806689e-01 6.386532e-01 7.750285e-01 4.720916e-01 4.280970e-01 2.257826e-01
<GCONST> 1.166822e+02
<STATE> 4
<MEAN> 39
 1.796097e+00 6.174704e-02 3.610368e+00 -2.157418e+00 -5.333629e+00 -2.229039e+01 5.626819e+00 9.904474e+00 -2.563452e+00 -1.623319e+01 2.245505e+00 2.494730e+00 6.828414e+01 -1.023922e-01 1.123003e+00 -1.591232e-01 4.544850e-01 1.466710e+00 3.121062e+00 -3.358841e-01 -1.095018e+00 -1.227287e-01 7.879085e-01 -9.019282e-01 -1.220087e-01 -1.843225e+00 -1.828724e-01 1.401167e-01 5.252229e-02 2.087878e-01 3.413889e-01 7.771237e-01 -1.740890e-01 -1.334943e-01 6.345574e-02 4.552954e-01 -1.040639e-01 -2.758798e-03 -5.871121e-01
<VARIANCE> 39
 1.071677e+01 1.863799e+01 3.467468e+01 3.357198e+01 7.111961e+01 8.128957e+01 8.047910e+01 4.776271e+01 5.505119e+01 4.901001e+01 3.809584e+01 2.503431e+01 1.921936e+01 1.291467e+00 1.689934e+00 2.056183e+00 2.574493e+00 3.723969e+00 5.045013e+00 4.266599e+00 3.918015e+00 4.351936e+00 4.010701e+00 3.083179e+00 2.719875e+00 2.557447e+00 2.659801e-01 3.077731e-01 4.094428e-01 3.791272e-01 5.475417e-01 1.061760e+00 8.569154e-01 6.935246e-01 7.637305e-01 6.710946e-01 5.670764e-01 4.815511e-01 3.012844e-01
<GCONST> 1.241944e+02
<TRANSP> 5
 0.000000e+00 1.000000e+00 0.000000e+00 0.000000e+00 0.000000e+00
 0.000000e+00 4.411449e-01 5.588551e-01 0.000000e+00 0.000000e+00
 0.000000e+00 0.000000e+00 6.230839e-01 3.769161e-01 0.000000e+00
 0.000000e+00 0.000000e+00 0.000000e+00 5.762678e-01 4.237322e-01
 0.000000e+00 0.000000e+00 0.000000e+00 0.000000e+00 0.000000e+00
<ENDHMM>
~h "B"
<BEGINHMM>
<NUMSTATES> 5
<STATE> 2
<MEAN> 39
 3.470731e+00 6.210789e+00 3.638553e+00 8.393917e+00 3.615768e+00 -5.545491e+00 1.899962e+00 8.890634e+00 -4.286783e+00 -8.719022e+00 6.813536e-01 1.407398e+00 5.404926e+01 1.521500e-01 1.978897e+00 3.272638e-01 1.667626e+00 -7.382261e-01 1.942435e+00 3.946165e-01 6.589448e-01 1.259821e+00 2.313478e+00 -2.321703e-01 -4.320950e-01 -2.746241e+00 -5.257658e-01 -4.052333e-01 1.555465e-01 -5.362788e-01 1.629538e-01 -6.945000e-01 -3.197177e-02 -5.806282e-01 -1.043224e-01 -5.100183e-01 7.766429e-02 7.609448e-02 9.281747e-01
<VARIANCE> 39
 1.909059e+01 1.908815e+01 1.761581e+01 3.438684e+01 4.831107e+01 5.851554e+01 3.381710e+01 4.132293e+01 4.556264e+01 3.545465e+01 2.354051e+01 1.909566e+01 2.432736e+01 1.637038e+00 1.093164e+00 1.140875e+00 2.250917e+00 3.015357e+00 4.660241e+00 2.935940e+00 2.935648e+00 2.986276e+00 3.730045e+00 2.248276e+00 1.799887e+00 2.884938e+00 2.360111e-01 2.051275e-01 2.059169e-01 4.186538e-01 3.941135e-01 6.074640e-01 4.606180e-01 5.024775e-01 4.046008e-01 5.817775e-01 3.999196e-01 2.781028e-01 3.490483e-01
<GCONST> 1.139808e+02
<STATE> 3
<MEAN> 39
 1.481082e+00 1.145594e+01 6.012650e+00 1.061193e+01 3.524454e+00 -3.093772e+00 2.771187e+00 8.108969e+00 -1.109423e+00 -5.123441e+00 -6.618018e-01 -6.646072e-01 4.993428e+01 -6.627713e-01 5.256646e-02 3.433312e-01 -4.960585e-01 -2.023838e-01 -3.891837e-01 5.379748e-01 -6.966686e-01 3.364133e-01 -1.688337e-01 -3.640156e-01 5.604264e-02 6.311792e-01 -2.080825e-01 -1.025667e+00 -1.649066e-01 -7.212930e-01 2.115899e-01 -9.901434e-01 -2.162181e-01 -3.251874e-01 -4.327236e-01 -9.682059e-01 1.439657e-01 3.101340e-01 1.326492e+00
<VARIANCE> 39
 1.345910e+01 2.174925e+01 1.719182e+01 2.480668e+01 3.042962e+01 4.046994e+01 2.481799e+01 3.522392e+01 3.099298e+01 2.634162e+01 2.124894e+01 2.111542e+01 1.679298e+01 3.076574e+00 2.218273e+00 1.246616e+00 2.639758e+00 2.729961e+00 4.997689e+00 2.410763e+00 3.555647e+00 2.583333e+00 3.264832e+00 1.851168e+00 1.814287e+00 3.021713e+00 3.303546e-01 3.688049e-01 2.873533e-01 4.402002e-01 7.566669e-01 1.177008e+00 6.520582e-01 7.122802e-01 6.640536e-01 7.447917e-01 5.539811e-01 3.988911e-01 6.912615e-01
<GCONST> 1.176181e+02
<STATE> 4
<MEAN> 39
 -1.500838e+00 6.805043e+00 5.603064e+00 5.540974e+00 4.036387e+00 -4.844962e+00 4.603117e+00 3.894469e+00 -1.772025e+00 -8.461981e+00 -1.738069e+00 1.243863e+00 5.632958e+01 -3.838692e-01 -2.529074e+00 -3.130318e-01 -1.519045e+00 4.051252e-01 -3.488455e+00 -8.605395e-01 -9.833541e-01 -1.209555e+00 -2.649677e+00 5.303137e-01 7.433423e-01 3.964089e+00 3.223224e-01 -5.349445e-01 -1.147153e-01 1.255048e-01 1.133233e-01 -1.023843e+00 -6.493258e-01 3.150150e-01 -3.570189e-01 -4.440946e-01 5.116377e-01 3.221070e-02 6.585249e-01
<VARIANCE> 39
 2.125141e+01 2.304617e+01 1.829981e+01 2.428437e+01 4.274461e+01 7.314843e+01 2.274422e+01 4.253932e+01 4.320035e+01 3.753516e+01 1.684017e+01 1.639643e+01 3.503488e+01 1.841727e+00 3.661916e+00 2.542659e+00 3.510728e+00 9.653153e+00 1.179177e+01 4.696585e+00 7.231205e+00 7.040867e+00 4.838496e+00 4.372136e+00 2.666832e+00 3.600148e+00 3.797889e-01 4.547187e-01 4.011421e-01 5.651181e-01 7.616138e-01 1.255988e+00 8.542597e-01 9.420518e-01 7.091672e-01 9.310580e-01 6.376261e-01 4.394844e-01 6.081958e-01
<GCONST> 1.293953e+02
<TRANSP> 5
 0.000000e+00 1.000000e+00 0.000000e+00 0.000000e+00 0.000000e+00
 0.000000e+00 5.043857e-01 4.956144e-01 0.000000e+00 0.000000e+00
 0.000000e+00 0.000000e+00 5.800192e-01 4.199808e-01 0.000000e+00
 0.000000e+00 0.000000e+00 0.000000e+00 4.357511e-01 5.642489e-01
 0.000000e+00 0.000000e+00 0.000000e+00 0.000000e+00 0.000000e+00
<ENDHMM>
~h "C"
<BEGINHMM>
<NUMSTATES> 5
<STATE> 2
<MEAN> 39
 -1.480015e+01 -2.995819e-01 9.397744e+00 -8.852836e-01 4.624957e+00 -1.870252e+00 4.876293e+00 -2.607363e+00 -2.707831e+00 -3.126389e+00 7.897116e-01 2.621496e+00 5.530828e+01 -2.380241e+00 -2.373878e+00 5.129620e-01 -3.332688e-01 -9.164618e-01 1.701768e-01 -1.723504e-01 4.080421e-01 9.628939e-01 2.732950e-01 3.684442e-01 2.634689e-01 4.963115e-01 -1.061903e-01 -7.549976e-01 1.501984e-01 1.646378e-01 4.833675e-02 -2.842618e-01 -1.359963e-01 -8.002567e-02 -1.365278e-01 -4.735195e-01 2.978610e-01 2.472622e-02 1.028893e+00
<VARIANCE> 39
 3.846880e+01 5.425164e+01 4.756683e+01 4.826870e+01 4.811266e+01 4.545119e+01 4.324623e+01 5.691441e+01 4.741665e+01 4.003780e+01 2.610549e+01 3.039610e+01 5.546473e+01 5.064606e+00 6.605170e+00 6.079664e+00 4.175567e+00 4.639656e+00 4.120687e+00 5.217671e+00 4.633841e+00 4.005810e+00 5.106098e+00 2.774910e+00 2.540863e+00 9.697301e+00 9.105464e-01 9.428629e-01 1.227786e+00 8.004254e-01 8.759225e-01 7.160308e-01 1.002604e+00 1.034034e+00 7.444924e-01 7.598652e-01 5.057013e-01 4.701951e-01 1.138245e+00
<GCONST> 1.384458e+02
<STATE> 3
<MEAN> 39
 -2.660622e+01 -1.564335e+01 1.452008e+01 -3.775441e-01 1.981098e+00 -3.168239e+00 3.399235e+00 -3.051677e+00 6.354613e-01 -5.330635e+00 4.889864e+00 3.614384e+00 6.716807e+01 -4.145942e-01 -1.325216e+00 6.615771e-01 6.274588e-01 1.099654e+00 1.468081e-01 -7.072372e-01 -1.661682e+00 -3.631757e-01 -2.820903e-01 8.040024e-01 1.051313e-01 2.301305e+00 2.185510e+00 1.602486e+00 -7.078685e-01 2.529846e-01 7.901006e-01 -1.248561e-01 -2.821735e-01 -2.908585e-01 -9.758023e-01 -1.199605e-01 -2.646293e-01 -1.773800e-01 -8.170314e-01
<VARIANCE> 39
 1.747958e+01 2.372072e+01 2.211670e+01 2.914153e+01 2.267372e+01 1.984630e+01 3.316532e+01 3.598663e+01 2.670111e+01 3.271743e+01 2.199548e+01 2.314651e+01 1.521256e+01 1.031616e+01 6.686471e+00 3.427999e+00 2.783797e+00 3.718785e+00 2.906456e+00 3.077250e+00 2.964964e+00 3.944642e+00 2.641958e+00 2.488045e+00 1.906372e+00 3.799536e+00 8.543788e-01 5.904158e-01 8.201076e-01 5.187280e-01 5.865039e-01 7.078854e-01 8.747234e-01 8.302550e-01 8.379820e-01 6.161389e-01 4.798618e-01 4.244275e-01 3.665913e-01
<GCONST> 1.234169e+02
<STATE> 4
<MEAN> 39
 -1.375586e+01 -9.829549e+00 1.278922e+01 3.145436e+00 9.358842e+00 -2.176770e+00 1.870452e-01 -8.851696e+00 -6.042798e+00 -8.048501e+00 3.855287e+00 3.209871e+00 6.753086e+01 6.076906e+00 2.414188e+00 -1.882367e+00 7.525148e-01 1.674470e+00 -2.008701e+00 -1.131788e+00 -1.370875e-01 -3.523930e+00 -1.818937e+00 2.896666e-01 -5.306779e-01 2.323646e-01 2.369117e-01 1.406537e-01 -6.878065e-01 -2.929889e-01 -6.157145e-01 -8.717942e-01 1.911798e-01 9.764731e-01 6.100613e-02 -1.556498e-01 1.264918e-01 -4.709413e-02 -2.820485e-01
<VARIANCE> 39
 1.048628e+02 2.826713e+01 2.594849e+01 3.569165e+01 3.686159e+01 3.685848e+01 3.386375e+01 2.904373e+01 4.622735e+01 4.932745e+01 2.332534e+01 2.626133e+01 1.348667e+01 5.319593e+00 3.646305e+00 4.000545e+00 3.473209e+00 3.575055e+00 5.958208e+00 5.488361e+00 4.576963e+00 4.556144e+00 4.860391e+00 3.553472e+00 3.157300e+00 1.398787e+00 2.264070e+00 7.497918e-01 5.834655e-01 3.784901e-01 6.024957e-01 7.653013e-01 7.716463e-01 6.319026e-01 1.136072e+00 5.713515e-01 4.700120e-01 4.024895e-01 3.536453e-01
<GCONST> 1.294790e+02
<TRANSP> 5
 0.000000e+00 1.000000e+00 0.000000e+00 0.000000e+00 0.000000e+00
 0.000000e+00 7.880898e-01 2.119102e-01 0.000000e+00 0.000000e+00
 0.000000e+00 0.000000e+00 6.355777e-01 3.644224e-01 0.000000e+00
 0.000000e+00 0.000000e+00 0.000000e+00 5.187206e-01 4.812794e-01
 0.000000e+00 0.000000e+00 0.000000e+00 0.000000e+00 0.000000e+00
<ENDHMM>
~h "D"
<BEGINHMM>
<NUMSTATES> 5
<STATE> 2
<MEAN> 39
 4.335676e-01 9.515375e+00 7.466552e+00 8.184138e+00 4.687345e+00 -8.097126e-01 2.394009e+00 4.560923e+00 -4.453844e+00 -6.274144e+00 -5.004054e-02 1.207187e+00 5.151638e+01 2.609302e-01 1.509284e+00 -2.504701e-01 1.109782e+00 -4.551635e-01 9.776102e-01 1.072765e-02 4.847589e-01 6.185849e-01 1.336861e+00 -2.078441e-01 -1.433328e-01 -1.988643e+00 -7.305115e-01 -8.793082e-01 3.120512e-02 -6.198918e-01 2.530682e-01 -4.290239e-01 7.739653e-02 -8.379177e-01 -2.650104e-01 -5.301584e-01 7.117896e-02 9.306446e-02 1.276896e+00
<VARIANCE> 39
 1.957158e+01 2.503373e+01 1.914385e+01 2.746290e+01 6.001213e+01 4.697152e+01 4.997614e+01 5.201794e+01 3.825552e+01 3.680290e+01 3.146793e+01 2.125508e+01 2.357256e+01 2.863267e+00 1.702430e+00 1.580160e+00 2.120446e+00 2.582921e+00 3.166817e+00 3.150158e+00 3.498058e+00 2.475927e+00 3.667395e+00 2.135689e+00 1.506498e+00 4.064590e+00 4.422733e-01 4.396229e-01 3.298921e-01 4.090324e-01 5.690371e-01 4.758075e-01 6.206180e-01 8.561262e-01 4.497538e-01 5.623699e-01 5.173572e-01 3.975915e-01 8.371994e-01
<GCONST> 1.202173e+02
<STATE> 3
<MEAN> 39
 -8.233734e-01 1.136686e+01 7.206919e+00 8.586129e+00 4.731566e+00 1.783612e-01 3.382931e+00 3.327411e+00 -3.775776e+00 -5.187432e+00 -7.126540e-01 9.189268e-01 5.003446e+01 -2.582796e+00 -2.053219e+00 2.966091e-01 -1.164377e+00 6.941102e-01 3.549786e-01 6.491703e-01 -2.792642e+00 -2.429692e-01 -3.447042e-02 -1.996478e-01 2.755754e-01 2.849518e+00 -2.740156e-01 -1.430810e+00 1.106565e-01 -6.660074e-01 5.521320e-01 -9.155173e-01 -4.501011e-01 -7.537238e-01 -6.980058e-01 -1.071159e+00 3.150602e-01 2.016787e-01 1.962127e+00
<VARIANCE> 39
 1.773075e+01 2.075407e+01 1.774092e+01 2.461049e+01 4.463587e+01 3.481792e+01 3.650826e+01 4.663500e+01 3.063214e+01 3.115668e+01 2.778929e+01 1.938965e+01 2.196077e+01 1.876611e+00 3.646007e+00 1.878077e+00 2.809957e+00 3.955868e+00 3.847678e+00 4.927117e+00 4.986759e+00 3.909557e+00 3.821229e+00 2.909581e+00 2.471439e+00 5.103862e+00 4.819332e-01 3.544427e-01 3.449864e-01 4.676229e-01 7.210823e-01 9.006319e-01 8.674510e-01 9.009168e-01 5.985168e-01 8.092810e-01 6.986976e-01 5.218174e-01 4.563994e-01
<GCONST> 1.237222e+02
<STATE> 4
<MEAN> 39
 -9.270114e+00 1.374107e+00 8.520881e+00 3.290302e+00 7.837077e+00 3.731601e-01 4.546000e+00 -6.747040e+00 -5.599476e+00 -7.288695e+00 -9.966800e-01 2.216192e+00 6.390876e+01 -6.941420e-01 -3.289410e+00 2.207194e-01 -1.331298e+00 1.630497e+00 -2.187541e+00 -1.657643e+00 -2.114902e+00 -1.877030e+00 -2.661850e+00 6.307191e-01 5.903690e-01 4.550664e+00 1.078793e+00 1.724098e-01 -1.342478e-01 2.679082e-01 1.251209e-01 -9.542123e-01 -7.731956e-01 1.018331e+00 -1.937365e-01 -5.107552e-01 3.499400e-01 -4.164042e-02 -4.248582e-01
<VARIANCE> 39
 1.886479e+01 2.266511e+01 1.671811e+01 2.658922e+01 3.550684e+01 3.176158e+01 4.832104e+01 4.281128e+01 4.294903e+01 4.399540e+01 2.202899e+01 1.836134e+01 5.351904e+01 3.402119e+00 3.553885e+00 2.337730e+00 3.345535e+00 6.301051e+00 7.293994e+00 6.865557e+00 7.044085e+00 4.459648e+00 6.782739e+00 4.984495e+00 3.813346e+00 5.090724e+00 4.122687e-01 7.852578e-01 4.151596e-01 6.802429e-01 6.846636e-01 1.044436e+00 1.127086e+00 1.033883e+00 1.056274e+00 1.012956e+00 7.114403e-01 4.884538e-01 1.195362e+00
<GCONST> 1.328737e+02
<TRANSP> 5
 0.000000e+00 1.000000e+00 0.000000e+00 0.000000e+00 0.000000e+00
 0.000000e+00 5.750012e-01 4.249987e-01 0.000000e+00 0.000000e+00
 0.000000e+00 0.000000e+00 3.980180e-01 6.019820e-01 0.000000e+00
 0.000000e+00 0.000000e+00 0.000000e+00 4.783621e-01 5.216379e-01
 0.000000e+00 0.000000e+00 0.000000e+00 0.000000e+00 0.000000e+00
<ENDHMM>
~h "E"
<BEGINHMM>
<NUMSTATES> 5
<STATE> 2
<MEAN> 39
 -3.069309e+00 -3.711245e+00 5.238094e+00 6.227649e+00 1.735924e+01 -1.383680e+01 -5.638304e+00 -6.587136e+00 -1.563930e+01 -1.005287e+01 7.007451e+00 1.038843e+00 6.792680e+01 1.022893e+00 -7.341637e-01 -6.427893e-02 4.193051e-01 1.156629e+00 -2.783151e+00 -1.465645e+00 -5.471682e-01 -2.137960e+00 -6.362827e-01 1.412855e+00 -3.211832e-01 1.588393e+00 -4.161904e-01 2.181056e-01 1.873665e-03 -1.219334e-01 -7.367270e-01 8.957205e-01 4.908974e-01 3.216064e-01 9.604842e-01 4.835811e-01 -4.631158e-01 -4.149804e-02 -7.894411e-01
<VARIANCE> 39
 1.912281e+01 1.797956e+01 3.551394e+01 4.497731e+01 3.084809e+01 6.350277e+01 6.638319e+01 5.427849e+01 6.632320e+01 7.479344e+01 3.703330e+01 3.361169e+01 3.960228e+01 3.107571e+00 3.003570e+00 2.767392e+00 3.145236e+00 3.266631e+00 6.173709e+00 5.655654e+00 4.063673e+00 4.967845e+00 5.889335e+00 3.617921e+00 2.819743e+00 4.289058e+00 5.975118e-01 6.234208e-01 5.557982e-01 5.585527e-01 5.799398e-01 1.106184e+00 1.020650e+00 7.332389e-01 9.398793e-01 8.166392e-01 8.023620e-01 5.759360e-01 7.305601e-01
<GCONST> 1.334275e+02
<STATE> 3
<MEAN> 39
 -2.643542e+00 -5.144372e+00 6.034949e+00 6.737748e+00 1.667514e+01 -1.703123e+01 -7.217333e+00 -7.931567e+00 -1.673274e+01 -7.605113e+00 7.396323e+00 -2.576579e-01 6.883033e+01 -2.919534e-02 6.672697e-01 1.296204e-01 -1.738241e-01 -5.247495e-01 8.913572e-01 3.377714e-01 5.340462e-02 5.293296e-01 4.112007e-01 -5.288111e-01 -2.527500e-02 -1.007840e+00 -1.325143e-01 3.650033e-01 8.851966e-03 4.927647e-02 -3.112015e-01 7.590101e-01 3.581950e-01 2.374233e-01 5.493976e-01 1.359594e-01 -3.962810e-01 4.472017e-02 -6.324437e-01
<VARIANCE> 39
 9.576479e+00 1.440599e+01 2.782506e+01 4.648495e+01 2.811096e+01 5.067319e+01 6.902575e+01 5.354412e+01 5.098541e+01 8.657259e+01 3.542113e+01 3.552091e+01 1.876095e+01 6.805190e-01 1.424255e+00 1.534498e+00 1.702410e+00 1.722225e+00 3.200088e+00 3.239368e+00 2.421178e+00 2.696823e+00 2.695347e+00 2.119561e+00 1.710607e+00 1.839491e+00 2.204628e-01 2.182578e-01 2.695372e-01 3.656676e-01 3.771871e-01 6.123841e-01 6.365820e-01 4.603000e-01 6.185206e-01 5.933791e-01 5.003030e-01 3.553482e-01 2.473417e-01
<GCONST> 1.141134e+02
<STATE> 4
<MEAN> 39
 -4.817822e+00 1.680582e+00 5.381776e+00 6.238886e+00 1.204268e+01 -8.033928e+00 -4.161926e+00 -7.228947e+00 -1.072392e+01 -3.982417e+00 3.405922e+00 6.823821e-01 5.749027e+01 -7.331737e-01 1.078410e+00 -2.074675e-01 2.358844e-01 -1.279285e+00 2.184656e+00 7.790192e-01 9.126109e-01 1.885968e+00 8.059270e-01 -6.926369e-01 1.850033e-01 -2.557141e+00 -2.331121e-01 -3.511829e-01 -2.073640e-02 -1.155674e-01 -5.112185e-02 -1.452283e-01 9.673171e-03 1.097344e-01 7.977736e-02 -6.521078e-02 7.508600e-02 -2.036187e-02 3.168128e-01
<VARIANCE> 39
 2.602349e+01 2.389490e+01 3.359002e+01 4.395300e+01 4.285675e+01 5.426237e+01 6.469410e+01 5.025430e+01 5.127053e+01 8.403099e+01 3.379554e+01 3.127573e+01 7.368188e+01 2.511650e+00 2.302159e+00 2.843506e+00 3.125908e+00 3.067385e+00 4.107296e+00 5.068286e+00 3.717218e+00 3.549329e+00 4.155219e+00 3.178388e+00 2.295216e+00 3.473341e+00 4.109419e-01 3.900142e-01 4.887569e-01 5.973828e-01 5.965175e-01 7.011606e-01 8.260747e-01 6.178341e-01 6.208129e-01 6.574804e-01 4.908164e-01 4.137784e-01 7.484587e-01
<GCONST> 1.288233e+02
<TRANSP> 5
 0.000000e+00 1.000000e+00 0.000000e+00 0.000000e+00 0.000000e+00
 0.000000e+00 5.133799e-01 4.866201e-01 0.000000e+00 0.000000e+00
 0.000000e+00 0.000000e+00 7.135201e-01 2.864799e-01 0.000000e+00
 0.000000e+00 0.000000e+00 0.000000e+00 5.891758e-01 4.108242e-01
 0.000000e+00 0.000000e+00 0.000000e+00 0.000000e+00 0.000000e+00
<ENDHMM>
~h "G"
<BEGINHMM>
<NUMSTATES> 5
<STATE> 2
<MEAN> 39
 -1.315527e+00 7.281300e+00 5.335494e+00 8.618960e+00 8.774939e+00 -5.428042e+00 -8.266724e-02 2.250540e+00 -4.647142e+00 -4.667373e+00 2.658697e+00 -1.913036e+00 5.361084e+01 -5.154111e-01 1.304398e+00 2.286296e-01 2.576538e-01 -2.957869e-01 1.029946e+00 3.859523e-01 -4.445061e-01 5.862557e-01 9.039777e-01 -4.233314e-01 -3.180228e-01 -1.229262e+00 -3.045381e-01 -7.695094e-01 1.001976e-01 -6.425083e-01 7.788713e-02 -5.264713e-01 1.587016e-01 -2.408856e-01 -3.637912e-01 -7.156899e-01 7.072350e-02 1.710789e-01 1.182127e+00
<VARIANCE> 39
 3.192378e+01 2.951210e+01 3.000614e+01 5.581100e+01 5.461407e+01 5.588276e+01 6.845318e+01 5.284630e+01 6.210295e+01 5.512576e+01 4.263771e+01 2.875981e+01 3.576905e+01 2.092577e+00 2.001217e+00 1.960905e+00 3.261011e+00 3.214127e+00 3.400936e+00 5.630519e+00 3.427715e+00 3.875066e+00 3.222866e+00 2.631205e+00 2.466241e+00 2.710846e+00 5.183282e-01 4.348031e-01 3.599098e-01 7.197537e-01 6.215953e-01 6.012862e-01 1.116832e+00 7.112620e-01 6.794909e-01 6.565142e-01 6.006534e-01 4.995275e-01 4.136152e-01
<GCONST> 1.280756e+02
<STATE> 3
<MEAN> 39
 -3.003617e+00 9.209964e+00 7.371028e+00 8.122984e+00 9.835592e+00 -3.580692e+00 5.083799e-02 -1.401220e-01 -3.159445e+00 -3.103667e+00 8.898186e-01 -3.604906e+00 5.303370e+01 -1.001934e+00 -6.130328e-01 -9.451787e-02 -1.643371e+00 -2.958318e-01 -3.149734e-01 1.473743e+00 -5.710085e-01 -3.565075e-01 -8.794257e-01 1.105201e-02 -3.633461e-03 1.814662e+00 -6.176763e-02 -9.174508e-01 -7.790536e-02 -4.686945e-01 -6.840939e-02 -5.906100e-01 -5.050689e-02 1.649095e-01 -3.105043e-01 -8.061633e-01 1.953759e-01 3.532511e-01 1.022194e+00
<VARIANCE> 39
 2.687402e+01 3.391545e+01 2.753744e+01 5.010584e+01 4.677219e+01 5.320458e+01 5.681800e+01 4.494794e+01 5.491978e+01 4.958857e+01 3.656110e+01 2.766891e+01 3.793050e+01 5.174650e+00 3.519772e+00 3.311645e+00 6.219010e+00 5.118579e+00 5.068684e+00 1.020297e+01 5.112873e+00 5.262224e+00 4.193510e+00 4.433013e+00 3.708423e+00 3.284180e+00 6.670039e-01 4.341077e-01 4.976382e-01 7.863408e-01 6.359156e-01 8.226609e-01 1.394151e+00 7.621412e-01 7.410914e-01 7.936710e-01 6.106721e-01 5.411907e-01 6.137282e-01
<GCONST> 1.351809e+02
<STATE> 4
<MEAN> 39
 -7.172496e+00 4.790385e+00 5.730536e+00 -3.737964e-02 7.388147e+00 -5.071881e+00 6.914424e+00 7.790329e-02 -4.753783e+00 -8.589770e+00 2.138967e+00 -1.801733e+00 6.134148e+01 -2.618724e-02 -1.961439e+00 4.712140e-01 -1.016985e+00 -1.475330e-01 -1.546515e+00 -7.269623e-01 -4.015267e-02 -7.415906e-01 -2.208003e+00 -1.741292e-01 9.210710e-01 2.590029e+00 8.517388e-01 -3.125725e-01 1.373563e-01 7.339084e-01 2.013669e-01 -6.161766e-01 -1.287953e+00 2.493942e-01 -3.626864e-02 -2.787977e-01 -9.093624e-02 2.587650e-01 -1.988287e-02
<VARIANCE> 39
 2.438238e+01 4.093619e+01 3.385878e+01 7.065607e+01 8.479764e+01 6.080479e+01 7.786057e+01 6.651377e+01 7.075757e+01 5.285645e+01 3.509999e+01 2.647517e+01 3.222194e+01 3.600921e+00 3.113213e+00 3.376100e+00 6.112824e+00 5.516421e+00 6.176056e+00 9.384536e+00 5.441264e+00 5.336511e+00 5.120258e+00 4.638311e+00 3.618568e+00 3.306859e+00 4.718197e-01 5.903853e-01 7.093942e-01 1.209319e+00 8.485904e-01 1.148526e+00 1.787279e+00 9.476961e-01 9.695190e-01 8.157402e-01 8.381402e-01 5.575125e-01 5.891538e-01
<GCONST> 1.397722e+02
<TRANSP> 5
 0.000000e+00 1.000000e+00 0.000000e+00 0.000000e+00 0.000000e+00
 0.000000e+00 4.137800e-01 5.862200e-01 0.000000e+00 0.000000e+00
 0.000000e+00 0.000000e+00 3.764326e-01 6.235674e-01 0.000000e+00
 0.000000e+00 0.000000e+00 0.000000e+00 4.455960e-01 5.544040e-01
 0.000000e+00 0.000000e+00 0.000000e+00 0.000000e+00 0.000000e+00
<ENDHMM>
~h "H"
<BEGINHMM>
<NUMSTATES> 5
<STATE> 2
<MEAN> 39
 -5.710625e+00 -1.976099e-01 7.576289e+00 -3.741684e+00 4.972842e+00 -3.606074e+00 1.078273e+01 6.031404e+00 1.006284e+00 -7.569732e+00 2.636667e+00 5.351110e+00 6.306802e+01 -7.598495e-01 -8.270354e-01 -4.698297e-02 -8.608443e-01 -4.367339e-01 1.943575e+00 1.818805e+00 8.286381e-01 1.514756e+00 1.126032e+00 -4.859059e-01 3.827905e-01 -6.672595e-01 2.575045e-01 -1.070866e-01 -2.001741e-01 1.613303e-01 -1.515804e-01 -6.738502e-01 -4.612296e-01 -5.192645e-02 -3.949150e-01 -3.398949e-01 6.187300e-02 -2.345885e-01 2.403899e-01
<VARIANCE> 39
 1.512256e+01 2.620395e+01 3.139028e+01 2.557575e+01 9.309394e+01 5.423360e+01 4.925010e+01 7.516835e+01 5.999147e+01 4.784753e+01 3.084259e+01 2.525005e+01 2.588840e+01 1.217930e+00 2.185655e+00 3.136189e+00 2.511066e+00 4.413593e+00 4.718338e+00 4.491641e+00 4.544642e+00 4.119511e+00 4.173736e+00 2.737091e+00 2.476163e+00 1.410312e+00 1.510574e-01 4.111136e-01 3.706729e-01 3.099648e-01 4.837374e-01 5.999354e-01 5.637131e-01 5.811205e-01 7.228227e-01 5.711091e-01 4.388419e-01 4.270821e-01 1.057717e-01
<GCONST> 1.210603e+02
<STATE> 3
<MEAN> 39
 -7.041951e+00 -3.307902e+00 5.993042e+00 -6.461627e+00 1.420344e+00 -1.607012e+00 1.418450e+01 8.352518e+00 4.097916e+00 -5.590483e+00 1.562305e+00 5.365211e+00 6.209613e+01 3.770545e-01 6.506860e-01 4.400613e-01 2.072318e-01 -2.136691e-01 -3.795616e-01 -4.140028e-02 3.534918e-01 9.180934e-02 -3.843704e-01 -3.319334e-01 -5.937410e-01 2.457964e-02 4.930440e-01 5.990762e-01 8.189564e-02 3.619483e-01 6.348535e-02 -9.580184e-01 -6.840587e-01 -1.789731e-01 -5.403647e-01 -6.165377e-01 1.117096e-01 -2.076997e-01 2.938611e-01
<VARIANCE> 39
 1.443218e+01 2.790889e+01 3.125298e+01 3.187823e+01 7.849175e+01 3.739379e+01 4.944124e+01 5.951082e+01 4.883455e+01 3.686929e+01 2.459098e+01 2.401452e+01 2.078274e+01 9.680988e-01 2.222673e+00 1.436831e+00 1.499126e+00 3.025680e+00 2.669563e+00 2.335654e+00 2.442948e+00 2.617955e+00 2.613404e+00 1.781927e+00 1.603655e+00 6.612642e-01 1.448230e-01 2.877479e-01 4.183790e-01 3.333857e-01 4.059761e-01 7.022638e-01 5.491514e-01 5.019360e-01 5.088620e-01 5.670031e-01 4.029523e-01 3.569711e-01 9.758525e-02
<GCONST> 1.121853e+02
<STATE> 4
<MEAN> 39
 -3.586950e+00 3.005209e+00 9.003667e+00 -3.736305e+00 2.077063e+00 -6.657094e+00 1.072543e+01 8.165909e+00 1.583258e+00 -9.800937e+00 1.011507e+00 2.537545e+00 6.344925e+01 1.610740e+00 1.085124e+00 -4.721290e-01 5.147035e-01 -6.069005e-01 -3.477315e+00 -1.790126e+00 -3.523315e-02 -1.521923e+00 -1.814311e+00 3.958447e-01 -6.313706e-01 1.153060e+00 1.071451e-01 -6.005539e-01 -6.059666e-01 8.508496e-02 9.454551e-02 -4.793765e-01 -3.266972e-01 -7.823703e-02 -4.578871e-01 -1.614906e-01 2.482201e-01 1.975891e-01 2.518219e-01
<VARIANCE> 39
 1.442980e+01 2.362061e+01 3.163256e+01 2.527549e+01 7.912812e+01 5.478363e+01 6.002465e+01 6.117991e+01 5.240830e+01 4.158068e+01 2.774958e+01 2.112029e+01 2.365543e+01 9.349209e-01 2.147515e+00 2.748487e+00 2.436229e+00 2.789096e+00 4.479265e+00 2.856259e+00 2.486320e+00 3.457195e+00 3.066252e+00 2.207445e+00 1.902066e+00 7.586162e-01 1.476225e-01 3.370883e-01 2.255583e-01 3.057229e-01 3.891528e-01 7.664142e-01 4.830653e-01 4.159425e-01 5.331944e-01 4.556611e-01 3.665693e-01 3.303797e-01 1.235559e-01
<GCONST> 1.144965e+02
<TRANSP> 5
 0.000000e+00 1.000000e+00 0.000000e+00 0.000000e+00 0.000000e+00
 0.000000e+00 5.699286e-01 4.300714e-01 0.000000e+00 0.000000e+00
 0.000000e+00 0.000000e+00 6.272101e-01 3.727899e-01 0.000000e+00
 0.000000e+00 0.000000e+00 0.000000e+00 5.154222e-01 4.845777e-01
 0.000000e+00 0.000000e+00 0.000000e+00 0.000000e+00 0.000000e+00
<ENDHMM>
~h "I"
<BEGINHMM>
<NUMSTATES> 5
<STATE> 2
<MEAN> 39
 -4.283546e+00 -3.901583e+00 1.036134e+01 1.009546e+01 2.013487e+01 -9.205956e+00 -7.621232e+00 -6.365954e+00 -1.052416e+01 -1.028938e+01 3.132441e+00 -1.902684e+00 6.709527e+01 9.290341e-01 -7.722213e-01 1.095796e+00 1.102218e+00 1.873413e+00 -2.344522e+00 -2.792373e+00 2.088182e-01 -1.234727e+00 -1.406236e+00 6.096468e-01 -8.117262e-01 1.203640e+00 -2.980040e-01 3.091072e-01 -2.736856e-01 -3.858757e-01 -8.481562e-01 5.973459e-01 5.328548e-01 3.551219e-01 7.297271e-01 4.574567e-01 -1.885591e-01 1.618561e-01 -7.037843e-01
<VARIANCE> 39
 1.514774e+01 1.624758e+01 3.698194e+01 4.066389e+01 2.643204e+01 7.611301e+01 5.274494e+01 4.598052e+01 6.568784e+01 5.172653e+01 3.763770e+01 2.707175e+01 1.747041e+01 4.070635e+00 3.498435e+00 3.186124e+00 3.110557e+00 3.540405e+00 5.353472e+00 5.553491e+00 4.357932e+00 4.923140e+00 4.753557e+00 3.521235e+00 2.594290e+00 2.530624e+00 5.859700e-01 5.404143e-01 6.386270e-01 5.233072e-01 6.398035e-01 9.346185e-01 1.128254e+00 7.005563e-01 7.651796e-01 8.515776e-01 6.738290e-01 5.255832e-01 4.484186e-01
<GCONST> 1.299250e+02
<STATE> 3
<MEAN> 39
 -4.170929e+00 -5.364702e+00 1.306447e+01 1.118378e+01 2.017787e+01 -1.250726e+01 -1.141351e+01 -3.897070e+00 -9.191637e+00 -1.161546e+01 2.411521e+00 -3.437067e+00 6.781625e+01 -4.832603e-02 4.748999e-01 1.601148e-01 -1.846356e-01 -4.398459e-01 5.089273e-01 2.301655e-01 -1.060987e-01 3.095245e-01 4.011764e-01 -2.511818e-01 -9.859139e-02 -6.089292e-01 -1.295087e-01 4.151784e-01 -3.446746e-01 -2.151366e-01 -5.474784e-01 7.154494e-01 7.814532e-01 -5.608455e-02 2.888286e-01 4.996882e-01 -1.218156e-01 2.067363e-01 -5.614752e-01
<VARIANCE> 39
 9.044289e+00 1.358305e+01 2.775432e+01 4.685196e+01 2.748371e+01 7.433419e+01 5.735058e+01 5.338672e+01 7.613311e+01 4.710380e+01 4.066120e+01 2.881219e+01 1.368764e+01 8.117130e-01 1.406113e+00 2.231755e+00 1.851553e+00 1.586170e+00 3.090192e+00 3.399749e+00 2.555232e+00 2.701022e+00 2.997722e+00 1.935373e+00 1.702785e+00 1.354397e+00 3.142585e-01 2.737917e-01 3.157124e-01 3.651059e-01 5.076404e-01 6.775859e-01 8.668988e-01 5.513949e-01 6.830214e-01 5.983547e-01 4.982534e-01 3.494930e-01 2.902675e-01
<GCONST> 1.157663e+02
<STATE> 4
<MEAN> 39
 -5.859806e+00 9.283714e-01 1.071436e+01 9.856855e+00 1.545508e+01 -6.974705e+00 -5.581819e+00 -6.134208e+00 -7.576145e+00 -4.972724e+00 8.781668e-01 -2.982987e+00 5.930619e+01 -4.151272e-01 1.266936e+00 -8.162696e-01 -2.105229e-01 -1.636233e+00 1.817283e+00 1.321589e+00 5.235790e-01 1.189061e+00 1.324231e+00 -2.388526e-01 4.405107e-01 -2.432858e+00 -1.967589e-01 -2.814974e-01 -1.995415e-01 -1.289517e-01 -1.541000e-01 -6.051803e-02 9.264775e-02 2.424975e-01 9.253367e-02 -1.514836e-01 -8.726801e-03 9.693509e-02 1.056553e-01
<VARIANCE> 39
 2.147541e+01 2.666184e+01 3.159592e+01 4.614202e+01 3.561453e+01 8.285062e+01 5.150882e+01 5.702061e+01 5.295264e+01 5.852775e+01 4.062995e+01 2.800383e+01 6.345152e+01 2.606573e+00 2.523074e+00 2.757386e+00 3.079517e+00 2.820134e+00 4.268333e+00 5.380302e+00 3.648621e+00 3.608249e+00 4.087402e+00 2.898000e+00 2.173602e+00 3.431687e+00 3.788564e-01 4.268251e-01 4.899013e-01 5.590065e-01 5.050178e-01 6.839132e-01 7.786596e-01 6.666628e-01 5.900654e-01 7.099490e-01 4.550263e-01 3.931672e-01 6.756513e-01
<GCONST> 1.279464e+02
<TRANSP> 5
 0.000000e+00 1.000000e+00 0.000000e+00 0.000000e+00 0.000000e+00
 0.000000e+00 4.497706e-01 5.502294e-01 0.000000e+00 0.000000e+00
 0.000000e+00 0.000000e+00 6.819898e-01 3.180102e-01 0.000000e+00
 0.000000e+00 0.000000e+00 0.000000e+00 5.959854e-01 4.040146e-01
 0.000000e+00 0.000000e+00 0.000000e+00 0.000000e+00 0.000000e+00
<ENDHMM>
~h "J"
<BEGINHMM>
<NUMSTATES> 5
<STATE> 2
<MEAN> 39
 -1.052567e+01 4.430861e+00 1.355240e+01 2.836732e+00 9.452064e+00 8.307477e-01 4.417219e+00 -2.121799e+00 -2.488780e+00 -3.347379e+00 1.070432e+00 1.719369e+00 5.649642e+01 -1.634551e+00 -1.347036e+00 1.690361e+00 4.170909e-01 -5.336123e-01 3.660469e-01 3.266558e-01 -1.200351e-01 7.557509e-01 1.379396e-01 -9.092147e-03 -1.438002e-01 8.208585e-01 -5.405236e-02 -8.340199e-01 -1.598439e-01 1.608519e-01 4.382498e-02 -3.931990e-01 -2.520749e-01 -1.926866e-01 -3.236921e-01 -5.685031e-01 2.070847e-01 1.688075e-02 7.944973e-01
<VARIANCE> 39
 5.081972e+01 4.169288e+01 4.586650e+01 6.211412e+01 4.180101e+01 3.885476e+01 4.265506e+01 5.109425e+01 4.112884e+01 3.984195e+01 2.656553e+01 2.684751e+01 6.755563e+01 7.579180e+00 8.015699e+00 4.410400e+00 4.571956e+00 4.360875e+00 4.133592e+00 4.704724e+00 4.480610e+00 4.517165e+00 5.245006e+00 3.171877e+00 2.817301e+00 6.296941e+00 1.272673e+00 1.002306e+00 8.077657e-01 9.465330e-01 8.266835e-01 7.195247e-01 8.378016e-01 9.410719e-01 8.957052e-01 7.541313e-01 6.305568e-01 5.272304e-01 8.837104e-01
<GCONST> 1.384012e+02
<STATE> 3
<MEAN> 39
 -1.903790e+01 -8.232999e+00 2.074316e+01 5.270316e+00 7.387160e+00 -3.519624e-01 4.326665e+00 -5.510741e+00 -1.878190e+00 -6.786790e+00 3.089653e+00 1.377441e+00 6.771157e+01 3.024795e-01 -1.754361e+00 -1.318737e-01 9.289384e-01 1.013364e+00 -7.275869e-01 -1.469518e+00 -1.746808e+00 -1.383083e+00 -1.225848e+00 3.513610e-01 -9.678723e-02 2.172816e+00 1.831095e+00 9.261850e-01 -1.300262e+00 -5.564756e-02 5.735057e-01 -6.826317e-01 -6.512809e-01 1.340505e-01 -9.151963e-01 -2.779308e-01 7.190719e-02 1.195100e-01 -4.736924e-01
<VARIANCE> 39
 3.127186e+01 3.031371e+01 2.535160e+01 4.084182e+01 2.910879e+01 1.869336e+01 3.040434e+01 5.174846e+01 3.675642e+01 3.203519e+01 2.121123e+01 2.193253e+01 1.775315e+01 9.129977e+00 4.822543e+00 4.613445e+00 3.526160e+00 2.935841e+00 3.283694e+00 3.628545e+00 3.477829e+00 4.464479e+00 2.740460e+00 2.395897e+00 1.815949e+00 3.155516e+00 6.288589e-01 7.525687e-01 7.019073e-01 6.848204e-01 5.522000e-01 8.296494e-01 8.740005e-01 1.094357e+00 8.344917e-01 5.583286e-01 6.121771e-01 4.075833e-01 4.756092e-01
<GCONST> 1.265226e+02
<STATE> 4
<MEAN> 39
 -6.307409e+00 -7.593523e+00 1.268643e+01 7.903071e+00 1.292092e+01 -6.139509e+00 -3.254693e+00 -8.992241e+00 -1.127258e+01 -1.219829e+01 4.051852e+00 2.306697e+00 6.990408e+01 3.839225e+00 3.047961e-01 -3.583767e+00 -2.859874e-01 7.954503e-01 -3.149110e+00 -1.439997e+00 1.171256e+00 -2.919817e+00 -1.764481e+00 1.405431e+00 6.258054e-01 3.340760e-01 -3.234932e-01 4.003246e-01 -1.935791e-01 -5.263005e-01 -6.269307e-01 -1.482876e-01 8.176581e-01 9.449997e-01 5.857276e-01 2.944196e-01 1.279528e-01 5.381279e-02 -4.602898e-01
<VARIANCE> 39
 3.632551e+01 1.683218e+01 3.344133e+01 3.467839e+01 2.561713e+01 4.983915e+01 3.528878e+01 3.552189e+01 5.426040e+01 4.714981e+01 3.074736e+01 2.386114e+01 1.699060e+01 2.897292e+00 2.207300e+00 3.367544e+00 4.453860e+00 2.922661e+00 5.839039e+00 6.137969e+00 4.409599e+00 4.780893e+00 4.284692e+00 3.921199e+00 2.473204e+00 1.666964e+00 9.901941e-01 4.168597e-01 7.511281e-01 3.818110e-01 3.640380e-01 8.176472e-01 7.054391e-01 6.963243e-01 9.444135e-01 5.004156e-01 5.429879e-01 3.583582e-01 2.312214e-01
<GCONST> 1.253066e+02
<TRANSP> 5
 0.000000e+00 1.000000e+00 0.000000e+00 0.000000e+00 0.000000e+00
 0.000000e+00 7.528985e-01 2.471015e-01 0.000000e+00 0.000000e+00
 0.000000e+00 0.000000e+00 6.226152e-01 3.773848e-01 0.000000e+00
 0.000000e+00 0.000000e+00 0.000000e+00 5.745580e-01 4.254421e-01
 0.000000e+00 0.000000e+00 0.000000e+00 0.000000e+00 0.000000e+00
<ENDHMM>
~h "K"
<BEGINHMM>
<NUMSTATES> 5
<STATE> 2
<MEAN> 39
 -1.345131e+01 4.150337e+00 6.547554e-01 -2.795152e+00 4.113921e+00 -6.317751e+00 5.087961e+00 -2.442924e+00 -2.847909e+00 -3.064399e+00 5.102129e+00 7.744671e-01 5.539564e+01 -1.606098e+00 -5.297163e-01 -9.494820e-01 -2.386894e+00 -1.227804e+00 8.263680e-01 1.298944e+00 -8.963895e-02 3.549585e-01 -3.273972e-01 -1.046964e-01 2.078262e-01 8.745105e-01 5.823221e-01 -6.450938e-01 1.690923e-01 1.351114e-02 1.063955e-01 -2.039233e-02 -1.095857e-01 7.450220e-02 -2.508222e-01 -3.294019e-01 6.337066e-02 1.691373e-01 8.672165e-01
<VARIANCE> 39
 2.675560e+01 3.101438e+01 3.427897e+01 6.631523e+01 6.430952e+01 6.409676e+01 5.486837e+01 6.168795e+01 4.893849e+01 5.160434e+01 3.900691e+01 3.592594e+01 5.198319e+01 3.238604e+00 2.857029e+00 3.520624e+00 4.831922e+00 4.332933e+00 5.414006e+00 5.096342e+00 4.518159e+00 4.377876e+00 5.494040e+00 3.290304e+00 3.152665e+00 7.305376e+00 4.711865e-01 4.736145e-01 5.759386e-01 1.014469e+00 7.773466e-01 8.049765e-01 1.004997e+00 7.061535e-01 6.563742e-01 9.644155e-01 5.795195e-01 5.760983e-01 1.057507e+00
<GCONST> 1.361201e+02
<STATE> 3
<MEAN> 39
 -1.445431e+01 -2.760454e+00 -9.540672e-01 -9.214713e+00 1.487191e+00 -3.040886e+00 7.841178e+00 -3.813560e+00 -3.491468e+00 -4.611928e+00 5.227284e+00 3.518185e+00 6.444112e+01 4.719341e-01 -2.265032e+00 4.109142e-01 -2.028604e-01 5.549151e-01 1.224332e+00 6.800468e-02 -7.405919e-02 5.393130e-01 4.268920e-01 -3.133029e-01 8.971825e-01 8.068419e-01 5.313857e-01 3.713657e-01 5.476280e-01 8.271621e-01 6.059771e-01 -1.589640e-01 -2.540665e-01 3.528034e-01 2.010950e-01 5.564190e-02 -1.679965e-01 -2.676863e-01 -6.623816e-01
<VARIANCE> 39
 1.570592e+01 3.552562e+01 1.582524e+01 4.899745e+01 4.845026e+01 2.921382e+01 6.128876e+01 5.366315e+01 4.545906e+01 4.227613e+01 2.848133e+01 2.850004e+01 1.825715e+01 1.286467e+00 2.285455e+00 2.068536e+00 2.922426e+00 4.090559e+00 3.268270e+00 3.279428e+00 3.851397e+00 3.585407e+00 2.893931e+00 2.863834e+00 2.558405e+00 3.089208e+00 3.324742e-01 8.501550e-01 4.490222e-01 5.247675e-01 6.819180e-01 7.593389e-01 7.668532e-01 7.866907e-01 7.159969e-01 7.809800e-01 4.818080e-01 5.314284e-01 4.682258e-01
<GCONST> 1.240638e+02
<STATE> 4
<MEAN> 39
 -1.104466e+01 -6.016534e+00 3.665257e+00 -6.180566e+00 6.620907e+00 -1.677632e-01 8.256057e+00 -5.799839e-01 -2.688106e-02 -3.510480e+00 3.423132e+00 3.659418e+00 6.330765e+01 2.274460e+00 1.857032e+00 1.949264e+00 1.482062e+00 1.086182e+00 -9.052020e-01 -4.673289e-01 1.432666e+00 1.143379e-01 -1.273654e+00 -5.501808e-01 -8.434286e-01 2.810160e-01 4.505257e-01 9.162008e-01 -1.884793e-01 1.482867e-01 -3.131238e-01 -9.722950e-01 -5.914179e-01 1.149813e-02 -5.177007e-01 -7.181361e-01 1.734124e-01 -1.848096e-01 3.068042e-01
<VARIANCE> 39
 2.026928e+01 3.047865e+01 2.643251e+01 4.811790e+01 6.414346e+01 2.948928e+01 6.451402e+01 7.610979e+01 4.804124e+01 3.979810e+01 3.038901e+01 2.717171e+01 1.910610e+01 1.484145e+00 3.748824e+00 2.331352e+00 2.007186e+00 3.654409e+00 4.596972e+00 4.387583e+00 3.280592e+00 3.909218e+00 3.622527e+00 2.399650e+00 2.051249e+00 1.507446e+00 2.535390e-01 8.177137e-01 6.187896e-01 4.343209e-01 5.829421e-01 5.946342e-01 7.023124e-01 6.922647e-01 7.013465e-01 5.374483e-01 4.677894e-01 4.757125e-01 2.114382e-01
<GCONST> 1.232200e+02
<TRANSP> 5
 0.000000e+00 1.000000e+00 0.000000e+00 0.000000e+00 0.000000e+00
 0.000000e+00 6.715383e-01 3.284617e-01 0.000000e+00 0.000000e+00
 0.000000e+00 0.000000e+00 6.689945e-01 3.310055e-01 0.000000e+00
 0.000000e+00 0.000000e+00 0.000000e+00 6.423374e-01 3.576626e-01
 0.000000e+00 0.000000e+00 0.000000e+00 0.000000e+00 0.000000e+00
<ENDHMM>
~h "L"
<BEGINHMM>
<NUMSTATES> 5
<STATE> 2
<MEAN> 39
 2.168751e+00 -9.856727e-01 3.598269e+00 8.576118e+00 9.087346e+00 -1.215778e+01 1.850676e+00 6.559456e+00 -7.373521e+00 -1.800911e+01 -6.889019e+00 -1.010783e+00 6.229618e+01 4.213571e-01 -1.831219e-01 2.405114e-01 2.117958e+00 4.617352e-01 -6.835723e-01 7.753865e-01 1.653653e+00 -9.557189e-01 -9.676877e-01 -1.018987e+00 -7.910708e-01 -8.863944e-01 -3.482475e-01 1.081845e-02 -2.089433e-02 -4.716604e-01 -3.533375e-01 -3.855643e-01 -5.710790e-02 -1.992237e-01 -7.157899e-03 1.280281e-01 4.900442e-01 3.242028e-01 4.472381e-01
<VARIANCE> 39
 1.432550e+01 2.268782e+01 3.052491e+01 5.618600e+01 7.117181e+01 8.161493e+01 6.001952e+01 6.157318e+01 7.382581e+01 5.262936e+01 5.270043e+01 2.863302e+01 2.241160e+01 1.378160e+00 1.252816e+00 1.855438e+00 3.138719e+00 3.235778e+00 5.267073e+00 3.337294e+00 3.985299e+00 4.151976e+00 4.191340e+00 3.183687e+00 2.799293e+00 1.571124e+00 1.965418e-01 2.132049e-01 4.700635e-01 6.164359e-01 5.606303e-01 1.034030e+00 7.154285e-01 1.070189e+00 8.656026e-01 8.985802e-01 6.236131e-01 5.435026e-01 2.043244e-01
<GCONST> 1.255669e+02
<STATE> 3
<MEAN> 39
 1.588477e+00 -2.387504e+00 4.876684e+00 1.276102e+01 8.851295e+00 -1.639477e+01 3.489238e+00 9.783401e+00 -1.020104e+01 -2.043937e+01 -6.625036e+00 -1.653298e+00 6.243262e+01 -6.005788e-01 1.234112e-02 -4.950550e-01 -8.190039e-01 -2.463283e-01 -3.303451e-02 -2.496515e-01 -1.230088e+00 -5.160016e-01 3.040602e-01 1.009247e+00 8.458361e-01 8.399219e-01 -2.648509e-01 1.556156e-02 -2.433091e-01 -1.168674e+00 -1.795360e-01 2.229393e-01 -3.966180e-01 -9.645169e-01 1.143915e-01 6.082579e-01 8.349562e-01 5.880833e-01 5.151046e-01
<VARIANCE> 39
 1.260546e+01 2.224899e+01 2.895448e+01 5.945175e+01 7.726783e+01 7.192236e+01 6.348434e+01 5.950488e+01 7.516300e+01 5.170081e+01 5.487125e+01 2.640472e+01 1.922789e+01 1.209339e+00 1.176213e+00 1.732839e+00 3.384210e+00 3.797852e+00 4.978827e+00 3.591814e+00 5.138657e+00 5.065629e+00 4.889994e+00 4.558569e+00 3.257355e+00 1.666751e+00 1.981621e-01 2.087258e-01 3.679419e-01 5.549210e-01 4.570120e-01 7.592463e-01 6.395875e-01 8.982881e-01 9.415965e-01 8.789396e-01 7.156824e-01 5.991325e-01 2.093019e-01
<GCONST> 1.255322e+02
<STATE> 4
<MEAN> 39
 -8.487163e-01 -3.566856e-01 1.968621e+00 5.418037e+00 7.183375e+00 -1.312474e+01 1.381060e+00 2.380914e+00 -9.449500e+00 -1.708829e+01 -3.662265e+00 2.420860e+00 6.468985e+01 -6.864328e-01 1.301752e-02 -3.941984e-01 -2.160771e+00 -6.229398e-01 -2.775947e-01 -4.451609e-01 -1.480235e+00 -3.701169e-01 1.087276e+00 1.879047e+00 1.211467e+00 9.033083e-01 8.351413e-02 -2.502905e-02 2.632225e-01 2.350402e-02 -5.938536e-02 -1.613702e-01 9.704047e-02 3.857428e-01 1.222878e-01 1.692490e-01 -1.231486e-02 -2.634933e-01 -2.754387e-01
<VARIANCE> 39
 1.598299e+01 2.708974e+01 3.057537e+01 5.160443e+01 7.319046e+01 7.771399e+01 5.752381e+01 6.141541e+01 7.652273e+01 5.357695e+01 6.649319e+01 3.327823e+01 4.250306e+01 1.452248e+00 1.797362e+00 2.454193e+00 4.054928e+00 4.422037e+00 6.597126e+00 4.990711e+00 6.278318e+00 6.179460e+00 6.415781e+00 5.275129e+00 3.771757e+00 3.362914e+00 2.002535e-01 2.371331e-01 3.383938e-01 5.200744e-01 5.469984e-01 7.758768e-01 7.346091e-01 8.295628e-01 8.073171e-01 6.774216e-01 6.583990e-01 5.415175e-01 2.550446e-01
<GCONST> 1.305183e+02
<TRANSP> 5
 0.000000e+00 1.000000e+00 0.000000e+00 0.000000e+00 0.000000e+00
 0.000000e+00 5.567486e-01 4.432513e-01 0.000000e+00 0.000000e+00
 0.000000e+00 0.000000e+00 4.841320e-01 5.158680e-01 0.000000e+00
 0.000000e+00 0.000000e+00 0.000000e+00 4.036532e-01 5.963468e-01
 0.000000e+00 0.000000e+00 0.000000e+00 0.000000e+00 0.000000e+00
<ENDHMM>
~h "M"
<BEGINHMM>
<NUMSTATES> 5
<STATE> 2
<MEAN> 39
 1.287536e+00 4.911742e+00 5.336558e+00 3.845396e+00 5.921655e+00 -2.863921e+00 1.115615e+00 7.184888e+00 7.799289e-01 -8.873660e+00 -4.471481e-01 -3.439893e+00 5.715930e+01 7.782199e-01 5.783588e-01 1.088320e+00 9.924309e-01 1.167743e+00 2.697329e+00 -1.045685e+00 -2.442999e-01 1.395869e+00 8.619497e-01 -1.355308e+00 -2.308011e+00 -7.339526e-01 -1.473836e-01 -3.931756e-01 -1.530584e-01 -1.923870e-01 -1.615836e-01 -7.634112e-01 1.361936e-01 -6.748750e-02 -3.294010e-01 -2.951252e-01 2.562290e-01 3.931131e-01 5.754755e-01
<VARIANCE> 39
 3.838104e+01 2.145990e+01 2.214913e+01 2.622085e+01 4.006340e+01 9.078820e+01 5.730960e+01 4.364334e+01 5.491538e+01 4.830916e+01 3.172119e+01 2.568846e+01 5.602734e+01 3.168352e+00 1.530863e+00 1.967199e+00 1.867018e+00 3.431210e+00 9.035871e+00 4.349825e+00 4.667675e+00 5.661713e+00 5.752919e+00 3.034975e+00 2.772734e+00 4.960528e+00 3.659798e-01 2.138981e-01 2.720014e-01 2.936532e-01 3.805777e-01 6.563627e-01 6.236863e-01 4.665411e-01 5.423244e-01 5.739871e-01 4.538682e-01 4.578282e-01 2.200055e-01
<GCONST> 1.239823e+02
<STATE> 3
<MEAN> 39
 3.292997e+00 3.996227e+00 6.472487e+00 4.848618e+00 7.500908e+00 -1.946188e+00 -1.596642e+00 7.215824e+00 2.120667e+00 -9.823465e+00 -1.719130e+00 -6.598043e+00 5.907810e+01 -1.423056e-01 -3.551702e-02 1.147406e-01 1.319667e-01 -2.034643e-02 -2.566331e-01 5.338890e-02 -2.885344e-01 -1.009426e-01 4.124425e-02 -2.615785e-02 1.103285e-01 1.633146e-01 -2.043951e-01 -1.368244e-01 -3.187627e-01 -3.944789e-01 -5.605147e-01 -1.466627e+00 3.829932e-01 5.010807e-02 -6.926514e-01 -4.289972e-01 5.216699e-01 9.730061e-01 5.187110e-01
<VARIANCE> 39
 5.797515e+00 1.672516e+01 1.919720e+01 2.441112e+01 3.615030e+01 5.135788e+01 6.821743e+01 6.210312e+01 6.930246e+01 3.522309e+01 3.661031e+01 2.720791e+01 1.227377e+01 7.531967e-01 1.097260e+00 1.078703e+00 1.237645e+00 2.103229e+00 5.523088e+00 2.653443e+00 2.754025e+00 2.869497e+00 2.461780e+00 1.882089e+00 2.728412e+00 1.350656e+00 1.763644e-01 2.537073e-01 2.570018e-01 2.999438e-01 4.364236e-01 8.988072e-01 5.966165e-01 6.338190e-01 8.618995e-01 6.672413e-01 4.931867e-01 4.868251e-01 2.498398e-01
<GCONST> 1.129775e+02
<STATE> 4
<MEAN> 39
 2.780627e+00 3.891047e+00 5.365159e+00 3.567981e+00 4.383727e+00 -8.909822e+00 2.671538e-01 6.090097e+00 -9.561643e-01 -1.141639e+01 4.491337e-01 -1.501772e+00 6.151320e+01 -3.330500e-01 -4.795361e-01 -5.723829e-01 -8.824640e-01 -1.725294e+00 -4.408594e+00 6.329901e-01 4.480738e-01 -1.771413e+00 -1.044247e+00 1.555842e+00 2.223356e+00 1.635660e+00 -1.854784e-01 -2.638694e-01 -2.044908e-02 -1.544401e-01 -1.000105e-01 -3.383996e-01 6.549409e-02 2.787075e-01 -7.867492e-02 -6.081921e-02 2.330797e-01 1.854879e-02 2.341110e-01
<VARIANCE> 39
 7.837367e+00 1.604289e+01 2.287351e+01 2.919338e+01 4.679772e+01 9.565970e+01 4.944764e+01 4.720285e+01 5.909846e+01 3.322650e+01 3.520399e+01 3.538197e+01 1.769350e+01 9.717150e-01 1.837979e+00 2.190836e+00 2.300597e+00 5.160482e+00 8.245527e+00 4.435318e+00 4.130751e+00 5.251977e+00 3.980417e+00 3.599401e+00 3.128054e+00 1.935402e+00 1.546103e-01 1.916076e-01 3.378034e-01 3.429581e-01 5.114908e-01 1.276698e+00 6.948239e-01 5.541123e-01 6.207370e-01 5.521458e-01 5.460153e-01 6.065376e-01 1.834699e-01
<GCONST> 1.208113e+02
<TRANSP> 5
 0.000000e+00 1.000000e+00 0.000000e+00 0.000000e+00 0.000000e+00
 0.000000e+00 4.233720e-01 5.766280e-01 0.000000e+00 0.000000e+00
 0.000000e+00 0.000000e+00 6.341082e-01 3.658918e-01 0.000000e+00
 0.000000e+00 0.000000e+00 0.000000e+00 4.526196e-01 5.473804e-01
 0.000000e+00 0.000000e+00 0.000000e+00 0.000000e+00 0.000000e+00
<ENDHMM>
~h "N"
<BEGINHMM>
<NUMSTATES> 5
<STATE> 2
<MEAN> 39
 2.203924e+00 3.536952e+00 5.194799e+00 3.582230e+00 1.103032e+01 -2.015522e+00 -2.830282e+00 3.035835e+00 -3.447215e+00 -1.225098e+01 -4.223228e+00 -3.865925e+00 5.946928e+01 1.760753e-01 8.490958e-01 6.285299e-01 5.856866e-01 8.773164e-01 2.174942e+00 -1.099101e+00 -4.740756e-01 1.226030e+00 1.659683e-01 -1.777619e+00 -1.158964e+00 -1.264643e+00 -3.573430e-01 -1.712800e-01 -9.825875e-02 -1.816973e-01 -2.947101e-01 -8.599280e-01 4.830225e-01 -1.434979e-01 -4.115181e-01 1.323642e-01 5.426279e-01 4.291784e-01 4.500434e-01
<VARIANCE> 39
 1.023382e+01 1.683289e+01 2.077812e+01 3.798175e+01 3.201309e+01 4.267901e+01 6.181333e+01 5.579605e+01 6.659511e+01 5.122563e+01 3.195116e+01 2.363325e+01 2.008107e+01 1.143793e+00 1.229997e+00 1.544894e+00 2.233876e+00 2.934460e+00 3.995107e+00 3.830155e+00 2.888160e+00 4.207500e+00 2.872339e+00 3.371863e+00 2.674056e+00 1.388198e+00 1.537744e-01 2.347236e-01 3.105831e-01 3.162881e-01 3.869953e-01 6.130114e-01 6.553348e-01 4.484685e-01 5.958303e-01 5.046815e-01 5.014883e-01 4.173862e-01 2.465710e-01
<GCONST> 1.156178e+02
<STATE> 3
<MEAN> 39
 1.741329e+00 5.327947e+00 6.600049e+00 3.700479e+00 1.352548e+01 1.189960e+00 -6.136345e+00 5.866500e-01 2.253487e-01 -1.171483e+01 -6.633640e+00 -4.534206e+00 5.872029e+01 -5.594230e-01 -2.504529e-02 -1.130922e-01 1.429244e-01 -5.086025e-02 -6.502613e-01 8.168007e-01 -4.821569e-01 -6.668413e-01 2.077965e-01 2.396973e-01 3.616986e-01 4.478414e-01 -4.308935e-01 -5.424637e-01 -1.889943e-01 -2.156427e-01 -4.706666e-01 -1.300141e+00 7.361375e-01 2.176767e-01 -8.370622e-01 6.566556e-02 1.088863e+00 6.684216e-01 6.267452e-01
<VARIANCE> 39
 9.960654e+00 1.963033e+01 1.952629e+01 3.067562e+01 2.959428e+01 4.510017e+01 6.252557e+01 5.345100e+01 7.384954e+01 5.218899e+01 2.793908e+01 2.023045e+01 1.850930e+01 1.698364e+00 1.564968e+00 1.740187e+00 2.139503e+00 2.210989e+00 3.877120e+00 4.053150e+00 3.070394e+00 3.852339e+00 3.947438e+00 3.356300e+00 2.650383e+00 2.376605e+00 2.451948e-01 3.162530e-01 3.983763e-01 4.795104e-01 4.656298e-01 1.072258e+00 7.801059e-01 6.223483e-01 8.746005e-01 6.749105e-01 7.859146e-01 5.807765e-01 3.593670e-01
<GCONST> 1.209419e+02
<STATE> 4
<MEAN> 39
 -2.411293e+00 5.329490e+00 5.714036e+00 3.450061e+00 1.092754e+01 -1.866083e+00 4.994398e-01 -5.833659e-01 -3.892431e+00 -9.537080e+00 -4.334467e+00 -2.138199e+00 5.845789e+01 -1.210800e+00 -8.900647e-01 -3.062855e-01 -2.825057e-01 -6.998549e-01 -2.063156e+00 1.375539e+00 1.993120e-01 -1.380619e+00 6.431972e-01 1.875475e+00 1.325179e+00 6.331789e-01 -1.113709e-02 -3.751281e-01 -5.981941e-02 -1.548570e-01 -2.153387e-01 -4.223155e-01 -1.281504e-01 2.670529e-01 -6.934732e-04 -1.841703e-02 4.492158e-01 1.504910e-01 1.637141e-01
<VARIANCE> 39
 2.366804e+01 2.600004e+01 3.509920e+01 3.760168e+01 3.614447e+01 4.952933e+01 5.605944e+01 5.115158e+01 6.571669e+01 6.800133e+01 3.850092e+01 3.548730e+01 5.482877e+01 2.146966e+00 2.800589e+00 3.072452e+00 3.237876e+00 3.715909e+00 8.598075e+00 5.261861e+00 4.279971e+00 6.543098e+00 5.907314e+00 5.752125e+00 4.019606e+00 5.145361e+00 3.127515e-01 4.439096e-01 5.882983e-01 4.338269e-01 5.093685e-01 8.737156e-01 8.702927e-01 6.360412e-01 7.835932e-01 7.689070e-01 6.915004e-01 5.992510e-01 4.532546e-01
<GCONST> 1.325482e+02
<TRANSP> 5
 0.000000e+00 1.000000e+00 0.000000e+00 0.000000e+00 0.000000e+00
 0.000000e+00 5.668990e-01 4.331010e-01 0.000000e+00 0.000000e+00
 0.000000e+00 0.000000e+00 4.678387e-01 5.321612e-01 0.000000e+00
 0.000000e+00 0.000000e+00 0.000000e+00 4.056311e-01 5.943689e-01
 0.000000e+00 0.000000e+00 0.000000e+00 0.000000e+00 0.000000e+00
<ENDHMM>
~h "O"
<BEGINHMM>
<NUMSTATES> 5
<STATE> 2
<MEAN> 39
 1.914425e-01 2.521729e+00 7.911739e+00 -2.543787e+00 2.565616e+00 -1.573935e+01 -1.117907e+00 7.126433e+00 -3.409979e+00 -1.994730e+01 -1.334676e+00 2.691046e+00 6.575208e+01 1.619225e+00 -4.493843e-02 4.173141e-01 -1.164109e-01 -8.295785e-01 -3.464303e+00 -1.397653e+00 1.966732e+00 -3.189049e-01 -2.398566e+00 -1.320447e-01 -3.210225e-01 1.249660e+00 -5.659083e-01 -8.702181e-02 -3.375301e-01 1.935727e-01 9.037495e-02 1.009312e+00 4.864748e-01 -3.344842e-01 2.089984e-01 9.444250e-01 2.788806e-02 -1.721547e-01 -6.086231e-01
<VARIANCE> 39
 1.530926e+01 2.570726e+01 3.485887e+01 3.519252e+01 5.648094e+01 9.859856e+01 7.010072e+01 5.195334e+01 7.837267e+01 6.894434e+01 3.996384e+01 3.023507e+01 3.134606e+01 3.187391e+00 3.138774e+00 3.056713e+00 4.292948e+00 3.915312e+00 7.178636e+00 7.606551e+00 4.440040e+00 5.001294e+00 6.190199e+00 3.776501e+00 2.771887e+00 2.682832e+00 5.522939e-01 5.600134e-01 6.654515e-01 6.534236e-01 6.707712e-01 1.524472e+00 1.046022e+00 8.076866e-01 1.032087e+00 1.143212e+00 6.218143e-01 5.927772e-01 5.632250e-01
<GCONST> 1.356683e+02
<STATE> 3
<MEAN> 39
 1.070431e+00 1.673700e+00 8.186407e+00 -2.140893e+00 -5.806466e-01 -2.073391e+01 -2.927448e-01 1.008325e+01 -4.215951e+00 -2.086403e+01 -1.418561e+00 1.064006e+00 6.716977e+01 -4.361557e-03 4.034038e-01 -1.961332e-01 1.013372e-01 -4.444789e-02 7.450784e-01 4.173153e-01 -1.072442e-01 1.157402e-01 5.725056e-01 -3.775363e-01 -4.281600e-01 -6.010004e-01 -2.690822e-01 2.507659e-01 -1.679133e-01 2.338322e-01 4.003188e-01 1.292442e+00 2.370946e-01 -5.484566e-01 2.155574e-01 7.964239e-01 -1.571328e-01 4.690992e-02 -6.899952e-01
<VARIANCE> 39
 8.170182e+00 1.674225e+01 3.617901e+01 3.520135e+01 5.880327e+01 8.390620e+01 7.563810e+01 4.481462e+01 7.606638e+01 6.372718e+01 4.113745e+01 3.118396e+01 1.450043e+01 6.580387e-01 1.642609e+00 2.133906e+00 1.992708e+00 3.522436e+00 5.658397e+00 3.783275e+00 3.194062e+00 3.692100e+00 3.541172e+00 2.910792e+00 2.091226e+00 1.782457e+00 2.822994e-01 2.999614e-01 3.420915e-01 4.473844e-01 4.883538e-01 9.486970e-01 9.516547e-01 6.348473e-01 7.860542e-01 9.333235e-01 5.458279e-01 4.671254e-01 2.666976e-01
<GCONST> 1.220418e+02
<STATE> 4
<MEAN> 39
 -1.002151e+00 6.283884e+00 5.322746e+00 -1.333438e+00 1.155759e-01 -1.294168e+01 2.066576e+00 6.686952e+00 -3.223780e+00 -1.372652e+01 -3.264409e+00 4.679645e-01 5.888411e+01 -6.443266e-01 7.565059e-01 -5.972981e-01 7.464346e-01 6.022051e-01 2.962195e+00 3.465450e-01 -8.131361e-01 6.445767e-01 2.112702e+00 -2.539917e-01 8.401928e-03 -2.338655e+00 -2.430969e-01 -2.725433e-01 2.845297e-03 1.149069e-01 9.771650e-02 1.537835e-01 -3.536673e-02 -8.917428e-02 -1.548282e-02 1.336481e-01 1.833601e-01 1.202584e-01 -1.742343e-02
<VARIANCE> 39
 1.913237e+01 2.948833e+01 3.456006e+01 3.473302e+01 7.017094e+01 8.470384e+01 6.037164e+01 4.545249e+01 5.807167e+01 7.194205e+01 3.846059e+01 2.492137e+01 6.819498e+01 2.129479e+00 2.607462e+00 2.532075e+00 2.858896e+00 4.176269e+00 5.093717e+00 5.520505e+00 4.047087e+00 4.273115e+00 5.046405e+00 3.193748e+00 2.611212e+00 2.817153e+00 3.465986e-01 4.007547e-01 4.497778e-01 4.726309e-01 5.498907e-01 8.441362e-01 8.240430e-01 6.928703e-01 6.873333e-01 7.472889e-01 5.330859e-01 4.070544e-01 5.066811e-01
<GCONST> 1.294966e+02
<TRANSP> 5
 0.000000e+00 1.000000e+00 0.000000e+00 0.000000e+00 0.000000e+00
 0.000000e+00 4.057067e-01 5.942933e-01 0.000000e+00 0.000000e+00
 0.000000e+00 0.000000e+00 6.409009e-01 3.590991e-01 0.000000e+00
 0.000000e+00 0.000000e+00 0.000000e+00 5.212193e-01 4.787807e-01
 0.000000e+00 0.000000e+00 0.000000e+00 0.000000e+00 0.000000e+00
<ENDHMM>
~h "P"
<BEGINHMM>
<NUMSTATES> 5
<STATE> 2
<MEAN> 39
 -3.821738e+00 6.972261e+00 8.950599e-01 5.153689e+00 4.950118e-01 -3.721028e+00 4.718557e-01 4.382000e+00 -2.810260e+00 -4.883062e+00 1.291053e+00 2.874940e+00 4.714407e+01 -1.611329e+00 3.232685e-01 -4.410043e-01 -1.911774e-01 -4.060529e-01 8.870882e-01 1.030549e-01 -7.517213e-01 6.663799e-01 1.325115e+00 -1.467159e-01 7.546776e-02 -1.755791e+00 -1.614468e-01 -5.156392e-01 2.428388e-01 -4.854627e-01 4.759144e-01 -2.667253e-01 2.718829e-01 -3.334069e-01 -2.729400e-02 -4.762381e-01 -5.945414e-02 -1.629120e-02 1.263051e+00
<VARIANCE> 39
 2.787002e+01 2.139290e+01 2.698046e+01 3.880734e+01 5.968518e+01 5.872207e+01 3.329127e+01 5.275808e+01 4.520991e+01 3.630972e+01 2.708053e+01 2.354195e+01 2.131786e+01 1.418262e+00 1.424057e+00 1.731707e+00 2.415465e+00 2.600935e+00 2.577100e+00 2.860515e+00 3.078845e+00 2.031679e+00 2.730783e+00 1.732865e+00 1.601284e+00 3.388501e+00 3.561883e-01 3.255267e-01 3.282452e-01 4.690262e-01 4.594417e-01 6.722327e-01 6.557271e-01 6.555201e-01 4.477964e-01 4.733980e-01 3.937269e-01 3.521108e-01 4.211794e-01
<GCONST> 1.173047e+02
<STATE> 3
<MEAN> 39
 -1.083396e+01 5.431181e+00 2.162328e+00 2.740754e+00 2.894458e+00 -8.636867e-02 2.902390e+00 4.605905e-01 3.537973e-01 -9.114787e-01 6.623449e-01 2.622858e+00 4.616439e+01 -5.086882e-01 -1.456025e+00 1.845856e-01 -1.165636e+00 1.140326e+00 2.613786e-01 1.214080e+00 -9.578151e-01 3.703395e-01 -7.022748e-01 -3.286621e-01 9.318963e-02 3.223915e+00 1.199482e+00 -1.684286e-01 8.646733e-02 -1.953374e-02 -9.047216e-02 -1.189143e+00 -2.494422e-01 5.715480e-01 -2.908853e-01 -1.109802e+00 9.724277e-02 -4.331516e-02 1.442854e+00
<VARIANCE> 39
 2.139491e+01 2.659879e+01 2.017663e+01 3.561690e+01 3.330387e+01 3.837226e+01 2.536438e+01 3.220592e+01 3.112659e+01 2.615264e+01 2.062753e+01 2.105046e+01 3.645790e+01 3.784033e+00 3.690402e+00 2.928780e+00 3.683330e+00 5.306211e+00 6.554036e+00 4.246880e+00 4.484106e+00 4.168513e+00 3.762800e+00 2.640960e+00 2.522432e+00 5.039822e+00 4.524336e-01 6.207613e-01 5.798701e-01 7.267491e-01 1.030518e+00 1.531235e+00 9.663695e-01 9.265214e-01 7.257011e-01 6.489311e-01 5.246570e-01 4.257626e-01 6.367164e-01
<GCONST> 1.281141e+02
<STATE> 4
<MEAN> 39
 -9.270703e+00 1.502413e+00 2.115391e+00 -1.376157e-01 6.414346e+00 5.740080e-01 6.460812e+00 -9.813600e-01 4.893075e-01 -4.870006e+00 -4.778515e-01 2.875640e+00 5.819160e+01 3.101747e+00 -4.261516e-01 5.992205e-01 -8.760920e-01 -3.736854e-01 -3.931856e+00 -9.272119e-01 1.277874e+00 -2.146276e-01 -3.549222e+00 -5.593324e-02 -7.600050e-02 4.751269e+00 9.086836e-01 3.214068e-01 3.496384e-02 2.444507e-01 -6.735078e-01 -1.456652e+00 -1.069753e+00 9.161332e-01 -2.607111e-01 -8.871920e-01 2.511018e-01 -1.500782e-02 -2.167005e-01
<VARIANCE> 39
 2.370520e+01 2.611457e+01 1.749366e+01 1.741677e+01 3.251859e+01 3.732925e+01 2.533792e+01 2.381621e+01 2.584035e+01 2.103516e+01 1.737612e+01 1.438824e+01 2.792380e+01 3.640574e+00 3.673250e+00 4.389234e+00 4.879795e+00 9.609840e+00 1.516631e+01 8.131330e+00 7.038940e+00 5.915384e+00 5.521597e+00 4.048922e+00 2.856327e+00 4.794879e+00 6.383656e-01 8.165736e-01 7.165080e-01 5.987823e-01 8.735519e-01 1.291894e+00 1.319765e+00 8.318846e-01 7.283688e-01 7.938813e-01 6.175061e-01 4.695882e-01 7.286071e-01
<GCONST> 1.312806e+02
<TRANSP> 5
 0.000000e+00 1.000000e+00 0.000000e+00 0.000000e+00 0.000000e+00
 0.000000e+00 6.994389e-01 3.005611e-01 0.000000e+00 0.000000e+00
 0.000000e+00 0.000000e+00 4.968947e-01 5.031053e-01 0.000000e+00
 0.000000e+00 0.000000e+00 0.000000e+00 4.005805e-01 5.994195e-01
 0.000000e+00 0.000000e+00 0.000000e+00 0.000000e+00 0.000000e+00
<ENDHMM>
~h "R"
<BEGINHMM>
<NUMSTATES> 5
<STATE> 2
<MEAN> 39
 -6.320446e-01 1.499364e+00 1.411794e+00 -3.665337e-01 9.348165e+00 -3.874349e+00 7.654819e-01 3.737571e-02 -6.360797e+00 -1.464178e+01 -1.394071e+00 4.953628e+00 6.262632e+01 3.377551e-01 6.286898e-01 -4.539821e-01 -7.212299e-02 1.274611e+00 1.134725e+00 -2.834061e-01 -3.566935e-01 -6.008778e-01 -2.555820e-01 -2.760538e-01 2.644508e-01 -6.026446e-01 -1.649338e-01 -2.298484e-01 2.104361e-01 -3.373943e-02 -1.348645e-01 -9.608076e-01 -2.936473e-01 2.850247e-01 -2.257145e-01 -1.510784e-01 5.446035e-01 -5.074076e-03 3.474576e-01
<VARIANCE> 39
 2.967039e+01 1.955768e+01 2.737695e+01 4.857565e+01 4.328916e+01 5.823748e+01 4.887294e+01 5.185003e+01 5.423508e+01 5.451291e+01 4.953453e+01 2.670565e+01 3.652896e+01 4.056273e+00 2.188276e+00 2.584890e+00 3.138003e+00 4.512395e+00 8.986031e+00 7.902612e+00 4.294914e+00 4.732332e+00 7.916235e+00 3.419531e+00 2.879555e+00 3.879736e+00 4.748670e-01 3.907191e-01 5.190569e-01 6.371676e-01 7.150930e-01 1.066829e+00 1.153375e+00 8.222018e-01 8.342922e-01 9.015229e-01 7.364324e-01 4.802183e-01 7.619820e-01
<GCONST> 1.337401e+02
<STATE> 3
<MEAN> 39
 -8.897053e-04 1.693461e+00 4.864950e-01 -1.391324e+00 1.180121e+01 -4.132845e+00 -1.502640e+00 8.984124e-02 -7.896372e+00 -1.677889e+01 -5.678384e-01 5.712621e+00 6.350981e+01 2.979101e-02 1.829531e-01 -6.826034e-02 -2.154187e-02 7.945208e-01 -6.977385e-01 -7.155033e-01 3.302434e-01 -7.691598e-01 -5.611393e-01 5.863431e-01 3.533887e-01 -7.862388e-02 -3.342521e-01 -2.910798e-01 3.230438e-01 2.073501e-01 -5.236092e-01 -8.151760e-01 1.009009e-01 2.287460e-01 4.756746e-02 3.040839e-01 4.244211e-01 -1.718045e-01 1.286077e-01
<VARIANCE> 39
 2.202620e+01 2.014301e+01 2.697004e+01 5.350550e+01 4.388867e+01 5.487667e+01 5.892520e+01 5.088791e+01 6.368948e+01 7.565707e+01 4.766967e+01 2.794308e+01 3.302261e+01 3.421517e+00 2.516345e+00 2.834016e+00 3.603889e+00 4.823354e+00 8.240779e+00 7.668762e+00 4.868751e+00 6.151268e+00 8.312989e+00 4.246981e+00 3.214396e+00 4.156293e+00 5.402194e-01 4.898852e-01 5.132159e-01 6.387621e-01 7.507479e-01 1.420256e+00 1.209036e+00 7.664987e-01 8.973259e-01 1.101801e+00 6.753161e-01 4.861345e-01 8.684556e-01
<GCONST> 1.360406e+02
<STATE> 4
<MEAN> 39
 -2.446843e+00 2.174161e+00 9.756942e-01 -7.677870e-01 1.005615e+01 -6.826794e+00 -1.732752e+00 3.043416e-01 -9.235653e+00 -1.459216e+01 1.340513e+00 6.616751e+00 6.013735e+01 -5.895383e-01 3.862477e-03 3.337622e-01 5.645334e-01 -5.015390e-01 -5.958829e-01 1.822527e-01 3.386795e-01 1.904705e-01 7.914471e-01 5.042882e-01 -2.238141e-01 -6.670181e-01 -1.225792e-01 -2.106817e-01 1.844528e-01 1.606700e-01 -3.903582e-01 -1.372047e-01 2.448908e-01 7.279961e-02 2.679772e-01 2.860460e-01 6.313286e-02 -2.628868e-01 1.051106e-01
<VARIANCE> 39
 3.587559e+01 2.858407e+01 3.450569e+01 5.024188e+01 7.601544e+01 6.968203e+01 7.219174e+01 6.030140e+01 7.723374e+01 9.789459e+01 5.105698e+01 3.780519e+01 7.274267e+01 3.604478e+00 3.543985e+00 3.490600e+00 3.631219e+00 6.578144e+00 8.712598e+00 6.165293e+00 5.071306e+00 7.038577e+00 6.795967e+00 4.597511e+00 3.143761e+00 7.253448e+00 6.272365e-01 5.430515e-01 5.912281e-01 6.407949e-01 1.005116e+00 1.291577e+00 1.365109e+00 7.670199e-01 9.098768e-01 1.319073e+00 6.286457e-01 5.645712e-01 9.066558e-01
<GCONST> 1.422109e+02
<TRANSP> 5
 0.000000e+00 1.000000e+00 0.000000e+00 0.000000e+00 0.000000e+00
 0.000000e+00 2.612937e-01 7.387062e-01 0.000000e+00 0.000000e+00
 0.000000e+00 0.000000e+00 1.322958e-01 8.677042e-01 0.000000e+00
 0.000000e+00 0.000000e+00 0.000000e+00 3.844696e-01 6.155304e-01
 0.000000e+00 0.000000e+00 0.000000e+00 0.000000e+00 0.000000e+00
<ENDHMM>
~h "S"
<BEGINHMM>
<NUMSTATES> 5
<STATE> 2
<MEAN> 39
 -1.497834e+01 1.080150e+00 1.381527e+01 -4.068314e+00 5.099438e+00 3.105037e-01 7.984536e+00 -4.750754e+00 -5.199013e+00 -4.706380e+00 1.514850e+00 1.550609e+00 6.274416e+01 -5.474375e+00 -6.014560e-01 2.550994e+00 -2.378819e+00 -3.736472e-01 2.268241e+00 1.206555e+00 -1.321188e+00 1.299549e+00 2.141562e+00 4.277468e-01 1.676960e-01 1.269478e+00 -4.217614e-01 -2.917517e-01 -3.750013e-01 -2.187394e-01 -9.077311e-02 -5.974192e-01 -5.305782e-01 2.917766e-01 2.314642e-02 -1.501796e-01 2.690935e-01 -2.457993e-02 1.118019e-01
<VARIANCE> 39
 6.590566e+01 2.723181e+01 5.044983e+01 3.954939e+01 5.140522e+01 6.295993e+01 5.555641e+01 7.219443e+01 5.256275e+01 5.493029e+01 3.141618e+01 2.751969e+01 1.047663e+02 6.244988e+00 3.975342e+00 3.153686e+00 3.589307e+00 4.623283e+00 6.214118e+00 5.882514e+00 5.871669e+00 4.963454e+00 6.899367e+00 3.528234e+00 2.523527e+00 3.843176e+00 1.157704e+00 5.694256e-01 7.088934e-01 5.785254e-01 5.340053e-01 8.734272e-01 7.326683e-01 7.589377e-01 7.868258e-01 8.236253e-01 5.391845e-01 4.420881e-01 5.494775e-01
<GCONST> 1.370101e+02
<STATE> 3
<MEAN> 39
 -3.254347e+01 -1.706010e+00 1.686615e+01 -1.286045e+01 4.124853e+00 1.954394e+00 6.835496e+00 -6.264698e+00 -2.237744e+00 -1.201927e+00 3.780648e+00 1.146389e+00 6.719466e+01 -1.097213e+00 -3.093474e-01 -5.324137e-01 -4.384535e-01 8.109131e-02 -1.933098e-01 -1.402135e-01 5.107355e-02 4.059374e-01 3.940859e-01 8.654334e-02 2.407854e-01 -3.909799e-01 1.413544e+00 5.982209e-02 -4.532505e-01 6.800594e-01 2.173408e-01 -2.122661e-01 -5.635048e-02 1.248364e-01 -1.492851e-01 -3.092073e-01 -1.213804e-01 1.036232e-01 -4.137547e-01
<VARIANCE> 39
 1.527014e+01 2.943870e+01 2.799467e+01 2.512383e+01 3.064479e+01 2.814335e+01 4.016758e+01 2.803015e+01 3.049722e+01 2.427294e+01 2.350727e+01 1.988875e+01 1.458129e+01 6.823788e+00 1.934138e+00 2.472504e+00 3.068612e+00 1.776633e+00 1.841935e+00 2.050075e+00 2.631404e+00 2.205793e+00 2.071478e+00 1.829841e+00 1.653657e+00 2.569640e+00 5.373104e-01 3.600230e-01 5.142509e-01 3.239469e-01 3.640873e-01 5.001886e-01 4.931185e-01 5.270509e-01 4.860464e-01 5.429015e-01 3.823633e-01 3.250797e-01 3.044757e-01
<GCONST> 1.135173e+02
<STATE> 4
<MEAN> 39
 -2.415318e+01 -3.908336e+00 1.173414e+01 -7.003941e+00 6.471310e+00 1.524006e+00 7.183851e+00 -5.041404e+00 -1.082242e+00 -1.506440e+00 3.045385e+00 4.111270e+00 6.132516e+01 3.976660e+00 1.780196e-01 -1.201376e+00 1.879988e+00 6.887094e-01 -2.576697e-01 -8.618902e-01 4.846022e-01 -4.492162e-01 -1.010642e+00 -3.222775e-01 4.505198e-02 -1.255214e+00 4.097627e-01 1.245356e-01 -1.339170e-01 5.428704e-02 -4.033184e-02 -3.879972e-01 -3.271283e-01 1.327600e-01 -3.725341e-01 -4.232320e-01 6.183161e-02 -1.995409e-01 5.457231e-01
<VARIANCE> 39
 4.404430e+01 5.935136e+01 4.520547e+01 4.404998e+01 3.568163e+01 3.846034e+01 4.855444e+01 5.003230e+01 3.620369e+01 3.832774e+01 2.799637e+01 2.659887e+01 6.392134e+01 7.933508e+00 2.751664e+00 4.244741e+00 3.631670e+00 3.681137e+00 5.469985e+00 4.014455e+00 4.373862e+00 5.122282e+00 5.052711e+00 2.713952e+00 2.584177e+00 5.218979e+00 1.186316e+00 6.424081e-01 7.696481e-01 6.982005e-01 5.596231e-01 1.080607e+00 8.603227e-01 8.914728e-01 7.601794e-01 7.019851e-01 5.420069e-01 4.458485e-01 9.561642e-01
<GCONST> 1.349542e+02
<TRANSP> 5
 0.000000e+00 1.000000e+00 0.000000e+00 0.000000e+00 0.000000e+00
 0.000000e+00 6.554080e-01 3.445920e-01 0.000000e+00 0.000000e+00
 0.000000e+00 0.000000e+00 8.142205e-01 1.857795e-01 0.000000e+00
 0.000000e+00 0.000000e+00 0.000000e+00 7.022507e-01 2.977493e-01
 0.000000e+00 0.000000e+00 0.000000e+00 0.000000e+00 0.000000e+00
<ENDHMM>
~h "T"
<BEGINHMM>
<NUMSTATES> 5
<STATE> 2
<MEAN> 39
 -7.125417e+00 6.189599e+00 3.959295e+00 2.910618e+00 5.064461e-01 -2.740192e+00 3.181592e+00 2.284323e+00 -2.801592e+00 -3.062124e+00 5.705360e-01 1.437385e+00 4.833285e+01 -1.121836e+00 -2.234003e-01 -1.048353e+00 9.465189e-02 -3.451694e-01 7.183584e-01 -2.073963e-01 -1.046299e-01 7.652315e-01 1.264051e+00 8.103637e-02 3.185073e-01 -1.472830e+00 -2.464335e-01 -7.548106e-01 2.595152e-01 -4.371486e-01 4.330871e-01 -1.897701e-01 1.962866e-01 -6.268383e-01 -1.729879e-01 -5.562457e-01 7.227656e-02 1.259916e-01 1.689192e+00
<VARIANCE> 39
 3.430929e+01 1.986334e+01 3.355712e+01 4.298384e+01 7.802403e+01 6.426545e+01 4.541750e+01 6.207164e+01 3.733622e+01 4.326972e+01 2.849543e+01 2.683407e+01 3.804500e+01 2.942289e+00 2.953582e+00 2.738437e+00 3.000101e+00 3.570246e+00 2.898741e+00 3.671522e+00 4.701264e+00 2.374779e+00 3.061764e+00 2.029924e+00 1.848480e+00 6.798749e+00 5.643942e-01 5.456574e-01 6.875757e-01 6.136361e-01 7.684536e-01 7.082309e-01 8.945792e-01 9.946705e-01 5.846012e-01 6.350142e-01 4.759498e-01 4.510694e-01 1.303979e+00
<GCONST> 1.292521e+02
<STATE> 3
<MEAN> 39
 -1.265528e+01 3.113485e+00 3.093173e+00 2.008175e+00 2.876964e+00 2.321409e-01 4.283696e+00 -8.372734e-01 3.294638e-01 2.709361e-01 9.246455e-01 2.323421e+00 4.891227e+01 -1.415417e+00 -2.506737e+00 4.907924e-01 -1.196399e+00 7.430581e-01 1.599198e-01 8.683583e-01 -2.434234e+00 -3.199500e-01 -6.143356e-01 7.096845e-02 7.895577e-01 4.795032e+00 9.818368e-01 -1.279087e-01 5.411593e-01 -8.336806e-02 4.041360e-01 -8.275489e-01 -2.825135e-01 -5.103113e-02 -9.773983e-01 -1.307271e+00 7.814451e-02 -8.632786e-02 1.480262e+00
<VARIANCE> 39
 2.955392e+01 3.724312e+01 2.281593e+01 3.768375e+01 4.940430e+01 4.568317e+01 3.671922e+01 5.161589e+01 3.096672e+01 3.258030e+01 2.395372e+01 2.424477e+01 7.335178e+01 4.139119e+00 2.990036e+00 3.598942e+00 4.223113e+00 6.459023e+00 5.885755e+00 5.221765e+00 6.041686e+00 4.756999e+00 4.842019e+00 3.204167e+00 3.231920e+00 6.762955e+00 4.954964e-01 5.875520e-01 6.030275e-01 7.862588e-01 1.014669e+00 9.339702e-01 9.428084e-01 1.070450e+00 7.054889e-01 8.514474e-01 5.899638e-01 5.529132e-01 1.151871e+00
<GCONST> 1.344818e+02
<STATE> 4
<MEAN> 39
 -1.386260e+01 -2.553914e+00 6.018648e+00 -8.770370e-01 5.572760e+00 -1.160403e-01 6.095201e+00 -7.713654e+00 -3.438534e+00 -4.231586e+00 1.004255e+00 4.043949e+00 6.522760e+01 2.212366e+00 -9.393568e-01 1.099828e+00 -4.841550e-01 1.434761e+00 -2.303295e+00 -8.848482e-01 -3.624097e-01 -2.552542e+00 -3.660699e+00 1.711862e-01 -4.527915e-02 4.361871e+00 1.232932e+00 6.522563e-01 -1.588900e-01 3.395465e-01 -6.170306e-02 -1.044165e+00 -6.895205e-01 1.277758e+00 -3.923763e-01 -6.977437e-01 1.401637e-01 -3.649092e-01 -1.076396e+00
<VARIANCE> 39
 2.663597e+01 2.148590e+01 2.040043e+01 2.386528e+01 3.423562e+01 3.025593e+01 4.472822e+01 3.856591e+01 3.719804e+01 3.513488e+01 2.340401e+01 2.065728e+01 3.265278e+01 5.149036e+00 3.263974e+00 3.295229e+00 4.571711e+00 8.253944e+00 8.530540e+00 7.281277e+00 7.859912e+00 5.386278e+00 8.440610e+00 4.292349e+00 3.871761e+00 9.523211e+00 6.112695e-01 5.181726e-01 5.955709e-01 7.619780e-01 9.124932e-01 1.053267e+00 1.135879e+00 1.028628e+00 1.191809e+00 1.102899e+00 7.331453e-01 5.280613e-01 8.061973e-01
<GCONST> 1.354552e+02
<TRANSP> 5
 0.000000e+00 1.000000e+00 0.000000e+00 0.000000e+00 0.000000e+00
 0.000000e+00 6.254238e-01 3.745762e-01 0.000000e+00 0.000000e+00
 0.000000e+00 0.000000e+00 3.720649e-01 6.279352e-01 0.000000e+00
 0.000000e+00 0.000000e+00 0.000000e+00 4.830944e-01 5.169057e-01
 0.000000e+00 0.000000e+00 0.000000e+00 0.000000e+00 0.000000e+00
<ENDHMM>
~h "U"
<BEGINHMM>
<NUMSTATES> 5
<STATE> 2
<MEAN> 39
 -2.037106e+00 3.066927e+00 1.028689e+01 -1.431921e+00 7.851970e+00 -5.690009e+00 -1.533152e-01 2.454493e+00 -4.069323e+00 -1.761570e+01 -4.053305e+00 1.849460e+00 6.314784e+01 2.225927e+00 9.939259e-01 1.369009e+00 -3.335829e-01 -1.645032e-01 -2.819983e+00 -2.412428e+00 1.737307e+00 4.328588e-01 -2.960745e+00 -1.280006e+00 -8.987968e-02 1.043266e+00 -4.456027e-01 -2.143313e-01 -4.092170e-01 2.059590e-01 -1.848700e-01 2.170117e-01 2.103981e-02 -5.671970e-03 4.751247e-01 6.581963e-01 1.905098e-01 -2.469973e-02 -3.613456e-01
<VARIANCE> 39
 2.156845e+01 3.218727e+01 2.941088e+01 2.862648e+01 5.188708e+01 9.494240e+01 5.991064e+01 5.152507e+01 7.433425e+01 5.841220e+01 3.790171e+01 2.577462e+01 4.587502e+01 3.622674e+00 4.299657e+00 3.759013e+00 4.233056e+00 4.103200e+00 6.529223e+00 7.619563e+00 5.021822e+00 5.467543e+00 6.101011e+00 4.010049e+00 3.270828e+00 3.052690e+00 7.430444e-01 6.987703e-01 6.399505e-01 4.794647e-01 6.522338e-01 1.320220e+00 9.120117e-01 8.042786e-01 8.180734e-01 1.086436e+00 6.016174e-01 5.085151e-01 7.641542e-01
<GCONST> 1.363543e+02
<STATE> 3
<MEAN> 39
 3.300597e-01 2.717350e+00 1.215633e+01 -2.194841e+00 6.052255e+00 -1.146264e+01 -4.436864e+00 7.314762e+00 -1.476819e-01 -2.267845e+01 -6.343163e+00 2.090469e+00 6.583398e+01 3.034737e-01 2.419721e-01 -2.018524e-01 3.947794e-03 -3.659142e-02 -1.603708e-01 -4.197878e-01 2.767545e-01 6.569522e-01 -3.991245e-02 -5.121768e-01 -3.528194e-01 -7.983179e-02 -4.906766e-01 5.761878e-02 -5.235119e-01 3.075675e-01 1.650245e-01 1.146457e+00 7.558197e-01 -6.691524e-01 -7.414477e-02 1.251631e+00 3.230124e-01 -1.443596e-01 -6.132942e-01
<VARIANCE> 39
 8.098852e+00 1.957335e+01 3.037762e+01 2.997947e+01 5.926848e+01 7.443017e+01 5.411613e+01 4.516600e+01 9.422550e+01 4.705064e+01 4.719455e+01 3.038240e+01 1.352078e+01 9.785264e-01 2.017164e+00 1.997900e+00 2.036819e+00 3.380636e+00 5.286384e+00 5.192401e+00 4.414610e+00 3.926187e+00 4.562422e+00 3.571330e+00 2.229315e+00 1.615524e+00 3.757070e-01 4.341691e-01 4.786413e-01 4.714915e-01 6.482986e-01 9.305305e-01 9.336284e-01 6.768368e-01 9.963890e-01 9.842873e-01 6.684144e-01 5.445675e-01 2.940091e-01
<GCONST> 1.250381e+02
<STATE> 4
<MEAN> 39
 -4.718344e-01 5.107120e+00 8.841537e+00 -1.340049e+00 7.336709e+00 -7.024105e+00 -1.251382e+00 3.482483e+00 -1.410523e+00 -1.663050e+01 -6.286818e+00 -1.606026e-01 6.260005e+01 -4.029609e-01 9.066702e-01 -1.104190e+00 1.074149e+00 2.477567e-01 2.420582e+00 1.206923e+00 -8.927544e-01 2.971163e-01 2.730691e+00 4.124745e-01 -3.283244e-01 -2.062942e+00 -3.695162e-01 -1.627558e-01 -7.699706e-02 2.987053e-01 -5.093241e-02 3.033570e-01 1.430447e-01 -1.292534e-02 2.389717e-02 2.897490e-01 2.353163e-01 1.585212e-01 -3.263542e-01
<VARIANCE> 39
 1.490429e+01 2.875389e+01 3.069713e+01 3.895526e+01 6.207121e+01 8.496208e+01 7.263493e+01 5.361676e+01 8.609657e+01 5.376100e+01 5.703236e+01 2.895576e+01 3.231331e+01 2.361495e+00 2.706757e+00 3.060067e+00 3.195682e+00 4.692570e+00 5.284792e+00 5.641055e+00 4.529072e+00 4.998167e+00 4.830890e+00 3.539494e+00 2.783493e+00 2.796547e+00 3.814935e-01 4.803908e-01 4.105762e-01 5.047184e-01 5.893881e-01 1.096837e+00 1.087534e+00 8.667689e-01 8.695510e-01 9.602394e-01 6.828838e-01 4.859782e-01 4.463257e-01
<GCONST> 1.322176e+02
<TRANSP> 5
 0.000000e+00 1.000000e+00 0.000000e+00 0.000000e+00 0.000000e+00
 0.000000e+00 3.203836e-01 6.796164e-01 0.000000e+00 0.000000e+00
 0.000000e+00 0.000000e+00 5.888188e-01 4.111812e-01 0.000000e+00
 0.000000e+00 0.000000e+00 0.000000e+00 4.825283e-01 5.174716e-01
 0.000000e+00 0.000000e+00 0.000000e+00 0.000000e+00 0.000000e+00
<ENDHMM>
~h "Y"
<BEGINHMM>
<NUMSTATES> 5
<STATE> 2
<MEAN> 39
 2.843853e-02 -6.458577e+00 -1.741601e-01 4.386255e+00 8.218770e+00 -1.914617e+01 9.645216e-01 -2.010824e+00 -1.512135e+01 -8.437063e+00 1.136907e+01 4.835034e+00 7.026474e+01 -3.162630e-01 -2.404350e-01 5.880810e-01 4.478743e-01 1.182883e+00 -1.029440e-01 -1.104134e+00 -1.321867e+00 -1.277064e+00 1.257392e+00 6.142312e-01 -3.399580e-01 -6.043265e-02 -5.559528e-02 2.418405e-01 2.241761e-01 -4.180630e-02 -4.095762e-02 6.458340e-02 2.541132e-02 1.712214e-01 2.966135e-01 -9.038190e-02 -3.804777e-01 -2.145558e-01 -1.795906e-01
<VARIANCE> 39
 1.103988e+01 1.766684e+01 4.814687e+01 4.223289e+01 6.101099e+01 4.165077e+01 9.073460e+01 5.958947e+01 6.193750e+01 7.910032e+01 4.543951e+01 3.468652e+01 1.555573e+01 2.511065e-01 9.569252e-01 1.617003e+00 1.705846e+00 2.346691e+00 1.768766e+00 2.727791e+00 2.828603e+00 2.903951e+00 2.165097e+00 2.591550e+00 2.043088e+00 3.112721e-01 4.091401e-02 1.581966e-01 2.096589e-01 2.051733e-01 2.905555e-01 3.872303e-01 4.230580e-01 3.998370e-01 5.385583e-01 4.031529e-01 4.034378e-01 2.961637e-01 6.112245e-02
<GCONST> 1.064064e+02
<STATE> 3
<MEAN> 39
 -2.107822e+00 -6.013104e+00 4.928284e+00 7.302324e+00 1.263510e+01 -2.076372e+01 -3.652107e+00 -5.406309e+00 -1.720421e+01 -4.641006e+00 9.402629e+00 4.737738e-01 6.876106e+01 -2.313115e-01 6.421571e-01 4.769810e-01 -5.207633e-02 3.552414e-01 4.937992e-01 -3.704506e-01 -5.079743e-01 1.471480e-01 2.886342e-01 -7.120082e-01 -4.918701e-01 -7.366146e-01 5.205893e-02 3.419755e-01 -1.503142e-01 -1.409304e-01 -2.857700e-01 5.108899e-01 3.393542e-01 2.356566e-01 4.108924e-01 -1.931033e-01 -2.539563e-01 1.275503e-01 -3.886931e-01
<VARIANCE> 39
 9.639957e+00 1.482682e+01 3.122589e+01 4.745515e+01 4.020675e+01 4.333215e+01 6.648151e+01 6.113392e+01 5.540137e+01 7.682530e+01 3.481544e+01 3.495203e+01 1.764272e+01 4.299957e-01 1.153190e+00 2.240444e+00 2.125457e+00 1.987821e+00 2.203736e+00 2.515682e+00 2.079558e+00 2.567367e+00 2.108715e+00 2.884119e+00 2.419271e+00 1.100305e+00 7.850038e-02 1.796310e-01 2.018644e-01 2.281643e-01 3.022110e-01 3.863447e-01 4.052212e-01 3.861354e-01 4.908628e-01 3.724093e-01 3.971531e-01 3.072248e-01 1.364271e-01
<GCONST> 1.086255e+02
<STATE> 4
<MEAN> 39
 -3.768700e+00 -9.358017e-01 4.872824e+00 6.114954e+00 1.095732e+01 -1.491297e+01 -4.356046e+00 -5.938108e+00 -1.290293e+01 -3.446483e+00 5.636367e+00 1.124740e+00 6.086169e+01 -4.240781e-01 1.122924e+00 -2.254906e-01 -1.320981e-01 -6.379173e-01 1.948364e+00 3.293706e-01 3.267571e-01 1.165882e+00 2.277427e-01 -5.538312e-01 2.275779e-01 -1.969641e+00 -5.166624e-02 2.942467e-03 -1.247583e-01 -3.113220e-02 -2.303749e-01 2.700553e-01 2.783197e-01 2.528999e-01 2.809935e-01 -3.481508e-02 -4.046845e-03 1.039284e-01 -1.313222e-01
<VARIANCE> 39
 1.886030e+01 2.891929e+01 3.136953e+01 4.175616e+01 5.453114e+01 5.826504e+01 6.597939e+01 6.195962e+01 5.962093e+01 8.741720e+01 4.253130e+01 3.362234e+01 8.679652e+01 1.347703e+00 1.762530e+00 2.468569e+00 2.305160e+00 3.139228e+00 3.714043e+00 3.509465e+00 3.161698e+00 3.787172e+00 2.848432e+00 3.206738e+00 2.419110e+00 2.923133e+00 1.977730e-01 3.767934e-01 4.102007e-01 3.628727e-01 5.958563e-01 6.225441e-01 5.600235e-01 5.086474e-01 5.800057e-01 4.928536e-01 5.830007e-01 4.386064e-01 4.596418e-01
<GCONST> 1.246478e+02
<TRANSP> 5
 0.000000e+00 1.000000e+00 0.000000e+00 0.000000e+00 0.000000e+00
 0.000000e+00 6.382055e-01 3.617944e-01 0.000000e+00 0.000000e+00
 0.000000e+00 0.000000e+00 5.213504e-01 4.786496e-01 0.000000e+00
 0.000000e+00 0.000000e+00 0.000000e+00 5.131744e-01 4.868256e-01
 0.000000e+00 0.000000e+00 0.000000e+00 0.000000e+00 0.000000e+00
<ENDHMM>
~h "AH"
<BEGINHMM>
<NUMSTATES> 5
<STATE> 2
<MEAN> 39
 -3.630814e-01 -3.074776e+00 -3.522264e-01 -1.909525e+00 7.414026e-02 -1.690862e+01 5.995874e+00 6.227749e+00 -7.993592e+00 -1.379138e+01 7.885190e+00 6.274318e+00 6.846395e+01 1.527501e+00 -1.205003e+00 -1.571319e+00 -6.268820e-01 -1.576867e+00 -3.421334e+00 9.644818e-01 1.470996e+00 -9.961923e-01 -1.315758e+00 1.735452e+00 6.349230e-01 2.249494e+00 -4.864130e-01 6.533158e-02 1.703174e-01 2.100805e-01 2.220138e-01 8.950874e-01 1.420600e-01 -2.928375e-01 3.521818e-01 5.925224e-01 -3.589719e-01 -2.674783e-01 -6.655743e-01
<VARIANCE> 39
 2.767890e+01 2.201640e+01 2.803498e+01 3.472197e+01 6.891284e+01 8.198360e+01 8.789045e+01 8.586488e+01 7.706017e+01 7.099734e+01 3.773036e+01 2.920878e+01 6.014799e+01 3.561108e+00 2.905335e+00 2.258811e+00 2.928756e+00 3.843796e+00 6.674771e+00 7.027597e+00 4.661082e+00 4.386801e+00 5.564257e+00 3.754378e+00 3.056144e+00 4.351397e+00 6.923426e-01 5.805830e-01 5.597309e-01 4.922391e-01 7.531843e-01 1.399199e+00 9.525309e-01 8.114215e-01 9.006182e-01 9.228796e-01 7.214425e-01 6.268224e-01 9.309328e-01
<GCONST> 1.368575e+02
<STATE> 3
<MEAN> 39
 1.320510e+00 -6.102982e+00 -2.336706e+00 -2.315378e+00 -3.706793e+00 -2.142569e+01 1.072593e+01 8.272089e+00 -9.045938e+00 -1.371859e+01 9.828328e+00 6.803956e+00 7.195916e+01 -1.481666e-03 3.285930e-01 1.321410e-01 2.151124e-02 4.037618e-02 3.238346e-01 2.378747e-01 -3.546332e-01 -1.665239e-01 8.697180e-02 -2.505632e-01 -8.105454e-02 -3.212052e-01 -1.665922e-01 5.216478e-01 4.177668e-01 2.276553e-01 4.942035e-01 8.448986e-01 -4.487027e-01 -3.215877e-01 2.065842e-01 1.497451e-01 -5.698369e-01 -2.181368e-01 -6.868232e-01
<VARIANCE> 39
 8.974710e+00 1.610531e+01 2.032460e+01 2.675383e+01 6.027742e+01 4.336364e+01 8.678062e+01 7.871978e+01 5.555071e+01 5.163961e+01 2.963808e+01 2.512867e+01 1.297951e+01 4.343539e-01 1.506693e+00 1.282826e+00 1.404804e+00 3.130913e+00 2.662830e+00 3.749687e+00 3.441451e+00 2.908813e+00 2.626310e+00 2.392364e+00 1.898014e+00 9.246194e-01 1.962796e-01 2.282585e-01 2.555879e-01 2.847806e-01 3.533315e-01 6.990370e-01 6.116489e-01 5.696201e-01 5.930455e-01 5.906935e-01 4.938044e-01 3.904985e-01 2.267341e-01
<GCONST> 1.127391e+02
<STATE> 4
<MEAN> 39
 1.015473e-01 -2.026347e-01 -1.156174e-01 -1.914722e+00 -4.242938e-01 -1.514494e+01 7.932466e+00 4.394248e+00 -9.421692e+00 -1.277316e+01 6.001390e+00 6.202406e+00 6.532233e+01 -4.013951e-01 1.624149e+00 7.372048e-01 6.275757e-01 9.740855e-01 2.537376e+00 -1.014091e+00 -2.764530e-01 9.569556e-01 9.997320e-01 -1.461244e+00 -4.955904e-01 -2.793285e+00 -2.604410e-01 -1.431329e-01 7.359620e-02 6.954309e-02 -9.198176e-03 2.972661e-01 -7.955933e-02 1.093837e-01 3.106236e-01 3.788156e-01 -1.502137e-02 -1.145231e-01 -2.225657e-01
<VARIANCE> 39
 1.386200e+01 2.197344e+01 2.782186e+01 3.381951e+01 6.996246e+01 5.615574e+01 7.093189e+01 7.493357e+01 5.314429e+01 6.438145e+01 3.640237e+01 2.946074e+01 5.015330e+01 2.007362e+00 1.678546e+00 2.425898e+00 2.604448e+00 3.713299e+00 3.826858e+00 4.308501e+00 4.352432e+00 3.628803e+00 3.705615e+00 3.022646e+00 2.659825e+00 2.188101e+00 3.054145e-01 3.716132e-01 4.349495e-01 4.150900e-01 6.072563e-01 7.342461e-01 6.010188e-01 7.252405e-01 6.549927e-01 5.978937e-01 5.469164e-01 4.488647e-01 5.482454e-01
<GCONST> 1.257689e+02
<TRANSP> 5
 0.000000e+00 1.000000e+00 0.000000e+00 0.000000e+00 0.000000e+00
 0.000000e+00 5.121300e-01 4.878700e-01 0.000000e+00 0.000000e+00
 0.000000e+00 0.000000e+00 7.133021e-01 2.866979e-01 0.000000e+00
 0.000000e+00 0.000000e+00 0.000000e+00 5.702602e-01 4.297398e-01
 0.000000e+00 0.000000e+00 0.000000e+00 0.000000e+00 0.000000e+00
<ENDHMM>
~h "AX"
<BEGINHMM>
<NUMSTATES> 5
<STATE> 2
<MEAN> 39
 -3.355740e-01 5.091858e-01 5.262774e+00 -3.799483e+00 7.003186e+00 -7.767324e+00 2.718668e+00 9.121966e-01 -5.761542e+00 -1.731849e+01 1.751461e+00 3.763996e+00 6.707261e+01 3.806792e+00 1.433882e+00 -5.780709e-01 -5.360749e-01 -2.101499e+00 -5.835127e+00 -1.433867e+00 3.747875e+00 -2.877150e-01 -3.263809e+00 2.769859e-01 -5.782793e-01 1.379290e+00 -9.461126e-01 -1.010224e+00 -4.692613e-01 1.683019e-01 9.836099e-03 -1.069703e-02 -1.522922e-01 -1.441044e-01 3.319609e-01 6.276553e-01 3.828673e-01 -1.376924e-02 1.299407e-01
<VARIANCE> 39
 1.206639e+01 1.408145e+01 1.580235e+01 1.157460e+01 3.677184e+01 3.996433e+01 3.942290e+01 4.821581e+01 3.965364e+01 2.600475e+01 2.779916e+01 2.419737e+01 1.387430e+01 1.824128e+00 7.074399e+00 1.252260e+00 2.860171e+00 2.353555e+00 3.166569e+00 4.187789e+00 3.441690e+00 3.205376e+00 2.629176e+00 2.017182e+00 3.595811e+00 5.607895e-01 5.681151e-01 8.767824e-01 2.138298e-01 1.500320e-01 3.101001e-01 8.639532e-01 6.261971e-01 6.012744e-01 7.536690e-01 5.411368e-01 4.196931e-01 8.091950e-01 2.716774e-01
<GCONST> 1.152784e+02
<STATE> 3
<MEAN> 39
 2.839824e+00 -1.198089e+00 2.140371e+00 -4.639585e+00 3.775796e+00 -1.701437e+01 1.811654e+00 8.553393e+00 -4.865417e+00 -2.151457e+01 3.581074e+00 4.325685e+00 6.941891e+01 8.952652e-01 -2.958775e-01 -1.185269e+00 -2.932172e-02 -1.108559e+00 -2.776386e+00 1.536968e-01 2.161183e+00 1.932033e-02 -4.400265e-01 9.506866e-01 -3.903203e-01 2.708413e-01 -9.083028e-01 -3.039380e-01 2.203323e-01 2.674830e-01 4.275938e-01 1.345304e+00 3.110337e-01 -1.111531e+00 -1.700550e-01 9.350616e-01 4.243670e-03 7.343324e-02 -3.508976e-01
<VARIANCE> 39
 7.251533e+00 9.078499e+00 1.894960e+01 2.233380e+01 3.062444e+01 3.202681e+01 5.060014e+01 4.791734e+01 3.900540e+01 2.034018e+01 1.701403e+01 2.801163e+01 7.416885e+00 5.309957e-01 7.445528e-01 5.606972e-01 1.215279e+00 8.860694e-01 3.911862e+00 2.930022e+00 3.953819e+00 2.358712e+00 1.905298e+00 2.023596e+00 1.947581e+00 5.065241e-01 2.341270e-01 5.169107e-01 1.398721e-01 2.722029e-01 2.453137e-01 6.301396e-01 6.174053e-01 5.253178e-01 5.172592e-01 3.524857e-01 4.979253e-01 6.589549e-01 5.214807e-02
<GCONST> 1.018729e+02
<STATE> 4
<MEAN> 39
 2.899012e+00 -1.412203e+00 1.960690e+00 -3.416851e+00 -4.807283e-01 -1.989936e+01 4.746997e+00 9.603667e+00 -5.699902e+00 -1.918391e+01 4.668847e+00 3.112781e+00 6.912806e+01 -4.618755e-01 4.448262e-01 4.597771e-01 2.544567e-01 -1.434239e-01 1.012398e+00 6.303692e-02 -1.042932e+00 -3.448274e-01 7.049684e-01 -4.665137e-01 1.301457e-01 -7.259768e-01 -4.289579e-01 3.136797e-01 3.485443e-01 1.574259e-02 4.731395e-01 9.670873e-01 -2.337741e-01 -6.571559e-01 1.303374e-01 4.338522e-01 -3.340420e-01 8.167724e-02 -4.560204e-01
<VARIANCE> 39
 6.434163e+00 6.264678e+00 2.385990e+01 2.183966e+01 4.765987e+01 3.764817e+01 5.225841e+01 5.058549e+01 2.819805e+01 1.930143e+01 1.423571e+01 2.488397e+01 7.006044e+00 6.313510e-01 1.088733e+00 1.621610e+00 1.514880e+00 2.621864e+00 3.380341e+00 2.063728e+00 3.278381e+00 2.044582e+00 2.043988e+00 3.381681e+00 1.553774e+00 1.685254e+00 1.940346e-01 1.638536e-01 3.616724e-01 3.111598e-01 3.720518e-01 6.852470e-01 4.194806e-01 5.530918e-01 4.097840e-01 4.436141e-01 6.796575e-01 4.017317e-01 2.598684e-01
<GCONST> 1.065355e+02
<TRANSP> 5
 0.000000e+00 1.000000e+00 0.000000e+00 0.000000e+00 0.000000e+00
 0.000000e+00 4.396274e-01 5.603725e-01 0.000000e+00 0.000000e+00
 0.000000e+00 0.000000e+00 5.445696e-01 4.554305e-01 0.000000e+00
 0.000000e+00 0.000000e+00 0.000000e+00 6.853898e-01 3.146102e-01
 0.000000e+00 0.000000e+00 0.000000e+00 0.000000e+00 0.000000e+00
<ENDHMM>
~h "BH"
<BEGINHMM>
<NUMSTATES> 5
<STATE> 2
<MEAN> 39
 -2.040559e+00 8.722051e+00 6.643553e+00 7.162442e+00 6.459972e+00 -8.521874e-01 3.356571e+00 5.300279e+00 -6.366961e-02 -5.379241e+00 -1.514105e+00 -4.635114e-01 5.263337e+01 -1.869583e+00 -2.573513e-01 6.395724e-02 -6.184343e-01 2.363480e-01 1.242020e+00 1.440435e+00 -1.328450e+00 6.367102e-01 1.550848e+00 -5.828736e-02 1.282383e-01 2.822516e-01 -3.411143e-01 -9.089153e-01 -1.636953e-01 -6.901913e-01 1.901988e-01 -3.131137e-01 1.248551e-01 -4.932744e-02 -4.407906e-02 -5.241438e-01 3.596921e-01 4.422937e-01 1.046996e+00
<VARIANCE> 39
 4.058536e+01 1.994050e+01 2.122078e+01 2.929968e+01 3.614732e+01 4.845933e+01 2.958821e+01 4.701334e+01 3.650803e+01 3.372470e+01 2.313711e+01 2.868562e+01 3.252487e+01 6.430525e+00 4.146368e+00 2.080608e+00 4.029788e+00 2.915553e+00 4.981655e+00 4.235450e+00 4.328207e+00 3.225390e+00 5.561224e+00 2.758044e+00 3.356567e+00 5.783983e+00 9.566103e-01 4.122076e-01 3.650994e-01 5.531508e-01 6.169692e-01 6.764292e-01 7.178080e-01 1.172887e+00 5.371731e-01 7.594216e-01 4.961138e-01 4.905133e-01 5.794138e-01
<GCONST> 1.280374e+02
<STATE> 3
<MEAN> 39
 -1.081048e+01 5.862514e-01 3.124609e+00 3.954468e-01 8.963503e+00 3.005069e+00 9.513300e+00 -1.131416e-02 8.057382e-01 -3.324741e+00 1.784119e+00 4.528224e+00 6.116106e+01 -4.584177e-01 -1.825897e+00 1.010817e-01 -1.727633e+00 3.154017e-01 1.998358e-01 1.394041e+00 1.109784e+00 8.943922e-01 -6.470688e-02 9.625995e-01 1.209739e+00 2.128417e+00 1.063940e+00 4.523277e-01 6.616873e-01 3.131260e-01 -2.586584e-01 -8.325712e-01 -5.208200e-01 8.899882e-01 8.828013e-02 -6.532719e-01 -1.970489e-01 -2.640458e-01 -1.316203e-01
<VARIANCE> 39
 2.427628e+01 1.818544e+01 1.983014e+01 2.310674e+01 3.787660e+01 2.751786e+01 2.368541e+01 3.329280e+01 2.779686e+01 2.167160e+01 2.017708e+01 1.891177e+01 2.102813e+01 3.524015e+00 2.685937e+00 3.442410e+00 3.587627e+00 5.963137e+00 4.867271e+00 4.651924e+00 6.840423e+00 4.652128e+00 3.622531e+00 2.571438e+00 3.068769e+00 2.277864e+00 4.096745e-01 5.668012e-01 5.524887e-01 5.569938e-01 5.992073e-01 7.048599e-01 9.148807e-01 9.402310e-01 5.918044e-01 6.449732e-01 5.369399e-01 5.184604e-01 4.483970e-01
<GCONST> 1.235130e+02
<STATE> 4
<MEAN> 39
 -6.454298e+00 -9.735828e-01 8.915177e+00 -4.144269e+00 2.899357e+00 -3.666216e+00 1.486201e+01 1.146173e+01 6.037864e+00 -7.323685e+00 1.737737e+00 5.462033e+00 6.538723e+01 1.024331e+00 3.329273e-01 5.838810e-01 -3.812640e-01 -5.726705e-01 -1.715755e+00 -4.520960e-01 5.102683e-01 -3.737884e-01 -1.602529e+00 -7.334261e-02 -2.699395e-01 1.094813e+00 2.612982e-01 3.366672e-01 -3.681103e-01 2.592708e-01 8.494554e-02 -3.225912e-01 -7.863825e-01 -5.403953e-01 -4.952818e-01 -2.477881e-01 -3.604991e-02 -1.645834e-01 -1.668150e-01
<VARIANCE> 39
 1.305571e+01 2.417554e+01 2.649600e+01 2.612753e+01 7.567860e+01 4.641887e+01 5.666035e+01 6.020620e+01 4.810429e+01 4.254335e+01 2.698885e+01 2.457027e+01 1.730613e+01 1.461984e+00 2.486662e+00 3.616444e+00 1.924894e+00 3.117406e+00 3.638872e+00 5.718857e+00 5.055870e+00 3.850771e+00 2.754822e+00 2.432280e+00 2.066708e+00 7.646998e-01 1.622801e-01 4.182918e-01 4.815145e-01 3.844009e-01 5.038553e-01 6.722532e-01 4.998539e-01 7.161031e-01 6.180432e-01 5.438828e-01 4.782864e-01 4.943672e-01 1.658043e-01
<GCONST> 1.191589e+02
<TRANSP> 5
 0.000000e+00 1.000000e+00 0.000000e+00 0.000000e+00 0.000000e+00
 0.000000e+00 6.943645e-01 3.056355e-01 0.000000e+00 0.000000e+00
 0.000000e+00 0.000000e+00 6.132793e-01 3.867206e-01 0.000000e+00
 0.000000e+00 0.000000e+00 0.000000e+00 7.357044e-01 2.642956e-01
 0.000000e+00 0.000000e+00 0.000000e+00 0.000000e+00 0.000000e+00
<ENDHMM>
~h "CH"
<BEGINHMM>
<NUMSTATES> 5
<STATE> 2
<MEAN> 39
 -2.367866e+01 -5.246305e+00 1.306964e+01 -5.362820e+00 2.757453e+00 -1.848662e+00 4.435139e+00 -5.134197e+00 -2.040251e+00 -2.794282e+00 3.578104e+00 2.852589e+00 6.239467e+01 -2.505284e+00 -2.722647e+00 6.628512e-01 -4.707424e-01 -7.799820e-01 4.955849e-01 -2.557423e-02 -5.520675e-01 7.641591e-01 7.505354e-01 1.167294e+00 2.001040e-01 1.895640e+00 8.617567e-01 -2.795816e-02 -5.434667e-01 3.677837e-01 3.001087e-01 -1.822335e-01 -6.625719e-02 -2.648186e-01 -3.249735e-01 -6.308041e-02 9.402275e-02 8.183862e-02 9.031253e-02
<VARIANCE> 39
 6.367924e+01 7.402854e+01 4.413591e+01 5.077399e+01 3.707617e+01 3.310336e+01 3.032649e+01 4.307974e+01 2.967012e+01 2.836109e+01 2.766263e+01 2.346640e+01 5.998031e+01 7.701840e+00 3.679473e+00 6.886098e+00 4.781328e+00 4.153122e+00 3.666356e+00 3.867627e+00 4.364106e+00 3.125796e+00 3.519026e+00 2.448261e+00 2.207652e+00 5.321842e+00 1.373403e+00 1.287305e+00 1.164008e+00 7.770835e-01 7.959356e-01 6.959106e-01 9.027786e-01 8.019590e-01 5.590678e-01 6.405010e-01 5.498624e-01 3.762468e-01 1.713245e+00
<GCONST> 1.350788e+02
<STATE> 3
<MEAN> 39
 -2.279580e+01 -1.528966e+01 8.403069e+00 -3.427161e+00 3.630365e+00 -1.577114e+00 2.347748e+00 -1.191241e+01 -2.118671e+00 1.759180e+00 8.639287e+00 4.404848e+00 6.744700e+01 3.621566e+00 8.894578e-01 -1.124495e+00 1.130125e+00 1.875323e+00 -2.119244e-01 -7.280448e-01 -5.088298e-01 -7.666166e-01 3.425673e-01 -6.474775e-01 -3.186394e-01 -1.300599e+00 7.803729e-01 1.044435e+00 4.529612e-01 2.795440e-01 3.600675e-01 -2.916400e-01 1.012632e-02 5.832615e-01 -3.017128e-01 -4.440448e-01 -5.785106e-01 -3.611785e-01 -2.800561e-01
<VARIANCE> 39
 2.934792e+01 9.025065e+00 1.585402e+01 2.086146e+01 2.297840e+01 2.132360e+01 2.129924e+01 2.737969e+01 2.113343e+01 3.680326e+01 1.947099e+01 1.869146e+01 1.509858e+01 2.105720e+00 3.123190e+00 2.581346e+00 2.717201e+00 1.938821e+00 2.850444e+00 2.856575e+00 3.351146e+00 1.730650e+00 2.213216e+00 2.476006e+00 1.620136e+00 7.728177e-01 4.355681e-01 2.273577e-01 3.780503e-01 2.530781e-01 3.912852e-01 4.704951e-01 5.796502e-01 4.578570e-01 4.357250e-01 3.957076e-01 3.962896e-01 2.931725e-01 5.211969e-01
<GCONST> 1.089230e+02
<STATE> 4
<MEAN> 39
 -7.857372e+00 -5.806577e+00 9.179413e+00 3.616324e+00 1.197794e+01 -3.816710e+00 7.662353e-01 -1.000841e+01 -6.021377e+00 1.639648e+00 2.909351e+00 1.144543e+00 6.334439e+01 4.030931e+00 2.975964e+00 -4.608459e-01 1.855148e+00 1.834166e+00 -2.601640e+00 -5.088562e-01 5.924972e-01 -2.399318e+00 -1.138584e+00 -9.521837e-01 -9.151588e-01 3.987949e-01 -8.086385e-01 -5.490611e-01 -3.276813e-01 -3.481652e-01 -6.766574e-01 -5.828108e-01 -2.853611e-02 -4.218394e-02 -1.996068e-01 -2.952450e-01 5.476879e-01 1.550623e-01 5.046226e-01
<VARIANCE> 39
 2.334015e+01 2.463521e+01 2.534676e+01 3.333329e+01 2.551370e+01 4.992887e+01 4.262242e+01 4.846017e+01 3.577193e+01 5.465464e+01 2.167651e+01 1.829524e+01 1.377643e+01 2.493416e+00 2.445648e+00 2.591024e+00 2.766217e+00 2.856395e+00 3.327625e+00 4.076457e+00 3.400884e+00 3.766401e+00 3.848650e+00 2.985851e+00 1.741780e+00 1.188298e+00 3.448203e-01 5.424256e-01 3.102997e-01 3.752576e-01 3.303450e-01 6.421639e-01 7.201680e-01 4.838037e-01 5.699998e-01 4.015785e-01 3.992902e-01 2.569544e-01 2.285926e-01
<GCONST> 1.172326e+02
<TRANSP> 5
 0.000000e+00 1.000000e+00 0.000000e+00 0.000000e+00 0.000000e+00
 0.000000e+00 8.177640e-01 1.822360e-01 0.000000e+00 0.000000e+00
 0.000000e+00 0.000000e+00 7.374645e-01 2.625355e-01 0.000000e+00
 0.000000e+00 0.000000e+00 0.000000e+00 5.520356e-01 4.479644e-01
 0.000000e+00 0.000000e+00 0.000000e+00 0.000000e+00 0.000000e+00
<ENDHMM>
~h "DH"
<BEGINHMM>
<NUMSTATES> 5
<STATE> 2
<MEAN> 39
 -4.302461e+00 7.594294e+00 6.931251e+00 5.556339e+00 3.215793e+00 -1.445028e+00 4.547720e+00 3.257532e+00 -2.653889e+00 -5.193051e+00 -1.130482e+00 1.539074e-01 5.116816e+01 -2.524817e+00 -1.765528e+00 -6.210822e-01 -1.161331e+00 1.977351e-01 1.089744e+00 5.812457e-01 -1.996157e+00 6.967344e-01 1.944158e+00 5.157017e-01 7.451143e-01 1.537239e+00 -4.487826e-01 -1.017105e+00 9.374196e-02 -7.646745e-01 3.381007e-01 -9.419399e-02 1.885149e-01 -5.780326e-01 -1.583828e-01 -4.942939e-01 4.165599e-01 4.440294e-01 1.681926e+00
<VARIANCE> 39
 4.338649e+01 2.437734e+01 2.953729e+01 3.928945e+01 5.550628e+01 4.640506e+01 4.288871e+01 6.566474e+01 3.424977e+01 4.782101e+01 2.700917e+01 2.513291e+01 3.541406e+01 5.053092e+00 6.641491e+00 2.508031e+00 5.149937e+00 4.147194e+00 4.182501e+00 5.190919e+00 7.626346e+00 3.526152e+00 5.227401e+00 3.349197e+00 3.175334e+00 1.306128e+01 1.043601e+00 6.626086e-01 5.520487e-01 8.145449e-01 6.108209e-01 6.002699e-01 8.723820e-01 1.379216e+00 5.557251e-01 8.537855e-01 4.921345e-01 4.693572e-01 8.353465e-01
<GCONST> 1.350576e+02
<STATE> 3
<MEAN> 39
 -1.542404e+01 -4.655852e+00 4.869645e+00 -2.645275e+00 5.193059e+00 1.994300e+00 8.152888e+00 -7.278635e+00 -1.517226e+00 -8.795128e-01 3.758022e+00 5.934374e+00 6.672478e+01 -8.212491e-01 -1.883583e+00 4.556780e-01 -1.906421e+00 1.471512e+00 1.209778e+00 9.987736e-01 -7.523446e-01 -2.558820e-01 -2.455563e-01 1.023852e+00 1.217023e+00 2.684207e+00 1.438695e+00 1.164277e+00 5.780069e-01 6.142743e-01 2.350437e-01 -4.834204e-01 -2.956047e-01 1.416794e+00 -1.095822e-01 -1.016991e+00 -4.979397e-01 -5.285839e-01 -1.231872e+00
<VARIANCE> 39
 9.607837e+00 1.171556e+01 1.275675e+01 2.008414e+01 1.887524e+01 1.993389e+01 3.788136e+01 2.509939e+01 2.647847e+01 2.408493e+01 2.153035e+01 2.018431e+01 2.127007e+01 5.067264e+00 4.082076e+00 2.804066e+00 3.689111e+00 4.430510e+00 3.823504e+00 4.464772e+00 8.746755e+00 3.607905e+00 5.848265e+00 3.160354e+00 3.466445e+00 7.738314e+00 3.788787e-01 5.214449e-01 4.348572e-01 6.491206e-01 6.573992e-01 8.605651e-01 8.752584e-01 8.608922e-01 7.563689e-01 8.357337e-01 6.585544e-01 5.400634e-01 7.326109e-01
<GCONST> 1.241308e+02
<STATE> 4
<MEAN> 39
 -8.946062e+00 -2.121391e+00 9.385116e+00 -3.973222e+00 9.315746e+00 1.834244e+00 1.117158e+01 1.719129e+00 -8.543593e-01 -6.948738e+00 2.287809e+00 5.403605e+00 6.497216e+01 1.907359e+00 1.483496e+00 1.225414e+00 4.061325e-01 3.730160e-01 -1.530748e+00 -6.244574e-01 1.610918e+00 -3.152571e-02 -2.193496e+00 -6.450655e-01 -6.682815e-01 5.428738e-02 2.144331e-01 3.394999e-01 -2.919747e-01 2.560406e-01 -5.137412e-01 -7.183880e-01 -6.751071e-01 -1.697653e-01 -1.139737e-01 -1.773282e-01 -4.760751e-02 -1.631169e-01 -2.263026e-02
<VARIANCE> 39
 1.441767e+01 2.235840e+01 2.441628e+01 2.466260e+01 5.595557e+01 3.746593e+01 6.221934e+01 6.988350e+01 3.872597e+01 5.228132e+01 2.836290e+01 2.261284e+01 1.667851e+01 1.141358e+00 2.111084e+00 2.743554e+00 2.384143e+00 4.394046e+00 3.581887e+00 4.852966e+00 4.269274e+00 3.419319e+00 3.715592e+00 2.886923e+00 1.835905e+00 1.197241e+00 2.803061e-01 5.076662e-01 4.820119e-01 4.964702e-01 5.168605e-01 5.998554e-01 5.299535e-01 8.226590e-01 6.049739e-01 6.643848e-01 5.082104e-01 4.480605e-01 3.895264e-01
<GCONST> 1.209892e+02
<TRANSP> 5
 0.000000e+00 1.000000e+00 0.000000e+00 0.000000e+00 0.000000e+00
 0.000000e+00 6.211241e-01 3.788759e-01 0.000000e+00 0.000000e+00
 0.000000e+00 0.000000e+00 6.240829e-01 3.759171e-01 0.000000e+00
 0.000000e+00 0.000000e+00 0.000000e+00 6.958380e-01 3.041620e-01
 0.000000e+00 0.000000e+00 0.000000e+00 0.000000e+00 0.000000e+00
<ENDHMM>
~h "DX"
<BEGINHMM>
<NUMSTATES> 5
<STATE> 2
<MEAN> 39
 9.251925e-01 5.905589e+00 1.817515e+00 2.112842e+00 1.265647e+01 1.773322e+00 -1.255180e+00 1.845282e+00 -8.365785e+00 -9.152103e+00 1.484591e+00 3.021171e+00 5.528347e+01 -2.862189e-01 1.631725e+00 1.351560e-01 1.675221e+00 -9.630697e-01 1.506118e+00 1.635946e+00 2.366621e-02 7.257102e-01 1.403601e+00 -5.290692e-01 9.917867e-03 -1.909641e+00 -3.468072e-01 -6.055755e-01 1.160903e-01 -9.695942e-03 -9.683465e-02 -1.032282e+00 -1.834390e-01 -2.228376e-01 1.151179e-02 -3.902698e-01 1.219066e-01 -3.549169e-02 9.487881e-01
<VARIANCE> 39
 4.279959e+01 2.637851e+01 4.061612e+01 1.264419e+02 4.500967e+01 5.173513e+01 5.909576e+01 4.191674e+01 6.500571e+01 1.006071e+02 5.520624e+01 3.028246e+01 5.132230e+01 2.590871e+00 2.217695e+00 2.345270e+00 4.485331e+00 4.317669e+00 4.237602e+00 5.527468e+00 3.272251e+00 6.059692e+00 4.430468e+00 3.446748e+00 2.357391e+00 3.825893e+00 5.150535e-01 6.503423e-01 5.024326e-01 1.056146e+00 8.170482e-01 1.009709e+00 1.168182e+00 7.926167e-01 1.172652e+00 1.083832e+00 7.996405e-01 5.156106e-01 8.565763e-01
<GCONST> 1.367964e+02
<STATE> 3
<MEAN> 39
 -3.328869e-01 1.058156e+01 4.766450e+00 8.991920e+00 1.134871e+01 3.037831e+00 6.994459e-01 1.666528e-01 -5.781847e+00 -4.208046e+00 3.519008e-01 1.200649e+00 5.080793e+01 -9.083529e-01 -1.200424e+00 1.792364e-01 2.001338e-02 -2.630588e-01 -1.342401e+00 6.822648e-01 -6.271597e-01 -2.379659e-01 -3.996978e-01 1.160900e-01 2.589997e-01 1.813413e+00 -2.456494e-01 -1.247527e+00 3.303093e-04 -5.745521e-01 2.500596e-01 -1.083216e+00 -3.555113e-01 -8.171607e-02 -3.912341e-01 -7.121078e-01 3.907114e-01 1.728729e-01 1.349558e+00
<VARIANCE> 39
 2.273592e+01 2.450131e+01 3.427604e+01 4.313536e+01 2.360136e+01 3.553209e+01 3.159315e+01 2.686646e+01 3.507805e+01 4.311572e+01 3.736003e+01 2.484217e+01 2.823561e+01 4.621850e+00 5.081090e+00 3.139586e+00 4.125999e+00 3.293195e+00 4.764725e+00 4.620484e+00 3.767588e+00 4.806685e+00 4.140791e+00 4.148804e+00 3.111773e+00 4.749828e+00 5.156874e-01 5.364449e-01 6.624720e-01 5.016672e-01 7.175193e-01 1.061784e+00 1.043076e+00 7.526557e-01 7.594734e-01 9.000617e-01 8.092080e-01 6.628870e-01 9.707659e-01
<GCONST> 1.307706e+02
<STATE> 4
<MEAN> 39
 -6.242553e+00 -4.546897e-01 4.369246e+00 5.469282e+00 1.199606e+01 -3.953385e+00 2.704360e+00 -2.692543e+00 -6.893406e+00 -7.198752e+00 9.219613e-01 2.812611e+00 6.270858e+01 -5.534931e-01 -2.953143e+00 3.770348e-01 -1.080585e+00 3.389063e-02 -3.107552e+00 -8.182353e-01 -3.760244e-01 -1.207419e+00 -2.138085e+00 1.099610e+00 7.628320e-01 3.668959e+00 7.191297e-01 2.687622e-01 -1.594499e-02 -2.620547e-01 -3.353537e-02 -2.295296e-01 -6.311327e-01 4.493715e-01 -1.439616e-01 -4.244508e-01 3.144954e-01 -3.645055e-02 -2.199292e-01
<VARIANCE> 39
 2.323460e+01 3.577766e+01 3.819738e+01 4.093904e+01 3.397731e+01 4.426211e+01 4.591485e+01 4.998820e+01 5.555906e+01 7.374805e+01 3.398637e+01 3.066311e+01 5.157409e+01 2.842628e+00 5.583115e+00 5.604229e+00 3.932508e+00 5.685802e+00 9.279362e+00 6.677919e+00 5.414651e+00 5.159131e+00 7.423395e+00 6.718046e+00 5.827786e+00 9.010335e+00 3.982876e-01 9.688903e-01 7.493067e-01 8.075920e-01 1.078985e+00 1.164736e+00 1.504384e+00 8.582736e-01 1.100861e+00 1.085636e+00 8.770707e-01 6.341271e-01 1.083410e+00
<GCONST> 1.416430e+02
<TRANSP> 5
 0.000000e+00 1.000000e+00 0.000000e+00 0.000000e+00 0.000000e+00
 0.000000e+00 4.321218e-01 5.678781e-01 0.000000e+00 0.000000e+00
 0.000000e+00 0.000000e+00 5.607773e-01 4.392227e-01 0.000000e+00
 0.000000e+00 0.000000e+00 0.000000e+00 4.416193e-01 5.583807e-01
 0.000000e+00 0.000000e+00 0.000000e+00 0.000000e+00 0.000000e+00
<ENDHMM>
~h "EH"
<BEGINHMM>
<NUMSTATES> 5
<STATE> 2
<MEAN> 39
 -5.818963e+00 -3.456553e+00 3.923146e-01 2.977401e+00 8.037559e+00 -1.167305e+01 -1.065189e+00 -2.901842e+00 -9.416588e+00 -3.316596e+00 1.026283e+01 4.082107e+00 6.210991e+01 1.570879e+00 -1.926103e+00 -1.568713e+00 -3.014258e-01 -3.713829e-01 -3.334153e+00 1.208041e-01 -6.681659e-01 -1.644449e+00 4.162571e-01 2.757673e+00 2.780568e-01 3.564995e+00 1.415146e-02 1.239610e-01 -1.001974e-01 1.131216e-01 -2.267237e-01 2.358565e-01 3.069737e-01 1.328010e-01 2.837442e-01 2.877925e-01 -1.072188e-01 -2.013071e-01 -1.736801e-01
<VARIANCE> 39
 5.765228e+01 3.206770e+01 3.790996e+01 3.610570e+01 4.658521e+01 1.023605e+02 5.875199e+01 5.638336e+01 1.052734e+02 9.900167e+01 4.352137e+01 2.577429e+01 1.548650e+02 4.449016e+00 3.738181e+00 3.252636e+00 2.997425e+00 3.545644e+00 8.316772e+00 4.891986e+00 3.735467e+00 6.036282e+00 4.702828e+00 5.763941e+00 3.735948e+00 9.396022e+00 9.174805e-01 8.474859e-01 7.049638e-01 5.466756e-01 6.285679e-01 1.678894e+00 8.529640e-01 7.309594e-01 1.294697e+00 8.361162e-01 9.230562e-01 5.863441e-01 2.273897e+00
<GCONST> 1.430103e+02
<STATE> 3
<MEAN> 39
 -7.533633e-01 -8.372543e+00 -4.068563e+00 2.914461e+00 5.772230e+00 -2.056043e+01 1.603465e+00 -4.794329e+00 -1.395722e+01 -1.934171e+00 1.740671e+01 3.720127e+00 7.332360e+01 3.335534e-02 3.981383e-01 -1.323753e-01 2.432947e-01 -1.062211e-01 -8.044243e-02 6.823808e-01 -2.142447e-01 1.941652e-01 1.046456e-01 -4.562629e-02 -1.994351e-01 -3.728905e-02 -1.998449e-01 6.758274e-01 4.653349e-01 7.883009e-02 2.659281e-01 7.697765e-01 -9.701555e-02 1.029666e-01 3.476856e-01 -3.152417e-01 -8.638225e-01 -1.627108e-01 -8.706594e-01
<VARIANCE> 39
 7.969297e+00 1.468077e+01 2.072566e+01 2.408599e+01 4.271766e+01 2.865893e+01 4.637394e+01 4.883062e+01 4.572270e+01 7.602906e+01 2.715240e+01 2.557598e+01 1.131332e+01 4.007658e-01 1.924912e+00 1.672697e+00 1.732372e+00 3.344897e+00 2.576825e+00 2.924239e+00 2.959128e+00 2.541529e+00 4.370541e+00 3.401461e+00 2.053762e+00 1.377584e+00 2.128389e-01 2.169303e-01 2.367444e-01 3.063849e-01 4.144441e-01 7.063631e-01 5.458359e-01 4.967780e-01 6.275561e-01 5.843503e-01 5.812554e-01 4.175152e-01 3.134158e-01
<GCONST> 1.125866e+02
<STATE> 4
<MEAN> 39
 -2.440736e+00 -1.052806e+00 -1.416775e+00 4.190710e+00 8.969793e+00 -1.605797e+01 1.386955e+00 -6.457137e+00 -1.169779e+01 -3.044600e+00 1.202563e+01 2.094550e+00 6.595495e+01 -6.301911e-01 1.857384e+00 7.182109e-01 -1.391452e-01 -1.049127e-01 2.285340e+00 -3.841043e-01 7.530242e-01 1.639936e+00 2.587855e-01 -1.840632e+00 1.657144e-02 -3.300320e+00 -2.084469e-01 -2.733775e-01 -6.594191e-02 -1.571399e-01 -4.226514e-01 3.247750e-01 -1.336565e-01 2.214585e-01 2.055066e-01 2.696048e-01 5.978072e-03 8.435573e-02 -2.368508e-01
<VARIANCE> 39
 1.711125e+01 1.782675e+01 3.307743e+01 3.753034e+01 6.418988e+01 4.271035e+01 5.824900e+01 6.592216e+01 5.124156e+01 8.200018e+01 4.250897e+01 3.998944e+01 4.291253e+01 2.790519e+00 1.707366e+00 2.324749e+00 2.911707e+00 3.814196e+00 3.486565e+00 3.312039e+00 3.515642e+00 3.222300e+00 4.358005e+00 3.190338e+00 2.810035e+00 1.450602e+00 3.649815e-01 3.478598e-01 5.028477e-01 5.102071e-01 8.444678e-01 6.769883e-01 7.576565e-01 6.726710e-01 6.941633e-01 7.444487e-01 6.390932e-01 5.955676e-01 6.384410e-01
<GCONST> 1.272230e+02
<TRANSP> 5
 0.000000e+00 1.000000e+00 0.000000e+00 0.000000e+00 0.000000e+00
 0.000000e+00 6.383153e-01 3.616847e-01 0.000000e+00 0.000000e+00
 0.000000e+00 0.000000e+00 7.734672e-01 2.265328e-01 0.000000e+00
 0.000000e+00 0.000000e+00 0.000000e+00 6.573036e-01 3.426965e-01
 0.000000e+00 0.000000e+00 0.000000e+00 0.000000e+00 0.000000e+00
<ENDHMM>
~h "EX"
<BEGINHMM>
<NUMSTATES> 5
<STATE> 2
<MEAN> 39
