~o
<STREAMINFO> 1 39
<VECSIZE> 39<NULLD><MFCC_D_A_0><DIAGC>
~s "silst"
<MEAN> 39
 -1.291822e+01 1.288671e+00 -5.282382e-01 3.928612e+00 4.821072e+00 4.493552e+00 3.515950e+00 3.115262e+00 -8.228419e-01 1.514510e+00 4.068429e+00 4.587869e+00 4.261776e+01 -2.652149e-01 1.498834e-02 4.374183e-02 1.505644e-01 1.563738e-01 3.817012e-01 2.065178e-01 1.975153e-01 2.405209e-01 1.904240e-01 8.566614e-02 4.120114e-03 -2.833222e-01 5.825336e-02 -2.057010e-02 8.105979e-02 -2.167634e-02 3.193665e-02 -1.409262e-01 -3.193934e-02 -5.596247e-02 -7.285494e-02 -7.875412e-02 -5.463259e-02 -4.566700e-02 1.620111e-01
<VARIANCE> 39
 1.536089e+01 5.553949e+01 1.961703e+01 2.268025e+01 1.713571e+01 2.195029e+01 2.436202e+01 2.252271e+01 3.089184e+01 2.141995e+01 1.898763e+01 1.969158e+01 3.131746e+01 1.014526e+00 2.462010e+00 1.851022e+00 1.614502e+00 1.519430e+00 1.786014e+00 1.916965e+00 1.906694e+00 2.146360e+00 1.704311e+00 1.521836e+00 1.406774e+00 1.293146e+00 1.968942e-01 3.567810e-01 3.090570e-01 3.004042e-01 2.934114e-01 3.520944e-01 3.549816e-01 3.599211e-01 3.788987e-01 3.361689e-01 2.795644e-01 2.590903e-01 2.591104e-01
<GCONST> 1.038479e+02
~h "A"
<BEGINHMM>
<NUMSTATES> 5
<STATE> 2
<MEAN> 39
 -3.545909e-01 1.033065e+00 5.561010e+00 -3.173037e+00 -2.162983e+00 -1.659878e+01 4.104517e+00 8.290937e+00 -4.403658e-01 -1.471793e+01 1.026385e+00 3.545447e+00 6.574613e+01 2.592450e+00 -6.901661e-02 -5.300977e-01 6.327451e-02 -2.021000e+00 -5.208161e+00 -1.056445e+00 2.484311e+00 -2.390874e-01 -1.948444e+00 9.294199e-01 -3.917901e-01 2.055070e+00 -6.005626e-01 -4.686183e-01 -3.253734e-01 1.923350e-01 1.473139e-01 6.258658e-01 1.411823e-01 -3.258249e-01 -4.330277e-02 4.963937e-01 1.871215e-01 4.730258e-02 -2.960381e-01
<VARIANCE> 39
 2.521319e+01 2.280144e+01 2.812946e+01 3.177325e+01 6.902290e+01 1.029378e+02 6.920148e+01 5.476372e+01 6.833497e+01 6.357463e+01 3.271349e+01 2.295084e+01 4.799617e+01 3.308139e+00 5.108988e+00 3.260371e+00 4.252726e+00 4.608209e+00 7.712689e+00 7.308447e+00 5.366820e+00 4.645388e+00 5.063670e+00 3.209917e+00 3.350315e+00 3.174954e+00 6.986345e-01 7.349610e-01 5.384651e-01 5.124497e-01 6.782917e-01 1.634089e+00 8.573095e-01 7.062126e-01 9.184109e-01 9.177993e-01 5.901710e-01 6.173854e-01 7.715146e-01
<GCONST> 1.363967e+02
<STATE> 3
<MEAN> 39
 2.423361e+00 -2.172693e+00 3.663144e+00 -2.314841e+00 -7.006295e+00 -2.642164e+01 4.152216e+00 1.316466e+01 -1.481833e+00 -1.656121e+01 4.398384e+00 2.951528e+00 7.012643e+01 3.111083e-01 -3.867937e-01 -4.596799e-01 8.107847e-02 -6.403065e-01 -1.081851e+00 3.718660e-01 5.662706e-01 -1.876511e-01 -6.618538e-02 3.740459e-01 -2.243240e-01 3.706919e-01 -5.034767e-01 3.481501e-01 1.665031e-01 7.609247e-02 6.921276e-01 1.686327e+00 1.862770e-01 -8.220161e-01 3.449460e-02 4.949027e-01 -4.263113e-01 5.589349e-03 -7.161949e-01
<VARIANCE> 39
 8.557334e+00 1.624010e+01 2.736359e+01 2.651937e+01 7.106776e+01 7.428435e+01 7.286583e+01 5.351529e+01 5.604069e+01 4.700897e+01 3.069241e+01 2.138863e+01 1.185077e+01 5.792369e-01 1.453216e+00 1.676761e+00 1.846231e+00 2.976138e+00 5.159357e+00 3.653355e+00 3.071746e+00 3.331045e+00 2.815154e+00 2.608478e+00 1.748281e+00 1.144492e+00 3.002572e-01 3.360086e-01 3.537149e-01 4.189323e-01 4.148676e-01 9.606155e-01 8.216062e-01 5.835171e-01 6.478841e-01 7.845133e-01 4.770369e-01 4.379860e-01 2.249468e-01
<GCONST> 1.172795e+02
<STATE> 4
<MEAN> 39
 1.769633e+00 -9.224702e-02 3.620415e+00 -1.972394e+00 -5.868012e+00 -2.293670e+01 5.985131e+00 1.006608e+01 -2.496557e+00 -1.597940e+01 2.402843e+00 2.540519e+00 6.837623e+01 -9.973662e-02 1.073778e+00 -1.550279e-01 4.231051e-01 1.407594e+00 2.979819e+00 -3.129038e-01 -1.060145e+00 -1.343345e-01 7.325149e-01 -8.669822e-01 -1.193634e-01 -1.743272e+00 -1.721020e-01 1.533063e-01 4.872052e-02 1.939173e-01 3.734781e-01 8.032204e-01 -2.001003e-01 -1.505607e-01 5.072021e-02 4.211992e-01 -1.123702e-01 -3.053481e-03 -5.811397e-01
<VARIANCE> 39
 1.055332e+01 1.873093e+01 3.415732e+01 3.264156e+01 7.193887e+01 8.220234e+01 7.935354e+01 4.748671e+01 5.433238e+01 4.850291e+01 3.745814e+01 2.466378e+01 1.945853e+01 1.228852e+00 1.689712e+00 2.011293e+00 2.500674e+00 3.666197e+00 5.111265e+00 4.120570e+00 3.796687e+00 4.228464e+00 3.921185e+00 3.051342e+00 2.629322e+00 2.610295e+00 2.568339e-01 3.056399e-01 3.946998e-01 3.697647e-01 5.363505e-01 1.031027e+00 8.297886e-01 6.715597e-01 7.470977e-01 6.676494e-01 5.532891e-01 4.709969e-01 3.006408e-01
<GCONST> 1.235615e+02
<TRANSP> 5
 0.000000e+00 1.000000e+00 0.000000e+00 0.000000e+00 0.000000e+00
 0.000000e+00 4.286861e-01 5.713139e-01 0.000000e+00 0.000000e+00
 0.000000e+00 0.000000e+00 6.091295e-01 3.908705e-01 0.000000e+00
 0.000000e+00 0.000000e+00 0.000000e+00 5.968539e-01 4.031462e-01
 0.000000e+00 0.000000e+00 0.000000e+00 0.000000e+00 0.000000e+00
<ENDHMM>
~h "B"
<BEGINHMM>
<NUMSTATES> 5
<STATE> 2
<MEAN> 39
 3.418896e+00 6.165566e+00 3.658877e+00 8.293115e+00 3.656899e+00 -5.499755e+00 1.890899e+00 8.848094e+00 -4.260522e+00 -8.740892e+00 6.504599e-01 1.420375e+00 5.409360e+01 1.858768e-01 1.991944e+00 3.264523e-01 1.699412e+00 -7.413186e-01 1.961764e+00 3.922952e-01 6.820503e-01 1.254109e+00 2.333905e+00 -2.328816e-01 -4.432417e-01 -2.768651e+00 -5.223041e-01 -3.950393e-01 1.537429e-01 -5.208014e-01 1.571360e-01 -6.863275e-01 -3.152505e-02 -5.734057e-01 -1.002808e-01 -4.978007e-01 8.322766e-02 7.565751e-02 9.117683e-01
<VARIANCE> 39
 1.988560e+01 1.921622e+01 1.783399e+01 3.459475e+01 4.850481e+01 5.958399e+01 3.396096e+01 4.146145e+01 4.579986e+01 3.604071e+01 2.371593e+01 1.923118e+01 2.491889e+01 1.671665e+00 1.106037e+00 1.158714e+00 2.236592e+00 3.043135e+00 4.693096e+00 2.975491e+00 2.944711e+00 3.015928e+00 3.782134e+00 2.281910e+00 1.831702e+00 2.944706e+00 2.417152e-01 2.029779e-01 2.094505e-01 4.165178e-01 3.946099e-01 6.022582e-01 4.592209e-01 5.009447e-01 4.025386e-01 5.805637e-01 3.997544e-01 2.795153e-01 3.454712e-01
<GCONST> 1.142864e+02
<STATE> 3
<MEAN> 39
 1.597770e+00 1.138858e+01 5.942418e+00 1.064339e+01 3.473518e+00 -3.203264e+00 2.753033e+00 8.174037e+00 -1.194933e+00 -5.207437e+00 -6.094251e-01 -6.282607e-01 5.000920e+01 -6.772581e-01 8.986011e-02 3.462249e-01 -4.756419e-01 -2.165346e-01 -3.645891e-01 5.423417e-01 -6.849049e-01 3.617449e-01 -1.308909e-01 -3.605555e-01 5.309572e-02 5.727929e-01 -2.219013e-01 -1.022824e+00 -1.555824e-01 -7.334672e-01 2.159540e-01 -9.876822e-01 -2.106657e-01 -3.373396e-01 -4.281087e-01 -9.688674e-01 1.361358e-01 3.063314e-01 1.330826e+00
<VARIANCE> 39
 1.280634e+01 2.178395e+01 1.718835e+01 2.477420e+01 3.050861e+01 4.002797e+01 2.490203e+01 3.534335e+01 3.106809e+01 2.620030e+01 2.124282e+01 2.105698e+01 1.643147e+01 2.987778e+00 2.182354e+00 1.220325e+00 2.621766e+00 2.687675e+00 4.968590e+00 2.380616e+00 3.503939e+00 2.561517e+00 3.249145e+00 1.827983e+00 1.774933e+00 3.020487e+00 3.219498e-01 3.628775e-01 2.853029e-01 4.369709e-01 7.472026e-01 1.170676e+00 6.499920e-01 7.128101e-01 6.589266e-01 7.399331e-01 5.509408e-01 3.960926e-01 6.843904e-01
<GCONST> 1.172546e+02
<STATE> 4
<MEAN> 39
 -1.470513e+00 6.830369e+00 5.609237e+00 5.550975e+00 3.986364e+00 -4.948954e+00 4.573014e+00 3.955460e+00 -1.760818e+00 -8.473327e+00 -1.737133e+00 1.227762e+00 5.632679e+01 -3.769510e-01 -2.529974e+00 -3.217542e-01 -1.522949e+00 3.911957e-01 -3.496685e+00 -8.517475e-01 -9.758130e-01 -1.210435e+00 -2.645964e+00 5.343581e-01 7.467626e-01 3.966880e+00 3.192969e-01 -5.366907e-01 -1.189708e-01 1.239236e-01 1.159390e-01 -1.012495e+00 -6.410276e-01 3.102416e-01 -3.583405e-01 -4.403671e-01 5.121399e-01 3.465151e-02 6.566389e-01
<VARIANCE> 39
 2.115206e+01 2.339033e+01 1.841600e+01 2.446723e+01 4.297719e+01 7.497787e+01 2.292686e+01 4.278761e+01 4.344802e+01 3.791786e+01 1.686304e+01 1.653006e+01 3.573615e+01 1.865446e+00 3.636490e+00 2.550261e+00 3.500545e+00 9.619246e+00 1.184494e+01 4.698908e+00 7.254022e+00 7.017125e+00 4.840850e+00 4.380169e+00 2.676451e+00 3.581456e+00 3.801782e-01 4.592800e-01 4.002013e-01 5.642467e-01 7.629738e-01 1.276879e+00 8.571897e-01 9.406845e-01 7.111092e-01 9.375247e-01 6.351967e-01 4.421123e-01 6.186429e-01
<GCONST> 1.295724e+02
<TRANSP> 5
 0.000000e+00 1.000000e+00 0.000000e+00 0.000000e+00 0.000000e+00
 0.000000e+00 4.940053e-01 5.059947e-01 0.000000e+00 0.000000e+00
 0.000000e+00 0.000000e+00 5.843409e-01 4.156591e-01 0.000000e+00
 0.000000e+00 0.000000e+00 0.000000e+00 4.456209e-01 5.543791e-01
 0.000000e+00 0.000000e+00 0.000000e+00 0.000000e+00 0.000000e+00
<ENDHMM>
~h "C"
<BEGINHMM>
<NUMSTATES> 5
<STATE> 2
<MEAN> 39
 -1.478076e+01 -2.262955e-01 9.408602e+00 -8.997724e-01 4.653153e+00 -1.846078e+00 4.908611e+00 -2.620661e+00 -2.718701e+00 -3.110341e+00 7.700770e-01 2.610611e+00 5.528571e+01 -2.376246e+00 -2.366718e+00 5.128789e-01 -3.318639e-01 -9.188859e-01 1.740857e-01 -1.660383e-01 4.105610e-01 9.633963e-01 2.815598e-01 3.625568e-01 2.629783e-01 4.814167e-01 -1.090768e-01 -7.658092e-01 1.493862e-01 1.664646e-01 4.300853e-02 -2.875840e-01 -1.387268e-01 -7.290278e-02 -1.341278e-01 -4.787098e-01 3.007593e-01 2.676826e-02 1.031570e+00
<VARIANCE> 39
 3.809547e+01 5.356305e+01 4.756994e+01 4.817924e+01 4.794914e+01 4.544688e+01 4.311702e+01 5.704656e+01 4.746585e+01 4.004594e+01 2.613647e+01 3.031409e+01 5.559726e+01 5.078735e+00 6.613791e+00 6.095432e+00 4.180397e+00 4.649845e+00 4.128329e+00 5.221732e+00 4.647271e+00 4.017031e+00 5.127801e+00 2.769421e+00 2.546731e+00 9.637446e+00 9.067461e-01 9.277307e-01 1.234519e+00 8.002036e-01 8.741605e-01 7.163831e-01 1.003385e+00 1.033818e+00 7.447504e-01 7.582654e-01 5.065252e-01 4.710366e-01 1.139656e+00
<GCONST> 1.384230e+02
<STATE> 3
<MEAN> 39
 -2.662007e+01 -1.556595e+01 1.453416e+01 -4.724585e-01 1.905578e+00 -3.101390e+00 3.503925e+00 -3.065548e+00 6.034428e-01 -5.249154e+00 4.878933e+00 3.591477e+00 6.711610e+01 -4.653673e-01 -1.385478e+00 6.475340e-01 6.246341e-01 1.057966e+00 1.280965e-01 -6.939746e-01 -1.638786e+00 -3.355955e-01 -2.661605e-01 8.294526e-01 1.126849e-01 2.319182e+00 2.161049e+00 1.582239e+00 -7.095425e-01 2.540590e-01 7.898319e-01 -1.237482e-01 -2.906629e-01 -2.997228e-01 -9.570867e-01 -1.122477e-01 -2.592684e-01 -1.711116e-01 -8.092473e-01
<VARIANCE> 39
 1.824859e+01 2.382122e+01 2.234673e+01 2.962402e+01 2.267300e+01 2.001256e+01 3.318015e+01 3.607305e+01 2.674542e+01 3.293443e+01 2.200851e+01 2.302718e+01 1.555474e+01 1.018851e+01 6.639188e+00 3.504089e+00 2.777217e+00 3.726917e+00 2.905507e+00 3.085154e+00 2.971552e+00 3.904873e+00 2.670498e+00 2.491201e+00 1.907186e+00 3.787149e+00 8.707854e-01 5.989614e-01 8.217130e-01 5.170622e-01 5.824769e-01 7.010205e-01 8.683801e-01 8.231525e-01 8.409978e-01 6.115428e-01 4.782123e-01 4.222677e-01 3.766107e-01
<GCONST> 1.235479e+02
<STATE> 4
<MEAN> 39
 -1.360993e+01 -9.848115e+00 1.262448e+01 3.154014e+00 9.368956e+00 -2.326716e+00 1.220624e-01 -8.862661e+00 -6.145625e+00 -8.065173e+00 3.948440e+00 3.246490e+00 6.759591e+01 6.091222e+00 2.420137e+00 -1.923167e+00 7.383258e-01 1.670084e+00 -2.032219e+00 -1.126271e+00 -1.359079e-01 -3.522064e+00 -1.814393e+00 2.979284e-01 -5.201110e-01 2.209795e-01 2.132871e-01 1.358796e-01 -6.607501e-01 -2.972403e-01 -6.202873e-01 -8.566452e-01 2.049085e-01 9.785451e-01 7.480004e-02 -1.539859e-01 1.171793e-01 -5.188900e-02 -2.811650e-01
<VARIANCE> 39
 1.047935e+02 2.851280e+01 2.607718e+01 3.540939e+01 3.635953e+01 3.807613e+01 3.366986e+01 2.899291e+01 4.729101e+01 5.033617e+01 2.378850e+01 2.620273e+01 1.363899e+01 4.942997e+00 3.494686e+00 4.006807e+00 3.464028e+00 3.573796e+00 6.019586e+00 5.450059e+00 4.632213e+00 4.523092e+00 4.851733e+00 3.543255e+00 3.159635e+00 1.358522e+00 2.287534e+00 7.561574e-01 5.814697e-01 3.734646e-01 5.980847e-01 7.790900e-01 7.673464e-01 6.178715e-01 1.160086e+00 5.770216e-01 4.758048e-01 4.030952e-01 3.475915e-01
<GCONST> 1.294361e+02
<TRANSP> 5
 0.000000e+00 1.000000e+00 0.000000e+00 0.000000e+00 0.000000e+00
 0.000000e+00 7.854928e-01 2.145071e-01 0.000000e+00 0.000000e+00
 0.000000e+00 0.000000e+00 6.446173e-01 3.553827e-01 0.000000e+00
 0.000000e+00 0.000000e+00 0.000000e+00 5.248989e-01 4.751011e-01
 0.000000e+00 0.000000e+00 0.000000e+00 0.000000e+00 0.000000e+00
<ENDHMM>
~h "D"
<BEGINHMM>
<NUMSTATES> 5
<STATE> 2
<MEAN> 39
 4.146123e-01 9.535413e+00 7.453035e+00 8.184359e+00 4.661291e+00 -8.010594e-01 2.432761e+00 4.576025e+00 -4.446055e+00 -6.274963e+00 -5.946510e-02 1.211524e+00 5.149409e+01 2.301238e-01 1.491702e+00 -2.386786e-01 1.090345e+00 -4.411270e-01 9.767072e-01 1.368840e-02 4.506007e-01 6.197880e-01 1.330131e+00 -2.121707e-01 -1.427769e-01 -1.955242e+00 -7.274380e-01 -8.850228e-01 3.222379e-02 -6.236779e-01 2.581324e-01 -4.314997e-01 7.169695e-02 -8.424562e-01 -2.688518e-01 -5.353081e-01 7.167583e-02 9.354511e-02 1.286012e+00
<VARIANCE> 39
 1.988192e+01 2.494076e+01 1.917175e+01 2.747848e+01 5.968438e+01 4.684097e+01 4.973705e+01 5.204120e+01 3.813626e+01 3.673565e+01 3.131328e+01 2.119548e+01 2.360121e+01 2.907121e+00 1.717195e+00 1.596309e+00 2.142539e+00 2.590341e+00 3.153517e+00 3.151553e+00 3.538594e+00 2.471392e+00 3.653445e+00 2.136343e+00 1.504787e+00 4.057647e+00 4.513705e-01 4.454561e-01 3.332666e-01 4.123898e-01 5.732513e-01 4.793057e-01 6.264220e-01 8.686098e-01 4.513963e-01 5.659693e-01 5.183817e-01 3.980199e-01 8.510194e-01
<GCONST> 1.203739e+02
<STATE> 3
<MEAN> 39
 -9.828312e-01 1.133374e+01 7.281738e+00 8.518793e+00 4.807488e+00 2.562295e-01 3.420132e+00 3.175190e+00 -3.701044e+00 -5.114493e+00 -7.583738e-01 9.023054e-01 5.010188e+01 -2.579961e+00 -2.105951e+00 2.970163e-01 -1.184950e+00 7.052641e-01 3.162397e-01 6.318930e-01 -2.817947e+00 -2.804020e-01 -8.190335e-02 -1.872618e-01 2.836032e-01 2.929983e+00 -2.461941e-01 -1.419684e+00 1.020823e-01 -6.502150e-01 5.469142e-01 -9.254074e-01 -4.624147e-01 -7.247231e-01 -7.032471e-01 -1.076637e+00 3.225667e-01 2.030492e-01 1.939079e+00
<VARIANCE> 39
 1.853298e+01 2.091880e+01 1.804585e+01 2.479792e+01 4.430656e+01 3.465608e+01 3.630721e+01 4.670490e+01 3.053109e+01 3.103077e+01 2.764501e+01 1.936360e+01 2.268772e+01 1.924916e+00 3.611435e+00 1.891892e+00 2.816253e+00 3.994196e+00 3.877001e+00 4.979004e+00 5.010130e+00 3.926212e+00 3.843458e+00 2.929032e+00 2.500308e+00 5.046143e+00 4.909453e-01 3.627760e-01 3.522344e-01 4.761933e-01 7.246941e-01 9.107660e-01 8.733715e-01 9.010786e-01 6.032528e-01 8.111036e-01 7.020089e-01 5.237139e-01 4.672713e-01
<GCONST> 1.240222e+02
<STATE> 4
<MEAN> 39
 -9.248385e+00 1.248159e+00 8.485949e+00 3.240905e+00 7.854102e+00 2.781547e-01 4.471061e+00 -6.813332e+00 -5.727151e+00 -7.438376e+00 -9.645427e-01 2.270905e+00 6.410487e+01 -6.500771e-01 -3.291758e+00 2.103164e-01 -1.324811e+00 1.635135e+00 -2.234738e+00 -1.689255e+00 -2.078389e+00 -1.897001e+00 -2.688487e+00 6.567915e-01 5.974666e-01 4.541329e+00 1.080349e+00 1.925865e-01 -1.338673e-01 2.768516e-01 1.179532e-01 -9.439840e-01 -7.608398e-01 1.034022e+00 -1.768419e-01 -4.874291e-01 3.460407e-01 -4.940750e-02 -4.553530e-01
<VARIANCE> 39
 1.896518e+01 2.209637e+01 1.657815e+01 2.664127e+01 3.568305e+01 3.200860e+01 4.908965e+01 4.266880e+01 4.342271e+01 4.469127e+01 2.212325e+01 1.842515e+01 5.265547e+01 3.410349e+00 3.534458e+00 2.352882e+00 3.341742e+00 6.323504e+00 7.359849e+00 6.875619e+00 7.073618e+00 4.460918e+00 6.787133e+00 5.039255e+00 3.824352e+00 5.088319e+00 4.090570e-01 7.728748e-01 4.123648e-01 6.754822e-01 6.798015e-01 1.036193e+00 1.133122e+00 1.023091e+00 1.053662e+00 1.017923e+00 7.056359e-01 4.865320e-01 1.177354e+00
<GCONST> 1.328425e+02
<TRANSP> 5
 0.000000e+00 1.000000e+00 0.000000e+00 0.000000e+00 0.000000e+00
 0.000000e+00 5.791185e-01 4.208815e-01 0.000000e+00 0.000000e+00
 0.000000e+00 0.000000e+00 3.987477e-01 6.012523e-01 0.000000e+00
 0.000000e+00 0.000000e+00 0.000000e+00 4.754798e-01 5.245202e-01
 0.000000e+00 0.000000e+00 0.000000e+00 0.000000e+00 0.000000e+00
<ENDHMM>
~h "E"
<BEGINHMM>
<NUMSTATES> 5
<STATE> 2
<MEAN> 39
 -2.961345e+00 -3.848824e+00 5.174518e+00 6.291695e+00 1.747174e+01 -1.416303e+01 -5.707995e+00 -6.627670e+00 -1.588533e+01 -1.007709e+01 7.216309e+00 9.879552e-01 6.816237e+01 9.601337e-01 -6.978827e-01 -6.064074e-02 3.951004e-01 1.079993e+00 -2.653650e+00 -1.394554e+00 -5.257411e-01 -2.023288e+00 -5.606208e-01 1.364686e+00 -3.220549e-01 1.482669e+00 -4.214489e-01 2.399078e-01 1.292971e-02 -1.284679e-01 -7.437988e-01 9.488575e-01 5.070177e-01 3.192590e-01 9.881822e-01 4.834722e-01 -4.970885e-01 -3.330140e-02 -8.117177e-01
<VARIANCE> 39
 1.785537e+01 1.764294e+01 3.493985e+01 4.514686e+01 3.043474e+01 6.212894e+01 6.609731e+01 5.355796e+01 6.489944e+01 7.424915e+01 3.706610e+01 3.371278e+01 3.604909e+01 2.999201e+00 2.904969e+00 2.697342e+00 3.073402e+00 3.223942e+00 6.235187e+00 5.582133e+00 3.983622e+00 4.999907e+00 5.809107e+00 3.567253e+00 2.781363e+00 4.170813e+00 5.798346e-01 6.098231e-01 5.433025e-01 5.538728e-01 5.678446e-01 1.075488e+00 1.008680e+00 7.227271e-01 9.101413e-01 8.151886e-01 8.050423e-01 5.724026e-01 6.780434e-01
<GCONST> 1.326684e+02
<STATE> 3
<MEAN> 39
 -2.679470e+00 -5.000842e+00 6.085995e+00 6.665370e+00 1.658176e+01 -1.684342e+01 -7.154171e+00 -8.009533e+00 -1.662418e+01 -7.497943e+00 7.214943e+00 -2.607543e-01 6.863875e+01 -3.800869e-02 7.315633e-01 1.287516e-01 -1.654329e-01 -5.644299e-01 9.900365e-01 3.754949e-01 8.341546e-02 5.948332e-01 4.305976e-01 -5.745580e-01 -9.417522e-03 -1.104172e+00 -1.285505e-01 3.484853e-01 -6.550839e-04 6.235344e-02 -3.010469e-01 7.197746e-01 3.372420e-01 2.411712e-01 5.270063e-01 1.312960e-01 -3.655754e-01 4.345663e-02 -6.170240e-01
<VARIANCE> 39
 9.690628e+00 1.492915e+01 2.784094e+01 4.648701e+01 2.820758e+01 5.161797e+01 6.961251e+01 5.365693e+01 5.106170e+01 8.712819e+01 3.564358e+01 3.557494e+01 1.988727e+01 7.255902e-01 1.452455e+00 1.540459e+00 1.723993e+00 1.753938e+00 3.239507e+00 3.299329e+00 2.473154e+00 2.759441e+00 2.734007e+00 2.119732e+00 1.697866e+00 1.961464e+00 2.160675e-01 2.189741e-01 2.716133e-01 3.653435e-01 3.727102e-01 5.958533e-01 6.348964e-01 4.577223e-01 6.041292e-01 5.862467e-01 4.916243e-01 3.540600e-01 2.460060e-01
<GCONST> 1.144125e+02
<STATE> 4
<MEAN> 39
 -5.009186e+00 1.883887e+00 5.278562e+00 6.316479e+00 1.173839e+01 -7.634014e+00 -4.053676e+00 -7.021230e+00 -1.037172e+01 -3.788440e+00 3.357526e+00 7.634295e-01 5.687924e+01 -7.690586e-01 9.944821e-01 -2.201468e-01 2.061926e-01 -1.260956e+00 2.121140e+00 7.559879e-01 9.182950e-01 1.861620e+00 7.736804e-01 -6.597657e-01 1.841991e-01 -2.470201e+00 -2.277623e-01 -3.756760e-01 -9.146572e-03 -1.437507e-01 -2.303786e-02 -1.802822e-01 9.082095e-03 9.093444e-02 4.780302e-02 -8.914815e-02 7.727612e-02 -2.351191e-02 3.829036e-01
<VARIANCE> 39
 2.767130e+01 2.409589e+01 3.348788e+01 4.359045e+01 4.272516e+01 5.397145e+01 6.338683e+01 4.990694e+01 5.112602e+01 8.174232e+01 3.343766e+01 3.079473e+01 7.504727e+01 2.592345e+00 2.403094e+00 2.897566e+00 3.220925e+00 3.140071e+00 4.210360e+00 5.100886e+00 3.711432e+00 3.598392e+00 4.149669e+00 3.193299e+00 2.313525e+00 3.735929e+00 4.271379e-01 3.960778e-01 4.975424e-01 6.006487e-01 6.013260e-01 7.020682e-01 8.421886e-01 6.248006e-01 6.189232e-01 6.514108e-01 4.901365e-01 4.119756e-01 7.594081e-01
<GCONST> 1.291957e+02
<TRANSP> 5
 0.000000e+00 1.000000e+00 0.000000e+00 0.000000e+00 0.000000e+00
 0.000000e+00 5.284801e-01 4.715200e-01 0.000000e+00 0.000000e+00
 0.000000e+00 0.000000e+00 7.140517e-01 2.859483e-01 0.000000e+00
 0.000000e+00 0.000000e+00 0.000000e+00 5.850530e-01 4.149470e-01
 0.000000e+00 0.000000e+00 0.000000e+00 0.000000e+00 0.000000e+00
<ENDHMM>
~h "G"
<BEGINHMM>
<NUMSTATES> 5
<STATE> 2
<MEAN> 39
 -1.593091e+00 7.295012e+00 5.353974e+00 8.527968e+00 8.814727e+00 -5.114400e+00 -8.374928e-03 2.192359e+00 -4.521574e+00 -4.545348e+00 2.612879e+00 -1.896294e+00 5.339971e+01 -4.756006e-01 1.282118e+00 2.564022e-01 2.672395e-01 -2.670413e-01 9.896983e-01 3.622025e-01 -4.514844e-01 5.662463e-01 8.771839e-01 -4.281727e-01 -3.366718e-01 -1.161941e+00 -2.787084e-01 -7.500099e-01 9.369990e-02 -6.240175e-01 6.696811e-02 -5.278823e-01 1.449754e-01 -2.339015e-01 -3.605989e-01 -7.021838e-01 6.876431e-02 1.656930e-01 1.159016e+00
<VARIANCE> 39
 3.545282e+01 2.993475e+01 2.991419e+01 5.532412e+01 5.389807e+01 5.811885e+01 6.861979e+01 5.254921e+01 6.210440e+01 5.488679e+01 4.262263e+01 2.899345e+01 3.769004e+01 2.280421e+00 2.070094e+00 2.008651e+00 3.248240e+00 3.260167e+00 3.436362e+00 5.724952e+00 3.442285e+00 3.901802e+00 3.238075e+00 2.690656e+00 2.521077e+00 2.811110e+00 5.537338e-01 4.629282e-01 3.688733e-01 7.317494e-01 6.313401e-01 6.066183e-01 1.130117e+00 7.149789e-01 6.836554e-01 6.657346e-01 6.061736e-01 5.065958e-01 4.445869e-01
<GCONST> 1.288658e+02
<STATE> 3
<MEAN> 39
 -2.831283e+00 9.226059e+00 7.364484e+00 8.151383e+00 9.802874e+00 -3.776287e+00 -5.065706e-03 -1.786495e-01 -3.241206e+00 -3.181030e+00 8.768177e-01 -3.631654e+00 5.318287e+01 -1.050522e+00 -6.438039e-01 -1.113454e-01 -1.679551e+00 -3.120948e-01 -3.135605e-01 1.512253e+00 -5.694770e-01 -3.637600e-01 -8.932004e-01 2.691968e-02 1.991132e-02 1.820476e+00 -7.864834e-02 -9.353507e-01 -7.489280e-02 -4.827135e-01 -6.212270e-02 -5.919680e-01 -3.815331e-02 1.736652e-01 -3.119737e-01 -8.200282e-01 2.031369e-01 3.612791e-01 1.038244e+00
<VARIANCE> 39
 2.468894e+01 3.362904e+01 2.740195e+01 5.060643e+01 4.716245e+01 5.152631e+01 5.626965e+01 4.518153e+01 5.513594e+01 4.977421e+01 3.659412e+01 2.741648e+01 3.709862e+01 4.985779e+00 3.424762e+00 3.252432e+00 6.140443e+00 5.102704e+00 5.085168e+00 1.014734e+01 5.131553e+00 5.267793e+00 4.199773e+00 4.410620e+00 3.672336e+00 3.256021e+00 6.499100e-01 4.093799e-01 4.931762e-01 7.903472e-01 6.337949e-01 8.247379e-01 1.403647e+00 7.620273e-01 7.407311e-01 7.915860e-01 6.060808e-01 5.365438e-01 6.058882e-01
<GCONST> 1.348088e+02
<STATE> 4
<MEAN> 39
 -7.157978e+00 4.797486e+00 5.713147e+00 -3.216555e-02 7.396711e+00 -5.046280e+00 6.898181e+00 4.833774e-02 -4.768189e+00 -8.585870e+00 2.151407e+00 -1.776787e+00 6.131065e+01 -2.972523e-02 -1.967253e+00 4.584329e-01 -1.033955e+00 -1.491974e-01 -1.557434e+00 -7.089287e-01 -2.840839e-02 -7.458676e-01 -2.212567e+00 -1.562819e-01 9.294462e-01 2.603690e+00 8.483181e-01 -3.136661e-01 1.362470e-01 7.285231e-01 1.972494e-01 -6.212624e-01 -1.281035e+00 2.546025e-01 -3.640832e-02 -2.787779e-01 -8.958192e-02 2.573325e-01 -1.459454e-02
<VARIANCE> 39
 2.444163e+01 4.109821e+01 3.376692e+01 7.058313e+01 8.477363e+01 6.109843e+01 7.821971e+01 6.657404e+01 7.096468e+01 5.283627e+01 3.517178e+01 2.659900e+01 3.266846e+01 3.629273e+00 3.115784e+00 3.408762e+00 6.142088e+00 5.534561e+00 6.216093e+00 9.419272e+00 5.441971e+00 5.357459e+00 5.124719e+00 4.642242e+00 3.633362e+00 3.274468e+00 4.747691e-01 5.915395e-01 7.108144e-01 1.212430e+00 8.506058e-01 1.145188e+00 1.795684e+00 9.480984e-01 9.703290e-01 8.155446e-01 8.388962e-01 5.598602e-01 5.876111e-01
<GCONST> 1.398649e+02
<TRANSP> 5
 0.000000e+00 1.000000e+00 0.000000e+00 0.000000e+00 0.000000e+00
 0.000000e+00 4.187897e-01 5.812103e-01 0.000000e+00 0.000000e+00
 0.000000e+00 0.000000e+00 3.631265e-01 6.368735e-01 0.000000e+00
 0.000000e+00 0.000000e+00 0.000000e+00 4.451833e-01 5.548167e-01
 0.000000e+00 0.000000e+00 0.000000e+00 0.000000e+00 0.000000e+00
<ENDHMM>
~h "H"
<BEGINHMM>
<NUMSTATES> 5
<STATE> 2
<MEAN> 39
 -5.723444e+00 -2.461723e-01 7.537739e+00 -3.787599e+00 4.943741e+00 -3.582131e+00 1.085835e+01 6.041279e+00 1.024500e+00 -7.561734e+00 2.626900e+00 5.370055e+00 6.308920e+01 -7.646723e-01 -8.221660e-01 -4.605263e-02 -8.554863e-01 -4.410485e-01 1.942407e+00 1.818358e+00 8.317536e-01 1.524926e+00 1.128859e+00 -4.888721e-01 3.759109e-01 -6.760064e-01 2.597322e-01 -1.007410e-01 -1.961150e-01 1.660965e-01 -1.501536e-01 -6.767401e-01 -4.657040e-01 -5.280345e-02 -3.967144e-01 -3.394971e-01 6.386663e-02 -2.367234e-01 2.392900e-01
<VARIANCE> 39
 1.513220e+01 2.636700e+01 3.125327e+01 2.551584e+01 9.242155e+01 5.415876e+01 4.904367e+01 7.479882e+01 5.984998e+01 4.770330e+01 3.072270e+01 2.524072e+01 2.547061e+01 1.204433e+00 2.165999e+00 3.132551e+00 2.469272e+00 4.393454e+00 4.654340e+00 4.464668e+00 4.538653e+00 4.085775e+00 4.146295e+00 2.725695e+00 2.469028e+00 1.348758e+00 1.479341e-01 4.134939e-01 3.722140e-01 3.099156e-01 4.761602e-01 5.977286e-01 5.619156e-01 5.803153e-01 7.230826e-01 5.701122e-01 4.388307e-01 4.271863e-01 1.053002e-01
<GCONST> 1.208457e+02
<STATE> 3
<MEAN> 39
 -6.997281e+00 -3.246440e+00 6.044797e+00 -6.449277e+00 1.390483e+00 -1.615565e+00 1.421096e+01 8.418209e+00 4.140178e+00 -5.620205e+00 1.554880e+00 5.367983e+00 6.210758e+01 3.665494e-01 6.357791e-01 4.321365e-01 2.010648e-01 -2.178234e-01 -3.668264e-01 -3.902400e-02 3.465801e-01 8.569070e-02 -3.723303e-01 -3.305190e-01 -5.895978e-01 1.327201e-02 4.926939e-01 5.959750e-01 7.997633e-02 3.570018e-01 6.158584e-02 -9.599190e-01 -6.849681e-01 -1.813671e-01 -5.431948e-01 -6.183357e-01 1.114894e-01 -2.082378e-01 2.958316e-01
<VARIANCE> 39
 1.441053e+01 2.796110e+01 3.125305e+01 3.157435e+01 7.784341e+01 3.728364e+01 4.925818e+01 5.943615e+01 4.877075e+01 3.691381e+01 2.459318e+01 2.394398e+01 2.104389e+01 9.377539e-01 2.164824e+00 1.417426e+00 1.469465e+00 3.011256e+00 2.658068e+00 2.309093e+00 2.427276e+00 2.600689e+00 2.588796e+00 1.771081e+00 1.592922e+00 6.290776e-01 1.430869e-01 2.891281e-01 4.168456e-01 3.319967e-01 4.061405e-01 6.969010e-01 5.481831e-01 5.003229e-01 5.062985e-01 5.654978e-01 4.013122e-01 3.543237e-01 9.603348e-02
<GCONST> 1.119092e+02
<STATE> 4
<MEAN> 39
 -3.648167e+00 2.944596e+00 8.893805e+00 -3.770529e+00 2.090118e+00 -6.598147e+00 1.077130e+01 8.139085e+00 1.559947e+00 -9.736688e+00 1.031003e+00 2.552793e+00 6.339626e+01 1.617275e+00 1.097445e+00 -4.593852e-01 5.285967e-01 -5.907780e-01 -3.470536e+00 -1.775482e+00 -3.405786e-02 -1.524979e+00 -1.816570e+00 3.974603e-01 -6.335437e-01 1.160293e+00 1.109564e-01 -5.955548e-01 -6.000050e-01 8.944765e-02 9.137917e-02 -4.866744e-01 -3.313574e-01 -7.816844e-02 -4.596940e-01 -1.658949e-01 2.494681e-01 1.972339e-01 2.538735e-01
<VARIANCE> 39
 1.494259e+01 2.440622e+01 3.187781e+01 2.526899e+01 7.896941e+01 5.511654e+01 5.961738e+01 6.074220e+01 5.246265e+01 4.202494e+01 2.767607e+01 2.110008e+01 2.438137e+01 9.377882e-01 2.216259e+00 2.779603e+00 2.471477e+00 2.825879e+00 4.479156e+00 2.864064e+00 2.491888e+00 3.482971e+00 3.074032e+00 2.214872e+00 1.915669e+00 7.716480e-01 1.534806e-01 3.486766e-01 2.308925e-01 3.106847e-01 3.927500e-01 7.730155e-01 4.839939e-01 4.186615e-01 5.346627e-01 4.634863e-01 3.672634e-01 3.320070e-01 1.267129e-01
<GCONST> 1.149058e+02
<TRANSP> 5
 0.000000e+00 1.000000e+00 0.000000e+00 0.000000e+00 0.000000e+00
 0.000000e+00 5.666032e-01 4.333968e-01 0.000000e+00 0.000000e+00
 0.000000e+00 0.000000e+00 6.236591e-01 3.763409e-01 0.000000e+00
 0.000000e+00 0.000000e+00 0.000000e+00 5.173591e-01 4.826409e-01
 0.000000e+00 0.000000e+00 0.000000e+00 0.000000e+00 0.000000e+00
<ENDHMM>
~h "I"
<BEGINHMM>
<NUMSTATES> 5
<STATE> 2
<MEAN> 39
 -4.356339e+00 -3.858442e+00 1.037291e+01 1.009997e+01 2.005308e+01 -9.142158e+00 -7.472663e+00 -6.398952e+00 -1.048207e+01 -1.017152e+01 3.099475e+00 -1.902788e+00 6.701558e+01 9.523067e-01 -7.707475e-01 1.116343e+00 1.125947e+00 1.891871e+00 -2.360927e+00 -2.805790e+00 1.885825e-01 -1.258852e+00 -1.421926e+00 6.002393e-01 -8.289995e-01 1.229684e+00 -2.911894e-01 3.018060e-01 -2.753180e-01 -3.841906e-01 -8.374963e-01 5.823829e-01 5.087506e-01 3.627754e-01 7.221020e-01 4.411888e-01 -1.820926e-01 1.618995e-01 -6.958512e-01
<VARIANCE> 39
 1.566232e+01 1.638247e+01 3.708714e+01 4.042019e+01 2.654203e+01 7.697611e+01 5.279353e+01 4.614904e+01 6.589603e+01 5.196360e+01 3.767061e+01 2.698703e+01 1.815179e+01 4.151728e+00 3.576552e+00 3.195180e+00 3.115599e+00 3.565510e+00 5.383811e+00 5.577653e+00 4.392987e+00 4.932399e+00 4.780822e+00 3.546639e+00 2.601509e+00 2.644141e+00 5.880779e-01 5.402849e-01 6.418841e-01 5.242670e-01 6.412898e-01 9.459767e-01 1.123761e+00 7.004478e-01 7.715062e-01 8.531764e-01 6.741837e-01 5.249717e-01 4.592370e-01
<GCONST> 1.302139e+02
<STATE> 3
<MEAN> 39
 -4.175145e+00 -5.343581e+00 1.303605e+01 1.115793e+01 2.019997e+01 -1.243901e+01 -1.139814e+01 -3.962903e+00 -9.222932e+00 -1.160418e+01 2.421343e+00 -3.429014e+00 6.780319e+01 -4.470625e-02 4.919477e-01 1.526003e-01 -1.835261e-01 -4.473406e-01 5.259255e-01 2.363206e-01 -9.701288e-02 3.238128e-01 4.119456e-01 -2.506925e-01 -9.508108e-02 -6.312561e-01 -1.323545e-01 4.158197e-01 -3.445473e-01 -2.125992e-01 -5.530887e-01 7.139879e-01 7.814535e-01 -4.928560e-02 2.952178e-01 5.022233e-01 -1.231141e-01 2.072605e-01 -5.676350e-01
<VARIANCE> 39
 9.042538e+00 1.358343e+01 2.767996e+01 4.681703e+01 2.731812e+01 7.416714e+01 5.722641e+01 5.322498e+01 7.585026e+01 4.715405e+01 4.061145e+01 2.875854e+01 1.378351e+01 8.338616e-01 1.445523e+00 2.243218e+00 1.858097e+00 1.629506e+00 3.149560e+00 3.490947e+00 2.576306e+00 2.719578e+00 3.060091e+00 1.944057e+00 1.709155e+00 1.422619e+00 3.163635e-01 2.744235e-01 3.182101e-01 3.687840e-01 5.089750e-01 6.777969e-01 8.705955e-01 5.539606e-01 6.830117e-01 6.023384e-01 4.994824e-01 3.511181e-01 2.917911e-01
<GCONST> 1.160368e+02
<STATE> 4
<MEAN> 39
 -5.902762e+00 1.050094e+00 1.064436e+01 9.889368e+00 1.530165e+01 -6.777176e+00 -5.521287e+00 -6.092318e+00 -7.461866e+00 -4.830662e+00 8.875058e-01 -2.941837e+00 5.902375e+01 -4.361098e-01 1.226987e+00 -8.298115e-01 -2.132226e-01 -1.636676e+00 1.783627e+00 1.312068e+00 5.401040e-01 1.177585e+00 1.298140e+00 -2.367230e-01 4.438860e-01 -2.414181e+00 -2.020477e-01 -3.033305e-01 -1.928918e-01 -1.451549e-01 -1.357155e-01 -7.965514e-02 8.843014e-02 2.332864e-01 7.876264e-02 -1.738941e-01 -9.081089e-03 9.432496e-02 1.484870e-01
<VARIANCE> 39
 2.184383e+01 2.657685e+01 3.173596e+01 4.606860e+01 3.535664e+01 8.226138e+01 5.119417e+01 5.688804e+01 5.237263e+01 5.777672e+01 4.030823e+01 2.789376e+01 6.436633e+01 2.634398e+00 2.577888e+00 2.767487e+00 3.114065e+00 2.829579e+00 4.305737e+00 5.397439e+00 3.651979e+00 3.611671e+00 4.087380e+00 2.893286e+00 2.169258e+00 3.529407e+00 3.873928e-01 4.304461e-01 4.914730e-01 5.719904e-01 5.051666e-01 6.829414e-01 7.933993e-01 6.732244e-01 5.899330e-01 7.099219e-01 4.545232e-01 3.930025e-01 7.064732e-01
<GCONST> 1.281343e+02
<TRANSP> 5
 0.000000e+00 1.000000e+00 0.000000e+00 0.000000e+00 0.000000e+00
 0.000000e+00 4.491862e-01 5.508138e-01 0.000000e+00 0.000000e+00
 0.000000e+00 0.000000e+00 6.890710e-01 3.109290e-01 0.000000e+00
 0.000000e+00 0.000000e+00 0.000000e+00 5.955083e-01 4.044917e-01
 0.000000e+00 0.000000e+00 0.000000e+00 0.000000e+00 0.000000e+00
<ENDHMM>
~h "J"
<BEGINHMM>
<NUMSTATES> 5
<STATE> 2
<MEAN> 39
 -1.046320e+01 4.539822e+00 1.350227e+01 2.825314e+00 9.509968e+00 8.436909e-01 4.406872e+00 -2.122539e+00 -2.507729e+00 -3.333254e+00 1.049104e+00 1.717707e+00 5.643337e+01 -1.617659e+00 -1.315414e+00 1.692814e+00 4.168177e-01 -5.357699e-01 3.700454e-01 3.315809e-01 -1.112500e-01 7.622874e-01 1.556257e-01 -1.588185e-02 -1.453574e-01 7.950096e-01 -6.468426e-02 -8.464668e-01 -1.547332e-01 1.609240e-01 3.397309e-02 -3.922355e-01 -2.478096e-01 -1.851351e-01 -3.164492e-01 -5.704491e-01 2.096573e-01 1.835724e-02 7.966600e-01
<VARIANCE> 39
 5.070813e+01 4.105927e+01 4.570947e+01 6.201584e+01 4.181873e+01 3.892466e+01 4.262582e+01 5.113776e+01 4.119955e+01 3.991977e+01 2.660731e+01 2.689417e+01 6.764761e+01 7.610064e+00 7.995801e+00 4.437591e+00 4.590398e+00 4.374189e+00 4.149002e+00 4.718915e+00 4.479406e+00 4.532812e+00 5.266625e+00 3.174042e+00 2.822409e+00 6.277352e+00 1.267305e+00 9.914047e-01 8.030226e-01 9.480180e-01 8.252327e-01 7.196388e-01 8.360444e-01 9.417099e-01 8.931752e-01 7.543421e-01 6.316990e-01 5.290266e-01 8.876174e-01
<GCONST> 1.384022e+02
<STATE> 3
<MEAN> 39
 -1.903920e+01 -8.166427e+00 2.069970e+01 5.177624e+00 7.291568e+00 -3.354481e-01 4.442732e+00 -5.352440e+00 -1.799225e+00 -6.716280e+00 3.084766e+00 1.397961e+00 6.756804e+01 1.631264e-01 -1.827062e+00 -4.236094e-02 9.291967e-01 9.664878e-01 -6.889148e-01 -1.416519e+00 -1.742939e+00 -1.312203e+00 -1.208780e+00 3.538128e-01 -1.047806e-01 2.210293e+00 1.822411e+00 9.155033e-01 -1.287556e+00 -4.363182e-02 5.896130e-01 -6.759142e-01 -6.650326e-01 9.957618e-02 -9.210547e-01 -2.827516e-01 6.546156e-02 1.132362e-01 -4.501276e-01
<VARIANCE> 39
 3.172882e+01 3.105700e+01 2.610835e+01 4.144200e+01 2.897440e+01 1.885373e+01 3.024087e+01 5.163987e+01 3.661199e+01 3.194285e+01 2.123407e+01 2.191235e+01 1.813920e+01 9.059321e+00 4.849986e+00 4.545396e+00 3.501231e+00 2.990104e+00 3.218424e+00 3.637517e+00 3.501306e+00 4.415201e+00 2.745299e+00 2.393790e+00 1.823049e+00 3.166244e+00 6.462919e-01 7.685147e-01 7.158135e-01 6.927627e-01 5.458779e-01 8.305951e-01 8.681100e-01 1.085001e+00 8.374614e-01 5.608629e-01 6.090857e-01 4.076201e-01 4.910243e-01
<GCONST> 1.266858e+02
<STATE> 4
<MEAN> 39
 -6.509229e+00 -7.594471e+00 1.285199e+01 7.909624e+00 1.287862e+01 -6.005912e+00 -3.172736e+00 -9.064371e+00 -1.114478e+01 -1.211707e+01 4.003877e+00 2.271794e+00 6.990871e+01 3.852760e+00 2.976549e-01 -3.572346e+00 -2.630918e-01 8.246700e-01 -3.128939e+00 -1.470307e+00 1.113990e+00 -2.938546e+00 -1.768823e+00 1.385074e+00 6.186258e-01 3.514994e-01 -2.851243e-01 4.087285e-01 -2.208459e-01 -5.248935e-01 -6.149099e-01 -1.666881e-01 7.992561e-01 9.550291e-01 5.606437e-01 2.828209e-01 1.360741e-01 5.978291e-02 -4.680473e-01
<VARIANCE> 39
 3.737855e+01 1.668530e+01 3.397948e+01 3.428190e+01 2.556520e+01 4.954613e+01 3.500868e+01 3.533704e+01 5.435306e+01 4.677936e+01 3.046548e+01 2.380385e+01 1.688658e+01 2.897107e+00 2.240841e+00 3.361279e+00 4.469611e+00 2.916546e+00 5.831147e+00 6.114406e+00 4.487000e+00 4.769783e+00 4.247652e+00 3.913807e+00 2.462924e+00 1.662308e+00 1.032800e+00 4.175545e-01 7.712101e-01 3.794776e-01 3.685515e-01 8.254728e-01 7.151176e-01 6.915707e-01 9.615277e-01 5.032566e-01 5.432996e-01 3.591664e-01 2.346575e-01
<GCONST> 1.254267e+02
<TRANSP> 5
 0.000000e+00 1.000000e+00 0.000000e+00 0.000000e+00 0.000000e+00
 0.000000e+00 7.497091e-01 2.502909e-01 0.000000e+00 0.000000e+00
 0.000000e+00 0.000000e+00 6.228067e-01 3.771933e-01 0.000000e+00
 0.000000e+00 0.000000e+00 0.000000e+00 5.816219e-01 4.183780e-01
 0.000000e+00 0.000000e+00 0.000000e+00 0.000000e+00 0.000000e+00
<ENDHMM>
~h "K"
<BEGINHMM>
<NUMSTATES> 5
<STATE> 2
<MEAN> 39
 -1.349446e+01 4.198133e+00 7.396387e-01 -2.646800e+00 4.244399e+00 -6.247222e+00 5.008665e+00 -2.479155e+00 -2.798589e+00 -2.969847e+00 5.039838e+00 7.355129e-01 5.527640e+01 -1.639031e+00 -5.246626e-01 -9.607629e-01 -2.393354e+00 -1.217325e+00 8.244862e-01 1.316060e+00 -1.022725e-01 3.533547e-01 -3.203874e-01 -9.503686e-02 1.944524e-01 8.653346e-01 5.903286e-01 -6.457185e-01 1.621683e-01 -7.240643e-03 8.924915e-02 -3.272059e-02 -1.035319e-01 8.223756e-02 -2.589929e-01 -3.501015e-01 7.167839e-02 1.729751e-01 8.886034e-01
<VARIANCE> 39
 2.666133e+01 3.121736e+01 3.436493e+01 6.447626e+01 6.366049e+01 6.482290e+01 5.369254e+01 6.156741e+01 4.892579e+01 5.139393e+01 3.894949e+01 3.609637e+01 5.249301e+01 3.192711e+00 2.839426e+00 3.541961e+00 4.859842e+00 4.320961e+00 5.416042e+00 5.115087e+00 4.519131e+00 4.362684e+00 5.488660e+00 3.291434e+00 3.152042e+00 7.174983e+00 4.664420e-01 4.751535e-01 5.743719e-01 9.935247e-01 7.653171e-01 7.964709e-01 9.921594e-01 7.028583e-01 6.547453e-01 9.504092e-01 5.800669e-01 5.794584e-01 1.039689e+00
<GCONST> 1.359526e+02
<STATE> 3
<MEAN> 39
 -1.448915e+01 -2.379039e+00 -1.001305e+00 -9.322647e+00 1.310437e+00 -3.232339e+00 7.941222e+00 -3.695571e+00 -3.545475e+00 -4.781230e+00 5.242435e+00 3.355605e+00 6.436665e+01 4.499946e-01 -2.281667e+00 3.628057e-01 -2.977525e-01 4.808161e-01 1.228672e+00 8.742929e-02 -1.200547e-01 4.947866e-01 3.937591e-01 -2.878488e-01 9.287927e-01 9.242457e-01 5.332662e-01 3.046617e-01 5.480996e-01 8.538057e-01 6.348864e-01 -1.221182e-01 -2.743729e-01 3.302195e-01 2.115696e-01 9.659925e-02 -1.735838e-01 -2.434996e-01 -6.769932e-01
<VARIANCE> 39
 1.568422e+01 3.537387e+01 1.603779e+01 4.933065e+01 4.914739e+01 2.943381e+01 6.165781e+01 5.394865e+01 4.532268e+01 4.270741e+01 2.840999e+01 2.832776e+01 1.884587e+01 1.317136e+00 2.288127e+00 2.101620e+00 3.089965e+00 4.202734e+00 3.358883e+00 3.366371e+00 3.829396e+00 3.637001e+00 3.045095e+00 2.907253e+00 2.580760e+00 3.273403e+00 3.391800e-01 8.287113e-01 4.535701e-01 5.301138e-01 6.823668e-01 7.718049e-01 7.840424e-01 7.993023e-01 7.151383e-01 7.842149e-01 4.889782e-01 5.371969e-01 4.763071e-01
<GCONST> 1.245750e+02
<STATE> 4
<MEAN> 39
 -1.117582e+01 -6.170108e+00 3.464210e+00 -6.288572e+00 6.508663e+00 -1.702705e-01 8.220771e+00 -7.525474e-01 -9.319708e-02 -3.437063e+00 3.517578e+00 3.768739e+00 6.334608e+01 2.211536e+00 1.715453e+00 1.915305e+00 1.445042e+00 1.094710e+00 -8.262622e-01 -4.198635e-01 1.423233e+00 1.569364e-01 -1.201132e+00 -5.602415e-01 -8.067863e-01 2.436208e-01 4.559515e-01 9.440177e-01 -1.560927e-01 1.616953e-01 -2.975739e-01 -9.609478e-01 -5.681653e-01 3.614531e-02 -5.033149e-01 -7.156178e-01 1.617659e-01 -2.017469e-01 2.872744e-01
<VARIANCE> 39
 2.023174e+01 2.982223e+01 2.628452e+01 4.801150e+01 6.348501e+01 2.913466e+01 6.411320e+01 7.567640e+01 4.805551e+01 3.937982e+01 3.031788e+01 2.741122e+01 1.891865e+01 1.533863e+00 4.102334e+00 2.314595e+00 2.030882e+00 3.674481e+00 4.628677e+00 4.298171e+00 3.291599e+00 3.924584e+00 3.644962e+00 2.386891e+00 2.068674e+00 1.502304e+00 2.536476e-01 8.080297e-01 6.274457e-01 4.332373e-01 5.827216e-01 5.938703e-01 7.079646e-01 6.996871e-01 7.028125e-01 5.350383e-01 4.672057e-01 4.791004e-01 2.196178e-01
<GCONST> 1.233313e+02
<TRANSP> 5
 0.000000e+00 1.000000e+00 0.000000e+00 0.000000e+00 0.000000e+00
 0.000000e+00 6.594872e-01 3.405129e-01 0.000000e+00 0.000000e+00
 0.000000e+00 0.000000e+00 6.637820e-01 3.362180e-01 0.000000e+00
 0.000000e+00 0.000000e+00 0.000000e+00 6.552943e-01 3.447057e-01
 0.000000e+00 0.000000e+00 0.000000e+00 0.000000e+00 0.000000e+00
<ENDHMM>
~h "L"
<BEGINHMM>
<NUMSTATES> 5
<STATE> 2
<MEAN> 39
 2.192610e+00 -1.159404e+00 3.643336e+00 8.799255e+00 9.132765e+00 -1.243133e+01 1.818353e+00 6.716274e+00 -7.442858e+00 -1.813900e+01 -6.867203e+00 -1.039562e+00 6.238839e+01 4.074290e-01 -1.858058e-01 2.314703e-01 2.102770e+00 4.521027e-01 -7.041210e-01 7.641969e-01 1.643797e+00 -9.588799e-01 -9.710195e-01 -1.000254e+00 -7.820145e-01 -8.619041e-01 -3.548165e-01 1.814730e-02 -3.112547e-02 -5.111895e-01 -3.543697e-01 -3.506864e-01 -6.453770e-02 -2.444036e-01 -6.453362e-03 1.503381e-01 5.164491e-01 3.445940e-01 4.573678e-01
<VARIANCE> 39
 1.407375e+01 2.232326e+01 3.015594e+01 5.746869e+01 7.174012e+01 8.189632e+01 6.013667e+01 6.191764e+01 7.425740e+01 5.254473e+01 5.283095e+01 2.862920e+01 2.172113e+01 1.369651e+00 1.242767e+00 1.854014e+00 3.120978e+00 3.249945e+00 5.229592e+00 3.328167e+00 3.954655e+00 4.150605e+00 4.163535e+00 3.197940e+00 2.804579e+00 1.573380e+00 1.960050e-01 2.125282e-01 4.719575e-01 6.500676e-01 5.591101e-01 1.053552e+00 7.163152e-01 1.113932e+00 8.759946e-01 9.151174e-01 6.413105e-01 5.571134e-01 2.068764e-01
<GCONST> 1.257082e+02
<STATE> 3
<MEAN> 39
 1.531807e+00 -2.264064e+00 4.807415e+00 1.257310e+01 8.769608e+00 -1.625714e+01 3.536422e+00 9.665572e+00 -1.018988e+01 -2.043044e+01 -6.623705e+00 -1.590941e+00 6.244422e+01 -6.243013e-01 2.459015e-02 -5.168737e-01 -9.486412e-01 -2.758268e-01 1.005131e-02 -2.827910e-01 -1.342708e+00 -5.093176e-01 3.658794e-01 1.090221e+00 9.139326e-01 8.871779e-01 -2.491492e-01 9.808297e-03 -2.271168e-01 -1.133705e+00 -1.756728e-01 2.008604e-01 -3.870466e-01 -9.185820e-01 1.164527e-01 6.002915e-01 8.085893e-01 5.618851e-01 4.892191e-01
<VARIANCE> 39
 1.260594e+01 2.230553e+01 2.931578e+01 5.958505e+01 7.665580e+01 7.174976e+01 6.323478e+01 5.900813e+01 7.492685e+01 5.145576e+01 5.469379e+01 2.650918e+01 1.964096e+01 1.189917e+00 1.194395e+00 1.745206e+00 3.324076e+00 3.844597e+00 5.006613e+00 3.607296e+00 5.018649e+00 5.142474e+00 4.904735e+00 4.592801e+00 3.265945e+00 1.690155e+00 1.965125e-01 2.070940e-01 3.702622e-01 5.584539e-01 4.537394e-01 7.565672e-01 6.462041e-01 9.032236e-01 9.339333e-01 8.668007e-01 7.116679e-01 5.958937e-01 2.159984e-01
<GCONST> 1.255696e+02
<STATE> 4
<MEAN> 39
 -9.241347e-01 -2.010249e-01 1.926155e+00 5.295501e+00 7.012412e+00 -1.306739e+01 1.489060e+00 2.334865e+00 -9.448969e+00 -1.687587e+01 -3.628647e+00 2.450708e+00 6.451679e+01 -6.958209e-01 1.614943e-02 -3.878997e-01 -2.121660e+00 -6.011424e-01 -2.541587e-01 -4.283569e-01 -1.456807e+00 -3.420602e-01 1.115297e+00 1.861670e+00 1.192433e+00 8.578272e-01 8.598959e-02 -3.370608e-02 2.635280e-01 3.822209e-02 -5.027051e-02 -1.636081e-01 9.101637e-02 3.930713e-01 1.249668e-01 1.553609e-01 -2.246305e-02 -2.695289e-01 -2.728173e-01
<VARIANCE> 39
 1.644143e+01 2.824868e+01 3.072354e+01 5.061189e+01 7.337468e+01 7.892954e+01 5.708144e+01 6.149363e+01 7.600813e+01 5.359325e+01 6.637885e+01 3.317360e+01 4.523238e+01 1.462784e+00 1.812063e+00 2.441976e+00 4.122080e+00 4.384860e+00 6.574972e+00 4.973080e+00 6.264449e+00 6.123201e+00 6.376074e+00 5.239546e+00 3.753500e+00 3.448887e+00 2.036779e-01 2.424881e-01 3.381838e-01 5.058437e-01 5.496098e-01 7.800049e-01 7.306806e-01 8.238126e-01 7.945812e-01 6.673887e-01 6.440409e-01 5.352529e-01 2.633282e-01
<GCONST> 1.306200e+02
<TRANSP> 5
 0.000000e+00 1.000000e+00 0.000000e+00 0.000000e+00 0.000000e+00
 0.000000e+00 5.661219e-01 4.338782e-01 0.000000e+00 0.000000e+00
 0.000000e+00 0.000000e+00 4.799441e-01 5.200559e-01 0.000000e+00
 0.000000e+00 0.000000e+00 0.000000e+00 3.865035e-01 6.134965e-01
 0.000000e+00 0.000000e+00 0.000000e+00 0.000000e+00 0.000000e+00
<ENDHMM>
~h "M"
<BEGINHMM>
<NUMSTATES> 5
<STATE> 2
<MEAN> 39
 1.424180e+00 4.766235e+00 5.184411e+00 3.718062e+00 5.661464e+00 -3.334471e+00 1.213818e+00 7.312875e+00 5.782766e-01 -9.078537e+00 -2.031112e-01 -3.244412e+00 5.741178e+01 7.234491e-01 6.288096e-01 1.121527e+00 1.009495e+00 1.201628e+00 2.846810e+00 -1.049916e+00 -2.741879e-01 1.429368e+00 9.440203e-01 -1.377951e+00 -2.329564e+00 -8.591366e-01 -1.431900e-01 -3.862977e-01 -1.383650e-01 -1.867496e-01 -1.453354e-01 -7.370843e-01 1.344346e-01 -7.606760e-02 -3.169838e-01 -2.840201e-01 2.333955e-01 3.655676e-01 5.774770e-01
<VARIANCE> 39
 3.765070e+01 2.123400e+01 2.252552e+01 2.656950e+01 4.095278e+01 9.321169e+01 5.762298e+01 4.315517e+01 5.441277e+01 4.832351e+01 3.155790e+01 2.560125e+01 5.559898e+01 3.033176e+00 1.461381e+00 1.942981e+00 1.874451e+00 3.477728e+00 8.582717e+00 4.355815e+00 4.654207e+00 5.634987e+00 5.561736e+00 3.059637e+00 2.767459e+00 4.648498e+00 3.385517e-01 2.107069e-01 2.715040e-01 2.919976e-01 3.782135e-01 6.794311e-01 6.176477e-01 4.630224e-01 5.370410e-01 5.664272e-01 4.479820e-01 4.512876e-01 2.036199e-01
<GCONST> 1.235473e+02
<STATE> 3
<MEAN> 39
 3.247188e+00 4.084157e+00 6.509127e+00 4.860146e+00 7.567154e+00 -1.854486e+00 -1.588038e+00 7.148906e+00 2.166389e+00 -9.771861e+00 -1.812778e+00 -6.622519e+00 5.901769e+01 -1.143181e-01 -5.061117e-02 1.048652e-01 1.325966e-01 -2.631805e-02 -2.928739e-01 4.642864e-02 -2.789870e-01 -1.090900e-01 1.538312e-02 -2.643435e-02 1.067544e-01 1.995907e-01 -2.083659e-01 -1.477086e-01 -3.206334e-01 -3.923233e-01 -5.601846e-01 -1.458652e+00 3.783260e-01 5.489895e-02 -6.908227e-01 -4.282556e-01 5.313114e-01 9.744455e-01 5.152843e-01
<VARIANCE> 39
 5.975775e+00 1.707172e+01 1.915101e+01 2.432335e+01 3.587486e+01 5.123319e+01 6.770210e+01 6.226530e+01 6.923976e+01 3.515605e+01 3.649632e+01 2.705812e+01 1.265420e+01 8.821898e-01 1.117090e+00 1.098913e+00 1.262560e+00 2.128414e+00 5.621128e+00 2.711716e+00 2.804281e+00 2.937707e+00 2.561633e+00 1.905553e+00 2.825245e+00 1.457014e+00 1.838497e-01 2.571574e-01 2.590382e-01 3.015429e-01 4.377787e-01 8.989081e-01 6.001654e-01 6.352558e-01 8.593543e-01 6.725255e-01 4.913873e-01 4.844173e-01 2.552598e-01
<GCONST> 1.135938e+02
<STATE> 4
<MEAN> 39
 2.787645e+00 3.877079e+00 5.339700e+00 3.510469e+00 4.198961e+00 -9.236559e+00 2.910509e-01 6.179135e+00 -1.032643e+00 -1.148635e+01 5.708393e-01 -1.336942e+00 6.159398e+01 -3.262174e-01 -4.944971e-01 -5.767027e-01 -8.952968e-01 -1.738547e+00 -4.425912e+00 6.368504e-01 4.721549e-01 -1.758607e+00 -1.051459e+00 1.559588e+00 2.208487e+00 1.655320e+00 -1.879878e-01 -2.638377e-01 -1.590668e-02 -1.475468e-01 -7.975566e-02 -2.902837e-01 6.711340e-02 2.716282e-01 -6.364633e-02 -5.033809e-02 2.149500e-01 -5.603532e-03 2.210408e-01
<VARIANCE> 39
 7.933104e+00 1.601789e+01 2.309922e+01 2.936759e+01 4.763480e+01 9.864825e+01 4.974837e+01 4.700222e+01 5.875368e+01 3.329062e+01 3.557021e+01 3.550809e+01 1.800008e+01 9.969790e-01 1.833344e+00 2.224108e+00 2.297769e+00 5.167470e+00 8.194903e+00 4.477632e+00 4.144219e+00 5.254676e+00 3.988429e+00 3.607310e+00 3.153375e+00 1.946680e+00 1.562922e-01 1.920606e-01 3.347545e-01 3.412363e-01 5.159613e-01 1.324625e+00 6.946514e-01 5.544749e-01 6.169033e-01 5.476906e-01 5.572430e-01 6.089115e-01 1.865475e-01
<GCONST> 1.210502e+02
<TRANSP> 5
 0.000000e+00 1.000000e+00 0.000000e+00 0.000000e+00 0.000000e+00
 0.000000e+00 4.235703e-01 5.764297e-01 0.000000e+00 0.000000e+00
 0.000000e+00 0.000000e+00 6.416413e-01 3.583587e-01 0.000000e+00
 0.000000e+00 0.000000e+00 0.000000e+00 4.581727e-01 5.418273e-01
 0.000000e+00 0.000000e+00 0.000000e+00 0.000000e+00 0.000000e+00
<ENDHMM>
~h "N"
<BEGINHMM>
<NUMSTATES> 5
<STATE> 2
<MEAN> 39
 2.249235e+00 3.477938e+00 5.204912e+00 3.482815e+00 1.099537e+01 -2.081811e+00 -2.871670e+00 3.143959e+00 -3.425663e+00 -1.235556e+01 -4.125593e+00 -3.789705e+00 5.958857e+01 1.913660e-01 8.534009e-01 6.441261e-01 6.077683e-01 9.093568e-01 2.223469e+00 -1.137869e+00 -4.804438e-01 1.252842e+00 1.652046e-01 -1.809835e+00 -1.190513e+00 -1.282567e+00 -3.642746e-01 -1.750293e-01 -9.632216e-02 -1.809048e-01 -2.991757e-01 -8.736272e-01 4.932086e-01 -1.494831e-01 -4.172380e-01 1.364311e-01 5.486088e-01 4.303820e-01 4.592940e-01
<VARIANCE> 39
 1.011764e+01 1.677501e+01 2.085151e+01 3.813131e+01 3.238184e+01 4.309237e+01 6.187442e+01 5.575033e+01 6.659658e+01 5.101503e+01 3.186611e+01 2.371428e+01 1.974478e+01 1.148996e+00 1.229804e+00 1.561209e+00 2.248050e+00 2.979881e+00 4.006231e+00 3.869145e+00 2.934150e+00 4.254429e+00 2.911952e+00 3.389404e+00 2.678821e+00 1.402150e+00 1.532132e-01 2.360205e-01 3.147409e-01 3.184361e-01 3.898519e-01 6.166785e-01 6.604161e-01 4.523011e-01 6.030301e-01 5.090098e-01 5.082703e-01 4.222413e-01 2.451305e-01
<GCONST> 1.158096e+02
<STATE> 3
<MEAN> 39
 1.744726e+00 5.309015e+00 6.546500e+00 3.732080e+00 1.347168e+01 1.109414e+00 -6.028309e+00 5.772796e-01 1.467261e-01 -1.172629e+01 -6.665193e+00 -4.564878e+00 5.873481e+01 -5.755480e-01 -2.812948e-02 -1.201356e-01 1.310673e-01 -7.046242e-02 -6.644676e-01 8.384424e-01 -4.665748e-01 -6.830273e-01 2.138543e-01 2.667341e-01 3.788470e-01 4.383385e-01 -4.193119e-01 -5.298393e-01 -1.862260e-01 -2.174415e-01 -4.638699e-01 -1.280698e+00 7.201971e-01 2.197298e-01 -8.239507e-01 6.581409e-02 1.073632e+00 6.625948e-01 6.135135e-01
<VARIANCE> 39
 9.690907e+00 1.939143e+01 1.962827e+01 3.071317e+01 2.939438e+01 4.470929e+01 6.251916e+01 5.340861e+01 7.393446e+01 5.193479e+01 2.779699e+01 2.031274e+01 1.806788e+01 1.586023e+00 1.566634e+00 1.734448e+00 2.139604e+00 2.198232e+00 3.901222e+00 3.956215e+00 3.044611e+00 3.867604e+00 3.876101e+00 3.388176e+00 2.668653e+00 2.315792e+00 2.400366e-01 3.154524e-01 3.948850e-01 4.732240e-01 4.616426e-01 1.065910e+00 7.721698e-01 6.130819e-01 8.637297e-01 6.656104e-01 7.830775e-01 5.758153e-01 3.565109e-01
<GCONST> 1.206045e+02
<STATE> 4
<MEAN> 39
 -2.521947e+00 5.304190e+00 5.630845e+00 3.456995e+00 1.083648e+01 -1.897754e+00 6.135916e-01 -5.511155e-01 -4.017835e+00 -9.462752e+00 -4.231998e+00 -2.036500e+00 5.832943e+01 -1.195323e+00 -8.762684e-01 -2.958438e-01 -2.857735e-01 -6.815122e-01 -2.023898e+00 1.339494e+00 1.986894e-01 -1.339249e+00 6.452577e-01 1.844140e+00 1.304859e+00 6.107777e-01 -4.970525e-03 -3.652128e-01 -5.363318e-02 -1.477178e-01 -2.058374e-01 -3.993142e-01 -1.371765e-01 2.574500e-01 1.419255e-02 -1.821366e-02 4.274828e-01 1.345918e-01 1.552827e-01
<VARIANCE> 39
 2.431196e+01 2.632723e+01 3.519408e+01 3.767849e+01 3.654208e+01 5.016889e+01 5.596048e+01 5.118105e+01 6.540858e+01 6.832165e+01 3.923733e+01 3.612061e+01 5.696363e+01 2.209826e+00 2.843330e+00 3.067537e+00 3.208388e+00 3.748841e+00 8.681203e+00 5.321927e+00 4.263351e+00 6.570161e+00 5.873952e+00 5.831112e+00 4.017576e+00 5.204136e+00 3.197081e-01 4.507336e-01 5.867718e-01 4.347783e-01 5.132587e-01 8.640738e-01 8.674826e-01 6.356387e-01 7.789755e-01 7.689812e-01 6.892083e-01 5.983117e-01 4.606325e-01
<GCONST> 1.328068e+02
<TRANSP> 5
 0.000000e+00 1.000000e+00 0.000000e+00 0.000000e+00 0.000000e+00
 0.000000e+00 5.576178e-01 4.423822e-01 0.000000e+00 0.000000e+00
 0.000000e+00 0.000000e+00 4.844653e-01 5.155346e-01 0.000000e+00
 0.000000e+00 0.000000e+00 0.000000e+00 4.098684e-01 5.901316e-01
 0.000000e+00 0.000000e+00 0.000000e+00 0.000000e+00 0.000000e+00
<ENDHMM>
~h "O"
<BEGINHMM>
<NUMSTATES> 5
<STATE> 2
<MEAN> 39
 1.984666e-01 2.485307e+00 7.922441e+00 -2.551430e+00 2.577519e+00 -1.576441e+01 -1.095247e+00 7.160892e+00 -3.440062e+00 -1.999597e+01 -1.324561e+00 2.683153e+00 6.578646e+01 1.601525e+00 -3.675933e-02 4.202299e-01 -1.111915e-01 -8.419449e-01 -3.440434e+00 -1.371134e+00 1.959146e+00 -3.080702e-01 -2.359932e+00 -1.287512e-01 -3.337606e-01 1.228671e+00 -5.671027e-01 -8.480546e-02 -3.360832e-01 1.952180e-01 9.317641e-02 1.017840e+00 4.840689e-01 -3.438072e-01 2.134749e-01 9.494920e-01 2.421531e-02 -1.699089e-01 -6.081522e-01
<VARIANCE> 39
 1.522965e+01 2.563819e+01 3.487135e+01 3.518062e+01 5.647206e+01 9.870161e+01 7.009437e+01 5.188685e+01 7.851331e+01 6.891433e+01 4.012298e+01 3.025221e+01 3.116442e+01 3.169416e+00 3.140157e+00 3.035179e+00 4.265779e+00 3.895953e+00 7.129364e+00 7.639146e+00 4.422407e+00 4.985768e+00 6.197020e+00 3.759608e+00 2.763137e+00 2.682630e+00 5.494841e-01 5.600041e-01 6.653316e-01 6.542298e-01 6.681494e-01 1.519266e+00 1.036640e+00 8.008269e-01 1.031857e+00 1.142541e+00 6.251934e-01 5.933343e-01 5.567576e-01
<GCONST> 1.355851e+02
<STATE> 3
<MEAN> 39
 1.055838e+00 1.712818e+00 8.225216e+00 -2.124891e+00 -6.510563e-01 -2.074720e+01 -2.417295e-01 1.008930e+01 -4.210058e+00 -2.081596e+01 -1.442191e+00 1.031917e+00 6.712030e+01 -8.931991e-03 4.195452e-01 -2.022722e-01 1.101869e-01 -3.438438e-02 7.797849e-01 4.163010e-01 -1.233600e-01 1.263240e-01 5.981181e-01 -3.843380e-01 -4.208370e-01 -6.272773e-01 -2.675330e-01 2.497051e-01 -1.741031e-01 2.316695e-01 4.019583e-01 1.285810e+00 2.309738e-01 -5.443216e-01 2.138766e-01 7.911245e-01 -1.545995e-01 5.151071e-02 -6.891162e-01
<VARIANCE> 39
 8.164919e+00 1.684067e+01 3.603940e+01 3.511321e+01 5.840218e+01 8.377979e+01 7.542700e+01 4.473214e+01 7.587064e+01 6.357644e+01 4.100633e+01 3.107629e+01 1.470333e+01 6.689475e-01 1.662198e+00 2.129457e+00 1.998805e+00 3.496092e+00 5.591420e+00 3.794588e+00 3.166886e+00 3.669956e+00 3.609685e+00 2.895405e+00 2.087698e+00 1.835847e+00 2.810236e-01 2.999410e-01 3.405097e-01 4.466243e-01 4.850361e-01 9.475620e-01 9.477526e-01 6.362274e-01 7.820691e-01 9.260458e-01 5.425683e-01 4.638003e-01 2.668578e-01
<GCONST> 1.220237e+02
<STATE> 4
<MEAN> 39
 -1.044887e+00 6.330297e+00 5.266120e+00 -1.299449e+00 1.271510e-01 -1.279845e+01 2.070487e+00 6.666433e+00 -3.181708e+00 -1.361472e+01 -3.266383e+00 4.770884e-01 5.874028e+01 -6.514978e-01 7.320397e-01 -6.098992e-01 7.437892e-01 6.115589e-01 2.963562e+00 3.374740e-01 -8.208689e-01 6.379399e-01 2.102054e+00 -2.478933e-01 1.510370e-02 -2.326204e+00 -2.437057e-01 -2.828661e-01 8.552490e-03 1.078328e-01 9.855361e-02 1.406941e-01 -3.434629e-02 -8.939957e-02 -2.172107e-02 1.197159e-01 1.870400e-01 1.196113e-01 1.710147e-03
<VARIANCE> 39
 1.947581e+01 2.954931e+01 3.439512e+01 3.475124e+01 7.015166e+01 8.437772e+01 6.020367e+01 4.541059e+01 5.791543e+01 7.146930e+01 3.847438e+01 2.487083e+01 6.895396e+01 2.150088e+00 2.635462e+00 2.539129e+00 2.871171e+00 4.189824e+00 5.100457e+00 5.518817e+00 4.069069e+00 4.288009e+00 5.058848e+00 3.201183e+00 2.614959e+00 2.868611e+00 3.505140e-01 4.033413e-01 4.498684e-01 4.769566e-01 5.523311e-01 8.545808e-01 8.296474e-01 6.959798e-01 6.889970e-01 7.483346e-01 5.350624e-01 4.071398e-01 5.166419e-01
<GCONST> 1.296514e+02
<TRANSP> 5
 0.000000e+00 1.000000e+00 0.000000e+00 0.000000e+00 0.000000e+00
 0.000000e+00 4.061672e-01 5.938328e-01 0.000000e+00 0.000000e+00
 0.000000e+00 0.000000e+00 6.417229e-01 3.582770e-01 0.000000e+00
 0.000000e+00 0.000000e+00 0.000000e+00 5.178477e-01 4.821523e-01
 0.000000e+00 0.000000e+00 0.000000e+00 0.000000e+00 0.000000e+00
<ENDHMM>
~h "P"
<BEGINHMM>
<NUMSTATES> 5
<STATE> 2
<MEAN> 39
 -4.077760e+00 7.123934e+00 9.551774e-01 5.056250e+00 5.214932e-01 -3.506274e+00 5.278006e-01 4.270617e+00 -2.625057e+00 -4.703175e+00 1.184353e+00 2.841571e+00 4.693495e+01 -1.619762e+00 2.560000e-01 -4.186013e-01 -2.345056e-01 -3.516167e-01 8.668643e-01 1.563661e-01 -7.764475e-01 6.568363e-01 1.275855e+00 -1.495807e-01 7.346201e-02 -1.612117e+00 -1.247658e-01 -5.262008e-01 2.389362e-01 -4.730452e-01 4.757222e-01 -2.720399e-01 2.705604e-01 -3.086593e-01 -3.149129e-02 -4.938420e-01 -5.661625e-02 -1.404415e-02 1.284332e+00
<VARIANCE> 39
 2.806046e+01 2.131226e+01 2.691579e+01 3.815226e+01 5.790337e+01 5.762857e+01 3.233695e+01 5.159020e+01 4.432351e+01 3.650784e+01 2.682066e+01 2.356167e+01 2.121390e+01 1.459921e+00 1.558526e+00 1.787360e+00 2.446386e+00 2.669167e+00 2.597521e+00 2.889561e+00 3.104056e+00 2.063483e+00 2.780380e+00 1.749378e+00 1.611458e+00 3.632945e+00 3.729474e-01 3.353719e-01 3.384333e-01 4.796501e-01 4.710546e-01 6.882766e-01 6.590005e-01 6.643669e-01 4.570544e-01 4.821647e-01 3.980460e-01 3.563690e-01 4.361666e-01
<GCONST> 1.177866e+02
<STATE> 3
<MEAN> 39
 -1.107838e+01 4.956837e+00 2.143389e+00 2.537162e+00 3.141154e+00 3.126069e-02 3.190050e+00 2.643457e-01 4.140822e-01 -1.025639e+00 6.481754e-01 2.733310e+00 4.675831e+01 -3.265767e-01 -1.461391e+00 2.097151e-01 -1.166992e+00 1.135764e+00 9.861846e-02 1.217222e+00 -8.859392e-01 3.350606e-01 -8.360587e-01 -3.230218e-01 7.597424e-02 3.453046e+00 1.263467e+00 -1.044264e-01 8.714543e-02 5.135761e-03 -1.621781e-01 -1.284513e+00 -3.245241e-01 6.289453e-01 -3.063822e-01 -1.138992e+00 1.086639e-01 -5.380828e-02 1.377272e+00
<VARIANCE> 39
 2.072366e+01 2.736549e+01 1.946942e+01 3.418599e+01 3.256527e+01 3.678666e+01 2.527777e+01 3.143324e+01 2.994039e+01 2.543351e+01 2.006350e+01 2.054825e+01 3.972870e+01 3.926198e+00 3.692341e+00 2.950348e+00 3.753586e+00 5.575007e+00 7.242661e+00 4.303389e+00 4.655294e+00 4.309973e+00 3.801471e+00 2.691562e+00 2.568368e+00 4.890193e+00 4.285623e-01 6.376193e-01 5.974547e-01 7.217690e-01 1.063846e+00 1.543723e+00 1.016700e+00 9.485986e-01 7.280857e-01 6.533763e-01 5.353123e-01 4.260087e-01 6.723435e-01
<GCONST> 1.284181e+02
<STATE> 4
<MEAN> 39
 -8.753675e+00 1.723624e+00 2.178624e+00 -2.438672e-01 6.247515e+00 1.493569e-01 6.369992e+00 -8.111874e-01 4.756128e-01 -5.159006e+00 -5.541447e-01 2.792944e+00 5.857855e+01 3.237306e+00 -3.761916e-01 5.811306e-01 -8.721002e-01 -4.877161e-01 -4.130112e+00 -1.082752e+00 1.397762e+00 -2.364682e-01 -3.684440e+00 -2.848803e-02 -6.746415e-02 4.730545e+00 8.209928e-01 2.956954e-01 1.963644e-02 2.522053e-01 -6.446180e-01 -1.371606e+00 -1.051926e+00 8.824403e-01 -2.548430e-01 -8.328741e-01 2.602718e-01 -5.698359e-04 -2.875664e-01
<VARIANCE> 39
 2.522315e+01 2.657376e+01 1.791605e+01 1.757772e+01 3.532464e+01 4.453334e+01 2.635584e+01 2.512497e+01 2.653417e+01 2.179624e+01 1.763270e+01 1.430771e+01 2.694533e+01 3.495011e+00 3.714332e+00 4.553104e+00 4.898598e+00 9.714560e+00 1.530537e+01 8.334680e+00 7.102715e+00 5.957379e+00 5.580286e+00 4.137334e+00 2.876330e+00 4.931592e+00 6.528782e-01 8.130080e-01 7.008634e-01 5.910103e-01 8.561283e-01 1.321259e+00 1.314860e+00 8.258483e-01 7.266803e-01 7.970851e-01 6.141042e-01 4.702132e-01 6.941604e-01
<GCONST> 1.318429e+02
<TRANSP> 5
 0.000000e+00 1.000000e+00 0.000000e+00 0.000000e+00 0.000000e+00
 0.000000e+00 7.026176e-01 2.973824e-01 0.000000e+00 0.000000e+00
 0.000000e+00 0.000000e+00 4.938122e-01 5.061878e-01 0.000000e+00
 0.000000e+00 0.000000e+00 0.000000e+00 3.790354e-01 6.209646e-01
 0.000000e+00 0.000000e+00 0.000000e+00 0.000000e+00 0.000000e+00
<ENDHMM>
~h "R"
<BEGINHMM>
<NUMSTATES> 5
<STATE> 2
<MEAN> 39
 -6.607475e-01 1.442517e+00 1.381952e+00 -5.074608e-01 9.435381e+00 -3.956578e+00 6.270754e-01 2.194130e-02 -6.346347e+00 -1.481401e+01 -1.404222e+00 4.993640e+00 6.278910e+01 3.792151e-01 6.077459e-01 -4.793096e-01 -1.176655e-01 1.321792e+00 1.055660e+00 -3.860328e-01 -3.324282e-01 -6.274474e-01 -3.514849e-01 -2.519433e-01 3.018724e-01 -5.493231e-01 -1.601384e-01 -2.154674e-01 2.073948e-01 -1.642637e-02 -1.581082e-01 -9.411652e-01 -2.669293e-01 2.988621e-01 -2.148331e-01 -1.291865e-01 5.393154e-01 -6.005455e-03 3.150339e-01
<VARIANCE> 39
 2.987156e+01 1.948406e+01 2.744027e+01 4.802711e+01 4.346212e+01 5.907079e+01 4.961916e+01 5.165503e+01 5.508336e+01 5.525787e+01 4.984263e+01 2.676269e+01 3.654086e+01 3.956087e+00 2.210764e+00 2.546423e+00 3.139754e+00 4.454965e+00 9.283284e+00 7.869735e+00 4.343146e+00 4.752589e+00 7.946944e+00 3.472805e+00 2.890290e+00 3.981280e+00 4.836482e-01 3.940698e-01 5.193000e-01 6.304112e-01 7.039033e-01 1.099506e+00 1.146868e+00 8.124069e-01 8.373476e-01 9.072165e-01 7.422878e-01 4.797871e-01 7.658046e-01
<GCONST> 1.338875e+02
<STATE> 3
<MEAN> 39
 1.063087e-01 1.660928e+00 4.141367e-01 -1.568025e+00 1.195572e+01 -4.431236e+00 -1.835190e+00 2.479078e-01 -7.994060e+00 -1.716006e+01 -4.502123e-01 5.878803e+00 6.363944e+01 3.651726e-02 2.067606e-01 -7.644835e-02 9.131302e-04 7.430477e-01 -6.933806e-01 -6.784721e-01 3.622623e-01 -7.515460e-01 -5.117285e-01 5.883520e-01 3.471170e-01 -1.463965e-01 -3.488656e-01 -2.783289e-01 3.324172e-01 2.399744e-01 -5.606757e-01 -7.571572e-01 1.657217e-01 2.085948e-01 6.633470e-02 3.731934e-01 4.036811e-01 -1.963414e-01 9.133755e-02
<VARIANCE> 39
 2.164065e+01 2.008734e+01 2.730088e+01 5.393433e+01 4.471524e+01 5.606707e+01 6.123833e+01 5.100925e+01 6.512908e+01 7.801227e+01 4.833720e+01 2.884233e+01 3.263334e+01 3.212083e+00 2.526027e+00 2.758345e+00 3.539876e+00 4.820746e+00 8.499708e+00 7.536924e+00 4.926701e+00 6.157979e+00 8.123545e+00 4.314120e+00 3.182330e+00 4.300066e+00 5.327228e-01 4.913520e-01 5.117812e-01 6.379170e-01 7.481446e-01 1.450240e+00 1.222659e+00 7.618694e-01 9.079528e-01 1.133259e+00 6.783292e-01 4.920661e-01 8.790622e-01
<GCONST> 1.362225e+02
<STATE> 4
<MEAN> 39
 -2.335507e+00 2.222533e+00 8.717927e-01 -7.532321e-01 1.001772e+01 -6.898230e+00 -1.727994e+00 4.162355e-01 -9.217629e+00 -1.462757e+01 1.333001e+00 6.617960e+00 6.011356e+01 -6.249391e-01 -2.038794e-02 3.587671e-01 6.146225e-01 -5.350689e-01 -5.965367e-01 2.567939e-01 3.266496e-01 1.846337e-01 8.563386e-01 5.292556e-01 -2.526246e-01 -6.580744e-01 -1.398323e-01 -2.259311e-01 2.032621e-01 1.531813e-01 -3.853758e-01 -1.418821e-01 2.528571e-01 5.647806e-02 2.673475e-01 2.844836e-01 6.203186e-02 -2.693453e-01 1.319214e-01
<VARIANCE> 39
 3.517439e+01 2.861032e+01 3.407203e+01 5.030405e+01 7.657309e+01 7.031077e+01 7.156084e+01 6.074194e+01 7.705286e+01 9.729193e+01 5.124084e+01 3.782866e+01 7.309827e+01 3.570477e+00 3.532836e+00 3.500018e+00 3.602593e+00 6.580850e+00 8.852370e+00 6.122222e+00 5.110871e+00 7.085416e+00 6.709214e+00 4.615540e+00 3.122299e+00 7.245584e+00 6.127369e-01 5.327734e-01 5.808584e-01 6.342278e-01 1.001329e+00 1.303663e+00 1.368648e+00 7.725537e-01 9.075751e-01 1.313146e+00 6.301752e-01 5.674598e-01 8.897780e-01
<GCONST> 1.421116e+02
<TRANSP> 5
 0.000000e+00 1.000000e+00 0.000000e+00 0.000000e+00 0.000000e+00
 0.000000e+00 2.720580e-01 7.279419e-01 0.000000e+00 0.000000e+00
 0.000000e+00 0.000000e+00 1.429553e-01 8.570446e-01 0.000000e+00
 0.000000e+00 0.000000e+00 0.000000e+00 3.665200e-01 6.334800e-01
 0.000000e+00 0.000000e+00 0.000000e+00 0.000000e+00 0.000000e+00
<ENDHMM>
~h "S"
<BEGINHMM>
<NUMSTATES> 5
<STATE> 2
<MEAN> 39
 -1.472544e+01 1.137783e+00 1.373133e+01 -3.988896e+00 5.100841e+00 2.219132e-01 7.961298e+00 -4.706041e+00 -5.253939e+00 -4.798513e+00 1.455653e+00 1.544837e+00 6.268575e+01 -5.475540e+00 -5.942528e-01 2.581678e+00 -2.374021e+00 -3.644578e-01 2.311970e+00 1.236342e+00 -1.346824e+00 1.308147e+00 2.163415e+00 4.180601e-01 1.730335e-01 1.270235e+00 -4.563383e-01 -3.028972e-01 -3.626681e-01 -2.310511e-01 -9.583417e-02 -5.898802e-01 -5.282237e-01 2.866623e-01 2.989017e-02 -1.382606e-01 2.806637e-01 -2.270562e-02 1.252489e-01
<VARIANCE> 39
 6.502846e+01 2.676296e+01 5.049675e+01 3.924226e+01 5.198550e+01 6.395232e+01 5.589977e+01 7.300636e+01 5.274576e+01 5.552552e+01 3.144527e+01 2.763765e+01 1.052151e+02 6.283582e+00 4.009773e+00 3.127359e+00 3.628822e+00 4.667990e+00 6.234810e+00 5.921931e+00 5.876769e+00 4.992818e+00 6.929275e+00 3.555834e+00 2.528797e+00 3.854010e+00 1.126985e+00 5.597430e-01 7.073399e-01 5.737478e-01 5.328808e-01 8.769941e-01 7.331091e-01 7.613441e-01 7.855150e-01 8.246039e-01 5.347116e-01 4.427226e-01 5.422507e-01
<GCONST> 1.370317e+02
<STATE> 3
<MEAN> 39
 -3.247149e+01 -1.685593e+00 1.692546e+01 -1.281804e+01 4.123452e+00 1.962705e+00 6.871680e+00 -6.259200e+00 -2.248816e+00 -1.213715e+00 3.773795e+00 1.130949e+00 6.718472e+01 -1.165906e+00 -3.082234e-01 -5.093473e-01 -4.780727e-01 6.958704e-02 -1.843304e-01 -1.458989e-01 5.028649e-02 4.179634e-01 4.117610e-01 9.192210e-02 2.319168e-01 -3.797110e-01 1.408983e+00 6.016630e-02 -4.639394e-01 6.764839e-01 2.157859e-01 -2.183360e-01 -6.199789e-02 1.286328e-01 -1.495466e-01 -3.092607e-01 -1.215596e-01 1.038067e-01 -4.165211e-01
<VARIANCE> 39
 1.573086e+01 2.935394e+01 2.773776e+01 2.536301e+01 3.068090e+01 2.831400e+01 4.032523e+01 2.818931e+01 3.065896e+01 2.430387e+01 2.353661e+01 1.986326e+01 1.478834e+01 6.932146e+00 1.935400e+00 2.493542e+00 3.044964e+00 1.787171e+00 1.843998e+00 2.043275e+00 2.642873e+00 2.211174e+00 2.090744e+00 1.834477e+00 1.652514e+00 2.622864e+00 5.372000e-01 3.635113e-01 5.117173e-01 3.254868e-01 3.640825e-01 5.075691e-01 4.984572e-01 5.288947e-01 4.875268e-01 5.446673e-01 3.838962e-01 3.247655e-01 3.044536e-01
<GCONST> 1.136884e+02
<STATE> 4
<MEAN> 39
 -2.419735e+01 -3.920502e+00 1.167698e+01 -7.057257e+00 6.456589e+00 1.499474e+00 7.171166e+00 -5.048480e+00 -1.098684e+00 -1.526800e+00 3.059465e+00 4.135393e+00 6.140654e+01 3.962787e+00 1.633873e-01 -1.209440e+00 1.880443e+00 6.829504e-01 -2.701357e-01 -8.438731e-01 4.768473e-01 -4.573318e-01 -1.018378e+00 -3.094651e-01 5.677219e-02 -1.226591e+00 4.184827e-01 1.261896e-01 -1.272802e-01 6.193572e-02 -3.602136e-02 -3.877022e-01 -3.250033e-01 1.326422e-01 -3.717258e-01 -4.232660e-01 6.059513e-02 -2.009734e-01 5.382040e-01
<VARIANCE> 39
 4.508179e+01 5.921297e+01 4.492189e+01 4.414100e+01 3.555923e+01 3.817790e+01 4.828304e+01 4.944992e+01 3.613282e+01 3.847762e+01 2.795170e+01 2.633363e+01 6.377708e+01 7.963094e+00 2.768535e+00 4.242422e+00 3.624779e+00 3.663790e+00 5.498038e+00 4.046344e+00 4.388052e+00 5.107676e+00 5.034049e+00 2.724559e+00 2.585681e+00 5.194580e+00 1.200057e+00 6.403935e-01 7.686664e-01 6.999234e-01 5.612310e-01 1.073194e+00 8.583426e-01 8.853992e-01 7.601361e-01 7.031578e-01 5.426894e-01 4.441611e-01 9.551310e-01
<GCONST> 1.349374e+02
<TRANSP> 5
 0.000000e+00 1.000000e+00 0.000000e+00 0.000000e+00 0.000000e+00
 0.000000e+00 6.490315e-01 3.509686e-01 0.000000e+00 0.000000e+00
 0.000000e+00 0.000000e+00 8.150480e-01 1.849520e-01 0.000000e+00
 0.000000e+00 0.000000e+00 0.000000e+00 7.063895e-01 2.936105e-01
 0.000000e+00 0.000000e+00 0.000000e+00 0.000000e+00 0.000000e+00
<ENDHMM>
~h "T"
<BEGINHMM>
<NUMSTATES> 5
<STATE> 2
<MEAN> 39
 -7.285234e+00 6.205140e+00 3.966769e+00 2.839322e+00 5.040369e-01 -2.667685e+00 3.281730e+00 2.289214e+00 -2.692576e+00 -2.994063e+00 5.160092e-01 1.413778e+00 4.827931e+01 -1.155991e+00 -2.827655e-01 -1.017468e+00 5.956633e-02 -3.198622e-01 7.147052e-01 -1.692399e-01 -1.593364e-01 7.647370e-01 1.248228e+00 8.748423e-02 3.325221e-01 -1.342649e+00 -2.193822e-01 -7.485169e-01 2.624320e-01 -4.289275e-01 4.350134e-01 -1.918206e-01 1.834497e-01 -6.218870e-01 -1.864942e-01 -5.685279e-01 7.414339e-02 1.273898e-01 1.689739e+00
<VARIANCE> 39
 3.463813e+01 2.015099e+01 3.363574e+01 4.253422e+01 7.695675e+01 6.412161e+01 4.446185e+01 6.131646e+01 3.706696e+01 4.327342e+01 2.834928e+01 2.681676e+01 3.875572e+01 3.005987e+00 3.092221e+00 2.810416e+00 3.080558e+00 3.633568e+00 2.956063e+00 3.724283e+00 4.771420e+00 2.406192e+00 3.106775e+00 2.052295e+00 1.887918e+00 7.137974e+00 5.794686e-01 5.575435e-01 7.027643e-01 6.168552e-01 7.779346e-01 7.122597e-01 8.987268e-01 1.008821e+00 5.912083e-01 6.445206e-01 4.782382e-01 4.555093e-01 1.337729e+00
<GCONST> 1.296962e+02
<STATE> 3
<MEAN> 39
 -1.291135e+01 2.641959e+00 3.093810e+00 1.827505e+00 2.906539e+00 2.418964e-01 4.448497e+00 -1.115193e+00 4.029376e-01 2.549722e-01 9.920246e-01 2.499183e+00 4.959044e+01 -1.341916e+00 -2.492772e+00 5.650936e-01 -1.178998e+00 8.105912e-01 1.357923e-01 8.359115e-01 -2.470145e+00 -4.025664e-01 -6.970056e-01 6.700065e-02 7.657449e-01 4.899442e+00 1.037177e+00 -7.143693e-02 5.353436e-01 -5.433050e-02 4.050509e-01 -8.556666e-01 -3.237562e-01 6.429812e-03 -9.972950e-01 -1.320069e+00 7.364540e-02 -1.142277e-01 1.380995e+00
<VARIANCE> 39
 2.909108e+01 3.898846e+01 2.224391e+01 3.715804e+01 4.779212e+01 4.452329e+01 3.678656e+01 5.166154e+01 3.027371e+01 3.191635e+01 2.373759e+01 2.396439e+01 7.945860e+01 4.173082e+00 2.972499e+00 3.600914e+00 4.206437e+00 6.586099e+00 5.933171e+00 5.289618e+00 6.052873e+00 4.778072e+00 4.905915e+00 3.218246e+00 3.282785e+00 6.701264e+00 4.967819e-01 6.033748e-01 6.011212e-01 8.048581e-01 1.022831e+00 9.503649e-01 9.633223e-01 1.093479e+00 7.163637e-01 8.611901e-01 6.011702e-01 5.554040e-01 1.228289e+00
<GCONST> 1.347336e+02
<STATE> 4
<MEAN> 39
 -1.363941e+01 -2.427514e+00 6.141689e+00 -8.789843e-01 5.637012e+00 -2.178228e-01 6.043605e+00 -7.734793e+00 -3.676984e+00 -4.494069e+00 9.423088e-01 4.013040e+00 6.538706e+01 2.335649e+00 -8.816799e-01 1.070885e+00 -4.710360e-01 1.406087e+00 -2.419615e+00 -9.412323e-01 -2.482321e-01 -2.609723e+00 -3.750104e+00 1.866814e-01 -6.211881e-02 4.288918e+00 1.199295e+00 6.456863e-01 -1.868222e-01 3.396394e-01 -8.459000e-02 -1.031177e+00 -6.754107e-01 1.292518e+00 -3.514512e-01 -6.549570e-01 1.486064e-01 -3.593995e-01 -1.116675e+00
<VARIANCE> 39
 2.766351e+01 2.147635e+01 2.016379e+01 2.386772e+01 3.483337e+01 3.095061e+01 4.483506e+01 3.893221e+01 3.750393e+01 3.633764e+01 2.349172e+01 2.075823e+01 3.233010e+01 4.950182e+00 3.263621e+00 3.289954e+00 4.590842e+00 8.275761e+00 8.500944e+00 7.298520e+00 7.793187e+00 5.364670e+00 8.418485e+00 4.356654e+00 3.868051e+00 9.601583e+00 6.267028e-01 5.177354e-01 5.795499e-01 7.472720e-01 8.925970e-01 1.048836e+00 1.132334e+00 1.012239e+00 1.183629e+00 1.105081e+00 7.277872e-01 5.254238e-01 7.900789e-01
<GCONST> 1.354393e+02
<TRANSP> 5
 0.000000e+00 1.000000e+00 0.000000e+00 0.000000e+00 0.000000e+00
 0.000000e+00 6.286803e-01 3.713197e-01 0.000000e+00 0.000000e+00
 0.000000e+00 0.000000e+00 3.746608e-01 6.253392e-01 0.000000e+00
 0.000000e+00 0.000000e+00 0.000000e+00 4.719003e-01 5.280998e-01
 0.000000e+00 0.000000e+00 0.000000e+00 0.000000e+00 0.000000e+00
<ENDHMM>
~h "U"
<BEGINHMM>
<NUMSTATES> 5
<STATE> 2
<MEAN> 39
 -2.191770e+00 3.041514e+00 1.017870e+01 -1.419950e+00 7.914312e+00 -5.426413e+00 8.911160e-02 2.336662e+00 -4.167597e+00 -1.737079e+01 -3.967520e+00 1.822223e+00 6.300945e+01 2.241377e+00 1.034777e+00 1.403529e+00 -3.312473e-01 -1.507679e-01 -2.788219e+00 -2.378855e+00 1.714929e+00 4.049990e-01 -2.947568e+00 -1.295489e+00 -1.104398e-01 1.033469e+00 -4.213943e-01 -2.087508e-01 -3.867611e-01 2.067401e-01 -1.929827e-01 1.742657e-01 -2.303971e-02 1.298356e-02 4.853085e-01 6.169140e-01 1.792767e-01 -1.972280e-02 -3.402455e-01
<VARIANCE> 39
 2.236739e+01 3.248954e+01 2.964981e+01 2.882070e+01 5.190858e+01 9.683068e+01 6.071425e+01 5.167146e+01 7.359274e+01 5.856460e+01 3.750396e+01 2.571335e+01 4.752540e+01 3.771228e+00 4.392032e+00 3.798904e+00 4.287185e+00 4.122802e+00 6.616108e+00 7.653785e+00 5.043349e+00 5.451335e+00 6.183500e+00 4.009144e+00 3.298742e+00 3.094398e+00 7.460743e-01 6.958221e-01 6.401942e-01 4.806287e-01 6.494358e-01 1.330920e+00 9.054215e-01 7.988126e-01 8.120336e-01 1.078562e+00 5.972556e-01 5.063604e-01 7.812198e-01
<GCONST> 1.365981e+02
<STATE> 3
<MEAN> 39
 3.132435e-01 2.672596e+00 1.218327e+01 -2.193317e+00 6.127779e+00 -1.135864e+01 -4.379186e+00 7.266689e+00 -2.431618e-01 -2.274168e+01 -6.296932e+00 2.117894e+00 6.584308e+01 3.424576e-01 2.445458e-01 -1.528656e-01 -4.886915e-03 -6.757592e-02 -2.726512e-01 -5.091022e-01 3.544791e-01 7.054044e-01 -1.369010e-01 -5.381650e-01 -3.335779e-01 -4.155814e-02 -5.085137e-01 4.650727e-02 -5.385542e-01 3.044940e-01 1.588421e-01 1.148472e+00 7.596194e-01 -6.770563e-01 -6.135065e-02 1.270276e+00 3.255039e-01 -1.441236e-01 -6.137583e-01
<VARIANCE> 39
 8.113203e+00 1.964762e+01 3.015481e+01 2.965511e+01 5.896996e+01 7.422006e+01 5.379787e+01 4.533051e+01 9.396879e+01 4.670677e+01 4.655149e+01 3.016622e+01 1.348275e+01 1.047830e+00 2.064098e+00 2.009618e+00 2.048385e+00 3.351044e+00 5.346765e+00 5.386491e+00 4.461091e+00 3.906859e+00 4.725641e+00 3.567842e+00 2.230901e+00 1.668122e+00 3.843516e-01 4.459043e-01 4.850556e-01 4.759519e-01 6.544191e-01 9.361453e-01 9.235553e-01 6.771348e-01 9.968675e-01 9.792160e-01 6.646094e-01 5.448453e-01 2.956599e-01
<GCONST> 1.252690e+02
<STATE> 4
<MEAN> 39
 -4.336139e-01 5.095630e+00 8.941568e+00 -1.386587e+00 7.227895e+00 -7.159638e+00 -1.400947e+00 3.591257e+00 -1.220132e+00 -1.675282e+01 -6.416635e+00 -1.252313e-01 6.267593e+01 -3.816811e-01 8.807635e-01 -1.117125e+00 1.046801e+00 2.806625e-01 2.402491e+00 1.183542e+00 -9.048541e-01 2.697185e-01 2.680184e+00 3.962818e-01 -3.369833e-01 -2.012434e+00 -3.639982e-01 -1.542852e-01 -8.667700e-02 2.982302e-01 -3.956078e-02 3.179960e-01 1.608835e-01 -1.917686e-02 6.297318e-03 3.011661e-01 2.437569e-01 1.535518e-01 -3.324746e-01
<VARIANCE> 39
 1.465145e+01 2.834676e+01 3.084548e+01 3.879789e+01 6.206208e+01 8.571347e+01 7.269697e+01 5.361660e+01 8.623879e+01 5.362597e+01 5.711564e+01 2.905494e+01 3.199112e+01 2.312850e+00 2.688733e+00 3.017255e+00 3.193486e+00 4.652305e+00 5.285198e+00 5.587664e+00 4.484426e+00 4.964407e+00 4.863543e+00 3.559192e+00 2.781899e+00 2.804797e+00 3.766811e-01 4.796714e-01 4.078646e-01 4.992893e-01 5.873702e-01 1.099183e+00 1.095549e+00 8.597771e-01 8.713415e-01 9.659716e-01 6.845720e-01 4.875476e-01 4.493119e-01
<GCONST> 1.321149e+02
<TRANSP> 5
 0.000000e+00 1.000000e+00 0.000000e+00 0.000000e+00 0.000000e+00
 0.000000e+00 3.026378e-01 6.973622e-01 0.000000e+00 0.000000e+00
 0.000000e+00 0.000000e+00 5.869337e-01 4.130662e-01 0.000000e+00
 0.000000e+00 0.000000e+00 0.000000e+00 4.947420e-01 5.052580e-01
 0.000000e+00 0.000000e+00 0.000000e+00 0.000000e+00 0.000000e+00
<ENDHMM>
~h "Y"
<BEGINHMM>
<NUMSTATES> 5
<STATE> 2
<MEAN> 39
 -1.038353e-01 -6.507142e+00 2.326568e-01 4.742292e+00 8.588173e+00 -1.931955e+01 5.987577e-01 -2.101081e+00 -1.527713e+01 -8.239617e+00 1.129676e+01 4.510699e+00 7.020944e+01 -3.092642e-01 -2.259018e-01 5.825385e-01 4.270011e-01 1.135860e+00 -1.179256e-01 -1.077508e+00 -1.273358e+00 -1.214852e+00 1.216414e+00 5.558964e-01 -3.579045e-01 -6.421781e-02 -4.988172e-02 2.408127e-01 2.031620e-01 -5.259126e-02 -5.019592e-02 7.809410e-02 4.024290e-02 1.700218e-01 2.969197e-01 -1.011984e-01 -3.727177e-01 -1.990014e-01 -1.781611e-01
<VARIANCE> 39
 1.113969e+01 1.734246e+01 5.018754e+01 4.427844e+01 6.019923e+01 4.215191e+01 9.052071e+01 5.925303e+01 6.174157e+01 7.892151e+01 4.493917e+01 3.643215e+01 1.535865e+01 2.513351e-01 9.380932e-01 1.620392e+00 1.696214e+00 2.308258e+00 1.722342e+00 2.670466e+00 2.757722e+00 2.858853e+00 2.146596e+00 2.586447e+00 2.023154e+00 3.158171e-01 4.067757e-02 1.551460e-01 2.089378e-01 2.028256e-01 2.832897e-01 3.776551e-01 4.129429e-01 3.920572e-01 5.246357e-01 3.936409e-01 3.961083e-01 2.928386e-01 6.077707e-02
<GCONST> 1.061424e+02
<STATE> 3
<MEAN> 39
 -2.157727e+00 -5.793825e+00 4.958784e+00 7.138881e+00 1.263098e+01 -2.058459e+01 -3.647387e+00 -5.593804e+00 -1.709412e+01 -4.614433e+00 9.184005e+00 4.191618e-01 6.856314e+01 -2.235458e-01 7.347111e-01 4.580346e-01 -6.539594e-02 3.182969e-01 6.184302e-01 -3.349403e-01 -4.728876e-01 2.221287e-01 2.666397e-01 -7.655956e-01 -4.663928e-01 -8.492886e-01 5.278876e-02 3.455762e-01 -1.637825e-01 -1.345167e-01 -3.092951e-01 5.369745e-01 3.427503e-01 2.496040e-01 4.242023e-01 -1.756590e-01 -2.405778e-01 1.489088e-01 -4.131994e-01
<VARIANCE> 39
 9.654550e+00 1.503427e+01 3.093924e+01 4.678498e+01 4.056246e+01 4.343208e+01 6.738652e+01 6.161137e+01 5.552850e+01 7.792320e+01 3.533564e+01 3.483822e+01 1.862329e+01 4.714372e-01 1.221808e+00 2.273459e+00 2.162097e+00 2.043595e+00 2.396762e+00 2.570300e+00 2.153833e+00 2.713680e+00 2.166676e+00 2.971699e+00 2.463421e+00 1.281992e+00 8.478381e-02 1.850969e-01 2.140072e-01 2.371293e-01 3.208502e-01 3.989888e-01 4.224986e-01 3.989300e-01 5.060626e-01 3.884599e-01 4.159409e-01 3.222026e-01 1.434299e-01
<GCONST> 1.099521e+02
<STATE> 4
<MEAN> 39
 -3.900510e+00 -7.446074e-01 4.829130e+00 6.084089e+00 1.076114e+01 -1.456759e+01 -4.425497e+00 -5.849298e+00 -1.259636e+01 -3.376469e+00 5.541448e+00 1.238182e+00 6.042320e+01 -4.485349e-01 1.080064e+00 -2.637182e-01 -1.614270e-01 -6.624109e-01 1.936860e+00 3.711377e-01 3.485290e-01 1.167654e+00 2.211460e-01 -5.018527e-01 2.686884e-01 -1.933305e+00 -5.599878e-02 -1.415395e-02 -1.075541e-01 -2.937024e-02 -2.021688e-01 2.413010e-01 2.816631e-01 2.443298e-01 2.635231e-01 -4.060503e-02 -8.253874e-03 8.437981e-02 -9.864374e-02
<VARIANCE> 39
 1.972426e+01 2.951765e+01 3.146878e+01 4.150683e+01 5.584282e+01 5.899805e+01 6.531369e+01 6.186651e+01 6.026526e+01 8.722269e+01 4.237358e+01 3.356224e+01 9.059613e+01 1.362696e+00 1.779845e+00 2.489506e+00 2.327204e+00 3.189479e+00 3.726062e+00 3.535086e+00 3.170590e+00 3.798773e+00 2.848058e+00 3.192186e+00 2.416350e+00 2.985550e+00 2.028235e-01 3.832598e-01 4.145452e-01 3.672831e-01 5.998712e-01 6.224062e-01 5.605197e-01 5.133983e-01 5.805096e-01 4.899748e-01 5.814644e-01 4.370034e-01 4.754601e-01
<GCONST> 1.249712e+02
<TRANSP> 5
 0.000000e+00 1.000000e+00 0.000000e+00 0.000000e+00 0.000000e+00
 0.000000e+00 6.559169e-01 3.440831e-01 0.000000e+00 0.000000e+00
 0.000000e+00 0.000000e+00 5.130783e-01 4.869217e-01 0.000000e+00
 0.000000e+00 0.000000e+00 0.000000e+00 5.002770e-01 4.997229e-01
 0.000000e+00 0.000000e+00 0.000000e+00 0.000000e+00 0.000000e+00
<ENDHMM>
~h "AH"
<BEGINHMM>
<NUMSTATES> 5
<STATE> 2
<MEAN> 39
 -2.604961e-01 -3.217253e+00 -4.536264e-01 -1.948229e+00 1.836109e-02 -1.712562e+01 6.061111e+00 6.309862e+00 -8.106463e+00 -1.388771e+01 8.052350e+00 6.304596e+00 6.869538e+01 1.480752e+00 -1.196916e+00 -1.559081e+00 -6.117706e-01 -1.559987e+00 -3.335948e+00 9.880412e-01 1.439116e+00 -9.705681e-01 -1.249713e+00 1.711035e+00 6.130998e-01 2.188474e+00 -4.960149e-01 8.471583e-02 1.926130e-01 2.153977e-01 2.385392e-01 9.296127e-01 1.317133e-01 -3.138642e-01 3.622572e-01 5.991184e-01 -3.871197e-01 -2.728595e-01 -6.841379e-01
<VARIANCE> 39
 2.647590e+01 2.166780e+01 2.794742e+01 3.457644e+01 6.873571e+01 8.041870e+01 8.832562e+01 8.628783e+01 7.682960e+01 7.017335e+01 3.763141e+01 2.924641e+01 5.738967e+01 3.478795e+00 2.835766e+00 2.213161e+00 2.875444e+00 3.814740e+00 6.632456e+00 6.922482e+00 4.632647e+00 4.344358e+00 5.533006e+00 3.720917e+00 3.012081e+00 4.275518e+00 6.744485e-01 5.754753e-01 5.558804e-01 4.872811e-01 7.456101e-01 1.373467e+00 9.510548e-01 8.082645e-01 8.955007e-01 9.108097e-01 7.230803e-01 6.257521e-01 8.933889e-01
<GCONST> 1.363912e+02
<STATE> 3
<MEAN> 39
 1.318360e+00 -6.085324e+00 -2.314121e+00 -2.311883e+00 -3.744423e+00 -2.141404e+01 1.078578e+01 8.254652e+00 -9.052283e+00 -1.370558e+01 9.800479e+00 6.791132e+00 7.194078e+01 -4.661494e-03 3.712823e-01 1.633313e-01 3.727958e-02 7.510667e-02 3.750745e-01 1.971720e-01 -3.794621e-01 -1.568125e-01 8.629376e-02 -2.917944e-01 -9.259811e-02 -3.653906e-01 -1.598647e-01 5.201402e-01 4.113452e-01 2.263807e-01 4.924467e-01 8.342852e-01 -4.545480e-01 -3.097889e-01 2.054309e-01 1.461294e-01 -5.622424e-01 -2.143576e-01 -6.845339e-01
<VARIANCE> 39
 8.961553e+00 1.613555e+01 2.032702e+01 2.669785e+01 6.005111e+01 4.335365e+01 8.624437e+01 7.842681e+01 5.535574e+01 5.142575e+01 2.954337e+01 2.509776e+01 1.302001e+01 4.371179e-01 1.505355e+00 1.263955e+00 1.403953e+00 3.116990e+00 2.663353e+00 3.717497e+00 3.420201e+00 2.899147e+00 2.608045e+00 2.393436e+00 1.898387e+00 9.502439e-01 1.921828e-01 2.267135e-01 2.546531e-01 2.837972e-01 3.505314e-01 6.892281e-01 6.042432e-01 5.671878e-01 5.902722e-01 5.852783e-01 4.892630e-01 3.886046e-01 2.248213e-01
<GCONST> 1.125932e+02
<STATE> 4
<MEAN> 39
 2.029056e-02 -7.736913e-02 -1.122581e-01 -1.899987e+00 -4.568888e-01 -1.496514e+01 7.915827e+00 4.363354e+00 -9.350945e+00 -1.261042e+01 5.920881e+00 6.225478e+00 6.502890e+01 -4.302574e-01 1.602135e+00 7.162876e-01 6.115285e-01 9.515330e-01 2.520717e+00 -1.014890e+00 -2.596300e-01 9.684930e-01 1.024056e+00 -1.432045e+00 -4.796647e-01 -2.799255e+00 -2.649348e-01 -1.602470e-01 6.989983e-02 6.008321e-02 -1.198941e-02 2.755461e-01 -7.450654e-02 1.023000e-01 3.013440e-01 3.670309e-01 -1.201137e-03 -1.117103e-01 -1.909328e-01
<VARIANCE> 39
 1.424171e+01 2.204336e+01 2.799729e+01 3.387704e+01 6.991080e+01 5.627375e+01 6.992944e+01 7.478108e+01 5.299552e+01 6.457608e+01 3.633377e+01 2.928235e+01 5.219763e+01 2.054533e+00 1.720632e+00 2.473785e+00 2.639244e+00 3.747166e+00 3.846563e+00 4.290516e+00 4.356339e+00 3.622078e+00 3.703458e+00 3.039819e+00 2.645713e+00 2.242956e+00 3.107516e-01 3.738296e-01 4.389488e-01 4.192003e-01 6.092551e-01 7.324899e-01 5.968470e-01 7.319649e-01 6.553812e-01 6.000487e-01 5.435315e-01 4.455019e-01 5.708998e-01
<GCONST> 1.260152e+02
<TRANSP> 5
 0.000000e+00 1.000000e+00 0.000000e+00 0.000000e+00 0.000000e+00
 0.000000e+00 5.175284e-01 4.824716e-01 0.000000e+00 0.000000e+00
 0.000000e+00 0.000000e+00 7.121339e-01 2.878661e-01 0.000000e+00
 0.000000e+00 0.000000e+00 0.000000e+00 5.668014e-01 4.331986e-01
 0.000000e+00 0.000000e+00 0.000000e+00 0.000000e+00 0.000000e+00
<ENDHMM>
~h "AX"
<BEGINHMM>
<NUMSTATES> 5
<STATE> 2
<MEAN> 39
 -5.133941e-01 4.500856e-01 5.330914e+00 -3.795555e+00 7.036882e+00 -7.405375e+00 2.883092e+00 8.578129e-01 -5.679886e+00 -1.707321e+01 1.618540e+00 3.774601e+00 6.696572e+01 3.815948e+00 1.453269e+00 -5.272082e-01 -5.275146e-01 -2.111761e+00 -5.788748e+00 -1.407206e+00 3.747978e+00 -2.163267e-01 -3.261907e+00 2.497765e-01 -5.854072e-01 1.378603e+00 -9.199412e-01 -9.990507e-01 -4.656803e-01 1.775967e-01 5.880978e-03 -6.224519e-02 -1.607052e-01 -1.398392e-01 3.302367e-01 5.970992e-01 3.974183e-01 -1.597249e-02 1.458565e-01
<VARIANCE> 39
 1.282430e+01 1.516764e+01 1.563654e+01 1.190041e+01 3.590015e+01 4.272779e+01 4.023921e+01 4.792595e+01 4.009473e+01 2.705016e+01 2.746221e+01 2.425295e+01 1.393018e+01 1.822796e+00 7.155524e+00 1.291228e+00 2.844686e+00 2.341276e+00 3.160624e+00 4.161216e+00 3.378690e+00 3.420192e+00 2.630426e+00 2.031704e+00 3.721510e+00 5.526926e-01 6.006218e-01 8.586620e-01 2.121955e-01 1.553149e-01 3.063048e-01 9.320290e-01 6.264330e-01 6.130970e-01 7.449794e-01 5.695302e-01 4.197409e-01 7.913388e-01 2.798122e-01
<GCONST> 1.158209e+02
<STATE> 3
<MEAN> 39
 2.813996e+00 -1.211131e+00 2.219023e+00 -4.568380e+00 3.742738e+00 -1.698827e+01 1.897212e+00 8.499535e+00 -4.802666e+00 -2.152897e+01 3.585922e+00 4.329264e+00 6.939860e+01 9.164615e-01 -2.954223e-01 -1.203049e+00 -2.510673e-02 -1.127850e+00 -2.844448e+00 1.496676e-01 2.226649e+00 1.735559e-02 -4.725479e-01 9.694243e-01 -4.117376e-01 2.835372e-01 -9.132283e-01 -3.103687e-01 2.074333e-01 2.631059e-01 4.274682e-01 1.343689e+00 3.078536e-01 -1.101368e+00 -1.708591e-01 9.453073e-01 4.423689e-04 7.324652e-02 -3.540650e-01
<VARIANCE> 39
 7.213117e+00 9.146440e+00 1.875727e+01 2.209291e+01 3.098019e+01 3.136057e+01 4.912917e+01 4.752450e+01 3.987679e+01 2.035420e+01 1.735909e+01 2.870593e+01 7.394949e+00 5.341703e-01 7.536408e-01 5.580600e-01 1.236063e+00 8.849353e-01 3.932282e+00 3.038458e+00 3.771397e+00 2.371242e+00 1.942324e+00 2.036452e+00 1.921017e+00 5.193298e-01 2.356324e-01 5.291542e-01 1.396529e-01 2.748930e-01 2.421176e-01 6.314997e-01 6.191247e-01 5.338416e-01 5.228623e-01 3.470515e-01 4.927103e-01 6.772941e-01 5.089079e-02
<GCONST> 1.019704e+02
<STATE> 4
<MEAN> 39
 2.926307e+00 -1.380841e+00 1.821180e+00 -3.501599e+00 -2.404039e-01 -1.972977e+01 4.517924e+00 9.466481e+00 -5.740773e+00 -1.923610e+01 4.707695e+00 3.207480e+00 6.916580e+01 -4.552004e-01 4.154086e-01 4.546607e-01 2.770035e-01 -9.521113e-02 9.879290e-01 1.951619e-02 -1.067982e+00 -3.640719e-01 7.192914e-01 -4.092015e-01 1.206562e-01 -7.055236e-01 -4.257829e-01 2.994813e-01 3.605744e-01 2.503994e-02 4.710841e-01 9.525378e-01 -2.350436e-01 -6.417593e-01 1.152680e-01 4.350928e-01 -3.130235e-01 5.743839e-02 -4.456622e-01
<VARIANCE> 39
 6.546968e+00 6.198735e+00 2.395249e+01 2.224666e+01 4.798272e+01 3.820559e+01 5.396158e+01 5.170572e+01 2.827665e+01 1.915203e+01 1.422195e+01 2.481460e+01 7.162892e+00 6.167068e-01 1.084766e+00 1.604434e+00 1.515184e+00 2.772147e+00 3.341994e+00 2.155105e+00 3.303356e+00 2.069978e+00 2.028145e+00 3.403099e+00 1.590045e+00 1.639212e+00 1.902702e-01 1.660843e-01 3.537175e-01 3.092538e-01 3.683041e-01 6.914134e-01 4.297094e-01 5.761729e-01 4.222594e-01 4.375957e-01 6.861295e-01 4.188241e-01 2.549142e-01
<GCONST> 1.067950e+02
<TRANSP> 5
 0.000000e+00 1.000000e+00 0.000000e+00 0.000000e+00 0.000000e+00
 0.000000e+00 4.525908e-01 5.474092e-01 0.000000e+00 0.000000e+00
 0.000000e+00 0.000000e+00 5.369611e-01 4.630390e-01 0.000000e+00
 0.000000e+00 0.000000e+00 0.000000e+00 6.971673e-01 3.028326e-01
 0.000000e+00 0.000000e+00 0.000000e+00 0.000000e+00 0.000000e+00
<ENDHMM>
~h "BH"
<BEGINHMM>
<NUMSTATES> 5
<STATE> 2
<MEAN> 39
 -2.190284e+00 8.702426e+00 6.647717e+00 7.104931e+00 6.494811e+00 -7.890019e-01 3.419996e+00 5.199767e+00 -2.544763e-02 -5.327606e+00 -1.535862e+00 -4.636721e-01 5.266361e+01 -1.882050e+00 -2.910241e-01 5.530900e-02 -6.450014e-01 2.472757e-01 1.232915e+00 1.446612e+00 -1.330286e+00 6.318038e-01 1.529373e+00 -4.898657e-02 1.386930e-01 3.249648e-01 -3.188423e-01 -9.043822e-01 -1.643339e-01 -6.848987e-01 1.836108e-01 -3.179529e-01 1.197795e-01 -2.973256e-02 -4.391187e-02 -5.297843e-01 3.623887e-01 4.424751e-01 1.042441e+00
<VARIANCE> 39
 4.150338e+01 2.000601e+01 2.122517e+01 2.925739e+01 3.590426e+01 4.820712e+01 2.946266e+01 4.746308e+01 3.623867e+01 3.347581e+01 2.298319e+01 2.869747e+01 3.284582e+01 6.419037e+00 4.150742e+00 2.103370e+00 4.028102e+00 2.910165e+00 4.960367e+00 4.229301e+00 4.323428e+00 3.217810e+00 5.522613e+00 2.766309e+00 3.378761e+00 5.721035e+00 9.735187e-01 4.151779e-01 3.656146e-01 5.554324e-01 6.213463e-01 6.794551e-01 7.221713e-01 1.183709e+00 5.400121e-01 7.624714e-01 4.959553e-01 4.922822e-01 5.797692e-01
<GCONST> 1.281043e+02
<STATE> 3
<MEAN> 39
 -1.076222e+01 5.276653e-01 3.124046e+00 2.918291e-01 8.891899e+00 2.979816e+00 9.596851e+00 1.512554e-01 8.980477e-01 -3.307199e+00 1.830369e+00 4.597986e+00 6.120884e+01 -4.153526e-01 -1.812613e+00 1.256291e-01 -1.728681e+00 2.834214e-01 1.609686e-01 1.402899e+00 1.173687e+00 9.173926e-01 -8.539253e-02 9.604868e-01 1.214366e+00 2.122423e+00 1.057251e+00 4.639771e-01 6.651297e-01 3.237413e-01 -2.574213e-01 -8.284468e-01 -5.230545e-01 8.747247e-01 8.210294e-02 -6.521474e-01 -2.067675e-01 -2.733618e-01 -1.441256e-01
<VARIANCE> 39
 2.406994e+01 1.784006e+01 1.986106e+01 2.304051e+01 3.814428e+01 2.762522e+01 2.373244e+01 3.409135e+01 2.812861e+01 2.163933e+01 2.003401e+01 1.879998e+01 2.067885e+01 3.472435e+00 2.694836e+00 3.446689e+00 3.549078e+00 5.984843e+00 4.873807e+00 4.647069e+00 6.880091e+00 4.668035e+00 3.625400e+00 2.571558e+00 3.043971e+00 2.271497e+00 4.117667e-01 5.558690e-01 5.494866e-01 5.536104e-01 5.953130e-01 7.055633e-01 9.100326e-01 9.476018e-01 5.910580e-01 6.413420e-01 5.307643e-01 5.147690e-01 4.408740e-01
<GCONST> 1.234118e+02
<STATE> 4
<MEAN> 39
 -6.423968e+00 -9.614659e-01 8.923291e+00 -4.165520e+00 2.852223e+00 -3.739211e+00 1.487197e+01 1.148748e+01 6.014580e+00 -7.396941e+00 1.737206e+00 5.455457e+00 6.543757e+01 1.030621e+00 3.396487e-01 5.598404e-01 -3.743254e-01 -5.643690e-01 -1.721108e+00 -4.770226e-01 4.802306e-01 -4.031435e-01 -1.610401e+00 -6.635988e-02 -2.745614e-01 1.093981e+00 2.583660e-01 3.314779e-01 -3.733001e-01 2.580829e-01 8.935506e-02 -3.182417e-01 -7.871519e-01 -5.418903e-01 -4.944838e-01 -2.419149e-01 -3.215593e-02 -1.605027e-01 -1.669432e-01
<VARIANCE> 39
 1.316805e+01 2.431550e+01 2.657223e+01 2.595986e+01 7.545156e+01 4.673430e+01 5.684518e+01 6.021590e+01 4.833113e+01 4.258895e+01 2.709863e+01 2.454765e+01 1.728296e+01 1.458744e+00 2.459811e+00 3.621417e+00 1.915137e+00 3.117751e+00 3.656826e+00 5.661078e+00 4.967151e+00 3.796937e+00 2.746927e+00 2.426179e+00 2.047955e+00 7.559881e-01 1.624579e-01 4.224939e-01 4.803702e-01 3.826490e-01 5.028427e-01 6.748431e-01 5.005112e-01 7.171190e-01 6.190515e-01 5.423003e-01 4.780919e-01 4.950794e-01 1.652817e-01
<GCONST> 1.191101e+02
<TRANSP> 5
 0.000000e+00 1.000000e+00 0.000000e+00 0.000000e+00 0.000000e+00
 0.000000e+00 6.946508e-01 3.053493e-01 0.000000e+00 0.000000e+00
 0.000000e+00 0.000000e+00 6.117854e-01 3.882146e-01 0.000000e+00
 0.000000e+00 0.000000e+00 0.000000e+00 7.345014e-01 2.654986e-01
 0.000000e+00 0.000000e+00 0.000000e+00 0.000000e+00 0.000000e+00
<ENDHMM>
~h "CH"
<BEGINHMM>
<NUMSTATES> 5
<STATE> 2
<MEAN> 39
 -2.424301e+01 -5.964864e+00 1.322239e+01 -5.485077e+00 2.580536e+00 -1.740772e+00 4.481998e+00 -5.321926e+00 -1.870592e+00 -2.634567e+00 3.886356e+00 2.904932e+00 6.300102e+01 -2.277862e+00 -2.678087e+00 5.107586e-01 -3.834318e-01 -6.926815e-01 4.628076e-01 -3.148570e-02 -6.463655e-01 6.937380e-01 7.650498e-01 1.177300e+00 2.279193e-01 1.870134e+00 9.322084e-01 5.595154e-02 -5.585048e-01 3.777035e-01 3.298479e-01 -1.785108e-01 -8.619076e-02 -2.463596e-01 -3.306104e-01 -6.084416e-02 5.199205e-02 7.061767e-02 -1.230401e-02
<VARIANCE> 39
 5.806414e+01 7.322990e+01 4.082028e+01 4.958786e+01 3.528280e+01 3.206550e+01 2.946987e+01 4.259088e+01 2.854196e+01 2.853820e+01 2.805922e+01 2.309478e+01 5.798270e+01 8.328969e+00 3.686181e+00 7.152658e+00 4.692321e+00 4.161132e+00 3.621479e+00 3.726674e+00 4.289512e+00 3.085359e+00 3.449604e+00 2.382533e+00 2.179246e+00 5.150057e+00 1.271113e+00 1.266230e+00 1.097371e+00 7.420048e-01 7.816170e-01 6.862806e-01 8.856969e-01 7.960023e-01 5.453591e-01 6.223364e-01 5.618238e-01 3.743874e-01 1.634569e+00
<GCONST> 1.342712e+02
<STATE> 3
<MEAN> 39
 -2.210631e+01 -1.525774e+01 8.152860e+00 -3.170166e+00 3.984688e+00 -1.682226e+00 2.060575e+00 -1.213143e+01 -2.225917e+00 1.993896e+00 8.552874e+00 4.313479e+00 6.707751e+01 3.788107e+00 1.118827e+00 -9.743084e-01 1.219339e+00 1.976784e+00 -2.603646e-01 -7.327644e-01 -3.726640e-01 -8.283499e-01 2.537930e-01 -8.020422e-01 -4.011457e-01 -1.380828e+00 7.040755e-01 1.024977e+00 4.752521e-01 2.866423e-01 3.216125e-01 -3.188250e-01 4.635062e-02 5.982991e-01 -3.136148e-01 -4.650992e-01 -5.498949e-01 -3.560454e-01 -1.849060e-01
<VARIANCE> 39
 3.008175e+01 9.023459e+00 1.506870e+01 2.023532e+01 2.312926e+01 2.116379e+01 2.111280e+01 2.687723e+01 2.111628e+01 3.689658e+01 1.962831e+01 1.878995e+01 1.562521e+01 2.013893e+00 3.091025e+00 2.524260e+00 2.751152e+00 1.939427e+00 2.930002e+00 2.883648e+00 3.278783e+00 1.776491e+00 2.161174e+00 2.401529e+00 1.568776e+00 6.547161e-01 4.339454e-01 2.351840e-01 3.601366e-01 2.491792e-01 3.862797e-01 4.679366e-01 5.627857e-01 4.520681e-01 4.420546e-01 3.955254e-01 4.138864e-01 2.961930e-01 5.125177e-01
<GCONST> 1.085678e+02
<STATE> 4
<MEAN> 39
 -7.496697e+00 -5.371225e+00 9.125442e+00 3.718938e+00 1.214984e+01 -3.944837e+00 9.596215e-01 -9.860086e+00 -6.239695e+00 1.409305e+00 2.762636e+00 1.175078e+00 6.345636e+01 3.946487e+00 2.902167e+00 -5.107466e-01 1.781278e+00 1.732908e+00 -2.658386e+00 -4.803472e-01 5.892206e-01 -2.415218e+00 -1.194630e+00 -8.788379e-01 -9.037824e-01 4.619796e-01 -8.388605e-01 -6.023945e-01 -3.284011e-01 -3.681045e-01 -7.063168e-01 -5.607833e-01 -5.870624e-02 -5.034418e-02 -1.601314e-01 -2.835981e-01 5.621845e-01 1.600091e-01 4.770966e-01
<VARIANCE> 39
 2.217310e+01 2.239273e+01 2.645104e+01 3.470581e+01 2.527732e+01 5.238391e+01 4.436897e+01 5.075459e+01 3.629639e+01 5.630221e+01 2.168565e+01 1.894244e+01 1.400728e+01 2.514756e+00 2.575801e+00 2.623467e+00 2.806949e+00 2.907567e+00 3.371145e+00 4.193992e+00 3.498731e+00 3.901951e+00 3.905063e+00 2.972220e+00 1.774608e+00 1.170411e+00 3.392543e-01 5.148128e-01 3.246306e-01 3.756277e-01 3.170725e-01 6.689650e-01 7.343246e-01 4.869055e-01 5.707009e-01 4.006424e-01 4.038903e-01 2.617012e-01 2.332215e-01
<GCONST> 1.176659e+02
<TRANSP> 5
 0.000000e+00 1.000000e+00 0.000000e+00 0.000000e+00 0.000000e+00
 0.000000e+00 8.204189e-01 1.795811e-01 0.000000e+00 0.000000e+00
 0.000000e+00 0.000000e+00 7.257626e-01 2.742374e-01 0.000000e+00
 0.000000e+00 0.000000e+00 0.000000e+00 5.372940e-01 4.627060e-01
 0.000000e+00 0.000000e+00 0.000000e+00 0.000000e+00 0.000000e+00
<ENDHMM>
~h "DH"
<BEGINHMM>
<NUMSTATES> 5
<STATE> 2
<MEAN> 39
 -4.217778e+00 7.686650e+00 6.963101e+00 5.595328e+00 3.183290e+00 -1.472882e+00 4.556483e+00 3.343994e+00 -2.659679e+00 -5.241807e+00 -1.169527e+00 1.345126e-01 5.111391e+01 -2.528389e+00 -1.763377e+00 -6.194534e-01 -1.155261e+00 1.960864e-01 1.085726e+00 5.807366e-01 -2.000538e+00 6.981115e-01 1.953943e+00 5.154693e-01 7.408106e-01 1.523795e+00 -4.594646e-01 -1.029964e+00 8.677505e-02 -7.708252e-01 3.394937e-01 -9.215959e-02 1.897549e-01 -5.885352e-01 -1.582333e-01 -4.889518e-01 4.212546e-01 4.488646e-01 1.693004e+00
<VARIANCE> 39
 4.271517e+01 2.387808e+01 2.967099e+01 3.902147e+01 5.569095e+01 4.656325e+01 4.259062e+01 6.551559e+01 3.427312e+01 4.789263e+01 2.702416e+01 2.518082e+01 3.491137e+01 5.041346e+00 6.643706e+00 2.513149e+00 5.132233e+00 4.126513e+00 4.182260e+00 5.194134e+00 7.590364e+00 3.517902e+00 5.221089e+00 3.339530e+00 3.162657e+00 1.302559e+01 1.028102e+00 6.500724e-01 5.595428e-01 8.091532e-01 6.119102e-01 6.014799e-01 8.750649e-01 1.368567e+00 5.564191e-01 8.523691e-01 4.915205e-01 4.697854e-01 8.255702e-01
<GCONST> 1.349404e+02
<STATE> 3
<MEAN> 39
 -1.546468e+01 -4.580088e+00 4.867936e+00 -2.515860e+00 5.044253e+00 1.825282e+00 8.057351e+00 -7.333481e+00 -1.447839e+00 -8.592262e-01 3.651680e+00 5.861387e+00 6.673010e+01 -9.748420e-01 -2.023890e+00 3.923765e-01 -1.981563e+00 1.435728e+00 1.248229e+00 1.034163e+00 -9.124915e-01 -2.569557e-01 -1.549161e-01 1.100804e+00 1.296526e+00 2.872100e+00 1.450695e+00 1.148938e+00 5.799776e-01 5.958284e-01 2.569503e-01 -4.545392e-01 -2.757689e-01 1.428930e+00 -1.245867e-01 -1.026088e+00 -4.782613e-01 -5.140830e-01 -1.228512e+00
<VARIANCE> 39
 9.668533e+00 1.175101e+01 1.276174e+01 2.005278e+01 1.826353e+01 1.951643e+01 3.749788e+01 2.479761e+01 2.634263e+01 2.359607e+01 2.178170e+01 2.057978e+01 2.237460e+01 4.935901e+00 3.845329e+00 2.766939e+00 3.620234e+00 4.444784e+00 3.811148e+00 4.464141e+00 8.580911e+00 3.635636e+00 5.820083e+00 3.074052e+00 3.387149e+00 7.393621e+00 3.777016e-01 5.387667e-01 4.377474e-01 6.591757e-01 6.604713e-01 8.581967e-01 8.817233e-01 8.717189e-01 7.507688e-01 8.398199e-01 6.670210e-01 5.495425e-01 7.649611e-01
<GCONST> 1.240316e+02
<STATE> 4
<MEAN> 39
 -9.209973e+00 -2.372882e+00 9.104810e+00 -4.082677e+00 9.226554e+00 2.045035e+00 1.126857e+01 1.468440e+00 -9.017081e-01 -6.617701e+00 2.476432e+00 5.526184e+00 6.493732e+01 1.905265e+00 1.453279e+00 1.249774e+00 3.816704e-01 4.632704e-01 -1.421636e+00 -5.407776e-01 1.656001e+00 -3.078589e-02 -2.172166e+00 -6.414961e-01 -6.595290e-01 4.687496e-03 2.567648e-01 3.967161e-01 -2.462144e-01 2.921799e-01 -5.011359e-01 -7.400432e-01 -6.845323e-01 -1.235192e-01 -1.063768e-01 -2.137391e-01 -8.295714e-02 -1.942566e-01 -6.188972e-02
<VARIANCE> 39
 1.491613e+01 2.218006e+01 2.420593e+01 2.417214e+01 5.407227e+01 3.667080e+01 6.063024e+01 6.983983e+01 3.816138e+01 5.199063e+01 2.784616e+01 2.225411e+01 1.653270e+01 1.148842e+00 2.133765e+00 2.722639e+00 2.425598e+00 4.465429e+00 3.687624e+00 4.830530e+00 4.288322e+00 3.422203e+00 3.726394e+00 2.855057e+00 1.872634e+00 1.247093e+00 3.083790e-01 5.212967e-01 4.946141e-01 5.039718e-01 5.145212e-01 5.999894e-01 5.317375e-01 8.724855e-01 6.118928e-01 6.783447e-01 5.244974e-01 4.539447e-01 4.287279e-01
<GCONST> 1.213591e+02
<TRANSP> 5
 0.000000e+00 1.000000e+00 0.000000e+00 0.000000e+00 0.000000e+00
 0.000000e+00 6.171709e-01 3.828291e-01 0.000000e+00 0.000000e+00
 0.000000e+00 0.000000e+00 6.096597e-01 3.903403e-01 0.000000e+00
 0.000000e+00 0.000000e+00 0.000000e+00 6.988019e-01 3.011981e-01
 0.000000e+00 0.000000e+00 0.000000e+00 0.000000e+00 0.000000e+00
<ENDHMM>
~h "DX"
<BEGINHMM>
<NUMSTATES> 5
<STATE> 2
<MEAN> 39
 8.468528e-01 5.792765e+00 1.920277e+00 1.866702e+00 1.283821e+01 1.718711e+00 -1.378373e+00 1.797946e+00 -8.385193e+00 -9.235117e+00 1.448728e+00 2.986845e+00 5.547031e+01 -2.044398e-01 1.657501e+00 1.190460e-01 1.655918e+00 -9.337440e-01 1.570153e+00 1.643777e+00 2.876985e-02 6.588756e-01 1.400173e+00 -5.288638e-01 1.664396e-02 -1.929599e+00 -3.423735e-01 -5.626786e-01 1.003669e-01 3.123529e-02 -1.401378e-01 -9.960401e-01 -1.536048e-01 -2.070469e-01 4.489660e-02 -3.567798e-01 1.182216e-01 -3.118753e-02 8.876667e-01
<VARIANCE> 39
 4.338792e+01 2.650363e+01 4.136761e+01 1.280682e+02 4.524249e+01 5.259724e+01 5.952951e+01 4.196008e+01 6.675592e+01 1.032945e+02 5.568460e+01 3.073878e+01 5.331186e+01 2.676745e+00 2.212053e+00 2.353525e+00 4.456501e+00 4.409120e+00 4.313142e+00 5.644759e+00 3.319428e+00 6.211862e+00 4.536182e+00 3.442949e+00 2.390664e+00 3.960719e+00 5.096706e-01 6.401717e-01 5.076975e-01 1.052835e+00 8.196639e-01 1.010875e+00 1.160844e+00 7.860869e-01 1.187114e+00 1.101697e+00 7.924795e-01 5.140139e-01 8.624934e-01
<GCONST> 1.371815e+02
<STATE> 3
<MEAN> 39
 6.873270e-03 1.057465e+01 4.536080e+00 8.965840e+00 1.127639e+01 2.975891e+00 5.848196e-01 2.370255e-01 -5.966135e+00 -4.428613e+00 4.352328e-01 1.300645e+00 5.090837e+01 -9.899572e-01 -1.120486e+00 1.905529e-01 8.182692e-02 -3.126374e-01 -1.256896e+00 7.322310e-01 -6.125473e-01 -1.449884e-01 -3.207178e-01 6.690634e-02 2.360903e-01 1.666751e+00 -2.750815e-01 -1.280863e+00 2.328829e-02 -5.935144e-01 2.768726e-01 -1.118934e+00 -3.619388e-01 -1.024854e-01 -4.022702e-01 -7.231330e-01 3.836122e-01 1.586692e-01 1.397712e+00
<VARIANCE> 39
 2.091560e+01 2.458158e+01 3.411676e+01 4.497674e+01 2.368186e+01 3.533485e+01 3.240847e+01 2.718234e+01 3.503677e+01 4.362812e+01 3.844550e+01 2.502461e+01 2.678417e+01 4.335697e+00 5.024765e+00 3.012905e+00 4.251731e+00 3.271602e+00 4.752864e+00 4.590797e+00 3.688164e+00 4.844082e+00 4.137217e+00 4.081683e+00 3.028579e+00 4.882229e+00 4.908392e-01 5.029582e-01 6.418499e-01 4.998123e-01 7.070032e-01 1.049977e+00 1.059766e+00 7.516404e-01 7.559447e-01 8.885334e-01 8.222658e-01 6.689157e-01 9.370493e-01
<GCONST> 1.304359e+02
<STATE> 4
<MEAN> 39
 -6.247202e+00 -5.500808e-02 4.433215e+00 5.450552e+00 1.193431e+01 -3.688607e+00 2.693016e+00 -2.516608e+00 -6.748508e+00 -7.033286e+00 8.498740e-01 2.731616e+00 6.218644e+01 -5.606906e-01 -2.934232e+00 3.355181e-01 -1.062021e+00 1.788600e-02 -3.094887e+00 -7.502373e-01 -3.609596e-01 -1.180067e+00 -2.097702e+00 1.099289e+00 7.805380e-01 3.661472e+00 7.061881e-01 2.191009e-01 -2.525715e-02 -2.643158e-01 -3.258094e-02 -2.685844e-01 -6.212554e-01 4.364348e-01 -1.604322e-01 -4.442784e-01 3.313881e-01 -2.018756e-02 -1.581039e-01
<VARIANCE> 39
 2.389637e+01 3.813409e+01 3.898659e+01 4.045908e+01 3.446276e+01 4.527060e+01 4.571799e+01 4.962344e+01 5.459069e+01 7.301861e+01 3.421922e+01 3.053469e+01 5.636262e+01 2.926538e+00 5.556298e+00 5.658814e+00 3.985066e+00 5.620249e+00 9.225366e+00 6.634356e+00 5.401793e+00 5.157421e+00 7.377572e+00 6.666922e+00 5.756008e+00 8.875230e+00 4.150389e-01 9.965397e-01 7.762039e-01 8.073468e-01 1.073365e+00 1.182058e+00 1.496502e+00 8.625798e-01 1.079894e+00 1.083724e+00 8.770820e-01 6.327874e-01 1.114469e+00
<GCONST> 1.419305e+02
<TRANSP> 5
 0.000000e+00 1.000000e+00 0.000000e+00 0.000000e+00 0.000000e+00
 0.000000e+00 4.227582e-01 5.772418e-01 0.000000e+00 0.000000e+00
 0.000000e+00 0.000000e+00 5.543594e-01 4.456406e-01 0.000000e+00
 0.000000e+00 0.000000e+00 0.000000e+00 4.577614e-01 5.422387e-01
 0.000000e+00 0.000000e+00 0.000000e+00 0.000000e+00 0.000000e+00
<ENDHMM>
~h "EH"
<BEGINHMM>
<NUMSTATES> 5
<STATE> 2
<MEAN> 39
 -5.718390e+00 -3.536541e+00 3.594146e-01 2.975062e+00 8.081787e+00 -1.186497e+01 -1.088457e+00 -2.919143e+00 -9.559083e+00 -3.396165e+00 1.038360e+01 4.099359e+00 6.232822e+01 1.574295e+00 -1.931025e+00 -1.584641e+00 -3.026010e-01 -3.877884e-01 -3.344818e+00 1.305138e-01 -6.685027e-01 -1.644145e+00 4.369643e-01 2.773586e+00 2.753342e-01 3.564400e+00 6.218192e-03 1.362523e-01 -9.466201e-02 1.152494e-01 -2.311539e-01 2.590731e-01 3.128232e-01 1.335741e-01 2.986965e-01 2.905255e-01 -1.254183e-01 -2.049006e-01 -1.927134e-01
<VARIANCE> 39
 5.725714e+01 3.170720e+01 3.791012e+01 3.606492e+01 4.642548e+01 1.018727e+02 5.880701e+01 5.631753e+01 1.053591e+02 9.933783e+01 4.355446e+01 2.584260e+01 1.537790e+02 4.395919e+00 3.684179e+00 3.208906e+00 2.972978e+00 3.519461e+00 8.188580e+00 4.856756e+00 3.714895e+00 5.969027e+00 4.696201e+00 5.703694e+00 3.728187e+00 9.329316e+00 9.144245e-01 8.432925e-01 7.045462e-01 5.428407e-01 6.234720e-01 1.685297e+00 8.538504e-01 7.276198e-01 1.296889e+00 8.359492e-01 9.329931e-01 5.872998e-01 2.255760e+00
<GCONST> 1.428488e+02
<STATE> 3
<MEAN> 39
 -7.455425e-01 -8.366101e+00 -4.091032e+00 2.928172e+00 5.746039e+00 -2.057434e+01 1.665179e+00 -4.804392e+00 -1.395588e+01 -1.911286e+00 1.740985e+01 3.694773e+00 7.331985e+01 3.205230e-02 4.265878e-01 -1.113875e-01 2.506897e-01 -9.384896e-02 -5.035619e-02 6.747828e-01 -2.117988e-01 2.045338e-01 8.692639e-02 -8.567130e-02 -2.114321e-01 -6.825159e-02 -1.988588e-01 6.731128e-01 4.646359e-01 7.667570e-02 2.668170e-01 7.672244e-01 -1.057864e-01 1.048813e-01 3.463748e-01 -3.142557e-01 -8.585005e-01 -1.573694e-01 -8.704702e-01
<VARIANCE> 39
 7.942606e+00 1.468135e+01 2.050892e+01 2.402050e+01 4.268139e+01 2.862201e+01 4.611678e+01 4.912460e+01 4.567865e+01 7.571772e+01 2.717844e+01 2.564821e+01 1.128645e+01 4.052532e-01 1.934959e+00 1.671848e+00 1.723499e+00 3.358546e+00 2.577809e+00 2.925391e+00 2.976243e+00 2.541084e+00 4.365805e+00 3.386395e+00 2.050778e+00 1.408702e+00 2.124958e-01 2.162957e-01 2.370515e-01 3.075458e-01 4.138169e-01 7.017556e-01 5.426353e-01 4.976000e-01 6.244368e-01 5.826575e-01 5.802459e-01 4.190772e-01 3.108487e-01
<GCONST> 1.125753e+02
<STATE> 4
<MEAN> 39
 -2.620624e+00 -9.255378e-01 -1.506393e+00 4.158717e+00 8.862057e+00 -1.580188e+01 1.230104e+00 -6.565945e+00 -1.149580e+01 -2.707284e+00 1.199107e+01 2.174531e+00 6.544307e+01 -6.690153e-01 1.786072e+00 6.667275e-01 -1.730579e-01 -1.818183e-01 2.257112e+00 -4.012813e-01 7.552004e-01 1.619378e+00 2.899378e-01 -1.774646e+00 5.623360e-02 -3.288312e+00 -2.140088e-01 -2.868328e-01 -5.631638e-02 -1.625225e-01 -4.110218e-01 3.031264e-01 -1.044018e-01 2.117127e-01 1.833053e-01 2.396757e-01 8.430081e-03 7.444637e-02 -1.773618e-01
<VARIANCE> 39
 1.763405e+01 1.768744e+01 3.352221e+01 3.771406e+01 6.411036e+01 4.264569e+01 5.740236e+01 6.310630e+01 5.122101e+01 8.123196e+01 4.169220e+01 3.987893e+01 4.704465e+01 2.847514e+00 1.817348e+00 2.379790e+00 2.952491e+00 3.865310e+00 3.442222e+00 3.321901e+00 3.447966e+00 3.219835e+00 4.293627e+00 3.251584e+00 2.751247e+00 1.517269e+00 3.854544e-01 3.488922e-01 5.152237e-01 5.138290e-01 8.560872e-01 6.728556e-01 7.745035e-01 6.708327e-01 6.960716e-01 7.564170e-01 6.354964e-01 5.889396e-01 7.087498e-01
<GCONST> 1.276156e+02
<TRANSP> 5
 0.000000e+00 1.000000e+00 0.000000e+00 0.000000e+00 0.000000e+00
 0.000000e+00 6.373647e-01 3.626353e-01 0.000000e+00 0.000000e+00
 0.000000e+00 0.000000e+00 7.737831e-01 2.262169e-01 0.000000e+00
 0.000000e+00 0.000000e+00 0.000000e+00 6.643090e-01 3.356910e-01
 0.000000e+00 0.000000e+00 0.000000e+00 0.000000e+00 0.000000e+00
<ENDHMM>
~h "EX"
<BEGINHMM>
<NUMSTATES> 5
<STATE> 2
<MEAN> 39
